/* Species # 001         : (size= 014) (AvfFit= 0,000) (Age= 1,000)  */
/*-------------------------------------------------------------------*/
/* Organism # 000 Fitness:  0,000 Error:  0,000                      */
genomestart  0
trait 1 0.0 0.0 0.0 0.0 0.0 0.0 0.0 0.0 
node 1 1 1 3
node 7 1 0 2
node 8 1 0 2
gene  1 1 8 -0.7823504429759275 0 56.0 -0.7823504429759275 1
gene  1 7 8 0.4022466813896578 0 62.0 0.4022466813896578 1
gene  1 8 8 0.21809806690466482 1 63.0 0.21809806690466482 1
genomeend 0
/* Organism # 001 Fitness:  0,000 Error:  0,000                      */
genomestart  1
trait 1 0.0 0.0 0.0 0.0 0.0 0.0 0.0 0.0 
node 1 1 1 3
node 2 1 0 0
node 7 1 0 2
node 8 1 0 2
gene  1 2 2 0.2879658238966748 1 9.0 0.2879658238966748 1
gene  1 2 7 0.40831593107955577 0 49.0 0.40831593107955577 1
gene  1 7 7 -0.6062807274542542 1 54.0 -0.6062807274542542 1
gene  1 1 8 -0.9892503931778577 0 56.0 -0.9892503931778577 1
genomeend 1
/* Organism # 003 Fitness:  0,000 Error:  0,000                      */
genomestart  3
trait 1 0.0 0.0 0.0 0.0 0.0 0.0 0.0 0.0 
node 1 1 1 3
node 2 1 0 0
node 3 1 0 0
node 7 1 0 2
node 8 1 0 2
gene  1 7 2 -0.9098526290782525 1 14.0 -0.9098526290782525 1
gene  1 1 3 0.73847484556337 0 16.0 0.73847484556337 1
gene  1 3 7 -0.3410798174280397 0 50.0 -0.3410798174280397 1
gene  1 1 8 -0.38486542773749766 0 56.0 -0.38486542773749766 1
gene  1 2 8 0.7185450654237826 0 57.0 0.7185450654237826 1
gene  1 8 8 0.27008910245635565 1 63.0 0.27008910245635565 1
genomeend 3
/* Organism # 004 Fitness:  0,000 Error:  0,000                      */
genomestart  4
trait 1 0.0 0.0 0.0 0.0 0.0 0.0 0.0 0.0 
node 1 1 1 3
node 2 1 0 0
node 7 1 0 2
node 8 1 0 2
gene  1 8 2 -0.9702086182474519 1 15.0 -0.9702086182474519 1
gene  1 2 7 0.7972730726403328 0 49.0 0.7972730726403328 1
gene  1 7 7 -0.18131449722075588 1 54.0 -0.18131449722075588 1
gene  1 1 8 0.9953030889093195 0 56.0 0.9953030889093195 1
gene  1 8 8 -0.17043732634036568 1 63.0 -0.17043732634036568 1
genomeend 4
/* Organism # 005 Fitness:  0,000 Error:  0,000                      */
genomestart  5
trait 1 0.0 0.0 0.0 0.0 0.0 0.0 0.0 0.0 
node 1 1 1 3
node 2 1 0 0
node 3 1 0 0
node 4 1 0 0
node 5 1 0 0
node 6 1 0 0
node 7 1 0 2
node 8 1 0 2
gene  1 1 2 -0.30034871130976026 0 8.0 -0.30034871130976026 1
gene  1 7 2 0.419121295243426 1 14.0 0.419121295243426 1
gene  1 8 2 0.2279006545713872 1 15.0 0.2279006545713872 1
gene  1 2 3 0.28400597250148585 0 17.0 0.28400597250148585 1
gene  1 3 3 -0.42470640096836354 1 18.0 -0.42470640096836354 1
gene  1 4 3 -0.49445473897421677 1 19.0 -0.49445473897421677 1
gene  1 5 3 0.25177943949324244 1 20.0 0.25177943949324244 1
gene  1 7 3 -0.2981752233435744 1 22.0 -0.2981752233435744 1
gene  1 1 4 0.39495025055363675 0 24.0 0.39495025055363675 1
gene  1 2 4 0.752890460220581 0 25.0 0.752890460220581 1
gene  1 4 4 0.03198247138936172 1 27.0 0.03198247138936172 1
gene  1 6 4 0.7782434382584833 1 29.0 0.7782434382584833 1
gene  1 8 4 -0.7030883710785434 1 31.0 -0.7030883710785434 1
gene  1 1 5 0.7650777785471863 0 32.0 0.7650777785471863 1
gene  1 2 5 -0.2669256833796714 0 33.0 -0.2669256833796714 1
gene  1 7 5 -0.4527484329414506 1 38.0 -0.4527484329414506 1
gene  1 8 5 0.2880200369349658 1 39.0 0.2880200369349658 1
gene  1 6 6 0.8880887029383927 1 45.0 0.8880887029383927 1
gene  1 1 7 -0.5325560923504741 0 48.0 -0.5325560923504741 1
gene  1 2 7 0.08915932883137012 0 49.0 0.08915932883137012 1
gene  1 3 7 -0.4487540663719708 0 50.0 -0.4487540663719708 1
gene  1 6 7 -0.970777968859717 0 53.0 -0.970777968859717 1
gene  1 3 8 0.06177271029118525 0 58.0 0.06177271029118525 1
gene  1 5 8 0.16161687791903445 0 60.0 0.16161687791903445 1
gene  1 6 8 0.25903578001071514 0 61.0 0.25903578001071514 1
gene  1 7 8 -0.876369460255108 0 62.0 -0.876369460255108 1
gene  1 8 8 0.2284952814755452 1 63.0 0.2284952814755452 1
genomeend 5
/* Organism # 006 Fitness:  0,000 Error:  0,000                      */
genomestart  6
trait 1 0.0 0.0 0.0 0.0 0.0 0.0 0.0 0.0 
node 1 1 1 3
node 2 1 0 0
node 3 1 0 0
node 4 1 0 0
node 7 1 0 2
node 8 1 0 2
gene  1 3 2 -0.6591755454143295 1 10.0 -0.6591755454143295 1
gene  1 4 2 -0.17816827450911965 1 11.0 -0.17816827450911965 1
gene  1 8 2 -0.9070977739869154 1 15.0 -0.9070977739869154 1
gene  1 2 3 0.9559262461068219 0 17.0 0.9559262461068219 1
gene  1 3 3 0.6758926114507332 1 18.0 0.6758926114507332 1
gene  1 4 3 -0.12600351000901278 1 19.0 -0.12600351000901278 1
gene  1 8 3 -0.6252170504017438 1 23.0 -0.6252170504017438 1
gene  1 1 4 0.26847579848978753 0 24.0 0.26847579848978753 1
gene  1 2 4 -0.3132508703258592 0 25.0 -0.3132508703258592 1
gene  1 3 4 0.6877474709592927 0 26.0 0.6877474709592927 1
gene  1 7 4 0.7741415984258319 1 30.0 0.7741415984258319 1
gene  1 1 7 0.6933860309529096 0 48.0 0.6933860309529096 1
gene  1 2 7 -0.11272975442461464 0 49.0 -0.11272975442461464 1
gene  1 4 7 -0.817148495084337 0 51.0 -0.817148495084337 1
gene  1 7 7 -0.694990204568326 1 54.0 -0.694990204568326 1
gene  1 8 7 0.7523658091900531 1 55.0 0.7523658091900531 1
gene  1 1 8 0.41050876277553294 0 56.0 0.41050876277553294 1
gene  1 2 8 0.1477399688415817 0 57.0 0.1477399688415817 1
gene  1 7 8 -0.924848505897602 0 62.0 -0.924848505897602 1
genomeend 6
/* Organism # 007 Fitness:  0,000 Error:  0,000                      */
genomestart  7
trait 1 0.0 0.0 0.0 0.0 0.0 0.0 0.0 0.0 
node 1 1 1 3
node 2 1 0 0
node 3 1 0 0
node 4 1 0 0
node 5 1 0 0
node 7 1 0 2
node 8 1 0 2
gene  1 1 2 0.16949009229093415 0 8.0 0.16949009229093415 1
gene  1 2 2 -0.9846780855255274 1 9.0 -0.9846780855255274 1
gene  1 5 2 -0.7280205545793923 1 12.0 -0.7280205545793923 1
gene  1 4 3 0.466944239456314 1 19.0 0.466944239456314 1
gene  1 5 3 0.7975867109837389 1 20.0 0.7975867109837389 1
gene  1 4 4 -0.26818099697096187 1 27.0 -0.26818099697096187 1
gene  1 5 4 0.7607099165766202 1 28.0 0.7607099165766202 1
gene  1 7 4 0.07571166077705116 1 30.0 0.07571166077705116 1
gene  1 1 5 0.29514562992836735 0 32.0 0.29514562992836735 1
gene  1 3 5 0.36323185106598366 0 34.0 0.36323185106598366 1
gene  1 8 5 0.571327702867853 1 39.0 0.571327702867853 1
gene  1 2 7 0.05574807557159023 0 49.0 0.05574807557159023 1
gene  1 4 7 -0.15574421608984645 0 51.0 -0.15574421608984645 1
gene  1 5 7 -0.8078228308433795 0 52.0 -0.8078228308433795 1
gene  1 7 7 0.7649584582156277 1 54.0 0.7649584582156277 1
gene  1 1 8 0.16617186107452753 0 56.0 0.16617186107452753 1
genomeend 7
/* Organism # 008 Fitness:  0,000 Error:  0,000                      */
genomestart  8
trait 1 0.0 0.0 0.0 0.0 0.0 0.0 0.0 0.0 
node 1 1 1 3
node 2 1 0 0
node 3 1 0 0
node 4 1 0 0
node 5 1 0 0
node 6 1 0 0
node 7 1 0 2
node 8 1 0 2
gene  1 1 2 -0.2809821366475259 0 8.0 -0.2809821366475259 1
gene  1 2 2 0.9484730803825436 1 9.0 0.9484730803825436 1
gene  1 4 2 -0.9165129852980641 1 11.0 -0.9165129852980641 1
gene  1 5 2 -0.00455062949408247 1 12.0 -0.00455062949408247 1
gene  1 5 3 0.5238307939342335 1 20.0 0.5238307939342335 1
gene  1 6 3 -0.9239001698983242 1 21.0 -0.9239001698983242 1
gene  1 8 3 0.303293577062307 1 23.0 0.303293577062307 1
gene  1 3 4 0.5542729233975077 0 26.0 0.5542729233975077 1
gene  1 4 4 -0.47054030626526244 1 27.0 -0.47054030626526244 1
gene  1 6 4 -0.4518058258540302 1 29.0 -0.4518058258540302 1
gene  1 7 4 -0.8509528889647213 1 30.0 -0.8509528889647213 1
gene  1 8 4 0.8765242071093241 1 31.0 0.8765242071093241 1
gene  1 1 5 0.8108724704554644 0 32.0 0.8108724704554644 1
gene  1 3 5 -0.7550661967226115 0 34.0 -0.7550661967226115 1
gene  1 4 5 -0.5141730815828073 0 35.0 -0.5141730815828073 1
gene  1 8 5 0.2235638123506869 1 39.0 0.2235638123506869 1
gene  1 1 6 -0.494946210305352 0 40.0 -0.494946210305352 1
gene  1 2 6 0.9992054238076853 0 41.0 0.9992054238076853 1
gene  1 3 6 0.2576249893415774 0 42.0 0.2576249893415774 1
gene  1 4 6 0.30948085540509973 0 43.0 0.30948085540509973 1
gene  1 7 6 -0.23496613618156847 1 46.0 -0.23496613618156847 1
gene  1 8 6 0.30009511613823403 1 47.0 0.30009511613823403 1
gene  1 7 7 0.7713664135077877 1 54.0 0.7713664135077877 1
gene  1 1 8 -0.17385189116995503 0 56.0 -0.17385189116995503 1
gene  1 3 8 0.5572857833372498 0 58.0 0.5572857833372498 1
gene  1 5 8 0.3296851485369856 0 60.0 0.3296851485369856 1
gene  1 6 8 0.12103924928228871 0 61.0 0.12103924928228871 1
gene  1 7 8 -0.8627518229768972 0 62.0 -0.8627518229768972 1
genomeend 8
/* Organism # 009 Fitness:  0,000 Error:  0,000                      */
genomestart  9
trait 1 0.0 0.0 0.0 0.0 0.0 0.0 0.0 0.0 
node 1 1 1 3
node 2 1 0 0
node 3 1 0 0
node 4 1 0 0
node 5 1 0 0
node 6 1 0 0
node 7 1 0 2
node 8 1 0 2
gene  1 1 2 -0.13233254448970633 0 8.0 -0.13233254448970633 1
gene  1 4 2 0.80427784887676 1 11.0 0.80427784887676 1
gene  1 6 2 -0.38011716586812283 1 13.0 -0.38011716586812283 1
gene  1 8 2 0.6458630593784855 1 15.0 0.6458630593784855 1
gene  1 2 3 0.8401747641113599 0 17.0 0.8401747641113599 1
gene  1 4 3 0.4355418100547658 1 19.0 0.4355418100547658 1
gene  1 8 3 -0.7489874929032025 1 23.0 -0.7489874929032025 1
gene  1 1 4 0.06258006644087077 0 24.0 0.06258006644087077 1
gene  1 2 4 0.5162134666291041 0 25.0 0.5162134666291041 1
gene  1 4 4 -0.5661764790081175 1 27.0 -0.5661764790081175 1
gene  1 5 4 -0.5880391557737011 1 28.0 -0.5880391557737011 1
gene  1 8 4 -0.4058600501644787 1 31.0 -0.4058600501644787 1
gene  1 1 5 0.39814338220829093 0 32.0 0.39814338220829093 1
gene  1 4 5 0.8971895340364673 0 35.0 0.8971895340364673 1
gene  1 5 5 -0.7800884862427158 1 36.0 -0.7800884862427158 1
gene  1 6 5 0.19487365906159781 1 37.0 0.19487365906159781 1
gene  1 8 5 0.13554528913773412 1 39.0 0.13554528913773412 1
gene  1 4 6 0.6030348410706919 0 43.0 0.6030348410706919 1
gene  1 6 7 -0.8493952850011222 0 53.0 -0.8493952850011222 1
gene  1 7 7 0.8461047757885939 1 54.0 0.8461047757885939 1
gene  1 1 8 0.14335565227332958 0 56.0 0.14335565227332958 1
gene  1 4 8 -0.31103080922674975 0 59.0 -0.31103080922674975 1
gene  1 5 8 0.17865682843347386 0 60.0 0.17865682843347386 1
gene  1 7 8 -0.46881022993273214 0 62.0 -0.46881022993273214 1
gene  1 8 8 0.7869019905236168 1 63.0 0.7869019905236168 1
genomeend 9
/* Organism # 013 Fitness:  0,000 Error:  0,000                      */
genomestart  13
trait 1 0.0 0.0 0.0 0.0 0.0 0.0 0.0 0.0 
node 1 1 1 3
node 7 1 0 2
node 8 1 0 2
gene  1 1 7 -0.5034180898144636 0 48.0 -0.5034180898144636 1
gene  1 8 7 -0.13674722075195478 1 55.0 -0.13674722075195478 1
gene  1 7 8 -0.4535336814297236 0 62.0 -0.4535336814297236 1
gene  1 8 8 -0.2574922391109683 1 63.0 -0.2574922391109683 1
genomeend 13
/* Organism # 014 Fitness:  0,000 Error:  0,000                      */
genomestart  14
trait 1 0.0 0.0 0.0 0.0 0.0 0.0 0.0 0.0 
node 1 1 1 3
node 2 1 0 0
node 3 1 0 0
node 7 1 0 2
node 8 1 0 2
gene  1 1 2 0.32726841182061084 0 8.0 0.32726841182061084 1
gene  1 2 2 -0.7908616926297757 1 9.0 -0.7908616926297757 1
gene  1 3 2 0.8271415294144894 1 10.0 0.8271415294144894 1
gene  1 7 2 -0.7854950964280244 1 14.0 -0.7854950964280244 1
gene  1 7 3 -0.7255552604094012 1 22.0 -0.7255552604094012 1
gene  1 8 3 -0.8312570504166279 1 23.0 -0.8312570504166279 1
gene  1 2 7 -0.3454867478981253 0 49.0 -0.3454867478981253 1
gene  1 7 7 -0.7445909202848182 1 54.0 -0.7445909202848182 1
gene  1 8 7 -0.5289091755995082 1 55.0 -0.5289091755995082 1
gene  1 3 8 0.6416333387183725 0 58.0 0.6416333387183725 1
gene  1 7 8 -0.18923301340727772 0 62.0 -0.18923301340727772 1
gene  1 8 8 -0.4790860670321775 1 63.0 -0.4790860670321775 1
genomeend 14
/* Organism # 015 Fitness:  0,000 Error:  0,000                      */
genomestart  15
trait 1 0.0 0.0 0.0 0.0 0.0 0.0 0.0 0.0 
node 1 1 1 3
node 2 1 0 0
node 3 1 0 0
node 7 1 0 2
node 8 1 0 2
gene  1 2 2 0.648391315792401 1 9.0 0.648391315792401 1
gene  1 8 2 -0.5640038582707011 1 15.0 -0.5640038582707011 1
gene  1 1 3 -0.0905859178912275 0 16.0 -0.0905859178912275 1
gene  1 2 3 0.6334795675397695 0 17.0 0.6334795675397695 1
gene  1 3 3 0.8096256972653836 1 18.0 0.8096256972653836 1
gene  1 8 3 -0.9056658589821044 1 23.0 -0.9056658589821044 1
gene  1 1 7 0.39880473828532614 0 48.0 0.39880473828532614 1
gene  1 2 7 -0.6244296538247498 0 49.0 -0.6244296538247498 1
gene  1 2 8 -0.2950105220309861 0 57.0 -0.2950105220309861 1
gene  1 3 8 -0.5684158991827014 0 58.0 -0.5684158991827014 1
gene  1 7 8 -0.12578151976269536 0 62.0 -0.12578151976269536 1
gene  1 8 8 -0.44448629573189136 1 63.0 -0.44448629573189136 1
genomeend 15
/* Organism # 016 Fitness:  0,000 Error:  0,000                      */
genomestart  16
trait 1 0.0 0.0 0.0 0.0 0.0 0.0 0.0 0.0 
node 1 1 1 3
node 2 1 0 0
node 3 1 0 0
node 4 1 0 0
node 5 1 0 0
node 7 1 0 2
node 8 1 0 2
gene  1 1 2 -0.6795700867182612 0 8.0 -0.6795700867182612 1
gene  1 4 2 -0.875279902172606 1 11.0 -0.875279902172606 1
gene  1 5 2 0.15320346931897477 1 12.0 0.15320346931897477 1
gene  1 7 2 0.14288743341101695 1 14.0 0.14288743341101695 1
gene  1 8 2 -0.6485680724630797 1 15.0 -0.6485680724630797 1
gene  1 2 3 -0.9067595701157546 0 17.0 -0.9067595701157546 1
gene  1 4 3 0.7165708892865965 1 19.0 0.7165708892865965 1
gene  1 7 3 -0.7110177086340823 1 22.0 -0.7110177086340823 1
gene  1 1 4 -0.8519834658572024 0 24.0 -0.8519834658572024 1
gene  1 2 4 0.9160398381261828 0 25.0 0.9160398381261828 1
gene  1 8 4 -0.6086198952793677 1 31.0 -0.6086198952793677 1
gene  1 3 5 0.04024489549834165 0 34.0 0.04024489549834165 1
gene  1 4 5 -0.3162174654487878 0 35.0 -0.3162174654487878 1
gene  1 7 5 0.6618432720278291 1 38.0 0.6618432720278291 1
gene  1 8 5 0.36657303424017007 1 39.0 0.36657303424017007 1
gene  1 2 7 0.3016536152199314 0 49.0 0.3016536152199314 1
gene  1 3 7 0.06717750700841474 0 50.0 0.06717750700841474 1
gene  1 4 7 -0.8445726668567789 0 51.0 -0.8445726668567789 1
gene  1 7 7 -0.5127892529918091 1 54.0 -0.5127892529918091 1
gene  1 8 7 0.36424466823936974 1 55.0 0.36424466823936974 1
gene  1 1 8 -0.40333936880375676 0 56.0 -0.40333936880375676 1
gene  1 2 8 -0.7927362904537334 0 57.0 -0.7927362904537334 1
gene  1 4 8 0.700006574473416 0 59.0 0.700006574473416 1
gene  1 7 8 0.8168295132572502 0 62.0 0.8168295132572502 1
gene  1 8 8 -0.41590391326241516 1 63.0 -0.41590391326241516 1
genomeend 16
/* Organism # 019 Fitness:  0,000 Error:  0,000                      */
genomestart  19
trait 1 0.0 0.0 0.0 0.0 0.0 0.0 0.0 0.0 
node 1 1 1 3
node 2 1 0 0
node 7 1 0 2
node 8 1 0 2
gene  1 2 2 0.7195331711493483 1 9.0 0.7195331711493483 1
gene  1 7 2 0.6321636578710869 1 14.0 0.6321636578710869 1
gene  1 1 8 0.7072407180104784 0 56.0 0.7072407180104784 1
gene  1 8 8 -0.5474490870010138 1 63.0 -0.5474490870010138 1
genomeend 19
/*-------------------------------------------------------------------*/
/* Species # 002         : (size= 006) (AvfFit= 0,000) (Age= 1,000)  */
/*-------------------------------------------------------------------*/
/* Organism # 002 Fitness:  0,000 Error:  0,000                      */
genomestart  2
trait 1 0.0 0.0 0.0 0.0 0.0 0.0 0.0 0.0 
node 1 1 1 3
node 2 1 0 0
node 7 1 0 2
node 8 1 0 2
gene  1 1 2 0.6402033051338715 0 8.0 0.6402033051338715 1
gene  1 2 2 -0.5737869498469162 1 9.0 -0.5737869498469162 1
gene  1 1 7 -0.7700879525409388 0 48.0 -0.7700879525409388 1
gene  1 7 7 -0.9800214475314313 1 54.0 -0.9800214475314313 1
gene  1 7 8 -0.7435592970376508 0 62.0 -0.7435592970376508 1
genomeend 2
/* Organism # 010 Fitness:  0,000 Error:  0,000                      */
genomestart  10
trait 1 0.0 0.0 0.0 0.0 0.0 0.0 0.0 0.0 
node 1 1 1 3
node 2 1 0 0
node 3 1 0 0
node 4 1 0 0
node 5 1 0 0
node 7 1 0 2
node 8 1 0 2
gene  1 2 2 0.018492453288138977 1 9.0 0.018492453288138977 1
gene  1 4 2 0.48116279030622644 1 11.0 0.48116279030622644 1
gene  1 1 3 -0.46003943723701 0 16.0 -0.46003943723701 1
gene  1 8 3 -0.6783352325172326 1 23.0 -0.6783352325172326 1
gene  1 1 4 0.5982446672147145 0 24.0 0.5982446672147145 1
gene  1 2 4 0.2878731752667374 0 25.0 0.2878731752667374 1
gene  1 8 4 0.050825470419368135 1 31.0 0.050825470419368135 1
gene  1 1 5 -0.10771047903040742 0 32.0 -0.10771047903040742 1
gene  1 2 5 -0.6188925346367357 0 33.0 -0.6188925346367357 1
gene  1 3 5 0.7145075465017413 0 34.0 0.7145075465017413 1
gene  1 5 5 -0.7573598273684843 1 36.0 -0.7573598273684843 1
gene  1 7 5 -0.3699512645439649 1 38.0 -0.3699512645439649 1
gene  1 1 7 -0.9719415055579743 0 48.0 -0.9719415055579743 1
gene  1 2 7 -0.6768206070918539 0 49.0 -0.6768206070918539 1
gene  1 3 7 0.09478001805473957 0 50.0 0.09478001805473957 1
gene  1 4 7 0.8041013902656854 0 51.0 0.8041013902656854 1
gene  1 2 8 -0.5371338576711769 0 57.0 -0.5371338576711769 1
gene  1 3 8 -0.20708269122248146 0 58.0 -0.20708269122248146 1
gene  1 4 8 -0.04565287760118564 0 59.0 -0.04565287760118564 1
gene  1 5 8 0.13293721590543817 0 60.0 0.13293721590543817 1
genomeend 10
/* Organism # 011 Fitness:  0,000 Error:  0,000                      */
genomestart  11
trait 1 0.0 0.0 0.0 0.0 0.0 0.0 0.0 0.0 
node 1 1 1 3
node 2 1 0 0
node 3 1 0 0
node 7 1 0 2
node 8 1 0 2
gene  1 1 2 0.7843387161687168 0 8.0 0.7843387161687168 1
gene  1 2 2 0.9015419420429087 1 9.0 0.9015419420429087 1
gene  1 7 2 0.6634016841879554 1 14.0 0.6634016841879554 1
gene  1 1 3 -0.4977779633823366 0 16.0 -0.4977779633823366 1
gene  1 2 3 -0.06207122066890769 0 17.0 -0.06207122066890769 1
gene  1 3 3 0.6102064438635397 1 18.0 0.6102064438635397 1
gene  1 7 3 0.2210311418363483 1 22.0 0.2210311418363483 1
gene  1 1 7 -0.7391401141492422 0 48.0 -0.7391401141492422 1
gene  1 3 7 -0.11574724532486114 0 50.0 -0.11574724532486114 1
gene  1 8 7 -0.8502669239687156 1 55.0 -0.8502669239687156 1
gene  1 2 8 0.0996789895977378 0 57.0 0.0996789895977378 1
gene  1 3 8 -0.8926549281530346 0 58.0 -0.8926549281530346 1
genomeend 11
/* Organism # 012 Fitness:  0,000 Error:  0,000                      */
genomestart  12
trait 1 0.0 0.0 0.0 0.0 0.0 0.0 0.0 0.0 
node 1 1 1 3
node 7 1 0 2
node 8 1 0 2
gene  1 1 7 -0.7421884561444754 0 48.0 -0.7421884561444754 1
gene  1 8 7 0.2901986797061633 1 55.0 0.2901986797061633 1
genomeend 12
/* Organism # 017 Fitness:  0,000 Error:  0,000                      */
genomestart  17
trait 1 0.0 0.0 0.0 0.0 0.0 0.0 0.0 0.0 
node 1 1 1 3
node 2 1 0 0
node 3 1 0 0
node 4 1 0 0
node 5 1 0 0
node 6 1 0 0
node 7 1 0 2
node 8 1 0 2
gene  1 2 2 -0.46089672825754 1 9.0 -0.46089672825754 1
gene  1 3 2 0.412564255357294 1 10.0 0.412564255357294 1
gene  1 4 2 0.12851845679665197 1 11.0 0.12851845679665197 1
gene  1 5 2 -0.4850187590927303 1 12.0 -0.4850187590927303 1
gene  1 6 2 0.9791377047379574 1 13.0 0.9791377047379574 1
gene  1 8 2 0.21956418615125095 1 15.0 0.21956418615125095 1
gene  1 2 3 -0.7904748534393251 0 17.0 -0.7904748534393251 1
gene  1 5 3 0.11387127362912064 1 20.0 0.11387127362912064 1
gene  1 7 3 -0.24781071622212814 1 22.0 -0.24781071622212814 1
gene  1 8 3 -0.9976715617177333 1 23.0 -0.9976715617177333 1
gene  1 3 4 0.27488453565319493 0 26.0 0.27488453565319493 1
gene  1 8 4 0.4403739234747851 1 31.0 0.4403739234747851 1
gene  1 5 5 0.9436594495199693 1 36.0 0.9436594495199693 1
gene  1 7 5 -0.4495144840590528 1 38.0 -0.4495144840590528 1
gene  1 8 5 -0.1480009776659591 1 39.0 -0.1480009776659591 1
gene  1 1 6 -0.10877685353945798 0 40.0 -0.10877685353945798 1
gene  1 2 6 0.9729387202861681 0 41.0 0.9729387202861681 1
gene  1 3 6 -0.4449743410193546 0 42.0 -0.4449743410193546 1
gene  1 4 6 -0.6098531425468245 0 43.0 -0.6098531425468245 1
gene  1 6 6 0.6141052526500732 1 45.0 0.6141052526500732 1
gene  1 7 6 0.5343829638562576 1 46.0 0.5343829638562576 1
gene  1 1 7 -0.45690075132681673 0 48.0 -0.45690075132681673 1
gene  1 2 7 0.33111984585832444 0 49.0 0.33111984585832444 1
gene  1 3 7 0.8572548898711676 0 50.0 0.8572548898711676 1
gene  1 4 7 -0.06359651499117669 0 51.0 -0.06359651499117669 1
gene  1 6 7 -0.48270623259329715 0 53.0 -0.48270623259329715 1
gene  1 7 7 0.0021632777831944727 1 54.0 0.0021632777831944727 1
gene  1 8 7 -0.7421988715934512 1 55.0 -0.7421988715934512 1
gene  1 2 8 0.8300558737491792 0 57.0 0.8300558737491792 1
gene  1 4 8 -0.6308092866809135 0 59.0 -0.6308092866809135 1
gene  1 5 8 0.16219746013905578 0 60.0 0.16219746013905578 1
gene  1 6 8 -0.9643766070704869 0 61.0 -0.9643766070704869 1
gene  1 7 8 -0.44673358921571826 0 62.0 -0.44673358921571826 1
genomeend 17
/* Organism # 018 Fitness:  0,000 Error:  0,000                      */
genomestart  18
trait 1 0.0 0.0 0.0 0.0 0.0 0.0 0.0 0.0 
node 1 1 1 3
node 2 1 0 0
node 3 1 0 0
node 4 1 0 0
node 5 1 0 0
node 6 1 0 0
node 7 1 0 2
node 8 1 0 2
gene  1 2 2 -0.8047395123848351 1 9.0 -0.8047395123848351 1
gene  1 6 2 -0.16223153567104365 1 13.0 -0.16223153567104365 1
gene  1 7 2 -0.625911123977115 1 14.0 -0.625911123977115 1
gene  1 8 2 0.1728203430118015 1 15.0 0.1728203430118015 1
gene  1 3 3 0.9557505574334186 1 18.0 0.9557505574334186 1
gene  1 4 3 0.18315507496046224 1 19.0 0.18315507496046224 1
gene  1 6 3 0.748410189266561 1 21.0 0.748410189266561 1
gene  1 8 3 0.17151419489377773 1 23.0 0.17151419489377773 1
gene  1 2 4 0.5621464659872875 0 25.0 0.5621464659872875 1
gene  1 3 4 0.7229983349661222 0 26.0 0.7229983349661222 1
gene  1 5 4 0.937848432534129 1 28.0 0.937848432534129 1
gene  1 6 4 0.9758888771085018 1 29.0 0.9758888771085018 1
gene  1 1 5 -0.08123002524622425 0 32.0 -0.08123002524622425 1
gene  1 5 5 0.7912007177741992 1 36.0 0.7912007177741992 1
gene  1 7 5 -0.3632394039076067 1 38.0 -0.3632394039076067 1
gene  1 8 5 0.8012001172351064 1 39.0 0.8012001172351064 1
gene  1 4 6 -0.4439133984604001 0 43.0 -0.4439133984604001 1
gene  1 5 6 -0.6153074890929842 0 44.0 -0.6153074890929842 1
gene  1 6 6 0.8693119335904277 1 45.0 0.8693119335904277 1
gene  1 7 6 -0.957420074866642 1 46.0 -0.957420074866642 1
gene  1 8 6 -0.4388985973008769 1 47.0 -0.4388985973008769 1
gene  1 2 7 0.6227865688263929 0 49.0 0.6227865688263929 1
gene  1 5 7 0.00908349652563556 0 52.0 0.00908349652563556 1
gene  1 7 7 -0.3225554649915776 1 54.0 -0.3225554649915776 1
gene  1 3 8 0.6153908775968464 0 58.0 0.6153908775968464 1
gene  1 4 8 0.9360119512444879 0 59.0 0.9360119512444879 1
gene  1 5 8 -0.5246170521672343 0 60.0 -0.5246170521672343 1
gene  1 6 8 -0.6070106504040103 0 61.0 -0.6070106504040103 1
genomeend 18
/*-------------------------------------------------------------------*/
