genomestart  0
trait 1 0.12236385032328645 0.7740871510987878 0.0 1.2348572107762614 0.0 1.3168578850843018 1.0590140864502917 1.2664732725793504 
node 1 1 1 1
node 2 1 1 1
node 3 1 1 1
node 4 1 1 1
node 5 1 1 1
node 6 1 1 1
node 7 1 1 3
node 13 1 0 2
node 14 1 0 2
node 33 1 0 0
node 48 1 0 0
node 55 1 0 0
node 61 1 0 0
gene  1 2 13 0.1890413865763534 0 169.0 0.1890413865763534 1
gene  1 3 13 -3.8799974992433994 0 170.0 -3.8799974992433994 1
gene  1 4 13 0.2446502469987758 0 171.0 0.2446502469987758 1
gene  1 6 13 2.052349717746736 0 173.0 2.052349717746736 1
gene  1 7 13 0.39228346308933026 0 174.0 0.39228346308933026 1
gene  1 13 13 0.6271542836780591 1 180.0 0.6271542836780591 1
gene  1 1 14 0.545068309966245 0 182.0 0.545068309966245 1
gene  1 2 14 -0.27340994574811406 0 183.0 -0.27340994574811406 1
gene  1 5 14 -4.128421411455565 0 186.0 -4.128421411455565 1
gene  1 6 14 5.9665407547936535 0 187.0 5.9665407547936535 1
gene  1 7 14 -8.486007437950095 0 188.0 -8.486007437950095 1
gene  1 13 14 -0.8589103399623335 0 194.0 -0.8589103399623335 1
gene  1 14 14 -0.1881076105085756 1 195.0 -0.1881076105085756 1
gene  1 4 14 0.6187962953972725 0 196.0 0.6187962953972725 1
gene  1 1 13 -10.070460119164258 0 216.0 -10.070460119164258 1
gene  1 1 33 2.044107379912706 0 313.0 2.044107379912706 1
gene  1 33 14 -8.217442546269922 0 314.0 -8.217442546269922 1
gene  1 14 48 -5.120498669620137 1 379.0 -5.120498669620137 1
gene  1 48 14 3.323397535777077 0 380.0 3.323397535777077 1
gene  1 48 33 -0.5298398759170913 0 381.0 -0.5298398759170913 1
gene  1 4 33 4.021926205935621 0 384.0 4.021926205935621 1
gene  1 13 55 -3.189588792908009 0 407.0 -3.189588792908009 1
gene  1 55 14 4.901248264125299 0 408.0 4.901248264125299 1
gene  1 2 33 -9.266787469158189 0 425.0 -9.266787469158189 1
gene  1 13 33 3.9515753595300174 0 427.0 3.9515753595300174 1
gene  1 5 13 1.7366912493128015 0 436.0 1.7366912493128015 1
gene  1 7 33 7.874903105072168 0 465.0 7.874903105072168 1
gene  1 2 61 -3.6824606573358976 0 466.0 -3.6824606573358976 1
gene  1 61 33 0.9734302440305191 0 467.0 0.9734302440305191 1
genomeend 0
genomestart  1
trait 1 0.12236385032328645 0.7740871510987878 0.0 1.2348572107762614 0.0 1.3168578850843018 1.0590140864502917 1.2664732725793504 
node 1 1 1 1
node 2 1 1 1
node 3 1 1 1
node 4 1 1 1
node 5 1 1 1
node 6 1 1 1
node 7 1 1 3
node 13 1 0 2
node 14 1 0 2
node 33 1 0 0
node 48 1 0 0
node 55 1 0 0
node 61 1 0 0
gene  1 2 13 2.4017575331724226 0 169.0 2.4017575331724226 1
gene  1 3 13 -2.429825124857179 0 170.0 -2.429825124857179 1
gene  1 4 13 -0.5031333802166147 0 171.0 -0.5031333802166147 1
gene  1 6 13 -1.1794857161997183 0 173.0 -1.1794857161997183 1
gene  1 7 13 0.5686349283323493 0 174.0 0.5686349283323493 1
gene  1 13 13 0.047332956006412796 1 180.0 0.047332956006412796 1
gene  1 1 14 -0.5500624101921552 0 182.0 -0.5500624101921552 1
gene  1 2 14 -1.3186875766394774 0 183.0 -1.3186875766394774 1
gene  1 5 14 -4.615238088068846 0 186.0 -4.615238088068846 1
gene  1 6 14 5.531435201306964 0 187.0 5.531435201306964 1
gene  1 7 14 -7.798202076695443 0 188.0 -7.798202076695443 1
gene  1 13 14 -4.436005559560851 0 194.0 -4.436005559560851 1
gene  1 14 14 -2.2609941851452104 1 195.0 -2.2609941851452104 1
gene  1 4 14 3.507029046081876 0 196.0 3.507029046081876 1
gene  1 1 13 -9.68122469363943 0 216.0 -9.68122469363943 1
gene  1 1 33 1.4103652554888977 0 313.0 1.4103652554888977 1
gene  1 33 14 -3.71780518276227 0 314.0 -3.71780518276227 1
gene  1 14 48 -2.09523316963411 1 379.0 -2.09523316963411 1
gene  1 48 14 0.4410098557057667 0 380.0 0.4410098557057667 1
gene  1 48 33 0.7715587481160477 0 381.0 0.7715587481160477 1
gene  1 4 33 2.1816255067450907 0 384.0 2.1816255067450907 1
gene  1 13 55 -4.072696586936636 0 407.0 -4.072696586936636 1
gene  1 55 14 2.226329812648452 0 408.0 2.226329812648452 1
gene  1 2 33 -7.66005485547858 0 425.0 -7.66005485547858 1
gene  1 13 33 3.4334177377361477 0 427.0 3.4334177377361477 1
gene  1 5 13 0.583631540841186 0 436.0 0.583631540841186 1
gene  1 7 33 8.110070779983891 0 465.0 8.110070779983891 1
gene  1 2 61 -5.055665094861183 0 466.0 -5.055665094861183 1
gene  1 61 33 2.7140127433863963 0 467.0 2.7140127433863963 1
genomeend 1
genomestart  2
trait 1 0.26937214532678067 0.0 1.896310652799719 1.0664206773141058 1.8651080668398228 0.9057529697611906 1.2186392275033897 1.6429921308966946 
node 1 1 1 1
node 2 1 1 1
node 3 1 1 1
node 4 1 1 1
node 5 1 1 1
node 6 1 1 1
node 7 1 1 3
node 13 1 0 2
node 14 1 0 2
node 21 1 0 0
node 24 1 0 0
node 34 1 0 0
node 67 1 0 0
node 72 1 0 0
node 78 1 0 0
gene  1 1 13 10.791319741621615 0 168.0 10.791319741621615 0
gene  1 4 13 2.1681762672555935 0 171.0 2.1681762672555935 1
gene  1 5 13 -8.08719137103166 0 172.0 -8.08719137103166 1
gene  1 7 13 -3.4938165533600496 0 174.0 -3.4938165533600496 1
gene  1 13 13 -0.7012784114556307 1 180.0 -0.7012784114556307 1
gene  1 2 14 3.8626922128705967 0 183.0 3.8626922128705967 1
gene  1 3 14 1.069623609983857 0 184.0 1.069623609983857 1
gene  1 6 14 -0.1378842216180115 0 187.0 -0.1378842216180115 1
gene  1 13 14 -5.152921825675413 0 194.0 -5.152921825675413 1
gene  1 14 14 3.1870979302842053 1 195.0 3.1870979302842053 1
gene  1 6 13 2.05387419961155 0 205.0 2.05387419961155 1
gene  1 5 14 0.1257308912728325 0 223.0 0.1257308912728325 1
gene  1 3 13 1.082349901034023 0 229.0 1.082349901034023 1
gene  1 2 13 2.3634841390020482 0 233.0 2.3634841390020482 1
gene  1 1 21 -0.582651434876168 0 238.0 -0.582651434876168 1
gene  1 21 13 -2.282614174823721 0 239.0 -2.282614174823721 1
gene  1 5 21 -0.06264580126554553 0 253.0 -0.06264580126554553 1
gene  1 3 21 -2.5041962663599144 0 270.0 -2.5041962663599144 1
gene  1 1 24 -4.2800272979520795 0 275.0 -4.2800272979520795 1
gene  1 24 13 -0.2629373056648623 0 276.0 -0.2629373056648623 1
gene  1 3 34 -0.8314316574401209 0 315.0 -0.8314316574401209 1
gene  1 34 14 -2.1423817448470333 0 316.0 -2.1423817448470333 0
gene  1 3 24 -0.4904000599282357 0 324.0 -0.4904000599282357 1
gene  1 2 21 -8.453985123077217 0 350.0 -8.453985123077217 1
gene  1 34 13 0.4297656670537715 0 355.0 0.4297656670537715 1
gene  1 1 34 2.161245435041148 0 361.0 2.161245435041148 1
gene  1 7 14 0.19405294290315833 0 388.0 0.19405294290315833 1
gene  1 24 14 -1.824174732382049 0 468.0 -1.824174732382049 1
gene  1 34 67 -3.747843144423438 0 491.0 -3.747843144423438 1
gene  1 67 14 -2.1110792014381863 0 492.0 -2.1110792014381863 1
gene  1 1 72 -2.5811472486530898 0 505.0 -2.5811472486530898 1
gene  1 72 13 6.510304616101851 0 506.0 6.510304616101851 1
gene  1 1 78 1.5336272449576183 0 530.0 1.5336272449576183 1
gene  1 78 72 0.7216059677988844 0 531.0 0.7216059677988844 1
gene  1 5 72 0.29115096389170936 0 565.0 0.29115096389170936 1
genomeend 2
genomestart  3
trait 1 0.26937214532678067 0.0 1.896310652799719 1.0664206773141058 1.8651080668398228 0.9057529697611906 1.2186392275033897 1.6429921308966946 
node 1 1 1 1
node 2 1 1 1
node 3 1 1 1
node 4 1 1 1
node 5 1 1 1
node 6 1 1 1
node 7 1 1 3
node 13 1 0 2
node 14 1 0 2
node 21 1 0 0
node 24 1 0 0
node 34 1 0 0
node 67 1 0 0
node 72 1 0 0
node 78 1 0 0
gene  1 1 13 0.4494758149832509 0 168.0 0.4494758149832509 0
gene  1 4 13 1.7353906480623766 0 171.0 1.7353906480623766 1
gene  1 5 13 -5.510540196544128 0 172.0 -5.510540196544128 1
gene  1 7 13 -2.704880068190718 0 174.0 -2.704880068190718 1
gene  1 13 13 -4.76496342340878 1 180.0 -4.76496342340878 1
gene  1 2 14 0.45610505940331586 0 183.0 0.45610505940331586 1
gene  1 3 14 1.7040652938901575 0 184.0 1.7040652938901575 1
gene  1 6 14 -0.21107690578143412 0 187.0 -0.21107690578143412 1
gene  1 13 14 -2.873506837236198 0 194.0 -2.873506837236198 1
gene  1 14 14 0.29028221373396856 1 195.0 0.29028221373396856 1
gene  1 6 13 2.1177463622583246 0 205.0 2.1177463622583246 1
gene  1 5 14 -0.16431861610882503 0 223.0 -0.16431861610882503 1
gene  1 3 13 -1.3479732807780218 0 229.0 -1.3479732807780218 1
gene  1 2 13 2.88207598389766 0 233.0 2.88207598389766 1
gene  1 1 21 19.78881141476828 0 238.0 19.78881141476828 1
gene  1 21 13 -2.480091770937088 0 239.0 -2.480091770937088 1
gene  1 5 21 1.9426279319066952 0 253.0 1.9426279319066952 1
gene  1 3 21 -4.081501965537544 0 270.0 -4.081501965537544 1
gene  1 1 24 0.5154464124335623 0 275.0 0.5154464124335623 1
gene  1 24 13 2.184672649988291 0 276.0 2.184672649988291 1
gene  1 3 34 3.6218058051780955 0 315.0 3.6218058051780955 1
gene  1 34 14 -2.3362033681204584 0 316.0 -2.3362033681204584 0
gene  1 3 24 -2.8638208236337364 0 324.0 -2.8638208236337364 1
gene  1 2 21 -8.246308679169122 0 350.0 -8.246308679169122 1
gene  1 34 13 0.8589881132192188 0 355.0 0.8589881132192188 1
gene  1 1 34 0.9483061322840771 0 361.0 0.9483061322840771 1
gene  1 7 14 -2.1610680674347558 0 388.0 -2.1610680674347558 1
gene  1 24 14 -1.7108863822024614 0 468.0 -1.7108863822024614 1
gene  1 34 67 -3.680570553465588 0 491.0 -3.680570553465588 1
gene  1 67 14 -0.4603476143387888 0 492.0 -0.4603476143387888 1
gene  1 1 72 -1.3889439187970474 0 505.0 -1.3889439187970474 1
gene  1 72 13 2.745587871922194 0 506.0 2.745587871922194 1
gene  1 1 78 1.6470198456430865 0 530.0 1.6470198456430865 1
gene  1 78 72 -1.3654297305725103 0 531.0 -1.3654297305725103 1
gene  1 5 72 1.1469261198146579 0 565.0 1.1469261198146579 1
genomeend 3
genomestart  4
trait 1 0.26937214532678067 0.0 1.896310652799719 1.0664206773141058 1.8651080668398228 0.9057529697611906 1.2186392275033897 1.6429921308966946 
node 1 1 1 1
node 2 1 1 1
node 3 1 1 1
node 4 1 1 1
node 5 1 1 1
node 6 1 1 1
node 7 1 1 3
node 13 1 0 2
node 14 1 0 2
node 21 1 0 0
node 24 1 0 0
node 34 1 0 0
node 67 1 0 0
node 72 1 0 0
node 78 1 0 0
gene  1 1 13 9.188637249697608 0 168.0 9.188637249697608 0
gene  1 4 13 -1.8596531074575129 0 171.0 -1.8596531074575129 1
gene  1 5 13 -3.340599548222995 0 172.0 -3.340599548222995 1
gene  1 7 13 -3.7900566056119196 0 174.0 -3.7900566056119196 1
gene  1 13 13 -5.007586998181936 1 180.0 -5.007586998181936 1
gene  1 2 14 1.3834415899668062 0 183.0 1.3834415899668062 1
gene  1 3 14 1.009487570904477 0 184.0 1.009487570904477 1
gene  1 6 14 1.81842880638856 0 187.0 1.81842880638856 1
gene  1 13 14 -3.8521919680044623 0 194.0 -3.8521919680044623 1
gene  1 14 14 0.32229903592369513 1 195.0 0.32229903592369513 1
gene  1 6 13 0.5836108525119779 0 205.0 0.5836108525119779 1
gene  1 5 14 -2.4866947634055947 0 223.0 -2.4866947634055947 1
gene  1 3 13 1.359569236367066 0 229.0 1.359569236367066 1
gene  1 2 13 3.8212177502408378 0 233.0 3.8212177502408378 1
gene  1 1 21 19.614721962643628 0 238.0 19.614721962643628 1
gene  1 21 13 -0.7107569909118685 0 239.0 -0.7107569909118685 1
gene  1 5 21 2.7573933360085974 0 253.0 2.7573933360085974 1
gene  1 3 21 -2.2659295806599027 0 270.0 -2.2659295806599027 1
gene  1 1 24 -3.348056837500275 0 275.0 -3.348056837500275 1
gene  1 24 13 2.6721545773965762 0 276.0 2.6721545773965762 1
gene  1 3 34 5.691066597516417 0 315.0 5.691066597516417 1
gene  1 34 14 2.010835540834764 0 316.0 2.010835540834764 0
gene  1 3 24 -1.0677588040500887 0 324.0 -1.0677588040500887 1
gene  1 2 21 -8.627933175008392 0 350.0 -8.627933175008392 1
gene  1 34 13 3.5400803475454974 0 355.0 3.5400803475454974 1
gene  1 1 34 0.25174725729417524 0 361.0 0.25174725729417524 1
gene  1 7 14 -2.5873206458586795 0 388.0 -2.5873206458586795 1
gene  1 24 14 -5.936477553051963 0 468.0 -5.936477553051963 1
gene  1 34 67 0.8748369754846972 0 491.0 0.8748369754846972 1
gene  1 67 14 -2.6779741022128696 0 492.0 -2.6779741022128696 1
gene  1 1 72 -5.545068281089083 0 505.0 -5.545068281089083 1
gene  1 72 13 5.968870865047809 0 506.0 5.968870865047809 1
gene  1 1 78 -1.3493891637395696 0 530.0 -1.3493891637395696 1
gene  1 78 72 1.683748953668315 0 531.0 1.683748953668315 1
gene  1 5 72 1.2694733534806553 0 565.0 1.2694733534806553 1
genomeend 4
genomestart  5
trait 1 0.7406206948073408 1.010449726541541 0.747276035170299 2.969549466943627 0.4651853155222945 0.0 0.7201715107197918 0.5567444199729891 
node 1 1 1 1
node 2 1 1 1
node 3 1 1 1
node 4 1 1 1
node 5 1 1 1
node 6 1 1 1
node 7 1 1 3
node 8 1 0 0
node 13 1 0 2
node 14 1 0 2
node 39 1 0 0
node 42 1 0 0
node 51 1 0 0
node 68 1 0 0
node 77 1 0 0
gene  1 1 8 3.89104351009328 0 98.0 3.89104351009328 1
gene  1 2 8 -0.47232764354163126 0 99.0 -0.47232764354163126 1
gene  1 3 8 -3.6032275789463264 0 100.0 -3.6032275789463264 1
gene  1 4 8 -4.856285582458551 0 101.0 -4.856285582458551 1
gene  1 5 8 5.087493697385613 0 102.0 5.087493697385613 1
gene  1 6 8 -3.413544861027602 0 103.0 -3.413544861027602 1
gene  1 8 8 3.4271259429786474 1 105.0 3.4271259429786474 1
gene  1 13 8 -0.243508305725483 1 110.0 -0.243508305725483 1
gene  1 14 8 13.949343944112028 1 111.0 13.949343944112028 1
gene  1 3 13 0.464169222491436 0 170.0 0.464169222491436 1
gene  1 5 13 -1.585574081316346 0 172.0 -1.585574081316346 1
gene  1 7 13 4.342255731874952 0 174.0 4.342255731874952 1
gene  1 13 13 -2.4741478244757245 1 180.0 -2.4741478244757245 1
gene  1 2 14 1.6149595179233003 0 183.0 1.6149595179233003 1
gene  1 4 14 -1.8724352119802294 0 185.0 -1.8724352119802294 1
gene  1 6 14 4.093272772900306 0 187.0 4.093272772900306 1
gene  1 8 14 -0.05901167836646781 0 189.0 -0.05901167836646781 1
gene  1 13 14 3.641940331502896 0 194.0 3.641940331502896 1
gene  1 2 13 -2.656969892809598 0 213.0 -2.656969892809598 1
gene  1 4 13 1.0363447470672746 0 230.0 1.0363447470672746 1
gene  1 13 8 -2.1538677952933334 0 244.0 -2.1538677952933334 1
gene  1 7 14 4.0491478018581955 0 264.0 4.0491478018581955 1
gene  1 1 14 -6.599845711486771 0 299.0 -6.599845711486771 1
gene  1 5 14 -5.713609806751804 0 310.0 -5.713609806751804 1
gene  1 1 13 -6.274662152154016 0 311.0 -6.274662152154016 1
gene  1 13 39 -6.346297596159314 0 344.0 -6.346297596159314 1
gene  1 39 8 -1.6522945172526824 0 345.0 -1.6522945172526824 1
gene  1 6 13 -4.355659654188436 0 348.0 -4.355659654188436 1
gene  1 2 42 3.8452266272370004 0 359.0 3.8452266272370004 1
gene  1 42 14 4.3697626454893586 0 360.0 4.3697626454893586 1
gene  1 13 42 2.47394372996406 0 366.0 2.47394372996406 1
gene  1 5 51 1.403079857406764 0 396.0 1.403079857406764 1
gene  1 51 14 -1.7514025041581711 0 397.0 -1.7514025041581711 1
gene  1 6 42 3.2244840820076948 0 423.0 3.2244840820076948 1
gene  1 39 42 0.6267995644629478 0 426.0 0.6267995644629478 1
gene  1 51 13 2.089400393434502 0 475.0 2.089400393434502 1
gene  1 39 14 2.3567842768668075 0 476.0 2.3567842768668075 1
gene  1 5 39 1.842502071486328 0 485.0 1.842502071486328 1
gene  1 5 68 0.5695556470864843 0 493.0 0.5695556470864843 1
gene  1 68 39 3.031751411230296 0 494.0 3.031751411230296 1
gene  1 4 51 0.2964724939878677 0 514.0 0.2964724939878677 1
gene  1 39 77 -0.5181498730657621 0 528.0 -0.5181498730657621 1
gene  1 77 8 -0.5759425622232702 0 529.0 -0.5759425622232702 1
genomeend 5
genomestart  6
trait 1 0.7406206948073408 1.010449726541541 0.747276035170299 2.969549466943627 0.4651853155222945 0.0 0.7201715107197918 0.5567444199729891 
node 1 1 1 1
node 2 1 1 1
node 3 1 1 1
node 4 1 1 1
node 5 1 1 1
node 6 1 1 1
node 7 1 1 3
node 8 1 0 0
node 13 1 0 2
node 14 1 0 2
node 39 1 0 0
node 42 1 0 0
node 51 1 0 0
node 68 1 0 0
node 77 1 0 0
gene  1 1 8 3.932546000161473 0 98.0 3.932546000161473 1
gene  1 2 8 -3.9043812030566056 0 99.0 -3.9043812030566056 1
gene  1 3 8 -6.052843694799124 0 100.0 -6.052843694799124 1
gene  1 4 8 -7.6709420364247265 0 101.0 -7.6709420364247265 1
gene  1 5 8 3.675322573515679 0 102.0 3.675322573515679 1
gene  1 6 8 -1.3996381817169634 0 103.0 -1.3996381817169634 1
gene  1 8 8 1.4978031035070143 1 105.0 1.4978031035070143 1
gene  1 13 8 0.3148266844411499 1 110.0 0.3148266844411499 1
gene  1 14 8 14.574413708639645 1 111.0 14.574413708639645 1
gene  1 3 13 0.31402574195730093 0 170.0 0.31402574195730093 1
gene  1 5 13 1.4562758169054741 0 172.0 1.4562758169054741 1
gene  1 7 13 7.499789394363965 0 174.0 7.499789394363965 1
gene  1 13 13 -4.437038919951414 1 180.0 -4.437038919951414 1
gene  1 2 14 2.8290833224037493 0 183.0 2.8290833224037493 1
gene  1 4 14 -3.6070110259973918 0 185.0 -3.6070110259973918 1
gene  1 6 14 -1.271254688589242 0 187.0 -1.271254688589242 1
gene  1 8 14 2.2458161155042764 0 189.0 2.2458161155042764 1
gene  1 13 14 -2.181980701274303 0 194.0 -2.181980701274303 1
gene  1 2 13 0.08806370931480484 0 213.0 0.08806370931480484 1
gene  1 4 13 5.035359744843953 0 230.0 5.035359744843953 1
gene  1 13 8 -2.130463322094806 0 244.0 -2.130463322094806 1
gene  1 7 14 4.290171598319424 0 264.0 4.290171598319424 1
gene  1 1 14 -6.5642969676886445 0 299.0 -6.5642969676886445 1
gene  1 5 14 -6.034524902082726 0 310.0 -6.034524902082726 1
gene  1 1 13 2.1320517849156726 0 311.0 2.1320517849156726 1
gene  1 13 39 -4.547431469920227 0 344.0 -4.547431469920227 1
gene  1 39 8 -4.654571733579429 0 345.0 -4.654571733579429 1
gene  1 6 13 1.0770639042286645 0 348.0 1.0770639042286645 1
gene  1 2 42 2.7300179664552635 0 359.0 2.7300179664552635 1
gene  1 42 14 5.582283633180801 0 360.0 5.582283633180801 1
gene  1 13 42 -0.9782397878028792 0 366.0 -0.9782397878028792 1
gene  1 5 51 1.4360691680883355 0 396.0 1.4360691680883355 1
gene  1 51 14 0.5546135906146483 0 397.0 0.5546135906146483 1
gene  1 6 42 1.9492973872117942 0 423.0 1.9492973872117942 1
gene  1 39 42 -3.3068294451195763 0 426.0 -3.3068294451195763 1
gene  1 51 13 -0.6109252974847204 0 475.0 -0.6109252974847204 1
gene  1 39 14 0.8769446009448166 0 476.0 0.8769446009448166 1
gene  1 5 39 -2.881640741840417 0 485.0 -2.881640741840417 1
gene  1 5 68 -0.5362160382937381 0 493.0 -0.5362160382937381 1
gene  1 68 39 0.6361598119488068 0 494.0 0.6361598119488068 1
gene  1 4 51 2.039798410505569 0 514.0 2.039798410505569 1
gene  1 39 77 -1.6498914875157433 0 528.0 -1.6498914875157433 1
gene  1 77 8 2.536151631284475 0 529.0 2.536151631284475 1
genomeend 6
genomestart  7
trait 1 2.732431393943948 0.0 0.0 0.798512545900133 0.9382603138953756 0.0 1.9280392103089152 0.8152719799274877 
node 1 1 1 1
node 2 1 1 1
node 3 1 1 1
node 4 1 1 1
node 5 1 1 1
node 6 1 1 1
node 7 1 1 3
node 8 1 0 0
node 9 1 0 0
node 10 1 0 0
node 13 1 0 2
node 14 1 0 2
node 28 1 0 0
node 41 1 0 0
node 43 1 0 0
node 47 1 0 0
node 62 1 0 0
gene  1 1 8 -10.148760174399229 0 98.0 -10.148760174399229 1
gene  1 3 8 -0.5705786803050217 0 100.0 -0.5705786803050217 1
gene  1 5 8 -0.731793420899499 0 102.0 -0.731793420899499 1
gene  1 6 8 0.28229854085543526 0 103.0 0.28229854085543526 1
gene  1 8 8 1.8625771560471631 1 105.0 1.8625771560471631 1
gene  1 1 9 3.7380079839592053 0 112.0 3.7380079839592053 1
gene  1 2 9 0.9982839943796378 0 113.0 0.9982839943796378 1
gene  1 3 9 6.719401698169554 0 114.0 6.719401698169554 1
gene  1 5 9 -1.968654576988892 0 116.0 -1.968654576988892 1
gene  1 7 9 -1.039045304996481 0 118.0 -1.039045304996481 1
gene  1 9 9 2.0626907296743777 1 120.0 2.0626907296743777 1
gene  1 10 9 4.923150826039185 1 121.0 4.923150826039185 1
gene  1 13 9 4.114282433244809 1 124.0 4.114282433244809 1
gene  1 2 10 2.1955271208561977 0 127.0 2.1955271208561977 1
gene  1 4 10 -2.0936806991608865 0 129.0 -2.0936806991608865 1
gene  1 5 10 -6.499734362915254 0 130.0 -6.499734362915254 1
gene  1 8 10 -5.631671137548208 0 133.0 -5.631671137548208 1
gene  1 9 10 3.076139564751784 0 134.0 3.076139564751784 1
gene  1 10 10 -4.065189114810468 1 135.0 -4.065189114810468 1
gene  1 13 10 -2.6139671309783674 1 138.0 -2.6139671309783674 1
gene  1 14 10 -7.0736908978674355 1 139.0 -7.0736908978674355 1
gene  1 2 13 5.711222184483301 0 169.0 5.711222184483301 1
gene  1 3 13 1.7242236350322835 0 170.0 1.7242236350322835 1
gene  1 6 13 -5.127509828928234 0 173.0 -5.127509828928234 1
gene  1 7 13 2.2388791057202733 0 174.0 2.2388791057202733 1
gene  1 9 13 0.37474387281582366 0 176.0 0.37474387281582366 1
gene  1 13 13 0.768568334009375 1 180.0 0.768568334009375 1
gene  1 14 13 0.012756283629585141 1 181.0 0.012756283629585141 1
gene  1 1 14 -0.34567005650140703 0 182.0 -0.34567005650140703 1
gene  1 3 14 -5.801068979007134 0 184.0 -5.801068979007134 1
gene  1 9 14 -9.182633586277781 0 190.0 -9.182633586277781 1
gene  1 10 14 -0.37078098446750407 0 191.0 -0.37078098446750407 1
gene  1 8 13 5.070116699341045 0 207.0 5.070116699341045 1
gene  1 1 10 -1.7524956317316434 0 226.0 -1.7524956317316434 1
gene  1 6 14 -1.6272067833454675 0 234.0 -1.6272067833454675 1
gene  1 8 28 -1.0023640151260471 1 293.0 -1.0023640151260471 1
gene  1 28 8 -0.12372966752674264 0 294.0 -0.12372966752674264 1
gene  1 8 9 -3.547160966280541 0 328.0 -3.547160966280541 1
gene  1 8 41 1.8861670716451684 1 357.0 1.8861670716451684 1
gene  1 41 8 4.458688752660617 0 358.0 4.458688752660617 1
gene  1 14 43 2.0057524434853535 1 364.0 2.0057524434853535 1
gene  1 43 10 3.9845002286668487 0 365.0 3.9845002286668487 1
gene  1 5 47 2.5368273916280772 0 375.0 2.5368273916280772 1
gene  1 47 9 3.120941762024772 0 376.0 3.120941762024772 1
gene  1 41 14 0.1831932719288587 0 387.0 0.1831932719288587 1
gene  1 4 28 -0.5158782109223516 0 419.0 -0.5158782109223516 1
gene  1 2 28 0.517093201013967 0 429.0 0.517093201013967 1
gene  1 1 62 -0.44436183286115016 0 470.0 -0.44436183286115016 1
gene  1 62 9 -5.818218383601518 0 471.0 -5.818218383601518 1
gene  1 8 14 0.7851579117433766 0 484.0 0.7851579117433766 1
gene  1 1 13 -1.7197233470709339 0 489.0 -1.7197233470709339 1
gene  1 28 10 -0.13526759811431288 0 510.0 -0.13526759811431288 1
gene  1 2 41 -0.9132265554730016 0 515.0 -0.9132265554730016 1
gene  1 41 47 1.5619662567721293 0 548.0 1.5619662567721293 1
genomeend 7
genomestart  8
trait 1 2.732431393943948 0.0 0.0 0.798512545900133 0.9382603138953756 0.0 1.9280392103089152 0.8152719799274877 
node 1 1 1 1
node 2 1 1 1
node 3 1 1 1
node 4 1 1 1
node 5 1 1 1
node 6 1 1 1
node 7 1 1 3
node 8 1 0 0
node 9 1 0 0
node 10 1 0 0
node 13 1 0 2
node 14 1 0 2
node 28 1 0 0
node 41 1 0 0
node 43 1 0 0
node 47 1 0 0
node 62 1 0 0
gene  1 1 8 -10.929220428182575 0 98.0 -10.929220428182575 1
gene  1 3 8 1.3523942688015669 0 100.0 1.3523942688015669 1
gene  1 5 8 -2.8057669755574954 0 102.0 -2.8057669755574954 1
gene  1 6 8 -3.782586502981066 0 103.0 -3.782586502981066 1
gene  1 8 8 1.0785350715913449 1 105.0 1.0785350715913449 1
gene  1 1 9 1.5400555289013833 0 112.0 1.5400555289013833 1
gene  1 2 9 -2.675623685335653 0 113.0 -2.675623685335653 1
gene  1 3 9 5.750557147519696 0 114.0 5.750557147519696 1
gene  1 5 9 -2.7548594499554557 0 116.0 -2.7548594499554557 1
gene  1 7 9 -2.264889153477292 0 118.0 -2.264889153477292 1
gene  1 9 9 -0.29314574088153655 1 120.0 -0.29314574088153655 1
gene  1 10 9 2.537993496062585 1 121.0 2.537993496062585 1
gene  1 13 9 1.7986109863808204 1 124.0 1.7986109863808204 1
gene  1 2 10 0.4494105726330573 0 127.0 0.4494105726330573 1
gene  1 4 10 -3.835118710637537 0 129.0 -3.835118710637537 1
gene  1 5 10 -5.37562536866902 0 130.0 -5.37562536866902 1
gene  1 8 10 -3.493825255378114 0 133.0 -3.493825255378114 1
gene  1 9 10 0.8532979659066116 0 134.0 0.8532979659066116 1
gene  1 10 10 -3.801680008975001 1 135.0 -3.801680008975001 1
gene  1 13 10 -0.004446044074657873 1 138.0 -0.004446044074657873 1
gene  1 14 10 -7.581563808433983 1 139.0 -7.581563808433983 1
gene  1 2 13 6.477750333830722 0 169.0 6.477750333830722 1
gene  1 3 13 3.505175133783174 0 170.0 3.505175133783174 1
gene  1 6 13 -2.317997051402207 0 173.0 -2.317997051402207 1
gene  1 7 13 1.6990188863658902 0 174.0 1.6990188863658902 1
gene  1 9 13 -2.138375402061847 0 176.0 -2.138375402061847 1
gene  1 13 13 -10.240925891291239 1 180.0 -10.240925891291239 1
gene  1 14 13 -1.1665639731491426 1 181.0 -1.1665639731491426 1
gene  1 1 14 -0.8826117128396094 0 182.0 -0.8826117128396094 1
gene  1 3 14 -3.7108086548756454 0 184.0 -3.7108086548756454 1
gene  1 9 14 -9.006943922010409 0 190.0 -9.006943922010409 1
gene  1 10 14 -0.635578532887666 0 191.0 -0.635578532887666 1
gene  1 8 13 3.2468935606989713 0 207.0 3.2468935606989713 1
gene  1 1 10 -7.137748912708766 0 226.0 -7.137748912708766 1
gene  1 6 14 -2.339037169584057 0 234.0 -2.339037169584057 1
gene  1 8 28 1.467457245742989 1 293.0 1.467457245742989 1
gene  1 28 8 0.3497093846773958 0 294.0 0.3497093846773958 1
gene  1 8 9 -2.1083907472475008 0 328.0 -2.1083907472475008 1
gene  1 8 41 0.28431133618458376 1 357.0 0.28431133618458376 1
gene  1 41 8 4.051935578328819 0 358.0 4.051935578328819 1
gene  1 14 43 2.816226242105638 1 364.0 2.816226242105638 1
gene  1 43 10 5.5096497171572825 0 365.0 5.5096497171572825 1
gene  1 5 47 1.8801127731397462 0 375.0 1.8801127731397462 1
gene  1 47 9 0.6431030669922291 0 376.0 0.6431030669922291 1
gene  1 41 14 -0.7969690605625066 0 387.0 -0.7969690605625066 1
gene  1 4 28 -1.5339259451856295 0 419.0 -1.5339259451856295 1
gene  1 2 28 0.9867554651241761 0 429.0 0.9867554651241761 1
gene  1 1 62 -0.07082536068750311 0 470.0 -0.07082536068750311 1
gene  1 62 9 -3.770455278788117 0 471.0 -3.770455278788117 1
gene  1 8 14 -0.9775595791317115 0 484.0 -0.9775595791317115 1
gene  1 1 13 0.6080875951008446 0 489.0 0.6080875951008446 1
gene  1 28 10 -0.34365531576749486 0 510.0 -0.34365531576749486 1
gene  1 2 41 -2.499466232948797 0 515.0 -2.499466232948797 1
gene  1 41 47 3.813932228061456 0 548.0 3.813932228061456 1
genomeend 8
genomestart  9
trait 1 0.0 0.0 0.2441704853234845 0.5314796224840325 3.398233465885692 0.0 0.8455906169698789 0.4629835320970156 
node 1 1 1 1
node 2 1 1 1
node 3 1 1 1
node 4 1 1 1
node 5 1 1 1
node 6 1 1 1
node 7 1 1 3
node 8 1 0 0
node 13 1 0 2
node 14 1 0 2
node 22 1 0 0
node 25 1 0 0
node 29 1 0 0
node 57 1 0 0
node 65 1 0 0
node 76 1 0 0
node 87 1 0 0
gene  1 1 8 6.219402134191743 0 98.0 6.219402134191743 1
gene  1 3 8 -3.5720115699015165 0 100.0 -3.5720115699015165 1
gene  1 4 8 -8.054110391707779 0 101.0 -8.054110391707779 1
gene  1 5 8 0.048472796843596955 0 102.0 0.048472796843596955 1
gene  1 6 8 3.0427709991855707 0 103.0 3.0427709991855707 1
gene  1 8 8 -4.201615123347174 1 105.0 -4.201615123347174 1
gene  1 1 13 -0.03342349707868353 0 168.0 -0.03342349707868353 1
gene  1 5 13 -2.0929812080491272 0 172.0 -2.0929812080491272 1
gene  1 13 13 4.31048896737906 1 180.0 4.31048896737906 1
gene  1 14 13 -0.8203444640236646 1 181.0 -0.8203444640236646 1
gene  1 2 14 3.900088759202299 0 183.0 3.900088759202299 0
gene  1 3 14 3.745887307988997 0 184.0 3.745887307988997 1
gene  1 5 14 -1.9283631695893249 0 186.0 -1.9283631695893249 1
gene  1 7 14 -2.990157079553148 0 188.0 -2.990157079553148 1
gene  1 8 14 8.869893624384455 0 189.0 8.869893624384455 1
gene  1 13 14 0.19267670317484686 0 194.0 0.19267670317484686 1
gene  1 2 13 -3.1639869734480306 0 236.0 -3.1639869734480306 1
gene  1 8 22 0.9884743486611735 0 240.0 0.9884743486611735 0
gene  1 22 14 11.963294401506044 0 241.0 11.963294401506044 1
gene  1 1 22 -3.8240765402873484 0 245.0 -3.8240765402873484 1
gene  1 13 8 -2.042952319903337 0 257.0 -2.042952319903337 1
gene  1 5 22 4.248873428318265 0 265.0 4.248873428318265 1
gene  1 1 25 -4.364207612204279 0 279.0 -4.364207612204279 1
gene  1 25 8 -0.8714818595651495 0 280.0 -0.8714818595651495 1
gene  1 8 29 0.29843738851107005 0 297.0 0.29843738851107005 1
gene  1 29 14 -8.738763773881002 0 298.0 -8.738763773881002 1
gene  1 1 14 3.4674113381208507 0 312.0 3.4674113381208507 1
gene  1 2 29 1.2491336556105952 0 330.0 1.2491336556105952 1
gene  1 5 25 2.8903848509164387 0 343.0 2.8903848509164387 1
gene  1 6 29 -2.980065159047304 0 386.0 -2.980065159047304 1
gene  1 22 29 -8.38175460173013 0 416.0 -8.38175460173013 1
gene  1 4 14 -3.48269227445896 0 424.0 -3.48269227445896 1
gene  1 4 29 3.39152019249196 0 432.0 3.39152019249196 1
gene  1 8 57 11.48283718648895 0 437.0 11.48283718648895 1
gene  1 57 14 -6.53504290007322 0 438.0 -6.53504290007322 1
gene  1 3 22 -4.800127509476424 0 440.0 -4.800127509476424 1
gene  1 2 25 -0.7707176167586918 0 455.0 -0.7707176167586918 1
gene  1 1 65 4.34629975020808 0 481.0 4.34629975020808 1
gene  1 65 25 2.5169563210443564 0 482.0 2.5169563210443564 1
gene  1 8 76 -2.994251904395881 0 525.0 -2.994251904395881 1
gene  1 76 22 4.765815517962737 0 526.0 4.765815517962737 1
gene  1 2 87 -0.9505304013813729 0 560.0 -0.9505304013813729 1
gene  1 87 14 -0.49257395933671955 0 561.0 -0.49257395933671955 1
genomeend 9
genomestart  10
trait 1 0.0 0.0 0.2441704853234845 0.5314796224840325 3.398233465885692 0.0 0.8455906169698789 0.4629835320970156 
node 1 1 1 1
node 2 1 1 1
node 3 1 1 1
node 4 1 1 1
node 5 1 1 1
node 6 1 1 1
node 7 1 1 3
node 8 1 0 0
node 13 1 0 2
node 14 1 0 2
node 22 1 0 0
node 25 1 0 0
node 29 1 0 0
node 57 1 0 0
node 65 1 0 0
node 76 1 0 0
node 87 1 0 0
gene  1 1 8 5.649901785961859 0 98.0 5.649901785961859 1
gene  1 3 8 -1.9082446667897226 0 100.0 -1.9082446667897226 1
gene  1 4 8 -8.51106236154066 0 101.0 -8.51106236154066 1
gene  1 5 8 -3.6734362925659183 0 102.0 -3.6734362925659183 1
gene  1 6 8 3.4140906004786986 0 103.0 3.4140906004786986 1
gene  1 8 8 -0.9345439349831153 1 105.0 -0.9345439349831153 1
gene  1 1 13 -2.4338726244108786 0 168.0 -2.4338726244108786 1
gene  1 5 13 -2.2520969118786787 0 172.0 -2.2520969118786787 1
gene  1 13 13 5.396449779645369 1 180.0 5.396449779645369 1
gene  1 14 13 -1.920413739414397 1 181.0 -1.920413739414397 1
gene  1 2 14 7.37131990759336 0 183.0 7.37131990759336 0
gene  1 3 14 4.473182353418018 0 184.0 4.473182353418018 1
gene  1 5 14 0.8430009011499484 0 186.0 0.8430009011499484 1
gene  1 7 14 -5.101567840074411 0 188.0 -5.101567840074411 1
gene  1 8 14 6.662564243396748 0 189.0 6.662564243396748 1
gene  1 13 14 -0.14806520209626872 0 194.0 -0.14806520209626872 1
gene  1 2 13 -4.08198668946139 0 236.0 -4.08198668946139 1
gene  1 8 22 3.2345446870672574 0 240.0 3.2345446870672574 0
gene  1 22 14 11.221828611065515 0 241.0 11.221828611065515 1
gene  1 1 22 -5.26849877640921 0 245.0 -5.26849877640921 1
gene  1 13 8 -2.8214682470852197 0 257.0 -2.8214682470852197 1
gene  1 5 22 2.7072248035771347 0 265.0 2.7072248035771347 1
gene  1 1 25 -2.107662208918101 0 279.0 -2.107662208918101 1
gene  1 25 8 2.914814035559938 0 280.0 2.914814035559938 1
gene  1 8 29 2.165846581649384 0 297.0 2.165846581649384 1
gene  1 29 14 -12.0679306008413 0 298.0 -12.0679306008413 1
gene  1 1 14 2.9378079350270014 0 312.0 2.9378079350270014 1
gene  1 2 29 1.701689802828386 0 330.0 1.701689802828386 1
gene  1 5 25 2.810899798527564 0 343.0 2.810899798527564 1
gene  1 6 29 -0.34304331326858883 0 386.0 -0.34304331326858883 1
gene  1 22 29 -4.55244475941636 0 416.0 -4.55244475941636 1
gene  1 4 14 -4.0069500996797816 0 424.0 -4.0069500996797816 1
gene  1 4 29 4.71129781310432 0 432.0 4.71129781310432 1
gene  1 8 57 10.377723291670092 0 437.0 10.377723291670092 1
gene  1 57 14 -4.8193236436022735 0 438.0 -4.8193236436022735 1
gene  1 3 22 -1.4230977682352086 0 440.0 -1.4230977682352086 1
gene  1 2 25 -2.2988605808088827 0 455.0 -2.2988605808088827 1
gene  1 1 65 4.34629975020808 0 481.0 4.34629975020808 1
gene  1 65 25 3.0035397306649765 0 482.0 3.0035397306649765 1
gene  1 8 76 -1.5557455495088317 0 525.0 -1.5557455495088317 1
gene  1 76 22 4.6835477432533565 0 526.0 4.6835477432533565 1
gene  1 2 87 -2.9798176212546923 0 560.0 -2.9798176212546923 1
gene  1 87 14 1.4121575832017603 0 561.0 1.4121575832017603 1
genomeend 10
genomestart  11
trait 1 0.5140788408839586 0.28986478643217717 0.2441704853234845 0.5314796224840325 3.1752136023158166 0.0 0.8455906169698789 0.4629835320970156 
node 1 1 1 1
node 2 1 1 1
node 3 1 1 1
node 4 1 1 1
node 5 1 1 1
node 6 1 1 1
node 7 1 1 3
node 8 1 0 0
node 13 1 0 2
node 14 1 0 2
node 22 1 0 0
node 25 1 0 0
node 29 1 0 0
node 57 1 0 0
node 65 1 0 0
node 76 1 0 0
node 87 1 0 0
gene  1 1 8 8.429077627272962 0 98.0 8.429077627272962 1
gene  1 3 8 -0.9345045835234895 0 100.0 -0.9345045835234895 1
gene  1 4 8 -8.498632059955744 0 101.0 -8.498632059955744 1
gene  1 5 8 -3.385263804790137 0 102.0 -3.385263804790137 1
gene  1 6 8 2.793714560416337 0 103.0 2.793714560416337 1
gene  1 8 8 -1.8397825368518341 1 105.0 -1.8397825368518341 1
gene  1 1 13 0.5744678433482007 0 168.0 0.5744678433482007 1
gene  1 5 13 -1.2540766299424044 0 172.0 -1.2540766299424044 1
gene  1 13 13 5.568505838253264 1 180.0 5.568505838253264 1
gene  1 14 13 -0.6874837239890221 1 181.0 -0.6874837239890221 1
gene  1 2 14 3.865908119663169 0 183.0 3.865908119663169 1
gene  1 3 14 8.244441035369077 0 184.0 8.244441035369077 1
gene  1 5 14 -1.9525200635554243 0 186.0 -1.9525200635554243 1
gene  1 7 14 -6.523301441406494 0 188.0 -6.523301441406494 1
gene  1 8 14 6.676292668646516 0 189.0 6.676292668646516 1
gene  1 13 14 -1.4621325249898067 0 194.0 -1.4621325249898067 1
gene  1 2 13 -6.306625062409719 0 236.0 -6.306625062409719 1
gene  1 8 22 1.086833107534438 0 240.0 1.086833107534438 0
gene  1 22 14 11.322837379946487 0 241.0 11.322837379946487 1
gene  1 1 22 -1.0537095010263005 0 245.0 -1.0537095010263005 1
gene  1 13 8 -3.2422421858115045 0 257.0 -3.2422421858115045 1
gene  1 5 22 3.5857657813814185 0 265.0 3.5857657813814185 1
gene  1 1 25 -3.7388598249710223 0 279.0 -3.7388598249710223 1
gene  1 25 8 3.3122907647119306 0 280.0 3.3122907647119306 1
gene  1 8 29 2.3806606691475842 0 297.0 2.3806606691475842 1
gene  1 29 14 -9.657895811653718 0 298.0 -9.657895811653718 1
gene  1 1 14 4.082047177564691 0 312.0 4.082047177564691 1
gene  1 2 29 1.072740655451864 0 330.0 1.072740655451864 1
gene  1 5 25 2.5188769058286473 0 343.0 2.5188769058286473 1
gene  1 6 29 0.7995832842607007 0 386.0 0.7995832842607007 1
gene  1 22 29 -3.9943957851203615 0 416.0 -3.9943957851203615 1
gene  1 4 14 -1.1139043818277279 0 424.0 -1.1139043818277279 1
gene  1 4 29 5.778535360320505 0 432.0 5.778535360320505 1
gene  1 8 57 7.295749144131317 0 437.0 7.295749144131317 1
gene  1 57 14 -4.266812201787147 0 438.0 -4.266812201787147 1
gene  1 3 22 -5.876136020043188 0 440.0 -5.876136020043188 1
gene  1 2 25 -0.7707176167586918 0 455.0 -0.7707176167586918 1
gene  1 1 65 2.8831159247018947 0 481.0 2.8831159247018947 1
gene  1 65 25 4.072747355067936 0 482.0 4.072747355067936 1
gene  1 8 76 -3.6799230793069224 0 525.0 -3.6799230793069224 1
gene  1 76 22 1.5906457164375567 0 526.0 1.5906457164375567 1
gene  1 2 87 -3.2606784175923273 0 560.0 -3.2606784175923273 1
gene  1 87 14 0.20354724022432347 0 561.0 0.20354724022432347 1
genomeend 11
genomestart  12
trait 1 1.9492969961009945 0.0 0.4289699328456915 1.1835456827051778 0.0 0.7294252873384013 0.042201429445747896 0.0 
node 1 1 1 1
node 2 1 1 1
node 3 1 1 1
node 4 1 1 1
node 5 1 1 1
node 6 1 1 1
node 7 1 1 3
node 13 1 0 2
node 14 1 0 2
node 49 1 0 0
node 73 1 0 0
node 81 1 0 0
gene  1 1 13 -3.370338270974673 0 168.0 -3.370338270974673 1
gene  1 2 13 -0.5699430845193547 0 169.0 -0.5699430845193547 1
gene  1 3 13 2.5027460838054005 0 170.0 2.5027460838054005 1
gene  1 4 13 2.725760985261181 0 171.0 2.725760985261181 1
gene  1 5 13 -1.8246054918258912 0 172.0 -1.8246054918258912 1
gene  1 6 13 -0.7324469247085961 0 173.0 -0.7324469247085961 1
gene  1 7 13 -1.5864220513153953 0 174.0 -1.5864220513153953 1
gene  1 14 13 1.4552676295539242 1 181.0 1.4552676295539242 1
gene  1 1 14 -0.37435851770839484 0 182.0 -0.37435851770839484 1
gene  1 2 14 2.2969043724753915 0 183.0 2.2969043724753915 1
gene  1 3 14 2.238765060445619 0 184.0 2.238765060445619 1
gene  1 13 14 0.4145180641087225 0 194.0 0.4145180641087225 1
gene  1 14 14 3.6336900657992333 1 195.0 3.6336900657992333 1
gene  1 7 14 1.3712128208787573 0 273.0 1.3712128208787573 1
gene  1 4 14 3.3782513569294563 0 283.0 3.3782513569294563 1
gene  1 5 14 8.939514337908994 0 303.0 8.939514337908994 1
gene  1 6 14 5.256228496321464 0 307.0 5.256228496321464 1
gene  1 3 49 -0.8347053781149677 0 389.0 -0.8347053781149677 1
gene  1 49 13 1.2798937182163437 0 390.0 1.2798937182163437 1
gene  1 5 49 2.214357880146097 0 403.0 2.214357880146097 1
gene  1 1 49 7.863028836850583 0 430.0 7.863028836850583 1
gene  1 7 49 10.657178697345618 0 456.0 10.657178697345618 1
gene  1 4 49 -4.412649814386262 0 495.0 -4.412649814386262 1
gene  1 6 73 -3.154256892514035 0 508.0 -3.154256892514035 1
gene  1 73 13 -4.206573384437224 0 509.0 -4.206573384437224 1
gene  1 6 81 -0.5033063381100957 0 542.0 -0.5033063381100957 1
gene  1 81 73 -0.624658847527404 0 543.0 -0.624658847527404 1
gene  1 81 49 -2.523470754444735 0 569.0 -2.523470754444735 1
genomeend 12
genomestart  13
trait 1 1.9492969961009945 0.0 0.4289699328456915 1.1835456827051778 0.0 0.7294252873384013 0.042201429445747896 0.0 
node 1 1 1 1
node 2 1 1 1
node 3 1 1 1
node 4 1 1 1
node 5 1 1 1
node 6 1 1 1
node 7 1 1 3
node 13 1 0 2
node 14 1 0 2
node 49 1 0 0
node 73 1 0 0
node 81 1 0 0
gene  1 1 13 -1.0883513390607986 0 168.0 -1.0883513390607986 1
gene  1 2 13 -4.498233843444984 0 169.0 -4.498233843444984 1
gene  1 3 13 1.6234083342561114 0 170.0 1.6234083342561114 1
gene  1 4 13 0.819886618265729 0 171.0 0.819886618265729 1
gene  1 5 13 -1.8131774761786241 0 172.0 -1.8131774761786241 1
gene  1 6 13 1.0524139990752464 0 173.0 1.0524139990752464 1
gene  1 7 13 3.2544522420273463 0 174.0 3.2544522420273463 1
gene  1 14 13 1.228205315480532 1 181.0 1.228205315480532 1
gene  1 1 14 -0.19583181179753817 0 182.0 -0.19583181179753817 1
gene  1 2 14 3.4104389923331793 0 183.0 3.4104389923331793 1
gene  1 3 14 3.509786962492503 0 184.0 3.509786962492503 1
gene  1 13 14 -0.762505185558197 0 194.0 -0.762505185558197 1
gene  1 14 14 2.7880078996794717 1 195.0 2.7880078996794717 1
gene  1 7 14 -0.5900112211268667 0 273.0 -0.5900112211268667 1
gene  1 4 14 0.9660138767908921 0 283.0 0.9660138767908921 1
gene  1 5 14 8.745922793955613 0 303.0 8.745922793955613 1
gene  1 6 14 5.522431491211224 0 307.0 5.522431491211224 1
gene  1 3 49 -1.7734606412693241 0 389.0 -1.7734606412693241 1
gene  1 49 13 -2.8688088634620215 0 390.0 -2.8688088634620215 1
gene  1 5 49 2.482385843387761 0 403.0 2.482385843387761 1
gene  1 1 49 6.804187331042742 0 430.0 6.804187331042742 1
gene  1 7 49 10.594696030717195 0 456.0 10.594696030717195 1
gene  1 4 49 -4.570945932126364 0 495.0 -4.570945932126364 1
gene  1 6 73 -0.3173802493392001 0 508.0 -0.3173802493392001 1
gene  1 73 13 -2.16266340674727 0 509.0 -2.16266340674727 1
gene  1 6 81 1.8597521253457514 0 542.0 1.8597521253457514 1
gene  1 81 73 -2.8676233861015543 0 543.0 -2.8676233861015543 1
gene  1 81 49 -3.370809547460875 0 569.0 -3.370809547460875 1
genomeend 13
genomestart  14
trait 1 1.9492969961009945 0.0 0.4289699328456915 1.1835456827051778 0.0 0.7294252873384013 0.042201429445747896 0.0 
node 1 1 1 1
node 2 1 1 1
node 3 1 1 1
node 4 1 1 1
node 5 1 1 1
node 6 1 1 1
node 7 1 1 3
node 13 1 0 2
node 14 1 0 2
node 49 1 0 0
node 73 1 0 0
node 81 1 0 0
gene  1 1 13 0.40294471579233915 0 168.0 0.40294471579233915 1
gene  1 2 13 -1.4360954446917282 0 169.0 -1.4360954446917282 1
gene  1 3 13 4.039579742387778 0 170.0 4.039579742387778 1
gene  1 4 13 0.9486878153930921 0 171.0 0.9486878153930921 1
gene  1 5 13 -1.0717543053776626 0 172.0 -1.0717543053776626 1
gene  1 6 13 -1.1735947678164198 0 173.0 -1.1735947678164198 1
gene  1 7 13 4.704144482679884 0 174.0 4.704144482679884 1
gene  1 14 13 0.360599386662543 1 181.0 0.360599386662543 1
gene  1 1 14 0.9472809010436092 0 182.0 0.9472809010436092 1
gene  1 2 14 0.9109591375476511 0 183.0 0.9109591375476511 1
gene  1 3 14 1.812626602708089 0 184.0 1.812626602708089 1
gene  1 13 14 -3.830990293274323 0 194.0 -3.830990293274323 1
gene  1 14 14 0.5492243529143865 1 195.0 0.5492243529143865 1
gene  1 7 14 2.3080305079433794 0 273.0 2.3080305079433794 1
gene  1 4 14 2.588441216315958 0 283.0 2.588441216315958 1
gene  1 5 14 10.575332605367077 0 303.0 10.575332605367077 1
gene  1 6 14 2.417334093412451 0 307.0 2.417334093412451 1
gene  1 3 49 1.9324599159814952 0 389.0 1.9324599159814952 1
gene  1 49 13 -1.3924767649199807 0 390.0 -1.3924767649199807 1
gene  1 5 49 -1.9214608945473182 0 403.0 -1.9214608945473182 1
gene  1 1 49 7.072419334143276 0 430.0 7.072419334143276 1
gene  1 7 49 9.482540148729893 0 456.0 9.482540148729893 1
gene  1 4 49 -3.660149470135345 0 495.0 -3.660149470135345 1
gene  1 6 73 -0.6670865507285046 0 508.0 -0.6670865507285046 1
gene  1 73 13 -2.0421261013544907 0 509.0 -2.0421261013544907 1
gene  1 6 81 -2.233325526117863 0 542.0 -2.233325526117863 1
gene  1 81 73 -3.0538319490337695 0 543.0 -3.0538319490337695 1
gene  1 81 49 -3.8494933469515082 0 569.0 -3.8494933469515082 1
genomeend 14
genomestart  15
trait 1 0.0 0.5319433208524987 1.2381570377802138 1.1036226464327767 0.10522835245191364 0.39032959932087685 0.0 0.0 
node 1 1 1 1
node 2 1 1 1
node 3 1 1 1
node 4 1 1 1
node 5 1 1 1
node 6 1 1 1
node 7 1 1 3
node 8 1 0 0
node 9 1 0 0
node 13 1 0 2
node 14 1 0 2
node 20 1 0 0
node 56 1 0 0
node 60 1 0 0
node 79 1 0 0
node 92 1 0 0
gene  1 1 8 -2.4401130322281 0 98.0 -2.4401130322281 1
gene  1 2 8 -0.746839824501925 0 99.0 -0.746839824501925 1
gene  1 3 8 0.058923769442749296 0 100.0 0.058923769442749296 1
gene  1 6 8 1.5322684653632679 0 103.0 1.5322684653632679 1
gene  1 8 8 -4.118334484717661 1 105.0 -4.118334484717661 1
gene  1 9 8 -0.7247570906990103 1 106.0 -0.7247570906990103 1
gene  1 13 8 -8.527326576136563 1 110.0 -8.527326576136563 1
gene  1 14 8 -8.173188014288243 1 111.0 -8.173188014288243 1
gene  1 1 9 1.9868107537930109 0 112.0 1.9868107537930109 1
gene  1 4 9 4.640502100911643 0 115.0 4.640502100911643 1
gene  1 5 9 4.787188353591844 0 116.0 4.787188353591844 1
gene  1 7 9 -4.92085856262217 0 118.0 -4.92085856262217 1
gene  1 9 9 1.3644351376868302 1 120.0 1.3644351376868302 1
gene  1 14 9 -1.740848624100174 1 125.0 -1.740848624100174 1
gene  1 2 13 0.7931754724775644 0 169.0 0.7931754724775644 1
gene  1 5 13 -3.9713113499732025 0 172.0 -3.9713113499732025 0
gene  1 8 13 -1.360387759887372 0 175.0 -1.360387759887372 1
gene  1 1 14 2.133959980765934 0 182.0 2.133959980765934 1
gene  1 2 14 -2.119112879986472 0 183.0 -2.119112879986472 1
gene  1 3 14 -0.6764472891087339 0 184.0 -0.6764472891087339 1
gene  1 6 14 -3.7190598711035365 0 187.0 -3.7190598711035365 1
gene  1 13 14 0.20931845328167498 0 194.0 0.20931845328167498 1
gene  1 14 14 4.103942616060234 1 195.0 4.103942616060234 1
gene  1 5 8 -0.5268568869159931 0 202.0 -0.5268568869159931 1
gene  1 4 13 -3.127832773499496 0 220.0 -3.127832773499496 1
gene  1 1 20 0.8927013731371863 0 231.0 0.8927013731371863 1
gene  1 20 14 4.762711966052468 0 232.0 4.762711966052468 1
gene  1 1 13 -7.853906280722734 0 329.0 -7.853906280722734 1
gene  1 13 20 -3.0016597380685344 0 337.0 -3.0016597380685344 0
gene  1 4 20 1.5009318553679112 0 339.0 1.5009318553679112 1
gene  1 9 8 -1.2990342386594698 0 404.0 -1.2990342386594698 1
gene  1 8 14 0.8044300921864682 0 410.0 0.8044300921864682 1
gene  1 5 56 -1.1338835088091856 0 434.0 -1.1338835088091856 1
gene  1 56 8 -2.543755196616651 0 435.0 -2.543755196616651 1
gene  1 2 9 -0.877683549097992 0 448.0 -0.877683549097992 1
gene  1 3 60 0.5816060303652082 0 458.0 0.5816060303652082 1
gene  1 60 8 1.5751068592287887 0 459.0 1.5751068592287887 1
gene  1 1 60 3.6118614687492983 0 479.0 3.6118614687492983 1
gene  1 7 56 6.985541950818748 0 520.0 6.985541950818748 1
gene  1 13 79 -0.20752275854726776 0 537.0 -0.20752275854726776 1
gene  1 79 20 1.0963940324006767 0 538.0 1.0963940324006767 1
gene  1 3 79 4.159921097525132 0 556.0 4.159921097525132 1
gene  1 5 92 1.0 0 575.0 0.0 1
gene  1 92 13 -3.9713113499732025 0 576.0 0.0 1
genomeend 15
genomestart  16
trait 1 0.0 0.5319433208524987 1.2381570377802138 1.1036226464327767 0.10522835245191364 0.39032959932087685 0.0 0.0 
node 1 1 1 1
node 2 1 1 1
node 3 1 1 1
node 4 1 1 1
node 5 1 1 1
node 6 1 1 1
node 7 1 1 3
node 8 1 0 0
node 9 1 0 0
node 13 1 0 2
node 14 1 0 2
node 20 1 0 0
node 56 1 0 0
node 60 1 0 0
node 79 1 0 0
node 92 1 0 0
gene  1 1 8 -4.324846670004449 0 98.0 -4.324846670004449 1
gene  1 2 8 1.342027452401492 0 99.0 1.342027452401492 1
gene  1 3 8 0.4468457194509919 0 100.0 0.4468457194509919 1
gene  1 6 8 1.4735124706207368 0 103.0 1.4735124706207368 1
gene  1 8 8 -4.88606402085258 1 105.0 -4.88606402085258 1
gene  1 9 8 0.16962750282345063 1 106.0 0.16962750282345063 1
gene  1 13 8 -1.2100584165432413 1 110.0 -1.2100584165432413 1
gene  1 14 8 -6.991894976658006 1 111.0 -6.991894976658006 1
gene  1 1 9 1.7555164264724592 0 112.0 1.7555164264724592 1
gene  1 4 9 -2.2956315797064457 0 115.0 -2.2956315797064457 1
gene  1 5 9 2.1577445593390023 0 116.0 2.1577445593390023 1
gene  1 7 9 -3.184536496515487 0 118.0 -3.184536496515487 1
gene  1 9 9 1.3644351376868302 1 120.0 1.3644351376868302 1
gene  1 14 9 -3.7594384548777726 1 125.0 -3.7594384548777726 1
gene  1 2 13 2.086629305512086 0 169.0 2.086629305512086 1
gene  1 5 13 -2.2351027959611636 0 172.0 -2.2351027959611636 0
gene  1 8 13 -2.657809709939095 0 175.0 -2.657809709939095 1
gene  1 1 14 2.217684610087194 0 182.0 2.217684610087194 1
gene  1 2 14 -1.926084033461704 0 183.0 -1.926084033461704 1
gene  1 3 14 0.5830278165926692 0 184.0 0.5830278165926692 1
gene  1 6 14 -4.7503952181665525 0 187.0 -4.7503952181665525 1
gene  1 13 14 -0.9477509859501607 0 194.0 -0.9477509859501607 1
gene  1 14 14 0.6417316655014638 1 195.0 0.6417316655014638 1
gene  1 5 8 -2.3646441844052575 0 202.0 -2.3646441844052575 1
gene  1 4 13 -3.127832773499496 0 220.0 -3.127832773499496 1
gene  1 1 20 0.00789985090723222 0 231.0 0.00789985090723222 1
gene  1 20 14 3.421670376581039 0 232.0 3.421670376581039 1
gene  1 1 13 -6.052062129719683 0 329.0 -6.052062129719683 1
gene  1 13 20 -1.7046373474421364 0 337.0 -1.7046373474421364 0
gene  1 4 20 -1.2755703433292167 0 339.0 -1.2755703433292167 1
gene  1 9 8 -1.967397745958551 0 404.0 -1.967397745958551 1
gene  1 8 14 1.1687257949399084 0 410.0 1.1687257949399084 1
gene  1 5 56 -1.1338835088091856 0 434.0 -1.1338835088091856 1
gene  1 56 8 -0.5142303060010522 0 435.0 -0.5142303060010522 1
gene  1 2 9 1.3913230883488945 0 448.0 1.3913230883488945 1
gene  1 3 60 3.0707713290857397 0 458.0 3.0707713290857397 1
gene  1 60 8 3.0823258187675657 0 459.0 3.0823258187675657 1
gene  1 1 60 1.3086588369127812 0 479.0 1.3086588369127812 1
gene  1 7 56 -2.0818194451156677 0 520.0 -2.0818194451156677 1
gene  1 13 79 -0.374118091199199 0 537.0 -0.374118091199199 1
gene  1 79 20 3.318524453515712 0 538.0 3.318524453515712 1
gene  1 3 79 5.7154951136461225 0 556.0 5.7154951136461225 1
gene  1 5 92 -0.9007821562205848 0 575.0 -0.9007821562205848 1
gene  1 92 13 -5.167235280925693 0 576.0 -5.167235280925693 1
genomeend 16
genomestart  17
trait 1 0.0 0.9380171225566565 2.8572292317689647 0.0 0.9774676473893938 0.5916859962196944 0.0 0.0 
node 1 1 1 1
node 2 1 1 1
node 3 1 1 1
node 4 1 1 1
node 5 1 1 1
node 6 1 1 1
node 7 1 1 3
node 13 1 0 2
node 14 1 0 2
node 45 1 0 0
node 71 1 0 0
node 89 1 0 0
gene  1 1 13 -2.310383813314359 0 168.0 -2.310383813314359 1
gene  1 2 13 2.3846855144087966 0 169.0 2.3846855144087966 1
gene  1 5 13 -1.1672734843931336 0 172.0 -1.1672734843931336 1
gene  1 6 13 -1.8149766901248197 0 173.0 -1.8149766901248197 1
gene  1 7 13 0.798398211990216 0 174.0 0.798398211990216 1
gene  1 3 14 1.1889694018142936 0 184.0 1.1889694018142936 1
gene  1 4 14 0.8772509880737583 0 185.0 0.8772509880737583 1
gene  1 7 14 -4.56237379820101 0 188.0 -4.56237379820101 1
gene  1 13 14 0.7240015849355015 0 194.0 0.7240015849355015 1
gene  1 14 14 3.208464614789807 1 195.0 3.208464614789807 1
gene  1 4 13 3.9726799606330045 0 235.0 3.9726799606330045 1
gene  1 1 14 0.5181764032828114 0 242.0 0.5181764032828114 1
gene  1 5 14 3.4825464980083183 0 319.0 3.4825464980083183 1
gene  1 1 45 -0.7837306078836509 0 370.0 -0.7837306078836509 1
gene  1 45 13 0.4028907148607461 0 371.0 0.4028907148607461 0
gene  1 4 45 -1.8344227113064415 0 497.0 -1.8344227113064415 1
gene  1 6 71 0.9091382297386696 0 502.0 0.9091382297386696 1
gene  1 71 13 0.4421479170404685 0 503.0 0.4421479170404685 1
gene  1 45 71 1.382061894810206 0 534.0 1.382061894810206 1
gene  1 3 13 2.735877838804574 0 535.0 2.735877838804574 1
gene  1 45 89 -0.5537390732003624 0 566.0 -0.5537390732003624 1
gene  1 89 13 3.2793206023064077 0 567.0 3.2793206023064077 1
genomeend 17
genomestart  18
trait 1 0.0 0.9380171225566565 2.8572292317689647 0.0 0.9774676473893938 0.5916859962196944 0.0 0.0 
node 1 1 1 1
node 2 1 1 1
node 3 1 1 1
node 4 1 1 1
node 5 1 1 1
node 6 1 1 1
node 7 1 1 3
node 13 1 0 2
node 14 1 0 2
node 45 1 0 0
node 71 1 0 0
node 89 1 0 0
gene  1 1 13 0.08491060828374897 0 168.0 0.08491060828374897 1
gene  1 2 13 -0.7992244668172184 0 169.0 -0.7992244668172184 1
gene  1 5 13 1.10869053548198 0 172.0 1.10869053548198 1
gene  1 6 13 -1.9383763076543308 0 173.0 -1.9383763076543308 1
gene  1 7 13 -0.3836636943439811 0 174.0 -0.3836636943439811 1
gene  1 3 14 1.1889694018142936 0 184.0 1.1889694018142936 1
gene  1 4 14 -0.18633059960603215 0 185.0 -0.18633059960603215 1
gene  1 7 14 -6.288772756424654 0 188.0 -6.288772756424654 1
gene  1 13 14 -0.6010607101895757 0 194.0 -0.6010607101895757 1
gene  1 14 14 -0.8174141114164074 1 195.0 -0.8174141114164074 1
gene  1 4 13 1.670631188639741 0 235.0 1.670631188639741 1
gene  1 1 14 2.1794324774372313 0 242.0 2.1794324774372313 1
gene  1 5 14 1.9532351330213087 0 319.0 1.9532351330213087 1
gene  1 1 45 -0.5051205095592346 0 370.0 -0.5051205095592346 1
gene  1 45 13 0.48744797346576474 0 371.0 0.48744797346576474 0
gene  1 4 45 0.12346516309311206 0 497.0 0.12346516309311206 1
gene  1 6 71 0.49188788134108163 0 502.0 0.49188788134108163 1
gene  1 71 13 -3.3519824070774975 0 503.0 -3.3519824070774975 1
gene  1 45 71 3.384567312034811 0 534.0 3.384567312034811 1
gene  1 3 13 3.4850504058689937 0 535.0 3.4850504058689937 1
gene  1 45 89 2.2005717187659144 0 566.0 2.2005717187659144 1
gene  1 89 13 2.280855286857685 0 567.0 2.280855286857685 1
genomeend 18
genomestart  19
trait 1 0.0 0.9380171225566565 2.8572292317689647 0.0 0.9774676473893938 0.5916859962196944 0.0 0.0 
node 1 1 1 1
node 2 1 1 1
node 3 1 1 1
node 4 1 1 1
node 5 1 1 1
node 6 1 1 1
node 7 1 1 3
node 13 1 0 2
node 14 1 0 2
node 45 1 0 0
node 71 1 0 0
node 89 1 0 0
gene  1 1 13 -4.030867848317838 0 168.0 -4.030867848317838 1
gene  1 2 13 0.1593159120703178 0 169.0 0.1593159120703178 1
gene  1 5 13 1.10869053548198 0 172.0 1.10869053548198 1
gene  1 6 13 -3.129387296859634 0 173.0 -3.129387296859634 1
gene  1 7 13 0.2872412550556178 0 174.0 0.2872412550556178 1
gene  1 3 14 -0.6718628631459194 0 184.0 -0.6718628631459194 1
gene  1 4 14 9.082253101525579 0 185.0 9.082253101525579 1
gene  1 7 14 -5.907409504359088 0 188.0 -5.907409504359088 1
gene  1 13 14 -1.982486116162897 0 194.0 -1.982486116162897 1
gene  1 14 14 -0.8765436640737316 1 195.0 -0.8765436640737316 1
gene  1 4 13 0.4315782751455237 0 235.0 0.4315782751455237 1
gene  1 1 14 2.0587197950279035 0 242.0 2.0587197950279035 1
gene  1 5 14 4.666565438790696 0 319.0 4.666565438790696 1
gene  1 1 45 -0.7556531359654434 0 370.0 -0.7556531359654434 1
gene  1 45 13 3.075066350021702 0 371.0 3.075066350021702 0
gene  1 4 45 -1.0422254691568238 0 497.0 -1.0422254691568238 1
gene  1 6 71 0.25795572537870637 0 502.0 0.25795572537870637 1
gene  1 71 13 -3.943480417495894 0 503.0 -3.943480417495894 1
gene  1 45 71 -2.0117809086145293 0 534.0 -2.0117809086145293 1
gene  1 3 13 2.735877838804574 0 535.0 2.735877838804574 1
gene  1 45 89 -1.6198916824075218 0 566.0 -1.6198916824075218 1
gene  1 89 13 0.249058580413817 0 567.0 0.249058580413817 1
genomeend 19
