genomestart  0
trait 1 0.12236385032328645 0.11996509262718169 0.0 1.2348572107762614 0.0 1.3168578850843018 1.0590140864502917 1.7905313975538821 
node 1 1 1 1
node 2 1 1 1
node 3 1 1 1
node 4 1 1 1
node 5 1 1 1
node 6 1 1 1
node 7 1 1 3
node 13 1 0 2
node 14 1 0 2
node 33 1 0 0
gene  1 2 13 5.173400129925821 0 169.0 5.173400129925821 1
gene  1 3 13 -2.0688215853673095 0 170.0 -2.0688215853673095 1
gene  1 4 13 -3.1402938303065095 0 171.0 -3.1402938303065095 1
gene  1 6 13 2.7018685729449623 0 173.0 2.7018685729449623 1
gene  1 7 13 -2.7792657910432825 0 174.0 -2.7792657910432825 1
gene  1 13 13 -2.397313059909618 1 180.0 -2.397313059909618 1
gene  1 1 14 -2.5011243405413843 0 182.0 -2.5011243405413843 0
gene  1 2 14 17.6509291434651 0 183.0 17.6509291434651 1
gene  1 5 14 5.948688220539292 0 186.0 5.948688220539292 1
gene  1 6 14 2.19496328142619 0 187.0 2.19496328142619 1
gene  1 7 14 0.633172744798614 0 188.0 0.633172744798614 1
gene  1 13 14 -4.070018499493609 0 194.0 -4.070018499493609 1
gene  1 14 14 11.216537525006144 1 195.0 11.216537525006144 1
gene  1 4 14 -0.9567628449267491 0 196.0 -0.9567628449267491 1
gene  1 1 13 0.8323451891163114 0 216.0 0.8323451891163114 1
gene  1 1 33 -3.9448858822550155 0 313.0 -3.9448858822550155 1
gene  1 33 14 1.3434676533574954 0 314.0 1.3434676533574954 1
genomeend 0
genomestart  1
trait 1 0.12236385032328645 0.11996509262718169 0.0 1.2348572107762614 0.0 1.3168578850843018 1.0590140864502917 1.7905313975538821 
node 1 1 1 1
node 2 1 1 1
node 3 1 1 1
node 4 1 1 1
node 5 1 1 1
node 6 1 1 1
node 7 1 1 3
node 13 1 0 2
node 14 1 0 2
node 33 1 0 0
gene  1 2 13 2.78997209340475 0 169.0 2.78997209340475 1
gene  1 3 13 2.7036403885281586 0 170.0 2.7036403885281586 1
gene  1 4 13 -3.8533024690637183 0 171.0 -3.8533024690637183 1
gene  1 6 13 0.201744253548775 0 173.0 0.201744253548775 1
gene  1 7 13 -5.535809318208784 0 174.0 -5.535809318208784 1
gene  1 13 13 -1.1346969446363075 1 180.0 -1.1346969446363075 1
gene  1 1 14 -1.6722371377349445 0 182.0 -1.6722371377349445 0
gene  1 2 14 17.34684608246762 0 183.0 17.34684608246762 1
gene  1 5 14 2.60178359586741 0 186.0 2.60178359586741 1
gene  1 6 14 5.00867968135772 0 187.0 5.00867968135772 1
gene  1 7 14 1.0980562110239593 0 188.0 1.0980562110239593 1
gene  1 13 14 -4.326897922852212 0 194.0 -4.326897922852212 1
gene  1 14 14 10.844913375472402 1 195.0 10.844913375472402 1
gene  1 4 14 -1.0828038864629077 0 196.0 -1.0828038864629077 1
gene  1 1 13 1.8410583295663803 0 216.0 1.8410583295663803 1
gene  1 1 33 -2.9472782979540555 0 313.0 -2.9472782979540555 1
gene  1 33 14 3.03618784773375 0 314.0 3.03618784773375 1
genomeend 1
genomestart  2
trait 1 0.8313848170184033 0.29425544536966464 0.8345681790297872 0.07766507438443143 0.7226901151585414 0.41262400137975846 0.0 0.6750180349138831 
node 1 1 1 1
node 2 1 1 1
node 3 1 1 1
node 4 1 1 1
node 5 1 1 1
node 6 1 1 1
node 7 1 1 3
node 13 1 0 2
node 14 1 0 2
node 21 1 0 0
node 24 1 0 0
node 34 1 0 0
gene  1 1 13 9.174084098457952 0 168.0 9.174084098457952 1
gene  1 4 13 8.486916945955961 0 171.0 8.486916945955961 1
gene  1 5 13 -1.4493776397412506 0 172.0 -1.4493776397412506 1
gene  1 7 13 -0.833337921616305 0 174.0 -0.833337921616305 1
gene  1 13 13 -3.9544756006086 1 180.0 -3.9544756006086 1
gene  1 2 14 -0.37407897884494723 0 183.0 -0.37407897884494723 1
gene  1 3 14 -0.3661557020317421 0 184.0 -0.3661557020317421 0
gene  1 6 14 0.06976146811886941 0 187.0 0.06976146811886941 1
gene  1 13 14 -5.101933811670801 0 194.0 -5.101933811670801 1
gene  1 14 14 21.062583340159197 1 195.0 21.062583340159197 1
gene  1 6 13 -2.2256884477695476 0 205.0 -2.2256884477695476 1
gene  1 5 14 -3.5679726599450334 0 223.0 -3.5679726599450334 1
gene  1 3 13 8.29248188380264 0 229.0 8.29248188380264 1
gene  1 2 13 -1.2901658562893854 0 233.0 -1.2901658562893854 1
gene  1 1 21 3.203820717973457 0 238.0 3.203820717973457 1
gene  1 21 13 -8.935830555582719 0 239.0 -8.935830555582719 1
gene  1 5 21 -0.7940459686673644 0 253.0 -0.7940459686673644 1
gene  1 3 21 1.6208604376660558 0 270.0 1.6208604376660558 1
gene  1 1 24 -0.0020158339600513386 0 275.0 -0.0020158339600513386 1
gene  1 24 13 -2.1792026328384093 0 276.0 -2.1792026328384093 1
gene  1 3 34 0.7278483928179622 0 315.0 0.7278483928179622 1
gene  1 34 14 -0.049003709865570455 0 316.0 -0.049003709865570455 1
gene  1 3 24 -0.01700258032578872 0 324.0 -0.01700258032578872 1
genomeend 2
genomestart  3
trait 1 0.8313848170184033 0.29425544536966464 0.8345681790297872 0.07766507438443143 0.7226901151585414 0.41262400137975846 0.0 0.6750180349138831 
node 1 1 1 1
node 2 1 1 1
node 3 1 1 1
node 4 1 1 1
node 5 1 1 1
node 6 1 1 1
node 7 1 1 3
node 13 1 0 2
node 14 1 0 2
node 21 1 0 0
node 24 1 0 0
node 34 1 0 0
gene  1 1 13 7.885126981349135 0 168.0 7.885126981349135 1
gene  1 4 13 8.16910776551496 0 171.0 8.16910776551496 1
gene  1 5 13 2.2968678883469584 0 172.0 2.2968678883469584 1
gene  1 7 13 1.2163629476943103 0 174.0 1.2163629476943103 1
gene  1 13 13 -5.7212654893427555 1 180.0 -5.7212654893427555 1
gene  1 2 14 -0.9598172227370083 0 183.0 -0.9598172227370083 1
gene  1 3 14 -3.6412654599487606 0 184.0 -3.6412654599487606 0
gene  1 6 14 0.6489226430275696 0 187.0 0.6489226430275696 1
gene  1 13 14 -5.761046918915311 0 194.0 -5.761046918915311 1
gene  1 14 14 17.88985435743011 1 195.0 17.88985435743011 1
gene  1 6 13 -3.9086433784925028 0 205.0 -3.9086433784925028 1
gene  1 5 14 -3.519896318544597 0 223.0 -3.519896318544597 1
gene  1 3 13 6.666547577193096 0 229.0 6.666547577193096 1
gene  1 2 13 1.4324543113307056 0 233.0 1.4324543113307056 1
gene  1 1 21 0.6203631040611453 0 238.0 0.6203631040611453 1
gene  1 21 13 -8.809959415945833 0 239.0 -8.809959415945833 1
gene  1 5 21 0.9392459751567996 0 253.0 0.9392459751567996 1
gene  1 3 21 -3.086841188423475 0 270.0 -3.086841188423475 1
gene  1 1 24 -1.292018514741819 0 275.0 -1.292018514741819 1
gene  1 24 13 -2.3586431839552624 0 276.0 -2.3586431839552624 1
gene  1 3 34 0.7278483928179622 0 315.0 0.7278483928179622 1
gene  1 34 14 -0.049003709865570455 0 316.0 -0.049003709865570455 1
gene  1 3 24 0.12756287341077743 0 324.0 0.12756287341077743 1
genomeend 3
genomestart  4
trait 1 0.8313848170184033 0.29425544536966464 0.8345681790297872 0.07766507438443143 0.7226901151585414 0.41262400137975846 0.0 0.6750180349138831 
node 1 1 1 1
node 2 1 1 1
node 3 1 1 1
node 4 1 1 1
node 5 1 1 1
node 6 1 1 1
node 7 1 1 3
node 13 1 0 2
node 14 1 0 2
node 21 1 0 0
node 24 1 0 0
node 34 1 0 0
gene  1 1 13 7.996756985119918 0 168.0 7.996756985119918 1
gene  1 4 13 6.012349414406685 0 171.0 6.012349414406685 1
gene  1 5 13 1.050287061132993 0 172.0 1.050287061132993 1
gene  1 7 13 -1.0567319782771603 0 174.0 -1.0567319782771603 1
gene  1 13 13 -5.293490108760483 1 180.0 -5.293490108760483 1
gene  1 2 14 -1.8473090217615051 0 183.0 -1.8473090217615051 1
gene  1 3 14 -1.4282911381332601 0 184.0 -1.4282911381332601 0
gene  1 6 14 -1.107701025802104 0 187.0 -1.107701025802104 1
gene  1 13 14 -4.425588675141186 0 194.0 -4.425588675141186 1
gene  1 14 14 20.061654892946645 1 195.0 20.061654892946645 1
gene  1 6 13 -3.1839519321487666 0 205.0 -3.1839519321487666 1
gene  1 5 14 -2.233600863846455 0 223.0 -2.233600863846455 1
gene  1 3 13 7.007671450109246 0 229.0 7.007671450109246 1
gene  1 2 13 -0.09892771746744256 0 233.0 -0.09892771746744256 1
gene  1 1 21 2.5834382974313606 0 238.0 2.5834382974313606 1
gene  1 21 13 -6.853043897963572 0 239.0 -6.853043897963572 1
gene  1 5 21 1.110079888369634 0 253.0 1.110079888369634 1
gene  1 3 21 -0.6548161735991739 0 270.0 -0.6548161735991739 1
gene  1 1 24 -0.620771903213285 0 275.0 -0.620771903213285 1
gene  1 24 13 -1.1461725059198575 0 276.0 -1.1461725059198575 1
gene  1 3 34 0.7278483928179622 0 315.0 0.7278483928179622 1
gene  1 34 14 -0.049003709865570455 0 316.0 -0.049003709865570455 1
gene  1 3 24 -1.1643386506834705 0 324.0 -1.1643386506834705 1
genomeend 4
genomestart  5
trait 1 2.3156897472124616 1.038817852750874 0.43173212214279244 1.2383225027221012 0.8876970332296057 0.0 1.118561686491879 0.2231066753882277 
node 1 1 1 1
node 2 1 1 1
node 3 1 1 1
node 4 1 1 1
node 5 1 1 1
node 6 1 1 1
node 7 1 1 3
node 8 1 0 0
node 13 1 0 2
node 14 1 0 2
gene  1 1 8 -3.2035232546254115 0 98.0 -3.2035232546254115 1
gene  1 2 8 -0.6737954798302466 0 99.0 -0.6737954798302466 1
gene  1 3 8 -0.11473424693491557 0 100.0 -0.11473424693491557 1
gene  1 4 8 3.9954848432069348 0 101.0 3.9954848432069348 1
gene  1 5 8 -3.252529364697093 0 102.0 -3.252529364697093 1
gene  1 6 8 -0.4975700797036182 0 103.0 -0.4975700797036182 1
gene  1 8 8 -1.8989545464169297 1 105.0 -1.8989545464169297 1
gene  1 13 8 2.250540649709813 1 110.0 2.250540649709813 1
gene  1 14 8 -3.5193613387683023 1 111.0 -3.5193613387683023 1
gene  1 3 13 4.447478885681083 0 170.0 4.447478885681083 1
gene  1 5 13 7.4530082255079595 0 172.0 7.4530082255079595 1
gene  1 7 13 0.8468543100731443 0 174.0 0.8468543100731443 1
gene  1 13 13 -3.2189705876525068 1 180.0 -3.2189705876525068 1
gene  1 2 14 -1.3940023256943355 0 183.0 -1.3940023256943355 1
gene  1 4 14 -9.04437444128556 0 185.0 -9.04437444128556 1
gene  1 6 14 -1.6867652907244037 0 187.0 -1.6867652907244037 1
gene  1 8 14 -5.059367821814877 0 189.0 -5.059367821814877 1
gene  1 13 14 -1.8874550292659764 0 194.0 -1.8874550292659764 1
gene  1 2 13 -2.283772005297497 0 213.0 -2.283772005297497 1
gene  1 4 13 -0.633792329111482 0 230.0 -0.633792329111482 1
gene  1 13 8 1.879643956724826 0 244.0 1.879643956724826 1
gene  1 7 14 0.8052424356324662 0 264.0 0.8052424356324662 1
gene  1 1 14 2.3627119367985756 0 299.0 2.3627119367985756 1
gene  1 5 14 -0.7945255686994956 0 310.0 -0.7945255686994956 1
gene  1 1 13 -1.1497286095747323 0 311.0 -1.1497286095747323 1
genomeend 5
genomestart  6
trait 1 2.3156897472124616 1.038817852750874 0.43173212214279244 1.2383225027221012 0.8876970332296057 0.0 1.118561686491879 0.2231066753882277 
node 1 1 1 1
node 2 1 1 1
node 3 1 1 1
node 4 1 1 1
node 5 1 1 1
node 6 1 1 1
node 7 1 1 3
node 8 1 0 0
node 13 1 0 2
node 14 1 0 2
gene  1 1 8 -5.403876091021175 0 98.0 -5.403876091021175 1
gene  1 2 8 -0.26234832752061493 0 99.0 -0.26234832752061493 1
gene  1 3 8 -0.44883019140619657 0 100.0 -0.44883019140619657 1
gene  1 4 8 4.9797392259644555 0 101.0 4.9797392259644555 1
gene  1 5 8 -2.083123353913186 0 102.0 -2.083123353913186 1
gene  1 6 8 -2.7103677008695133 0 103.0 -2.7103677008695133 1
gene  1 8 8 -1.4728138718643158 1 105.0 -1.4728138718643158 1
gene  1 13 8 4.265062979449673 1 110.0 4.265062979449673 1
gene  1 14 8 -2.090854004891164 1 111.0 -2.090854004891164 1
gene  1 3 13 4.580492441510944 0 170.0 4.580492441510944 1
gene  1 5 13 4.967335582266969 0 172.0 4.967335582266969 1
gene  1 7 13 3.295140471526662 0 174.0 3.295140471526662 1
gene  1 13 13 -3.6256710290786294 1 180.0 -3.6256710290786294 1
gene  1 2 14 -2.7305461846384387 0 183.0 -2.7305461846384387 1
gene  1 4 14 -10.201250799717222 0 185.0 -10.201250799717222 1
gene  1 6 14 -2.24463534715401 0 187.0 -2.24463534715401 1
gene  1 8 14 -5.702806510775733 0 189.0 -5.702806510775733 1
gene  1 13 14 -1.069772066977407 0 194.0 -1.069772066977407 1
gene  1 2 13 -2.1184484661541556 0 213.0 -2.1184484661541556 1
gene  1 4 13 -2.923146711079875 0 230.0 -2.923146711079875 1
gene  1 13 8 -0.607197099663175 0 244.0 -0.607197099663175 1
gene  1 7 14 1.9972132925781416 0 264.0 1.9972132925781416 1
gene  1 1 14 1.8009070448746642 0 299.0 1.8009070448746642 1
gene  1 5 14 -1.9691012437104896 0 310.0 -1.9691012437104896 1
gene  1 1 13 0.2932291171813117 0 311.0 0.2932291171813117 1
genomeend 6
genomestart  7
trait 1 1.3246046552763442 0.0 0.6715679179718652 0.876858839596525 0.9371719768747795 0.4004553947000543 0.4130893652942357 0.0 
node 1 1 1 1
node 2 1 1 1
node 3 1 1 1
node 4 1 1 1
node 5 1 1 1
node 6 1 1 1
node 7 1 1 3
node 8 1 0 0
node 9 1 0 0
node 10 1 0 0
node 13 1 0 2
node 14 1 0 2
node 28 1 0 0
gene  1 1 8 8.14774743999016 0 98.0 8.14774743999016 1
gene  1 3 8 4.499444899391518 0 100.0 4.499444899391518 1
gene  1 5 8 15.373125552610635 0 102.0 15.373125552610635 1
gene  1 6 8 1.6337557878418694 0 103.0 1.6337557878418694 1
gene  1 8 8 5.531454753321606 1 105.0 5.531454753321606 1
gene  1 1 9 2.534064558834366 0 112.0 2.534064558834366 1
gene  1 2 9 2.772399624741755 0 113.0 2.772399624741755 1
gene  1 3 9 0.15384121870220024 0 114.0 0.15384121870220024 1
gene  1 5 9 -3.6776955587144635 0 116.0 -3.6776955587144635 1
gene  1 7 9 4.895092297348818 0 118.0 4.895092297348818 1
gene  1 9 9 -2.671093101467426 1 120.0 -2.671093101467426 1
gene  1 10 9 -1.3985715982477367 1 121.0 -1.3985715982477367 1
gene  1 13 9 6.8695380224516525 1 124.0 6.8695380224516525 1
gene  1 2 10 -3.6672730096784143 0 127.0 -3.6672730096784143 1
gene  1 4 10 -9.782421604727734 0 129.0 -9.782421604727734 1
gene  1 5 10 -4.205838061342415 0 130.0 -4.205838061342415 1
gene  1 8 10 8.396756295315802 0 133.0 8.396756295315802 1
gene  1 9 10 -8.319861005596703 0 134.0 -8.319861005596703 1
gene  1 10 10 0.5674489056475847 1 135.0 0.5674489056475847 1
gene  1 13 10 -7.414821241736538 1 138.0 -7.414821241736538 1
gene  1 14 10 4.4435364310966925 1 139.0 4.4435364310966925 1
gene  1 2 13 1.399736852544496 0 169.0 1.399736852544496 1
gene  1 3 13 -4.373797054066952 0 170.0 -4.373797054066952 1
gene  1 6 13 -4.862318563413373 0 173.0 -4.862318563413373 1
gene  1 7 13 4.332684278492321 0 174.0 4.332684278492321 1
gene  1 9 13 -1.5441642244194531 0 176.0 -1.5441642244194531 1
gene  1 13 13 -3.565801163710283 1 180.0 -3.565801163710283 1
gene  1 14 13 7.000506232216969 1 181.0 7.000506232216969 1
gene  1 1 14 0.8699523880934596 0 182.0 0.8699523880934596 1
gene  1 3 14 11.38794995186398 0 184.0 11.38794995186398 1
gene  1 9 14 -1.7234422030911094 0 190.0 -1.7234422030911094 1
gene  1 10 14 -2.7543946043492484 0 191.0 -2.7543946043492484 1
gene  1 8 13 -1.914143530574148 0 207.0 -1.914143530574148 1
gene  1 1 10 2.0391347731556246 0 226.0 2.0391347731556246 1
gene  1 6 14 1.862105889803052 0 234.0 1.862105889803052 1
gene  1 8 28 2.0749432293373897 1 293.0 2.0749432293373897 1
gene  1 28 8 1.6347533330514383 0 294.0 1.6347533330514383 1
gene  1 8 9 -0.3992510580716946 0 328.0 -0.3992510580716946 1
gene  1 7 10 -1.3327606305282769 0 338.0 -1.3327606305282769 1
genomeend 7
genomestart  8
trait 1 1.3246046552763442 0.0 0.6715679179718652 0.876858839596525 0.9371719768747795 0.4004553947000543 0.4130893652942357 0.0 
node 1 1 1 1
node 2 1 1 1
node 3 1 1 1
node 4 1 1 1
node 5 1 1 1
node 6 1 1 1
node 7 1 1 3
node 8 1 0 0
node 9 1 0 0
node 10 1 0 0
node 13 1 0 2
node 14 1 0 2
node 28 1 0 0
gene  1 1 8 6.7362884305327615 0 98.0 6.7362884305327615 1
gene  1 3 8 6.119727105182425 0 100.0 6.119727105182425 1
gene  1 5 8 17.113050544245645 0 102.0 17.113050544245645 1
gene  1 6 8 1.5731686443175406 0 103.0 1.5731686443175406 1
gene  1 8 8 5.069894632616224 1 105.0 5.069894632616224 1
gene  1 1 9 1.5940794738056279 0 112.0 1.5940794738056279 1
gene  1 2 9 1.7801099332365995 0 113.0 1.7801099332365995 1
gene  1 3 9 2.47000699949696 0 114.0 2.47000699949696 1
gene  1 5 9 -1.3219370482822872 0 116.0 -1.3219370482822872 1
gene  1 7 9 5.409812788109871 0 118.0 5.409812788109871 1
gene  1 9 9 -2.7076077657918383 1 120.0 -2.7076077657918383 1
gene  1 10 9 0.14535325643170594 1 121.0 0.14535325643170594 1
gene  1 13 9 7.10328505580003 1 124.0 7.10328505580003 1
gene  1 2 10 -2.000398585929235 0 127.0 -2.000398585929235 1
gene  1 4 10 -7.700053954912761 0 129.0 -7.700053954912761 1
gene  1 5 10 -6.27575099280176 0 130.0 -6.27575099280176 1
gene  1 8 10 8.425286229244131 0 133.0 8.425286229244131 1
gene  1 9 10 -8.322589296129134 0 134.0 -8.322589296129134 1
gene  1 10 10 -0.4615650652821377 1 135.0 -0.4615650652821377 1
gene  1 13 10 -7.5953010988462495 1 138.0 -7.5953010988462495 1
gene  1 14 10 4.666038187593485 1 139.0 4.666038187593485 1
gene  1 2 13 0.43922821351360763 0 169.0 0.43922821351360763 1
gene  1 3 13 -1.9657838355045074 0 170.0 -1.9657838355045074 1
gene  1 6 13 -5.012229037542556 0 173.0 -5.012229037542556 1
gene  1 7 13 6.758972093576627 0 174.0 6.758972093576627 1
gene  1 9 13 -0.3350985818059655 0 176.0 -0.3350985818059655 1
gene  1 13 13 -5.040794579806048 1 180.0 -5.040794579806048 1
gene  1 14 13 7.921766451841428 1 181.0 7.921766451841428 1
gene  1 1 14 -0.4383412428617024 0 182.0 -0.4383412428617024 1
gene  1 3 14 9.611130234125083 0 184.0 9.611130234125083 1
gene  1 9 14 0.25394255993200443 0 190.0 0.25394255993200443 1
gene  1 10 14 -1.3485439577586924 0 191.0 -1.3485439577586924 1
gene  1 8 13 -1.914143530574148 0 207.0 -1.914143530574148 1
gene  1 1 10 2.0391347731556246 0 226.0 2.0391347731556246 1
gene  1 6 14 -0.6079321522959027 0 234.0 -0.6079321522959027 1
gene  1 8 28 1.7846603232342544 1 293.0 1.7846603232342544 1
gene  1 28 8 1.6347533330514383 0 294.0 1.6347533330514383 1
gene  1 8 9 -0.3992510580716946 0 328.0 -0.3992510580716946 1
genomeend 8
genomestart  9
trait 1 1.3246046552763442 0.0 0.6715679179718652 0.876858839596525 0.9371719768747795 0.4004553947000543 0.4130893652942357 0.0 
node 1 1 1 1
node 2 1 1 1
node 3 1 1 1
node 4 1 1 1
node 5 1 1 1
node 6 1 1 1
node 7 1 1 3
node 8 1 0 0
node 9 1 0 0
node 10 1 0 0
node 13 1 0 2
node 14 1 0 2
node 28 1 0 0
gene  1 1 8 9.900824566472302 0 98.0 9.900824566472302 1
gene  1 3 8 4.498571327383753 0 100.0 4.498571327383753 1
gene  1 5 8 13.988641120831844 0 102.0 13.988641120831844 1
gene  1 6 8 2.136810476725053 0 103.0 2.136810476725053 1
gene  1 8 8 4.423680123562805 1 105.0 4.423680123562805 1
gene  1 1 9 3.359963234645683 0 112.0 3.359963234645683 1
gene  1 2 9 0.8044996033455298 0 113.0 0.8044996033455298 1
gene  1 3 9 0.6734456029515352 0 114.0 0.6734456029515352 1
gene  1 5 9 -5.331223947966539 0 116.0 -5.331223947966539 1
gene  1 7 9 7.105925611529024 0 118.0 7.105925611529024 1
gene  1 9 9 -2.3872805712975853 1 120.0 -2.3872805712975853 1
gene  1 10 9 -1.8007704306276506 1 121.0 -1.8007704306276506 1
gene  1 13 9 4.372164870101075 1 124.0 4.372164870101075 1
gene  1 2 10 -5.533826139348497 0 127.0 -5.533826139348497 1
gene  1 4 10 -10.724197492275122 0 129.0 -10.724197492275122 1
gene  1 5 10 -3.4141479764400566 0 130.0 -3.4141479764400566 1
gene  1 8 10 7.68396160099196 0 133.0 7.68396160099196 1
gene  1 9 10 -9.676613755467361 0 134.0 -9.676613755467361 1
gene  1 10 10 -1.79120740298722 1 135.0 -1.79120740298722 1
gene  1 13 10 -7.178633138386523 1 138.0 -7.178633138386523 1
gene  1 14 10 3.5192881365323796 1 139.0 3.5192881365323796 1
gene  1 2 13 0.45442533909520844 0 169.0 0.45442533909520844 1
gene  1 3 13 -2.880611240227255 0 170.0 -2.880611240227255 1
gene  1 6 13 -7.029427444900734 0 173.0 -7.029427444900734 1
gene  1 7 13 4.836394066863198 0 174.0 4.836394066863198 1
gene  1 9 13 -3.837055821170495 0 176.0 -3.837055821170495 1
gene  1 13 13 -5.78951612246152 1 180.0 -5.78951612246152 1
gene  1 14 13 5.790785494669417 1 181.0 5.790785494669417 1
gene  1 1 14 -1.203758841767693 0 182.0 -1.203758841767693 1
gene  1 3 14 10.949499201890488 0 184.0 10.949499201890488 1
gene  1 9 14 -0.522880454646524 0 190.0 -0.522880454646524 1
gene  1 10 14 -2.7543946043492484 0 191.0 -2.7543946043492484 1
gene  1 8 13 -1.914143530574148 0 207.0 -1.914143530574148 1
gene  1 1 10 2.980039160231744 0 226.0 2.980039160231744 1
gene  1 6 14 1.862105889803052 0 234.0 1.862105889803052 1
gene  1 8 28 0.10912693524160577 1 293.0 0.10912693524160577 1
gene  1 28 8 1.670109170179464 0 294.0 1.670109170179464 1
gene  1 8 9 -0.3992510580716946 0 328.0 -0.3992510580716946 1
genomeend 9
genomestart  10
trait 1 0.0 0.0 0.0 0.4381130679433708 1.1905783516961135 0.5894393928717271 0.0 1.1223712917930246 
node 1 1 1 1
node 2 1 1 1
node 3 1 1 1
node 4 1 1 1
node 5 1 1 1
node 6 1 1 1
node 7 1 1 3
node 8 1 0 0
node 13 1 0 2
node 14 1 0 2
node 22 1 0 0
node 25 1 0 0
node 29 1 0 0
gene  1 1 8 6.849479037227279 0 98.0 6.849479037227279 1
gene  1 3 8 1.6552512681529512 0 100.0 1.6552512681529512 1
gene  1 4 8 -0.7365653887724251 0 101.0 -0.7365653887724251 1
gene  1 5 8 4.724373303434664 0 102.0 4.724373303434664 1
gene  1 6 8 13.828503050627742 0 103.0 13.828503050627742 1
gene  1 8 8 -0.3110144196333515 1 105.0 -0.3110144196333515 1
gene  1 1 13 3.842767777275488 0 168.0 3.842767777275488 1
gene  1 5 13 4.937149074077804 0 172.0 4.937149074077804 1
gene  1 13 13 -0.8468217982643753 1 180.0 -0.8468217982643753 1
gene  1 14 13 -2.280625990418146 1 181.0 -2.280625990418146 1
gene  1 2 14 2.5219974972924555 0 183.0 2.5219974972924555 1
gene  1 3 14 0.5320429609999602 0 184.0 0.5320429609999602 1
gene  1 5 14 1.6299417689420896 0 186.0 1.6299417689420896 1
gene  1 7 14 0.7341147429561159 0 188.0 0.7341147429561159 1
gene  1 8 14 -0.31018246102736957 0 189.0 -0.31018246102736957 1
gene  1 13 14 -0.6532356598928055 0 194.0 -0.6532356598928055 1
gene  1 2 13 13.222229565642744 0 236.0 13.222229565642744 1
gene  1 8 22 -11.643268887850722 0 240.0 -11.643268887850722 1
gene  1 22 14 1.3619325809964264 0 241.0 1.3619325809964264 1
gene  1 1 22 4.4654506642904455 0 245.0 4.4654506642904455 1
gene  1 13 8 -0.5067450507582771 0 257.0 -0.5067450507582771 1
gene  1 5 22 -6.218243606828466 0 265.0 -6.218243606828466 1
gene  1 1 25 -1.1540837909751036 0 279.0 -1.1540837909751036 1
gene  1 25 8 -4.1540866649654795 0 280.0 -4.1540866649654795 1
gene  1 8 29 -2.08660617391861 0 297.0 -2.08660617391861 1
gene  1 29 14 4.073368813014227 0 298.0 4.073368813014227 1
gene  1 1 14 -4.837238573821001 0 312.0 -4.837238573821001 1
gene  1 2 29 0.22113369701416463 0 330.0 0.22113369701416463 1
genomeend 10
genomestart  11
trait 1 0.0 0.15517796804547568 0.15129359452277458 0.2528998957768447 0.0 0.8778085804841863 1.106386715936813 0.19246702122178583 
node 1 1 1 1
node 2 1 1 1
node 3 1 1 1
node 4 1 1 1
node 5 1 1 1
node 6 1 1 1
node 7 1 1 3
node 13 1 0 2
node 14 1 0 2
gene  1 1 13 10.67500801234296 0 168.0 10.67500801234296 1
gene  1 2 13 -1.4264856408724615 0 169.0 -1.4264856408724615 1
gene  1 3 13 -10.656205836229136 0 170.0 -10.656205836229136 1
gene  1 4 13 1.9362641523042954 0 171.0 1.9362641523042954 1
gene  1 5 13 1.447175320905275 0 172.0 1.447175320905275 1
gene  1 6 13 -3.369104533375699 0 173.0 -3.369104533375699 1
gene  1 7 13 -1.507395478883106 0 174.0 -1.507395478883106 1
gene  1 14 13 3.034614201956556 1 181.0 3.034614201956556 1
gene  1 1 14 0.10616565703444181 0 182.0 0.10616565703444181 1
gene  1 2 14 0.6782225118395788 0 183.0 0.6782225118395788 1
gene  1 3 14 -4.57041087249418 0 184.0 -4.57041087249418 1
gene  1 13 14 -0.5693774531125244 0 194.0 -0.5693774531125244 1
gene  1 14 14 0.7119176628801693 1 195.0 0.7119176628801693 1
gene  1 7 14 0.287854791833973 0 273.0 0.287854791833973 1
gene  1 4 14 -1.6457921246934548 0 283.0 -1.6457921246934548 1
gene  1 5 14 -0.6648303557564001 0 303.0 -0.6648303557564001 1
gene  1 6 14 -4.300876655894134 0 307.0 -4.300876655894134 1
genomeend 11
genomestart  12
trait 1 0.0 0.15517796804547568 0.15129359452277458 0.2528998957768447 0.0 0.8778085804841863 1.106386715936813 0.19246702122178583 
node 1 1 1 1
node 2 1 1 1
node 3 1 1 1
node 4 1 1 1
node 5 1 1 1
node 6 1 1 1
node 7 1 1 3
node 13 1 0 2
node 14 1 0 2
gene  1 1 13 8.181556139272612 0 168.0 8.181556139272612 1
gene  1 2 13 0.73838540633356 0 169.0 0.73838540633356 1
gene  1 3 13 -11.737463495346407 0 170.0 -11.737463495346407 1
gene  1 4 13 1.9066861389964906 0 171.0 1.9066861389964906 1
gene  1 5 13 1.4850470864035543 0 172.0 1.4850470864035543 1
gene  1 6 13 -4.590951727662255 0 173.0 -4.590951727662255 1
gene  1 7 13 -2.2707058105368088 0 174.0 -2.2707058105368088 1
gene  1 14 13 3.034614201956556 1 181.0 3.034614201956556 1
gene  1 1 14 -1.3465561785664608 0 182.0 -1.3465561785664608 1
gene  1 2 14 0.6782225118395788 0 183.0 0.6782225118395788 1
gene  1 3 14 -6.458672466207581 0 184.0 -6.458672466207581 1
gene  1 13 14 -1.0334951518267539 0 194.0 -1.0334951518267539 1
gene  1 14 14 -0.33541704996144106 1 195.0 -0.33541704996144106 1
gene  1 7 14 2.2223131454251193 0 273.0 2.2223131454251193 1
gene  1 4 14 -2.3675046410072014 0 283.0 -2.3675046410072014 1
gene  1 5 14 0.32617102440003476 0 303.0 0.32617102440003476 1
gene  1 6 14 -3.8615034247139497 0 307.0 -3.8615034247139497 1
genomeend 12
genomestart  13
trait 1 0.0 0.15517796804547568 0.15129359452277458 0.2528998957768447 0.0 0.8778085804841863 1.106386715936813 0.19246702122178583 
node 1 1 1 1
node 2 1 1 1
node 3 1 1 1
node 4 1 1 1
node 5 1 1 1
node 6 1 1 1
node 7 1 1 3
node 13 1 0 2
node 14 1 0 2
gene  1 1 13 10.67500801234296 0 168.0 10.67500801234296 1
gene  1 2 13 -1.4264856408724615 0 169.0 -1.4264856408724615 1
gene  1 3 13 -10.656205836229136 0 170.0 -10.656205836229136 1
gene  1 4 13 1.9362641523042954 0 171.0 1.9362641523042954 1
gene  1 5 13 1.447175320905275 0 172.0 1.447175320905275 1
gene  1 6 13 -3.369104533375699 0 173.0 -3.369104533375699 1
gene  1 7 13 -1.507395478883106 0 174.0 -1.507395478883106 1
gene  1 14 13 3.034614201956556 1 181.0 3.034614201956556 1
gene  1 1 14 0.10616565703444181 0 182.0 0.10616565703444181 1
gene  1 2 14 0.6782225118395788 0 183.0 0.6782225118395788 1
gene  1 3 14 -4.57041087249418 0 184.0 -4.57041087249418 1
gene  1 13 14 -0.5693774531125244 0 194.0 -0.5693774531125244 1
gene  1 14 14 0.7119176628801693 1 195.0 0.7119176628801693 1
gene  1 7 14 0.287854791833973 0 273.0 0.287854791833973 1
gene  1 4 14 -1.6457921246934548 0 283.0 -1.6457921246934548 1
gene  1 5 14 -0.6648303557564001 0 303.0 -0.6648303557564001 1
gene  1 6 14 -4.300876655894134 0 307.0 -4.300876655894134 1
genomeend 13
genomestart  14
trait 1 0.975688873414642 0.07758898402273784 0.0 0.34550648186010774 0.5952891758480567 0.7336239866779567 0.0 0.8056395569644828 
node 1 1 1 1
node 2 1 1 1
node 3 1 1 1
node 4 1 1 1
node 5 1 1 1
node 6 1 1 1
node 7 1 1 3
node 13 1 0 2
node 14 1 0 2
gene  1 1 13 7.96182409938769 0 168.0 7.96182409938769 1
gene  1 2 13 -0.3100351426147758 0 169.0 -0.3100351426147758 1
gene  1 3 13 -8.767653505580183 0 170.0 -8.767653505580183 1
gene  1 4 13 0.432545174750276 0 171.0 0.432545174750276 1
gene  1 5 13 4.1662968340744975 0 172.0 4.1662968340744975 1
gene  1 6 13 -5.549281763052724 0 173.0 -5.549281763052724 1
gene  1 7 13 -0.6642348420679283 0 174.0 -0.6642348420679283 1
gene  1 14 13 -1.1846726942114951 1 181.0 -1.1846726942114951 1
gene  1 1 14 -0.9471030181179554 0 182.0 -0.9471030181179554 1
gene  1 2 14 2.497981343946387 0 183.0 2.497981343946387 1
gene  1 3 14 -1.0979098062524157 0 184.0 -1.0979098062524157 1
gene  1 13 14 -0.2837404576162066 0 194.0 -0.2837404576162066 1
gene  1 14 14 1.2095479619236622 1 195.0 1.2095479619236622 1
gene  1 7 14 -1.2445774403646577 0 273.0 -1.2445774403646577 1
gene  1 4 14 -1.941285380472412 0 283.0 -1.941285380472412 1
gene  1 5 14 -0.6648303557564001 0 303.0 -0.6648303557564001 1
gene  1 6 14 -4.864788974727162 0 307.0 -4.864788974727162 1
genomeend 14
genomestart  15
trait 1 0.731715373568969 0.5319433208524987 0.8875428902212121 1.0172554146688002 0.2545070174269727 0.6799681748259421 0.0 0.0 
node 1 1 1 1
node 2 1 1 1
node 3 1 1 1
node 4 1 1 1
node 5 1 1 1
node 6 1 1 1
node 7 1 1 3
node 8 1 0 0
node 9 1 0 0
node 13 1 0 2
node 14 1 0 2
node 20 1 0 0
gene  1 1 8 -0.1085329246991491 0 98.0 -0.1085329246991491 1
gene  1 2 8 -0.3760185567354202 0 99.0 -0.3760185567354202 1
gene  1 3 8 2.42520627656889 0 100.0 2.42520627656889 1
gene  1 6 8 1.1635203136878332 0 103.0 1.1635203136878332 1
gene  1 8 8 -0.9253032258985703 1 105.0 -0.9253032258985703 1
gene  1 9 8 0.09173802825321031 1 106.0 0.09173802825321031 1
gene  1 13 8 -0.31953446538519115 1 110.0 -0.31953446538519115 1
gene  1 14 8 -6.933161777302562 1 111.0 -6.933161777302562 1
gene  1 1 9 5.794990863851534 0 112.0 5.794990863851534 1
gene  1 4 9 -1.7697692337131334 0 115.0 -1.7697692337131334 1
gene  1 5 9 1.2305349957542597 0 116.0 1.2305349957542597 1
gene  1 7 9 -3.9423527639165306 0 118.0 -3.9423527639165306 1
gene  1 9 9 -0.147005584980195 1 120.0 -0.147005584980195 1
gene  1 14 9 -1.7108435228752554 1 125.0 -1.7108435228752554 1
gene  1 2 13 -11.058473607434271 0 169.0 -11.058473607434271 1
gene  1 5 13 -0.6266068248261236 0 172.0 -0.6266068248261236 1
gene  1 8 13 -0.5257903216372413 0 175.0 -0.5257903216372413 1
gene  1 1 14 -0.9666161542600253 0 182.0 -0.9666161542600253 1
gene  1 2 14 12.386437568902041 0 183.0 12.386437568902041 1
gene  1 3 14 2.207743782061092 0 184.0 2.207743782061092 1
gene  1 6 14 14.72732424741924 0 187.0 14.72732424741924 1
gene  1 13 14 7.615171949979285 0 194.0 7.615171949979285 1
gene  1 14 14 -3.0730325159086993 1 195.0 -3.0730325159086993 1
gene  1 5 8 -1.7296831559429746 0 202.0 -1.7296831559429746 1
gene  1 4 13 0.10046024249678909 0 220.0 0.10046024249678909 1
gene  1 1 20 -0.4971329247266407 0 231.0 -0.4971329247266407 1
gene  1 20 14 0.8422952448311605 0 232.0 0.8422952448311605 1
gene  1 1 13 9.783505525563356 0 329.0 9.783505525563356 1
gene  1 13 20 -9.618717159359434 0 337.0 -9.618717159359434 1
gene  1 4 20 -2.9050010704680016 0 339.0 -2.9050010704680016 1
genomeend 15
genomestart  16
trait 1 0.731715373568969 0.5319433208524987 0.8875428902212121 1.0172554146688002 0.2545070174269727 0.6799681748259421 0.0 0.0 
node 1 1 1 1
node 2 1 1 1
node 3 1 1 1
node 4 1 1 1
node 5 1 1 1
node 6 1 1 1
node 7 1 1 3
node 8 1 0 0
node 9 1 0 0
node 13 1 0 2
node 14 1 0 2
node 20 1 0 0
gene  1 1 8 -0.1085329246991491 0 98.0 -0.1085329246991491 1
gene  1 2 8 -0.2908778491789418 0 99.0 -0.2908778491789418 1
gene  1 3 8 2.0516821961443172 0 100.0 2.0516821961443172 1
gene  1 6 8 3.276330029692317 0 103.0 3.276330029692317 1
gene  1 8 8 -1.2440831143224247 1 105.0 -1.2440831143224247 1
gene  1 9 8 1.8497435871080532 1 106.0 1.8497435871080532 1
gene  1 13 8 0.31098272178327535 1 110.0 0.31098272178327535 1
gene  1 14 8 -6.933161777302562 1 111.0 -6.933161777302562 1
gene  1 1 9 6.525718782172042 0 112.0 6.525718782172042 1
gene  1 4 9 2.1876981919742957 0 115.0 2.1876981919742957 1
gene  1 5 9 0.5483721585485932 0 116.0 0.5483721585485932 1
gene  1 7 9 -3.724085023985308 0 118.0 -3.724085023985308 1
gene  1 9 9 -0.147005584980195 1 120.0 -0.147005584980195 1
gene  1 14 9 -3.5408678727674197 1 125.0 -3.5408678727674197 1
gene  1 2 13 -11.058473607434271 0 169.0 -11.058473607434271 1
gene  1 5 13 1.5799533151736964 0 172.0 1.5799533151736964 1
gene  1 8 13 1.7066271698459106 0 175.0 1.7066271698459106 1
gene  1 1 14 -1.9662069013239423 0 182.0 -1.9662069013239423 1
gene  1 2 14 14.170480856714414 0 183.0 14.170480856714414 1
gene  1 3 14 0.3122466057870876 0 184.0 0.3122466057870876 1
gene  1 6 14 12.644141996820291 0 187.0 12.644141996820291 1
gene  1 13 14 6.6717474902526455 0 194.0 6.6717474902526455 1
gene  1 14 14 -4.672084262643699 1 195.0 -4.672084262643699 1
gene  1 5 8 1.2988016605628128 0 202.0 1.2988016605628128 1
gene  1 4 13 -2.2357640068346876 0 220.0 -2.2357640068346876 1
gene  1 1 20 -1.8066788997611412 0 231.0 -1.8066788997611412 1
gene  1 20 14 -0.15950629339534594 0 232.0 -0.15950629339534594 1
gene  1 1 13 10.281751549866778 0 329.0 10.281751549866778 1
gene  1 13 20 -8.679283231016225 0 337.0 -8.679283231016225 1
genomeend 16
genomestart  17
trait 1 0.0 0.8507286365631731 0.8412243628926098 0.8164647912856297 0.6061681788876561 0.0 0.0 0.07895419735974474 
node 1 1 1 1
node 2 1 1 1
node 3 1 1 1
node 4 1 1 1
node 5 1 1 1
node 6 1 1 1
node 7 1 1 3
node 13 1 0 2
node 14 1 0 2
gene  1 1 13 1.815657950653545 0 168.0 1.815657950653545 1
gene  1 2 13 -12.279611787459404 0 169.0 -12.279611787459404 1
gene  1 5 13 -3.2465896758564363 0 172.0 -3.2465896758564363 1
gene  1 6 13 0.07874147146038069 0 173.0 0.07874147146038069 1
gene  1 7 13 0.8616648635516104 0 174.0 0.8616648635516104 1
gene  1 3 14 0.3125637300812293 0 184.0 0.3125637300812293 1
gene  1 4 14 5.552243870159458 0 185.0 5.552243870159458 1
gene  1 7 14 -4.3040818686875415 0 188.0 -4.3040818686875415 1
gene  1 13 14 10.427039967767914 0 194.0 10.427039967767914 1
gene  1 14 14 -4.442752306136567 1 195.0 -4.442752306136567 1
gene  1 4 13 3.327523402337954 0 235.0 3.327523402337954 1
gene  1 1 14 2.7884033087395736 0 242.0 2.7884033087395736 1
gene  1 5 14 5.529020417893496 0 319.0 5.529020417893496 1
genomeend 17
genomestart  18
trait 1 0.0 0.8507286365631731 0.8412243628926098 0.8164647912856297 0.6061681788876561 0.0 0.0 0.07895419735974474 
node 1 1 1 1
node 2 1 1 1
node 3 1 1 1
node 4 1 1 1
node 5 1 1 1
node 6 1 1 1
node 7 1 1 3
node 13 1 0 2
node 14 1 0 2
node 38 1 0 0
gene  1 1 13 0.07797410872137389 0 168.0 0.07797410872137389 0
gene  1 2 13 -10.16891565154841 0 169.0 -10.16891565154841 1
gene  1 5 13 -3.5664342580643913 0 172.0 -3.5664342580643913 1
gene  1 6 13 -0.6796000236038056 0 173.0 -0.6796000236038056 1
gene  1 7 13 -0.6298711842439384 0 174.0 -0.6298711842439384 1
gene  1 3 14 0.8661090723472432 0 184.0 0.8661090723472432 1
gene  1 4 14 4.256508343225421 0 185.0 4.256508343225421 1
gene  1 7 14 -3.7020958390484675 0 188.0 -3.7020958390484675 1
gene  1 13 14 8.761714092923214 0 194.0 8.761714092923214 1
gene  1 14 14 -5.685800510986799 1 195.0 -5.685800510986799 1
gene  1 4 13 1.9023472452124242 0 235.0 1.9023472452124242 1
gene  1 1 14 4.3551690462672585 0 242.0 4.3551690462672585 1
gene  1 5 14 3.783130260824677 0 319.0 3.783130260824677 1
gene  1 1 38 1.0 0 340.0 0.0 1
gene  1 38 13 0.07797410872137389 0 341.0 0.0 1
genomeend 18
genomestart  19
trait 1 0.0 0.8507286365631731 0.8412243628926098 0.8164647912856297 0.6061681788876561 0.0 0.0 0.07895419735974474 
node 1 1 1 1
node 2 1 1 1
node 3 1 1 1
node 4 1 1 1
node 5 1 1 1
node 6 1 1 1
node 7 1 1 3
node 13 1 0 2
node 14 1 0 2
gene  1 1 13 -2.2857495994098143 0 168.0 -2.2857495994098143 1
gene  1 2 13 -10.268579505110248 0 169.0 -10.268579505110248 1
gene  1 5 13 -1.8940011301006647 0 172.0 -1.8940011301006647 1
gene  1 6 13 1.4639678341049913 0 173.0 1.4639678341049913 1
gene  1 7 13 -0.5051233430000652 0 174.0 -0.5051233430000652 1
gene  1 3 14 1.1329851618828344 0 184.0 1.1329851618828344 1
gene  1 4 14 5.818220751373754 0 185.0 5.818220751373754 1
gene  1 7 14 -2.674007899024189 0 188.0 -2.674007899024189 1
gene  1 13 14 9.233732231921024 0 194.0 9.233732231921024 1
gene  1 14 14 -4.004277764868902 1 195.0 -4.004277764868902 1
gene  1 4 13 -0.406171587801768 0 235.0 -0.406171587801768 1
gene  1 1 14 4.3551690462672585 0 242.0 4.3551690462672585 1
gene  1 5 14 -1.536735314689561 0 319.0 -1.536735314689561 1
genomeend 19
