genomestart  0
trait 1 0.12236385032328645 0.11996509262718169 0.0 1.2348572107762614 0.0 1.3168578850843018 1.0590140864502917 1.7905313975538821 
node 1 1 1 1
node 2 1 1 1
node 3 1 1 1
node 4 1 1 1
node 5 1 1 1
node 6 1 1 1
node 7 1 1 3
node 13 1 0 2
node 14 1 0 2
node 33 1 0 0
node 48 1 0 0
node 55 1 0 0
gene  1 2 13 -3.994154284634954 0 169.0 -3.994154284634954 1
gene  1 3 13 -0.45052003087500814 0 170.0 -0.45052003087500814 1
gene  1 4 13 3.3276159779143706 0 171.0 3.3276159779143706 1
gene  1 6 13 -4.914563795073086 0 173.0 -4.914563795073086 1
gene  1 7 13 -3.5833430144874914 0 174.0 -3.5833430144874914 1
gene  1 13 13 5.363807472873619 1 180.0 5.363807472873619 1
gene  1 1 14 -1.6204444756412542 0 182.0 -1.6204444756412542 1
gene  1 2 14 6.0986614472219784 0 183.0 6.0986614472219784 1
gene  1 5 14 1.8041893718382842 0 186.0 1.8041893718382842 1
gene  1 6 14 -0.9403504456273781 0 187.0 -0.9403504456273781 1
gene  1 7 14 -2.4427983093579426 0 188.0 -2.4427983093579426 1
gene  1 13 14 0.7369782329547778 0 194.0 0.7369782329547778 0
gene  1 14 14 0.02197958775383757 1 195.0 0.02197958775383757 1
gene  1 4 14 0.20675770909923308 0 196.0 0.20675770909923308 1
gene  1 1 13 8.09189775951619 0 216.0 8.09189775951619 1
gene  1 1 33 2.857559129611898 0 313.0 2.857559129611898 1
gene  1 33 14 -3.8527665691053934 0 314.0 -3.8527665691053934 1
gene  1 14 48 1.8074685750358013 1 379.0 1.8074685750358013 1
gene  1 48 14 2.139059111484566 0 380.0 2.139059111484566 1
gene  1 48 33 1.5275994801338446 0 381.0 1.5275994801338446 1
gene  1 4 33 -6.301983454978036 0 384.0 -6.301983454978036 1
gene  1 13 55 0.3252129180282944 0 407.0 0.3252129180282944 1
gene  1 55 14 0.23393366782728586 0 408.0 0.23393366782728586 1
genomeend 0
genomestart  1
trait 1 0.12236385032328645 0.11996509262718169 0.0 1.2348572107762614 0.0 1.3168578850843018 1.0590140864502917 1.7905313975538821 
node 1 1 1 1
node 2 1 1 1
node 3 1 1 1
node 4 1 1 1
node 5 1 1 1
node 6 1 1 1
node 7 1 1 3
node 13 1 0 2
node 14 1 0 2
node 33 1 0 0
node 48 1 0 0
node 55 1 0 0
gene  1 2 13 -3.554844518710186 0 169.0 -3.554844518710186 1
gene  1 3 13 -0.6561472632004062 0 170.0 -0.6561472632004062 1
gene  1 4 13 1.8181618652187814 0 171.0 1.8181618652187814 1
gene  1 6 13 -6.407083514581642 0 173.0 -6.407083514581642 1
gene  1 7 13 -2.3822952044221557 0 174.0 -2.3822952044221557 1
gene  1 13 13 3.0432721951208297 1 180.0 3.0432721951208297 1
gene  1 1 14 1.0292654891463382 0 182.0 1.0292654891463382 1
gene  1 2 14 5.411099803130288 0 183.0 5.411099803130288 1
gene  1 5 14 4.090681291015811 0 186.0 4.090681291015811 1
gene  1 6 14 2.2241870067709613 0 187.0 2.2241870067709613 1
gene  1 7 14 -3.2717777188678125 0 188.0 -3.2717777188678125 1
gene  1 13 14 -1.9833560097770464 0 194.0 -1.9833560097770464 0
gene  1 14 14 2.1852818709303623 1 195.0 2.1852818709303623 1
gene  1 4 14 -0.3797749132598089 0 196.0 -0.3797749132598089 1
gene  1 1 13 8.708004689301408 0 216.0 8.708004689301408 1
gene  1 1 33 4.816787273614814 0 313.0 4.816787273614814 1
gene  1 33 14 -4.226797117852625 0 314.0 -4.226797117852625 1
gene  1 14 48 3.6358280650863155 1 379.0 3.6358280650863155 1
gene  1 48 14 0.5469807887041056 0 380.0 0.5469807887041056 1
gene  1 48 33 -0.7227945089909071 0 381.0 -0.7227945089909071 1
gene  1 4 33 -6.455185642456284 0 384.0 -6.455185642456284 1
gene  1 13 55 0.40863245274303894 0 407.0 0.40863245274303894 1
gene  1 55 14 1.521396325320993 0 408.0 1.521396325320993 1
genomeend 1
genomestart  2
trait 1 0.12236385032328645 0.11996509262718169 0.0 1.2348572107762614 0.0 1.3168578850843018 1.0590140864502917 1.7905313975538821 
node 1 1 1 1
node 2 1 1 1
node 3 1 1 1
node 4 1 1 1
node 5 1 1 1
node 6 1 1 1
node 7 1 1 3
node 13 1 0 2
node 14 1 0 2
node 33 1 0 0
node 48 1 0 0
node 55 1 0 0
gene  1 2 13 -4.515059774240223 0 169.0 -4.515059774240223 1
gene  1 3 13 -1.282861873351258 0 170.0 -1.282861873351258 1
gene  1 4 13 1.7112135111525615 0 171.0 1.7112135111525615 1
gene  1 6 13 -0.22099843679333098 0 173.0 -0.22099843679333098 1
gene  1 7 13 0.7927671612047307 0 174.0 0.7927671612047307 1
gene  1 13 13 -2.4045629457542015 1 180.0 -2.4045629457542015 1
gene  1 1 14 0.6269002079767954 0 182.0 0.6269002079767954 1
gene  1 2 14 3.747862525218112 0 183.0 3.747862525218112 1
gene  1 5 14 1.6119776611609846 0 186.0 1.6119776611609846 1
gene  1 6 14 1.440512017857217 0 187.0 1.440512017857217 1
gene  1 7 14 -3.075525093899759 0 188.0 -3.075525093899759 1
gene  1 13 14 -2.039060851772062 0 194.0 -2.039060851772062 0
gene  1 14 14 1.5065273433609174 1 195.0 1.5065273433609174 1
gene  1 4 14 -2.7066273952252233 0 196.0 -2.7066273952252233 1
gene  1 1 13 9.865958274908017 0 216.0 9.865958274908017 1
gene  1 1 33 2.4654493934363324 0 313.0 2.4654493934363324 1
gene  1 33 14 -2.8694377685105557 0 314.0 -2.8694377685105557 1
gene  1 14 48 3.916248448793422 1 379.0 3.916248448793422 1
gene  1 48 14 1.383091675237178 0 380.0 1.383091675237178 1
gene  1 48 33 1.0319866352062343 0 381.0 1.0319866352062343 1
gene  1 4 33 -5.1326800437672775 0 384.0 -5.1326800437672775 1
gene  1 13 55 -1.8117200950575811 0 407.0 -1.8117200950575811 1
gene  1 55 14 0.484038847999724 0 408.0 0.484038847999724 1
genomeend 2
genomestart  3
trait 1 0.3582596345510627 0.4388362906987652 0.8146270411081855 0.1911620597009413 0.9392615996835805 0.41262400137975846 0.0 0.4309961400637684 
node 1 1 1 1
node 2 1 1 1
node 3 1 1 1
node 4 1 1 1
node 5 1 1 1
node 6 1 1 1
node 7 1 1 3
node 13 1 0 2
node 14 1 0 2
node 21 1 0 0
node 24 1 0 0
node 34 1 0 0
gene  1 1 13 0.2949308761572895 0 168.0 0.2949308761572895 1
gene  1 4 13 1.3404295963014317 0 171.0 1.3404295963014317 1
gene  1 5 13 -3.4905708982252874 0 172.0 -3.4905708982252874 1
gene  1 7 13 7.983086783510241 0 174.0 7.983086783510241 1
gene  1 13 13 -2.3817321137815544 1 180.0 -2.3817321137815544 1
gene  1 2 14 -1.631940373807885 0 183.0 -1.631940373807885 1
gene  1 3 14 0.7438078397287498 0 184.0 0.7438078397287498 1
gene  1 6 14 -6.587575538509919 0 187.0 -6.587575538509919 1
gene  1 13 14 -8.135540594797614 0 194.0 -8.135540594797614 1
gene  1 14 14 2.738569860972217 1 195.0 2.738569860972217 1
gene  1 6 13 -5.550954055745075 0 205.0 -5.550954055745075 1
gene  1 5 14 -3.1834480412258173 0 223.0 -3.1834480412258173 1
gene  1 3 13 0.6995746193837832 0 229.0 0.6995746193837832 1
gene  1 2 13 0.34292214430669377 0 233.0 0.34292214430669377 1
gene  1 1 21 5.147195547219554 0 238.0 5.147195547219554 1
gene  1 21 13 -4.49751398862474 0 239.0 -4.49751398862474 1
gene  1 5 21 1.3797905114521323 0 253.0 1.3797905114521323 1
gene  1 3 21 -0.3283452022747485 0 270.0 -0.3283452022747485 1
gene  1 1 24 -1.130024697738913 0 275.0 -1.130024697738913 1
gene  1 24 13 -3.971042693708197 0 276.0 -3.971042693708197 1
gene  1 3 34 -2.5381587469156828 0 315.0 -2.5381587469156828 1
gene  1 34 14 1.283258011726506 0 316.0 1.283258011726506 1
gene  1 3 24 -3.840564397568061 0 324.0 -3.840564397568061 1
gene  1 2 21 6.342832626379306 0 350.0 6.342832626379306 1
gene  1 34 13 -0.03244789655238084 0 355.0 -0.03244789655238084 1
gene  1 1 34 -1.8028994356970935 0 361.0 -1.8028994356970935 1
gene  1 7 14 0.929971192895241 0 388.0 0.929971192895241 1
genomeend 3
genomestart  4
trait 1 2.8264831974358327 1.038817852750874 0.43173212214279244 1.2383225027221012 1.329334485592839 0.0 0.6456726887502329 1.0929932745483306 
node 1 1 1 1
node 2 1 1 1
node 3 1 1 1
node 4 1 1 1
node 5 1 1 1
node 6 1 1 1
node 7 1 1 3
node 8 1 0 0
node 13 1 0 2
node 14 1 0 2
node 39 1 0 0
node 42 1 0 0
node 51 1 0 0
gene  1 1 8 0.4452219321269044 0 98.0 0.4452219321269044 1
gene  1 2 8 -0.19971041251309674 0 99.0 -0.19971041251309674 1
gene  1 3 8 5.867588158591454 0 100.0 5.867588158591454 1
gene  1 4 8 1.4153585106690483 0 101.0 1.4153585106690483 1
gene  1 5 8 -5.460823118598765 0 102.0 -5.460823118598765 1
gene  1 6 8 4.634830889978199 0 103.0 4.634830889978199 1
gene  1 8 8 1.4874126649335941 1 105.0 1.4874126649335941 1
gene  1 13 8 -1.4821682625297443 1 110.0 -1.4821682625297443 1
gene  1 14 8 6.614539753985305 1 111.0 6.614539753985305 1
gene  1 3 13 -0.7286926658681798 0 170.0 -0.7286926658681798 1
gene  1 5 13 7.092244083487369 0 172.0 7.092244083487369 1
gene  1 7 13 -0.5971262677680544 0 174.0 -0.5971262677680544 1
gene  1 13 13 -6.143542298106258 1 180.0 -6.143542298106258 1
gene  1 2 14 5.794055615027876 0 183.0 5.794055615027876 1
gene  1 4 14 -0.3041031978427856 0 185.0 -0.3041031978427856 1
gene  1 6 14 -1.4130298980144487 0 187.0 -1.4130298980144487 1
gene  1 8 14 3.550375534239897 0 189.0 3.550375534239897 1
gene  1 13 14 -7.624146219978501 0 194.0 -7.624146219978501 1
gene  1 2 13 -10.708921049695466 0 213.0 -10.708921049695466 1
gene  1 4 13 -3.1805889461348515 0 230.0 -3.1805889461348515 1
gene  1 13 8 -1.5525940857584617 0 244.0 -1.5525940857584617 1
gene  1 7 14 0.5816712035436058 0 264.0 0.5816712035436058 1
gene  1 1 14 1.7095311412937395 0 299.0 1.7095311412937395 1
gene  1 5 14 -1.1335355771176812 0 310.0 -1.1335355771176812 0
gene  1 1 13 3.962953696304793 0 311.0 3.962953696304793 1
gene  1 13 39 -0.8528675770705689 0 344.0 -0.8528675770705689 1
gene  1 39 8 3.2885851722937662 0 345.0 3.2885851722937662 1
gene  1 6 13 2.9950974809110926 0 348.0 2.9950974809110926 1
gene  1 2 42 5.068225486774848 0 359.0 5.068225486774848 1
gene  1 42 14 0.26591865710651463 0 360.0 0.26591865710651463 1
gene  1 13 42 0.4964931879782959 0 366.0 0.4964931879782959 1
gene  1 5 51 0.04914387321481417 0 396.0 0.04914387321481417 1
gene  1 51 14 -2.126962434842343 0 397.0 -2.126962434842343 1
gene  1 6 42 -11.091818191873458 0 423.0 -11.091818191873458 1
genomeend 4
genomestart  5
trait 1 2.8264831974358327 1.038817852750874 0.43173212214279244 1.2383225027221012 1.329334485592839 0.0 0.6456726887502329 1.0929932745483306 
node 1 1 1 1
node 2 1 1 1
node 3 1 1 1
node 4 1 1 1
node 5 1 1 1
node 6 1 1 1
node 7 1 1 3
node 8 1 0 0
node 13 1 0 2
node 14 1 0 2
node 39 1 0 0
node 42 1 0 0
node 51 1 0 0
gene  1 1 8 -2.7310318507046967 0 98.0 -2.7310318507046967 1
gene  1 2 8 1.2245777550330192 0 99.0 1.2245777550330192 1
gene  1 3 8 3.4676996509845246 0 100.0 3.4676996509845246 1
gene  1 4 8 1.3619068622840296 0 101.0 1.3619068622840296 1
gene  1 5 8 -8.047838170013856 0 102.0 -8.047838170013856 1
gene  1 6 8 2.810346731631471 0 103.0 2.810346731631471 1
gene  1 8 8 -1.8128379287928567 1 105.0 -1.8128379287928567 1
gene  1 13 8 -4.218148630490371 1 110.0 -4.218148630490371 1
gene  1 14 8 6.077430553638716 1 111.0 6.077430553638716 1
gene  1 3 13 -2.276037816382796 0 170.0 -2.276037816382796 1
gene  1 5 13 7.505488442848321 0 172.0 7.505488442848321 1
gene  1 7 13 2.6437312116931606 0 174.0 2.6437312116931606 1
gene  1 13 13 -2.7782769471827358 1 180.0 -2.7782769471827358 1
gene  1 2 14 2.7719346312273205 0 183.0 2.7719346312273205 1
gene  1 4 14 2.79369154595184 0 185.0 2.79369154595184 1
gene  1 6 14 0.2996162224705934 0 187.0 0.2996162224705934 1
gene  1 8 14 0.6444693886695545 0 189.0 0.6444693886695545 1
gene  1 13 14 -4.298016365237314 0 194.0 -4.298016365237314 1
gene  1 2 13 -7.847364079675836 0 213.0 -7.847364079675836 1
gene  1 4 13 0.4539662228159038 0 230.0 0.4539662228159038 1
gene  1 13 8 -4.569635836363525 0 244.0 -4.569635836363525 1
gene  1 7 14 -0.05115862088110057 0 264.0 -0.05115862088110057 1
gene  1 1 14 0.1904062972514433 0 299.0 0.1904062972514433 1
gene  1 5 14 -2.0580747452571257 0 310.0 -2.0580747452571257 0
gene  1 1 13 4.18878067710861 0 311.0 4.18878067710861 1
gene  1 13 39 -2.0529683162376937 0 344.0 -2.0529683162376937 1
gene  1 39 8 0.6432457373459142 0 345.0 0.6432457373459142 1
gene  1 6 13 -0.4261866920005666 0 348.0 -0.4261866920005666 1
gene  1 2 42 3.9929218456212845 0 359.0 3.9929218456212845 1
gene  1 42 14 -2.156183910636676 0 360.0 -2.156183910636676 1
gene  1 13 42 -1.6766390707393484 0 366.0 -1.6766390707393484 1
gene  1 5 51 2.0584544367088604 0 396.0 2.0584544367088604 1
gene  1 51 14 1.0947471337335613 0 397.0 1.0947471337335613 1
gene  1 6 42 1.510034002569653 0 423.0 1.510034002569653 1
genomeend 5
genomestart  6
trait 1 2.8264831974358327 1.038817852750874 0.43173212214279244 1.2383225027221012 1.329334485592839 0.0 0.6456726887502329 1.0929932745483306 
node 1 1 1 1
node 2 1 1 1
node 3 1 1 1
node 4 1 1 1
node 5 1 1 1
node 6 1 1 1
node 7 1 1 3
node 8 1 0 0
node 13 1 0 2
node 14 1 0 2
node 39 1 0 0
node 42 1 0 0
node 51 1 0 0
gene  1 1 8 -0.7955944330900009 0 98.0 -0.7955944330900009 1
gene  1 2 8 -0.5667998856001956 0 99.0 -0.5667998856001956 1
gene  1 3 8 6.507898339343855 0 100.0 6.507898339343855 1
gene  1 4 8 1.3208852578390697 0 101.0 1.3208852578390697 1
gene  1 5 8 -4.679362442654234 0 102.0 -4.679362442654234 1
gene  1 6 8 2.837822445739401 0 103.0 2.837822445739401 1
gene  1 8 8 -1.290675124770908 1 105.0 -1.290675124770908 1
gene  1 13 8 -0.02320676746200956 1 110.0 -0.02320676746200956 1
gene  1 14 8 9.085511267148716 1 111.0 9.085511267148716 1
gene  1 3 13 -3.538101658630776 0 170.0 -3.538101658630776 1
gene  1 5 13 6.312473758007311 0 172.0 6.312473758007311 1
gene  1 7 13 0.7688736985611022 0 174.0 0.7688736985611022 1
gene  1 13 13 -3.371957518277086 1 180.0 -3.371957518277086 1
gene  1 2 14 4.319571677971439 0 183.0 4.319571677971439 1
gene  1 4 14 -1.8361921184571495 0 185.0 -1.8361921184571495 1
gene  1 6 14 -0.8051271842312058 0 187.0 -0.8051271842312058 1
gene  1 8 14 0.9514947782461378 0 189.0 0.9514947782461378 1
gene  1 13 14 -3.1687188582645778 0 194.0 -3.1687188582645778 1
gene  1 2 13 -6.311982024904131 0 213.0 -6.311982024904131 1
gene  1 4 13 0.12544154690646847 0 230.0 0.12544154690646847 1
gene  1 13 8 -5.490394834598785 0 244.0 -5.490394834598785 1
gene  1 7 14 -3.4723034691079584 0 264.0 -3.4723034691079584 1
gene  1 1 14 2.0173050618631776 0 299.0 2.0173050618631776 1
gene  1 5 14 -2.2293390761431846 0 310.0 -2.2293390761431846 0
gene  1 1 13 2.949006320419127 0 311.0 2.949006320419127 1
gene  1 13 39 -2.885994153456979 0 344.0 -2.885994153456979 1
gene  1 39 8 4.989081986951065 0 345.0 4.989081986951065 1
gene  1 6 13 0.09380572687589761 0 348.0 0.09380572687589761 1
gene  1 2 42 -0.1569248775163956 0 359.0 -0.1569248775163956 1
gene  1 42 14 -3.243544044483825 0 360.0 -3.243544044483825 1
gene  1 13 42 1.7873479213829766 0 366.0 1.7873479213829766 1
gene  1 5 51 -1.576037425951093 0 396.0 -1.576037425951093 1
gene  1 51 14 0.28079389328772963 0 397.0 0.28079389328772963 1
gene  1 6 42 -9.600291900925965 0 423.0 -9.600291900925965 1
genomeend 6
genomestart  7
trait 1 2.225061889405073 0.0 0.0 1.3327232120186472 1.3666937545645097 0.0 1.091719119822867 0.9886345967811722 
node 1 1 1 1
node 2 1 1 1
node 3 1 1 1
node 4 1 1 1
node 5 1 1 1
node 6 1 1 1
node 7 1 1 3
node 8 1 0 0
node 9 1 0 0
node 10 1 0 0
node 13 1 0 2
node 14 1 0 2
node 28 1 0 0
node 41 1 0 0
node 43 1 0 0
node 47 1 0 0
gene  1 1 8 0.22944608982623155 0 98.0 0.22944608982623155 1
gene  1 3 8 -2.4227930561419546 0 100.0 -2.4227930561419546 1
gene  1 5 8 2.0254646851686484 0 102.0 2.0254646851686484 1
gene  1 6 8 10.860906609471028 0 103.0 10.860906609471028 1
gene  1 8 8 -1.374526669668653 1 105.0 -1.374526669668653 1
gene  1 1 9 -2.437003814382545 0 112.0 -2.437003814382545 1
gene  1 2 9 -2.7204859089763493 0 113.0 -2.7204859089763493 1
gene  1 3 9 -2.970633018987998 0 114.0 -2.970633018987998 1
gene  1 5 9 5.373621488972519 0 116.0 5.373621488972519 1
gene  1 7 9 7.827489633544331 0 118.0 7.827489633544331 1
gene  1 9 9 -0.9231401407543125 1 120.0 -0.9231401407543125 1
gene  1 10 9 -3.3197732461650817 1 121.0 -3.3197732461650817 1
gene  1 13 9 -1.7457564778560157 1 124.0 -1.7457564778560157 1
gene  1 2 10 0.5451320785222649 0 127.0 0.5451320785222649 1
gene  1 4 10 0.6043489451038173 0 129.0 0.6043489451038173 1
gene  1 5 10 -7.3567839814217955 0 130.0 -7.3567839814217955 1
gene  1 8 10 0.6474331840825458 0 133.0 0.6474331840825458 1
gene  1 9 10 -0.11033765040814703 0 134.0 -0.11033765040814703 1
gene  1 10 10 -2.88901663188516 1 135.0 -2.88901663188516 1
gene  1 13 10 2.426713756936995 1 138.0 2.426713756936995 1
gene  1 14 10 0.04080514381534628 1 139.0 0.04080514381534628 1
gene  1 2 13 -5.160734360897212 0 169.0 -5.160734360897212 1
gene  1 3 13 -7.279235472683 0 170.0 -7.279235472683 1
gene  1 6 13 -3.592201856072448 0 173.0 -3.592201856072448 1
gene  1 7 13 1.8091759235201454 0 174.0 1.8091759235201454 1
gene  1 9 13 -1.4990568816263585 0 176.0 -1.4990568816263585 1
gene  1 13 13 4.903340593875354 1 180.0 4.903340593875354 1
gene  1 14 13 1.6199520632248925 1 181.0 1.6199520632248925 1
gene  1 1 14 11.211247145752356 0 182.0 11.211247145752356 1
gene  1 3 14 13.596282583661402 0 184.0 13.596282583661402 1
gene  1 9 14 -1.756541947081246 0 190.0 -1.756541947081246 1
gene  1 10 14 -7.331411334981642 0 191.0 -7.331411334981642 1
gene  1 8 13 -5.32557475499075 0 207.0 -5.32557475499075 1
gene  1 1 10 -6.640832775933903 0 226.0 -6.640832775933903 1
gene  1 6 14 2.815374726361817 0 234.0 2.815374726361817 1
gene  1 8 28 -1.1956235213058024 1 293.0 -1.1956235213058024 1
gene  1 28 8 1.929481512127047 0 294.0 1.929481512127047 1
gene  1 8 9 2.2031855135853764 0 328.0 2.2031855135853764 1
gene  1 8 41 1.1004735323334378 1 357.0 1.1004735323334378 1
gene  1 41 8 2.0228999440462223 0 358.0 2.0228999440462223 1
gene  1 14 43 -4.8486999860319635 1 364.0 -4.8486999860319635 1
gene  1 43 10 -0.0827837443365409 0 365.0 -0.0827837443365409 1
gene  1 5 47 2.001113942073443 0 375.0 2.001113942073443 1
gene  1 47 9 2.191614810889752 0 376.0 2.191614810889752 1
gene  1 41 14 6.526162843349035 0 387.0 6.526162843349035 1
gene  1 4 28 2.7685503801619684 0 419.0 2.7685503801619684 1
genomeend 7
genomestart  8
trait 1 2.225061889405073 0.0 0.0 1.3327232120186472 1.3666937545645097 0.0 1.091719119822867 0.9886345967811722 
node 1 1 1 1
node 2 1 1 1
node 3 1 1 1
node 4 1 1 1
node 5 1 1 1
node 6 1 1 1
node 7 1 1 3
node 8 1 0 0
node 9 1 0 0
node 10 1 0 0
node 13 1 0 2
node 14 1 0 2
node 28 1 0 0
node 41 1 0 0
node 43 1 0 0
node 47 1 0 0
gene  1 1 8 -2.9450756606734894 0 98.0 -2.9450756606734894 1
gene  1 3 8 -1.9775661395093795 0 100.0 -1.9775661395093795 1
gene  1 5 8 3.472605097277655 0 102.0 3.472605097277655 1
gene  1 6 8 9.357123078651622 0 103.0 9.357123078651622 1
gene  1 8 8 -1.887754166854221 1 105.0 -1.887754166854221 1
gene  1 1 9 -2.310295054080557 0 112.0 -2.310295054080557 1
gene  1 2 9 -1.49466009454545 0 113.0 -1.49466009454545 1
gene  1 3 9 1.0294938250793952 0 114.0 1.0294938250793952 1
gene  1 5 9 5.48707104452318 0 116.0 5.48707104452318 1
gene  1 7 9 5.663525997926274 0 118.0 5.663525997926274 1
gene  1 9 9 0.3302679774145889 1 120.0 0.3302679774145889 1
gene  1 10 9 -0.9988126267013591 1 121.0 -0.9988126267013591 1
gene  1 13 9 2.224047853119273 1 124.0 2.224047853119273 1
gene  1 2 10 2.5128356570851778 0 127.0 2.5128356570851778 1
gene  1 4 10 -2.2720832446850965 0 129.0 -2.2720832446850965 1
gene  1 5 10 -4.71652232178916 0 130.0 -4.71652232178916 1
gene  1 8 10 -1.2382205669591027 0 133.0 -1.2382205669591027 1
gene  1 9 10 1.0764356620923556 0 134.0 1.0764356620923556 1
gene  1 10 10 1.7849954383229354 1 135.0 1.7849954383229354 1
gene  1 13 10 3.3013517079958135 1 138.0 3.3013517079958135 1
gene  1 14 10 3.764337093855669 1 139.0 3.764337093855669 1
gene  1 2 13 -4.991198250426739 0 169.0 -4.991198250426739 1
gene  1 3 13 -0.5871852845583764 0 170.0 -0.5871852845583764 1
gene  1 6 13 -1.7333178777403195 0 173.0 -1.7333178777403195 1
gene  1 7 13 2.353161211115036 0 174.0 2.353161211115036 1
gene  1 9 13 1.7537650451482192 0 176.0 1.7537650451482192 1
gene  1 13 13 3.1572237671730092 1 180.0 3.1572237671730092 1
gene  1 14 13 4.994154602657824 1 181.0 4.994154602657824 1
gene  1 1 14 9.085607792527796 0 182.0 9.085607792527796 1
gene  1 3 14 0.789283024890852 0 184.0 0.789283024890852 1
gene  1 9 14 -0.4837880442910589 0 190.0 -0.4837880442910589 1
gene  1 10 14 -4.291463094294809 0 191.0 -4.291463094294809 1
gene  1 8 13 -5.181378123489493 0 207.0 -5.181378123489493 1
gene  1 1 10 -7.5373611721496445 0 226.0 -7.5373611721496445 1
gene  1 6 14 3.1283950123946243 0 234.0 3.1283950123946243 1
gene  1 8 28 -1.8001213124739686 1 293.0 -1.8001213124739686 1
gene  1 28 8 3.4127628553561937 0 294.0 3.4127628553561937 1
gene  1 8 9 -1.5634129390713507 0 328.0 -1.5634129390713507 1
gene  1 8 41 3.137310887668046 1 357.0 3.137310887668046 1
gene  1 41 8 0.6218861164257244 0 358.0 0.6218861164257244 1
gene  1 14 43 -6.35552923586609 1 364.0 -6.35552923586609 1
gene  1 43 10 -4.09718156229154 0 365.0 -4.09718156229154 1
gene  1 5 47 -1.5730943903697718 0 375.0 -1.5730943903697718 1
gene  1 47 9 1.1193411542140732 0 376.0 1.1193411542140732 1
gene  1 41 14 7.422081295504312 0 387.0 7.422081295504312 1
gene  1 4 28 -0.9725767790491067 0 419.0 -0.9725767790491067 1
genomeend 8
genomestart  9
trait 1 0.0 0.507208509242693 0.0 1.336083291708453 2.3145837249829695 0.0 0.0 0.868067118942248 
node 1 1 1 1
node 2 1 1 1
node 3 1 1 1
node 4 1 1 1
node 5 1 1 1
node 6 1 1 1
node 7 1 1 3
node 8 1 0 0
node 13 1 0 2
node 14 1 0 2
node 22 1 0 0
node 25 1 0 0
node 29 1 0 0
gene  1 1 8 -3.1453933979333506 0 98.0 -3.1453933979333506 1
gene  1 3 8 1.762461015532918 0 100.0 1.762461015532918 1
gene  1 4 8 -1.9897889722950708 0 101.0 -1.9897889722950708 1
gene  1 5 8 -1.0886157162902197 0 102.0 -1.0886157162902197 1
gene  1 6 8 -0.7087590971605456 0 103.0 -0.7087590971605456 1
gene  1 8 8 5.153835271479385 1 105.0 5.153835271479385 1
gene  1 1 13 -1.204440482637902 0 168.0 -1.204440482637902 1
gene  1 5 13 3.078210824451327 0 172.0 3.078210824451327 1
gene  1 13 13 -0.41183106154893934 1 180.0 -0.41183106154893934 1
gene  1 14 13 1.57206945113662 1 181.0 1.57206945113662 1
gene  1 2 14 2.198878933296443 0 183.0 2.198878933296443 1
gene  1 3 14 0.08916938097262783 0 184.0 0.08916938097262783 1
gene  1 5 14 4.074376125773972 0 186.0 4.074376125773972 1
gene  1 7 14 -3.455805253883048 0 188.0 -3.455805253883048 1
gene  1 8 14 -1.9104571371566315 0 189.0 -1.9104571371566315 1
gene  1 13 14 -6.347011207394286 0 194.0 -6.347011207394286 1
gene  1 2 13 1.11573044844977 0 236.0 1.11573044844977 1
gene  1 8 22 -0.46354142779703533 0 240.0 -0.46354142779703533 1
gene  1 22 14 -1.6807202255603833 0 241.0 -1.6807202255603833 1
gene  1 1 22 1.6692685861936254 0 245.0 1.6692685861936254 1
gene  1 13 8 -2.009114215836246 0 257.0 -2.009114215836246 1
gene  1 5 22 -4.343186679686617 0 265.0 -4.343186679686617 1
gene  1 1 25 0.9373669714143895 0 279.0 0.9373669714143895 1
gene  1 25 8 -3.202408914784966 0 280.0 -3.202408914784966 1
gene  1 8 29 -1.1698289830187476 0 297.0 -1.1698289830187476 1
gene  1 29 14 -0.9813085230606601 0 298.0 -0.9813085230606601 1
gene  1 1 14 1.2782629351095687 0 312.0 1.2782629351095687 1
gene  1 2 29 1.143224272554019 0 330.0 1.143224272554019 1
gene  1 5 25 -5.163110477029667 0 343.0 -5.163110477029667 1
gene  1 6 29 3.220329358837188 0 386.0 3.220329358837188 1
gene  1 22 29 -4.769810543622061 0 416.0 -4.769810543622061 1
gene  1 4 14 -0.5519711411524253 0 424.0 -0.5519711411524253 1
genomeend 9
genomestart  10
trait 1 0.0 0.507208509242693 0.0 1.336083291708453 2.3145837249829695 0.0 0.0 0.868067118942248 
node 1 1 1 1
node 2 1 1 1
node 3 1 1 1
node 4 1 1 1
node 5 1 1 1
node 6 1 1 1
node 7 1 1 3
node 8 1 0 0
node 13 1 0 2
node 14 1 0 2
node 22 1 0 0
node 25 1 0 0
node 29 1 0 0
gene  1 1 8 -6.681594024049835 0 98.0 -6.681594024049835 1
gene  1 3 8 -0.06847963498513487 0 100.0 -0.06847963498513487 1
gene  1 4 8 -3.7615938143143755 0 101.0 -3.7615938143143755 1
gene  1 5 8 -0.5062250390728684 0 102.0 -0.5062250390728684 1
gene  1 6 8 -5.924264534320621 0 103.0 -5.924264534320621 1
gene  1 8 8 0.9969793885869724 1 105.0 0.9969793885869724 1
gene  1 1 13 0.46650977306798624 0 168.0 0.46650977306798624 1
gene  1 5 13 4.061259258973654 0 172.0 4.061259258973654 1
gene  1 13 13 0.26215793175839985 1 180.0 0.26215793175839985 1
gene  1 14 13 4.061487858182286 1 181.0 4.061487858182286 1
gene  1 2 14 0.039054853525003264 0 183.0 0.039054853525003264 1
gene  1 3 14 -2.3559686342697486 0 184.0 -2.3559686342697486 1
gene  1 5 14 3.3708811484639853 0 186.0 3.3708811484639853 1
gene  1 7 14 -2.18886471312973 0 188.0 -2.18886471312973 1
gene  1 8 14 -0.4096005084544222 0 189.0 -0.4096005084544222 1
gene  1 13 14 -6.11786659362604 0 194.0 -6.11786659362604 1
gene  1 2 13 1.6802343418897197 0 236.0 1.6802343418897197 1
gene  1 8 22 -4.341838640946005 0 240.0 -4.341838640946005 1
gene  1 22 14 8.341323206798709 0 241.0 8.341323206798709 1
gene  1 1 22 2.393692166859486 0 245.0 2.393692166859486 1
gene  1 13 8 -2.0395620434005353 0 257.0 -2.0395620434005353 1
gene  1 5 22 -5.927832238682531 0 265.0 -5.927832238682531 1
gene  1 1 25 -4.031466450524006 0 279.0 -4.031466450524006 1
gene  1 25 8 -0.06990726015672633 0 280.0 -0.06990726015672633 1
gene  1 8 29 -5.225140453614719 0 297.0 -5.225140453614719 1
gene  1 29 14 -1.0771878557824892 0 298.0 -1.0771878557824892 1
gene  1 1 14 -0.7628119260368549 0 312.0 -0.7628119260368549 1
gene  1 2 29 2.4542982781760294 0 330.0 2.4542982781760294 1
gene  1 5 25 -8.832564022079849 0 343.0 -8.832564022079849 1
gene  1 6 29 2.065781882936185 0 386.0 2.065781882936185 1
gene  1 22 29 0.020601102881594446 0 416.0 0.020601102881594446 1
gene  1 4 14 7.058081059610708 0 424.0 7.058081059610708 1
genomeend 10
genomestart  11
trait 1 0.0 1.484181005491341 0.5317686806699035 1.336083291708453 2.3145837249829695 0.0 0.0 1.243746774332995 
node 1 1 1 1
node 2 1 1 1
node 3 1 1 1
node 4 1 1 1
node 5 1 1 1
node 6 1 1 1
node 7 1 1 3
node 8 1 0 0
node 13 1 0 2
node 14 1 0 2
node 22 1 0 0
node 25 1 0 0
node 29 1 0 0
gene  1 1 8 -2.2690011179211624 0 98.0 -2.2690011179211624 1
gene  1 3 8 2.8122807504966625 0 100.0 2.8122807504966625 1
gene  1 4 8 -1.2490506718413332 0 101.0 -1.2490506718413332 1
gene  1 5 8 0.7197552711134899 0 102.0 0.7197552711134899 1
gene  1 6 8 -7.1975182122008245 0 103.0 -7.1975182122008245 1
gene  1 8 8 3.250963872956671 1 105.0 3.250963872956671 1
gene  1 1 13 -1.9839270981688162 0 168.0 -1.9839270981688162 1
gene  1 5 13 3.774751523551238 0 172.0 3.774751523551238 1
gene  1 13 13 -0.9371537414833828 1 180.0 -0.9371537414833828 1
gene  1 14 13 0.9532841345524756 1 181.0 0.9532841345524756 1
gene  1 2 14 3.2562476787756474 0 183.0 3.2562476787756474 1
gene  1 3 14 1.542290564792835 0 184.0 1.542290564792835 1
gene  1 5 14 3.4471923574541448 0 186.0 3.4471923574541448 1
gene  1 7 14 -1.8131081900102957 0 188.0 -1.8131081900102957 1
gene  1 8 14 -0.6873271349260412 0 189.0 -0.6873271349260412 1
gene  1 13 14 -2.297872442905972 0 194.0 -2.297872442905972 1
gene  1 2 13 4.365454526498034 0 236.0 4.365454526498034 1
gene  1 8 22 0.5643490782185517 0 240.0 0.5643490782185517 1
gene  1 22 14 -0.7050945659428598 0 241.0 -0.7050945659428598 1
gene  1 1 22 0.8645531888933782 0 245.0 0.8645531888933782 1
gene  1 13 8 0.1825866938830284 0 257.0 0.1825866938830284 1
gene  1 5 22 -6.270076834355874 0 265.0 -6.270076834355874 1
gene  1 1 25 -4.170878904399269 0 279.0 -4.170878904399269 1
gene  1 25 8 0.3660892504987685 0 280.0 0.3660892504987685 1
gene  1 8 29 -3.5048760458875527 0 297.0 -3.5048760458875527 1
gene  1 29 14 -2.1907489721061157 0 298.0 -2.1907489721061157 1
gene  1 1 14 1.2285309256696533 0 312.0 1.2285309256696533 1
gene  1 2 29 0.32946440794081294 0 330.0 0.32946440794081294 1
gene  1 5 25 -5.20236091687457 0 343.0 -5.20236091687457 1
gene  1 6 29 0.3173125766710432 0 386.0 0.3173125766710432 1
gene  1 22 29 -0.6156176173255773 0 416.0 -0.6156176173255773 1
gene  1 4 14 7.670218470516538 0 424.0 7.670218470516538 1
genomeend 11
genomestart  12
trait 1 0.0 0.0 0.0697072373684462 0.0 0.0 1.2871131578344006 1.106386715936813 0.0 
node 1 1 1 1
node 2 1 1 1
node 3 1 1 1
node 4 1 1 1
node 5 1 1 1
node 6 1 1 1
node 7 1 1 3
node 13 1 0 2
node 14 1 0 2
node 49 1 0 0
gene  1 1 13 -2.1398276564591434 0 168.0 -2.1398276564591434 1
gene  1 2 13 3.5395763754325027 0 169.0 3.5395763754325027 1
gene  1 3 13 2.3544604272246326 0 170.0 2.3544604272246326 0
gene  1 4 13 -1.9799010406998494 0 171.0 -1.9799010406998494 1
gene  1 5 13 1.2406552310216417 0 172.0 1.2406552310216417 1
gene  1 6 13 0.9833303649229075 0 173.0 0.9833303649229075 1
gene  1 7 13 -1.884254321314558 0 174.0 -1.884254321314558 1
gene  1 14 13 2.232914353801018 1 181.0 2.232914353801018 1
gene  1 1 14 -3.2451216020457956 0 182.0 -3.2451216020457956 1
gene  1 2 14 -1.0205293223122467 0 183.0 -1.0205293223122467 1
gene  1 3 14 -9.607041843258392 0 184.0 -9.607041843258392 1
gene  1 13 14 -0.7189143117908565 0 194.0 -0.7189143117908565 1
gene  1 14 14 0.04578266807561526 1 195.0 0.04578266807561526 1
gene  1 7 14 1.4177408273645764 0 273.0 1.4177408273645764 1
gene  1 4 14 4.533112371578157 0 283.0 4.533112371578157 1
gene  1 5 14 -2.02878261439264 0 303.0 -2.02878261439264 1
gene  1 6 14 -1.917229717451312 0 307.0 -1.917229717451312 1
gene  1 3 49 1.1420800875714483 0 389.0 1.1420800875714483 1
gene  1 49 13 1.5784950482895934 0 390.0 1.5784950482895934 1
gene  1 5 49 3.784522049753031 0 403.0 3.784522049753031 1
genomeend 12
genomestart  13
trait 1 0.0 0.0 0.5481122791415083 0.0 0.0 1.1904157948378464 1.106386715936813 0.0 
node 1 1 1 1
node 2 1 1 1
node 3 1 1 1
node 4 1 1 1
node 5 1 1 1
node 6 1 1 1
node 7 1 1 3
node 13 1 0 2
node 14 1 0 2
node 49 1 0 0
gene  1 1 13 -0.016485850476963826 0 168.0 -0.016485850476963826 1
gene  1 2 13 0.8537488563430613 0 169.0 0.8537488563430613 1
gene  1 3 13 5.7249642389828646 0 170.0 5.7249642389828646 0
gene  1 4 13 -4.015407905724234 0 171.0 -4.015407905724234 1
gene  1 5 13 4.634640478811247 0 172.0 4.634640478811247 1
gene  1 6 13 0.5480980187167752 0 173.0 0.5480980187167752 1
gene  1 7 13 -1.4293596877297232 0 174.0 -1.4293596877297232 1
gene  1 14 13 1.0294763795782627 1 181.0 1.0294763795782627 1
gene  1 1 14 -0.25367007197115377 0 182.0 -0.25367007197115377 1
gene  1 2 14 1.064190307137785 0 183.0 1.064190307137785 1
gene  1 3 14 -8.75769124416402 0 184.0 -8.75769124416402 1
gene  1 13 14 -1.7232347202180593 0 194.0 -1.7232347202180593 1
gene  1 14 14 1.2168751656736156 1 195.0 1.2168751656736156 1
gene  1 7 14 -1.3059411489937174 0 273.0 -1.3059411489937174 1
gene  1 4 14 2.277350161611417 0 283.0 2.277350161611417 1
gene  1 5 14 -6.048474409105468 0 303.0 -6.048474409105468 1
gene  1 6 14 -1.680548331318012 0 307.0 -1.680548331318012 1
gene  1 3 49 -2.154657469077719 0 389.0 -2.154657469077719 1
gene  1 49 13 1.5784950482895934 0 390.0 1.5784950482895934 1
gene  1 5 49 0.02378105428349403 0 403.0 0.02378105428349403 1
genomeend 13
genomestart  14
trait 1 0.731715373568969 0.5319433208524987 0.8875428902212121 1.0172554146688002 0.2545070174269727 0.6799681748259421 0.0 0.0 
node 1 1 1 1
node 2 1 1 1
node 3 1 1 1
node 4 1 1 1
node 5 1 1 1
node 6 1 1 1
node 7 1 1 3
node 8 1 0 0
node 9 1 0 0
node 13 1 0 2
node 14 1 0 2
node 20 1 0 0
gene  1 1 8 -3.967829608010743 0 98.0 -3.967829608010743 1
gene  1 2 8 -0.6805425108819958 0 99.0 -0.6805425108819958 1
gene  1 3 8 6.172385247608987 0 100.0 6.172385247608987 1
gene  1 6 8 4.620965353632306 0 103.0 4.620965353632306 1
gene  1 8 8 0.6404599479759387 1 105.0 0.6404599479759387 1
gene  1 9 8 3.4193118278501173 1 106.0 3.4193118278501173 1
gene  1 13 8 6.717668267703646 1 110.0 6.717668267703646 1
gene  1 14 8 -6.926084168191115 1 111.0 -6.926084168191115 1
gene  1 1 9 -1.352646518420724 0 112.0 -1.352646518420724 1
gene  1 4 9 -9.925829719193246 0 115.0 -9.925829719193246 1
gene  1 5 9 14.526816090595734 0 116.0 14.526816090595734 1
gene  1 7 9 4.106418760242827 0 118.0 4.106418760242827 1
gene  1 9 9 -3.3934215317697523 1 120.0 -3.3934215317697523 1
gene  1 14 9 -10.994676900686123 1 125.0 -10.994676900686123 1
gene  1 2 13 -15.219702110200924 0 169.0 -15.219702110200924 1
gene  1 5 13 4.72626553153173 0 172.0 4.72626553153173 1
gene  1 8 13 2.385371391825018 0 175.0 2.385371391825018 1
gene  1 1 14 3.3307558047348937 0 182.0 3.3307558047348937 1
gene  1 2 14 -2.012101313298716 0 183.0 -2.012101313298716 1
gene  1 3 14 -0.2940411315625162 0 184.0 -0.2940411315625162 1
gene  1 6 14 -5.152349245439969 0 187.0 -5.152349245439969 1
gene  1 13 14 -7.181249734239897 0 194.0 -7.181249734239897 1
gene  1 14 14 3.951705213104979 1 195.0 3.951705213104979 1
gene  1 5 8 -1.8623791467974962 0 202.0 -1.8623791467974962 1
gene  1 4 13 -9.989610233886651 0 220.0 -9.989610233886651 1
gene  1 1 20 -1.250494291849468 0 231.0 -1.250494291849468 1
gene  1 20 14 4.141513200767525 0 232.0 4.141513200767525 1
gene  1 1 13 0.9497197437954048 0 329.0 0.9497197437954048 1
gene  1 13 20 -3.0001421756778397 0 337.0 -3.0001421756778397 1
gene  1 4 20 1.399158323113035 0 339.0 1.399158323113035 1
gene  1 9 8 -0.29010846545509195 0 404.0 -0.29010846545509195 1
gene  1 8 14 5.501399400962674 0 410.0 5.501399400962674 1
genomeend 14
genomestart  15
trait 1 0.731715373568969 0.5319433208524987 0.8875428902212121 1.0172554146688002 0.2545070174269727 0.6799681748259421 0.0 0.0 
node 1 1 1 1
node 2 1 1 1
node 3 1 1 1
node 4 1 1 1
node 5 1 1 1
node 6 1 1 1
node 7 1 1 3
node 8 1 0 0
node 9 1 0 0
node 13 1 0 2
node 14 1 0 2
node 20 1 0 0
gene  1 1 8 -4.187798056154293 0 98.0 -4.187798056154293 1
gene  1 2 8 0.11135096420344515 0 99.0 0.11135096420344515 1
gene  1 3 8 6.286833498726372 0 100.0 6.286833498726372 1
gene  1 6 8 4.647098112339503 0 103.0 4.647098112339503 1
gene  1 8 8 1.4983641466989126 1 105.0 1.4983641466989126 1
gene  1 9 8 2.5388567081029523 1 106.0 2.5388567081029523 1
gene  1 13 8 5.5649253599679 1 110.0 5.5649253599679 1
gene  1 14 8 -7.204369356603285 1 111.0 -7.204369356603285 1
gene  1 1 9 0.8244941112766836 0 112.0 0.8244941112766836 1
gene  1 4 9 -11.092735625751034 0 115.0 -11.092735625751034 1
gene  1 5 9 17.036814561814186 0 116.0 17.036814561814186 1
gene  1 7 9 2.2887153981340465 0 118.0 2.2887153981340465 1
gene  1 9 9 -3.936762741538697 1 120.0 -3.936762741538697 1
gene  1 14 9 -9.689005669403649 1 125.0 -9.689005669403649 1
gene  1 2 13 -16.493504945511237 0 169.0 -16.493504945511237 1
gene  1 5 13 5.966516811187934 0 172.0 5.966516811187934 1
gene  1 8 13 1.735000958376497 0 175.0 1.735000958376497 1
gene  1 1 14 1.2687711660900305 0 182.0 1.2687711660900305 1
gene  1 2 14 -1.076092042266855 0 183.0 -1.076092042266855 1
gene  1 3 14 0.4630122662224099 0 184.0 0.4630122662224099 1
gene  1 6 14 -9.568304015317132 0 187.0 -9.568304015317132 1
gene  1 13 14 -6.77494034489355 0 194.0 -6.77494034489355 1
gene  1 14 14 3.3034333713114714 1 195.0 3.3034333713114714 1
gene  1 5 8 -1.940730303028018 0 202.0 -1.940730303028018 1
gene  1 4 13 -7.702758886857715 0 220.0 -7.702758886857715 1
gene  1 1 20 0.19024457158758157 0 231.0 0.19024457158758157 1
gene  1 20 14 4.427622391207608 0 232.0 4.427622391207608 1
gene  1 1 13 -0.987524756059184 0 329.0 -0.987524756059184 1
gene  1 13 20 -1.6265279092889016 0 337.0 -1.6265279092889016 1
gene  1 4 20 3.376150299518919 0 339.0 3.376150299518919 1
gene  1 9 8 -2.2336548740332636 0 404.0 -2.2336548740332636 1
gene  1 8 14 8.507718890036202 0 410.0 8.507718890036202 1
genomeend 15
genomestart  16
trait 1 0.731715373568969 0.5319433208524987 0.8875428902212121 1.0172554146688002 0.2545070174269727 0.6799681748259421 0.0 0.0 
node 1 1 1 1
node 2 1 1 1
node 3 1 1 1
node 4 1 1 1
node 5 1 1 1
node 6 1 1 1
node 7 1 1 3
node 8 1 0 0
node 9 1 0 0
node 13 1 0 2
node 14 1 0 2
node 20 1 0 0
gene  1 1 8 -3.665123242843295 0 98.0 -3.665123242843295 1
gene  1 2 8 -0.8457701425455608 0 99.0 -0.8457701425455608 1
gene  1 3 8 6.507247904326426 0 100.0 6.507247904326426 1
gene  1 6 8 4.384324746343509 0 103.0 4.384324746343509 1
gene  1 8 8 0.22925627254300857 1 105.0 0.22925627254300857 1
gene  1 9 8 1.3389700247592877 1 106.0 1.3389700247592877 1
gene  1 13 8 7.883390693395854 1 110.0 7.883390693395854 1
gene  1 14 8 -5.623887821542718 1 111.0 -5.623887821542718 1
gene  1 1 9 1.1319953000577627 0 112.0 1.1319953000577627 1
gene  1 4 9 -12.264094533648649 0 115.0 -12.264094533648649 1
gene  1 5 9 16.09114073428168 0 116.0 16.09114073428168 1
gene  1 7 9 3.5955913027406075 0 118.0 3.5955913027406075 1
gene  1 9 9 -3.3144407889820817 1 120.0 -3.3144407889820817 1
gene  1 14 9 -11.560264349175274 1 125.0 -11.560264349175274 1
gene  1 2 13 -16.49403442857413 0 169.0 -16.49403442857413 1
gene  1 5 13 4.966503646226696 0 172.0 4.966503646226696 1
gene  1 8 13 3.1468508719633057 0 175.0 3.1468508719633057 1
gene  1 1 14 2.9557049165952565 0 182.0 2.9557049165952565 1
gene  1 2 14 -2.0911717767168883 0 183.0 -2.0911717767168883 1
gene  1 3 14 1.7895572923645064 0 184.0 1.7895572923645064 1
gene  1 6 14 -7.250049825162806 0 187.0 -7.250049825162806 1
gene  1 13 14 -5.043670387418431 0 194.0 -5.043670387418431 1
gene  1 14 14 5.701002211236648 1 195.0 5.701002211236648 1
gene  1 5 8 -0.5965927903768962 0 202.0 -0.5965927903768962 1
gene  1 4 13 -8.040398029109415 0 220.0 -8.040398029109415 1
gene  1 1 20 -1.6156122636883172 0 231.0 -1.6156122636883172 1
gene  1 20 14 4.141513200767525 0 232.0 4.141513200767525 1
gene  1 1 13 -0.06363144483485822 0 329.0 -0.06363144483485822 1
gene  1 13 20 -3.0001421756778397 0 337.0 -3.0001421756778397 1
gene  1 4 20 3.376150299518919 0 339.0 3.376150299518919 1
gene  1 9 8 -0.29010846545509195 0 404.0 -0.29010846545509195 1
gene  1 8 14 7.636129149185781 0 410.0 7.636129149185781 1
genomeend 16
genomestart  17
trait 1 0.685217197429974 0.0 1.6981216406750186 0.11493069212669116 2.5335643132798116 0.515587326912087 0.0 0.07895419735974474 
node 1 1 1 1
node 2 1 1 1
node 3 1 1 1
node 4 1 1 1
node 5 1 1 1
node 6 1 1 1
node 7 1 1 3
node 13 1 0 2
node 14 1 0 2
node 45 1 0 0
gene  1 1 13 1.2288332015869687 0 168.0 1.2288332015869687 1
gene  1 2 13 -3.004587479185419 0 169.0 -3.004587479185419 1
gene  1 5 13 1.1250306697173045 0 172.0 1.1250306697173045 1
gene  1 6 13 -8.174523520931189 0 173.0 -8.174523520931189 1
gene  1 7 13 1.770711569134765 0 174.0 1.770711569134765 1
gene  1 3 14 -6.250980984523202 0 184.0 -6.250980984523202 1
gene  1 4 14 1.1605393702383107 0 185.0 1.1605393702383107 1
gene  1 7 14 -2.1617658867289604 0 188.0 -2.1617658867289604 1
gene  1 13 14 1.3889490553480421 0 194.0 1.3889490553480421 1
gene  1 14 14 0.529692815365014 1 195.0 0.529692815365014 1
gene  1 4 13 -1.510679116505655 0 235.0 -1.510679116505655 1
gene  1 1 14 -0.16871684970240475 0 242.0 -0.16871684970240475 1
gene  1 5 14 -2.072700224308516 0 319.0 -2.072700224308516 1
gene  1 1 45 3.14409231640605 0 370.0 3.14409231640605 1
gene  1 45 13 -1.5438942512771932 0 371.0 -1.5438942512771932 1
genomeend 17
genomestart  18
trait 1 0.685217197429974 0.0 1.6981216406750186 0.11493069212669116 2.5335643132798116 0.515587326912087 0.0 0.07895419735974474 
node 1 1 1 1
node 2 1 1 1
node 3 1 1 1
node 4 1 1 1
node 5 1 1 1
node 6 1 1 1
node 7 1 1 3
node 13 1 0 2
node 14 1 0 2
node 45 1 0 0
gene  1 1 13 0.621506334285963 0 168.0 0.621506334285963 1
gene  1 2 13 -2.5193635263134793 0 169.0 -2.5193635263134793 1
gene  1 5 13 2.490680047585655 0 172.0 2.490680047585655 1
gene  1 6 13 -8.540409881043306 0 173.0 -8.540409881043306 1
gene  1 7 13 1.9231330100815174 0 174.0 1.9231330100815174 1
gene  1 3 14 -7.105366557067208 0 184.0 -7.105366557067208 1
gene  1 4 14 2.467225889939893 0 185.0 2.467225889939893 1
gene  1 7 14 -0.4673858841601308 0 188.0 -0.4673858841601308 1
gene  1 13 14 1.6286294212601593 0 194.0 1.6286294212601593 1
gene  1 14 14 0.6552398362434357 1 195.0 0.6552398362434357 1
gene  1 4 13 9.86180292901134 0 235.0 9.86180292901134 1
gene  1 1 14 -1.8056628918175481 0 242.0 -1.8056628918175481 1
gene  1 5 14 -0.9239643777524562 0 319.0 -0.9239643777524562 1
gene  1 1 45 1.3716049659571652 0 370.0 1.3716049659571652 1
gene  1 45 13 -0.5026926415259508 0 371.0 -0.5026926415259508 1
genomeend 18
genomestart  19
trait 1 0.685217197429974 0.0 1.6981216406750186 0.11493069212669116 2.5335643132798116 0.515587326912087 0.0 0.07895419735974474 
node 1 1 1 1
node 2 1 1 1
node 3 1 1 1
node 4 1 1 1
node 5 1 1 1
node 6 1 1 1
node 7 1 1 3
node 13 1 0 2
node 14 1 0 2
node 45 1 0 0
gene  1 1 13 0.621506334285963 0 168.0 0.621506334285963 1
gene  1 2 13 -2.5193635263134793 0 169.0 -2.5193635263134793 1
gene  1 5 13 2.490680047585655 0 172.0 2.490680047585655 1
gene  1 6 13 -8.540409881043306 0 173.0 -8.540409881043306 1
gene  1 7 13 1.9231330100815174 0 174.0 1.9231330100815174 1
gene  1 3 14 -7.105366557067208 0 184.0 -7.105366557067208 1
gene  1 4 14 2.467225889939893 0 185.0 2.467225889939893 1
gene  1 7 14 -0.4673858841601308 0 188.0 -0.4673858841601308 1
gene  1 13 14 1.6286294212601593 0 194.0 1.6286294212601593 1
gene  1 14 14 0.6552398362434357 1 195.0 0.6552398362434357 1
gene  1 4 13 9.86180292901134 0 235.0 9.86180292901134 1
gene  1 1 14 -1.8056628918175481 0 242.0 -1.8056628918175481 1
gene  1 5 14 -0.9239643777524562 0 319.0 -0.9239643777524562 1
gene  1 1 45 1.3716049659571652 0 370.0 1.3716049659571652 1
gene  1 45 13 -0.5026926415259508 0 371.0 -0.5026926415259508 1
genomeend 19
