genomestart  0
trait 1 0.8313346899523332 0.2621565354539669 0.0 0.0 0.34861870450370325 0.18084195503611378 0.0 0.0 
node 1 1 1 1
node 2 1 1 1
node 3 1 1 1
node 4 1 1 1
node 5 1 1 1
node 6 1 1 1
node 7 1 1 3
node 13 1 0 2
node 14 1 0 2
gene  1 1 13 -0.3805993396995693 0 168.0 -0.3805993396995693 1
gene  1 3 13 -0.6692603826153289 0 170.0 -0.6692603826153289 1
gene  1 5 13 2.259410147378843 0 172.0 2.259410147378843 1
gene  1 6 13 -2.7467240709944774 0 173.0 -2.7467240709944774 1
gene  1 14 13 -0.7455705431431778 1 181.0 -0.7455705431431778 1
gene  1 1 14 -12.749736340958565 0 182.0 -12.749736340958565 1
gene  1 2 14 -1.7878901452513327 0 183.0 -1.7878901452513327 1
gene  1 4 14 0.33511610681042847 0 185.0 0.33511610681042847 1
gene  1 5 14 0.5034374703765815 0 186.0 0.5034374703765815 1
gene  1 6 14 -4.714499399670885 0 187.0 -4.714499399670885 1
gene  1 7 14 7.297107750678949 0 188.0 7.297107750678949 1
gene  1 13 14 2.6271378114301944 0 194.0 2.6271378114301944 1
gene  1 14 14 -1.3714142118154862 1 195.0 -1.3714142118154862 1
gene  1 2 13 -4.02726285694858 0 261.0 -4.02726285694858 1
gene  1 7 13 6.856464429993647 0 271.0 6.856464429993647 1
genomeend 0
genomestart  1
trait 1 1.7151251452115233 1.1629682757719437 0.0 0.0 0.34861870450370325 0.18084195503611378 0.0 0.9093525967191587 
node 1 1 1 1
node 2 1 1 1
node 3 1 1 1
node 4 1 1 1
node 5 1 1 1
node 6 1 1 1
node 7 1 1 3
node 13 1 0 2
node 14 1 0 2
gene  1 1 13 -0.6468558013568497 0 168.0 -0.6468558013568497 1
gene  1 3 13 -2.521983602930561 0 170.0 -2.521983602930561 1
gene  1 5 13 1.3486624924655917 0 172.0 1.3486624924655917 1
gene  1 6 13 -4.667157403962379 0 173.0 -4.667157403962379 1
gene  1 14 13 -1.5046776387118959 1 181.0 -1.5046776387118959 1
gene  1 1 14 -13.328662327122558 0 182.0 -13.328662327122558 1
gene  1 2 14 -0.4961407426446607 0 183.0 -0.4961407426446607 1
gene  1 4 14 -0.20580450238066583 0 185.0 -0.20580450238066583 1
gene  1 5 14 0.34114676828346513 0 186.0 0.34114676828346513 1
gene  1 6 14 -4.2995973822050955 0 187.0 -4.2995973822050955 1
gene  1 7 14 7.281589987580938 0 188.0 7.281589987580938 1
gene  1 13 14 1.1098012075487962 0 194.0 1.1098012075487962 1
gene  1 14 14 -2.110401906052359 1 195.0 -2.110401906052359 1
gene  1 2 13 -5.572639485985004 0 261.0 -5.572639485985004 1
genomeend 1
genomestart  2
trait 1 0.4195349490326866 0.5885108907393293 0.0 0.0 0.0 0.9657064716276549 0.3583119961020439 0.5379884025205909 
node 1 1 1 1
node 2 1 1 1
node 3 1 1 1
node 4 1 1 1
node 5 1 1 1
node 6 1 1 1
node 7 1 1 3
node 13 1 0 2
node 14 1 0 2
gene  1 2 13 8.424991952872466 0 169.0 8.424991952872466 1
gene  1 3 13 -10.761966908252818 0 170.0 -10.761966908252818 1
gene  1 4 13 -2.3207106006551355 0 171.0 -2.3207106006551355 1
gene  1 6 13 -5.601946488007878 0 173.0 -5.601946488007878 1
gene  1 7 13 -1.0157417266833013 0 174.0 -1.0157417266833013 1
gene  1 13 13 7.647562764369383 1 180.0 7.647562764369383 1
gene  1 1 14 2.157681611841263 0 182.0 2.157681611841263 1
gene  1 2 14 1.6011059916097827 0 183.0 1.6011059916097827 1
gene  1 5 14 -5.752380426586164 0 186.0 -5.752380426586164 1
gene  1 6 14 -0.1585874765282212 0 187.0 -0.1585874765282212 1
gene  1 7 14 -0.33690179498673134 0 188.0 -0.33690179498673134 1
gene  1 13 14 -2.379182396727235 0 194.0 -2.379182396727235 1
gene  1 14 14 -2.4974867104779883 1 195.0 -2.4974867104779883 1
gene  1 4 14 -1.942314788996785 0 196.0 -1.942314788996785 1
gene  1 1 13 1.9898242840038862 0 216.0 1.9898242840038862 1
genomeend 2
genomestart  3
trait 1 0.4195349490326866 0.5885108907393293 0.0 0.0 0.0 0.9657064716276549 0.3583119961020439 0.5379884025205909 
node 1 1 1 1
node 2 1 1 1
node 3 1 1 1
node 4 1 1 1
node 5 1 1 1
node 6 1 1 1
node 7 1 1 3
node 13 1 0 2
node 14 1 0 2
gene  1 2 13 6.326021978520748 0 169.0 6.326021978520748 1
gene  1 3 13 -12.313247429949659 0 170.0 -12.313247429949659 1
gene  1 4 13 -3.2100727727023664 0 171.0 -3.2100727727023664 1
gene  1 6 13 -7.147267122639983 0 173.0 -7.147267122639983 1
gene  1 7 13 -0.7657083102454119 0 174.0 -0.7657083102454119 1
gene  1 13 13 10.58109803606668 1 180.0 10.58109803606668 1
gene  1 1 14 0.5297696975645849 0 182.0 0.5297696975645849 1
gene  1 2 14 3.6081345023584483 0 183.0 3.6081345023584483 1
gene  1 5 14 -5.780843680101138 0 186.0 -5.780843680101138 1
gene  1 6 14 1.9765694210801534 0 187.0 1.9765694210801534 1
gene  1 7 14 2.0914734306079863 0 188.0 2.0914734306079863 1
gene  1 13 14 -0.6911061292393572 0 194.0 -0.6911061292393572 1
gene  1 14 14 -5.845825083146082 1 195.0 -5.845825083146082 1
gene  1 4 14 -1.67583241562262 0 196.0 -1.67583241562262 1
gene  1 1 13 1.9898242840038862 0 216.0 1.9898242840038862 1
genomeend 3
genomestart  4
trait 1 0.12933280474767544 0.29425544536966464 0.08853489118479813 0.07766507438443143 0.0 0.41262400137975846 0.0 0.0 
node 1 1 1 1
node 2 1 1 1
node 3 1 1 1
node 4 1 1 1
node 5 1 1 1
node 6 1 1 1
node 7 1 1 3
node 13 1 0 2
node 14 1 0 2
node 21 1 0 0
gene  1 1 13 2.8186445414556665 0 168.0 2.8186445414556665 1
gene  1 4 13 -0.24593392582879336 0 171.0 -0.24593392582879336 1
gene  1 5 13 -3.45055846267108 0 172.0 -3.45055846267108 1
gene  1 7 13 -2.4836011009749703 0 174.0 -2.4836011009749703 1
gene  1 13 13 -1.348221183274233 1 180.0 -1.348221183274233 1
gene  1 2 14 2.6457039598096825 0 183.0 2.6457039598096825 1
gene  1 3 14 -4.054994828825636 0 184.0 -4.054994828825636 1
gene  1 6 14 -0.1961235258435745 0 187.0 -0.1961235258435745 1
gene  1 13 14 -0.005566662647122911 0 194.0 -0.005566662647122911 1
gene  1 14 14 5.9069724000240615 1 195.0 5.9069724000240615 1
gene  1 6 13 1.2871166227599256 0 205.0 1.2871166227599256 1
gene  1 5 14 -2.1333564616628564 0 223.0 -2.1333564616628564 1
gene  1 3 13 7.003799149776547 0 229.0 7.003799149776547 1
gene  1 2 13 -0.6717642908955508 0 233.0 -0.6717642908955508 1
gene  1 1 21 1.5805930699151367 0 238.0 1.5805930699151367 1
gene  1 21 13 -4.099265342935345 0 239.0 -4.099265342935345 1
gene  1 5 21 -1.502037856428674 0 253.0 -1.502037856428674 1
gene  1 3 21 5.90533816525882 0 270.0 5.90533816525882 1
genomeend 4
genomestart  5
trait 1 0.12933280474767544 0.29425544536966464 0.08853489118479813 0.07766507438443143 0.0 0.41262400137975846 0.0 0.0 
node 1 1 1 1
node 2 1 1 1
node 3 1 1 1
node 4 1 1 1
node 5 1 1 1
node 6 1 1 1
node 7 1 1 3
node 13 1 0 2
node 14 1 0 2
node 21 1 0 0
gene  1 1 13 0.8455698642882044 0 168.0 0.8455698642882044 1
gene  1 4 13 -1.396736623523841 0 171.0 -1.396736623523841 1
gene  1 5 13 -1.7558938228062217 0 172.0 -1.7558938228062217 1
gene  1 7 13 -0.21849158934298796 0 174.0 -0.21849158934298796 1
gene  1 13 13 -2.8466208153135 1 180.0 -2.8466208153135 1
gene  1 2 14 0.908082354117346 0 183.0 0.908082354117346 1
gene  1 3 14 -5.297212859302484 0 184.0 -5.297212859302484 1
gene  1 6 14 2.191394385958177 0 187.0 2.191394385958177 1
gene  1 13 14 -1.4871266918879797 0 194.0 -1.4871266918879797 1
gene  1 14 14 7.996210783261642 1 195.0 7.996210783261642 1
gene  1 6 13 1.7525192364169437 0 205.0 1.7525192364169437 1
gene  1 5 14 -2.0025685815531205 0 223.0 -2.0025685815531205 1
gene  1 3 13 5.370534690824339 0 229.0 5.370534690824339 1
gene  1 2 13 -1.767345781723141 0 233.0 -1.767345781723141 1
gene  1 1 21 1.5805930699151367 0 238.0 1.5805930699151367 1
gene  1 21 13 -4.099265342935345 0 239.0 -4.099265342935345 1
gene  1 5 21 1.721993873899703 0 253.0 1.721993873899703 1
genomeend 5
genomestart  6
trait 1 0.6013816486831691 1.0260132824556498 0.22931706021509046 1.7517696786279573 1.3947101319955317 0.0 0.7999823718735023 0.0 
node 1 1 1 1
node 2 1 1 1
node 3 1 1 1
node 4 1 1 1
node 5 1 1 1
node 6 1 1 1
node 7 1 1 3
node 8 1 0 0
node 13 1 0 2
node 14 1 0 2
gene  1 1 8 3.0931863469977503 0 98.0 3.0931863469977503 1
gene  1 2 8 -1.614718663280949 0 99.0 -1.614718663280949 1
gene  1 3 8 -5.077383049212112 0 100.0 -5.077383049212112 1
gene  1 4 8 -1.5371663776082327 0 101.0 -1.5371663776082327 1
gene  1 5 8 -4.653671854433769 0 102.0 -4.653671854433769 1
gene  1 6 8 -2.834304295553289 0 103.0 -2.834304295553289 1
gene  1 8 8 -4.230666943589039 1 105.0 -4.230666943589039 1
gene  1 13 8 -2.6956198263335636 1 110.0 -2.6956198263335636 1
gene  1 14 8 0.8502269511787586 1 111.0 0.8502269511787586 1
gene  1 3 13 3.544659027906631 0 170.0 3.544659027906631 1
gene  1 5 13 0.15446227754282976 0 172.0 0.15446227754282976 1
gene  1 7 13 -0.1094341172965474 0 174.0 -0.1094341172965474 1
gene  1 13 13 1.0339402513175704 1 180.0 1.0339402513175704 1
gene  1 2 14 2.0652026086911803 0 183.0 2.0652026086911803 1
gene  1 4 14 -2.6723559103196814 0 185.0 -2.6723559103196814 1
gene  1 6 14 -1.4972024780135593 0 187.0 -1.4972024780135593 1
gene  1 8 14 1.246700365926112 0 189.0 1.246700365926112 1
gene  1 13 14 1.4163456179297267 0 194.0 1.4163456179297267 1
gene  1 2 13 0.3895277206543739 0 213.0 0.3895277206543739 1
gene  1 4 13 1.196341314188653 0 230.0 1.196341314188653 1
gene  1 13 8 0.8182445411161974 0 244.0 0.8182445411161974 1
gene  1 7 14 -9.63676438244499 0 264.0 -9.63676438244499 1
genomeend 6
genomestart  7
trait 1 0.6013816486831691 0.03166108780081611 0.0 0.8800951238994141 1.3947101319955317 0.0 0.7999823718735023 0.0 
node 1 1 1 1
node 2 1 1 1
node 3 1 1 1
node 4 1 1 1
node 5 1 1 1
node 6 1 1 1
node 7 1 1 3
node 8 1 0 0
node 13 1 0 2
node 14 1 0 2
gene  1 1 8 3.006564855071738 0 98.0 3.006564855071738 1
gene  1 2 8 -0.13189972529655303 0 99.0 -0.13189972529655303 1
gene  1 3 8 -4.57567183347899 0 100.0 -4.57567183347899 1
gene  1 4 8 -3.7291872524775362 0 101.0 -3.7291872524775362 1
gene  1 5 8 -0.734968126668532 0 102.0 -0.734968126668532 1
gene  1 6 8 -4.893950170388997 0 103.0 -4.893950170388997 1
gene  1 8 8 -4.883124992240976 1 105.0 -4.883124992240976 1
gene  1 13 8 -2.651158157504279 1 110.0 -2.651158157504279 1
gene  1 14 8 5.519656509996761 1 111.0 5.519656509996761 1
gene  1 3 13 4.060695156911205 0 170.0 4.060695156911205 1
gene  1 5 13 0.2748889528403087 0 172.0 0.2748889528403087 1
gene  1 7 13 -1.3774431773898075 0 174.0 -1.3774431773898075 1
gene  1 13 13 -2.48604850573445 1 180.0 -2.48604850573445 1
gene  1 2 14 4.045307936087707 0 183.0 4.045307936087707 1
gene  1 4 14 1.2545317159132265 0 185.0 1.2545317159132265 1
gene  1 6 14 0.09913343674633568 0 187.0 0.09913343674633568 1
gene  1 8 14 0.7992101551320667 0 189.0 0.7992101551320667 1
gene  1 13 14 -2.8943809528534623 0 194.0 -2.8943809528534623 1
gene  1 2 13 -0.27708255727009856 0 213.0 -0.27708255727009856 1
gene  1 4 13 2.140171178876722 0 230.0 2.140171178876722 1
gene  1 13 8 0.017420935578781327 0 244.0 0.017420935578781327 1
gene  1 7 14 -9.173640205789864 0 264.0 -9.173640205789864 1
genomeend 7
genomestart  8
trait 1 1.005894589317995 0.0 0.0 0.7114720370213098 1.5610523093872115 0.3493210991972051 0.0 0.0 
node 1 1 1 1
node 2 1 1 1
node 3 1 1 1
node 4 1 1 1
node 5 1 1 1
node 6 1 1 1
node 7 1 1 3
node 8 1 0 0
node 9 1 0 0
node 10 1 0 0
node 13 1 0 2
node 14 1 0 2
gene  1 1 8 1.486907627931172 0 98.0 1.486907627931172 1
gene  1 3 8 -5.572216242773026 0 100.0 -5.572216242773026 1
gene  1 5 8 3.1891410046649122 0 102.0 3.1891410046649122 1
gene  1 6 8 4.337292353306208 0 103.0 4.337292353306208 1
gene  1 8 8 -5.970303776246013 1 105.0 -5.970303776246013 1
gene  1 1 9 -1.8352933444378619 0 112.0 -1.8352933444378619 1
gene  1 2 9 3.4588477806931146 0 113.0 3.4588477806931146 1
gene  1 3 9 -0.8743100086521033 0 114.0 -0.8743100086521033 1
gene  1 5 9 -2.8896343489748277 0 116.0 -2.8896343489748277 1
gene  1 7 9 0.7245492912643183 0 118.0 0.7245492912643183 1
gene  1 9 9 -1.6276597319257446 1 120.0 -1.6276597319257446 1
gene  1 10 9 -4.71855785331682 1 121.0 -4.71855785331682 1
gene  1 13 9 0.9482108573355215 1 124.0 0.9482108573355215 1
gene  1 2 10 -1.2288051790841819 0 127.0 -1.2288051790841819 1
gene  1 4 10 -1.1887281553086624 0 129.0 -1.1887281553086624 1
gene  1 5 10 -4.22101554960736 0 130.0 -4.22101554960736 1
gene  1 8 10 -1.5747410064510472 0 133.0 -1.5747410064510472 1
gene  1 9 10 1.9805798877757708 0 134.0 1.9805798877757708 1
gene  1 10 10 -7.413279931114201 1 135.0 -7.413279931114201 1
gene  1 13 10 2.5399543929926134 1 138.0 2.5399543929926134 1
gene  1 14 10 2.456115770522273 1 139.0 2.456115770522273 1
gene  1 2 13 -8.64531081090497 0 169.0 -8.64531081090497 1
gene  1 3 13 1.7519799490867058 0 170.0 1.7519799490867058 1
gene  1 6 13 -1.809946102883643 0 173.0 -1.809946102883643 1
gene  1 7 13 -3.4786168704269476 0 174.0 -3.4786168704269476 1
gene  1 9 13 1.5989745127140762 0 176.0 1.5989745127140762 1
gene  1 13 13 -3.384827041396568 1 180.0 -3.384827041396568 1
gene  1 14 13 -1.7959534225683147 1 181.0 -1.7959534225683147 1
gene  1 1 14 -12.139895463817277 0 182.0 -12.139895463817277 1
gene  1 3 14 3.821057231525003 0 184.0 3.821057231525003 1
gene  1 9 14 0.8630129540794167 0 190.0 0.8630129540794167 1
gene  1 10 14 2.6306617538176513 0 191.0 2.6306617538176513 1
gene  1 8 13 0.7850772078093238 0 207.0 0.7850772078093238 1
gene  1 1 10 0.5876240503019559 0 226.0 0.5876240503019559 1
gene  1 6 14 -0.49725408941785854 0 234.0 -0.49725408941785854 1
genomeend 8
genomestart  9
trait 1 1.005894589317995 0.0 0.0 0.7114720370213098 1.5610523093872115 0.3493210991972051 0.0 0.0 
node 1 1 1 1
node 2 1 1 1
node 3 1 1 1
node 4 1 1 1
node 5 1 1 1
node 6 1 1 1
node 7 1 1 3
node 8 1 0 0
node 9 1 0 0
node 10 1 0 0
node 13 1 0 2
node 14 1 0 2
gene  1 1 8 -0.6874031083178187 0 98.0 -0.6874031083178187 1
gene  1 3 8 -5.2853739065542165 0 100.0 -5.2853739065542165 1
gene  1 5 8 1.881379041928534 0 102.0 1.881379041928534 1
gene  1 6 8 2.146817929369078 0 103.0 2.146817929369078 1
gene  1 8 8 -8.064116881583844 1 105.0 -8.064116881583844 1
gene  1 1 9 -0.0398816794201412 0 112.0 -0.0398816794201412 1
gene  1 2 9 1.0521065589879046 0 113.0 1.0521065589879046 1
gene  1 3 9 -3.5059144266216924 0 114.0 -3.5059144266216924 1
gene  1 5 9 -0.6446346584612788 0 116.0 -0.6446346584612788 1
gene  1 7 9 0.7245492912643183 0 118.0 0.7245492912643183 1
gene  1 9 9 -2.117058774586995 1 120.0 -2.117058774586995 1
gene  1 10 9 -3.061623990177571 1 121.0 -3.061623990177571 1
gene  1 13 9 0.9482108573355215 1 124.0 0.9482108573355215 1
gene  1 2 10 -0.40810109122992166 0 127.0 -0.40810109122992166 1
gene  1 4 10 -1.1887281553086624 0 129.0 -1.1887281553086624 1
gene  1 5 10 -3.3373533467606533 0 130.0 -3.3373533467606533 1
gene  1 8 10 0.6658338877243839 0 133.0 0.6658338877243839 1
gene  1 9 10 3.108200670051798 0 134.0 3.108200670051798 1
gene  1 10 10 -5.184226529506245 1 135.0 -5.184226529506245 1
gene  1 13 10 2.5399543929926134 1 138.0 2.5399543929926134 1
gene  1 14 10 -0.5977576360147834 1 139.0 -0.5977576360147834 1
gene  1 2 13 -6.938369183686401 0 169.0 -6.938369183686401 1
gene  1 3 13 2.366832984932768 0 170.0 2.366832984932768 1
gene  1 6 13 -3.1497248506317908 0 173.0 -3.1497248506317908 1
gene  1 7 13 -1.0956010590859266 0 174.0 -1.0956010590859266 1
gene  1 9 13 -0.8234308054505318 0 176.0 -0.8234308054505318 1
gene  1 13 13 -0.898050321025837 1 180.0 -0.898050321025837 1
gene  1 14 13 -0.7913999703419379 1 181.0 -0.7913999703419379 1
gene  1 1 14 -12.154211527936186 0 182.0 -12.154211527936186 1
gene  1 3 14 2.3670648345252854 0 184.0 2.3670648345252854 1
gene  1 9 14 0.8630129540794167 0 190.0 0.8630129540794167 1
gene  1 10 14 2.805812732701441 0 191.0 2.805812732701441 1
gene  1 8 13 0.057682658047996105 0 207.0 0.057682658047996105 1
gene  1 1 10 2.2245385999301543 0 226.0 2.2245385999301543 1
gene  1 6 14 -2.253460539436341 0 234.0 -2.253460539436341 1
gene  1 3 10 4.576462778130511 0 272.0 4.576462778130511 1
genomeend 9
genomestart  10
trait 1 1.3449282699683267 0.0 0.6715679179718652 0.876858839596525 1.5174143118965362 0.3493210991972051 0.4130893652942357 0.0 
node 1 1 1 1
node 2 1 1 1
node 3 1 1 1
node 4 1 1 1
node 5 1 1 1
node 6 1 1 1
node 7 1 1 3
node 8 1 0 0
node 9 1 0 0
node 10 1 0 0
node 13 1 0 2
node 14 1 0 2
gene  1 1 8 0.04098957885902421 0 98.0 0.04098957885902421 1
gene  1 3 8 -3.6635103998704266 0 100.0 -3.6635103998704266 1
gene  1 5 8 4.026624793822558 0 102.0 4.026624793822558 1
gene  1 6 8 0.22614849794905412 0 103.0 0.22614849794905412 1
gene  1 8 8 2.4467949485890674 1 105.0 2.4467949485890674 1
gene  1 1 9 1.8783830680792772 0 112.0 1.8783830680792772 1
gene  1 2 9 1.0521065589879046 0 113.0 1.0521065589879046 1
gene  1 3 9 -1.1688192529811159 0 114.0 -1.1688192529811159 1
gene  1 5 9 0.5698365127676801 0 116.0 0.5698365127676801 1
gene  1 7 9 -0.8628128701520028 0 118.0 -0.8628128701520028 1
gene  1 9 9 -2.794130598627301 1 120.0 -2.794130598627301 1
gene  1 10 9 -3.766551417185279 1 121.0 -3.766551417185279 1
gene  1 13 9 -0.32397150391447416 1 124.0 -0.32397150391447416 1
gene  1 2 10 1.773782584727114 0 127.0 1.773782584727114 1
gene  1 4 10 -2.7766221456067184 0 129.0 -2.7766221456067184 1
gene  1 5 10 -4.286703853424505 0 130.0 -4.286703853424505 1
gene  1 8 10 -2.4811267900411362 0 133.0 -2.4811267900411362 1
gene  1 9 10 3.8515403567399753 0 134.0 3.8515403567399753 1
gene  1 10 10 -4.185731211304038 1 135.0 -4.185731211304038 1
gene  1 13 10 4.085426395645195 1 138.0 4.085426395645195 1
gene  1 14 10 0.6210423051789482 1 139.0 0.6210423051789482 1
gene  1 2 13 -0.8978148837499178 0 169.0 -0.8978148837499178 1
gene  1 3 13 4.840973441591061 0 170.0 4.840973441591061 1
gene  1 6 13 2.1796084584273094 0 173.0 2.1796084584273094 1
gene  1 7 13 1.3224589655938175 0 174.0 1.3224589655938175 1
gene  1 9 13 -1.2053562779998839 0 176.0 -1.2053562779998839 1
gene  1 13 13 -2.138426247247872 1 180.0 -2.138426247247872 1
gene  1 14 13 -0.7913999703419379 1 181.0 -0.7913999703419379 1
gene  1 1 14 -12.239593270806823 0 182.0 -12.239593270806823 1
gene  1 3 14 3.5849455361368054 0 184.0 3.5849455361368054 1
gene  1 9 14 2.571074580950734 0 190.0 2.571074580950734 1
gene  1 10 14 3.447969985282311 0 191.0 3.447969985282311 1
gene  1 8 13 -1.2944383841980398 0 207.0 -1.2944383841980398 1
gene  1 1 10 2.2245385999301543 0 226.0 2.2245385999301543 1
gene  1 6 14 -3.962896779692638 0 234.0 -3.962896779692638 1
genomeend 10
genomestart  11
trait 1 0.0 0.0 0.4047372828381034 0.0 1.1905783516961135 0.0 0.0 0.6290818923229079 
node 1 1 1 1
node 2 1 1 1
node 3 1 1 1
node 4 1 1 1
node 5 1 1 1
node 6 1 1 1
node 7 1 1 3
node 8 1 0 0
node 13 1 0 2
node 14 1 0 2
node 22 1 0 0
gene  1 1 8 -1.6130648071207112 0 98.0 -1.6130648071207112 1
gene  1 3 8 -3.9161012597903295 0 100.0 -3.9161012597903295 1
gene  1 4 8 -1.561644798086683 0 101.0 -1.561644798086683 1
gene  1 5 8 0.3262713476023098 0 102.0 0.3262713476023098 1
gene  1 6 8 3.6826124068602435 0 103.0 3.6826124068602435 1
gene  1 8 8 -1.2719868483135037 1 105.0 -1.2719868483135037 1
gene  1 1 13 -1.950416283967994 0 168.0 -1.950416283967994 1
gene  1 5 13 6.997796137857858 0 172.0 6.997796137857858 1
gene  1 13 13 1.5357683706826077 1 180.0 1.5357683706826077 1
gene  1 14 13 -2.2424227454744434 1 181.0 -2.2424227454744434 1
gene  1 2 14 -2.0442635735541836 0 183.0 -2.0442635735541836 1
gene  1 3 14 -2.466673321030614 0 184.0 -2.466673321030614 1
gene  1 5 14 4.187697718779014 0 186.0 4.187697718779014 1
gene  1 7 14 -3.9125315838865573 0 188.0 -3.9125315838865573 1
gene  1 8 14 -7.1338162542017844 0 189.0 -7.1338162542017844 1
gene  1 13 14 -0.8249103403800568 0 194.0 -0.8249103403800568 1
gene  1 2 13 -1.5221363713711984 0 236.0 -1.5221363713711984 1
gene  1 8 22 -3.477934118034904 0 240.0 -3.477934118034904 1
gene  1 22 14 -2.1582227726816035 0 241.0 -2.1582227726816035 1
gene  1 1 22 -2.5024380042866246 0 245.0 -2.5024380042866246 1
gene  1 13 8 -3.06960089670348 0 257.0 -3.06960089670348 1
gene  1 5 22 2.0320609372315728 0 265.0 2.0320609372315728 1
genomeend 11
genomestart  12
trait 1 0.0 0.0 0.4047372828381034 0.0 1.1905783516961135 0.0 0.0 0.6290818923229079 
node 1 1 1 1
node 2 1 1 1
node 3 1 1 1
node 4 1 1 1
node 5 1 1 1
node 6 1 1 1
node 7 1 1 3
node 8 1 0 0
node 13 1 0 2
node 14 1 0 2
node 22 1 0 0
gene  1 1 8 0.53439288655612 0 98.0 0.53439288655612 1
gene  1 3 8 -3.5258416508294323 0 100.0 -3.5258416508294323 1
gene  1 4 8 -1.561644798086683 0 101.0 -1.561644798086683 1
gene  1 5 8 2.5478386355305753 0 102.0 2.5478386355305753 1
gene  1 6 8 3.3138940767064353 0 103.0 3.3138940767064353 1
gene  1 8 8 0.08288994828327834 1 105.0 0.08288994828327834 1
gene  1 1 13 -2.478752516983439 0 168.0 -2.478752516983439 1
gene  1 5 13 5.49108443713574 0 172.0 5.49108443713574 1
gene  1 13 13 -0.7446512846229498 1 180.0 -0.7446512846229498 1
gene  1 14 13 -1.4476629562304073 1 181.0 -1.4476629562304073 1
gene  1 2 14 -1.329668620215071 0 183.0 -1.329668620215071 1
gene  1 3 14 -4.948995463052441 0 184.0 -4.948995463052441 1
gene  1 5 14 2.374175069953295 0 186.0 2.374175069953295 1
gene  1 7 14 -2.7466837165492475 0 188.0 -2.7466837165492475 1
gene  1 8 14 -4.709107545442338 0 189.0 -4.709107545442338 1
gene  1 13 14 0.6598865890464387 0 194.0 0.6598865890464387 1
gene  1 2 13 4.15143662699966 0 236.0 4.15143662699966 1
gene  1 8 22 -1.6074143141758765 0 240.0 -1.6074143141758765 1
gene  1 22 14 -2.1582227726816035 0 241.0 -2.1582227726816035 1
gene  1 1 22 -0.7300829978087762 0 245.0 -0.7300829978087762 1
gene  1 13 8 -3.06960089670348 0 257.0 -3.06960089670348 1
gene  1 5 22 -3.7982149828676226 0 265.0 -3.7982149828676226 1
genomeend 12
genomestart  13
trait 1 0.08741220862442833 0.0 0.808586694965737 0.0 0.37563723564248874 0.16725497665413347 0.25417113514219947 0.0 
node 1 1 1 1
node 2 1 1 1
node 3 1 1 1
node 4 1 1 1
node 5 1 1 1
node 6 1 1 1
node 7 1 1 3
node 13 1 0 2
node 14 1 0 2
gene  1 1 13 1.4307841822367378 0 168.0 1.4307841822367378 1
gene  1 2 13 2.0154121139035994 0 169.0 2.0154121139035994 1
gene  1 3 13 2.755745002658074 0 170.0 2.755745002658074 1
gene  1 4 13 -2.0427331027997746 0 171.0 -2.0427331027997746 1
gene  1 5 13 -1.9226082327523177 0 172.0 -1.9226082327523177 1
gene  1 6 13 -0.361936341824169 0 173.0 -0.361936341824169 1
gene  1 7 13 2.887250167955476 0 174.0 2.887250167955476 1
gene  1 14 13 2.1426265717239255 1 181.0 2.1426265717239255 1
gene  1 1 14 0.3918463812956405 0 182.0 0.3918463812956405 1
gene  1 2 14 -1.2219497635756793 0 183.0 -1.2219497635756793 1
gene  1 3 14 4.36458897290196 0 184.0 4.36458897290196 1
gene  1 13 14 2.2225717524996242 0 194.0 2.2225717524996242 1
gene  1 14 14 1.5874176073776698 1 195.0 1.5874176073776698 1
gene  1 7 14 0.4202969606113527 0 273.0 0.4202969606113527 1
genomeend 13
genomestart  14
trait 1 0.08741220862442833 0.0 0.808586694965737 0.0 0.37563723564248874 0.16725497665413347 0.25417113514219947 0.0 
node 1 1 1 1
node 2 1 1 1
node 3 1 1 1
node 4 1 1 1
node 5 1 1 1
node 6 1 1 1
node 7 1 1 3
node 13 1 0 2
node 14 1 0 2
gene  1 1 13 1.3455491963497757 0 168.0 1.3455491963497757 1
gene  1 2 13 2.0154121139035994 0 169.0 2.0154121139035994 1
gene  1 3 13 -0.867146469474295 0 170.0 -0.867146469474295 1
gene  1 4 13 -1.3044715313808901 0 171.0 -1.3044715313808901 1
gene  1 5 13 -1.0708133775548845 0 172.0 -1.0708133775548845 1
gene  1 6 13 -2.5058932409697676 0 173.0 -2.5058932409697676 1
gene  1 7 13 3.04652430741077 0 174.0 3.04652430741077 1
gene  1 14 13 0.43455886549738393 1 181.0 0.43455886549738393 1
gene  1 1 14 1.7954043373304696 0 182.0 1.7954043373304696 1
gene  1 2 14 -0.425098488655527 0 183.0 -0.425098488655527 1
gene  1 3 14 4.36458897290196 0 184.0 4.36458897290196 1
gene  1 13 14 2.2225717524996242 0 194.0 2.2225717524996242 1
gene  1 14 14 -1.396004908767493 1 195.0 -1.396004908767493 1
genomeend 14
genomestart  15
trait 1 0.731715373568969 0.5319433208524987 0.2958241585930085 1.0172554146688002 0.2545070174269727 0.6799681748259421 0.0 0.0 
node 1 1 1 1
node 2 1 1 1
node 3 1 1 1
node 4 1 1 1
node 5 1 1 1
node 6 1 1 1
node 7 1 1 3
node 8 1 0 0
node 9 1 0 0
node 13 1 0 2
node 14 1 0 2
node 20 1 0 0
gene  1 1 8 -0.24609021451169855 0 98.0 -0.24609021451169855 1
gene  1 2 8 -5.200206467073318 0 99.0 -5.200206467073318 1
gene  1 3 8 -2.683775167066516 0 100.0 -2.683775167066516 1
gene  1 6 8 3.9480570552221974 0 103.0 3.9480570552221974 1
gene  1 8 8 -0.5889841338423696 1 105.0 -0.5889841338423696 1
gene  1 9 8 11.782157108031843 1 106.0 11.782157108031843 1
gene  1 13 8 -3.197667464443162 1 110.0 -3.197667464443162 1
gene  1 14 8 1.0698153677137625 1 111.0 1.0698153677137625 1
gene  1 1 9 -11.329045444717982 0 112.0 -11.329045444717982 1
gene  1 4 9 -3.8213868848747468 0 115.0 -3.8213868848747468 1
gene  1 5 9 6.820855568904693 0 116.0 6.820855568904693 1
gene  1 7 9 -7.4583680409899555 0 118.0 -7.4583680409899555 1
gene  1 9 9 7.238825898138178 1 120.0 7.238825898138178 1
gene  1 14 9 1.820607758138335 1 125.0 1.820607758138335 1
gene  1 2 13 -5.1220968340986905 0 169.0 -5.1220968340986905 1
gene  1 5 13 -1.5842882123418338 0 172.0 -1.5842882123418338 1
gene  1 8 13 1.5698360937030764 0 175.0 1.5698360937030764 1
gene  1 1 14 1.0081619676177849 0 182.0 1.0081619676177849 0
gene  1 2 14 17.824533860428705 0 183.0 17.824533860428705 1
gene  1 3 14 -5.68604771470263 0 184.0 -5.68604771470263 1
gene  1 6 14 2.321115048621901 0 187.0 2.321115048621901 1
gene  1 13 14 3.626008452020578 0 194.0 3.626008452020578 1
gene  1 14 14 -1.6019353123944453 1 195.0 -1.6019353123944453 1
gene  1 5 8 2.70796013665564 0 202.0 2.70796013665564 1
gene  1 4 13 -0.058549080945637655 0 220.0 -0.058549080945637655 1
gene  1 1 20 1.6637803910811884 0 231.0 1.6637803910811884 1
gene  1 20 14 -2.5897985246279704 0 232.0 -2.5897985246279704 1
genomeend 15
genomestart  16
trait 1 0.731715373568969 0.5319433208524987 0.2958241585930085 1.0172554146688002 0.2545070174269727 0.6799681748259421 0.0 0.0 
node 1 1 1 1
node 2 1 1 1
node 3 1 1 1
node 4 1 1 1
node 5 1 1 1
node 6 1 1 1
node 7 1 1 3
node 8 1 0 0
node 9 1 0 0
node 13 1 0 2
node 14 1 0 2
node 20 1 0 0
gene  1 1 8 2.844605548629393 0 98.0 2.844605548629393 1
gene  1 2 8 -4.188548388707368 0 99.0 -4.188548388707368 1
gene  1 3 8 0.5299998184285093 0 100.0 0.5299998184285093 1
gene  1 6 8 6.117676064722511 0 103.0 6.117676064722511 1
gene  1 8 8 -1.6188843299617282 1 105.0 -1.6188843299617282 1
gene  1 9 8 10.764577028550086 1 106.0 10.764577028550086 1
gene  1 13 8 0.1168889775558577 1 110.0 0.1168889775558577 1
gene  1 14 8 -1.1667806162417869 1 111.0 -1.1667806162417869 1
gene  1 1 9 -8.261582012304093 0 112.0 -8.261582012304093 1
gene  1 4 9 -1.453421766010765 0 115.0 -1.453421766010765 1
gene  1 5 9 2.6053296865639153 0 116.0 2.6053296865639153 1
gene  1 7 9 -10.307897275933616 0 118.0 -10.307897275933616 1
gene  1 9 9 5.663093190262643 1 120.0 5.663093190262643 1
gene  1 14 9 -4.146747378981318 1 125.0 -4.146747378981318 1
gene  1 2 13 -7.999267946955758 0 169.0 -7.999267946955758 1
gene  1 5 13 4.916136495226047 0 172.0 4.916136495226047 1
gene  1 8 13 2.0501748775705337 0 175.0 2.0501748775705337 1
gene  1 1 14 -0.2155841169257247 0 182.0 -0.2155841169257247 0
gene  1 2 14 18.478502624633872 0 183.0 18.478502624633872 1
gene  1 3 14 -7.929248105547265 0 184.0 -7.929248105547265 1
gene  1 6 14 1.903413502628154 0 187.0 1.903413502628154 1
gene  1 13 14 4.367808918690313 0 194.0 4.367808918690313 1
gene  1 14 14 -0.347597177152764 1 195.0 -0.347597177152764 1
gene  1 5 8 1.5650761429668787 0 202.0 1.5650761429668787 1
gene  1 4 13 -1.5128733818969782 0 220.0 -1.5128733818969782 1
gene  1 1 20 -0.4028620180246492 0 231.0 -0.4028620180246492 1
gene  1 20 14 -1.663821588135816 0 232.0 -1.663821588135816 1
genomeend 16
genomestart  17
trait 1 0.0 0.8507286365631731 0.8412243628926098 0.8164647912856297 0.6061681788876561 0.0 0.0 0.07895419735974474 
node 1 1 1 1
node 2 1 1 1
node 3 1 1 1
node 4 1 1 1
node 5 1 1 1
node 6 1 1 1
node 7 1 1 3
node 13 1 0 2
node 14 1 0 2
gene  1 1 13 -1.5995931553810057 0 168.0 -1.5995931553810057 1
gene  1 2 13 -2.5910424023588527 0 169.0 -2.5910424023588527 1
gene  1 5 13 -4.871965538327707 0 172.0 -4.871965538327707 1
gene  1 6 13 -2.3945796339533083 0 173.0 -2.3945796339533083 1
gene  1 7 13 2.84163976316504 0 174.0 2.84163976316504 1
gene  1 3 14 -4.465255201959009 0 184.0 -4.465255201959009 1
gene  1 4 14 2.1296173502878073 0 185.0 2.1296173502878073 1
gene  1 7 14 -4.928968991138046 0 188.0 -4.928968991138046 1
gene  1 13 14 -5.438633443762356 0 194.0 -5.438633443762356 1
gene  1 14 14 3.8770567618920975 1 195.0 3.8770567618920975 1
gene  1 4 13 -4.185242666564448 0 235.0 -4.185242666564448 1
gene  1 1 14 1.2097025087983426 0 242.0 1.2097025087983426 1
genomeend 17
genomestart  18
trait 1 0.0 0.8507286365631731 0.8412243628926098 0.8164647912856297 0.6061681788876561 0.0 0.0 0.07895419735974474 
node 1 1 1 1
node 2 1 1 1
node 3 1 1 1
node 4 1 1 1
node 5 1 1 1
node 6 1 1 1
node 7 1 1 3
node 13 1 0 2
node 14 1 0 2
gene  1 1 13 -1.961257252494561 0 168.0 -1.961257252494561 1
gene  1 2 13 -1.1093340312295157 0 169.0 -1.1093340312295157 1
gene  1 5 13 -1.257459163151719 0 172.0 -1.257459163151719 1
gene  1 6 13 -6.791920576072718 0 173.0 -6.791920576072718 1
gene  1 7 13 0.01060343475035691 0 174.0 0.01060343475035691 1
gene  1 3 14 -2.893083012362646 0 184.0 -2.893083012362646 1
gene  1 4 14 1.8439282164454283 0 185.0 1.8439282164454283 1
gene  1 7 14 -2.033948265981079 0 188.0 -2.033948265981079 1
gene  1 13 14 -1.5762718093085688 0 194.0 -1.5762718093085688 1
gene  1 14 14 3.4248313289327674 1 195.0 3.4248313289327674 1
gene  1 4 13 -4.415392367930135 0 235.0 -4.415392367930135 1
gene  1 1 14 4.328903846093567 0 242.0 4.328903846093567 1
genomeend 18
genomestart  19
trait 1 0.4604964785451635 0.49490255325376953 0.4146596934792013 0.8164647912856297 0.6061681788876561 0.0 0.0 0.07895419735974474 
node 1 1 1 1
node 2 1 1 1
node 3 1 1 1
node 4 1 1 1
node 5 1 1 1
node 6 1 1 1
node 7 1 1 3
node 13 1 0 2
node 14 1 0 2
gene  1 1 13 -1.961257252494561 0 168.0 -1.961257252494561 1
gene  1 2 13 -1.1093340312295157 0 169.0 -1.1093340312295157 1
gene  1 5 13 -2.3924734158361054 0 172.0 -2.3924734158361054 1
gene  1 6 13 -4.83500653453482 0 173.0 -4.83500653453482 1
gene  1 7 13 0.4344218884289374 0 174.0 0.4344218884289374 1
gene  1 3 14 -4.890066315782087 0 184.0 -4.890066315782087 1
gene  1 4 14 1.2337575582896831 0 185.0 1.2337575582896831 1
gene  1 7 14 -3.140032615005821 0 188.0 -3.140032615005821 1
gene  1 13 14 -5.438633443762356 0 194.0 -5.438633443762356 1
gene  1 14 14 2.3925349034847088 1 195.0 2.3925349034847088 1
gene  1 4 13 -4.442594737413943 0 235.0 -4.442594737413943 1
gene  1 1 14 2.490208587787776 0 242.0 2.490208587787776 1
genomeend 19
