genomestart  0
trait 1 0.12236385032328645 0.11996509262718169 0.0 1.2348572107762614 0.0 1.3168578850843018 1.0590140864502917 1.7905313975538821 
node 1 1 1 1
node 2 1 1 1
node 3 1 1 1
node 4 1 1 1
node 5 1 1 1
node 6 1 1 1
node 7 1 1 3
node 13 1 0 2
node 14 1 0 2
node 33 1 0 0
node 48 1 0 0
node 55 1 0 0
node 61 1 0 0
gene  1 2 13 4.876906966343271 0 169.0 4.876906966343271 1
gene  1 3 13 -3.195665034629523 0 170.0 -3.195665034629523 1
gene  1 4 13 2.7179674004831957 0 171.0 2.7179674004831957 1
gene  1 6 13 -0.9788699092368078 0 173.0 -0.9788699092368078 1
gene  1 7 13 0.26507107738817914 0 174.0 0.26507107738817914 1
gene  1 13 13 -0.12635030341173803 1 180.0 -0.12635030341173803 1
gene  1 1 14 3.701509499314543 0 182.0 3.701509499314543 1
gene  1 2 14 0.3610850290500886 0 183.0 0.3610850290500886 1
gene  1 5 14 -3.590315399669241 0 186.0 -3.590315399669241 1
gene  1 6 14 1.8903104421133297 0 187.0 1.8903104421133297 1
gene  1 7 14 -4.896483026311051 0 188.0 -4.896483026311051 1
gene  1 13 14 -4.791565228491835 0 194.0 -4.791565228491835 1
gene  1 14 14 2.2966431229083826 1 195.0 2.2966431229083826 1
gene  1 4 14 -0.006666405056172109 0 196.0 -0.006666405056172109 1
gene  1 1 13 -4.779537466246232 0 216.0 -4.779537466246232 1
gene  1 1 33 0.8984733650627632 0 313.0 0.8984733650627632 1
gene  1 33 14 -8.476248126332735 0 314.0 -8.476248126332735 1
gene  1 14 48 -1.1489660806243038 1 379.0 -1.1489660806243038 1
gene  1 48 14 -0.09546526229048918 0 380.0 -0.09546526229048918 1
gene  1 48 33 -2.7963374158558656 0 381.0 -2.7963374158558656 1
gene  1 4 33 2.233004059170704 0 384.0 2.233004059170704 1
gene  1 13 55 2.2462911936012335 0 407.0 2.2462911936012335 1
gene  1 55 14 7.509444998729522 0 408.0 7.509444998729522 1
gene  1 2 33 -5.163199460030764 0 425.0 -5.163199460030764 1
gene  1 13 33 -3.2553754564071467 0 427.0 -3.2553754564071467 1
gene  1 5 13 1.5135284015557036 0 436.0 1.5135284015557036 1
gene  1 7 33 6.216623649391937 0 465.0 6.216623649391937 1
gene  1 2 61 3.0831780214659705 0 466.0 3.0831780214659705 1
gene  1 61 33 0.4036420109575334 0 467.0 0.4036420109575334 1
genomeend 0
genomestart  1
trait 1 0.12236385032328645 0.11996509262718169 0.0 1.2348572107762614 0.0 1.3168578850843018 1.0590140864502917 1.7905313975538821 
node 1 1 1 1
node 2 1 1 1
node 3 1 1 1
node 4 1 1 1
node 5 1 1 1
node 6 1 1 1
node 7 1 1 3
node 13 1 0 2
node 14 1 0 2
node 33 1 0 0
node 48 1 0 0
node 55 1 0 0
node 61 1 0 0
node 86 1 0 0
gene  1 2 13 3.3948788389012994 0 169.0 3.3948788389012994 1
gene  1 3 13 -1.7388678892487592 0 170.0 -1.7388678892487592 1
gene  1 4 13 1.7695672070296709 0 171.0 1.7695672070296709 1
gene  1 6 13 0.4586992608821212 0 173.0 0.4586992608821212 1
gene  1 7 13 0.20963956354038266 0 174.0 0.20963956354038266 1
gene  1 13 13 1.8764163916870578 1 180.0 1.8764163916870578 1
gene  1 1 14 2.34943317359316 0 182.0 2.34943317359316 1
gene  1 2 14 -1.6814088232965643 0 183.0 -1.6814088232965643 1
gene  1 5 14 -1.1960397885566718 0 186.0 -1.1960397885566718 1
gene  1 6 14 3.4757162138364928 0 187.0 3.4757162138364928 1
gene  1 7 14 -3.5273955310849776 0 188.0 -3.5273955310849776 1
gene  1 13 14 -4.490687432090482 0 194.0 -4.490687432090482 1
gene  1 14 14 3.367286728475698 1 195.0 3.367286728475698 1
gene  1 4 14 -0.3491646797379857 0 196.0 -0.3491646797379857 1
gene  1 1 13 -5.008407976840745 0 216.0 -5.008407976840745 1
gene  1 1 33 -0.9847790335194908 0 313.0 -0.9847790335194908 1
gene  1 33 14 -6.722267887149224 0 314.0 -6.722267887149224 1
gene  1 14 48 -1.902812328584175 1 379.0 -1.902812328584175 1
gene  1 48 14 -0.09546526229048918 0 380.0 -0.09546526229048918 1
gene  1 48 33 -1.4437343778825775 0 381.0 -1.4437343778825775 1
gene  1 4 33 4.092201264252358 0 384.0 4.092201264252358 1
gene  1 13 55 -4.7000445800577415 0 407.0 -4.7000445800577415 1
gene  1 55 14 9.746626439694912 0 408.0 9.746626439694912 1
gene  1 2 33 -7.06578056184984 0 425.0 -7.06578056184984 0
gene  1 13 33 -1.0183096803697447 0 427.0 -1.0183096803697447 1
gene  1 5 13 0.8831299864633947 0 436.0 0.8831299864633947 1
gene  1 7 33 6.5559493303092395 0 465.0 6.5559493303092395 1
gene  1 2 61 0.6263716575757392 0 466.0 0.6263716575757392 1
gene  1 61 33 -4.725370174883297 0 467.0 -4.725370174883297 1
gene  1 2 86 1.0 0 558.0 0.0 1
gene  1 86 33 -7.06578056184984 0 559.0 0.0 1
genomeend 1
genomestart  2
trait 1 0.26937214532678067 0.0 1.896310652799719 1.0664206773141058 1.8651080668398228 0.9057529697611906 1.2186392275033897 1.6429921308966946 
node 1 1 1 1
node 2 1 1 1
node 3 1 1 1
node 4 1 1 1
node 5 1 1 1
node 6 1 1 1
node 7 1 1 3
node 13 1 0 2
node 14 1 0 2
node 21 1 0 0
node 24 1 0 0
node 34 1 0 0
node 67 1 0 0
node 72 1 0 0
node 78 1 0 0
gene  1 1 13 4.706332899866331 0 168.0 4.706332899866331 0
gene  1 4 13 -1.2700932417149158 0 171.0 -1.2700932417149158 1
gene  1 5 13 -0.7058493707048832 0 172.0 -0.7058493707048832 1
gene  1 7 13 -1.8444841083533805 0 174.0 -1.8444841083533805 1
gene  1 13 13 1.9124373287752379 1 180.0 1.9124373287752379 1
gene  1 2 14 -0.3780044486470395 0 183.0 -0.3780044486470395 1
gene  1 3 14 2.3263790917944345 0 184.0 2.3263790917944345 1
gene  1 6 14 -0.7591123159316657 0 187.0 -0.7591123159316657 1
gene  1 13 14 -0.37586480794396054 0 194.0 -0.37586480794396054 1
gene  1 14 14 -0.17443204030243786 1 195.0 -0.17443204030243786 1
gene  1 6 13 -0.757382550004835 0 205.0 -0.757382550004835 1
gene  1 5 14 2.2455065455105423 0 223.0 2.2455065455105423 1
gene  1 3 13 -1.464098507987385 0 229.0 -1.464098507987385 1
gene  1 2 13 0.03463811681035245 0 233.0 0.03463811681035245 1
gene  1 1 21 13.16071193334739 0 238.0 13.16071193334739 1
gene  1 21 13 0.27877858919754556 0 239.0 0.27877858919754556 1
gene  1 5 21 0.8891745945148746 0 253.0 0.8891745945148746 1
gene  1 3 21 3.701731126814205 0 270.0 3.701731126814205 1
gene  1 1 24 0.0773521898988121 0 275.0 0.0773521898988121 1
gene  1 24 13 2.3285413976758464 0 276.0 2.3285413976758464 1
gene  1 3 34 5.009677716663951 0 315.0 5.009677716663951 1
gene  1 34 14 1.8584753212133676 0 316.0 1.8584753212133676 0
gene  1 3 24 1.3646928815839616 0 324.0 1.3646928815839616 1
gene  1 2 21 -3.5589361205096393 0 350.0 -3.5589361205096393 1
gene  1 34 13 -0.1954481719088632 0 355.0 -0.1954481719088632 1
gene  1 1 34 -1.124467974326151 0 361.0 -1.124467974326151 1
gene  1 7 14 1.4947767468581838 0 388.0 1.4947767468581838 1
gene  1 24 14 -6.180938704641791 0 468.0 -6.180938704641791 1
gene  1 34 67 2.2147330384618447 0 491.0 2.2147330384618447 1
gene  1 67 14 3.4928226825061195 0 492.0 3.4928226825061195 1
gene  1 1 72 -0.0104423170057108 0 505.0 -0.0104423170057108 1
gene  1 72 13 -4.122600379500991 0 506.0 -4.122600379500991 1
gene  1 1 78 2.0830663686219095 0 530.0 2.0830663686219095 1
gene  1 78 72 3.376664189968763 0 531.0 3.376664189968763 1
genomeend 2
genomestart  3
trait 1 0.26937214532678067 0.0 1.896310652799719 1.0664206773141058 1.8651080668398228 0.9057529697611906 1.2186392275033897 1.6429921308966946 
node 1 1 1 1
node 2 1 1 1
node 3 1 1 1
node 4 1 1 1
node 5 1 1 1
node 6 1 1 1
node 7 1 1 3
node 13 1 0 2
node 14 1 0 2
node 21 1 0 0
node 24 1 0 0
node 34 1 0 0
node 67 1 0 0
node 72 1 0 0
node 78 1 0 0
gene  1 1 13 6.007497294338695 0 168.0 6.007497294338695 0
gene  1 4 13 -1.2700932417149158 0 171.0 -1.2700932417149158 1
gene  1 5 13 -1.1500146581356585 0 172.0 -1.1500146581356585 1
gene  1 7 13 -1.19211172284268 0 174.0 -1.19211172284268 1
gene  1 13 13 -0.25047794605125073 1 180.0 -0.25047794605125073 1
gene  1 2 14 1.82193585011762 0 183.0 1.82193585011762 1
gene  1 3 14 1.969333045730509 0 184.0 1.969333045730509 1
gene  1 6 14 -0.7591123159316657 0 187.0 -0.7591123159316657 1
gene  1 13 14 -2.2491707243040358 0 194.0 -2.2491707243040358 1
gene  1 14 14 0.8263906784918117 1 195.0 0.8263906784918117 1
gene  1 6 13 1.376109007782246 0 205.0 1.376109007782246 1
gene  1 5 14 0.8823493226889861 0 223.0 0.8823493226889861 1
gene  1 3 13 -1.3960857097409571 0 229.0 -1.3960857097409571 1
gene  1 2 13 -1.698961809919932 0 233.0 -1.698961809919932 1
gene  1 1 21 15.055382650381077 0 238.0 15.055382650381077 1
gene  1 21 13 1.5902130678587227 0 239.0 1.5902130678587227 1
gene  1 5 21 0.33570534491711074 0 253.0 0.33570534491711074 1
gene  1 3 21 1.8210594535839577 0 270.0 1.8210594535839577 1
gene  1 1 24 -0.44192594725809764 0 275.0 -0.44192594725809764 1
gene  1 24 13 3.3864055135249993 0 276.0 3.3864055135249993 1
gene  1 3 34 2.9190728284626517 0 315.0 2.9190728284626517 1
gene  1 34 14 -0.48553087768440056 0 316.0 -0.48553087768440056 0
gene  1 3 24 -0.3802164342667427 0 324.0 -0.3802164342667427 1
gene  1 2 21 -4.607190083191114 0 350.0 -4.607190083191114 1
gene  1 34 13 0.7389066024453017 0 355.0 0.7389066024453017 1
gene  1 1 34 3.097068929539048 0 361.0 3.097068929539048 1
gene  1 7 14 1.4511937271514541 0 388.0 1.4511937271514541 1
gene  1 24 14 -7.6482052635947815 0 468.0 -7.6482052635947815 1
gene  1 34 67 0.45367572714333393 0 491.0 0.45367572714333393 1
gene  1 67 14 1.1725412831831292 0 492.0 1.1725412831831292 1
gene  1 1 72 -1.7405318490020227 0 505.0 -1.7405318490020227 1
gene  1 72 13 -1.9696930668140897 0 506.0 -1.9696930668140897 1
gene  1 1 78 1.190118749643635 0 530.0 1.190118749643635 1
gene  1 78 72 4.608026793100233 0 531.0 4.608026793100233 1
genomeend 3
genomestart  4
trait 1 0.26937214532678067 0.0 1.896310652799719 1.0664206773141058 1.8651080668398228 0.9057529697611906 1.2186392275033897 1.6429921308966946 
node 1 1 1 1
node 2 1 1 1
node 3 1 1 1
node 4 1 1 1
node 5 1 1 1
node 6 1 1 1
node 7 1 1 3
node 13 1 0 2
node 14 1 0 2
node 21 1 0 0
node 24 1 0 0
node 34 1 0 0
node 67 1 0 0
node 72 1 0 0
node 78 1 0 0
gene  1 1 13 4.8680566630681765 0 168.0 4.8680566630681765 1
gene  1 4 13 -2.156277853432568 0 171.0 -2.156277853432568 1
gene  1 5 13 0.6414772996113924 0 172.0 0.6414772996113924 1
gene  1 7 13 -1.5379517506626967 0 174.0 -1.5379517506626967 1
gene  1 13 13 -2.2171692385678563 1 180.0 -2.2171692385678563 1
gene  1 2 14 0.07545415613034168 0 183.0 0.07545415613034168 1
gene  1 3 14 3.3813439325559775 0 184.0 3.3813439325559775 1
gene  1 6 14 -0.04956441224860475 0 187.0 -0.04956441224860475 1
gene  1 13 14 -2.4047443501760535 0 194.0 -2.4047443501760535 1
gene  1 14 14 2.848206235895292 1 195.0 2.848206235895292 1
gene  1 6 13 1.9002547808555403 0 205.0 1.9002547808555403 1
gene  1 5 14 0.026531805611107462 0 223.0 0.026531805611107462 1
gene  1 3 13 0.07508448512182864 0 229.0 0.07508448512182864 1
gene  1 2 13 -3.5272864677750637 0 233.0 -3.5272864677750637 1
gene  1 1 21 13.05089038683241 0 238.0 13.05089038683241 1
gene  1 21 13 0.6143397940223967 0 239.0 0.6143397940223967 1
gene  1 5 21 -0.11015043625065779 0 253.0 -0.11015043625065779 1
gene  1 3 21 1.4564180596289171 0 270.0 1.4564180596289171 1
gene  1 1 24 -0.11537029325238635 0 275.0 -0.11537029325238635 1
gene  1 24 13 3.8894110899141436 0 276.0 3.8894110899141436 1
gene  1 3 34 4.650433467792231 0 315.0 4.650433467792231 1
gene  1 34 14 -0.9131115148128486 0 316.0 -0.9131115148128486 0
gene  1 3 24 -0.4939865089850006 0 324.0 -0.4939865089850006 1
gene  1 2 21 -3.4539562009012146 0 350.0 -3.4539562009012146 1
gene  1 34 13 -0.02471227893830974 0 355.0 -0.02471227893830974 1
gene  1 1 34 5.411228701633536 0 361.0 5.411228701633536 1
gene  1 7 14 3.0980575504352155 0 388.0 3.0980575504352155 1
gene  1 24 14 -6.368847152551195 0 468.0 -6.368847152551195 1
gene  1 34 67 0.45367572714333393 0 491.0 0.45367572714333393 1
gene  1 67 14 0.6206897839585748 0 492.0 0.6206897839585748 1
gene  1 1 72 -1.7405318490020227 0 505.0 -1.7405318490020227 1
gene  1 72 13 -1.9696930668140897 0 506.0 -1.9696930668140897 1
gene  1 1 78 1.190118749643635 0 530.0 1.190118749643635 1
gene  1 78 72 2.0847868493504933 0 531.0 2.0847868493504933 1
genomeend 4
genomestart  5
trait 1 0.7406206948073408 0.11168036512555457 0.0 2.5667145009496477 0.4651853155222945 0.0 0.0 0.7608726933702716 
node 1 1 1 1
node 2 1 1 1
node 3 1 1 1
node 4 1 1 1
node 5 1 1 1
node 6 1 1 1
node 7 1 1 3
node 8 1 0 0
node 13 1 0 2
node 14 1 0 2
node 39 1 0 0
node 42 1 0 0
node 51 1 0 0
node 68 1 0 0
node 77 1 0 0
gene  1 1 8 3.628402174307885 0 98.0 3.628402174307885 1
gene  1 2 8 -0.1570404266429719 0 99.0 -0.1570404266429719 1
gene  1 3 8 -0.9365495193280424 0 100.0 -0.9365495193280424 1
gene  1 4 8 -1.881227335418514 0 101.0 -1.881227335418514 1
gene  1 5 8 2.4350689646284014 0 102.0 2.4350689646284014 1
gene  1 6 8 1.8044221961440123 0 103.0 1.8044221961440123 1
gene  1 8 8 -1.3962048841608008 1 105.0 -1.3962048841608008 1
gene  1 13 8 0.6960522268312452 1 110.0 0.6960522268312452 1
gene  1 14 8 13.17322164600683 1 111.0 13.17322164600683 1
gene  1 3 13 2.477804509004857 0 170.0 2.477804509004857 1
gene  1 5 13 -1.1621235901846803 0 172.0 -1.1621235901846803 1
gene  1 7 13 3.8961660526551247 0 174.0 3.8961660526551247 1
gene  1 13 13 -3.0943299471501224 1 180.0 -3.0943299471501224 1
gene  1 2 14 -5.375377943724434 0 183.0 -5.375377943724434 1
gene  1 4 14 -0.3043073239296633 0 185.0 -0.3043073239296633 1
gene  1 6 14 -1.1872579321099235 0 187.0 -1.1872579321099235 1
gene  1 8 14 1.6502220341676237 0 189.0 1.6502220341676237 1
gene  1 13 14 7.8297501721873175 0 194.0 7.8297501721873175 1
gene  1 2 13 -5.305093726016279 0 213.0 -5.305093726016279 1
gene  1 4 13 4.305422501465993 0 230.0 4.305422501465993 1
gene  1 13 8 0.9052920562517301 0 244.0 0.9052920562517301 1
gene  1 7 14 1.662506665732008 0 264.0 1.662506665732008 1
gene  1 1 14 -6.150510304849381 0 299.0 -6.150510304849381 1
gene  1 5 14 -2.053488506943403 0 310.0 -2.053488506943403 1
gene  1 1 13 -1.077759248500701 0 311.0 -1.077759248500701 1
gene  1 13 39 -0.36971843330874243 0 344.0 -0.36971843330874243 1
gene  1 39 8 -2.1768191235405707 0 345.0 -2.1768191235405707 1
gene  1 6 13 -3.88653913440433 0 348.0 -3.88653913440433 1
gene  1 2 42 0.9261273259118694 0 359.0 0.9261273259118694 1
gene  1 42 14 6.669130320317387 0 360.0 6.669130320317387 1
gene  1 13 42 3.6361556941914044 0 366.0 3.6361556941914044 1
gene  1 5 51 -3.252287111270248 0 396.0 -3.252287111270248 1
gene  1 51 14 -0.7924370337417745 0 397.0 -0.7924370337417745 1
gene  1 6 42 0.22454336240440492 0 423.0 0.22454336240440492 1
gene  1 39 42 -1.290970749175357 0 426.0 -1.290970749175357 1
gene  1 51 13 2.149791907743598 0 475.0 2.149791907743598 1
gene  1 39 14 -0.3182406757718348 0 476.0 -0.3182406757718348 1
gene  1 5 39 -0.8975847954271288 0 485.0 -0.8975847954271288 1
gene  1 5 68 0.14624472602590233 0 493.0 0.14624472602590233 1
gene  1 68 39 -1.5522850020222838 0 494.0 -1.5522850020222838 1
gene  1 4 51 0.7867776804434898 0 514.0 0.7867776804434898 1
gene  1 39 77 5.417522449767094 0 528.0 5.417522449767094 1
gene  1 77 8 -2.2718518923839475 0 529.0 -2.2718518923839475 1
genomeend 5
genomestart  6
trait 1 0.7406206948073408 0.11168036512555457 0.0 2.5667145009496477 0.4651853155222945 0.0 0.0 0.7608726933702716 
node 1 1 1 1
node 2 1 1 1
node 3 1 1 1
node 4 1 1 1
node 5 1 1 1
node 6 1 1 1
node 7 1 1 3
node 8 1 0 0
node 13 1 0 2
node 14 1 0 2
node 39 1 0 0
node 42 1 0 0
node 51 1 0 0
node 68 1 0 0
node 77 1 0 0
gene  1 1 8 2.4020833385760922 0 98.0 2.4020833385760922 1
gene  1 2 8 -1.2072793891377593 0 99.0 -1.2072793891377593 1
gene  1 3 8 -0.00963319572901944 0 100.0 -0.00963319572901944 1
gene  1 4 8 3.085427395636212 0 101.0 3.085427395636212 1
gene  1 5 8 -0.06616727445813936 0 102.0 -0.06616727445813936 1
gene  1 6 8 2.0053955307957545 0 103.0 2.0053955307957545 1
gene  1 8 8 -1.2585849542674221 1 105.0 -1.2585849542674221 1
gene  1 13 8 -3.903260480231899 1 110.0 -3.903260480231899 1
gene  1 14 8 13.144567256867536 1 111.0 13.144567256867536 1
gene  1 3 13 1.9756988042762076 0 170.0 1.9756988042762076 1
gene  1 5 13 5.432220707857044 0 172.0 5.432220707857044 1
gene  1 7 13 2.766769445091076 0 174.0 2.766769445091076 1
gene  1 13 13 -4.698057291398171 1 180.0 -4.698057291398171 1
gene  1 2 14 -1.433533053506429 0 183.0 -1.433533053506429 1
gene  1 4 14 0.44215328876527715 0 185.0 0.44215328876527715 1
gene  1 6 14 -0.3861823285681175 0 187.0 -0.3861823285681175 1
gene  1 8 14 0.2637414922338097 0 189.0 0.2637414922338097 1
gene  1 13 14 6.495819134984605 0 194.0 6.495819134984605 1
gene  1 2 13 -2.806514442856033 0 213.0 -2.806514442856033 1
gene  1 4 13 3.472747666142629 0 230.0 3.472747666142629 1
gene  1 13 8 -0.12092472129120757 0 244.0 -0.12092472129120757 1
gene  1 7 14 0.765348705184911 0 264.0 0.765348705184911 1
gene  1 1 14 -7.747409055591674 0 299.0 -7.747409055591674 1
gene  1 5 14 -0.24279791935691053 0 310.0 -0.24279791935691053 1
gene  1 1 13 1.6594188607818554 0 311.0 1.6594188607818554 1
gene  1 13 39 1.200080182641476 0 344.0 1.200080182641476 1
gene  1 39 8 -1.635215717208156 0 345.0 -1.635215717208156 1
gene  1 6 13 -1.99596645975937 0 348.0 -1.99596645975937 1
gene  1 2 42 0.3609708808210152 0 359.0 0.3609708808210152 1
gene  1 42 14 8.594718326898025 0 360.0 8.594718326898025 1
gene  1 13 42 3.5214804407361022 0 366.0 3.5214804407361022 1
gene  1 5 51 -1.9831742020531566 0 396.0 -1.9831742020531566 1
gene  1 51 14 -3.3253422095776712 0 397.0 -3.3253422095776712 1
gene  1 6 42 6.362761755222328 0 423.0 6.362761755222328 1
gene  1 39 42 -4.43403937459384 0 426.0 -4.43403937459384 1
gene  1 51 13 0.43434013304736285 0 475.0 0.43434013304736285 1
gene  1 39 14 0.6782248718951367 0 476.0 0.6782248718951367 1
gene  1 5 39 2.5879164108649793 0 485.0 2.5879164108649793 1
gene  1 5 68 -1.8603966761892328 0 493.0 -1.8603966761892328 1
gene  1 68 39 -0.3317535539259367 0 494.0 -0.3317535539259367 1
gene  1 4 51 0.018158833928180462 0 514.0 0.018158833928180462 1
gene  1 39 77 5.590301619359593 0 528.0 5.590301619359593 1
gene  1 77 8 2.6599621537644413 0 529.0 2.6599621537644413 1
genomeend 6
genomestart  7
trait 1 2.732431393943948 0.0 0.0 0.798512545900133 0.9382603138953756 0.0 1.9280392103089152 0.8152719799274877 
node 1 1 1 1
node 2 1 1 1
node 3 1 1 1
node 4 1 1 1
node 5 1 1 1
node 6 1 1 1
node 7 1 1 3
node 8 1 0 0
node 9 1 0 0
node 10 1 0 0
node 13 1 0 2
node 14 1 0 2
node 28 1 0 0
node 41 1 0 0
node 43 1 0 0
node 47 1 0 0
node 62 1 0 0
gene  1 1 8 -5.076987367763373 0 98.0 -5.076987367763373 1
gene  1 3 8 0.24893755622308128 0 100.0 0.24893755622308128 1
gene  1 5 8 -5.700601679129892 0 102.0 -5.700601679129892 1
gene  1 6 8 -7.0306276520536946 0 103.0 -7.0306276520536946 1
gene  1 8 8 -2.2331397119202565 1 105.0 -2.2331397119202565 1
gene  1 1 9 2.816701973227032 0 112.0 2.816701973227032 1
gene  1 2 9 4.182163868262515 0 113.0 4.182163868262515 1
gene  1 3 9 -0.740489701422723 0 114.0 -0.740489701422723 1
gene  1 5 9 7.402024792665925 0 116.0 7.402024792665925 1
gene  1 7 9 -2.697725966826561 0 118.0 -2.697725966826561 1
gene  1 9 9 0.9889084943719069 1 120.0 0.9889084943719069 1
gene  1 10 9 0.8847976116996616 1 121.0 0.8847976116996616 1
gene  1 13 9 0.13346656541646762 1 124.0 0.13346656541646762 1
gene  1 2 10 -2.427714123101378 0 127.0 -2.427714123101378 1
gene  1 4 10 2.9685881478677048 0 129.0 2.9685881478677048 1
gene  1 5 10 2.3879598728031715 0 130.0 2.3879598728031715 1
gene  1 8 10 0.9483893155707532 0 133.0 0.9483893155707532 1
gene  1 9 10 -4.124039390853969 0 134.0 -4.124039390853969 1
gene  1 10 10 -5.705425336418505 1 135.0 -5.705425336418505 1
gene  1 13 10 -0.7023932060076338 1 138.0 -0.7023932060076338 1
gene  1 14 10 -2.2614775169249546 1 139.0 -2.2614775169249546 1
gene  1 2 13 7.814245473356307 0 169.0 7.814245473356307 1
gene  1 3 13 3.5804704038836404 0 170.0 3.5804704038836404 1
gene  1 6 13 13.593338032926752 0 173.0 13.593338032926752 1
gene  1 7 13 -0.8972333625572251 0 174.0 -0.8972333625572251 1
gene  1 9 13 2.851045296125399 0 176.0 2.851045296125399 1
gene  1 13 13 0.39615533322254287 1 180.0 0.39615533322254287 1
gene  1 14 13 8.361019011245162 1 181.0 8.361019011245162 1
gene  1 1 14 -0.6584699037149871 0 182.0 -0.6584699037149871 1
gene  1 3 14 0.5087808276351229 0 184.0 0.5087808276351229 1
gene  1 9 14 -11.540070697896097 0 190.0 -11.540070697896097 1
gene  1 10 14 -4.9844546251901125 0 191.0 -4.9844546251901125 1
gene  1 8 13 3.9790384597415147 0 207.0 3.9790384597415147 1
gene  1 1 10 -6.4647033617486285 0 226.0 -6.4647033617486285 1
gene  1 6 14 -2.715989810072266 0 234.0 -2.715989810072266 1
gene  1 8 28 -0.4339253642851029 1 293.0 -0.4339253642851029 1
gene  1 28 8 -2.942322191697865 0 294.0 -2.942322191697865 1
gene  1 8 9 -7.468549160127921 0 328.0 -7.468549160127921 1
gene  1 8 41 1.2325665690963028 1 357.0 1.2325665690963028 1
gene  1 41 8 1.2384153002570277 0 358.0 1.2384153002570277 1
gene  1 14 43 2.1798622763247937 1 364.0 2.1798622763247937 1
gene  1 43 10 0.38751037590160603 0 365.0 0.38751037590160603 1
gene  1 5 47 2.759472980893541 0 375.0 2.759472980893541 1
gene  1 47 9 3.6230869384806574 0 376.0 3.6230869384806574 1
gene  1 41 14 4.240525071460841 0 387.0 4.240525071460841 1
gene  1 4 28 -3.8495310313859576 0 419.0 -3.8495310313859576 1
gene  1 2 28 0.5710563277913931 0 429.0 0.5710563277913931 1
gene  1 1 62 -0.07909987991801148 0 470.0 -0.07909987991801148 1
gene  1 62 9 -1.628913744869844 0 471.0 -1.628913744869844 1
gene  1 8 14 -4.808719313134128 0 484.0 -4.808719313134128 1
gene  1 1 13 2.0671339597429546 0 489.0 2.0671339597429546 1
gene  1 28 10 -1.8295570018609868 0 510.0 -1.8295570018609868 1
gene  1 2 41 0.5298267923761477 0 515.0 0.5298267923761477 1
gene  1 41 47 1.9570772002447143 0 548.0 1.9570772002447143 1
genomeend 7
genomestart  8
trait 1 2.732431393943948 0.0 0.0 0.798512545900133 0.9382603138953756 0.0 1.9280392103089152 0.8152719799274877 
node 1 1 1 1
node 2 1 1 1
node 3 1 1 1
node 4 1 1 1
node 5 1 1 1
node 6 1 1 1
node 7 1 1 3
node 8 1 0 0
node 9 1 0 0
node 10 1 0 0
node 13 1 0 2
node 14 1 0 2
node 28 1 0 0
node 41 1 0 0
node 43 1 0 0
node 47 1 0 0
node 62 1 0 0
gene  1 1 8 -7.698288672158611 0 98.0 -7.698288672158611 1
gene  1 3 8 -0.5123654194686789 0 100.0 -0.5123654194686789 1
gene  1 5 8 -6.830595363657888 0 102.0 -6.830595363657888 1
gene  1 6 8 -9.362762357315365 0 103.0 -9.362762357315365 1
gene  1 8 8 -4.16092365257332 1 105.0 -4.16092365257332 1
gene  1 1 9 3.3121078780492126 0 112.0 3.3121078780492126 1
gene  1 2 9 0.29921839775430636 0 113.0 0.29921839775430636 1
gene  1 3 9 8.088847272527985 0 114.0 8.088847272527985 1
gene  1 5 9 7.6427373635583065 0 116.0 7.6427373635583065 1
gene  1 7 9 -4.343155195045218 0 118.0 -4.343155195045218 1
gene  1 9 9 2.319959965711724 1 120.0 2.319959965711724 1
gene  1 10 9 6.896753965363997 1 121.0 6.896753965363997 1
gene  1 13 9 0.9109607902646607 1 124.0 0.9109607902646607 1
gene  1 2 10 -4.821474816325353 0 127.0 -4.821474816325353 1
gene  1 4 10 3.096689789713776 0 129.0 3.096689789713776 1
gene  1 5 10 -2.154997027450549 0 130.0 -2.154997027450549 1
gene  1 8 10 0.47414646549978795 0 133.0 0.47414646549978795 1
gene  1 9 10 -3.7804624313533273 0 134.0 -3.7804624313533273 1
gene  1 10 10 -2.708217603366426 1 135.0 -2.708217603366426 1
gene  1 13 10 1.394241492457383 1 138.0 1.394241492457383 1
gene  1 14 10 -5.10429752461573 1 139.0 -5.10429752461573 1
gene  1 2 13 5.947211744093586 0 169.0 5.947211744093586 1
gene  1 3 13 2.704601576322861 0 170.0 2.704601576322861 1
gene  1 6 13 13.372803482098512 0 173.0 13.372803482098512 1
gene  1 7 13 0.666317241435427 0 174.0 0.666317241435427 1
gene  1 9 13 4.7350944466882225 0 176.0 4.7350944466882225 1
gene  1 13 13 -7.288726914140718 1 180.0 -7.288726914140718 1
gene  1 14 13 8.316895516200333 1 181.0 8.316895516200333 1
gene  1 1 14 0.9977415081757621 0 182.0 0.9977415081757621 1
gene  1 3 14 0.7076390015527514 0 184.0 0.7076390015527514 1
gene  1 9 14 -10.85749260799477 0 190.0 -10.85749260799477 1
gene  1 10 14 -4.284924067053448 0 191.0 -4.284924067053448 1
gene  1 8 13 5.597300425525976 0 207.0 5.597300425525976 1
gene  1 1 10 -3.4808155772621703 0 226.0 -3.4808155772621703 1
gene  1 6 14 -1.313705889170918 0 234.0 -1.313705889170918 1
gene  1 8 28 -0.9827256103622001 1 293.0 -0.9827256103622001 1
gene  1 28 8 -1.2066718884639416 0 294.0 -1.2066718884639416 1
gene  1 8 9 -7.677990051117777 0 328.0 -7.677990051117777 1
gene  1 8 41 1.3250820662070415 1 357.0 1.3250820662070415 1
gene  1 41 8 0.7256685676893162 0 358.0 0.7256685676893162 1
gene  1 14 43 3.760517137069004 1 364.0 3.760517137069004 1
gene  1 43 10 3.1775053209517843 0 365.0 3.1775053209517843 1
gene  1 5 47 2.2625043933900733 0 375.0 2.2625043933900733 1
gene  1 47 9 0.6711151825550836 0 376.0 0.6711151825550836 1
gene  1 41 14 2.0270032523581767 0 387.0 2.0270032523581767 1
gene  1 4 28 -4.292444230131502 0 419.0 -4.292444230131502 1
gene  1 2 28 3.311330460924113 0 429.0 3.311330460924113 1
gene  1 1 62 2.3037952788099108 0 470.0 2.3037952788099108 1
gene  1 62 9 -0.37856329652368736 0 471.0 -0.37856329652368736 1
gene  1 8 14 -2.475164372359315 0 484.0 -2.475164372359315 1
gene  1 1 13 -1.348118431105072 0 489.0 -1.348118431105072 1
gene  1 28 10 -0.9139491932521597 0 510.0 -0.9139491932521597 1
gene  1 2 41 4.052514777891604 0 515.0 4.052514777891604 1
gene  1 41 47 -0.6874636490140293 0 548.0 -0.6874636490140293 1
genomeend 8
genomestart  9
trait 1 3.2333588563958897 0.0 0.0 0.798512545900133 0.07342566698490438 0.08001731485110275 1.9280392103089152 0.8152719799274877 
node 1 1 1 1
node 2 1 1 1
node 3 1 1 1
node 4 1 1 1
node 5 1 1 1
node 6 1 1 1
node 7 1 1 3
node 8 1 0 0
node 9 1 0 0
node 10 1 0 0
node 13 1 0 2
node 14 1 0 2
node 28 1 0 0
node 41 1 0 0
node 43 1 0 0
node 47 1 0 0
node 62 1 0 0
gene  1 1 8 -7.345098146144289 0 98.0 -7.345098146144289 1
gene  1 3 8 1.3745262653566663 0 100.0 1.3745262653566663 1
gene  1 5 8 -2.1991266778221448 0 102.0 -2.1991266778221448 1
gene  1 6 8 0.267995349296318 0 103.0 0.267995349296318 1
gene  1 8 8 -4.755093626168636 1 105.0 -4.755093626168636 1
gene  1 1 9 -1.6935981985928743 0 112.0 -1.6935981985928743 1
gene  1 2 9 0.4210322792771519 0 113.0 0.4210322792771519 1
gene  1 3 9 11.74271398461246 0 114.0 11.74271398461246 1
gene  1 5 9 6.795392341715703 0 116.0 6.795392341715703 1
gene  1 7 9 -0.505412276815838 0 118.0 -0.505412276815838 1
gene  1 9 9 2.0853968791010034 1 120.0 2.0853968791010034 1
gene  1 10 9 5.978188011960075 1 121.0 5.978188011960075 1
gene  1 13 9 -0.10746573234558582 1 124.0 -0.10746573234558582 1
gene  1 2 10 -3.219032821312732 0 127.0 -3.219032821312732 1
gene  1 4 10 1.780665641391543 0 129.0 1.780665641391543 1
gene  1 5 10 -0.7106824658211321 0 130.0 -0.7106824658211321 1
gene  1 8 10 0.05325743485903678 0 133.0 0.05325743485903678 1
gene  1 9 10 0.19402624158847637 0 134.0 0.19402624158847637 1
gene  1 10 10 -7.265710215996711 1 135.0 -7.265710215996711 1
gene  1 13 10 1.531935836919898 1 138.0 1.531935836919898 1
gene  1 14 10 -0.514420768314118 1 139.0 -0.514420768314118 1
gene  1 2 13 4.44399005782341 0 169.0 4.44399005782341 1
gene  1 3 13 0.7967447283950608 0 170.0 0.7967447283950608 1
gene  1 6 13 13.330744793022355 0 173.0 13.330744793022355 1
gene  1 7 13 -2.169738358985106 0 174.0 -2.169738358985106 1
gene  1 9 13 0.6195383439862625 0 176.0 0.6195383439862625 1
gene  1 13 13 -1.6479214869429903 1 180.0 -1.6479214869429903 1
gene  1 14 13 8.993996604797653 1 181.0 8.993996604797653 1
gene  1 1 14 2.5025409192247148 0 182.0 2.5025409192247148 1
gene  1 3 14 2.021819879439439 0 184.0 2.021819879439439 1
gene  1 9 14 -8.648349794020971 0 190.0 -8.648349794020971 1
gene  1 10 14 -6.5724609058055234 0 191.0 -6.5724609058055234 1
gene  1 8 13 8.18457202872035 0 207.0 8.18457202872035 1
gene  1 1 10 -0.5514024070970434 0 226.0 -0.5514024070970434 1
gene  1 6 14 -1.2808792664105355 0 234.0 -1.2808792664105355 1
gene  1 8 28 0.520949195474269 1 293.0 0.520949195474269 1
gene  1 28 8 -3.4350529114267747 0 294.0 -3.4350529114267747 1
gene  1 8 9 -8.07151584826856 0 328.0 -8.07151584826856 1
gene  1 8 41 1.0569421707380318 1 357.0 1.0569421707380318 1
gene  1 41 8 -1.959445263962101 0 358.0 -1.959445263962101 1
gene  1 14 43 5.086788525706709 1 364.0 5.086788525706709 1
gene  1 43 10 5.033895281177753 0 365.0 5.033895281177753 1
gene  1 5 47 0.9109933415185516 0 375.0 0.9109933415185516 1
gene  1 47 9 1.1118687849402484 0 376.0 1.1118687849402484 1
gene  1 41 14 0.8109603052316934 0 387.0 0.8109603052316934 1
gene  1 4 28 -1.7383181861872268 0 419.0 -1.7383181861872268 1
gene  1 2 28 4.531291120981121 0 429.0 4.531291120981121 1
gene  1 1 62 2.9934179234251777 0 470.0 2.9934179234251777 1
gene  1 62 9 -2.55757951766609 0 471.0 -2.55757951766609 1
gene  1 8 14 -1.4812843095188104 0 484.0 -1.4812843095188104 1
gene  1 1 13 1.1437108252070556 0 489.0 1.1437108252070556 1
gene  1 28 10 -2.7991881817212967 0 510.0 -2.7991881817212967 1
gene  1 2 41 4.4334144441172745 0 515.0 4.4334144441172745 1
gene  1 41 47 -1.8409690998546537 0 548.0 -1.8409690998546537 1
genomeend 9
genomestart  10
trait 1 0.0 0.0 0.18016573799761848 0.5314796224840325 3.8276263088736133 0.0 0.9983210840752836 0.4629835320970156 
node 1 1 1 1
node 2 1 1 1
node 3 1 1 1
node 4 1 1 1
node 5 1 1 1
node 6 1 1 1
node 7 1 1 3
node 8 1 0 0
node 13 1 0 2
node 14 1 0 2
node 22 1 0 0
node 25 1 0 0
node 29 1 0 0
node 57 1 0 0
node 65 1 0 0
node 76 1 0 0
gene  1 1 8 8.795494650457934 0 98.0 8.795494650457934 1
gene  1 3 8 -1.2730028498692267 0 100.0 -1.2730028498692267 1
gene  1 4 8 -4.633636558086277 0 101.0 -4.633636558086277 1
gene  1 5 8 -3.6705821505833436 0 102.0 -3.6705821505833436 1
gene  1 6 8 2.2862729582924564 0 103.0 2.2862729582924564 1
gene  1 8 8 -0.9671273030348906 1 105.0 -0.9671273030348906 1
gene  1 1 13 -0.8805933846255437 0 168.0 -0.8805933846255437 1
gene  1 5 13 -2.4776515779880333 0 172.0 -2.4776515779880333 1
gene  1 13 13 1.5413289635259897 1 180.0 1.5413289635259897 1
gene  1 14 13 -1.1269682445198512 1 181.0 -1.1269682445198512 1
gene  1 2 14 3.611435558003089 0 183.0 3.611435558003089 1
gene  1 3 14 3.02349434163159 0 184.0 3.02349434163159 1
gene  1 5 14 0.8390075591672321 0 186.0 0.8390075591672321 1
gene  1 7 14 -2.556326687538324 0 188.0 -2.556326687538324 1
gene  1 8 14 10.556643491461964 0 189.0 10.556643491461964 1
gene  1 13 14 1.5675439720159332 0 194.0 1.5675439720159332 1
gene  1 2 13 -6.312558366698612 0 236.0 -6.312558366698612 1
gene  1 8 22 2.011656223521226 0 240.0 2.011656223521226 0
gene  1 22 14 8.704012916625917 0 241.0 8.704012916625917 1
gene  1 1 22 -7.452730414979624 0 245.0 -7.452730414979624 1
gene  1 13 8 -3.043475011637107 0 257.0 -3.043475011637107 1
gene  1 5 22 -1.5017185511701727 0 265.0 -1.5017185511701727 1
gene  1 1 25 -0.8680038118716118 0 279.0 -0.8680038118716118 1
gene  1 25 8 -0.22109637867365217 0 280.0 -0.22109637867365217 1
gene  1 8 29 -0.7723479383007344 0 297.0 -0.7723479383007344 1
gene  1 29 14 -4.861535197459946 0 298.0 -4.861535197459946 1
gene  1 1 14 3.158001847022738 0 312.0 3.158001847022738 1
gene  1 2 29 2.905260269157773 0 330.0 2.905260269157773 1
gene  1 5 25 -1.068847631830197 0 343.0 -1.068847631830197 1
gene  1 6 29 1.0325861344998604 0 386.0 1.0325861344998604 1
gene  1 22 29 -3.7324584070821025 0 416.0 -3.7324584070821025 1
gene  1 4 14 1.9962496263314133 0 424.0 1.9962496263314133 1
gene  1 4 29 -0.9875423079390511 0 432.0 -0.9875423079390511 1
gene  1 8 57 4.540358846580755 0 437.0 4.540358846580755 1
gene  1 57 14 0.5591325349119378 0 438.0 0.5591325349119378 1
gene  1 3 22 -2.0250688335962006 0 440.0 -2.0250688335962006 1
gene  1 2 25 -2.2323730092393386 0 455.0 -2.2323730092393386 1
gene  1 1 65 2.2325638934872645 0 481.0 2.2325638934872645 1
gene  1 65 25 0.7630304743305462 0 482.0 0.7630304743305462 1
gene  1 8 76 1.9700939931679888 0 525.0 1.9700939931679888 1
gene  1 76 22 0.34821642580283196 0 526.0 0.34821642580283196 1
genomeend 10
genomestart  11
trait 1 1.9492969961009945 0.0 0.4289699328456915 1.1835456827051778 0.0 0.7294252873384013 0.042201429445747896 0.0 
node 1 1 1 1
node 2 1 1 1
node 3 1 1 1
node 4 1 1 1
node 5 1 1 1
node 6 1 1 1
node 7 1 1 3
node 13 1 0 2
node 14 1 0 2
node 49 1 0 0
node 73 1 0 0
node 81 1 0 0
gene  1 1 13 -1.8005717199491502 0 168.0 -1.8005717199491502 1
gene  1 2 13 3.197335974940332 0 169.0 3.197335974940332 1
gene  1 3 13 4.463946886678062 0 170.0 4.463946886678062 1
gene  1 4 13 4.063312477184857 0 171.0 4.063312477184857 1
gene  1 5 13 -1.3793770917365404 0 172.0 -1.3793770917365404 1
gene  1 6 13 0.3759242796694964 0 173.0 0.3759242796694964 1
gene  1 7 13 -1.1579239303297344 0 174.0 -1.1579239303297344 1
gene  1 14 13 -1.9803704733347582 1 181.0 -1.9803704733347582 1
gene  1 1 14 4.451757545582696 0 182.0 4.451757545582696 1
gene  1 2 14 3.408894606181129 0 183.0 3.408894606181129 1
gene  1 3 14 -4.562345423344112 0 184.0 -4.562345423344112 1
gene  1 13 14 0.3914330411537801 0 194.0 0.3914330411537801 1
gene  1 14 14 0.6757441720193147 1 195.0 0.6757441720193147 1
gene  1 7 14 1.3832890821011765 0 273.0 1.3832890821011765 1
gene  1 4 14 2.0188118993320296 0 283.0 2.0188118993320296 1
gene  1 5 14 6.741267005393917 0 303.0 6.741267005393917 1
gene  1 6 14 1.7070741314258178 0 307.0 1.7070741314258178 1
gene  1 3 49 0.41575950900763686 0 389.0 0.41575950900763686 1
gene  1 49 13 0.8542206397940533 0 390.0 0.8542206397940533 1
gene  1 5 49 2.251333262833631 0 403.0 2.251333262833631 1
gene  1 1 49 1.6676871869727767 0 430.0 1.6676871869727767 1
gene  1 7 49 7.964023914118822 0 456.0 7.964023914118822 1
gene  1 4 49 0.5699900255100763 0 495.0 0.5699900255100763 1
gene  1 6 73 -1.6136869623440488 0 508.0 -1.6136869623440488 1
gene  1 73 13 1.5183368146981722 0 509.0 1.5183368146981722 1
gene  1 6 81 1.7290367217796896 0 542.0 1.7290367217796896 1
gene  1 81 73 -1.9344769640540915 0 543.0 -1.9344769640540915 1
genomeend 11
genomestart  12
trait 1 1.9492969961009945 0.0 0.4289699328456915 1.1835456827051778 0.0 0.7294252873384013 0.042201429445747896 0.0 
node 1 1 1 1
node 2 1 1 1
node 3 1 1 1
node 4 1 1 1
node 5 1 1 1
node 6 1 1 1
node 7 1 1 3
node 13 1 0 2
node 14 1 0 2
node 49 1 0 0
node 73 1 0 0
node 81 1 0 0
gene  1 1 13 -1.6082585135896261 0 168.0 -1.6082585135896261 1
gene  1 2 13 4.147770791573894 0 169.0 4.147770791573894 1
gene  1 3 13 6.94132847689346 0 170.0 6.94132847689346 1
gene  1 4 13 1.653978897888435 0 171.0 1.653978897888435 1
gene  1 5 13 1.1345044020381527 0 172.0 1.1345044020381527 1
gene  1 6 13 0.21623969238647478 0 173.0 0.21623969238647478 1
gene  1 7 13 1.2316035462990862 0 174.0 1.2316035462990862 1
gene  1 14 13 0.6165762104614922 1 181.0 0.6165762104614922 1
gene  1 1 14 0.766295863747958 0 182.0 0.766295863747958 1
gene  1 2 14 3.0082276654751703 0 183.0 3.0082276654751703 1
gene  1 3 14 -1.1329369537671472 0 184.0 -1.1329369537671472 1
gene  1 13 14 4.855947819625346 0 194.0 4.855947819625346 1
gene  1 14 14 2.041096701839078 1 195.0 2.041096701839078 1
gene  1 7 14 -0.9195577967083035 0 273.0 -0.9195577967083035 1
gene  1 4 14 2.3399297134701547 0 283.0 2.3399297134701547 1
gene  1 5 14 3.862572862006516 0 303.0 3.862572862006516 1
gene  1 6 14 1.749223342781908 0 307.0 1.749223342781908 1
gene  1 3 49 0.895540704449726 0 389.0 0.895540704449726 1
gene  1 49 13 0.9321753983185177 0 390.0 0.9321753983185177 1
gene  1 5 49 0.10214971673173256 0 403.0 0.10214971673173256 1
gene  1 1 49 3.3982905683507116 0 430.0 3.3982905683507116 1
gene  1 7 49 9.641941539042064 0 456.0 9.641941539042064 1
gene  1 4 49 -0.4998773575025808 0 495.0 -0.4998773575025808 1
gene  1 6 73 -3.27306178476715 0 508.0 -3.27306178476715 1
gene  1 73 13 1.7729043799934407 0 509.0 1.7729043799934407 1
gene  1 6 81 -4.354949837846573 0 542.0 -4.354949837846573 1
gene  1 81 73 -3.5778095854699554 0 543.0 -3.5778095854699554 1
genomeend 12
genomestart  13
trait 1 1.9492969961009945 0.0 0.4289699328456915 1.1835456827051778 0.0 0.7294252873384013 0.042201429445747896 0.0 
node 1 1 1 1
node 2 1 1 1
node 3 1 1 1
node 4 1 1 1
node 5 1 1 1
node 6 1 1 1
node 7 1 1 3
node 13 1 0 2
node 14 1 0 2
node 49 1 0 0
node 73 1 0 0
node 81 1 0 0
gene  1 1 13 1.5188836324890844 0 168.0 1.5188836324890844 1
gene  1 2 13 3.5008757526684775 0 169.0 3.5008757526684775 1
gene  1 3 13 3.432734048069653 0 170.0 3.432734048069653 1
gene  1 4 13 -0.10749541349937752 0 171.0 -0.10749541349937752 1
gene  1 5 13 1.3606285992212186 0 172.0 1.3606285992212186 1
gene  1 6 13 -1.7496792924283417 0 173.0 -1.7496792924283417 1
gene  1 7 13 0.11839325593277827 0 174.0 0.11839325593277827 1
gene  1 14 13 2.1394420469182664 1 181.0 2.1394420469182664 1
gene  1 1 14 3.4683090655161277 0 182.0 3.4683090655161277 1
gene  1 2 14 3.941187804147567 0 183.0 3.941187804147567 1
gene  1 3 14 -2.193834794014913 0 184.0 -2.193834794014913 1
gene  1 13 14 2.8489858182280887 0 194.0 2.8489858182280887 1
gene  1 14 14 0.9834435796546583 1 195.0 0.9834435796546583 1
gene  1 7 14 2.4638787857422373 0 273.0 2.4638787857422373 1
gene  1 4 14 0.2717681440632975 0 283.0 0.2717681440632975 1
gene  1 5 14 6.31649029256881 0 303.0 6.31649029256881 1
gene  1 6 14 1.8753894177647426 0 307.0 1.8753894177647426 1
gene  1 3 49 1.5296589725932317 0 389.0 1.5296589725932317 1
gene  1 49 13 4.310767111408476 0 390.0 4.310767111408476 1
gene  1 5 49 2.548395288291492 0 403.0 2.548395288291492 1
gene  1 1 49 -0.6284652699659821 0 430.0 -0.6284652699659821 1
gene  1 7 49 9.208271723791617 0 456.0 9.208271723791617 1
gene  1 4 49 1.1350145305057795 0 495.0 1.1350145305057795 1
gene  1 6 73 -3.8082214564503203 0 508.0 -3.8082214564503203 1
gene  1 73 13 1.0495726514839352 0 509.0 1.0495726514839352 1
gene  1 6 81 -4.40672183739699 0 542.0 -4.40672183739699 1
gene  1 81 73 -3.045383383347245 0 543.0 -3.045383383347245 1
genomeend 13
genomestart  14
trait 1 0.0 0.5319433208524987 1.2381570377802138 1.1036226464327767 0.10522835245191364 0.39032959932087685 0.0 0.0 
node 1 1 1 1
node 2 1 1 1
node 3 1 1 1
node 4 1 1 1
node 5 1 1 1
node 6 1 1 1
node 7 1 1 3
node 8 1 0 0
node 9 1 0 0
node 13 1 0 2
node 14 1 0 2
node 20 1 0 0
node 56 1 0 0
node 60 1 0 0
node 79 1 0 0
gene  1 1 8 -2.218819061485025 0 98.0 -2.218819061485025 1
gene  1 2 8 2.803026543111731 0 99.0 2.803026543111731 1
gene  1 3 8 0.6305072587324871 0 100.0 0.6305072587324871 1
gene  1 6 8 -5.715579357093658 0 103.0 -5.715579357093658 1
gene  1 8 8 -1.883790619548783 1 105.0 -1.883790619548783 1
gene  1 9 8 -2.9930248842183067 1 106.0 -2.9930248842183067 1
gene  1 13 8 -9.523385228233257 1 110.0 -9.523385228233257 1
gene  1 14 8 -5.525807334612376 1 111.0 -5.525807334612376 1
gene  1 1 9 -0.026003335778944425 0 112.0 -0.026003335778944425 1
gene  1 4 9 4.035804647722915 0 115.0 4.035804647722915 1
gene  1 5 9 2.904359994263126 0 116.0 2.904359994263126 1
gene  1 7 9 -6.842507103319764 0 118.0 -6.842507103319764 1
gene  1 9 9 1.407318204860569 1 120.0 1.407318204860569 1
gene  1 14 9 -0.09750941517348533 1 125.0 -0.09750941517348533 1
gene  1 2 13 -1.1064138769420344 0 169.0 -1.1064138769420344 1
gene  1 5 13 0.3337289043062992 0 172.0 0.3337289043062992 1
gene  1 8 13 -1.461046792992796 0 175.0 -1.461046792992796 1
gene  1 1 14 -1.6742825406976392 0 182.0 -1.6742825406976392 1
gene  1 2 14 5.183164349615277 0 183.0 5.183164349615277 1
gene  1 3 14 -0.9743264125434429 0 184.0 -0.9743264125434429 1
gene  1 6 14 -2.489425133652979 0 187.0 -2.489425133652979 1
gene  1 13 14 4.522977906706185 0 194.0 4.522977906706185 1
gene  1 14 14 6.01790587795972 1 195.0 6.01790587795972 1
gene  1 5 8 0.060158138867206556 0 202.0 0.060158138867206556 1
gene  1 4 13 -5.563120063470974 0 220.0 -5.563120063470974 1
gene  1 1 20 -0.9189498506678813 0 231.0 -0.9189498506678813 1
gene  1 20 14 7.193338579892067 0 232.0 7.193338579892067 1
gene  1 1 13 -4.256436846921131 0 329.0 -4.256436846921131 1
gene  1 13 20 -2.0811848893586142 0 337.0 -2.0811848893586142 0
gene  1 4 20 0.32930307828986355 0 339.0 0.32930307828986355 1
gene  1 9 8 -3.181032024717484 0 404.0 -3.181032024717484 1
gene  1 8 14 2.597112254991773 0 410.0 2.597112254991773 1
gene  1 5 56 3.7091299475595885 0 434.0 3.7091299475595885 1
gene  1 56 8 -0.7669452409259299 0 435.0 -0.7669452409259299 1
gene  1 2 9 0.1669049921034091 0 448.0 0.1669049921034091 1
gene  1 3 60 1.8017685160836483 0 458.0 1.8017685160836483 1
gene  1 60 8 -0.2671801842709842 0 459.0 -0.2671801842709842 1
gene  1 1 60 1.002188084092073 0 479.0 1.002188084092073 1
gene  1 7 56 3.468447738139734 0 520.0 3.468447738139734 1
gene  1 13 79 1.899900392301757 0 537.0 1.899900392301757 1
gene  1 79 20 -2.274718385975124 0 538.0 -2.274718385975124 1
gene  1 3 79 0.9642409214438596 0 556.0 0.9642409214438596 1
genomeend 14
genomestart  15
trait 1 0.0 0.5319433208524987 1.2381570377802138 1.1036226464327767 0.10522835245191364 0.39032959932087685 0.0 0.0 
node 1 1 1 1
node 2 1 1 1
node 3 1 1 1
node 4 1 1 1
node 5 1 1 1
node 6 1 1 1
node 7 1 1 3
node 8 1 0 0
node 9 1 0 0
node 13 1 0 2
node 14 1 0 2
node 20 1 0 0
node 56 1 0 0
node 60 1 0 0
node 79 1 0 0
gene  1 1 8 -3.70649193714256 0 98.0 -3.70649193714256 1
gene  1 2 8 3.7928299199325037 0 99.0 3.7928299199325037 1
gene  1 3 8 -0.2985232197036656 0 100.0 -0.2985232197036656 1
gene  1 6 8 -3.221820369497859 0 103.0 -3.221820369497859 1
gene  1 8 8 0.2830795729804916 1 105.0 0.2830795729804916 1
gene  1 9 8 -4.9248036054641675 1 106.0 -4.9248036054641675 1
gene  1 13 8 -8.022618226183786 1 110.0 -8.022618226183786 1
gene  1 14 8 -7.922363464863032 1 111.0 -7.922363464863032 1
gene  1 1 9 -1.0159804843037057 0 112.0 -1.0159804843037057 1
gene  1 4 9 5.31187883966186 0 115.0 5.31187883966186 1
gene  1 5 9 5.111334415838643 0 116.0 5.111334415838643 1
gene  1 7 9 -7.053824568023922 0 118.0 -7.053824568023922 1
gene  1 9 9 2.6857648636935267 1 120.0 2.6857648636935267 1
gene  1 14 9 1.5967485218646456 1 125.0 1.5967485218646456 1
gene  1 2 13 -3.385184524239558 0 169.0 -3.385184524239558 1
gene  1 5 13 0.4389261024193634 0 172.0 0.4389261024193634 1
gene  1 8 13 0.552334147339351 0 175.0 0.552334147339351 1
gene  1 1 14 -2.3867739855841217 0 182.0 -2.3867739855841217 1
gene  1 2 14 7.627782763727106 0 183.0 7.627782763727106 1
gene  1 3 14 -0.9603596025156278 0 184.0 -0.9603596025156278 1
gene  1 6 14 -1.4021147170305697 0 187.0 -1.4021147170305697 1
gene  1 13 14 5.992575695034073 0 194.0 5.992575695034073 1
gene  1 14 14 5.452766663429803 1 195.0 5.452766663429803 1
gene  1 5 8 2.1306718801041273 0 202.0 2.1306718801041273 1
gene  1 4 13 -5.887635725217604 0 220.0 -5.887635725217604 1
gene  1 1 20 1.5438445867836934 0 231.0 1.5438445867836934 1
gene  1 20 14 8.183412563586572 0 232.0 8.183412563586572 1
gene  1 1 13 -4.490055673235505 0 329.0 -4.490055673235505 1
gene  1 13 20 0.0963315404282028 0 337.0 0.0963315404282028 1
gene  1 4 20 -1.7290734573577684 0 339.0 -1.7290734573577684 1
gene  1 9 8 -4.767876048420769 0 404.0 -4.767876048420769 1
gene  1 8 14 4.6124223843537315 0 410.0 4.6124223843537315 1
gene  1 5 56 3.7351913819813354 0 434.0 3.7351913819813354 1
gene  1 56 8 -0.7669452409259299 0 435.0 -0.7669452409259299 1
gene  1 2 9 0.19077064653320625 0 448.0 0.19077064653320625 1
gene  1 3 60 -0.08107086885378223 0 458.0 -0.08107086885378223 1
gene  1 60 8 0.29319203318968623 0 459.0 0.29319203318968623 1
gene  1 1 60 1.7595801755632632 0 479.0 1.7595801755632632 1
gene  1 7 56 5.239596953805575 0 520.0 5.239596953805575 1
gene  1 13 79 1.899900392301757 0 537.0 1.899900392301757 1
gene  1 79 20 -2.274718385975124 0 538.0 -2.274718385975124 1
genomeend 15
genomestart  16
trait 1 0.0 0.5319433208524987 1.2381570377802138 1.1036226464327767 0.10522835245191364 0.39032959932087685 0.0 0.0 
node 1 1 1 1
node 2 1 1 1
node 3 1 1 1
node 4 1 1 1
node 5 1 1 1
node 6 1 1 1
node 7 1 1 3
node 8 1 0 0
node 9 1 0 0
node 13 1 0 2
node 14 1 0 2
node 20 1 0 0
node 56 1 0 0
node 60 1 0 0
node 79 1 0 0
gene  1 1 8 -1.7262295594037314 0 98.0 -1.7262295594037314 1
gene  1 2 8 3.632265171672551 0 99.0 3.632265171672551 1
gene  1 3 8 1.4381829500915682 0 100.0 1.4381829500915682 1
gene  1 6 8 -5.715579357093658 0 103.0 -5.715579357093658 1
gene  1 8 8 -4.06855605945262 1 105.0 -4.06855605945262 1
gene  1 9 8 -5.369059319586224 1 106.0 -5.369059319586224 1
gene  1 13 8 -8.36512689331359 1 110.0 -8.36512689331359 1
gene  1 14 8 -6.661633939278778 1 111.0 -6.661633939278778 1
gene  1 1 9 2.3865802422671356 0 112.0 2.3865802422671356 1
gene  1 4 9 2.8458006867996373 0 115.0 2.8458006867996373 1
gene  1 5 9 0.6697845069288575 0 116.0 0.6697845069288575 1
gene  1 7 9 -5.827025945611906 0 118.0 -5.827025945611906 1
gene  1 9 9 1.6826684800338267 1 120.0 1.6826684800338267 1
gene  1 14 9 -2.3125714967239936 1 125.0 -2.3125714967239936 1
gene  1 2 13 -1.2524455192365185 0 169.0 -1.2524455192365185 1
gene  1 5 13 2.6151498564427955 0 172.0 2.6151498564427955 1
gene  1 8 13 -1.2966512453784296 0 175.0 -1.2966512453784296 1
gene  1 1 14 -1.6742825406976392 0 182.0 -1.6742825406976392 1
gene  1 2 14 2.716724212537224 0 183.0 2.716724212537224 1
gene  1 3 14 -0.9061028439388197 0 184.0 -0.9061028439388197 1
gene  1 6 14 -2.489425133652979 0 187.0 -2.489425133652979 1
gene  1 13 14 5.129013950376266 0 194.0 5.129013950376266 1
gene  1 14 14 7.290775164214625 1 195.0 7.290775164214625 1
gene  1 5 8 -1.3918474624659933 0 202.0 -1.3918474624659933 1
gene  1 4 13 -7.310018484738852 0 220.0 -7.310018484738852 1
gene  1 1 20 1.2372847270275016 0 231.0 1.2372847270275016 1
gene  1 20 14 5.835464095830447 0 232.0 5.835464095830447 1
gene  1 1 13 0.6391131059598429 0 329.0 0.6391131059598429 1
gene  1 13 20 -2.0811848893586142 0 337.0 -2.0811848893586142 1
gene  1 4 20 0.09779978415066515 0 339.0 0.09779978415066515 1
gene  1 9 8 -1.4707521519662141 0 404.0 -1.4707521519662141 1
gene  1 8 14 1.0004959620942993 0 410.0 1.0004959620942993 1
gene  1 5 56 3.7091299475595885 0 434.0 3.7091299475595885 1
gene  1 56 8 -0.7669452409259299 0 435.0 -0.7669452409259299 1
gene  1 2 9 0.7520908181140409 0 448.0 0.7520908181140409 1
gene  1 3 60 0.37526029312258374 0 458.0 0.37526029312258374 1
gene  1 60 8 1.1676493276122832 0 459.0 1.1676493276122832 1
gene  1 1 60 2.6699826850796633 0 479.0 2.6699826850796633 1
gene  1 7 56 4.789197560062492 0 520.0 4.789197560062492 1
gene  1 13 79 -0.10401215606420733 0 537.0 -0.10401215606420733 1
gene  1 79 20 -3.9168360563183144 0 538.0 -3.9168360563183144 1
genomeend 16
genomestart  17
trait 1 0.0 0.5319433208524987 1.2381570377802138 1.1036226464327767 0.10522835245191364 0.39032959932087685 0.0 0.0 
node 1 1 1 1
node 2 1 1 1
node 3 1 1 1
node 4 1 1 1
node 5 1 1 1
node 6 1 1 1
node 7 1 1 3
node 8 1 0 0
node 9 1 0 0
node 13 1 0 2
node 14 1 0 2
node 20 1 0 0
node 56 1 0 0
node 60 1 0 0
node 79 1 0 0
gene  1 1 8 -2.218819061485025 0 98.0 -2.218819061485025 1
gene  1 2 8 2.803026543111731 0 99.0 2.803026543111731 1
gene  1 3 8 0.6305072587324871 0 100.0 0.6305072587324871 1
gene  1 6 8 -5.715579357093658 0 103.0 -5.715579357093658 1
gene  1 8 8 -1.883790619548783 1 105.0 -1.883790619548783 1
gene  1 9 8 -2.9930248842183067 1 106.0 -2.9930248842183067 1
gene  1 13 8 -9.523385228233257 1 110.0 -9.523385228233257 1
gene  1 14 8 -5.525807334612376 1 111.0 -5.525807334612376 1
gene  1 1 9 -0.026003335778944425 0 112.0 -0.026003335778944425 1
gene  1 4 9 4.035804647722915 0 115.0 4.035804647722915 1
gene  1 5 9 2.904359994263126 0 116.0 2.904359994263126 1
gene  1 7 9 -6.842507103319764 0 118.0 -6.842507103319764 1
gene  1 9 9 1.407318204860569 1 120.0 1.407318204860569 1
gene  1 14 9 -0.09750941517348533 1 125.0 -0.09750941517348533 1
gene  1 2 13 -1.1064138769420344 0 169.0 -1.1064138769420344 1
gene  1 5 13 0.3337289043062992 0 172.0 0.3337289043062992 1
gene  1 8 13 -1.461046792992796 0 175.0 -1.461046792992796 1
gene  1 1 14 -1.6742825406976392 0 182.0 -1.6742825406976392 1
gene  1 2 14 5.183164349615277 0 183.0 5.183164349615277 1
gene  1 3 14 -0.9743264125434429 0 184.0 -0.9743264125434429 1
gene  1 6 14 -2.489425133652979 0 187.0 -2.489425133652979 1
gene  1 13 14 4.522977906706185 0 194.0 4.522977906706185 1
gene  1 14 14 6.01790587795972 1 195.0 6.01790587795972 1
gene  1 5 8 0.060158138867206556 0 202.0 0.060158138867206556 1
gene  1 4 13 -5.563120063470974 0 220.0 -5.563120063470974 1
gene  1 1 20 -0.9189498506678813 0 231.0 -0.9189498506678813 1
gene  1 20 14 7.193338579892067 0 232.0 7.193338579892067 1
gene  1 1 13 -4.256436846921131 0 329.0 -4.256436846921131 1
gene  1 13 20 -2.0811848893586142 0 337.0 -2.0811848893586142 1
gene  1 4 20 0.32930307828986355 0 339.0 0.32930307828986355 1
gene  1 9 8 -3.181032024717484 0 404.0 -3.181032024717484 1
gene  1 8 14 2.597112254991773 0 410.0 2.597112254991773 1
gene  1 5 56 3.7091299475595885 0 434.0 3.7091299475595885 1
gene  1 56 8 -0.7669452409259299 0 435.0 -0.7669452409259299 1
gene  1 2 9 0.1669049921034091 0 448.0 0.1669049921034091 1
gene  1 3 60 1.8017685160836483 0 458.0 1.8017685160836483 1
gene  1 60 8 -0.2671801842709842 0 459.0 -0.2671801842709842 1
gene  1 1 60 1.002188084092073 0 479.0 1.002188084092073 1
gene  1 7 56 3.468447738139734 0 520.0 3.468447738139734 1
gene  1 13 79 1.899900392301757 0 537.0 1.899900392301757 1
gene  1 79 20 -2.274718385975124 0 538.0 -2.274718385975124 1
gene  1 56 13 6.523683275433218 0 557.0 6.523683275433218 1
genomeend 17
genomestart  18
trait 1 0.0 0.13288052470053657 2.0400788442298796 0.0 0.9774676473893938 0.5916859962196944 0.0 0.0 
node 1 1 1 1
node 2 1 1 1
node 3 1 1 1
node 4 1 1 1
node 5 1 1 1
node 6 1 1 1
node 7 1 1 3
node 13 1 0 2
node 14 1 0 2
node 45 1 0 0
node 71 1 0 0
gene  1 1 13 5.031591307782005 0 168.0 5.031591307782005 1
gene  1 2 13 -0.20742386383914652 0 169.0 -0.20742386383914652 1
gene  1 5 13 -7.41117974866553 0 172.0 -7.41117974866553 1
gene  1 6 13 -3.2318869151654495 0 173.0 -3.2318869151654495 1
gene  1 7 13 1.975654153856023 0 174.0 1.975654153856023 1
gene  1 3 14 1.4844726433517 0 184.0 1.4844726433517 1
gene  1 4 14 9.007242989537128 0 185.0 9.007242989537128 1
gene  1 7 14 -0.9205466220090481 0 188.0 -0.9205466220090481 1
gene  1 13 14 -0.6565407138820443 0 194.0 -0.6565407138820443 1
gene  1 14 14 1.0036280794123908 1 195.0 1.0036280794123908 1
gene  1 4 13 1.8291797921063802 0 235.0 1.8291797921063802 1
gene  1 1 14 -0.22825570031916403 0 242.0 -0.22825570031916403 1
gene  1 5 14 3.0057738684595754 0 319.0 3.0057738684595754 1
gene  1 1 45 -4.170388274552305 0 370.0 -4.170388274552305 1
gene  1 45 13 0.29827081169489317 0 371.0 0.29827081169489317 1
gene  1 4 45 2.0273595658907864 0 497.0 2.0273595658907864 1
gene  1 6 71 0.7153944373700651 0 502.0 0.7153944373700651 1
gene  1 71 13 -0.5026535287326419 0 503.0 -0.5026535287326419 1
gene  1 45 71 0.06545449793550318 0 534.0 0.06545449793550318 1
gene  1 3 13 -1.8259269757787249 0 535.0 -1.8259269757787249 1
genomeend 18
genomestart  19
trait 1 0.0 0.9380171225566565 2.8572292317689647 0.0 0.9774676473893938 0.5916859962196944 0.0 0.0 
node 1 1 1 1
node 2 1 1 1
node 3 1 1 1
node 4 1 1 1
node 5 1 1 1
node 6 1 1 1
node 7 1 1 3
node 13 1 0 2
node 14 1 0 2
node 45 1 0 0
node 71 1 0 0
gene  1 1 13 0.8625827231859811 0 168.0 0.8625827231859811 1
gene  1 2 13 0.017502138658935684 0 169.0 0.017502138658935684 1
gene  1 5 13 -6.836053237266849 0 172.0 -6.836053237266849 1
gene  1 6 13 -3.3353054769991304 0 173.0 -3.3353054769991304 1
gene  1 7 13 3.138133764303861 0 174.0 3.138133764303861 1
gene  1 3 14 -2.971485705693695 0 184.0 -2.971485705693695 1
gene  1 4 14 5.369219580527044 0 185.0 5.369219580527044 1
gene  1 7 14 -3.0667388489971152 0 188.0 -3.0667388489971152 1
gene  1 13 14 3.9419460908243824 0 194.0 3.9419460908243824 1
gene  1 14 14 2.5915606570014105 1 195.0 2.5915606570014105 1
gene  1 4 13 2.2008708721823798 0 235.0 2.2008708721823798 1
gene  1 1 14 -0.7544908711123646 0 242.0 -0.7544908711123646 1
gene  1 5 14 2.2749643820082097 0 319.0 2.2749643820082097 1
gene  1 1 45 -0.7864804842533843 0 370.0 -0.7864804842533843 1
gene  1 45 13 0.6929958102254532 0 371.0 0.6929958102254532 1
gene  1 4 45 -1.091459825613199 0 497.0 -1.091459825613199 1
gene  1 6 71 0.2418323382582443 0 502.0 0.2418323382582443 1
gene  1 71 13 -0.8049749635739595 0 503.0 -0.8049749635739595 1
gene  1 45 71 0.06545449793550318 0 534.0 0.06545449793550318 1
gene  1 3 13 1.6386366908048813 0 535.0 1.6386366908048813 1
genomeend 19
