genomestart  0
trait 1 1.7151251452115233 1.1629682757719437 0.0 0.0 0.34861870450370325 0.18084195503611378 0.0 0.9093525967191587 
node 1 1 1 1
node 2 1 1 1
node 3 1 1 1
node 4 1 1 1
node 5 1 1 1
node 6 1 1 1
node 7 1 1 3
node 13 1 0 2
node 14 1 0 2
gene  1 1 13 1.3884758216286537 0 168.0 1.3884758216286537 1
gene  1 3 13 1.507152614860472 0 170.0 1.507152614860472 1
gene  1 5 13 2.870968879535723 0 172.0 2.870968879535723 1
gene  1 6 13 0.6288720708009103 0 173.0 0.6288720708009103 1
gene  1 14 13 -0.29557260157434273 1 181.0 -0.29557260157434273 1
gene  1 1 14 -1.7988087348022805 0 182.0 -1.7988087348022805 1
gene  1 2 14 -3.590711116689893 0 183.0 -3.590711116689893 1
gene  1 4 14 6.162812899075515 0 185.0 6.162812899075515 1
gene  1 5 14 1.647394441708599 0 186.0 1.647394441708599 1
gene  1 6 14 -9.561087989137786 0 187.0 -9.561087989137786 1
gene  1 7 14 1.8024299200683354 0 188.0 1.8024299200683354 1
gene  1 13 14 4.924045561003086 0 194.0 4.924045561003086 1
gene  1 14 14 -4.973543342582324 1 195.0 -4.973543342582324 1
gene  1 2 13 -4.265344755341627 0 261.0 -4.265344755341627 1
genomeend 0
genomestart  1
trait 1 1.7151251452115233 1.1629682757719437 0.0 0.0 0.34861870450370325 0.18084195503611378 0.0 0.9093525967191587 
node 1 1 1 1
node 2 1 1 1
node 3 1 1 1
node 4 1 1 1
node 5 1 1 1
node 6 1 1 1
node 7 1 1 3
node 13 1 0 2
node 14 1 0 2
gene  1 1 13 -1.2915335703179291 0 168.0 -1.2915335703179291 1
gene  1 3 13 0.32005365308229977 0 170.0 0.32005365308229977 1
gene  1 5 13 2.3001090917776037 0 172.0 2.3001090917776037 1
gene  1 6 13 3.41530243201129 0 173.0 3.41530243201129 1
gene  1 14 13 1.7547016326090694 1 181.0 1.7547016326090694 1
gene  1 1 14 0.9340314407812238 0 182.0 0.9340314407812238 1
gene  1 2 14 -8.524252764984247 0 183.0 -8.524252764984247 1
gene  1 4 14 6.751773238629848 0 185.0 6.751773238629848 1
gene  1 5 14 1.7299157725022025 0 186.0 1.7299157725022025 1
gene  1 6 14 -6.048571328657293 0 187.0 -6.048571328657293 1
gene  1 7 14 5.20329516095942 0 188.0 5.20329516095942 1
gene  1 13 14 0.4170171570059402 0 194.0 0.4170171570059402 1
gene  1 14 14 -4.973543342582324 1 195.0 -4.973543342582324 1
gene  1 2 13 -3.3066575640740874 0 261.0 -3.3066575640740874 1
genomeend 1
genomestart  2
trait 1 0.4195349490326866 0.11996509262718169 0.11196815064335597 0.0 0.0 0.6942297431411419 1.1113032223074408 1.129602463927845 
node 1 1 1 1
node 2 1 1 1
node 3 1 1 1
node 4 1 1 1
node 5 1 1 1
node 6 1 1 1
node 7 1 1 3
node 13 1 0 2
node 14 1 0 2
gene  1 2 13 2.5872946606399347 0 169.0 2.5872946606399347 1
gene  1 3 13 -14.526943177303368 0 170.0 -14.526943177303368 1
gene  1 4 13 -0.7528515066493875 0 171.0 -0.7528515066493875 1
gene  1 6 13 2.9004326817672648 0 173.0 2.9004326817672648 1
gene  1 7 13 -4.662878331563146 0 174.0 -4.662878331563146 1
gene  1 13 13 3.8383665468508603 1 180.0 3.8383665468508603 1
gene  1 1 14 -3.8456231793123603 0 182.0 -3.8456231793123603 1
gene  1 2 14 10.17725944360145 0 183.0 10.17725944360145 1
gene  1 5 14 -0.10150197151848106 0 186.0 -0.10150197151848106 1
gene  1 6 14 3.6780427370697315 0 187.0 3.6780427370697315 1
gene  1 7 14 2.390033857333643 0 188.0 2.390033857333643 1
gene  1 13 14 -4.999685988044003 0 194.0 -4.999685988044003 1
gene  1 14 14 7.54921389890761 1 195.0 7.54921389890761 1
gene  1 4 14 1.5782507464120503 0 196.0 1.5782507464120503 1
gene  1 1 13 1.6471098084838067 0 216.0 1.6471098084838067 1
genomeend 2
genomestart  3
trait 1 0.4195349490326866 0.11996509262718169 0.11196815064335597 0.0 0.0 0.6942297431411419 1.1113032223074408 1.129602463927845 
node 1 1 1 1
node 2 1 1 1
node 3 1 1 1
node 4 1 1 1
node 5 1 1 1
node 6 1 1 1
node 7 1 1 3
node 13 1 0 2
node 14 1 0 2
gene  1 2 13 3.790788321884924 0 169.0 3.790788321884924 1
gene  1 3 13 -15.360361771121344 0 170.0 -15.360361771121344 1
gene  1 4 13 -4.840566230223087 0 171.0 -4.840566230223087 1
gene  1 6 13 2.450207793984988 0 173.0 2.450207793984988 1
gene  1 7 13 -4.133116910280167 0 174.0 -4.133116910280167 1
gene  1 13 13 4.127646494882654 1 180.0 4.127646494882654 1
gene  1 1 14 -5.568898546839709 0 182.0 -5.568898546839709 1
gene  1 2 14 5.763507370392984 0 183.0 5.763507370392984 1
gene  1 5 14 -3.5582749573321557 0 186.0 -3.5582749573321557 1
gene  1 6 14 4.5624343464032755 0 187.0 4.5624343464032755 1
gene  1 7 14 1.772605640355036 0 188.0 1.772605640355036 1
gene  1 13 14 -4.871847854290595 0 194.0 -4.871847854290595 1
gene  1 14 14 8.80057779280012 1 195.0 8.80057779280012 1
gene  1 4 14 2.8587475441851056 0 196.0 2.8587475441851056 1
gene  1 1 13 1.7895650298246972 0 216.0 1.7895650298246972 1
genomeend 3
genomestart  4
trait 1 0.12933280474767544 0.29425544536966464 0.08853489118479813 0.07766507438443143 0.0 0.41262400137975846 0.0 0.0 
node 1 1 1 1
node 2 1 1 1
node 3 1 1 1
node 4 1 1 1
node 5 1 1 1
node 6 1 1 1
node 7 1 1 3
node 13 1 0 2
node 14 1 0 2
node 21 1 0 0
node 24 1 0 0
gene  1 1 13 4.434833895205674 0 168.0 4.434833895205674 0
gene  1 4 13 3.9720673258156936 0 171.0 3.9720673258156936 1
gene  1 5 13 2.7472062710316867 0 172.0 2.7472062710316867 1
gene  1 7 13 -4.03647813902005 0 174.0 -4.03647813902005 1
gene  1 13 13 -4.105381628514071 1 180.0 -4.105381628514071 1
gene  1 2 14 2.5589714483158494 0 183.0 2.5589714483158494 1
gene  1 3 14 -8.563799796430317 0 184.0 -8.563799796430317 1
gene  1 6 14 -1.1171968720872916 0 187.0 -1.1171968720872916 1
gene  1 13 14 -3.2067829681286617 0 194.0 -3.2067829681286617 1
gene  1 14 14 10.940120297316401 1 195.0 10.940120297316401 1
gene  1 6 13 0.4620867028375395 0 205.0 0.4620867028375395 1
gene  1 5 14 -4.689921533330878 0 223.0 -4.689921533330878 1
gene  1 3 13 0.9986572303100953 0 229.0 0.9986572303100953 1
gene  1 2 13 5.1121355754654045 0 233.0 5.1121355754654045 1
gene  1 1 21 4.723130166534046 0 238.0 4.723130166534046 1
gene  1 21 13 -7.694742411673868 0 239.0 -7.694742411673868 1
gene  1 5 21 1.1706016932817878 0 253.0 1.1706016932817878 1
gene  1 3 21 -1.980185794578757 0 270.0 -1.980185794578757 1
gene  1 1 24 -0.11417936722495159 0 275.0 -0.11417936722495159 1
gene  1 24 13 3.517050715878075 0 276.0 3.517050715878075 1
genomeend 4
genomestart  5
trait 1 0.12933280474767544 0.29425544536966464 0.08853489118479813 0.07766507438443143 0.0 0.41262400137975846 0.0 0.0 
node 1 1 1 1
node 2 1 1 1
node 3 1 1 1
node 4 1 1 1
node 5 1 1 1
node 6 1 1 1
node 7 1 1 3
node 13 1 0 2
node 14 1 0 2
node 21 1 0 0
node 24 1 0 0
gene  1 1 13 4.472452881790849 0 168.0 4.472452881790849 0
gene  1 4 13 3.249435517773307 0 171.0 3.249435517773307 1
gene  1 5 13 -2.062299848412812 0 172.0 -2.062299848412812 1
gene  1 7 13 -4.657243099575249 0 174.0 -4.657243099575249 1
gene  1 13 13 -3.9872815884670714 1 180.0 -3.9872815884670714 1
gene  1 2 14 3.4708684001382824 0 183.0 3.4708684001382824 1
gene  1 3 14 -6.2331813623776435 0 184.0 -6.2331813623776435 1
gene  1 6 14 1.8060285631551662 0 187.0 1.8060285631551662 1
gene  1 13 14 -2.9576836561765556 0 194.0 -2.9576836561765556 1
gene  1 14 14 12.275808656440093 1 195.0 12.275808656440093 1
gene  1 6 13 0.27288543626200007 0 205.0 0.27288543626200007 1
gene  1 5 14 -4.13806268224168 0 223.0 -4.13806268224168 1
gene  1 3 13 1.3359360170213523 0 229.0 1.3359360170213523 1
gene  1 2 13 1.063175124681476 0 233.0 1.063175124681476 1
gene  1 1 21 4.716670063695179 0 238.0 4.716670063695179 1
gene  1 21 13 -7.689138742752305 0 239.0 -7.689138742752305 1
gene  1 5 21 2.862475275662873 0 253.0 2.862475275662873 1
gene  1 3 21 -3.8575718082012553 0 270.0 -3.8575718082012553 1
gene  1 1 24 2.4326403300426955 0 275.0 2.4326403300426955 1
gene  1 24 13 3.517050715878075 0 276.0 3.517050715878075 1
genomeend 5
genomestart  6
trait 1 1.3984647206950989 1.1820041572981141 0.9127389028296539 1.2383225027221012 0.8876970332296057 0.0 0.9248899419731411 0.0 
node 1 1 1 1
node 2 1 1 1
node 3 1 1 1
node 4 1 1 1
node 5 1 1 1
node 6 1 1 1
node 7 1 1 3
node 8 1 0 0
node 13 1 0 2
node 14 1 0 2
gene  1 1 8 -1.5869053229054582 0 98.0 -1.5869053229054582 1
gene  1 2 8 -1.3017152251645432 0 99.0 -1.3017152251645432 1
gene  1 3 8 -3.1766333206188655 0 100.0 -3.1766333206188655 1
gene  1 4 8 5.939916040180895 0 101.0 5.939916040180895 1
gene  1 5 8 -5.757211853077268 0 102.0 -5.757211853077268 1
gene  1 6 8 0.4130111555853584 0 103.0 0.4130111555853584 1
gene  1 8 8 4.951438692163451 1 105.0 4.951438692163451 1
gene  1 13 8 0.5523273223848701 1 110.0 0.5523273223848701 1
gene  1 14 8 2.8039616247779553 1 111.0 2.8039616247779553 1
gene  1 3 13 4.413103713089868 0 170.0 4.413103713089868 1
gene  1 5 13 -0.3284318645758566 0 172.0 -0.3284318645758566 1
gene  1 7 13 0.18691918166749472 0 174.0 0.18691918166749472 1
gene  1 13 13 0.10088360093064863 1 180.0 0.10088360093064863 1
gene  1 2 14 2.237516030540285 0 183.0 2.237516030540285 1
gene  1 4 14 -4.170739849719522 0 185.0 -4.170739849719522 1
gene  1 6 14 -0.4960330617671613 0 187.0 -0.4960330617671613 1
gene  1 8 14 1.5954658520760305 0 189.0 1.5954658520760305 1
gene  1 13 14 4.030642286932372 0 194.0 4.030642286932372 1
gene  1 2 13 -1.6638877319764767 0 213.0 -1.6638877319764767 1
gene  1 4 13 9.25602118124835 0 230.0 9.25602118124835 1
gene  1 13 8 7.103484471514159 0 244.0 7.103484471514159 1
gene  1 7 14 -2.0223537062262373 0 264.0 -2.0223537062262373 1
genomeend 6
genomestart  7
trait 1 1.3984647206950989 1.1820041572981141 0.9127389028296539 1.2383225027221012 0.8876970332296057 0.0 0.9248899419731411 0.0 
node 1 1 1 1
node 2 1 1 1
node 3 1 1 1
node 4 1 1 1
node 5 1 1 1
node 6 1 1 1
node 7 1 1 3
node 8 1 0 0
node 13 1 0 2
node 14 1 0 2
gene  1 1 8 1.893069061311514 0 98.0 1.893069061311514 1
gene  1 2 8 -0.6981367053747156 0 99.0 -0.6981367053747156 1
gene  1 3 8 -6.649388531545522 0 100.0 -6.649388531545522 1
gene  1 4 8 5.198330600433559 0 101.0 5.198330600433559 1
gene  1 5 8 -7.453890593732103 0 102.0 -7.453890593732103 1
gene  1 6 8 -0.2606871760734557 0 103.0 -0.2606871760734557 1
gene  1 8 8 2.810879329159882 1 105.0 2.810879329159882 1
gene  1 13 8 -1.1404784157011436 1 110.0 -1.1404784157011436 1
gene  1 14 8 4.964116341297532 1 111.0 4.964116341297532 1
gene  1 3 13 3.787902823579775 0 170.0 3.787902823579775 1
gene  1 5 13 -2.508690417691278 0 172.0 -2.508690417691278 1
gene  1 7 13 1.8304554054013469 0 174.0 1.8304554054013469 1
gene  1 13 13 1.4612238451733917 1 180.0 1.4612238451733917 1
gene  1 2 14 0.0055909270178544634 0 183.0 0.0055909270178544634 1
gene  1 4 14 -3.291816632637998 0 185.0 -3.291816632637998 1
gene  1 6 14 0.4735209890010499 0 187.0 0.4735209890010499 1
gene  1 8 14 -1.6308383604273105 0 189.0 -1.6308383604273105 1
gene  1 13 14 3.6628138628004616 0 194.0 3.6628138628004616 1
gene  1 2 13 -3.6970958554140583 0 213.0 -3.6970958554140583 1
gene  1 4 13 7.1467450954645395 0 230.0 7.1467450954645395 1
gene  1 13 8 5.57244455872143 0 244.0 5.57244455872143 1
gene  1 7 14 -0.14709162698035905 0 264.0 -0.14709162698035905 1
genomeend 7
genomestart  8
trait 1 1.3449282699683267 0.0 0.6715679179718652 0.876858839596525 1.5174143118965362 0.3493210991972051 0.4130893652942357 0.0 
node 1 1 1 1
node 2 1 1 1
node 3 1 1 1
node 4 1 1 1
node 5 1 1 1
node 6 1 1 1
node 7 1 1 3
node 8 1 0 0
node 9 1 0 0
node 10 1 0 0
node 13 1 0 2
node 14 1 0 2
node 28 1 0 0
gene  1 1 8 -1.5094408008938183 0 98.0 -1.5094408008938183 1
gene  1 3 8 -0.42793390730158687 0 100.0 -0.42793390730158687 1
gene  1 5 8 6.44747551691272 0 102.0 6.44747551691272 1
gene  1 6 8 5.248915662251955 0 103.0 5.248915662251955 1
gene  1 8 8 4.791112001779467 1 105.0 4.791112001779467 0
gene  1 1 9 4.493817280073285 0 112.0 4.493817280073285 1
gene  1 2 9 -3.4267345681644814 0 113.0 -3.4267345681644814 1
gene  1 3 9 -3.3592334165728186 0 114.0 -3.3592334165728186 1
gene  1 5 9 2.3500651122034646 0 116.0 2.3500651122034646 1
gene  1 7 9 0.2053657914783774 0 118.0 0.2053657914783774 1
gene  1 9 9 -0.7416301329028643 1 120.0 -0.7416301329028643 1
gene  1 10 9 -3.483493741143598 1 121.0 -3.483493741143598 1
gene  1 13 9 8.162031889899245 1 124.0 8.162031889899245 1
gene  1 2 10 1.9528723025646668 0 127.0 1.9528723025646668 1
gene  1 4 10 -2.1988136698241556 0 129.0 -2.1988136698241556 1
gene  1 5 10 -4.457621322718056 0 130.0 -4.457621322718056 1
gene  1 8 10 2.339030128134059 0 133.0 2.339030128134059 1
gene  1 9 10 -0.8818360830245389 0 134.0 -0.8818360830245389 1
gene  1 10 10 -0.12399273946311529 1 135.0 -0.12399273946311529 1
gene  1 13 10 -0.21109485881955825 1 138.0 -0.21109485881955825 1
gene  1 14 10 0.5377645655590623 1 139.0 0.5377645655590623 1
gene  1 2 13 -1.7116552878390434 0 169.0 -1.7116552878390434 1
gene  1 3 13 -4.469399196755696 0 170.0 -4.469399196755696 1
gene  1 6 13 -1.5750840951416727 0 173.0 -1.5750840951416727 1
gene  1 7 13 -2.495582046350327 0 174.0 -2.495582046350327 1
gene  1 9 13 -1.2786623353507434 0 176.0 -1.2786623353507434 1
gene  1 13 13 -2.283684299643751 1 180.0 -2.283684299643751 1
gene  1 14 13 -4.697375071471113 1 181.0 -4.697375071471113 1
gene  1 1 14 2.68223149497657 0 182.0 2.68223149497657 1
gene  1 3 14 4.898942563485947 0 184.0 4.898942563485947 1
gene  1 9 14 -5.35792267448827 0 190.0 -5.35792267448827 1
gene  1 10 14 -1.3458168083638835 0 191.0 -1.3458168083638835 1
gene  1 8 13 -8.366607444982769 0 207.0 -8.366607444982769 1
gene  1 1 10 7.211237485661213 0 226.0 7.211237485661213 1
gene  1 6 14 -2.2711303384459085 0 234.0 -2.2711303384459085 1
gene  1 8 28 1.9033575813726158 1 293.0 1.9033575813726158 1
gene  1 28 8 -1.7064051492284236 0 294.0 -1.7064051492284236 1
genomeend 8
genomestart  9
trait 1 1.3449282699683267 0.0 0.6715679179718652 0.876858839596525 1.5174143118965362 0.3493210991972051 0.4130893652942357 0.0 
node 1 1 1 1
node 2 1 1 1
node 3 1 1 1
node 4 1 1 1
node 5 1 1 1
node 6 1 1 1
node 7 1 1 3
node 8 1 0 0
node 9 1 0 0
node 10 1 0 0
node 13 1 0 2
node 14 1 0 2
node 28 1 0 0
gene  1 1 8 -5.052703257010451 0 98.0 -5.052703257010451 1
gene  1 3 8 -1.2689020024662931 0 100.0 -1.2689020024662931 1
gene  1 5 8 2.690384522813016 0 102.0 2.690384522813016 1
gene  1 6 8 2.7800312203935826 0 103.0 2.7800312203935826 1
gene  1 8 8 0.009593551176936554 1 105.0 0.009593551176936554 1
gene  1 1 9 3.5820935211481144 0 112.0 3.5820935211481144 1
gene  1 2 9 -1.6364578198247757 0 113.0 -1.6364578198247757 1
gene  1 3 9 -3.475839371206218 0 114.0 -3.475839371206218 1
gene  1 5 9 2.452690018151201 0 116.0 2.452690018151201 1
gene  1 7 9 -0.009994814256543416 0 118.0 -0.009994814256543416 1
gene  1 9 9 -4.113648730559905 1 120.0 -4.113648730559905 1
gene  1 10 9 0.29626904829708756 1 121.0 0.29626904829708756 1
gene  1 13 9 1.1064860517111488 1 124.0 1.1064860517111488 1
gene  1 2 10 4.318173154364313 0 127.0 4.318173154364313 1
gene  1 4 10 1.8622715633836813 0 129.0 1.8622715633836813 1
gene  1 5 10 -2.9647927703052805 0 130.0 -2.9647927703052805 1
gene  1 8 10 0.8583875254407101 0 133.0 0.8583875254407101 1
gene  1 9 10 1.1549550391318935 0 134.0 1.1549550391318935 1
gene  1 10 10 -0.2694934732097285 1 135.0 -0.2694934732097285 1
gene  1 13 10 -1.241674892144273 1 138.0 -1.241674892144273 1
gene  1 14 10 2.4971215582698094 1 139.0 2.4971215582698094 1
gene  1 2 13 1.40756294394822 0 169.0 1.40756294394822 1
gene  1 3 13 -2.594322294323023 0 170.0 -2.594322294323023 1
gene  1 6 13 -0.7175301876810469 0 173.0 -0.7175301876810469 1
gene  1 7 13 1.3994876248349781 0 174.0 1.3994876248349781 1
gene  1 9 13 -0.23338751983722972 0 176.0 -0.23338751983722972 1
gene  1 13 13 -2.695048058004696 1 180.0 -2.695048058004696 1
gene  1 14 13 -4.20113425708689 1 181.0 -4.20113425708689 1
gene  1 1 14 -0.009564577092309179 0 182.0 -0.009564577092309179 1
gene  1 3 14 2.729332635045268 0 184.0 2.729332635045268 1
gene  1 9 14 -3.1375433656206067 0 190.0 -3.1375433656206067 1
gene  1 10 14 -1.3458168083638835 0 191.0 -1.3458168083638835 1
gene  1 8 13 -7.180555144539609 0 207.0 -7.180555144539609 1
gene  1 1 10 7.7508693464786695 0 226.0 7.7508693464786695 1
gene  1 6 14 -2.4265560282537337 0 234.0 -2.4265560282537337 1
gene  1 8 28 2.852415271968386 1 293.0 2.852415271968386 1
gene  1 28 8 3.3192998632063704 0 294.0 3.3192998632063704 1
genomeend 9
genomestart  10
trait 1 1.0798649728855017 0.4943829388310036 0.9023195040715034 0.876858839596525 1.5174143118965362 0.3493210991972051 0.4130893652942357 0.0 
node 1 1 1 1
node 2 1 1 1
node 3 1 1 1
node 4 1 1 1
node 5 1 1 1
node 6 1 1 1
node 7 1 1 3
node 8 1 0 0
node 9 1 0 0
node 10 1 0 0
node 13 1 0 2
node 14 1 0 2
node 28 1 0 0
gene  1 1 8 -2.726673628949253 0 98.0 -2.726673628949253 1
gene  1 3 8 1.5077936556340896 0 100.0 1.5077936556340896 1
gene  1 5 8 2.8495258950267264 0 102.0 2.8495258950267264 1
gene  1 6 8 4.368959909787227 0 103.0 4.368959909787227 1
gene  1 8 8 4.899242413171576 1 105.0 4.899242413171576 0
gene  1 1 9 3.194790568266388 0 112.0 3.194790568266388 1
gene  1 2 9 -4.150813657211053 0 113.0 -4.150813657211053 1
gene  1 3 9 2.0700083001670415 0 114.0 2.0700083001670415 1
gene  1 5 9 1.347837398488131 0 116.0 1.347837398488131 1
gene  1 7 9 -0.9555468405172829 0 118.0 -0.9555468405172829 1
gene  1 9 9 1.284481381337913 1 120.0 1.284481381337913 1
gene  1 10 9 -3.714199260910573 1 121.0 -3.714199260910573 1
gene  1 13 9 6.479340263480978 1 124.0 6.479340263480978 1
gene  1 2 10 1.8886875163662353 0 127.0 1.8886875163662353 1
gene  1 4 10 -2.417822753247968 0 129.0 -2.417822753247968 1
gene  1 5 10 -3.6098444446584694 0 130.0 -3.6098444446584694 1
gene  1 8 10 0.5574070071570641 0 133.0 0.5574070071570641 1
gene  1 9 10 -0.1961045963124488 0 134.0 -0.1961045963124488 1
gene  1 10 10 -1.8760198427976578 1 135.0 -1.8760198427976578 1
gene  1 13 10 1.6338533753227296 1 138.0 1.6338533753227296 1
gene  1 14 10 2.30746204574337 1 139.0 2.30746204574337 1
gene  1 2 13 -2.129379600882545 0 169.0 -2.129379600882545 1
gene  1 3 13 -5.749022203107182 0 170.0 -5.749022203107182 1
gene  1 6 13 0.3976551313847529 0 173.0 0.3976551313847529 1
gene  1 7 13 -1.0628072426486033 0 174.0 -1.0628072426486033 1
gene  1 9 13 -1.618471743254501 0 176.0 -1.618471743254501 1
gene  1 13 13 2.3531024091032777 1 180.0 2.3531024091032777 1
gene  1 14 13 1.8167312938621647 1 181.0 1.8167312938621647 1
gene  1 1 14 0.2775015551637603 0 182.0 0.2775015551637603 1
gene  1 3 14 3.360285079641242 0 184.0 3.360285079641242 1
gene  1 9 14 -5.811468775069054 0 190.0 -5.811468775069054 1
gene  1 10 14 -3.3993295566295365 0 191.0 -3.3993295566295365 1
gene  1 8 13 -6.825400210306681 0 207.0 -6.825400210306681 1
gene  1 1 10 1.252663657702973 0 226.0 1.252663657702973 1
gene  1 6 14 -4.658445239207131 0 234.0 -4.658445239207131 1
gene  1 8 28 2.1312228588241204 1 293.0 2.1312228588241204 1
gene  1 28 8 3.9254615857625494 0 294.0 3.9254615857625494 1
genomeend 10
genomestart  11
trait 1 0.0 0.0 0.4047372828381034 0.0 1.1905783516961135 0.0 0.0 0.6290818923229079 
node 1 1 1 1
node 2 1 1 1
node 3 1 1 1
node 4 1 1 1
node 5 1 1 1
node 6 1 1 1
node 7 1 1 3
node 8 1 0 0
node 13 1 0 2
node 14 1 0 2
node 22 1 0 0
node 25 1 0 0
node 29 1 0 0
gene  1 1 8 4.430089677451498 0 98.0 4.430089677451498 1
gene  1 3 8 -3.751528161121059 0 100.0 -3.751528161121059 1
gene  1 4 8 -6.908833104222385 0 101.0 -6.908833104222385 1
gene  1 5 8 1.4390379603967887 0 102.0 1.4390379603967887 1
gene  1 6 8 10.26788908374462 0 103.0 10.26788908374462 1
gene  1 8 8 -3.821159848806838 1 105.0 -3.821159848806838 1
gene  1 1 13 -3.8115031277114086 0 168.0 -3.8115031277114086 1
gene  1 5 13 -3.371376526266313 0 172.0 -3.371376526266313 1
gene  1 13 13 -6.009107864218892 1 180.0 -6.009107864218892 1
gene  1 14 13 -6.754201458594364 1 181.0 -6.754201458594364 1
gene  1 2 14 -3.1953784753023426 0 183.0 -3.1953784753023426 1
gene  1 3 14 -7.25470203683774 0 184.0 -7.25470203683774 1
gene  1 5 14 4.643533692451734 0 186.0 4.643533692451734 1
gene  1 7 14 -5.847806682662237 0 188.0 -5.847806682662237 1
gene  1 8 14 -6.000376014940119 0 189.0 -6.000376014940119 0
gene  1 13 14 2.0064326445177487 0 194.0 2.0064326445177487 1
gene  1 2 13 7.941130932645998 0 236.0 7.941130932645998 1
gene  1 8 22 -4.600404180486406 0 240.0 -4.600404180486406 1
gene  1 22 14 0.2195889534509552 0 241.0 0.2195889534509552 1
gene  1 1 22 -3.6208775963874307 0 245.0 -3.6208775963874307 1
gene  1 13 8 -0.05294680810414004 0 257.0 -0.05294680810414004 1
gene  1 5 22 -4.874141387861947 0 265.0 -4.874141387861947 1
gene  1 1 25 -2.4612436949144954 0 279.0 -2.4612436949144954 1
gene  1 25 8 -1.0478540040013105 0 280.0 -1.0478540040013105 1
gene  1 8 29 1.2232192139412683 0 297.0 1.2232192139412683 1
gene  1 29 14 -6.27449324597411 0 298.0 -6.27449324597411 1
genomeend 11
genomestart  12
trait 1 0.0 0.0 0.4047372828381034 0.0 1.1905783516961135 0.0 0.0 0.6290818923229079 
node 1 1 1 1
node 2 1 1 1
node 3 1 1 1
node 4 1 1 1
node 5 1 1 1
node 6 1 1 1
node 7 1 1 3
node 8 1 0 0
node 13 1 0 2
node 14 1 0 2
node 22 1 0 0
node 25 1 0 0
node 29 1 0 0
gene  1 1 8 6.632547600857385 0 98.0 6.632547600857385 1
gene  1 3 8 -6.887146463245975 0 100.0 -6.887146463245975 1
gene  1 4 8 -4.486149064728834 0 101.0 -4.486149064728834 1
gene  1 5 8 -0.0909554339565487 0 102.0 -0.0909554339565487 1
gene  1 6 8 11.963714999084386 0 103.0 11.963714999084386 1
gene  1 8 8 -2.4883720594800987 1 105.0 -2.4883720594800987 1
gene  1 1 13 -1.9055245252085764 0 168.0 -1.9055245252085764 1
gene  1 5 13 -2.058314593510597 0 172.0 -2.058314593510597 1
gene  1 13 13 1.0474437552374227 1 180.0 1.0474437552374227 1
gene  1 14 13 -1.9693633673928193 1 181.0 -1.9693633673928193 1
gene  1 2 14 -2.3947565898494885 0 183.0 -2.3947565898494885 1
gene  1 3 14 1.9573035404517938 0 184.0 1.9573035404517938 1
gene  1 5 14 3.1623539132293197 0 186.0 3.1623539132293197 1
gene  1 7 14 -0.6981595128119589 0 188.0 -0.6981595128119589 1
gene  1 8 14 -5.715863882647911 0 189.0 -5.715863882647911 0
gene  1 13 14 3.6469814024446014 0 194.0 3.6469814024446014 1
gene  1 2 13 9.265950874377697 0 236.0 9.265950874377697 1
gene  1 8 22 -2.2774211513678435 0 240.0 -2.2774211513678435 1
gene  1 22 14 -0.9626312554838812 0 241.0 -0.9626312554838812 1
gene  1 1 22 -2.6110695009068805 0 245.0 -2.6110695009068805 1
gene  1 13 8 -2.3478872757202764 0 257.0 -2.3478872757202764 1
gene  1 5 22 -4.3361213690557285 0 265.0 -4.3361213690557285 1
gene  1 1 25 -0.9413484886007462 0 279.0 -0.9413484886007462 1
gene  1 25 8 -1.254019349649181 0 280.0 -1.254019349649181 1
gene  1 8 29 1.0 0 297.0 1.0 1
gene  1 29 14 -6.358842132546815 0 298.0 -6.358842132546815 1
genomeend 12
genomestart  13
trait 1 0.0 0.0 0.8819938403457324 0.0 0.3524698665546644 0.3073711629624263 0.25417113514219947 0.0 
node 1 1 1 1
node 2 1 1 1
node 3 1 1 1
node 4 1 1 1
node 5 1 1 1
node 6 1 1 1
node 7 1 1 3
node 13 1 0 2
node 14 1 0 2
gene  1 1 13 5.164662154444807 0 168.0 5.164662154444807 1
gene  1 2 13 -4.927949616025655 0 169.0 -4.927949616025655 1
gene  1 3 13 2.9078103367647987 0 170.0 2.9078103367647987 1
gene  1 4 13 3.7515188728873907 0 171.0 3.7515188728873907 1
gene  1 5 13 5.315640984178968 0 172.0 5.315640984178968 1
gene  1 6 13 -1.0065187679497458 0 173.0 -1.0065187679497458 1
gene  1 7 13 -1.7898349879064746 0 174.0 -1.7898349879064746 1
gene  1 14 13 1.5293981101822456 1 181.0 1.5293981101822456 1
gene  1 1 14 1.8741660377697262 0 182.0 1.8741660377697262 1
gene  1 2 14 -0.10554485937230906 0 183.0 -0.10554485937230906 1
gene  1 3 14 3.5462328655785207 0 184.0 3.5462328655785207 1
gene  1 13 14 3.3547753850588284 0 194.0 3.3547753850588284 1
gene  1 14 14 -2.270180568743646 1 195.0 -2.270180568743646 1
gene  1 7 14 -3.075047621209706 0 273.0 -3.075047621209706 1
gene  1 4 14 -3.7189303142888717 0 283.0 -3.7189303142888717 1
genomeend 13
genomestart  14
trait 1 0.0 0.0 0.8819938403457324 0.0 0.3524698665546644 0.3073711629624263 0.25417113514219947 0.0 
node 1 1 1 1
node 2 1 1 1
node 3 1 1 1
node 4 1 1 1
node 5 1 1 1
node 6 1 1 1
node 7 1 1 3
node 13 1 0 2
node 14 1 0 2
gene  1 1 13 7.933653392979133 0 168.0 7.933653392979133 1
gene  1 2 13 -3.7064257936723073 0 169.0 -3.7064257936723073 1
gene  1 3 13 3.515819699969377 0 170.0 3.515819699969377 1
gene  1 4 13 5.039819313559676 0 171.0 5.039819313559676 1
gene  1 5 13 3.732580981445776 0 172.0 3.732580981445776 1
gene  1 6 13 2.503436451847733 0 173.0 2.503436451847733 1
gene  1 7 13 2.0614595020590336 0 174.0 2.0614595020590336 1
gene  1 14 13 3.1188082194499738 1 181.0 3.1188082194499738 1
gene  1 1 14 3.3244702421500847 0 182.0 3.3244702421500847 1
gene  1 2 14 1.2516874141020882 0 183.0 1.2516874141020882 1
gene  1 3 14 1.5353957086487402 0 184.0 1.5353957086487402 1
gene  1 13 14 0.3076174361020543 0 194.0 0.3076174361020543 1
gene  1 14 14 -0.22087000505384324 1 195.0 -0.22087000505384324 1
gene  1 7 14 -1.0959923536611278 0 273.0 -1.0959923536611278 1
gene  1 4 14 -1.2015556615386576 0 283.0 -1.2015556615386576 1
genomeend 14
genomestart  15
trait 1 0.731715373568969 0.5319433208524987 0.8875428902212121 1.0172554146688002 0.2545070174269727 0.6799681748259421 0.0 0.0 
node 1 1 1 1
node 2 1 1 1
node 3 1 1 1
node 4 1 1 1
node 5 1 1 1
node 6 1 1 1
node 7 1 1 3
node 8 1 0 0
node 9 1 0 0
node 13 1 0 2
node 14 1 0 2
node 20 1 0 0
gene  1 1 8 -6.4032941411985 0 98.0 -6.4032941411985 1
gene  1 2 8 2.0147827386467334 0 99.0 2.0147827386467334 1
gene  1 3 8 2.3858117259335634 0 100.0 2.3858117259335634 1
gene  1 6 8 -0.36085000113428944 0 103.0 -0.36085000113428944 1
gene  1 8 8 1.5127770503751388 1 105.0 1.5127770503751388 1
gene  1 9 8 3.8153460625956814 1 106.0 3.8153460625956814 1
gene  1 13 8 3.1714603648587323 1 110.0 3.1714603648587323 1
gene  1 14 8 0.7314027416227975 1 111.0 0.7314027416227975 1
gene  1 1 9 4.401291064397252 0 112.0 4.401291064397252 1
gene  1 4 9 -0.09734991515588387 0 115.0 -0.09734991515588387 1
gene  1 5 9 2.3825511808336297 0 116.0 2.3825511808336297 1
gene  1 7 9 -11.317023542810901 0 118.0 -11.317023542810901 1
gene  1 9 9 3.610759566733748 1 120.0 3.610759566733748 1
gene  1 14 9 -2.9409919084359775 1 125.0 -2.9409919084359775 1
gene  1 2 13 -7.59507592438246 0 169.0 -7.59507592438246 1
gene  1 5 13 1.034023553196919 0 172.0 1.034023553196919 1
gene  1 8 13 6.055703995965855 0 175.0 6.055703995965855 1
gene  1 1 14 0.22818379721507337 0 182.0 0.22818379721507337 0
gene  1 2 14 13.389580559623251 0 183.0 13.389580559623251 1
gene  1 3 14 -5.0177327692381795 0 184.0 -5.0177327692381795 1
gene  1 6 14 11.331813072137809 0 187.0 11.331813072137809 1
gene  1 13 14 4.609109813190946 0 194.0 4.609109813190946 1
gene  1 14 14 -7.020232781249186 1 195.0 -7.020232781249186 1
gene  1 5 8 -1.8138191797437855 0 202.0 -1.8138191797437855 1
gene  1 4 13 8.356267189144543 0 220.0 8.356267189144543 1
gene  1 1 20 -0.9863563301084257 0 231.0 -0.9863563301084257 1
gene  1 20 14 1.5054991193181868 0 232.0 1.5054991193181868 1
genomeend 15
genomestart  16
trait 1 0.731715373568969 0.5319433208524987 0.8875428902212121 1.0172554146688002 0.2545070174269727 0.6799681748259421 0.0 0.0 
node 1 1 1 1
node 2 1 1 1
node 3 1 1 1
node 4 1 1 1
node 5 1 1 1
node 6 1 1 1
node 7 1 1 3
node 8 1 0 0
node 9 1 0 0
node 13 1 0 2
node 14 1 0 2
node 20 1 0 0
gene  1 1 8 -7.548882704698405 0 98.0 -7.548882704698405 1
gene  1 2 8 4.195305635377635 0 99.0 4.195305635377635 1
gene  1 3 8 0.5902836397331015 0 100.0 0.5902836397331015 1
gene  1 6 8 -3.3422622233918213 0 103.0 -3.3422622233918213 1
gene  1 8 8 0.31022879279203996 1 105.0 0.31022879279203996 1
gene  1 9 8 4.71590724032945 1 106.0 4.71590724032945 1
gene  1 13 8 0.5842458090561655 1 110.0 0.5842458090561655 1
gene  1 14 8 -0.522342360305518 1 111.0 -0.522342360305518 1
gene  1 1 9 5.411400798029262 0 112.0 5.411400798029262 1
gene  1 4 9 0.03739020754159439 0 115.0 0.03739020754159439 1
gene  1 5 9 0.46769274713564973 0 116.0 0.46769274713564973 1
gene  1 7 9 -7.4785948174287 0 118.0 -7.4785948174287 1
gene  1 9 9 4.664407899996746 1 120.0 4.664407899996746 1
gene  1 14 9 -3.0401067485722613 1 125.0 -3.0401067485722613 1
gene  1 2 13 -9.74365485084002 0 169.0 -9.74365485084002 1
gene  1 5 13 -1.8523059705860543 0 172.0 -1.8523059705860543 1
gene  1 8 13 1.6120783603157984 0 175.0 1.6120783603157984 1
gene  1 1 14 -0.7391624631313587 0 182.0 -0.7391624631313587 0
gene  1 2 14 15.786564305683347 0 183.0 15.786564305683347 1
gene  1 3 14 -4.041629574898127 0 184.0 -4.041629574898127 1
gene  1 6 14 -2.122021452938222 0 187.0 -2.122021452938222 1
gene  1 13 14 4.026035291721144 0 194.0 4.026035291721144 1
gene  1 14 14 -9.920166720049092 1 195.0 -9.920166720049092 1
gene  1 5 8 2.3806441386431367 0 202.0 2.3806441386431367 1
gene  1 4 13 8.356267189144543 0 220.0 8.356267189144543 1
gene  1 1 20 -1.0128307825993366 0 231.0 -1.0128307825993366 1
gene  1 20 14 0.4693837250792983 0 232.0 0.4693837250792983 1
genomeend 16
genomestart  17
trait 1 0.0 0.8507286365631731 0.8412243628926098 0.8164647912856297 0.6061681788876561 0.0 0.0 0.07895419735974474 
node 1 1 1 1
node 2 1 1 1
node 3 1 1 1
node 4 1 1 1
node 5 1 1 1
node 6 1 1 1
node 7 1 1 3
node 13 1 0 2
node 14 1 0 2
gene  1 1 13 -1.6265353052398366 0 168.0 -1.6265353052398366 1
gene  1 2 13 -2.9986922928149835 0 169.0 -2.9986922928149835 1
gene  1 5 13 -1.0300792041982763 0 172.0 -1.0300792041982763 1
gene  1 6 13 -2.480728025289029 0 173.0 -2.480728025289029 1
gene  1 7 13 -1.1067986486066923 0 174.0 -1.1067986486066923 1
gene  1 3 14 1.2471932778048516 0 184.0 1.2471932778048516 1
gene  1 4 14 -0.36442962170348037 0 185.0 -0.36442962170348037 1
gene  1 7 14 -7.681939592165543 0 188.0 -7.681939592165543 1
gene  1 13 14 1.2935008008168989 0 194.0 1.2935008008168989 1
gene  1 14 14 0.4329504046890618 1 195.0 0.4329504046890618 1
gene  1 4 13 -0.07230348643089135 0 235.0 -0.07230348643089135 1
gene  1 1 14 4.175512801028197 0 242.0 4.175512801028197 1
genomeend 17
genomestart  18
trait 1 0.0 0.8507286365631731 0.8412243628926098 0.8164647912856297 0.6061681788876561 0.0 0.0 0.07895419735974474 
node 1 1 1 1
node 2 1 1 1
node 3 1 1 1
node 4 1 1 1
node 5 1 1 1
node 6 1 1 1
node 7 1 1 3
node 13 1 0 2
node 14 1 0 2
gene  1 1 13 0.31456102911243944 0 168.0 0.31456102911243944 1
gene  1 2 13 -2.9689611052567244 0 169.0 -2.9689611052567244 1
gene  1 5 13 -2.1455918736334163 0 172.0 -2.1455918736334163 1
gene  1 6 13 -1.8489539263337678 0 173.0 -1.8489539263337678 1
gene  1 7 13 -0.7587944113963911 0 174.0 -0.7587944113963911 1
gene  1 3 14 0.9868165952375278 0 184.0 0.9868165952375278 1
gene  1 4 14 1.2408908570989352 0 185.0 1.2408908570989352 1
gene  1 7 14 -6.260132052199461 0 188.0 -6.260132052199461 1
gene  1 13 14 -1.1080259600538547 0 194.0 -1.1080259600538547 1
gene  1 14 14 -1.775978438767293 1 195.0 -1.775978438767293 1
gene  1 4 13 1.4947947197100082 0 235.0 1.4947947197100082 1
gene  1 1 14 -0.762929267326856 0 242.0 -0.762929267326856 1
genomeend 18
genomestart  19
trait 1 0.0 0.8507286365631731 0.8412243628926098 0.8164647912856297 0.6061681788876561 0.0 0.0 0.07895419735974474 
node 1 1 1 1
node 2 1 1 1
node 3 1 1 1
node 4 1 1 1
node 5 1 1 1
node 6 1 1 1
node 7 1 1 3
node 13 1 0 2
node 14 1 0 2
gene  1 1 13 0.4800404680381294 0 168.0 0.4800404680381294 1
gene  1 2 13 -0.7313151087005392 0 169.0 -0.7313151087005392 1
gene  1 5 13 -0.30138547566399887 0 172.0 -0.30138547566399887 1
gene  1 6 13 -1.2683178924776612 0 173.0 -1.2683178924776612 1
gene  1 7 13 -1.1428066183480525 0 174.0 -1.1428066183480525 1
gene  1 3 14 2.277868562797444 0 184.0 2.277868562797444 1
gene  1 4 14 -2.8414855691709313 0 185.0 -2.8414855691709313 1
gene  1 7 14 -5.997643281087791 0 188.0 -5.997643281087791 1
gene  1 13 14 1.2347595658661021 0 194.0 1.2347595658661021 1
gene  1 14 14 1.8463061901032294 1 195.0 1.8463061901032294 1
gene  1 4 13 -1.9343896284452655 0 235.0 -1.9343896284452655 1
gene  1 1 14 4.175512801028197 0 242.0 4.175512801028197 1
genomeend 19
