genomestart  0
trait 1 0.26937214532678067 0.0 1.896310652799719 1.0664206773141058 1.8651080668398228 0.9057529697611906 1.2186392275033897 1.6429921308966946 
node 1 1 1 1
node 2 1 1 1
node 3 1 1 1
node 4 1 1 1
node 5 1 1 1
node 6 1 1 1
node 7 1 1 3
node 13 1 0 2
node 14 1 0 2
node 21 1 0 0
node 24 1 0 0
node 34 1 0 0
node 67 1 0 0
node 72 1 0 0
node 78 1 0 0
gene  1 1 13 -1.8068584506155085 0 168.0 -1.8068584506155085 0
gene  1 4 13 -3.490739912129839 0 171.0 -3.490739912129839 1
gene  1 5 13 1.9104200774348057 0 172.0 1.9104200774348057 1
gene  1 7 13 0.5488538026523742 0 174.0 0.5488538026523742 1
gene  1 13 13 -0.6573178933928515 1 180.0 -0.6573178933928515 1
gene  1 2 14 2.2089097558130484 0 183.0 2.2089097558130484 1
gene  1 3 14 3.6501104857516777 0 184.0 3.6501104857516777 1
gene  1 6 14 -1.0522208849600858 0 187.0 -1.0522208849600858 1
gene  1 13 14 2.116819969788604 0 194.0 2.116819969788604 1
gene  1 14 14 -2.046450484625127 1 195.0 -2.046450484625127 1
gene  1 6 13 3.122687021263103 0 205.0 3.122687021263103 1
gene  1 5 14 -3.091197694642233 0 223.0 -3.091197694642233 1
gene  1 3 13 7.592591261063936 0 229.0 7.592591261063936 1
gene  1 2 13 -2.419647187048394 0 233.0 -2.419647187048394 1
gene  1 1 21 14.120779734823529 0 238.0 14.120779734823529 1
gene  1 21 13 0.39409210731884253 0 239.0 0.39409210731884253 1
gene  1 5 21 -2.297960807430467 0 253.0 -2.297960807430467 1
gene  1 3 21 1.1137939551858356 0 270.0 1.1137939551858356 1
gene  1 1 24 0.995368781324813 0 275.0 0.995368781324813 1
gene  1 24 13 1.244849314539564 0 276.0 1.244849314539564 1
gene  1 3 34 8.29990122825259 0 315.0 8.29990122825259 1
gene  1 34 14 -3.10434430703686 0 316.0 -3.10434430703686 0
gene  1 3 24 3.3914990062881687 0 324.0 3.3914990062881687 1
gene  1 2 21 -1.3914345196884188 0 350.0 -1.3914345196884188 1
gene  1 34 13 -3.7223846621970402 0 355.0 -3.7223846621970402 1
gene  1 1 34 -3.2232222376235313 0 361.0 -3.2232222376235313 1
gene  1 7 14 -2.2292339407980983 0 388.0 -2.2292339407980983 1
gene  1 24 14 3.2381922584935667 0 468.0 3.2381922584935667 1
gene  1 34 67 0.7122148353960245 0 491.0 0.7122148353960245 1
gene  1 67 14 0.8897168958284707 0 492.0 0.8897168958284707 1
gene  1 1 72 0.8832488882244058 0 505.0 0.8832488882244058 1
gene  1 72 13 0.5796510914498225 0 506.0 0.5796510914498225 1
gene  1 1 78 0.4970918172021818 0 530.0 0.4970918172021818 1
gene  1 78 72 1.2882479235864246 0 531.0 1.2882479235864246 1
gene  1 5 72 -0.7128286328298055 0 565.0 -0.7128286328298055 1
gene  1 78 14 1.319642553656033 0 577.0 1.319642553656033 1
genomeend 0
genomestart  1
trait 1 0.26937214532678067 0.0 1.896310652799719 1.0664206773141058 1.8651080668398228 0.9057529697611906 1.2186392275033897 1.6429921308966946 
node 1 1 1 1
node 2 1 1 1
node 3 1 1 1
node 4 1 1 1
node 5 1 1 1
node 6 1 1 1
node 7 1 1 3
node 13 1 0 2
node 14 1 0 2
node 21 1 0 0
node 24 1 0 0
node 34 1 0 0
node 67 1 0 0
node 72 1 0 0
node 78 1 0 0
gene  1 1 13 -1.1388956101729537 0 168.0 -1.1388956101729537 0
gene  1 4 13 -2.7750333365074678 0 171.0 -2.7750333365074678 1
gene  1 5 13 0.06990000129292628 0 172.0 0.06990000129292628 1
gene  1 7 13 0.26807201379249923 0 174.0 0.26807201379249923 1
gene  1 13 13 0.635581686901296 1 180.0 0.635581686901296 1
gene  1 2 14 3.4850432005961345 0 183.0 3.4850432005961345 1
gene  1 3 14 2.4730902328283335 0 184.0 2.4730902328283335 1
gene  1 6 14 -0.5254851977700079 0 187.0 -0.5254851977700079 1
gene  1 13 14 3.9427278423031384 0 194.0 3.9427278423031384 1
gene  1 14 14 -3.035706665161277 1 195.0 -3.035706665161277 1
gene  1 6 13 2.9426990187277227 0 205.0 2.9426990187277227 1
gene  1 5 14 -0.4049612434056826 0 223.0 -0.4049612434056826 1
gene  1 3 13 9.418783726470267 0 229.0 9.418783726470267 1
gene  1 2 13 1.1161855796742108 0 233.0 1.1161855796742108 1
gene  1 1 21 14.646472953940123 0 238.0 14.646472953940123 1
gene  1 21 13 2.3276774949718346 0 239.0 2.3276774949718346 1
gene  1 5 21 -4.301925727413005 0 253.0 -4.301925727413005 1
gene  1 3 21 -0.622674959755028 0 270.0 -0.622674959755028 1
gene  1 1 24 -2.5050704376951445 0 275.0 -2.5050704376951445 1
gene  1 24 13 -0.390223526469621 0 276.0 -0.390223526469621 1
gene  1 3 34 6.770953952497278 0 315.0 6.770953952497278 1
gene  1 34 14 0.8079604168687033 0 316.0 0.8079604168687033 0
gene  1 3 24 3.0870947397282724 0 324.0 3.0870947397282724 1
gene  1 2 21 -1.369339566296447 0 350.0 -1.369339566296447 1
gene  1 34 13 -2.727442580705603 0 355.0 -2.727442580705603 1
gene  1 1 34 -2.4494997189402263 0 361.0 -2.4494997189402263 1
gene  1 7 14 0.23478648094114773 0 388.0 0.23478648094114773 1
gene  1 24 14 2.6453449449543873 0 468.0 2.6453449449543873 1
gene  1 34 67 0.28691838596663 0 491.0 0.28691838596663 1
gene  1 67 14 -2.1694659244819565 0 492.0 -2.1694659244819565 1
gene  1 1 72 1.9021002984551882 0 505.0 1.9021002984551882 1
gene  1 72 13 1.9060953957806195 0 506.0 1.9060953957806195 1
gene  1 1 78 3.4586864782524307 0 530.0 3.4586864782524307 1
gene  1 78 72 -0.4483107220059146 0 531.0 -0.4483107220059146 1
gene  1 5 72 -0.4592655469174625 0 565.0 -0.4592655469174625 1
gene  1 78 14 -2.3113689747567308 0 577.0 -2.3113689747567308 1
genomeend 1
genomestart  2
trait 1 0.26937214532678067 0.0 1.896310652799719 1.0664206773141058 1.8651080668398228 0.9057529697611906 1.2186392275033897 1.6429921308966946 
node 1 1 1 1
node 2 1 1 1
node 3 1 1 1
node 4 1 1 1
node 5 1 1 1
node 6 1 1 1
node 7 1 1 3
node 13 1 0 2
node 14 1 0 2
node 21 1 0 0
node 24 1 0 0
node 34 1 0 0
node 67 1 0 0
node 72 1 0 0
node 78 1 0 0
gene  1 1 13 -0.9487059669328107 0 168.0 -0.9487059669328107 0
gene  1 4 13 -2.942719659179385 0 171.0 -2.942719659179385 1
gene  1 5 13 2.0789024988738634 0 172.0 2.0789024988738634 1
gene  1 7 13 2.5621325485240023 0 174.0 2.5621325485240023 1
gene  1 13 13 0.15097641235504544 1 180.0 0.15097641235504544 1
gene  1 2 14 1.8467888719284977 0 183.0 1.8467888719284977 1
gene  1 3 14 3.0133649619393768 0 184.0 3.0133649619393768 1
gene  1 6 14 -0.306578390440277 0 187.0 -0.306578390440277 1
gene  1 13 14 2.083974850622039 0 194.0 2.083974850622039 1
gene  1 14 14 -0.6960591956740836 1 195.0 -0.6960591956740836 1
gene  1 6 13 3.5645966233133013 0 205.0 3.5645966233133013 1
gene  1 5 14 -1.2148460808229486 0 223.0 -1.2148460808229486 1
gene  1 3 13 7.3529593982357735 0 229.0 7.3529593982357735 1
gene  1 2 13 -1.362725962604595 0 233.0 -1.362725962604595 1
gene  1 1 21 12.704554004909022 0 238.0 12.704554004909022 1
gene  1 21 13 0.7212922093736616 0 239.0 0.7212922093736616 1
gene  1 5 21 -3.501294028845308 0 253.0 -3.501294028845308 1
gene  1 3 21 0.7209983705875206 0 270.0 0.7209983705875206 1
gene  1 1 24 -0.9102436559820598 0 275.0 -0.9102436559820598 1
gene  1 24 13 0.7432011113121073 0 276.0 0.7432011113121073 1
gene  1 3 34 8.177834637014584 0 315.0 8.177834637014584 1
gene  1 34 14 -1.0295854074349977 0 316.0 -1.0295854074349977 0
gene  1 3 24 4.160804238356642 0 324.0 4.160804238356642 1
gene  1 2 21 -1.414845344420114 0 350.0 -1.414845344420114 1
gene  1 34 13 -3.31523346223807 0 355.0 -3.31523346223807 1
gene  1 1 34 -4.514732471740256 0 361.0 -4.514732471740256 1
gene  1 7 14 -0.4746026663556584 0 388.0 -0.4746026663556584 1
gene  1 24 14 2.6865312786685123 0 468.0 2.6865312786685123 1
gene  1 34 67 2.0286642419673226 0 491.0 2.0286642419673226 1
gene  1 67 14 0.6347507513514348 0 492.0 0.6347507513514348 1
gene  1 1 72 1.853869477432373 0 505.0 1.853869477432373 1
gene  1 72 13 2.0909396011470753 0 506.0 2.0909396011470753 1
gene  1 1 78 3.6054536501558863 0 530.0 3.6054536501558863 1
gene  1 78 72 1.2882479235864246 0 531.0 1.2882479235864246 1
gene  1 5 72 -0.7128286328298055 0 565.0 -0.7128286328298055 1
gene  1 78 14 1.6078962651061868 0 577.0 1.6078962651061868 1
genomeend 2
genomestart  3
trait 1 1.4256522994671585 1.6350426995209824 0.747276035170299 2.969549466943627 0.71872319980739 0.4404084300883778 0.7201715107197918 0.2837832966800675 
node 1 1 1 1
node 2 1 1 1
node 3 1 1 1
node 4 1 1 1
node 5 1 1 1
node 6 1 1 1
node 7 1 1 3
node 8 1 0 0
node 13 1 0 2
node 14 1 0 2
node 39 1 0 0
node 42 1 0 0
node 51 1 0 0
node 68 1 0 0
node 77 1 0 0
gene  1 1 8 -0.8642265315349509 0 98.0 -0.8642265315349509 1
gene  1 2 8 0.9493535399147508 0 99.0 0.9493535399147508 1
gene  1 3 8 -3.1311326281696723 0 100.0 -3.1311326281696723 1
gene  1 4 8 1.551702907301122 0 101.0 1.551702907301122 1
gene  1 5 8 -0.8242765175490475 0 102.0 -0.8242765175490475 1
gene  1 6 8 -1.8387078446600715 0 103.0 -1.8387078446600715 1
gene  1 8 8 -1.0039596613970379 1 105.0 -1.0039596613970379 1
gene  1 13 8 -0.34886668201165183 1 110.0 -0.34886668201165183 1
gene  1 14 8 3.1471237735554247 1 111.0 3.1471237735554247 1
gene  1 3 13 -1.2699647530158171 0 170.0 -1.2699647530158171 1
gene  1 5 13 -1.0899975396638577 0 172.0 -1.0899975396638577 1
gene  1 7 13 2.3143102648487877 0 174.0 2.3143102648487877 1
gene  1 13 13 5.483609391948066 1 180.0 5.483609391948066 1
gene  1 2 14 2.469844469642227 0 183.0 2.469844469642227 1
gene  1 4 14 -4.05033805538792 0 185.0 -4.05033805538792 1
gene  1 6 14 1.6883208915498105 0 187.0 1.6883208915498105 1
gene  1 8 14 -1.6245960255651093 0 189.0 -1.6245960255651093 1
gene  1 13 14 5.707481622820973 0 194.0 5.707481622820973 1
gene  1 2 13 -1.828905380929882 0 213.0 -1.828905380929882 1
gene  1 4 13 4.0017622174095235 0 230.0 4.0017622174095235 1
gene  1 13 8 0.1619220446506202 0 244.0 0.1619220446506202 1
gene  1 7 14 2.5199989656420567 0 264.0 2.5199989656420567 1
gene  1 1 14 0.6411807222571725 0 299.0 0.6411807222571725 1
gene  1 5 14 -10.022373107714003 0 310.0 -10.022373107714003 1
gene  1 1 13 -2.225841271859486 0 311.0 -2.225841271859486 1
gene  1 13 39 -5.910060598643913 0 344.0 -5.910060598643913 1
gene  1 39 8 -1.0821535227663097 0 345.0 -1.0821535227663097 1
gene  1 6 13 0.43739942620028033 0 348.0 0.43739942620028033 1
gene  1 2 42 -0.9374203893789281 0 359.0 -0.9374203893789281 1
gene  1 42 14 -4.232900839859482 0 360.0 -4.232900839859482 1
gene  1 13 42 0.8128931612420462 0 366.0 0.8128931612420462 1
gene  1 5 51 -2.6292461594441687 0 396.0 -2.6292461594441687 1
gene  1 51 14 7.044508019331957 0 397.0 7.044508019331957 1
gene  1 6 42 0.6778842655992614 0 423.0 0.6778842655992614 1
gene  1 39 42 -0.12736240199546223 0 426.0 -0.12736240199546223 1
gene  1 51 13 1.1967750036756604 0 475.0 1.1967750036756604 1
gene  1 39 14 -3.9673556963883083 0 476.0 -3.9673556963883083 1
gene  1 5 39 -5.534650896045264 0 485.0 -5.534650896045264 1
gene  1 5 68 -1.0621864323896892 0 493.0 -1.0621864323896892 1
gene  1 68 39 -3.5180822829756413 0 494.0 -3.5180822829756413 1
gene  1 4 51 -0.16501642278272088 0 514.0 -0.16501642278272088 1
gene  1 39 77 1.3283037638505226 0 528.0 1.3283037638505226 1
gene  1 77 8 4.555532752009081 0 529.0 4.555532752009081 1
gene  1 7 42 1.4088481794162533 0 599.0 1.4088481794162533 1
genomeend 3
genomestart  4
trait 1 1.939229322238783 2.3343119142163693 0.747276035170299 2.969549466943627 1.5076454025049317 0.0 1.5989666598479386 0.2837832966800675 
node 1 1 1 1
node 2 1 1 1
node 3 1 1 1
node 4 1 1 1
node 5 1 1 1
node 6 1 1 1
node 7 1 1 3
node 8 1 0 0
node 13 1 0 2
node 14 1 0 2
node 39 1 0 0
node 42 1 0 0
node 51 1 0 0
node 68 1 0 0
node 77 1 0 0
gene  1 1 8 -3.116326848772104 0 98.0 -3.116326848772104 1
gene  1 2 8 -0.5115012976033488 0 99.0 -0.5115012976033488 1
gene  1 3 8 -2.4953073837497426 0 100.0 -2.4953073837497426 1
gene  1 4 8 -2.1463612491416786 0 101.0 -2.1463612491416786 1
gene  1 5 8 -1.549499625308194 0 102.0 -1.549499625308194 1
gene  1 6 8 -4.223043376353271 0 103.0 -4.223043376353271 1
gene  1 8 8 -0.9969225904305477 1 105.0 -0.9969225904305477 1
gene  1 13 8 -1.8630709177872435 1 110.0 -1.8630709177872435 1
gene  1 14 8 4.67288515035589 1 111.0 4.67288515035589 1
gene  1 3 13 -0.40954864219873277 0 170.0 -0.40954864219873277 1
gene  1 5 13 0.5788762908484761 0 172.0 0.5788762908484761 1
gene  1 7 13 4.504737390289096 0 174.0 4.504737390289096 1
gene  1 13 13 6.359234600407374 1 180.0 6.359234600407374 1
gene  1 2 14 3.8064743928089366 0 183.0 3.8064743928089366 1
gene  1 4 14 -4.05033805538792 0 185.0 -4.05033805538792 1
gene  1 6 14 0.5389264300671077 0 187.0 0.5389264300671077 1
gene  1 8 14 0.7965563298980196 0 189.0 0.7965563298980196 1
gene  1 13 14 0.08807753196492324 0 194.0 0.08807753196492324 1
gene  1 2 13 -2.076046768510957 0 213.0 -2.076046768510957 1
gene  1 4 13 5.37490309696899 0 230.0 5.37490309696899 1
gene  1 13 8 0.1619220446506202 0 244.0 0.1619220446506202 1
gene  1 7 14 0.5724224616988081 0 264.0 0.5724224616988081 1
gene  1 1 14 -1.1340006796917717 0 299.0 -1.1340006796917717 1
gene  1 5 14 -10.32663529490048 0 310.0 -10.32663529490048 1
gene  1 1 13 0.7779317838846431 0 311.0 0.7779317838846431 1
gene  1 13 39 -3.48947584151552 0 344.0 -3.48947584151552 1
gene  1 39 8 -1.7972886790848859 0 345.0 -1.7972886790848859 1
gene  1 6 13 0.18277523959920383 0 348.0 0.18277523959920383 1
gene  1 2 42 -2.1559903196881818 0 359.0 -2.1559903196881818 1
gene  1 42 14 -1.9443975975864172 0 360.0 -1.9443975975864172 1
gene  1 13 42 -1.0958211668270015 0 366.0 -1.0958211668270015 1
gene  1 5 51 -2.6292461594441687 0 396.0 -2.6292461594441687 1
gene  1 51 14 7.044508019331957 0 397.0 7.044508019331957 1
gene  1 6 42 -1.5458329377197666 0 423.0 -1.5458329377197666 1
gene  1 39 42 -2.0640478633909374 0 426.0 -2.0640478633909374 1
gene  1 51 13 -0.2932117392083966 0 475.0 -0.2932117392083966 1
gene  1 39 14 1.2658724200615477 0 476.0 1.2658724200615477 1
gene  1 5 39 -5.303068440102749 0 485.0 -5.303068440102749 1
gene  1 5 68 -2.046191392737904 0 493.0 -2.046191392737904 1
gene  1 68 39 -1.2041133877204508 0 494.0 -1.2041133877204508 1
gene  1 4 51 -1.3473859663705947 0 514.0 -1.3473859663705947 1
gene  1 39 77 0.0729539493668161 0 528.0 0.0729539493668161 1
gene  1 77 8 3.3152654190796644 0 529.0 3.3152654190796644 1
genomeend 4
genomestart  5
trait 1 2.732431393943948 0.0 0.0 0.798512545900133 0.9382603138953756 0.0 1.9280392103089152 0.8152719799274877 
node 1 1 1 1
node 2 1 1 1
node 3 1 1 1
node 4 1 1 1
node 5 1 1 1
node 6 1 1 1
node 7 1 1 3
node 8 1 0 0
node 9 1 0 0
node 10 1 0 0
node 13 1 0 2
node 14 1 0 2
node 28 1 0 0
node 41 1 0 0
node 43 1 0 0
node 47 1 0 0
node 62 1 0 0
gene  1 1 8 -12.712514256786228 0 98.0 -12.712514256786228 1
gene  1 3 8 5.405280541214106 0 100.0 5.405280541214106 1
gene  1 5 8 -1.0795767687330904 0 102.0 -1.0795767687330904 1
gene  1 6 8 5.159574637486122 0 103.0 5.159574637486122 1
gene  1 8 8 2.5451010960687745 1 105.0 2.5451010960687745 1
gene  1 1 9 0.05763616540798494 0 112.0 0.05763616540798494 1
gene  1 2 9 1.813643238407806 0 113.0 1.813643238407806 1
gene  1 3 9 7.015439201348637 0 114.0 7.015439201348637 1
gene  1 5 9 -2.5103561427495 0 116.0 -2.5103561427495 1
gene  1 7 9 -6.930357338570354 0 118.0 -6.930357338570354 1
gene  1 9 9 -2.3326646932736295 1 120.0 -2.3326646932736295 1
gene  1 10 9 -2.2366511445997155 1 121.0 -2.2366511445997155 1
gene  1 13 9 10.575354988669783 1 124.0 10.575354988669783 1
gene  1 2 10 -3.1948254801506684 0 127.0 -3.1948254801506684 1
gene  1 4 10 -2.1967932221147755 0 129.0 -2.1967932221147755 1
gene  1 5 10 8.271792572452766 0 130.0 8.271792572452766 1
gene  1 8 10 7.65308671658708 0 133.0 7.65308671658708 1
gene  1 9 10 4.129008924635988 0 134.0 4.129008924635988 1
gene  1 10 10 -2.5581454583156527 1 135.0 -2.5581454583156527 1
gene  1 13 10 1.68740194642559 1 138.0 1.68740194642559 1
gene  1 14 10 -2.7567366636318904 1 139.0 -2.7567366636318904 1
gene  1 2 13 5.472269885769162 0 169.0 5.472269885769162 1
gene  1 3 13 1.7894201878593776 0 170.0 1.7894201878593776 1
gene  1 6 13 -3.6130155896992964 0 173.0 -3.6130155896992964 1
gene  1 7 13 1.0231641188346026 0 174.0 1.0231641188346026 1
gene  1 9 13 -2.6270928827666236 0 176.0 -2.6270928827666236 1
gene  1 13 13 1.743823426083632 1 180.0 1.743823426083632 1
gene  1 14 13 3.2627986344179343 1 181.0 3.2627986344179343 1
gene  1 1 14 -6.011036127787065 0 182.0 -6.011036127787065 1
gene  1 3 14 2.599788037888478 0 184.0 2.599788037888478 1
gene  1 9 14 2.911547588921124 0 190.0 2.911547588921124 1
gene  1 10 14 0.039790007557046814 0 191.0 0.039790007557046814 1
gene  1 8 13 -2.513095526435044 0 207.0 -2.513095526435044 1
gene  1 1 10 2.4037813786321154 0 226.0 2.4037813786321154 1
gene  1 6 14 -6.800568291854388 0 234.0 -6.800568291854388 1
gene  1 8 28 -2.4720039900768773 1 293.0 -2.4720039900768773 1
gene  1 28 8 -2.2149199464291125 0 294.0 -2.2149199464291125 1
gene  1 8 9 0.2652744519115702 0 328.0 0.2652744519115702 1
gene  1 8 41 1.133931196234832 1 357.0 1.133931196234832 1
gene  1 41 8 1.220246024368931 0 358.0 1.220246024368931 1
gene  1 14 43 0.5472422971977529 1 364.0 0.5472422971977529 1
gene  1 43 10 1.2571638481376768 0 365.0 1.2571638481376768 1
gene  1 5 47 -4.74534760425788 0 375.0 -4.74534760425788 1
gene  1 47 9 -2.111278558080984 0 376.0 -2.111278558080984 1
gene  1 41 14 0.7246485487567045 0 387.0 0.7246485487567045 1
gene  1 4 28 -2.983507784147274 0 419.0 -2.983507784147274 1
gene  1 2 28 -1.1468569117748966 0 429.0 -1.1468569117748966 1
gene  1 1 62 3.121542888286722 0 470.0 3.121542888286722 1
gene  1 62 9 -1.1008087851324637 0 471.0 -1.1008087851324637 1
gene  1 8 14 3.9990099109792263 0 484.0 3.9990099109792263 1
gene  1 1 13 2.4371923839160936 0 489.0 2.4371923839160936 1
gene  1 28 10 -1.6491405684096558 0 510.0 -1.6491405684096558 1
gene  1 2 41 -0.8396066403408322 0 515.0 -0.8396066403408322 1
gene  1 41 47 3.7507320143057195 0 548.0 3.7507320143057195 1
genomeend 5
genomestart  6
trait 1 2.732431393943948 0.0 0.0 0.5491018984548555 0.9382603138953756 0.0 1.9280392103089152 0.37201104222033987 
node 1 1 1 1
node 2 1 1 1
node 3 1 1 1
node 4 1 1 1
node 5 1 1 1
node 6 1 1 1
node 7 1 1 3
node 8 1 0 0
node 9 1 0 0
node 10 1 0 0
node 13 1 0 2
node 14 1 0 2
node 28 1 0 0
node 41 1 0 0
node 43 1 0 0
node 47 1 0 0
node 62 1 0 0
gene  1 1 8 -13.393424176490372 0 98.0 -13.393424176490372 1
gene  1 3 8 3.5912328144076655 0 100.0 3.5912328144076655 1
gene  1 5 8 -2.0139284763551797 0 102.0 -2.0139284763551797 1
gene  1 6 8 3.027049670367286 0 103.0 3.027049670367286 1
gene  1 8 8 1.3446356312560912 1 105.0 1.3446356312560912 1
gene  1 1 9 -0.3836348262761729 0 112.0 -0.3836348262761729 1
gene  1 2 9 3.2823099161588285 0 113.0 3.2823099161588285 1
gene  1 3 9 5.12972018940812 0 114.0 5.12972018940812 1
gene  1 5 9 -2.3148058549423367 0 116.0 -2.3148058549423367 1
gene  1 7 9 -5.470442649820561 0 118.0 -5.470442649820561 1
gene  1 9 9 -2.2991695576313713 1 120.0 -2.2991695576313713 1
gene  1 10 9 -0.8367881266560206 1 121.0 -0.8367881266560206 1
gene  1 13 9 10.78985636047463 1 124.0 10.78985636047463 1
gene  1 2 10 -3.8893778421924736 0 127.0 -3.8893778421924736 1
gene  1 4 10 -0.7684244564375876 0 129.0 -0.7684244564375876 1
gene  1 5 10 6.511407576408057 0 130.0 6.511407576408057 1
gene  1 8 10 6.017390534967905 0 133.0 6.017390534967905 1
gene  1 9 10 6.552121209988411 0 134.0 6.552121209988411 1
gene  1 10 10 -3.1059942469923048 1 135.0 -3.1059942469923048 1
gene  1 13 10 1.2922155865967562 1 138.0 1.2922155865967562 1
gene  1 14 10 -1.7971265697966012 1 139.0 -1.7971265697966012 1
gene  1 2 13 3.6847516393933515 0 169.0 3.6847516393933515 1
gene  1 3 13 3.009458457250748 0 170.0 3.009458457250748 1
gene  1 6 13 -2.1812662048195017 0 173.0 -2.1812662048195017 1
gene  1 7 13 3.4818341586342445 0 174.0 3.4818341586342445 1
gene  1 9 13 -4.457423288257735 0 176.0 -4.457423288257735 1
gene  1 13 13 3.188483604608095 1 180.0 3.188483604608095 1
gene  1 14 13 4.960069105282323 1 181.0 4.960069105282323 1
gene  1 1 14 -3.880977624585976 0 182.0 -3.880977624585976 1
gene  1 3 14 1.430466958298536 0 184.0 1.430466958298536 1
gene  1 9 14 3.143682072365455 0 190.0 3.143682072365455 1
gene  1 10 14 0.17224079758462496 0 191.0 0.17224079758462496 1
gene  1 8 13 -0.6177445449950594 0 207.0 -0.6177445449950594 1
gene  1 1 10 3.75401123831194 0 226.0 3.75401123831194 1
gene  1 6 14 -4.615604204654078 0 234.0 -4.615604204654078 1
gene  1 8 28 -2.677650434568311 1 293.0 -2.677650434568311 1
gene  1 28 8 -4.494646919330965 0 294.0 -4.494646919330965 1
gene  1 8 9 1.2949866713887446 0 328.0 1.2949866713887446 1
gene  1 8 41 0.6499271793566017 1 357.0 0.6499271793566017 1
gene  1 41 8 0.7628268390327526 0 358.0 0.7628268390327526 1
gene  1 14 43 2.877480448313507 1 364.0 2.877480448313507 1
gene  1 43 10 2.70666981386709 0 365.0 2.70666981386709 1
gene  1 5 47 -2.7566576134881737 0 375.0 -2.7566576134881737 1
gene  1 47 9 -0.440912403269042 0 376.0 -0.440912403269042 1
gene  1 41 14 1.2456006834891744 0 387.0 1.2456006834891744 1
gene  1 4 28 -2.983507784147274 0 419.0 -2.983507784147274 1
gene  1 2 28 -1.1468569117748966 0 429.0 -1.1468569117748966 1
gene  1 1 62 4.082489785507802 0 470.0 4.082489785507802 1
gene  1 62 9 0.9133371072039398 0 471.0 0.9133371072039398 1
gene  1 8 14 1.6079667123596113 0 484.0 1.6079667123596113 1
gene  1 1 13 -1.0318601927747229 0 489.0 -1.0318601927747229 1
gene  1 28 10 -1.6491405684096558 0 510.0 -1.6491405684096558 1
gene  1 2 41 -2.839946510441255 0 515.0 -2.839946510441255 1
gene  1 41 47 3.7507320143057195 0 548.0 3.7507320143057195 1
genomeend 6
genomestart  7
trait 1 2.732431393943948 0.0 0.0 0.798512545900133 0.9382603138953756 0.0 1.9280392103089152 0.8152719799274877 
node 1 1 1 1
node 2 1 1 1
node 3 1 1 1
node 4 1 1 1
node 5 1 1 1
node 6 1 1 1
node 7 1 1 3
node 8 1 0 0
node 9 1 0 0
node 10 1 0 0
node 13 1 0 2
node 14 1 0 2
node 28 1 0 0
node 41 1 0 0
node 43 1 0 0
node 47 1 0 0
node 62 1 0 0
gene  1 1 8 -13.470204029579147 0 98.0 -13.470204029579147 1
gene  1 3 8 3.326572083060869 0 100.0 3.326572083060869 1
gene  1 5 8 -0.722433382648467 0 102.0 -0.722433382648467 1
gene  1 6 8 0.5999263686991627 0 103.0 0.5999263686991627 1
gene  1 8 8 2.6573869202323905 1 105.0 2.6573869202323905 1
gene  1 1 9 -1.267491312347755 0 112.0 -1.267491312347755 1
gene  1 2 9 5.2231970281689835 0 113.0 5.2231970281689835 1
gene  1 3 9 7.1785975389381065 0 114.0 7.1785975389381065 1
gene  1 5 9 -2.1701292572083615 0 116.0 -2.1701292572083615 1
gene  1 7 9 -3.1489168371831675 0 118.0 -3.1489168371831675 1
gene  1 9 9 0.0017242998370758933 1 120.0 0.0017242998370758933 1
gene  1 10 9 -0.07825628687593178 1 121.0 -0.07825628687593178 1
gene  1 13 9 13.233534469374849 1 124.0 13.233534469374849 1
gene  1 2 10 -4.619655031477899 0 127.0 -4.619655031477899 1
gene  1 4 10 -2.2466433088241606 0 129.0 -2.2466433088241606 1
gene  1 5 10 7.844556695015376 0 130.0 7.844556695015376 1
gene  1 8 10 5.676998510122809 0 133.0 5.676998510122809 1
gene  1 9 10 7.897957346640181 0 134.0 7.897957346640181 1
gene  1 10 10 -0.6178512910236278 1 135.0 -0.6178512910236278 1
gene  1 13 10 0.1451477966256618 1 138.0 0.1451477966256618 1
gene  1 14 10 -3.408956821829086 1 139.0 -3.408956821829086 1
gene  1 2 13 4.3903607060406 0 169.0 4.3903607060406 1
gene  1 3 13 1.6839955973998968 0 170.0 1.6839955973998968 1
gene  1 6 13 -4.609285345181496 0 173.0 -4.609285345181496 1
gene  1 7 13 5.137897528233359 0 174.0 5.137897528233359 1
gene  1 9 13 -6.048996289909037 0 176.0 -6.048996289909037 1
gene  1 13 13 4.029956047462335 1 180.0 4.029956047462335 1
gene  1 14 13 5.592109270886509 1 181.0 5.592109270886509 1
gene  1 1 14 -2.1696548314355466 0 182.0 -2.1696548314355466 1
gene  1 3 14 1.7904990790000082 0 184.0 1.7904990790000082 1
gene  1 9 14 4.460800603774163 0 190.0 4.460800603774163 1
gene  1 10 14 -1.5011554372342728 0 191.0 -1.5011554372342728 1
gene  1 8 13 -1.038279770211874 0 207.0 -1.038279770211874 1
gene  1 1 10 5.478017344752157 0 226.0 5.478017344752157 1
gene  1 6 14 -5.284944383057493 0 234.0 -5.284944383057493 1
gene  1 8 28 -4.936567901835428 1 293.0 -4.936567901835428 1
gene  1 28 8 -4.921958472491465 0 294.0 -4.921958472491465 1
gene  1 8 9 -0.9042870683678721 0 328.0 -0.9042870683678721 1
gene  1 8 41 -1.530036765684817 1 357.0 -1.530036765684817 1
gene  1 41 8 -0.8305195635667277 0 358.0 -0.8305195635667277 1
gene  1 14 43 1.7002588308329085 1 364.0 1.7002588308329085 1
gene  1 43 10 1.708248796396388 0 365.0 1.708248796396388 1
gene  1 5 47 -4.556212433030779 0 375.0 -4.556212433030779 1
gene  1 47 9 -1.085271794291709 0 376.0 -1.085271794291709 1
gene  1 41 14 3.380295253203079 0 387.0 3.380295253203079 1
gene  1 4 28 -5.446483629325739 0 419.0 -5.446483629325739 1
gene  1 2 28 -1.1468569117748966 0 429.0 -1.1468569117748966 1
gene  1 1 62 4.082489785507802 0 470.0 4.082489785507802 1
gene  1 62 9 0.9133371072039398 0 471.0 0.9133371072039398 1
gene  1 8 14 -1.2106595996543725 0 484.0 -1.2106595996543725 1
gene  1 1 13 -2.69951514858712 0 489.0 -2.69951514858712 1
gene  1 28 10 -3.1777574746258406 0 510.0 -3.1777574746258406 1
gene  1 2 41 -4.634817194497599 0 515.0 -4.634817194497599 1
gene  1 41 47 2.477997533896142 0 548.0 2.477997533896142 1
genomeend 7
genomestart  8
trait 1 2.732431393943948 0.0 0.0 0.798512545900133 0.9382603138953756 0.0 1.9280392103089152 0.8152719799274877 
node 1 1 1 1
node 2 1 1 1
node 3 1 1 1
node 4 1 1 1
node 5 1 1 1
node 6 1 1 1
node 7 1 1 3
node 8 1 0 0
node 9 1 0 0
node 10 1 0 0
node 13 1 0 2
node 14 1 0 2
node 28 1 0 0
node 41 1 0 0
node 43 1 0 0
node 47 1 0 0
node 62 1 0 0
gene  1 1 8 -13.393424176490372 0 98.0 -13.393424176490372 1
gene  1 3 8 3.5912328144076655 0 100.0 3.5912328144076655 1
gene  1 5 8 -2.0139284763551797 0 102.0 -2.0139284763551797 1
gene  1 6 8 3.027049670367286 0 103.0 3.027049670367286 1
gene  1 8 8 1.3446356312560912 1 105.0 1.3446356312560912 1
gene  1 1 9 -0.3836348262761729 0 112.0 -0.3836348262761729 1
gene  1 2 9 3.2823099161588285 0 113.0 3.2823099161588285 1
gene  1 3 9 5.12972018940812 0 114.0 5.12972018940812 1
gene  1 5 9 -2.3148058549423367 0 116.0 -2.3148058549423367 1
gene  1 7 9 -5.470442649820561 0 118.0 -5.470442649820561 1
gene  1 9 9 -2.2991695576313713 1 120.0 -2.2991695576313713 1
gene  1 10 9 -0.8367881266560206 1 121.0 -0.8367881266560206 1
gene  1 13 9 10.78985636047463 1 124.0 10.78985636047463 1
gene  1 2 10 -3.8893778421924736 0 127.0 -3.8893778421924736 1
gene  1 4 10 -0.7684244564375876 0 129.0 -0.7684244564375876 1
gene  1 5 10 6.511407576408057 0 130.0 6.511407576408057 1
gene  1 8 10 6.017390534967905 0 133.0 6.017390534967905 1
gene  1 9 10 6.552121209988411 0 134.0 6.552121209988411 1
gene  1 10 10 -3.1059942469923048 1 135.0 -3.1059942469923048 1
gene  1 13 10 1.2922155865967562 1 138.0 1.2922155865967562 1
gene  1 14 10 -1.7971265697966012 1 139.0 -1.7971265697966012 1
gene  1 2 13 3.6847516393933515 0 169.0 3.6847516393933515 1
gene  1 3 13 3.009458457250748 0 170.0 3.009458457250748 1
gene  1 6 13 -2.1812662048195017 0 173.0 -2.1812662048195017 1
gene  1 7 13 3.4818341586342445 0 174.0 3.4818341586342445 1
gene  1 9 13 -4.457423288257735 0 176.0 -4.457423288257735 1
gene  1 13 13 3.188483604608095 1 180.0 3.188483604608095 1
gene  1 14 13 4.960069105282323 1 181.0 4.960069105282323 1
gene  1 1 14 -3.880977624585976 0 182.0 -3.880977624585976 1
gene  1 3 14 1.430466958298536 0 184.0 1.430466958298536 1
gene  1 9 14 3.143682072365455 0 190.0 3.143682072365455 1
gene  1 10 14 0.17224079758462496 0 191.0 0.17224079758462496 1
gene  1 8 13 -0.6177445449950594 0 207.0 -0.6177445449950594 1
gene  1 1 10 3.75401123831194 0 226.0 3.75401123831194 1
gene  1 6 14 -4.615604204654078 0 234.0 -4.615604204654078 1
gene  1 8 28 -2.677650434568311 1 293.0 -2.677650434568311 1
gene  1 28 8 -4.494646919330965 0 294.0 -4.494646919330965 1
gene  1 8 9 1.2949866713887446 0 328.0 1.2949866713887446 1
gene  1 8 41 0.6499271793566017 1 357.0 0.6499271793566017 1
gene  1 41 8 0.7628268390327526 0 358.0 0.7628268390327526 1
gene  1 14 43 2.877480448313507 1 364.0 2.877480448313507 1
gene  1 43 10 2.70666981386709 0 365.0 2.70666981386709 1
gene  1 5 47 -2.7566576134881737 0 375.0 -2.7566576134881737 1
gene  1 47 9 -0.440912403269042 0 376.0 -0.440912403269042 1
gene  1 41 14 1.2456006834891744 0 387.0 1.2456006834891744 1
gene  1 4 28 -2.983507784147274 0 419.0 -2.983507784147274 1
gene  1 2 28 -1.1468569117748966 0 429.0 -1.1468569117748966 1
gene  1 1 62 4.082489785507802 0 470.0 4.082489785507802 1
gene  1 62 9 0.9133371072039398 0 471.0 0.9133371072039398 1
gene  1 8 14 1.6079667123596113 0 484.0 1.6079667123596113 1
gene  1 1 13 -1.0318601927747229 0 489.0 -1.0318601927747229 1
gene  1 28 10 -1.6491405684096558 0 510.0 -1.6491405684096558 1
gene  1 2 41 -2.839946510441255 0 515.0 -2.839946510441255 1
gene  1 41 47 3.7507320143057195 0 548.0 3.7507320143057195 1
genomeend 8
genomestart  9
trait 1 2.732431393943948 0.0 0.0 0.798512545900133 0.9382603138953756 0.0 1.9280392103089152 0.8152719799274877 
node 1 1 1 1
node 2 1 1 1
node 3 1 1 1
node 4 1 1 1
node 5 1 1 1
node 6 1 1 1
node 7 1 1 3
node 8 1 0 0
node 9 1 0 0
node 10 1 0 0
node 13 1 0 2
node 14 1 0 2
node 28 1 0 0
node 41 1 0 0
node 43 1 0 0
node 47 1 0 0
node 62 1 0 0
gene  1 1 8 -13.641292975521615 0 98.0 -13.641292975521615 1
gene  1 3 8 5.96992598119288 0 100.0 5.96992598119288 1
gene  1 5 8 -1.0362666976565187 0 102.0 -1.0362666976565187 1
gene  1 6 8 3.891309301468018 0 103.0 3.891309301468018 1
gene  1 8 8 1.8469485724415957 1 105.0 1.8469485724415957 1
gene  1 1 9 1.8674722243232182 0 112.0 1.8674722243232182 1
gene  1 2 9 1.5380110776660039 0 113.0 1.5380110776660039 1
gene  1 3 9 4.577656833829382 0 114.0 4.577656833829382 1
gene  1 5 9 0.08366210980289912 0 116.0 0.08366210980289912 1
gene  1 7 9 -4.649041771143498 0 118.0 -4.649041771143498 1
gene  1 9 9 -0.14622892221494155 1 120.0 -0.14622892221494155 1
gene  1 10 9 0.8199677043734477 1 121.0 0.8199677043734477 1
gene  1 13 9 9.094862039451044 1 124.0 9.094862039451044 1
gene  1 2 10 -2.357768467921479 0 127.0 -2.357768467921479 1
gene  1 4 10 -1.8309263701929872 0 129.0 -1.8309263701929872 1
gene  1 5 10 5.379120010723538 0 130.0 5.379120010723538 1
gene  1 8 10 5.099360649551897 0 133.0 5.099360649551897 1
gene  1 9 10 4.406153743879749 0 134.0 4.406153743879749 1
gene  1 10 10 -3.838695453254566 1 135.0 -3.838695453254566 1
gene  1 13 10 1.1935918351622463 1 138.0 1.1935918351622463 1
gene  1 14 10 -1.4520909005157 1 139.0 -1.4520909005157 1
gene  1 2 13 3.889601744769517 0 169.0 3.889601744769517 1
gene  1 3 13 1.1318177001775984 0 170.0 1.1318177001775984 1
gene  1 6 13 0.18843839963078235 0 173.0 0.18843839963078235 1
gene  1 7 13 3.575380672346805 0 174.0 3.575380672346805 1
gene  1 9 13 -5.640521912777221 0 176.0 -5.640521912777221 1
gene  1 13 13 1.6762818760497973 1 180.0 1.6762818760497973 1
gene  1 14 13 2.927241550837532 1 181.0 2.927241550837532 1
gene  1 1 14 -2.937655669779294 0 182.0 -2.937655669779294 1
gene  1 3 14 -0.8390627533024668 0 184.0 -0.8390627533024668 1
gene  1 9 14 2.229637402513254 0 190.0 2.229637402513254 1
gene  1 10 14 2.395582067379466 0 191.0 2.395582067379466 1
gene  1 8 13 -2.058456683134417 0 207.0 -2.058456683134417 1
gene  1 1 10 1.6969858324018143 0 226.0 1.6969858324018143 1
gene  1 6 14 -2.2486258194564352 0 234.0 -2.2486258194564352 1
gene  1 8 28 -4.655958610253972 1 293.0 -4.655958610253972 1
gene  1 28 8 -5.277068527920158 0 294.0 -5.277068527920158 1
gene  1 8 9 1.8419754258633667 0 328.0 1.8419754258633667 1
gene  1 8 41 -0.7612752913213796 1 357.0 -0.7612752913213796 1
gene  1 41 8 2.178287792466058 0 358.0 2.178287792466058 1
gene  1 14 43 0.6434779911432247 1 364.0 0.6434779911432247 1
gene  1 43 10 2.1948462586910313 0 365.0 2.1948462586910313 1
gene  1 5 47 -0.8607689231962545 0 375.0 -0.8607689231962545 1
gene  1 47 9 -1.2525332109506286 0 376.0 -1.2525332109506286 1
gene  1 41 14 2.873175846041538 0 387.0 2.873175846041538 1
gene  1 4 28 1.0778834503985213 0 419.0 1.0778834503985213 1
gene  1 2 28 -1.1468569117748966 0 429.0 -1.1468569117748966 1
gene  1 1 62 4.082489785507802 0 470.0 4.082489785507802 1
gene  1 62 9 -0.39672170588541267 0 471.0 -0.39672170588541267 1
gene  1 8 14 -0.4003744001674907 0 484.0 -0.4003744001674907 1
gene  1 1 13 -1.0318601927747229 0 489.0 -1.0318601927747229 1
gene  1 28 10 -1.4708127368724866 0 510.0 -1.4708127368724866 1
gene  1 2 41 -2.839946510441255 0 515.0 -2.839946510441255 1
gene  1 41 47 3.7379466164062527 0 548.0 3.7379466164062527 1
genomeend 9
genomestart  10
trait 1 1.0196578134443977 0.7502223240297183 0.0 0.19410325956016972 3.1752136023158166 0.0 0.826280999839004 1.190943612630714 
node 1 1 1 1
node 2 1 1 1
node 3 1 1 1
node 4 1 1 1
node 5 1 1 1
node 6 1 1 1
node 7 1 1 3
node 8 1 0 0
node 13 1 0 2
node 14 1 0 2
node 22 1 0 0
node 25 1 0 0
node 29 1 0 0
node 57 1 0 0
node 65 1 0 0
node 76 1 0 0
node 87 1 0 0
gene  1 1 8 -2.398472194754194 0 98.0 -2.398472194754194 1
gene  1 3 8 -2.1184516326614955 0 100.0 -2.1184516326614955 1
gene  1 4 8 -7.442678638035062 0 101.0 -7.442678638035062 1
gene  1 5 8 -4.583185636647279 0 102.0 -4.583185636647279 1
gene  1 6 8 0.31616883370213755 0 103.0 0.31616883370213755 1
gene  1 8 8 -11.990391446413115 1 105.0 -11.990391446413115 1
gene  1 1 13 0.5838883294516626 0 168.0 0.5838883294516626 1
gene  1 5 13 0.9512600769994544 0 172.0 0.9512600769994544 1
gene  1 13 13 0.7881831893622497 1 180.0 0.7881831893622497 1
gene  1 14 13 -7.039447678043853 1 181.0 -7.039447678043853 1
gene  1 2 14 -0.7498048183398867 0 183.0 -0.7498048183398867 1
gene  1 3 14 0.2644231594677493 0 184.0 0.2644231594677493 1
gene  1 5 14 -2.0260313839644772 0 186.0 -2.0260313839644772 1
gene  1 7 14 -1.7063067241371512 0 188.0 -1.7063067241371512 1
gene  1 8 14 0.26738127616073615 0 189.0 0.26738127616073615 1
gene  1 13 14 0.15375422746204265 0 194.0 0.15375422746204265 1
gene  1 2 13 -3.086417088053122 0 236.0 -3.086417088053122 1
gene  1 8 22 -3.2900839479535167 0 240.0 -3.2900839479535167 1
gene  1 22 14 -1.8931986781469181 0 241.0 -1.8931986781469181 1
gene  1 1 22 0.3575412113133034 0 245.0 0.3575412113133034 1
gene  1 13 8 0.09892338645523846 0 257.0 0.09892338645523846 1
gene  1 5 22 0.6475304460641582 0 265.0 0.6475304460641582 1
gene  1 1 25 1.0711442246776335 0 279.0 1.0711442246776335 1
gene  1 25 8 -6.294186216334088 0 280.0 -6.294186216334088 1
gene  1 8 29 3.3870488514109702 0 297.0 3.3870488514109702 1
gene  1 29 14 -11.31765342399494 0 298.0 -11.31765342399494 1
gene  1 1 14 0.49142177191489944 0 312.0 0.49142177191489944 1
gene  1 2 29 -2.402997630839929 0 330.0 -2.402997630839929 1
gene  1 5 25 4.27219038491288 0 343.0 4.27219038491288 1
gene  1 6 29 -3.436962617980541 0 386.0 -3.436962617980541 1
gene  1 22 29 -2.6651180569285304 0 416.0 -2.6651180569285304 1
gene  1 4 14 -0.3306285834502971 0 424.0 -0.3306285834502971 1
gene  1 4 29 0.27495218801049837 0 432.0 0.27495218801049837 1
gene  1 8 57 -2.5609471776262565 0 437.0 -2.5609471776262565 1
gene  1 57 14 -0.8286378583022824 0 438.0 -0.8286378583022824 1
gene  1 3 22 -4.374905760748882 0 440.0 -4.374905760748882 1
gene  1 2 25 -1.3524677019940285 0 455.0 -1.3524677019940285 1
gene  1 1 65 -0.007258546978765601 0 481.0 -0.007258546978765601 1
gene  1 65 25 2.5938041414794606 0 482.0 2.5938041414794606 1
gene  1 8 76 1.2126246804275989 0 525.0 1.2126246804275989 1
gene  1 76 22 -2.36199974176766 0 526.0 -2.36199974176766 1
gene  1 2 87 -0.2576457713652833 0 560.0 -0.2576457713652833 1
gene  1 87 14 -4.321340473773806 0 561.0 -4.321340473773806 1
genomeend 10
genomestart  11
trait 1 1.0196578134443977 0.7502223240297183 0.0 0.19410325956016972 3.1752136023158166 0.0 0.826280999839004 1.190943612630714 
node 1 1 1 1
node 2 1 1 1
node 3 1 1 1
node 4 1 1 1
node 5 1 1 1
node 6 1 1 1
node 7 1 1 3
node 8 1 0 0
node 13 1 0 2
node 14 1 0 2
node 22 1 0 0
node 25 1 0 0
node 29 1 0 0
node 57 1 0 0
node 65 1 0 0
node 76 1 0 0
node 87 1 0 0
gene  1 1 8 -4.762246582299413 0 98.0 -4.762246582299413 1
gene  1 3 8 0.5307254752772221 0 100.0 0.5307254752772221 1
gene  1 4 8 -12.049854472379204 0 101.0 -12.049854472379204 1
gene  1 5 8 -5.360239759532005 0 102.0 -5.360239759532005 1
gene  1 6 8 -1.596720822085759 0 103.0 -1.596720822085759 1
gene  1 8 8 -10.900086395593057 1 105.0 -10.900086395593057 1
gene  1 1 13 2.537488575914132 0 168.0 2.537488575914132 1
gene  1 5 13 -1.4057172515872685 0 172.0 -1.4057172515872685 1
gene  1 13 13 2.650486818209717 1 180.0 2.650486818209717 1
gene  1 14 13 -7.801919510625253 1 181.0 -7.801919510625253 1
gene  1 2 14 1.7031855151676925 0 183.0 1.7031855151676925 1
gene  1 3 14 -3.5248642408207216 0 184.0 -3.5248642408207216 1
gene  1 5 14 -3.661243175524681 0 186.0 -3.661243175524681 1
gene  1 7 14 -1.6613520192891758 0 188.0 -1.6613520192891758 1
gene  1 8 14 -2.406873059450447 0 189.0 -2.406873059450447 1
gene  1 13 14 0.3063269764118959 0 194.0 0.3063269764118959 1
gene  1 2 13 -2.9274208186927018 0 236.0 -2.9274208186927018 1
gene  1 8 22 -5.914977381368532 0 240.0 -5.914977381368532 1
gene  1 22 14 -0.28670238108629925 0 241.0 -0.28670238108629925 1
gene  1 1 22 -0.9646995598835726 0 245.0 -0.9646995598835726 1
gene  1 13 8 2.4553679628445604 0 257.0 2.4553679628445604 1
gene  1 5 22 -0.9431187393388916 0 265.0 -0.9431187393388916 1
gene  1 1 25 -0.6707163720795908 0 279.0 -0.6707163720795908 1
gene  1 25 8 -5.353245584858875 0 280.0 -5.353245584858875 1
gene  1 8 29 0.8193969890886013 0 297.0 0.8193969890886013 1
gene  1 29 14 -11.446337329769062 0 298.0 -11.446337329769062 1
gene  1 1 14 -1.8907541056400292 0 312.0 -1.8907541056400292 1
gene  1 2 29 -3.9521641850350813 0 330.0 -3.9521641850350813 1
gene  1 5 25 -0.11394493936003647 0 343.0 -0.11394493936003647 1
gene  1 6 29 -1.6066024232929057 0 386.0 -1.6066024232929057 1
gene  1 22 29 -1.3998941588308087 0 416.0 -1.3998941588308087 1
gene  1 4 14 -1.232508901598242 0 424.0 -1.232508901598242 1
gene  1 4 29 0.752791783383931 0 432.0 0.752791783383931 1
gene  1 8 57 -4.124345813649208 0 437.0 -4.124345813649208 1
gene  1 57 14 -0.13949333649568274 0 438.0 -0.13949333649568274 1
gene  1 3 22 -2.3475777158113695 0 440.0 -2.3475777158113695 1
gene  1 2 25 -3.0424852374114826 0 455.0 -3.0424852374114826 1
gene  1 1 65 1.3175907408153646 0 481.0 1.3175907408153646 1
gene  1 65 25 2.7550734470996243 0 482.0 2.7550734470996243 1
gene  1 8 76 0.8949655714178256 0 525.0 0.8949655714178256 1
gene  1 76 22 -4.509647366134804 0 526.0 -4.509647366134804 1
gene  1 2 87 0.6474938294918298 0 560.0 0.6474938294918298 1
gene  1 87 14 -3.2151980894119205 0 561.0 -3.2151980894119205 1
genomeend 11
genomestart  12
trait 1 1.9492969961009945 0.0 0.4289699328456915 1.1835456827051778 0.0 0.7294252873384013 0.042201429445747896 0.0 
node 1 1 1 1
node 2 1 1 1
node 3 1 1 1
node 4 1 1 1
node 5 1 1 1
node 6 1 1 1
node 7 1 1 3
node 13 1 0 2
node 14 1 0 2
node 49 1 0 0
node 73 1 0 0
node 81 1 0 0
gene  1 1 13 -11.342911667333858 0 168.0 -11.342911667333858 1
gene  1 2 13 -10.12332224889865 0 169.0 -10.12332224889865 1
gene  1 3 13 -2.923038993295294 0 170.0 -2.923038993295294 1
gene  1 4 13 0.47420316719141686 0 171.0 0.47420316719141686 1
gene  1 5 13 0.3495349195828399 0 172.0 0.3495349195828399 1
gene  1 6 13 6.0322207333878115 0 173.0 6.0322207333878115 1
gene  1 7 13 -0.21882256588648813 0 174.0 -0.21882256588648813 1
gene  1 14 13 3.821602570028051 1 181.0 3.821602570028051 1
gene  1 1 14 1.4715031777515106 0 182.0 1.4715031777515106 1
gene  1 2 14 -0.2914522982170893 0 183.0 -0.2914522982170893 1
gene  1 3 14 -1.5068315225368136 0 184.0 -1.5068315225368136 1
gene  1 13 14 -0.21024639851662724 0 194.0 -0.21024639851662724 1
gene  1 14 14 1.8351459762352684 1 195.0 1.8351459762352684 1
gene  1 7 14 -1.0298667004791042 0 273.0 -1.0298667004791042 1
gene  1 4 14 -0.6004801856292956 0 283.0 -0.6004801856292956 1
gene  1 5 14 1.115191870313411 0 303.0 1.115191870313411 1
gene  1 6 14 1.1451853724719636 0 307.0 1.1451853724719636 1
gene  1 3 49 1.7831550593311918 0 389.0 1.7831550593311918 1
gene  1 49 13 -0.7169162100120827 0 390.0 -0.7169162100120827 1
gene  1 5 49 3.320228796877229 0 403.0 3.320228796877229 1
gene  1 1 49 0.865023051652416 0 430.0 0.865023051652416 1
gene  1 7 49 -2.7784989251675736 0 456.0 -2.7784989251675736 1
gene  1 4 49 0.05437494208196192 0 495.0 0.05437494208196192 1
gene  1 6 73 -4.549782929815128 0 508.0 -4.549782929815128 1
gene  1 73 13 -1.033644881428989 0 509.0 -1.033644881428989 1
gene  1 6 81 -0.983479169889227 0 542.0 -0.983479169889227 1
gene  1 81 73 -2.899672824222211 0 543.0 -2.899672824222211 1
gene  1 81 49 1.2004915857020402 0 569.0 1.2004915857020402 1
genomeend 12
genomestart  13
trait 1 1.9492969961009945 0.0 0.4289699328456915 1.1835456827051778 0.0 0.7294252873384013 0.042201429445747896 0.0 
node 1 1 1 1
node 2 1 1 1
node 3 1 1 1
node 4 1 1 1
node 5 1 1 1
node 6 1 1 1
node 7 1 1 3
node 13 1 0 2
node 14 1 0 2
node 49 1 0 0
node 73 1 0 0
node 81 1 0 0
gene  1 1 13 -7.2355107752853005 0 168.0 -7.2355107752853005 1
gene  1 2 13 -13.46736814339356 0 169.0 -13.46736814339356 1
gene  1 3 13 0.9455238440853468 0 170.0 0.9455238440853468 1
gene  1 4 13 0.39008785992005635 0 171.0 0.39008785992005635 1
gene  1 5 13 -1.8267662110793776 0 172.0 -1.8267662110793776 1
gene  1 6 13 3.039575193911422 0 173.0 3.039575193911422 1
gene  1 7 13 -1.6174197757270503 0 174.0 -1.6174197757270503 1
gene  1 14 13 3.6313023065554826 1 181.0 3.6313023065554826 1
gene  1 1 14 1.0671926947543364 0 182.0 1.0671926947543364 1
gene  1 2 14 -1.2114930146397695 0 183.0 -1.2114930146397695 1
gene  1 3 14 -0.17549529820473975 0 184.0 -0.17549529820473975 1
gene  1 13 14 -0.8208500528052207 0 194.0 -0.8208500528052207 1
gene  1 14 14 0.5628711115237768 1 195.0 0.5628711115237768 1
gene  1 7 14 2.026787105692832 0 273.0 2.026787105692832 1
gene  1 4 14 -0.6950946210567959 0 283.0 -0.6950946210567959 1
gene  1 5 14 -1.2136092859206102 0 303.0 -1.2136092859206102 1
gene  1 6 14 -0.2758857474361298 0 307.0 -0.2758857474361298 1
gene  1 3 49 3.4643633029498604 0 389.0 3.4643633029498604 1
gene  1 49 13 -1.8383002326250442 0 390.0 -1.8383002326250442 1
gene  1 5 49 5.288830297376413 0 403.0 5.288830297376413 1
gene  1 1 49 0.41952812109511817 0 430.0 0.41952812109511817 1
gene  1 7 49 -1.6489630804479045 0 456.0 -1.6489630804479045 1
gene  1 4 49 0.7947098841598625 0 495.0 0.7947098841598625 1
gene  1 6 73 -5.9256921996647645 0 508.0 -5.9256921996647645 1
gene  1 73 13 -1.033644881428989 0 509.0 -1.033644881428989 1
gene  1 6 81 3.5409100894317733 0 542.0 3.5409100894317733 1
gene  1 81 73 -0.34101400686242345 0 543.0 -0.34101400686242345 1
gene  1 81 49 -0.728544332822787 0 569.0 -0.728544332822787 1
genomeend 13
genomestart  14
trait 1 1.9492969961009945 0.0 0.4289699328456915 1.1835456827051778 0.0 0.7294252873384013 0.042201429445747896 0.0 
node 1 1 1 1
node 2 1 1 1
node 3 1 1 1
node 4 1 1 1
node 5 1 1 1
node 6 1 1 1
node 7 1 1 3
node 13 1 0 2
node 14 1 0 2
node 49 1 0 0
node 73 1 0 0
node 81 1 0 0
gene  1 1 13 -7.49929866907658 0 168.0 -7.49929866907658 1
gene  1 2 13 -10.317604899659376 0 169.0 -10.317604899659376 1
gene  1 3 13 -1.951665360847756 0 170.0 -1.951665360847756 1
gene  1 4 13 -1.8676091039120826 0 171.0 -1.8676091039120826 1
gene  1 5 13 2.0730909827428654 0 172.0 2.0730909827428654 1
gene  1 6 13 5.945880088849091 0 173.0 5.945880088849091 1
gene  1 7 13 0.38595766216473565 0 174.0 0.38595766216473565 1
gene  1 14 13 2.4895607634646266 1 181.0 2.4895607634646266 1
gene  1 1 14 2.552611015575296 0 182.0 2.552611015575296 1
gene  1 2 14 3.146852130231996 0 183.0 3.146852130231996 1
gene  1 3 14 -1.2136059293084982 0 184.0 -1.2136059293084982 1
gene  1 13 14 0.8427783890787897 0 194.0 0.8427783890787897 1
gene  1 14 14 -0.30860542413741854 1 195.0 -0.30860542413741854 1
gene  1 7 14 1.0229087881327685 0 273.0 1.0229087881327685 1
gene  1 4 14 -2.148371318912985 0 283.0 -2.148371318912985 1
gene  1 5 14 -1.5592180490063878 0 303.0 -1.5592180490063878 1
gene  1 6 14 -1.9638797802379973 0 307.0 -1.9638797802379973 1
gene  1 3 49 -0.2638379341473003 0 389.0 -0.2638379341473003 1
gene  1 49 13 -4.367601751472552 0 390.0 -4.367601751472552 1
gene  1 5 49 5.121977727316792 0 403.0 5.121977727316792 1
gene  1 1 49 -0.9967092119524574 0 430.0 -0.9967092119524574 1
gene  1 7 49 -2.763284455219604 0 456.0 -2.763284455219604 1
gene  1 4 49 0.1408536158510758 0 495.0 0.1408536158510758 1
gene  1 6 73 -5.9256921996647645 0 508.0 -5.9256921996647645 1
gene  1 73 13 -1.4365565680200565 0 509.0 -1.4365565680200565 1
gene  1 6 81 2.510955332470476 0 542.0 2.510955332470476 1
gene  1 81 73 -1.9069892032722864 0 543.0 -1.9069892032722864 1
gene  1 81 49 -2.039571285032456 0 569.0 -2.039571285032456 1
genomeend 14
genomestart  15
trait 1 0.0 0.5319433208524987 1.2381570377802138 1.1036226464327767 0.10522835245191364 0.39032959932087685 0.0 0.0 
node 1 1 1 1
node 2 1 1 1
node 3 1 1 1
node 4 1 1 1
node 5 1 1 1
node 6 1 1 1
node 7 1 1 3
node 8 1 0 0
node 9 1 0 0
node 13 1 0 2
node 14 1 0 2
node 20 1 0 0
node 56 1 0 0
node 60 1 0 0
node 79 1 0 0
node 92 1 0 0
node 94 1 0 0
node 97 1 0 0
node 98 1 0 0
gene  1 1 8 -6.015118941880573 0 98.0 -6.015118941880573 1
gene  1 2 8 -3.06082634776008 0 99.0 -3.06082634776008 1
gene  1 3 8 -2.6970538769574484 0 100.0 -2.6970538769574484 1
gene  1 6 8 0.16918128135444643 0 103.0 0.16918128135444643 1
gene  1 8 8 -4.428243640658124 1 105.0 -4.428243640658124 1
gene  1 9 8 -4.977640616765127 1 106.0 -4.977640616765127 1
gene  1 13 8 -3.843902751661165 1 110.0 -3.843902751661165 0
gene  1 14 8 -0.7006663856316332 1 111.0 -0.7006663856316332 1
gene  1 1 9 5.726878269709826 0 112.0 5.726878269709826 1
gene  1 4 9 1.3329204770540015 0 115.0 1.3329204770540015 1
gene  1 5 9 -0.3221102802783704 0 116.0 -0.3221102802783704 1
gene  1 7 9 -0.5602907590911468 0 118.0 -0.5602907590911468 1
gene  1 9 9 3.116768436309049 1 120.0 3.116768436309049 1
gene  1 14 9 2.2308562252509483 1 125.0 2.2308562252509483 1
gene  1 2 13 4.894909126501412 0 169.0 4.894909126501412 1
gene  1 5 13 -0.35344628314659055 0 172.0 -0.35344628314659055 1
gene  1 8 13 2.1168476585683473 0 175.0 2.1168476585683473 1
gene  1 1 14 -4.131035823787524 0 182.0 -4.131035823787524 1
gene  1 2 14 -3.9752744831592626 0 183.0 -3.9752744831592626 1
gene  1 3 14 2.529228564648712 0 184.0 2.529228564648712 1
gene  1 6 14 -1.0373799382209121 0 187.0 -1.0373799382209121 1
gene  1 13 14 0.9491837222982986 0 194.0 0.9491837222982986 1
gene  1 14 14 4.360159890928874 1 195.0 4.360159890928874 1
gene  1 5 8 3.7996097033027096 0 202.0 3.7996097033027096 1
gene  1 4 13 1.7512140506541876 0 220.0 1.7512140506541876 1
gene  1 1 20 1.5312061369775023 0 231.0 1.5312061369775023 1
gene  1 20 14 4.634001358592734 0 232.0 4.634001358592734 1
gene  1 1 13 -0.48002729862778604 0 329.0 -0.48002729862778604 1
gene  1 13 20 -7.463963293533977 0 337.0 -7.463963293533977 1
gene  1 4 20 -1.4334439975056503 0 339.0 -1.4334439975056503 1
gene  1 9 8 -0.9250957599996799 0 404.0 -0.9250957599996799 1
gene  1 8 14 1.7998260142852895 0 410.0 1.7998260142852895 1
gene  1 5 56 -2.080594004389592 0 434.0 -2.080594004389592 1
gene  1 56 8 -4.5626060173570755 0 435.0 -4.5626060173570755 1
gene  1 2 9 -1.7936588840089784 0 448.0 -1.7936588840089784 1
gene  1 3 60 2.153002552025223 0 458.0 2.153002552025223 1
gene  1 60 8 3.6993673503570936 0 459.0 3.6993673503570936 1
gene  1 1 60 -3.346613502480804 0 479.0 -3.346613502480804 1
gene  1 7 56 2.3175301299133384 0 520.0 2.3175301299133384 1
gene  1 13 79 -4.047844058262966 0 537.0 -4.047844058262966 1
gene  1 79 20 -3.110466096807916 0 538.0 -3.110466096807916 1
gene  1 3 79 1.4217547868363958 0 556.0 1.4217547868363958 1
gene  1 5 92 0.4582652466187026 0 575.0 0.4582652466187026 1
gene  1 92 13 -5.8378779594661045 0 576.0 -5.8378779594661045 1
gene  1 14 94 1.5774871395317838 1 582.0 1.5774871395317838 1
gene  1 94 8 -0.8169995553253842 0 583.0 -0.8169995553253842 1
gene  1 13 97 1.8868181670766946 1 593.0 1.8868181670766946 1
gene  1 97 8 0.4194506408820692 0 594.0 0.4194506408820692 1
gene  1 9 56 3.78187503630215 0 596.0 3.78187503630215 1
gene  1 13 98 1.0 1 597.0 0.0 1
gene  1 98 8 -3.843902751661165 0 598.0 0.0 1
genomeend 15
genomestart  16
trait 1 0.0 0.5319433208524987 1.2381570377802138 1.1036226464327767 0.10522835245191364 0.39032959932087685 0.0 0.0 
node 1 1 1 1
node 2 1 1 1
node 3 1 1 1
node 4 1 1 1
node 5 1 1 1
node 6 1 1 1
node 7 1 1 3
node 8 1 0 0
node 9 1 0 0
node 13 1 0 2
node 14 1 0 2
node 20 1 0 0
node 56 1 0 0
node 60 1 0 0
node 79 1 0 0
node 92 1 0 0
node 94 1 0 0
node 97 1 0 0
gene  1 1 8 -5.126852220849339 0 98.0 -5.126852220849339 1
gene  1 2 8 -3.1746605931622582 0 99.0 -3.1746605931622582 1
gene  1 3 8 -2.61861025915724 0 100.0 -2.61861025915724 1
gene  1 6 8 2.6315306197027186 0 103.0 2.6315306197027186 1
gene  1 8 8 0.48876775502914943 1 105.0 0.48876775502914943 1
gene  1 9 8 -5.266692127556532 1 106.0 -5.266692127556532 1
gene  1 13 8 -5.954967799976412 1 110.0 -5.954967799976412 1
gene  1 14 8 -0.7006663856316332 1 111.0 -0.7006663856316332 1
gene  1 1 9 3.5624144916520613 0 112.0 3.5624144916520613 1
gene  1 4 9 -0.9414410683438468 0 115.0 -0.9414410683438468 1
gene  1 5 9 -0.4799133606339312 0 116.0 -0.4799133606339312 1
gene  1 7 9 -2.397920050991847 0 118.0 -2.397920050991847 1
gene  1 9 9 2.1267631038192674 1 120.0 2.1267631038192674 1
gene  1 14 9 -0.07160722911872197 1 125.0 -0.07160722911872197 1
gene  1 2 13 5.2536034873649005 0 169.0 5.2536034873649005 1
gene  1 5 13 -2.825535149664329 0 172.0 -2.825535149664329 1
gene  1 8 13 -0.6048696219508778 0 175.0 -0.6048696219508778 1
gene  1 1 14 -4.951939360802473 0 182.0 -4.951939360802473 1
gene  1 2 14 2.373497632736991 0 183.0 2.373497632736991 1
gene  1 3 14 0.5629650983346324 0 184.0 0.5629650983346324 1
gene  1 6 14 -1.38731096553667 0 187.0 -1.38731096553667 1
gene  1 13 14 1.5286187646523313 0 194.0 1.5286187646523313 1
gene  1 14 14 4.418586654079847 1 195.0 4.418586654079847 1
gene  1 5 8 4.757680245551956 0 202.0 4.757680245551956 1
gene  1 4 13 1.3507089752445103 0 220.0 1.3507089752445103 1
gene  1 1 20 1.8309622095878655 0 231.0 1.8309622095878655 1
gene  1 20 14 2.114984319243487 0 232.0 2.114984319243487 1
gene  1 1 13 1.9099194388546035 0 329.0 1.9099194388546035 1
gene  1 13 20 -6.849363435352916 0 337.0 -6.849363435352916 1
gene  1 4 20 -1.8442676292043818 0 339.0 -1.8442676292043818 1
gene  1 9 8 -3.212939690763311 0 404.0 -3.212939690763311 1
gene  1 8 14 0.4561481308685098 0 410.0 0.4561481308685098 1
gene  1 5 56 0.004116894771553081 0 434.0 0.004116894771553081 1
gene  1 56 8 -4.3083291711247895 0 435.0 -4.3083291711247895 1
gene  1 2 9 -2.5246343915178873 0 448.0 -2.5246343915178873 1
gene  1 3 60 2.153002552025223 0 458.0 2.153002552025223 1
gene  1 60 8 0.39926193406554983 0 459.0 0.39926193406554983 1
gene  1 1 60 -3.346613502480804 0 479.0 -3.346613502480804 1
gene  1 7 56 0.7534500760465916 0 520.0 0.7534500760465916 1
gene  1 13 79 -6.094694270714865 0 537.0 -6.094694270714865 1
gene  1 79 20 -2.372864789791869 0 538.0 -2.372864789791869 1
gene  1 3 79 3.4349978793701705 0 556.0 3.4349978793701705 1
gene  1 5 92 -1.3982930623943965 0 575.0 -1.3982930623943965 1
gene  1 92 13 -4.575690250229708 0 576.0 -4.575690250229708 1
gene  1 14 94 3.9954528990876623 1 582.0 3.9954528990876623 1
gene  1 94 8 -1.9966768205202545 0 583.0 -1.9966768205202545 1
gene  1 13 97 0.373662834757551 1 593.0 0.373662834757551 1
gene  1 97 8 0.4194506408820692 0 594.0 0.4194506408820692 1
gene  1 9 56 -0.32436190494907147 0 596.0 -0.32436190494907147 1
genomeend 16
genomestart  17
trait 1 0.0 0.0 1.2381570377802138 1.1036226464327767 0.10522835245191364 0.0 0.0 0.0 
node 1 1 1 1
node 2 1 1 1
node 3 1 1 1
node 4 1 1 1
node 5 1 1 1
node 6 1 1 1
node 7 1 1 3
node 8 1 0 0
node 9 1 0 0
node 13 1 0 2
node 14 1 0 2
node 20 1 0 0
node 56 1 0 0
node 60 1 0 0
node 79 1 0 0
node 92 1 0 0
node 94 1 0 0
node 97 1 0 0
gene  1 1 8 -7.996866630722736 0 98.0 -7.996866630722736 1
gene  1 2 8 -4.133477728411814 0 99.0 -4.133477728411814 1
gene  1 3 8 -3.9824066668381706 0 100.0 -3.9824066668381706 1
gene  1 6 8 -1.5302103856533729 0 103.0 -1.5302103856533729 1
gene  1 8 8 -3.8149719190260534 1 105.0 -3.8149719190260534 1
gene  1 9 8 -6.4059023985273305 1 106.0 -6.4059023985273305 1
gene  1 13 8 -2.808775230502691 1 110.0 -2.808775230502691 1
gene  1 14 8 -2.6878612887804576 1 111.0 -2.6878612887804576 1
gene  1 1 9 5.820310630472146 0 112.0 5.820310630472146 1
gene  1 4 9 0.051423940109103006 0 115.0 0.051423940109103006 1
gene  1 5 9 -2.396269547554563 0 116.0 -2.396269547554563 1
gene  1 7 9 1.744823457683782 0 118.0 1.744823457683782 1
gene  1 9 9 3.272022164790593 1 120.0 3.272022164790593 1
gene  1 14 9 1.2239652010550597 1 125.0 1.2239652010550597 1
gene  1 2 13 4.724873148132813 0 169.0 4.724873148132813 1
gene  1 5 13 -2.6238482727841186 0 172.0 -2.6238482727841186 1
gene  1 8 13 1.4288921421259402 0 175.0 1.4288921421259402 1
gene  1 1 14 -3.347289983178332 0 182.0 -3.347289983178332 1
gene  1 2 14 -3.1986045028650243 0 183.0 -3.1986045028650243 1
gene  1 3 14 0.299880367006895 0 184.0 0.299880367006895 1
gene  1 6 14 0.06068821760802057 0 187.0 0.06068821760802057 1
gene  1 13 14 1.040166191937895 0 194.0 1.040166191937895 1
gene  1 14 14 5.795094151064247 1 195.0 5.795094151064247 1
gene  1 5 8 3.3435579149120334 0 202.0 3.3435579149120334 1
gene  1 4 13 0.8306033042571495 0 220.0 0.8306033042571495 1
gene  1 1 20 0.38313024225844483 0 231.0 0.38313024225844483 1
gene  1 20 14 4.231499156041927 0 232.0 4.231499156041927 1
gene  1 1 13 0.48639549165376406 0 329.0 0.48639549165376406 1
gene  1 13 20 -7.360982642286952 0 337.0 -7.360982642286952 1
gene  1 4 20 -3.263207531477649 0 339.0 -3.263207531477649 1
gene  1 9 8 -0.2092170559844797 0 404.0 -0.2092170559844797 1
gene  1 8 14 2.5455356567482696 0 410.0 2.5455356567482696 1
gene  1 5 56 -3.755081581379542 0 434.0 -3.755081581379542 1
gene  1 56 8 -6.312572105057668 0 435.0 -6.312572105057668 1
gene  1 2 9 -0.36083567882181034 0 448.0 -0.36083567882181034 1
gene  1 3 60 0.0813754726256497 0 458.0 0.0813754726256497 1
gene  1 60 8 4.046324576025691 0 459.0 4.046324576025691 1
gene  1 1 60 -1.2809324526252053 0 479.0 -1.2809324526252053 1
gene  1 7 56 3.4868808545147325 0 520.0 3.4868808545147325 1
gene  1 13 79 -5.064704260749435 0 537.0 -5.064704260749435 1
gene  1 79 20 1.5429199935188045 0 538.0 1.5429199935188045 1
gene  1 3 79 1.4217547868363958 0 556.0 1.4217547868363958 1
gene  1 5 92 0.4582652466187026 0 575.0 0.4582652466187026 1
gene  1 92 13 -5.977736792781238 0 576.0 -5.977736792781238 1
gene  1 14 94 4.0169414517491555 1 582.0 4.0169414517491555 1
gene  1 94 8 -2.2687234791155433 0 583.0 -2.2687234791155433 1
gene  1 13 97 2.2645814977966787 1 593.0 2.2645814977966787 1
gene  1 97 8 -0.03215691493277023 0 594.0 -0.03215691493277023 1
gene  1 9 56 1.4011378478969307 0 596.0 1.4011378478969307 1
genomeend 17
genomestart  18
trait 1 0.0 0.9380171225566565 2.8572292317689647 0.0 0.9774676473893938 0.5916859962196944 0.0 0.0 
node 1 1 1 1
node 2 1 1 1
node 3 1 1 1
node 4 1 1 1
node 5 1 1 1
node 6 1 1 1
node 7 1 1 3
node 13 1 0 2
node 14 1 0 2
node 45 1 0 0
node 71 1 0 0
node 89 1 0 0
gene  1 1 13 -0.19879607726163706 0 168.0 -0.19879607726163706 1
gene  1 2 13 -1.1914503628978914 0 169.0 -1.1914503628978914 1
gene  1 5 13 1.1040533039201388 0 172.0 1.1040533039201388 1
gene  1 6 13 -0.539512784791548 0 173.0 -0.539512784791548 1
gene  1 7 13 0.09139125399641723 0 174.0 0.09139125399641723 1
gene  1 3 14 -4.0484615080306146 0 184.0 -4.0484615080306146 1
gene  1 4 14 -1.7775227149730564 0 185.0 -1.7775227149730564 1
gene  1 7 14 8.868286694389209 0 188.0 8.868286694389209 1
gene  1 13 14 -4.954460680669077 0 194.0 -4.954460680669077 1
gene  1 14 14 -1.5068545880501198 1 195.0 -1.5068545880501198 1
gene  1 4 13 0.9798139135642949 0 235.0 0.9798139135642949 1
gene  1 1 14 2.0173484573315354 0 242.0 2.0173484573315354 1
gene  1 5 14 -2.4921097204746214 0 319.0 -2.4921097204746214 1
gene  1 1 45 -7.624928411231601 0 370.0 -7.624928411231601 1
gene  1 45 13 -0.9647092069588556 0 371.0 -0.9647092069588556 0
gene  1 4 45 -2.498905562688329 0 497.0 -2.498905562688329 1
gene  1 6 71 -0.11570131688042418 0 502.0 -0.11570131688042418 1
gene  1 71 13 1.7119931969836304 0 503.0 1.7119931969836304 1
gene  1 45 71 3.9081855653012885 0 534.0 3.9081855653012885 1
gene  1 3 13 -2.404167237488078 0 535.0 -2.404167237488078 1
gene  1 45 89 -0.6819496413712693 0 566.0 -0.6819496413712693 1
gene  1 89 13 -2.7875669288509424 0 567.0 -2.7875669288509424 1
genomeend 18
genomestart  19
trait 1 0.0 0.9380171225566565 2.8572292317689647 0.0 0.9774676473893938 0.5916859962196944 0.0 0.0 
node 1 1 1 1
node 2 1 1 1
node 3 1 1 1
node 4 1 1 1
node 5 1 1 1
node 6 1 1 1
node 7 1 1 3
node 13 1 0 2
node 14 1 0 2
node 45 1 0 0
node 71 1 0 0
node 89 1 0 0
gene  1 1 13 -2.55796757740854 0 168.0 -2.55796757740854 1
gene  1 2 13 3.0178479237306735 0 169.0 3.0178479237306735 1
gene  1 5 13 -1.1987368409229533 0 172.0 -1.1987368409229533 1
gene  1 6 13 -4.62963007643002 0 173.0 -4.62963007643002 1
gene  1 7 13 1.1377594447222719 0 174.0 1.1377594447222719 1
gene  1 3 14 -2.290770144674179 0 184.0 -2.290770144674179 1
gene  1 4 14 -2.568474743732077 0 185.0 -2.568474743732077 1
gene  1 7 14 9.343952413437387 0 188.0 9.343952413437387 1
gene  1 13 14 -6.182285267634562 0 194.0 -6.182285267634562 1
gene  1 14 14 -3.880038885052103 1 195.0 -3.880038885052103 1
gene  1 4 13 6.595731249133463 0 235.0 6.595731249133463 1
gene  1 1 14 0.5525351852980611 0 242.0 0.5525351852980611 1
gene  1 5 14 6.662679902488289 0 319.0 6.662679902488289 1
gene  1 1 45 -5.341936281572601 0 370.0 -5.341936281572601 1
gene  1 45 13 4.692009235123116 0 371.0 4.692009235123116 0
gene  1 4 45 -1.404641093978332 0 497.0 -1.404641093978332 1
gene  1 6 71 3.5413657774345673 0 502.0 3.5413657774345673 1
gene  1 71 13 1.7988559008259979 0 503.0 1.7988559008259979 1
gene  1 45 71 3.9081855653012885 0 534.0 3.9081855653012885 1
gene  1 3 13 4.646330450414734 0 535.0 4.646330450414734 1
gene  1 45 89 0.7999556821387741 0 566.0 0.7999556821387741 1
gene  1 89 13 -3.0733594824967083 0 567.0 -3.0733594824967083 1
genomeend 19
