genomestart  0
trait 1 0.12236385032328645 0.11996509262718169 0.0 1.2348572107762614 0.0 1.3168578850843018 1.0590140864502917 1.7905313975538821 
node 1 1 1 1
node 2 1 1 1
node 3 1 1 1
node 4 1 1 1
node 5 1 1 1
node 6 1 1 1
node 7 1 1 3
node 13 1 0 2
node 14 1 0 2
node 33 1 0 0
node 48 1 0 0
node 55 1 0 0
gene  1 2 13 0.21066357310090988 0 169.0 0.21066357310090988 1
gene  1 3 13 -5.670934417289507 0 170.0 -5.670934417289507 1
gene  1 4 13 -4.20482034137661 0 171.0 -4.20482034137661 1
gene  1 6 13 3.1269833370949405 0 173.0 3.1269833370949405 1
gene  1 7 13 -2.055611903127846 0 174.0 -2.055611903127846 1
gene  1 13 13 -0.7973002959880269 1 180.0 -0.7973002959880269 1
gene  1 1 14 -3.0546482339975913 0 182.0 -3.0546482339975913 1
gene  1 2 14 -2.9119633147367745 0 183.0 -2.9119633147367745 1
gene  1 5 14 -0.8452751997220602 0 186.0 -0.8452751997220602 1
gene  1 6 14 -1.6589074022784096 0 187.0 -1.6589074022784096 1
gene  1 7 14 -0.3148103575997341 0 188.0 -0.3148103575997341 1
gene  1 13 14 4.9783063788690916 0 194.0 4.9783063788690916 1
gene  1 14 14 -0.29013347217576846 1 195.0 -0.29013347217576846 1
gene  1 4 14 -2.156721378384113 0 196.0 -2.156721378384113 1
gene  1 1 13 14.958365584156539 0 216.0 14.958365584156539 1
gene  1 1 33 -4.461635080910719 0 313.0 -4.461635080910719 1
gene  1 33 14 -4.422523619826719 0 314.0 -4.422523619826719 1
gene  1 14 48 -2.653286560513655 1 379.0 -2.653286560513655 1
gene  1 48 14 -1.4418766580710154 0 380.0 -1.4418766580710154 1
gene  1 48 33 -8.272763388292217 0 381.0 -8.272763388292217 1
gene  1 4 33 -0.01491132255654204 0 384.0 -0.01491132255654204 1
gene  1 13 55 -1.102154678544579 0 407.0 -1.102154678544579 1
gene  1 55 14 -1.5359336273357085 0 408.0 -1.5359336273357085 1
gene  1 2 33 -0.36986876411098213 0 425.0 -0.36986876411098213 1
gene  1 13 33 1.5544221177179374 0 427.0 1.5544221177179374 1
gene  1 5 13 2.2865691578389242 0 436.0 2.2865691578389242 1
genomeend 0
genomestart  1
trait 1 0.12236385032328645 0.11996509262718169 0.0 1.2348572107762614 0.0 1.3168578850843018 1.0590140864502917 1.7905313975538821 
node 1 1 1 1
node 2 1 1 1
node 3 1 1 1
node 4 1 1 1
node 5 1 1 1
node 6 1 1 1
node 7 1 1 3
node 13 1 0 2
node 14 1 0 2
node 33 1 0 0
node 48 1 0 0
node 55 1 0 0
gene  1 2 13 0.4865155858475789 0 169.0 0.4865155858475789 1
gene  1 3 13 -3.810453619375453 0 170.0 -3.810453619375453 1
gene  1 4 13 -5.741735256009071 0 171.0 -5.741735256009071 1
gene  1 6 13 -0.2385788587503881 0 173.0 -0.2385788587503881 1
gene  1 7 13 -2.5745285522780335 0 174.0 -2.5745285522780335 1
gene  1 13 13 2.539247368943436 1 180.0 2.539247368943436 1
gene  1 1 14 -0.8555797850883915 0 182.0 -0.8555797850883915 1
gene  1 2 14 -2.9649975059034075 0 183.0 -2.9649975059034075 1
gene  1 5 14 1.41667927815877 0 186.0 1.41667927815877 1
gene  1 6 14 1.828409966317949 0 187.0 1.828409966317949 1
gene  1 7 14 -1.0887783837783334 0 188.0 -1.0887783837783334 1
gene  1 13 14 2.592591440794951 0 194.0 2.592591440794951 1
gene  1 14 14 0.7766513152701582 1 195.0 0.7766513152701582 1
gene  1 4 14 -0.5282855131977944 0 196.0 -0.5282855131977944 1
gene  1 1 13 12.49514065323725 0 216.0 12.49514065323725 1
gene  1 1 33 -4.945068847428301 0 313.0 -4.945068847428301 1
gene  1 33 14 -4.5420849337542535 0 314.0 -4.5420849337542535 1
gene  1 14 48 -0.3852920920925351 1 379.0 -0.3852920920925351 1
gene  1 48 14 1.4433786992109892 0 380.0 1.4433786992109892 1
gene  1 48 33 -10.041570962247754 0 381.0 -10.041570962247754 1
gene  1 4 33 0.7007017778531242 0 384.0 0.7007017778531242 1
gene  1 13 55 -2.073637412507488 0 407.0 -2.073637412507488 1
gene  1 55 14 -0.32530516427244094 0 408.0 -0.32530516427244094 1
gene  1 2 33 1.8758940419385672 0 425.0 1.8758940419385672 1
gene  1 13 33 0.8290635785808467 0 427.0 0.8290635785808467 1
gene  1 5 13 -0.5240365144298593 0 436.0 -0.5240365144298593 1
genomeend 1
genomestart  2
trait 1 0.0 0.4388362906987652 1.6464228378828418 0.0 1.4996758457563444 1.21277466076125 0.361970865715585 1.7097882499309047 
node 1 1 1 1
node 2 1 1 1
node 3 1 1 1
node 4 1 1 1
node 5 1 1 1
node 6 1 1 1
node 7 1 1 3
node 13 1 0 2
node 14 1 0 2
node 21 1 0 0
node 24 1 0 0
node 34 1 0 0
gene  1 1 13 -1.221910293660259 0 168.0 -1.221910293660259 1
gene  1 4 13 -5.345839250704524 0 171.0 -5.345839250704524 1
gene  1 5 13 1.535789905087621 0 172.0 1.535789905087621 1
gene  1 7 13 0.36952366799745173 0 174.0 0.36952366799745173 1
gene  1 13 13 1.401729551114296 1 180.0 1.401729551114296 1
gene  1 2 14 -4.8507064340856765 0 183.0 -4.8507064340856765 1
gene  1 3 14 8.136870019233667 0 184.0 8.136870019233667 1
gene  1 6 14 -0.8139333369976277 0 187.0 -0.8139333369976277 1
gene  1 13 14 3.4519732178293 0 194.0 3.4519732178293 1
gene  1 14 14 0.8603116156816122 1 195.0 0.8603116156816122 1
gene  1 6 13 -1.3767869641979877 0 205.0 -1.3767869641979877 1
gene  1 5 14 -0.830126312771847 0 223.0 -0.830126312771847 1
gene  1 3 13 0.7460967688507609 0 229.0 0.7460967688507609 1
gene  1 2 13 3.285929522233677 0 233.0 3.285929522233677 1
gene  1 1 21 4.7910564034320995 0 238.0 4.7910564034320995 1
gene  1 21 13 1.4507772154741339 0 239.0 1.4507772154741339 1
gene  1 5 21 9.025541834879443 0 253.0 9.025541834879443 1
gene  1 3 21 -0.8991561110588002 0 270.0 -0.8991561110588002 1
gene  1 1 24 3.447497761470284 0 275.0 3.447497761470284 1
gene  1 24 13 -2.8124902605330604 0 276.0 -2.8124902605330604 1
gene  1 3 34 1.8633604677905695 0 315.0 1.8633604677905695 1
gene  1 34 14 -6.984914340625832 0 316.0 -6.984914340625832 1
gene  1 3 24 1.3728710098477315 0 324.0 1.3728710098477315 1
gene  1 2 21 -1.08937121636034 0 350.0 -1.08937121636034 1
gene  1 34 13 1.151733914194839 0 355.0 1.151733914194839 1
gene  1 1 34 0.44388745413465713 0 361.0 0.44388745413465713 1
gene  1 7 14 -1.5054413062459395 0 388.0 -1.5054413062459395 1
genomeend 2
genomestart  3
trait 1 0.0 0.4388362906987652 1.6464228378828418 0.0 1.4996758457563444 1.21277466076125 0.361970865715585 1.7097882499309047 
node 1 1 1 1
node 2 1 1 1
node 3 1 1 1
node 4 1 1 1
node 5 1 1 1
node 6 1 1 1
node 7 1 1 3
node 13 1 0 2
node 14 1 0 2
node 21 1 0 0
node 24 1 0 0
node 34 1 0 0
gene  1 1 13 -2.3223801285730143 0 168.0 -2.3223801285730143 1
gene  1 4 13 -3.663722290443299 0 171.0 -3.663722290443299 1
gene  1 5 13 0.7114652145076963 0 172.0 0.7114652145076963 1
gene  1 7 13 -2.0841348158505015 0 174.0 -2.0841348158505015 1
gene  1 13 13 -2.223181372531822 1 180.0 -2.223181372531822 1
gene  1 2 14 -4.8507064340856765 0 183.0 -4.8507064340856765 1
gene  1 3 14 6.465051907318026 0 184.0 6.465051907318026 1
gene  1 6 14 -0.13540035182667287 0 187.0 -0.13540035182667287 1
gene  1 13 14 1.2678289836849144 0 194.0 1.2678289836849144 1
gene  1 14 14 2.224003620391919 1 195.0 2.224003620391919 1
gene  1 6 13 -1.3767869641979877 0 205.0 -1.3767869641979877 1
gene  1 5 14 -2.159381925109332 0 223.0 -2.159381925109332 1
gene  1 3 13 2.126560553239956 0 229.0 2.126560553239956 1
gene  1 2 13 3.285929522233677 0 233.0 3.285929522233677 1
gene  1 1 21 4.873705262836006 0 238.0 4.873705262836006 1
gene  1 21 13 1.4507772154741339 0 239.0 1.4507772154741339 1
gene  1 5 21 9.87280807235065 0 253.0 9.87280807235065 1
gene  1 3 21 0.7084045760965616 0 270.0 0.7084045760965616 1
gene  1 1 24 1.1115605892318894 0 275.0 1.1115605892318894 1
gene  1 24 13 -1.7759731356440052 0 276.0 -1.7759731356440052 1
gene  1 3 34 1.8633604677905695 0 315.0 1.8633604677905695 1
gene  1 34 14 -7.345351857709947 0 316.0 -7.345351857709947 1
gene  1 3 24 1.3728710098477315 0 324.0 1.3728710098477315 1
gene  1 2 21 -1.08937121636034 0 350.0 -1.08937121636034 1
gene  1 34 13 1.151733914194839 0 355.0 1.151733914194839 1
gene  1 1 34 -0.790155828126776 0 361.0 -0.790155828126776 1
gene  1 7 14 -3.932906482067569 0 388.0 -3.932906482067569 1
genomeend 3
genomestart  4
trait 1 0.0 0.4388362906987652 1.6464228378828418 0.0 1.4996758457563444 1.21277466076125 0.361970865715585 1.7097882499309047 
node 1 1 1 1
node 2 1 1 1
node 3 1 1 1
node 4 1 1 1
node 5 1 1 1
node 6 1 1 1
node 7 1 1 3
node 13 1 0 2
node 14 1 0 2
node 21 1 0 0
node 24 1 0 0
node 34 1 0 0
gene  1 1 13 -4.069753581640498 0 168.0 -4.069753581640498 1
gene  1 4 13 -3.134056003323916 0 171.0 -3.134056003323916 1
gene  1 5 13 3.0178624285531965 0 172.0 3.0178624285531965 1
gene  1 7 13 -2.3266387459934332 0 174.0 -2.3266387459934332 1
gene  1 13 13 0.10966412039158824 1 180.0 0.10966412039158824 1
gene  1 2 14 -3.1727361380492924 0 183.0 -3.1727361380492924 1
gene  1 3 14 6.7688158039612345 0 184.0 6.7688158039612345 1
gene  1 6 14 -2.5219459412141734 0 187.0 -2.5219459412141734 1
gene  1 13 14 -0.3711107275440664 0 194.0 -0.3711107275440664 1
gene  1 14 14 4.066587105435201 1 195.0 4.066587105435201 1
gene  1 6 13 -0.9299035590736813 0 205.0 -0.9299035590736813 1
gene  1 5 14 -2.8307797769310183 0 223.0 -2.8307797769310183 1
gene  1 3 13 1.7862325001801895 0 229.0 1.7862325001801895 1
gene  1 2 13 5.016925758107822 0 233.0 5.016925758107822 1
gene  1 1 21 4.135285262248271 0 238.0 4.135285262248271 1
gene  1 21 13 2.104549289324389 0 239.0 2.104549289324389 1
gene  1 5 21 10.611846810730842 0 253.0 10.611846810730842 1
gene  1 3 21 1.1970255257548836 0 270.0 1.1970255257548836 1
gene  1 1 24 0.8339650978550047 0 275.0 0.8339650978550047 1
gene  1 24 13 -3.8751750311470214 0 276.0 -3.8751750311470214 1
gene  1 3 34 4.181503536254434 0 315.0 4.181503536254434 1
gene  1 34 14 -9.606369972802629 0 316.0 -9.606369972802629 1
gene  1 3 24 1.3728710098477315 0 324.0 1.3728710098477315 1
gene  1 2 21 -1.08937121636034 0 350.0 -1.08937121636034 1
gene  1 34 13 -0.4473489815615117 0 355.0 -0.4473489815615117 1
gene  1 1 34 -1.5990281528206332 0 361.0 -1.5990281528206332 1
gene  1 7 14 -6.379465370437404 0 388.0 -6.379465370437404 1
genomeend 4
genomestart  5
trait 1 1.934009951546937 0.44174474491361737 0.6164213447269131 1.6445103831169758 1.4319166757498423 0.0 0.6456726887502329 1.6377765720730229 
node 1 1 1 1
node 2 1 1 1
node 3 1 1 1
node 4 1 1 1
node 5 1 1 1
node 6 1 1 1
node 7 1 1 3
node 8 1 0 0
node 13 1 0 2
node 14 1 0 2
node 39 1 0 0
node 42 1 0 0
node 51 1 0 0
gene  1 1 8 0.8837041460945017 0 98.0 0.8837041460945017 1
gene  1 2 8 -3.403509878914753 0 99.0 -3.403509878914753 1
gene  1 3 8 -0.3818076412413443 0 100.0 -0.3818076412413443 1
gene  1 4 8 -0.6614504983908455 0 101.0 -0.6614504983908455 1
gene  1 5 8 1.352207084275001 0 102.0 1.352207084275001 1
gene  1 6 8 1.8729197604382728 0 103.0 1.8729197604382728 1
gene  1 8 8 2.4446943372491283 1 105.0 2.4446943372491283 1
gene  1 13 8 -0.09781356927049734 1 110.0 -0.09781356927049734 1
gene  1 14 8 8.748868674326193 1 111.0 8.748868674326193 1
gene  1 3 13 4.174075108395481 0 170.0 4.174075108395481 1
gene  1 5 13 6.548962920788243 0 172.0 6.548962920788243 1
gene  1 7 13 -1.2456249704586306 0 174.0 -1.2456249704586306 1
gene  1 13 13 -1.5777853666435415 1 180.0 -1.5777853666435415 1
gene  1 2 14 -2.054785903197866 0 183.0 -2.054785903197866 1
gene  1 4 14 3.1451410332226244 0 185.0 3.1451410332226244 1
gene  1 6 14 -0.41642252743908836 0 187.0 -0.41642252743908836 1
gene  1 8 14 5.217453957850953 0 189.0 5.217453957850953 1
gene  1 13 14 -9.3026469633126 0 194.0 -9.3026469633126 1
gene  1 2 13 -15.93456391518302 0 213.0 -15.93456391518302 1
gene  1 4 13 -2.114021943630887 0 230.0 -2.114021943630887 1
gene  1 13 8 -3.6128615631675967 0 244.0 -3.6128615631675967 1
gene  1 7 14 1.4868036673682499 0 264.0 1.4868036673682499 1
gene  1 1 14 6.059365240758028 0 299.0 6.059365240758028 1
gene  1 5 14 -2.3572715629034975 0 310.0 -2.3572715629034975 1
gene  1 1 13 2.7859270477191567 0 311.0 2.7859270477191567 1
gene  1 13 39 1.2169448617543805 0 344.0 1.2169448617543805 1
gene  1 39 8 1.7253037395881625 0 345.0 1.7253037395881625 1
gene  1 6 13 3.102676476637636 0 348.0 3.102676476637636 1
gene  1 2 42 -1.4588131021173898 0 359.0 -1.4588131021173898 1
gene  1 42 14 -0.7489621870420027 0 360.0 -0.7489621870420027 1
gene  1 13 42 2.6303411751434886 0 366.0 2.6303411751434886 1
gene  1 5 51 -0.8671543513410791 0 396.0 -0.8671543513410791 1
gene  1 51 14 -2.466365016517794 0 397.0 -2.466365016517794 1
gene  1 6 42 -0.6438892437922203 0 423.0 -0.6438892437922203 1
gene  1 39 42 -5.478758482943396 0 426.0 -5.478758482943396 1
genomeend 5
genomestart  6
trait 1 1.934009951546937 0.44174474491361737 0.6164213447269131 1.6445103831169758 1.4319166757498423 0.0 0.6456726887502329 1.6377765720730229 
node 1 1 1 1
node 2 1 1 1
node 3 1 1 1
node 4 1 1 1
node 5 1 1 1
node 6 1 1 1
node 7 1 1 3
node 8 1 0 0
node 13 1 0 2
node 14 1 0 2
node 39 1 0 0
node 42 1 0 0
node 51 1 0 0
gene  1 1 8 3.0324702223159856 0 98.0 3.0324702223159856 1
gene  1 2 8 -5.074350243403008 0 99.0 -5.074350243403008 1
gene  1 3 8 -1.5066202596856353 0 100.0 -1.5066202596856353 1
gene  1 4 8 0.523524057618835 0 101.0 0.523524057618835 1
gene  1 5 8 0.45515588876448776 0 102.0 0.45515588876448776 1
gene  1 6 8 0.8272325963044076 0 103.0 0.8272325963044076 1
gene  1 8 8 3.4876023011252832 1 105.0 3.4876023011252832 1
gene  1 13 8 0.8660787250270372 1 110.0 0.8660787250270372 1
gene  1 14 8 8.97624248886563 1 111.0 8.97624248886563 1
gene  1 3 13 5.432481836656183 0 170.0 5.432481836656183 1
gene  1 5 13 6.4217075102719114 0 172.0 6.4217075102719114 1
gene  1 7 13 0.7383166402750501 0 174.0 0.7383166402750501 1
gene  1 13 13 -2.767677057312831 1 180.0 -2.767677057312831 1
gene  1 2 14 -4.253020338306982 0 183.0 -4.253020338306982 1
gene  1 4 14 4.589716473291833 0 185.0 4.589716473291833 1
gene  1 6 14 -0.5880706744178998 0 187.0 -0.5880706744178998 1
gene  1 8 14 3.4303155116358512 0 189.0 3.4303155116358512 1
gene  1 13 14 -8.222860426641954 0 194.0 -8.222860426641954 1
gene  1 2 13 -15.191557602474798 0 213.0 -15.191557602474798 1
gene  1 4 13 -0.26110985777399076 0 230.0 -0.26110985777399076 1
gene  1 13 8 -2.23600277756844 0 244.0 -2.23600277756844 1
gene  1 7 14 1.773452586259471 0 264.0 1.773452586259471 1
gene  1 1 14 5.264616762391087 0 299.0 5.264616762391087 1
gene  1 5 14 -4.467959792186463 0 310.0 -4.467959792186463 1
gene  1 1 13 1.3343451463276765 0 311.0 1.3343451463276765 1
gene  1 13 39 2.1068303604414664 0 344.0 2.1068303604414664 1
gene  1 39 8 3.7424974996470666 0 345.0 3.7424974996470666 1
gene  1 6 13 2.4343661930360883 0 348.0 2.4343661930360883 1
gene  1 2 42 0.6975675952479174 0 359.0 0.6975675952479174 1
gene  1 42 14 -1.9197301051891318 0 360.0 -1.9197301051891318 1
gene  1 13 42 2.6303411751434886 0 366.0 2.6303411751434886 1
gene  1 5 51 -0.3355340463636656 0 396.0 -0.3355340463636656 1
gene  1 51 14 -4.911064652873046 0 397.0 -4.911064652873046 1
gene  1 6 42 -0.6660883084448125 0 423.0 -0.6660883084448125 1
gene  1 39 42 -5.478758482943396 0 426.0 -5.478758482943396 1
genomeend 6
genomestart  7
trait 1 2.732431393943948 0.0 0.0 2.185117190753677 0.9382603138953756 0.050802968585552666 1.9280392103089152 1.4020476134298572 
node 1 1 1 1
node 2 1 1 1
node 3 1 1 1
node 4 1 1 1
node 5 1 1 1
node 6 1 1 1
node 7 1 1 3
node 8 1 0 0
node 9 1 0 0
node 10 1 0 0
node 13 1 0 2
node 14 1 0 2
node 28 1 0 0
node 41 1 0 0
node 43 1 0 0
node 47 1 0 0
gene  1 1 8 3.9871337542310594 0 98.0 3.9871337542310594 1
gene  1 3 8 2.939082833562634 0 100.0 2.939082833562634 1
gene  1 5 8 -2.976404662123798 0 102.0 -2.976404662123798 1
gene  1 6 8 12.870759272196693 0 103.0 12.870759272196693 1
gene  1 8 8 -5.499366504231193 1 105.0 -5.499366504231193 1
gene  1 1 9 -7.651134909940327 0 112.0 -7.651134909940327 1
gene  1 2 9 0.7067598203151426 0 113.0 0.7067598203151426 1
gene  1 3 9 1.9715106464220753 0 114.0 1.9715106464220753 1
gene  1 5 9 -1.637186259475102 0 116.0 -1.637186259475102 1
gene  1 7 9 13.194671314317459 0 118.0 13.194671314317459 1
gene  1 9 9 0.7368277797068408 1 120.0 0.7368277797068408 1
gene  1 10 9 -4.714667023119426 1 121.0 -4.714667023119426 1
gene  1 13 9 -4.291290080596625 1 124.0 -4.291290080596625 1
gene  1 2 10 1.2358502310931843 0 127.0 1.2358502310931843 1
gene  1 4 10 -0.012362035483653333 0 129.0 -0.012362035483653333 1
gene  1 5 10 -0.7617095212481131 0 130.0 -0.7617095212481131 1
gene  1 8 10 -7.546360053649737 0 133.0 -7.546360053649737 1
gene  1 9 10 0.8156319390487957 0 134.0 0.8156319390487957 1
gene  1 10 10 -3.768640896050169 1 135.0 -3.768640896050169 1
gene  1 13 10 1.0289478486812857 1 138.0 1.0289478486812857 1
gene  1 14 10 -3.138230983887217 1 139.0 -3.138230983887217 1
gene  1 2 13 -0.13060644282395062 0 169.0 -0.13060644282395062 1
gene  1 3 13 -10.622382638179172 0 170.0 -10.622382638179172 1
gene  1 6 13 0.258308317154225 0 173.0 0.258308317154225 1
gene  1 7 13 -2.708414948626715 0 174.0 -2.708414948626715 1
gene  1 9 13 1.2085525719652948 0 176.0 1.2085525719652948 1
gene  1 13 13 -5.356006246705277 1 180.0 -5.356006246705277 1
gene  1 14 13 5.724886222019937 1 181.0 5.724886222019937 1
gene  1 1 14 1.89117005946441 0 182.0 1.89117005946441 1
gene  1 3 14 11.03567025312074 0 184.0 11.03567025312074 1
gene  1 9 14 -8.868493639980715 0 190.0 -8.868493639980715 1
gene  1 10 14 -0.30577635214556853 0 191.0 -0.30577635214556853 1
gene  1 8 13 1.6568212138346718 0 207.0 1.6568212138346718 1
gene  1 1 10 -10.571059876119925 0 226.0 -10.571059876119925 1
gene  1 6 14 4.705145320262413 0 234.0 4.705145320262413 1
gene  1 8 28 6.951294820444185 1 293.0 6.951294820444185 1
gene  1 28 8 -2.4349495395985667 0 294.0 -2.4349495395985667 1
gene  1 8 9 -8.360838585707267 0 328.0 -8.360838585707267 1
gene  1 8 41 -0.15695831217829315 1 357.0 -0.15695831217829315 1
gene  1 41 8 -1.520760074775114 0 358.0 -1.520760074775114 1
gene  1 14 43 -4.8162372277917616 1 364.0 -4.8162372277917616 1
gene  1 43 10 -2.715010387702301 0 365.0 -2.715010387702301 1
gene  1 5 47 -1.3949095108756504 0 375.0 -1.3949095108756504 1
gene  1 47 9 -0.30651883298538984 0 376.0 -0.30651883298538984 1
gene  1 41 14 1.3700592038169745 0 387.0 1.3700592038169745 1
gene  1 4 28 4.165339852838558 0 419.0 4.165339852838558 1
gene  1 2 28 0.13672751894174912 0 429.0 0.13672751894174912 1
genomeend 7
genomestart  8
trait 1 2.732431393943948 0.0 0.0 2.185117190753677 0.9382603138953756 0.050802968585552666 1.9280392103089152 1.4020476134298572 
node 1 1 1 1
node 2 1 1 1
node 3 1 1 1
node 4 1 1 1
node 5 1 1 1
node 6 1 1 1
node 7 1 1 3
node 8 1 0 0
node 9 1 0 0
node 10 1 0 0
node 13 1 0 2
node 14 1 0 2
node 28 1 0 0
node 41 1 0 0
node 43 1 0 0
node 47 1 0 0
gene  1 1 8 1.6279425104842085 0 98.0 1.6279425104842085 1
gene  1 3 8 3.1555993357836387 0 100.0 3.1555993357836387 1
gene  1 5 8 -3.4395359815168716 0 102.0 -3.4395359815168716 1
gene  1 6 8 9.448821542049139 0 103.0 9.448821542049139 1
gene  1 8 8 -5.04484159683115 1 105.0 -5.04484159683115 1
gene  1 1 9 -5.845674373117523 0 112.0 -5.845674373117523 1
gene  1 2 9 -2.9395695988574086 0 113.0 -2.9395695988574086 1
gene  1 3 9 2.9547030157059346 0 114.0 2.9547030157059346 1
gene  1 5 9 0.019255611340620815 0 116.0 0.019255611340620815 1
gene  1 7 9 11.849403756794016 0 118.0 11.849403756794016 1
gene  1 9 9 -2.2497656402090107 1 120.0 -2.2497656402090107 1
gene  1 10 9 -4.620507917282635 1 121.0 -4.620507917282635 1
gene  1 13 9 -4.017647879744769 1 124.0 -4.017647879744769 1
gene  1 2 10 2.482899400954118 0 127.0 2.482899400954118 1
gene  1 4 10 -4.271993864422999 0 129.0 -4.271993864422999 1
gene  1 5 10 -1.6872127043253582 0 130.0 -1.6872127043253582 1
gene  1 8 10 -4.040631704963842 0 133.0 -4.040631704963842 1
gene  1 9 10 -2.156297043760345 0 134.0 -2.156297043760345 1
gene  1 10 10 -3.4211309591548043 1 135.0 -3.4211309591548043 1
gene  1 13 10 -1.0885513416237411 1 138.0 -1.0885513416237411 1
gene  1 14 10 -5.984446957540209 1 139.0 -5.984446957540209 1
gene  1 2 13 -1.1612301026549408 0 169.0 -1.1612301026549408 1
gene  1 3 13 -9.104481274807673 0 170.0 -9.104481274807673 1
gene  1 6 13 1.5661048482621522 0 173.0 1.5661048482621522 1
gene  1 7 13 -2.8158230656433068 0 174.0 -2.8158230656433068 1
gene  1 9 13 3.9353968598400435 0 176.0 3.9353968598400435 1
gene  1 13 13 -6.404989652516825 1 180.0 -6.404989652516825 1
gene  1 14 13 4.778822997137739 1 181.0 4.778822997137739 1
gene  1 1 14 1.4424527725867033 0 182.0 1.4424527725867033 1
gene  1 3 14 10.807365678450443 0 184.0 10.807365678450443 1
gene  1 9 14 -9.503159517532591 0 190.0 -9.503159517532591 1
gene  1 10 14 1.7363938036184041 0 191.0 1.7363938036184041 1
gene  1 8 13 -1.7292110921890875 0 207.0 -1.7292110921890875 1
gene  1 1 10 -7.89758438575489 0 226.0 -7.89758438575489 1
gene  1 6 14 2.486263108189266 0 234.0 2.486263108189266 1
gene  1 8 28 7.300840944715566 1 293.0 7.300840944715566 1
gene  1 28 8 -6.696531180979383 0 294.0 -6.696531180979383 1
gene  1 8 9 -8.20563303052286 0 328.0 -8.20563303052286 1
gene  1 8 41 -0.36680042042967553 1 357.0 -0.36680042042967553 1
gene  1 41 8 -1.6124788143329252 0 358.0 -1.6124788143329252 1
gene  1 14 43 -6.110378820282447 1 364.0 -6.110378820282447 1
gene  1 43 10 -2.3314578760751568 0 365.0 -2.3314578760751568 1
gene  1 5 47 0.20580758942356675 0 375.0 0.20580758942356675 1
gene  1 47 9 3.4969126797215444 0 376.0 3.4969126797215444 1
gene  1 41 14 0.843688002389589 0 387.0 0.843688002389589 1
gene  1 4 28 2.625819304881425 0 419.0 2.625819304881425 1
gene  1 2 28 1.4182872739086059 0 429.0 1.4182872739086059 1
genomeend 8
genomestart  9
trait 1 2.732431393943948 0.0 0.0 2.185117190753677 0.9382603138953756 0.050802968585552666 1.9280392103089152 1.4020476134298572 
node 1 1 1 1
node 2 1 1 1
node 3 1 1 1
node 4 1 1 1
node 5 1 1 1
node 6 1 1 1
node 7 1 1 3
node 8 1 0 0
node 9 1 0 0
node 10 1 0 0
node 13 1 0 2
node 14 1 0 2
node 28 1 0 0
node 41 1 0 0
node 43 1 0 0
node 47 1 0 0
gene  1 1 8 4.622177800262394 0 98.0 4.622177800262394 1
gene  1 3 8 0.8123950828993913 0 100.0 0.8123950828993913 1
gene  1 5 8 0.48649549486377075 0 102.0 0.48649549486377075 1
gene  1 6 8 8.771069515625237 0 103.0 8.771069515625237 1
gene  1 8 8 -6.708885023368335 1 105.0 -6.708885023368335 1
gene  1 1 9 -8.642568534253764 0 112.0 -8.642568534253764 1
gene  1 2 9 -3.2313618189895807 0 113.0 -3.2313618189895807 1
gene  1 3 9 2.9762552885691367 0 114.0 2.9762552885691367 1
gene  1 5 9 0.5050176198019156 0 116.0 0.5050176198019156 1
gene  1 7 9 10.258887702713336 0 118.0 10.258887702713336 1
gene  1 9 9 0.835980495517731 1 120.0 0.835980495517731 1
gene  1 10 9 -3.211619523905431 1 121.0 -3.211619523905431 1
gene  1 13 9 -4.751425371917433 1 124.0 -4.751425371917433 1
gene  1 2 10 0.5107057243801518 0 127.0 0.5107057243801518 1
gene  1 4 10 -2.0356877018712547 0 129.0 -2.0356877018712547 1
gene  1 5 10 -3.3882142606948333 0 130.0 -3.3882142606948333 1
gene  1 8 10 -6.758887390561766 0 133.0 -6.758887390561766 1
gene  1 9 10 -1.9491026170844001 0 134.0 -1.9491026170844001 1
gene  1 10 10 -2.0245938883017494 1 135.0 -2.0245938883017494 1
gene  1 13 10 0.11703617180827619 1 138.0 0.11703617180827619 1
gene  1 14 10 -1.5546102095127416 1 139.0 -1.5546102095127416 1
gene  1 2 13 -1.2786106605470495 0 169.0 -1.2786106605470495 1
gene  1 3 13 -10.7272010813372 0 170.0 -10.7272010813372 1
gene  1 6 13 -1.185379716820902 0 173.0 -1.185379716820902 1
gene  1 7 13 -0.6514740799629426 0 174.0 -0.6514740799629426 1
gene  1 9 13 1.6881207886763856 0 176.0 1.6881207886763856 1
gene  1 13 13 -8.965266656742731 1 180.0 -8.965266656742731 1
gene  1 14 13 3.5303364618191404 1 181.0 3.5303364618191404 1
gene  1 1 14 1.0518064961983353 0 182.0 1.0518064961983353 1
gene  1 3 14 7.776857824594922 0 184.0 7.776857824594922 1
gene  1 9 14 -9.207711795515358 0 190.0 -9.207711795515358 1
gene  1 10 14 1.10821370794431 0 191.0 1.10821370794431 1
gene  1 8 13 0.7345256599917931 0 207.0 0.7345256599917931 1
gene  1 1 10 -11.14696709427873 0 226.0 -11.14696709427873 1
gene  1 6 14 1.1678501812439959 0 234.0 1.1678501812439959 1
gene  1 8 28 4.790542569778541 1 293.0 4.790542569778541 1
gene  1 28 8 -3.46303042183876 0 294.0 -3.46303042183876 1
gene  1 8 9 -9.75468610601987 0 328.0 -9.75468610601987 1
gene  1 8 41 -0.9358135721253205 1 357.0 -0.9358135721253205 1
gene  1 41 8 -1.6124788143329252 0 358.0 -1.6124788143329252 1
gene  1 14 43 -6.110378820282447 1 364.0 -6.110378820282447 1
gene  1 43 10 0.12011130490224353 0 365.0 0.12011130490224353 1
gene  1 5 47 -0.15937467370892383 0 375.0 -0.15937467370892383 1
gene  1 47 9 2.0357623854085705 0 376.0 2.0357623854085705 1
gene  1 41 14 1.8979016890271376 0 387.0 1.8979016890271376 1
gene  1 4 28 2.625819304881425 0 419.0 2.625819304881425 1
gene  1 2 28 -1.0217746748136391 0 429.0 -1.0217746748136391 1
genomeend 9
genomestart  10
trait 1 0.0 0.507208509242693 0.0 1.336083291708453 2.3145837249829695 0.0 0.0 0.868067118942248 
node 1 1 1 1
node 2 1 1 1
node 3 1 1 1
node 4 1 1 1
node 5 1 1 1
node 6 1 1 1
node 7 1 1 3
node 8 1 0 0
node 13 1 0 2
node 14 1 0 2
node 22 1 0 0
node 25 1 0 0
node 29 1 0 0
node 57 1 0 0
gene  1 1 8 -0.8365377711183024 0 98.0 -0.8365377711183024 1
gene  1 3 8 2.86157670785447 0 100.0 2.86157670785447 1
gene  1 4 8 1.3186544558363034 0 101.0 1.3186544558363034 1
gene  1 5 8 -3.463957343900777 0 102.0 -3.463957343900777 1
gene  1 6 8 1.4558662570469858 0 103.0 1.4558662570469858 1
gene  1 8 8 6.597609014195352 1 105.0 6.597609014195352 1
gene  1 1 13 0.15057854820133332 0 168.0 0.15057854820133332 1
gene  1 5 13 -3.6866024862014735 0 172.0 -3.6866024862014735 1
gene  1 13 13 -1.0946274585130187 1 180.0 -1.0946274585130187 1
gene  1 14 13 -2.853742879447201 1 181.0 -2.853742879447201 1
gene  1 2 14 2.8157413133581164 0 183.0 2.8157413133581164 1
gene  1 3 14 0.9869577940221679 0 184.0 0.9869577940221679 1
gene  1 5 14 3.8272107863806903 0 186.0 3.8272107863806903 1
gene  1 7 14 -3.716438226569643 0 188.0 -3.716438226569643 1
gene  1 8 14 -1.6134394042485873 0 189.0 -1.6134394042485873 1
gene  1 13 14 -1.4415148680712881 0 194.0 -1.4415148680712881 1
gene  1 2 13 -1.3663005453629553 0 236.0 -1.3663005453629553 1
gene  1 8 22 -0.7666826523193541 0 240.0 -0.7666826523193541 1
gene  1 22 14 -3.198492842168049 0 241.0 -3.198492842168049 1
gene  1 1 22 5.04450097070511 0 245.0 5.04450097070511 1
gene  1 13 8 -0.6586609153549167 0 257.0 -0.6586609153549167 1
gene  1 5 22 4.465053352336449 0 265.0 4.465053352336449 1
gene  1 1 25 4.0095595263871715 0 279.0 4.0095595263871715 1
gene  1 25 8 -1.8861466350295837 0 280.0 -1.8861466350295837 1
gene  1 8 29 -3.230349980946375 0 297.0 -3.230349980946375 1
gene  1 29 14 1.0106031690909134 0 298.0 1.0106031690909134 1
gene  1 1 14 3.6172979796427214 0 312.0 3.6172979796427214 1
gene  1 2 29 2.702292654866989 0 330.0 2.702292654866989 1
gene  1 5 25 -4.672724411163158 0 343.0 -4.672724411163158 1
gene  1 6 29 3.6170221083561014 0 386.0 3.6170221083561014 1
gene  1 22 29 -2.2342025842045814 0 416.0 -2.2342025842045814 1
gene  1 4 14 -0.34813243317844217 0 424.0 -0.34813243317844217 1
gene  1 4 29 -3.446499760241049 0 432.0 -3.446499760241049 1
gene  1 8 57 -5.949959807576577 0 437.0 -5.949959807576577 1
gene  1 57 14 1.5584641162836257 0 438.0 1.5584641162836257 1
gene  1 3 22 -2.039226356335972 0 440.0 -2.039226356335972 1
gene  1 2 25 -0.36347041435823413 0 455.0 -0.36347041435823413 1
genomeend 10
genomestart  11
trait 1 0.0 0.507208509242693 0.0 1.336083291708453 2.3145837249829695 0.0 0.0 0.868067118942248 
node 1 1 1 1
node 2 1 1 1
node 3 1 1 1
node 4 1 1 1
node 5 1 1 1
node 6 1 1 1
node 7 1 1 3
node 8 1 0 0
node 13 1 0 2
node 14 1 0 2
node 22 1 0 0
node 25 1 0 0
node 29 1 0 0
node 57 1 0 0
gene  1 1 8 -0.7936317201954586 0 98.0 -0.7936317201954586 1
gene  1 3 8 2.508403668324136 0 100.0 2.508403668324136 1
gene  1 4 8 -1.0852009156061033 0 101.0 -1.0852009156061033 1
gene  1 5 8 -1.8189418183491726 0 102.0 -1.8189418183491726 1
gene  1 6 8 3.211936637759473 0 103.0 3.211936637759473 1
gene  1 8 8 4.23523352417695 1 105.0 4.23523352417695 1
gene  1 1 13 -0.13894629620198606 0 168.0 -0.13894629620198606 1
gene  1 5 13 -1.3150376389052687 0 172.0 -1.3150376389052687 1
gene  1 13 13 0.5226003183976158 1 180.0 0.5226003183976158 1
gene  1 14 13 -1.7178593900337635 1 181.0 -1.7178593900337635 1
gene  1 2 14 2.1803354162799957 0 183.0 2.1803354162799957 1
gene  1 3 14 -0.703379187068911 0 184.0 -0.703379187068911 1
gene  1 5 14 2.7183223449979534 0 186.0 2.7183223449979534 1
gene  1 7 14 -2.4373514590903165 0 188.0 -2.4373514590903165 1
gene  1 8 14 -1.6583898497157838 0 189.0 -1.6583898497157838 1
gene  1 13 14 -1.2954452788697184 0 194.0 -1.2954452788697184 1
gene  1 2 13 1.1098465922520127 0 236.0 1.1098465922520127 1
gene  1 8 22 -1.3182293024828715 0 240.0 -1.3182293024828715 1
gene  1 22 14 -3.909819358975422 0 241.0 -3.909819358975422 1
gene  1 1 22 5.016889864160452 0 245.0 5.016889864160452 1
gene  1 13 8 -1.1430901132585292 0 257.0 -1.1430901132585292 1
gene  1 5 22 2.33644465740999 0 265.0 2.33644465740999 1
gene  1 1 25 2.3081280902586303 0 279.0 2.3081280902586303 1
gene  1 25 8 0.06586645237853528 0 280.0 0.06586645237853528 1
gene  1 8 29 -2.016087299314356 0 297.0 -2.016087299314356 1
gene  1 29 14 2.3923103139939617 0 298.0 2.3923103139939617 1
gene  1 1 14 6.001778847058562 0 312.0 6.001778847058562 1
gene  1 2 29 3.920876220983513 0 330.0 3.920876220983513 1
gene  1 5 25 -3.8989590942592853 0 343.0 -3.8989590942592853 1
gene  1 6 29 2.4926034248407323 0 386.0 2.4926034248407323 1
gene  1 22 29 -3.1958983620940704 0 416.0 -3.1958983620940704 1
gene  1 4 14 -0.9351908602874504 0 424.0 -0.9351908602874504 1
gene  1 4 29 -2.1103821977098565 0 432.0 -2.1103821977098565 1
gene  1 8 57 -5.201155027961758 0 437.0 -5.201155027961758 1
gene  1 57 14 2.9813664747992923 0 438.0 2.9813664747992923 1
gene  1 3 22 -4.824883646961536 0 440.0 -4.824883646961536 1
gene  1 2 25 -2.220191969296778 0 455.0 -2.220191969296778 1
genomeend 11
genomestart  12
trait 1 1.4119270573538159 0.0 0.5325105147350838 0.1746739594361667 0.1428976572460562 1.2871131578344006 0.45012361978974724 0.0 
node 1 1 1 1
node 2 1 1 1
node 3 1 1 1
node 4 1 1 1
node 5 1 1 1
node 6 1 1 1
node 7 1 1 3
node 13 1 0 2
node 14 1 0 2
node 49 1 0 0
gene  1 1 13 2.9388651474330443 0 168.0 2.9388651474330443 1
gene  1 2 13 1.4889478545782002 0 169.0 1.4889478545782002 1
gene  1 3 13 -2.0341165877027523 0 170.0 -2.0341165877027523 0
gene  1 4 13 -0.430372357498763 0 171.0 -0.430372357498763 1
gene  1 5 13 -1.1918194557354103 0 172.0 -1.1918194557354103 1
gene  1 6 13 -0.8621207446703771 0 173.0 -0.8621207446703771 1
gene  1 7 13 -5.355784162645543 0 174.0 -5.355784162645543 1
gene  1 14 13 0.9381510572251196 1 181.0 0.9381510572251196 1
gene  1 1 14 -1.6010990401818934 0 182.0 -1.6010990401818934 1
gene  1 2 14 1.8913804256502673 0 183.0 1.8913804256502673 1
gene  1 3 14 -1.065025731185205 0 184.0 -1.065025731185205 1
gene  1 13 14 1.3222844106200147 0 194.0 1.3222844106200147 1
gene  1 14 14 -2.6057940849643706 1 195.0 -2.6057940849643706 1
gene  1 7 14 -0.5409681275994513 0 273.0 -0.5409681275994513 1
gene  1 4 14 2.2432521916372554 0 283.0 2.2432521916372554 1
gene  1 5 14 -0.6867656489191689 0 303.0 -0.6867656489191689 1
gene  1 6 14 0.6316079278902913 0 307.0 0.6316079278902913 1
gene  1 3 49 1.7927884113738983 0 389.0 1.7927884113738983 1
gene  1 49 13 -2.108984499807983 0 390.0 -2.108984499807983 1
gene  1 5 49 -0.5696311375092138 0 403.0 -0.5696311375092138 1
gene  1 1 49 -2.27818236258811 0 430.0 -2.27818236258811 1
gene  1 7 49 -3.515084074443169 0 456.0 -3.515084074443169 1
genomeend 12
genomestart  13
trait 1 1.4119270573538159 0.0 0.5325105147350838 0.1746739594361667 0.1428976572460562 1.2871131578344006 0.45012361978974724 0.0 
node 1 1 1 1
node 2 1 1 1
node 3 1 1 1
node 4 1 1 1
node 5 1 1 1
node 6 1 1 1
node 7 1 1 3
node 13 1 0 2
node 14 1 0 2
node 49 1 0 0
gene  1 1 13 -0.37604298998222463 0 168.0 -0.37604298998222463 1
gene  1 2 13 2.8574318809494175 0 169.0 2.8574318809494175 1
gene  1 3 13 -3.435057095404215 0 170.0 -3.435057095404215 0
gene  1 4 13 1.5670033781685189 0 171.0 1.5670033781685189 1
gene  1 5 13 0.17088306786987528 0 172.0 0.17088306786987528 1
gene  1 6 13 -1.9894801874261447 0 173.0 -1.9894801874261447 1
gene  1 7 13 -8.411231020890467 0 174.0 -8.411231020890467 1
gene  1 14 13 -0.504813847053859 1 181.0 -0.504813847053859 1
gene  1 1 14 -0.5722426837902852 0 182.0 -0.5722426837902852 1
gene  1 2 14 -0.8890283456370418 0 183.0 -0.8890283456370418 1
gene  1 3 14 -2.5749177340981126 0 184.0 -2.5749177340981126 1
gene  1 13 14 2.9927178273613557 0 194.0 2.9927178273613557 1
gene  1 14 14 -3.3622566470737816 1 195.0 -3.3622566470737816 1
gene  1 7 14 -0.33278775389417536 0 273.0 -0.33278775389417536 1
gene  1 4 14 1.3398408364487802 0 283.0 1.3398408364487802 1
gene  1 5 14 1.4443505368644596 0 303.0 1.4443505368644596 1
gene  1 6 14 -1.737775731001974 0 307.0 -1.737775731001974 1
gene  1 3 49 0.3119130968348474 0 389.0 0.3119130968348474 1
gene  1 49 13 2.4799502036003793 0 390.0 2.4799502036003793 1
gene  1 5 49 -2.2259539878219066 0 403.0 -2.2259539878219066 1
gene  1 1 49 -4.43500625870154 0 430.0 -4.43500625870154 1
gene  1 7 49 -1.2414067879630193 0 456.0 -1.2414067879630193 1
genomeend 13
genomestart  14
trait 1 1.4119270573538159 0.0 0.5325105147350838 0.1746739594361667 0.1428976572460562 1.2871131578344006 0.45012361978974724 0.0 
node 1 1 1 1
node 2 1 1 1
node 3 1 1 1
node 4 1 1 1
node 5 1 1 1
node 6 1 1 1
node 7 1 1 3
node 13 1 0 2
node 14 1 0 2
node 49 1 0 0
gene  1 1 13 2.0214433465366985 0 168.0 2.0214433465366985 1
gene  1 2 13 3.775900274629497 0 169.0 3.775900274629497 1
gene  1 3 13 -5.892170788081864 0 170.0 -5.892170788081864 0
gene  1 4 13 0.2549970137144273 0 171.0 0.2549970137144273 1
gene  1 5 13 -2.1188308544013688 0 172.0 -2.1188308544013688 1
gene  1 6 13 -2.0560977906798703 0 173.0 -2.0560977906798703 1
gene  1 7 13 -8.438715486252097 0 174.0 -8.438715486252097 1
gene  1 14 13 -2.916280146832902 1 181.0 -2.916280146832902 1
gene  1 1 14 1.1549313328599167 0 182.0 1.1549313328599167 1
gene  1 2 14 4.04137802561188 0 183.0 4.04137802561188 1
gene  1 3 14 -0.975316922617562 0 184.0 -0.975316922617562 1
gene  1 13 14 -0.5390701124916946 0 194.0 -0.5390701124916946 1
gene  1 14 14 -4.794624625348146 1 195.0 -4.794624625348146 1
gene  1 7 14 -1.2701573990462562 0 273.0 -1.2701573990462562 1
gene  1 4 14 2.9657384547227648 0 283.0 2.9657384547227648 1
gene  1 5 14 -2.1017344762730725 0 303.0 -2.1017344762730725 1
gene  1 6 14 1.309028146270943 0 307.0 1.309028146270943 1
gene  1 3 49 -0.8048269021032195 0 389.0 -0.8048269021032195 1
gene  1 49 13 0.03722467657441636 0 390.0 0.03722467657441636 1
gene  1 5 49 -2.4548131744715564 0 403.0 -2.4548131744715564 1
gene  1 1 49 -2.27818236258811 0 430.0 -2.27818236258811 1
gene  1 7 49 -3.515084074443169 0 456.0 -3.515084074443169 1
genomeend 14
genomestart  15
trait 1 0.04702751910613956 0.5319433208524987 0.8875428902212121 0.7010184240616681 0.2545070174269727 0.020095000702126553 0.0 0.0 
node 1 1 1 1
node 2 1 1 1
node 3 1 1 1
node 4 1 1 1
node 5 1 1 1
node 6 1 1 1
node 7 1 1 3
node 8 1 0 0
node 9 1 0 0
node 13 1 0 2
node 14 1 0 2
node 20 1 0 0
node 56 1 0 0
node 60 1 0 0
gene  1 1 8 -5.948394166436467 0 98.0 -5.948394166436467 1
gene  1 2 8 7.823432398441673 0 99.0 7.823432398441673 1
gene  1 3 8 10.839926796833595 0 100.0 10.839926796833595 0
gene  1 6 8 -3.2752477128688784 0 103.0 -3.2752477128688784 1
gene  1 8 8 1.107446698941106 1 105.0 1.107446698941106 1
gene  1 9 8 11.668283086326191 1 106.0 11.668283086326191 1
gene  1 13 8 8.20611047653141 1 110.0 8.20611047653141 1
gene  1 14 8 -1.9540053908618327 1 111.0 -1.9540053908618327 1
gene  1 1 9 2.265175221058799 0 112.0 2.265175221058799 1
gene  1 4 9 3.269083864254774 0 115.0 3.269083864254774 1
gene  1 5 9 -1.9432937318516967 0 116.0 -1.9432937318516967 1
gene  1 7 9 4.161550574264742 0 118.0 4.161550574264742 1
gene  1 9 9 0.8024114399135955 1 120.0 0.8024114399135955 1
gene  1 14 9 -1.741462156237838 1 125.0 -1.741462156237838 1
gene  1 2 13 1.212408486274575 0 169.0 1.212408486274575 1
gene  1 5 13 1.4393306665798429 0 172.0 1.4393306665798429 1
gene  1 8 13 3.268753180192713 0 175.0 3.268753180192713 1
gene  1 1 14 -0.6990143379954454 0 182.0 -0.6990143379954454 1
gene  1 2 14 0.3308144718119286 0 183.0 0.3308144718119286 1
gene  1 3 14 4.920532646642085 0 184.0 4.920532646642085 1
gene  1 6 14 0.5009292033862782 0 187.0 0.5009292033862782 1
gene  1 13 14 0.4617415167516352 0 194.0 0.4617415167516352 1
gene  1 14 14 11.021812184560378 1 195.0 11.021812184560378 1
gene  1 5 8 -3.7547207197789843 0 202.0 -3.7547207197789843 1
gene  1 4 13 0.2943379146829368 0 220.0 0.2943379146829368 1
gene  1 1 20 -12.344256955612186 0 231.0 -12.344256955612186 1
gene  1 20 14 1.9413641205515135 0 232.0 1.9413641205515135 1
gene  1 1 13 -6.197935626718419 0 329.0 -6.197935626718419 1
gene  1 13 20 3.5486141154688933 0 337.0 3.5486141154688933 1
gene  1 4 20 -3.6168897440976524 0 339.0 -3.6168897440976524 1
gene  1 9 8 0.006500984532268994 0 404.0 0.006500984532268994 1
gene  1 8 14 2.0917175215190156 0 410.0 2.0917175215190156 1
gene  1 5 56 -2.229925422515632 0 434.0 -2.229925422515632 1
gene  1 56 8 -1.8323054152576903 0 435.0 -1.8323054152576903 1
gene  1 2 9 -4.687838912922511 0 448.0 -4.687838912922511 1
gene  1 3 60 2.0304458878283245 0 458.0 2.0304458878283245 1
gene  1 60 8 -0.976510855279567 0 459.0 -0.976510855279567 1
genomeend 15
genomestart  16
trait 1 0.04702751910613956 0.5319433208524987 0.8875428902212121 0.7010184240616681 0.2545070174269727 0.020095000702126553 0.0 0.0 
node 1 1 1 1
node 2 1 1 1
node 3 1 1 1
node 4 1 1 1
node 5 1 1 1
node 6 1 1 1
node 7 1 1 3
node 8 1 0 0
node 9 1 0 0
node 13 1 0 2
node 14 1 0 2
node 20 1 0 0
node 56 1 0 0
node 60 1 0 0
gene  1 1 8 -7.091296365940975 0 98.0 -7.091296365940975 1
gene  1 2 8 8.484095026797533 0 99.0 8.484095026797533 1
gene  1 3 8 12.343096875006264 0 100.0 12.343096875006264 0
gene  1 6 8 -3.852792435778677 0 103.0 -3.852792435778677 1
gene  1 8 8 2.2199694657777007 1 105.0 2.2199694657777007 1
gene  1 9 8 11.874027449923751 1 106.0 11.874027449923751 1
gene  1 13 8 8.364185992753683 1 110.0 8.364185992753683 1
gene  1 14 8 -2.9145265719415634 1 111.0 -2.9145265719415634 1
gene  1 1 9 1.3741725558783253 0 112.0 1.3741725558783253 1
gene  1 4 9 2.2720081371486387 0 115.0 2.2720081371486387 1
gene  1 5 9 0.18866223494922923 0 116.0 0.18866223494922923 1
gene  1 7 9 2.363544880523955 0 118.0 2.363544880523955 1
gene  1 9 9 2.1028428541612425 1 120.0 2.1028428541612425 1
gene  1 14 9 -1.557210771558837 1 125.0 -1.557210771558837 1
gene  1 2 13 -0.29555043304791995 0 169.0 -0.29555043304791995 1
gene  1 5 13 2.187054136901145 0 172.0 2.187054136901145 1
gene  1 8 13 1.4807213558853338 0 175.0 1.4807213558853338 1
gene  1 1 14 1.7981964428389317 0 182.0 1.7981964428389317 1
gene  1 2 14 -1.7019904630674245 0 183.0 -1.7019904630674245 1
gene  1 3 14 2.45452944875656 0 184.0 2.45452944875656 1
gene  1 6 14 2.827122558876681 0 187.0 2.827122558876681 1
gene  1 13 14 1.0364871438614394 0 194.0 1.0364871438614394 1
gene  1 14 14 8.972987239889864 1 195.0 8.972987239889864 1
gene  1 5 8 -2.4799617812527766 0 202.0 -2.4799617812527766 0
gene  1 4 13 1.473736587425454 0 220.0 1.473736587425454 1
gene  1 1 20 -11.387028832639235 0 231.0 -11.387028832639235 1
gene  1 20 14 1.6641366408473106 0 232.0 1.6641366408473106 1
gene  1 1 13 -4.180943301148229 0 329.0 -4.180943301148229 1
gene  1 13 20 1.9893174792285655 0 337.0 1.9893174792285655 1
gene  1 4 20 -3.65815569215703 0 339.0 -3.65815569215703 1
gene  1 9 8 -1.795580319409327 0 404.0 -1.795580319409327 1
gene  1 8 14 2.0917175215190156 0 410.0 2.0917175215190156 1
gene  1 5 56 -2.229925422515632 0 434.0 -2.229925422515632 1
gene  1 56 8 -1.8323054152576903 0 435.0 -1.8323054152576903 1
gene  1 2 9 -6.438121866486492 0 448.0 -6.438121866486492 1
gene  1 3 60 1.0 0 458.0 0.0 1
gene  1 60 8 12.343096875006264 0 459.0 0.0 1
gene  1 56 13 -0.3507816267217667 0 460.0 -0.3507816267217667 1
genomeend 16
genomestart  17
trait 1 0.685217197429974 0.0 2.098377470416719 0.9336111726571436 2.2565650384084464 0.06675091232573671 0.0 0.0 
node 1 1 1 1
node 2 1 1 1
node 3 1 1 1
node 4 1 1 1
node 5 1 1 1
node 6 1 1 1
node 7 1 1 3
node 13 1 0 2
node 14 1 0 2
node 45 1 0 0
gene  1 1 13 6.061230349476715 0 168.0 6.061230349476715 1
gene  1 2 13 1.6597063806054326 0 169.0 1.6597063806054326 1
gene  1 5 13 1.0451922934101943 0 172.0 1.0451922934101943 1
gene  1 6 13 -10.987981948339616 0 173.0 -10.987981948339616 1
gene  1 7 13 -4.94739625528449 0 174.0 -4.94739625528449 1
gene  1 3 14 -4.573384776765663 0 184.0 -4.573384776765663 1
gene  1 4 14 4.439423277023689 0 185.0 4.439423277023689 1
gene  1 7 14 -2.2679476675557293 0 188.0 -2.2679476675557293 1
gene  1 13 14 2.9563891839461474 0 194.0 2.9563891839461474 1
gene  1 14 14 3.9143914603385492 1 195.0 3.9143914603385492 1
gene  1 4 13 -1.0858281217590318 0 235.0 -1.0858281217590318 1
gene  1 1 14 -2.783899020126633 0 242.0 -2.783899020126633 1
gene  1 5 14 -1.5654545714561947 0 319.0 -1.5654545714561947 1
gene  1 1 45 2.3128327021267476 0 370.0 2.3128327021267476 1
gene  1 45 13 0.9553743174064173 0 371.0 0.9553743174064173 1
gene  1 5 45 -9.581753420728463 0 461.0 -9.581753420728463 1
genomeend 17
genomestart  18
trait 1 0.685217197429974 0.0 2.098377470416719 0.9336111726571436 2.2565650384084464 0.06675091232573671 0.0 0.0 
node 1 1 1 1
node 2 1 1 1
node 3 1 1 1
node 4 1 1 1
node 5 1 1 1
node 6 1 1 1
node 7 1 1 3
node 13 1 0 2
node 14 1 0 2
node 45 1 0 0
gene  1 1 13 5.762041773995267 0 168.0 5.762041773995267 1
gene  1 2 13 1.5339247182173104 0 169.0 1.5339247182173104 1
gene  1 5 13 -1.4265618758115612 0 172.0 -1.4265618758115612 1
gene  1 6 13 -8.783495065668088 0 173.0 -8.783495065668088 1
gene  1 7 13 -4.2711067001064045 0 174.0 -4.2711067001064045 1
gene  1 3 14 -6.027616713167911 0 184.0 -6.027616713167911 1
gene  1 4 14 2.352856569509746 0 185.0 2.352856569509746 1
gene  1 7 14 -3.201376293994942 0 188.0 -3.201376293994942 1
gene  1 13 14 4.294587918038747 0 194.0 4.294587918038747 1
gene  1 14 14 3.0285077634380615 1 195.0 3.0285077634380615 1
gene  1 4 13 0.46139379165652517 0 235.0 0.46139379165652517 1
gene  1 1 14 -4.811334446591921 0 242.0 -4.811334446591921 1
gene  1 5 14 -0.21035704118320675 0 319.0 -0.21035704118320675 1
gene  1 1 45 1.5625624284576063 0 370.0 1.5625624284576063 1
gene  1 45 13 0.9548199366597274 0 371.0 0.9548199366597274 1
genomeend 18
genomestart  19
trait 1 0.685217197429974 0.0 2.098377470416719 0.9336111726571436 2.2565650384084464 0.06675091232573671 0.0 0.0 
node 1 1 1 1
node 2 1 1 1
node 3 1 1 1
node 4 1 1 1
node 5 1 1 1
node 6 1 1 1
node 7 1 1 3
node 13 1 0 2
node 14 1 0 2
node 45 1 0 0
gene  1 1 13 6.6992991999021845 0 168.0 6.6992991999021845 1
gene  1 2 13 1.4782042628141485 0 169.0 1.4782042628141485 1
gene  1 5 13 1.6343152884845953 0 172.0 1.6343152884845953 1
gene  1 6 13 -10.713295826296974 0 173.0 -10.713295826296974 1
gene  1 7 13 -5.40110404345603 0 174.0 -5.40110404345603 1
gene  1 3 14 -3.0466429512306146 0 184.0 -3.0466429512306146 1
gene  1 4 14 4.288907869221101 0 185.0 4.288907869221101 1
gene  1 7 14 -1.1463953508348643 0 188.0 -1.1463953508348643 1
gene  1 13 14 3.7836998788925453 0 194.0 3.7836998788925453 1
gene  1 14 14 6.248257932370848 1 195.0 6.248257932370848 1
gene  1 4 13 1.173993562639841 0 235.0 1.173993562639841 1
gene  1 1 14 -3.387901838014866 0 242.0 -3.387901838014866 1
gene  1 5 14 -3.14516826286093 0 319.0 -3.14516826286093 1
gene  1 1 45 2.3128327021267476 0 370.0 2.3128327021267476 1
gene  1 45 13 0.9553743174064173 0 371.0 0.9553743174064173 1
genomeend 19
