genomestart  0
trait 1 0.0 0.0 0.0 0.0 0.34861870450370325 0.18084195503611378 0.0 0.0 
node 1 1 1 1
node 2 1 1 1
node 3 1 1 1
node 4 1 1 1
node 5 1 1 1
node 6 1 1 1
node 7 1 1 3
node 13 1 0 2
node 14 1 0 2
gene  1 1 13 3.2242665482653052 0 168.0 3.2242665482653052 1
gene  1 3 13 -0.19270229827463825 0 170.0 -0.19270229827463825 1
gene  1 5 13 -0.8314662716274475 0 172.0 -0.8314662716274475 1
gene  1 6 13 -0.7084522177958924 0 173.0 -0.7084522177958924 1
gene  1 14 13 0.7412870492075609 1 181.0 0.7412870492075609 1
gene  1 1 14 -1.951847357962492 0 182.0 -1.951847357962492 1
gene  1 2 14 4.191389162981904 0 183.0 4.191389162981904 1
gene  1 4 14 0.12241144357344402 0 185.0 0.12241144357344402 1
gene  1 5 14 2.4869683880859053 0 186.0 2.4869683880859053 1
gene  1 6 14 0.06355476905723711 0 187.0 0.06355476905723711 1
gene  1 7 14 6.200286215402872 0 188.0 6.200286215402872 1
gene  1 13 14 1.9885709846544994 0 194.0 1.9885709846544994 1
gene  1 14 14 0.5970309027788065 1 195.0 0.5970309027788065 1
genomeend 0
genomestart  1
trait 1 0.2586656094953509 0.5885108907393293 0.0 0.0 0.0 0.8252480027595169 0.3583119961020439 0.5379884025205909 
node 1 1 1 1
node 2 1 1 1
node 3 1 1 1
node 4 1 1 1
node 5 1 1 1
node 6 1 1 1
node 7 1 1 3
node 13 1 0 2
node 14 1 0 2
gene  1 2 13 0.05254575035030851 0 169.0 0.05254575035030851 1
gene  1 3 13 -7.034270253850918 0 170.0 -7.034270253850918 1
gene  1 4 13 1.5827956625107769 0 171.0 1.5827956625107769 1
gene  1 6 13 8.354164966365852 0 173.0 8.354164966365852 1
gene  1 7 13 0.4173858200663941 0 174.0 0.4173858200663941 1
gene  1 13 13 7.14936881919464 1 180.0 7.14936881919464 1
gene  1 1 14 -0.02951301007451529 0 182.0 -0.02951301007451529 1
gene  1 2 14 2.026894671529294 0 183.0 2.026894671529294 1
gene  1 5 14 -5.527699473556019 0 186.0 -5.527699473556019 1
gene  1 6 14 1.7768091078280799 0 187.0 1.7768091078280799 1
gene  1 7 14 -0.5680375577194985 0 188.0 -0.5680375577194985 1
gene  1 13 14 -2.761161118177566 0 194.0 -2.761161118177566 1
gene  1 14 14 1.2710353700311658 1 195.0 1.2710353700311658 1
gene  1 4 14 -0.9897443424525223 0 196.0 -0.9897443424525223 1
gene  1 1 13 2.911819798950847 0 216.0 2.911819798950847 1
genomeend 1
genomestart  2
trait 1 0.4195349490326866 0.5885108907393293 0.0 0.0 0.0 0.9657064716276549 0.3583119961020439 0.5379884025205909 
node 1 1 1 1
node 2 1 1 1
node 3 1 1 1
node 4 1 1 1
node 5 1 1 1
node 6 1 1 1
node 7 1 1 3
node 13 1 0 2
node 14 1 0 2
gene  1 2 13 5.537636587460122 0 169.0 5.537636587460122 1
gene  1 3 13 -7.138211303710615 0 170.0 -7.138211303710615 1
gene  1 4 13 -0.2904713279062615 0 171.0 -0.2904713279062615 1
gene  1 6 13 10.129023959986574 0 173.0 10.129023959986574 1
gene  1 7 13 -1.5509291549626023 0 174.0 -1.5509291549626023 1
gene  1 13 13 6.703911735077541 1 180.0 6.703911735077541 1
gene  1 1 14 0.9598463073387165 0 182.0 0.9598463073387165 1
gene  1 2 14 0.3139000972996017 0 183.0 0.3139000972996017 1
gene  1 5 14 -3.7319869948064714 0 186.0 -3.7319869948064714 1
gene  1 6 14 1.328192610865175 0 187.0 1.328192610865175 1
gene  1 7 14 0.5926748698305251 0 188.0 0.5926748698305251 1
gene  1 13 14 -2.052104990153647 0 194.0 -2.052104990153647 1
gene  1 14 14 -4.2266225000474265 1 195.0 -4.2266225000474265 1
gene  1 4 14 0.03602531742988857 0 196.0 0.03602531742988857 1
gene  1 1 13 1.477268891305722 0 216.0 1.477268891305722 1
genomeend 2
genomestart  3
trait 1 0.12933280474767544 0.29425544536966464 0.08853489118479813 0.07766507438443143 0.0 0.41262400137975846 0.0 0.0 
node 1 1 1 1
node 2 1 1 1
node 3 1 1 1
node 4 1 1 1
node 5 1 1 1
node 6 1 1 1
node 7 1 1 3
node 13 1 0 2
node 14 1 0 2
node 21 1 0 0
gene  1 1 13 2.1889342535028216 0 168.0 2.1889342535028216 1
gene  1 4 13 -1.4067446808745416 0 171.0 -1.4067446808745416 1
gene  1 5 13 -3.7177826220837287 0 172.0 -3.7177826220837287 1
gene  1 7 13 1.4810006934606734 0 174.0 1.4810006934606734 1
gene  1 13 13 -2.1587306819147356 1 180.0 -2.1587306819147356 1
gene  1 2 14 0.7269001867837577 0 183.0 0.7269001867837577 1
gene  1 3 14 -2.4533745556182107 0 184.0 -2.4533745556182107 1
gene  1 6 14 3.545345912120839 0 187.0 3.545345912120839 1
gene  1 13 14 1.0643573594246944 0 194.0 1.0643573594246944 1
gene  1 14 14 2.965666505470378 1 195.0 2.965666505470378 1
gene  1 6 13 -1.3840056391471944 0 205.0 -1.3840056391471944 1
gene  1 5 14 -4.999016916211465 0 223.0 -4.999016916211465 1
gene  1 3 13 1.4534583885975756 0 229.0 1.4534583885975756 1
gene  1 2 13 -1.563247388195398 0 233.0 -1.563247388195398 1
gene  1 1 21 0.13042490438867138 0 238.0 0.13042490438867138 1
gene  1 21 13 1.4942871171607472 0 239.0 1.4942871171607472 1
genomeend 3
genomestart  4
trait 1 0.12933280474767544 0.29425544536966464 0.08853489118479813 0.07766507438443143 0.0 0.41262400137975846 0.0 0.0 
node 1 1 1 1
node 2 1 1 1
node 3 1 1 1
node 4 1 1 1
node 5 1 1 1
node 6 1 1 1
node 7 1 1 3
node 13 1 0 2
node 14 1 0 2
node 21 1 0 0
gene  1 1 13 1.5522664658207772 0 168.0 1.5522664658207772 1
gene  1 4 13 0.9559353918011866 0 171.0 0.9559353918011866 1
gene  1 5 13 -4.58027930643829 0 172.0 -4.58027930643829 1
gene  1 7 13 -1.2526288458764627 0 174.0 -1.2526288458764627 1
gene  1 13 13 -5.017882182910128 1 180.0 -5.017882182910128 1
gene  1 2 14 3.182319982834431 0 183.0 3.182319982834431 1
gene  1 3 14 -1.7790521448377463 0 184.0 -1.7790521448377463 1
gene  1 6 14 5.8822187728637685 0 187.0 5.8822187728637685 1
gene  1 13 14 1.34175646913656 0 194.0 1.34175646913656 1
gene  1 14 14 0.4236617259564266 1 195.0 0.4236617259564266 1
gene  1 6 13 2.0849716843803283 0 205.0 2.0849716843803283 1
gene  1 5 14 -5.268413539798284 0 223.0 -5.268413539798284 1
gene  1 3 13 4.703395233173645 0 229.0 4.703395233173645 1
gene  1 2 13 0.06277539881432093 0 233.0 0.06277539881432093 1
gene  1 1 21 4.231213854894889 0 238.0 4.231213854894889 1
gene  1 21 13 -2.490890260389087 0 239.0 -2.490890260389087 1
genomeend 4
genomestart  5
trait 1 0.12933280474767544 0.29425544536966464 0.0 0.07766507438443143 0.6112420692706101 1.2819498063413657 0.0 0.8193156119147171 
node 1 1 1 1
node 2 1 1 1
node 3 1 1 1
node 4 1 1 1
node 5 1 1 1
node 6 1 1 1
node 7 1 1 3
node 13 1 0 2
node 14 1 0 2
node 21 1 0 0
gene  1 1 13 1.2812120426909313 0 168.0 1.2812120426909313 1
gene  1 4 13 -0.8628714568598344 0 171.0 -0.8628714568598344 1
gene  1 5 13 -4.571008321812371 0 172.0 -4.571008321812371 1
gene  1 7 13 0.981708242537751 0 174.0 0.981708242537751 1
gene  1 13 13 -2.754868935487597 1 180.0 -2.754868935487597 1
gene  1 2 14 2.2358444190524205 0 183.0 2.2358444190524205 1
gene  1 3 14 -2.835497545643672 0 184.0 -2.835497545643672 1
gene  1 6 14 3.558126489993314 0 187.0 3.558126489993314 1
gene  1 13 14 1.7606530124901976 0 194.0 1.7606530124901976 1
gene  1 14 14 1.8047363661331222 1 195.0 1.8047363661331222 1
gene  1 6 13 -0.11200446464932678 0 205.0 -0.11200446464932678 1
gene  1 5 14 -3.752516375125567 0 223.0 -3.752516375125567 1
gene  1 3 13 2.8281369291434153 0 229.0 2.8281369291434153 1
gene  1 2 13 0.06277539881432093 0 233.0 0.06277539881432093 1
gene  1 1 21 1.8529363180360545 0 238.0 1.8529363180360545 1
gene  1 21 13 2.036806861660008 0 239.0 2.036806861660008 1
genomeend 5
genomestart  6
trait 1 1.0490503876793729 0.03166108780081611 0.0 0.8800951238994141 0.919598732340333 0.055111220103936875 0.36131295212581005 0.0 
node 1 1 1 1
node 2 1 1 1
node 3 1 1 1
node 4 1 1 1
node 5 1 1 1
node 6 1 1 1
node 7 1 1 3
node 8 1 0 0
node 13 1 0 2
node 14 1 0 2
gene  1 1 8 1.0515450021131834 0 98.0 1.0515450021131834 1
gene  1 2 8 0.5934640088444658 0 99.0 0.5934640088444658 1
gene  1 3 8 -1.7743828140654574 0 100.0 -1.7743828140654574 1
gene  1 4 8 6.457009015916725 0 101.0 6.457009015916725 1
gene  1 5 8 2.5013964936013235 0 102.0 2.5013964936013235 1
gene  1 6 8 0.21573710434360427 0 103.0 0.21573710434360427 1
gene  1 8 8 -0.8068580236622493 1 105.0 -0.8068580236622493 1
gene  1 13 8 2.1616515699330296 1 110.0 2.1616515699330296 1
gene  1 14 8 5.938108110560669 1 111.0 5.938108110560669 1
gene  1 3 13 3.421301858291964 0 170.0 3.421301858291964 1
gene  1 5 13 2.6863662283064813 0 172.0 2.6863662283064813 1
gene  1 7 13 -2.4324192665743265 0 174.0 -2.4324192665743265 1
gene  1 13 13 -3.097442325494546 1 180.0 -3.097442325494546 1
gene  1 2 14 4.436198588124395 0 183.0 4.436198588124395 1
gene  1 4 14 0.5679850347860047 0 185.0 0.5679850347860047 1
gene  1 6 14 -2.797580860546148 0 187.0 -2.797580860546148 1
gene  1 8 14 0.5885276845226283 0 189.0 0.5885276845226283 1
gene  1 13 14 3.0904060090402234 0 194.0 3.0904060090402234 1
gene  1 2 13 1.2768983800624174 0 213.0 1.2768983800624174 1
gene  1 4 13 8.532501483742793 0 230.0 8.532501483742793 1
gene  1 13 8 3.0856385371901935 0 244.0 3.0856385371901935 1
genomeend 6
genomestart  7
trait 1 1.0490503876793729 0.03166108780081611 0.0 0.8800951238994141 0.919598732340333 0.055111220103936875 0.36131295212581005 0.0 
node 1 1 1 1
node 2 1 1 1
node 3 1 1 1
node 4 1 1 1
node 5 1 1 1
node 6 1 1 1
node 7 1 1 3
node 8 1 0 0
node 13 1 0 2
node 14 1 0 2
gene  1 1 8 2.6648490308035986 0 98.0 2.6648490308035986 1
gene  1 2 8 0.8695194150074214 0 99.0 0.8695194150074214 1
gene  1 3 8 -1.455592366094517 0 100.0 -1.455592366094517 1
gene  1 4 8 5.100761864275643 0 101.0 5.100761864275643 1
gene  1 5 8 4.064880574216049 0 102.0 4.064880574216049 1
gene  1 6 8 -0.722365244619428 0 103.0 -0.722365244619428 1
gene  1 8 8 1.1119990734704621 1 105.0 1.1119990734704621 1
gene  1 13 8 3.2493790342423985 1 110.0 3.2493790342423985 1
gene  1 14 8 7.587075455244428 1 111.0 7.587075455244428 1
gene  1 3 13 3.8520470406352083 0 170.0 3.8520470406352083 1
gene  1 5 13 4.722225399643262 0 172.0 4.722225399643262 1
gene  1 7 13 -2.229785924819223 0 174.0 -2.229785924819223 1
gene  1 13 13 -3.7330223308143995 1 180.0 -3.7330223308143995 1
gene  1 2 14 6.286420673209095 0 183.0 6.286420673209095 1
gene  1 4 14 1.9550603377968057 0 185.0 1.9550603377968057 1
gene  1 6 14 -4.2668068595294795 0 187.0 -4.2668068595294795 1
gene  1 8 14 -1.8657247817397082 0 189.0 -1.8657247817397082 1
gene  1 13 14 3.0904060090402234 0 194.0 3.0904060090402234 1
gene  1 2 13 -0.21056324525791897 0 213.0 -0.21056324525791897 1
gene  1 4 13 -2.445124852277143 0 230.0 -2.445124852277143 1
gene  1 13 8 3.0856385371901935 0 244.0 3.0856385371901935 1
genomeend 7
genomestart  8
trait 1 0.30953570504356986 0.0 0.01179544772583263 0.7114720370213098 1.5610523093872115 0.3493210991972051 0.0 0.0 
node 1 1 1 1
node 2 1 1 1
node 3 1 1 1
node 4 1 1 1
node 5 1 1 1
node 6 1 1 1
node 7 1 1 3
node 8 1 0 0
node 9 1 0 0
node 10 1 0 0
node 13 1 0 2
node 14 1 0 2
gene  1 1 8 2.122278998260643 0 98.0 2.122278998260643 1
gene  1 3 8 -4.765531839387675 0 100.0 -4.765531839387675 1
gene  1 5 8 1.0956842040961867 0 102.0 1.0956842040961867 1
gene  1 6 8 1.3941459708092825 0 103.0 1.3941459708092825 1
gene  1 8 8 -2.37251238106725 1 105.0 -2.37251238106725 1
gene  1 1 9 1.714564366586625 0 112.0 1.714564366586625 1
gene  1 2 9 1.6134973162085453 0 113.0 1.6134973162085453 1
gene  1 3 9 -0.8549904248696234 0 114.0 -0.8549904248696234 1
gene  1 5 9 1.5058131680276274 0 116.0 1.5058131680276274 1
gene  1 7 9 -0.15026711628691558 0 118.0 -0.15026711628691558 1
gene  1 9 9 1.6217251378298954 1 120.0 1.6217251378298954 1
gene  1 10 9 -0.28836442415156094 1 121.0 -0.28836442415156094 1
gene  1 13 9 -1.477374552140043 1 124.0 -1.477374552140043 1
gene  1 2 10 -1.6346614246708204 0 127.0 -1.6346614246708204 1
gene  1 4 10 1.6471419212287484 0 129.0 1.6471419212287484 1
gene  1 5 10 -1.3165009782083945 0 130.0 -1.3165009782083945 1
gene  1 8 10 0.48848285967939636 0 133.0 0.48848285967939636 1
gene  1 9 10 1.909997746334073 0 134.0 1.909997746334073 1
gene  1 10 10 2.6562788657016676 1 135.0 2.6562788657016676 1
gene  1 13 10 -8.426026123556863 1 138.0 -8.426026123556863 1
gene  1 14 10 -0.725142608673828 1 139.0 -0.725142608673828 1
gene  1 2 13 -1.9217650454685031 0 169.0 -1.9217650454685031 1
gene  1 3 13 1.189809864030047 0 170.0 1.189809864030047 1
gene  1 6 13 -1.7277424942832158 0 173.0 -1.7277424942832158 1
gene  1 7 13 -0.7899960817005811 0 174.0 -0.7899960817005811 1
gene  1 9 13 7.692555215705823 0 176.0 7.692555215705823 1
gene  1 13 13 3.1252951438247605 1 180.0 3.1252951438247605 1
gene  1 14 13 -2.4986315726337534 1 181.0 -2.4986315726337534 1
gene  1 1 14 -6.674596169731755 0 182.0 -6.674596169731755 1
gene  1 3 14 0.4280387853640766 0 184.0 0.4280387853640766 1
gene  1 9 14 1.2285151318865262 0 190.0 1.2285151318865262 1
gene  1 10 14 -2.1979824837647084 0 191.0 -2.1979824837647084 1
gene  1 8 13 4.739278675711821 0 207.0 4.739278675711821 1
gene  1 1 10 -1.315416988056934 0 226.0 -1.315416988056934 1
gene  1 6 14 2.089826678178571 0 234.0 2.089826678178571 1
genomeend 8
genomestart  9
trait 1 0.30953570504356986 0.0 0.01179544772583263 0.7114720370213098 1.5610523093872115 0.3493210991972051 0.0 0.0 
node 1 1 1 1
node 2 1 1 1
node 3 1 1 1
node 4 1 1 1
node 5 1 1 1
node 6 1 1 1
node 7 1 1 3
node 8 1 0 0
node 9 1 0 0
node 10 1 0 0
node 13 1 0 2
node 14 1 0 2
gene  1 1 8 -2.9304073049988224 0 98.0 -2.9304073049988224 1
gene  1 3 8 -1.7325146731928656 0 100.0 -1.7325146731928656 1
gene  1 5 8 0.724423323672069 0 102.0 0.724423323672069 1
gene  1 6 8 -0.9994803677015793 0 103.0 -0.9994803677015793 1
gene  1 8 8 -6.5870691998083375 1 105.0 -6.5870691998083375 1
gene  1 1 9 1.785478033140078 0 112.0 1.785478033140078 1
gene  1 2 9 -0.22752430113310324 0 113.0 -0.22752430113310324 1
gene  1 3 9 -4.262104489612755 0 114.0 -4.262104489612755 1
gene  1 5 9 2.16458774875068 0 116.0 2.16458774875068 1
gene  1 7 9 -0.47818309309493356 0 118.0 -0.47818309309493356 1
gene  1 9 9 1.3759577714805846 1 120.0 1.3759577714805846 1
gene  1 10 9 -3.089517841376444 1 121.0 -3.089517841376444 1
gene  1 13 9 5.144850986558779 1 124.0 5.144850986558779 1
gene  1 2 10 -1.71429356767181 0 127.0 -1.71429356767181 1
gene  1 4 10 1.6951975329497904 0 129.0 1.6951975329497904 1
gene  1 5 10 -2.3107251391144947 0 130.0 -2.3107251391144947 1
gene  1 8 10 -1.2137494565277303 0 133.0 -1.2137494565277303 1
gene  1 9 10 1.5210961695133423 0 134.0 1.5210961695133423 1
gene  1 10 10 2.4935680104158386 1 135.0 2.4935680104158386 1
gene  1 13 10 -11.449683833925867 1 138.0 -11.449683833925867 1
gene  1 14 10 -0.4198377660119932 1 139.0 -0.4198377660119932 1
gene  1 2 13 0.14318476966281357 0 169.0 0.14318476966281357 1
gene  1 3 13 2.0393133204170284 0 170.0 2.0393133204170284 1
gene  1 6 13 -1.822430372758253 0 173.0 -1.822430372758253 1
gene  1 7 13 4.810456711972003 0 174.0 4.810456711972003 1
gene  1 9 13 -2.2745624729728133 0 176.0 -2.2745624729728133 1
gene  1 13 13 3.398955722538447 1 180.0 3.398955722538447 1
gene  1 14 13 -3.417369410899096 1 181.0 -3.417369410899096 1
gene  1 1 14 -5.620419361186153 0 182.0 -5.620419361186153 1
gene  1 3 14 -1.3524587061773312 0 184.0 -1.3524587061773312 1
gene  1 9 14 -2.4549722484442014 0 190.0 -2.4549722484442014 1
gene  1 10 14 -1.9236747559125824 0 191.0 -1.9236747559125824 1
gene  1 8 13 4.478682301665952 0 207.0 4.478682301665952 1
gene  1 1 10 -2.348339895074399 0 226.0 -2.348339895074399 1
gene  1 6 14 1.8040820254848413 0 234.0 1.8040820254848413 1
genomeend 9
genomestart  10
trait 1 0.30953570504356986 0.0 0.01179544772583263 0.7114720370213098 1.5610523093872115 0.3493210991972051 0.0 0.0 
node 1 1 1 1
node 2 1 1 1
node 3 1 1 1
node 4 1 1 1
node 5 1 1 1
node 6 1 1 1
node 7 1 1 3
node 8 1 0 0
node 9 1 0 0
node 10 1 0 0
node 13 1 0 2
node 14 1 0 2
gene  1 1 8 -2.2694120661863595 0 98.0 -2.2694120661863595 1
gene  1 3 8 -4.856993080936011 0 100.0 -4.856993080936011 1
gene  1 5 8 -0.13831337301622287 0 102.0 -0.13831337301622287 1
gene  1 6 8 2.9058077831892546 0 103.0 2.9058077831892546 1
gene  1 8 8 -7.476411003332705 1 105.0 -7.476411003332705 1
gene  1 1 9 1.9566909853341004 0 112.0 1.9566909853341004 1
gene  1 2 9 -0.5875337284451138 0 113.0 -0.5875337284451138 1
gene  1 3 9 -1.6901242997215513 0 114.0 -1.6901242997215513 1
gene  1 5 9 0.6701437776742797 0 116.0 0.6701437776742797 1
gene  1 7 9 1.412016243343192 0 118.0 1.412016243343192 1
gene  1 9 9 1.85649305801708 1 120.0 1.85649305801708 1
gene  1 10 9 -1.3416237459201432 1 121.0 -1.3416237459201432 1
gene  1 13 9 3.4001809113226593 1 124.0 3.4001809113226593 1
gene  1 2 10 -0.41663711797681163 0 127.0 -0.41663711797681163 1
gene  1 4 10 1.1354052078809578 0 129.0 1.1354052078809578 1
gene  1 5 10 -0.7893935539487695 0 130.0 -0.7893935539487695 1
gene  1 8 10 -0.7502769342617339 0 133.0 -0.7502769342617339 1
gene  1 9 10 -1.5621062344084844 0 134.0 -1.5621062344084844 1
gene  1 10 10 3.292119081082449 1 135.0 3.292119081082449 1
gene  1 13 10 -10.787009504380666 1 138.0 -10.787009504380666 1
gene  1 14 10 -1.6139767821385123 1 139.0 -1.6139767821385123 1
gene  1 2 13 1.667443988012876 0 169.0 1.667443988012876 1
gene  1 3 13 2.2558825942890364 0 170.0 2.2558825942890364 1
gene  1 6 13 -0.7967223725081793 0 173.0 -0.7967223725081793 1
gene  1 7 13 4.870956604348104 0 174.0 4.870956604348104 1
gene  1 9 13 8.677314425549405 0 176.0 8.677314425549405 1
gene  1 13 13 5.512942619148886 1 180.0 5.512942619148886 1
gene  1 14 13 -0.2796449128620395 1 181.0 -0.2796449128620395 1
gene  1 1 14 -5.5417063712290675 0 182.0 -5.5417063712290675 1
gene  1 3 14 -0.925355298406058 0 184.0 -0.925355298406058 1
gene  1 9 14 -1.3578118612625 0 190.0 -1.3578118612625 1
gene  1 10 14 -1.024459626618905 0 191.0 -1.024459626618905 1
gene  1 8 13 3.7861419215874066 0 207.0 3.7861419215874066 1
gene  1 1 10 0.1799694116429027 0 226.0 0.1799694116429027 1
gene  1 6 14 0.34887674919223594 0 234.0 0.34887674919223594 1
genomeend 10
genomestart  11
trait 1 0.0 0.21752476535502496 0.0 0.0 0.3565870268080499 0.0 0.0 0.0 
node 1 1 1 1
node 2 1 1 1
node 3 1 1 1
node 4 1 1 1
node 5 1 1 1
node 6 1 1 1
node 7 1 1 3
node 8 1 0 0
node 13 1 0 2
node 14 1 0 2
node 22 1 0 0
gene  1 1 8 3.3021635064183217 0 98.0 3.3021635064183217 1
gene  1 3 8 -2.4640514681328636 0 100.0 -2.4640514681328636 1
gene  1 4 8 0.08685358162977191 0 101.0 0.08685358162977191 1
gene  1 5 8 -2.0871366474998654 0 102.0 -2.0871366474998654 1
gene  1 6 8 -0.2530117178997494 0 103.0 -0.2530117178997494 1
gene  1 8 8 -1.2831179245094557 1 105.0 -1.2831179245094557 1
gene  1 1 13 -4.327926953089385 0 168.0 -4.327926953089385 1
gene  1 5 13 1.7219033784062936 0 172.0 1.7219033784062936 1
gene  1 13 13 -7.5092045886426 1 180.0 -7.5092045886426 1
gene  1 14 13 0.6856058485429581 1 181.0 0.6856058485429581 1
gene  1 2 14 -5.775345647273138 0 183.0 -5.775345647273138 1
gene  1 3 14 -1.0411638292687924 0 184.0 -1.0411638292687924 1
gene  1 5 14 2.9665399917902286 0 186.0 2.9665399917902286 1
gene  1 7 14 -1.7125333403338128 0 188.0 -1.7125333403338128 1
gene  1 8 14 0.606254846645896 0 189.0 0.606254846645896 1
gene  1 13 14 0.3296266297520567 0 194.0 0.3296266297520567 1
gene  1 2 13 2.9556585025505338 0 236.0 2.9556585025505338 1
gene  1 8 22 -1.3372636122694945 0 240.0 -1.3372636122694945 1
gene  1 22 14 -1.894403927040578 0 241.0 -1.894403927040578 1
gene  1 1 22 -3.4264705727578892 0 245.0 -3.4264705727578892 1
genomeend 11
genomestart  12
trait 1 0.0 0.0 0.0 0.0 0.0 0.16725497665413347 0.0 0.0 
node 1 1 1 1
node 2 1 1 1
node 3 1 1 1
node 4 1 1 1
node 5 1 1 1
node 6 1 1 1
node 7 1 1 3
node 13 1 0 2
node 14 1 0 2
gene  1 1 13 0.4040866077450872 0 168.0 0.4040866077450872 1
gene  1 2 13 8.395752046927536 0 169.0 8.395752046927536 1
gene  1 3 13 -0.2881548705763952 0 170.0 -0.2881548705763952 1
gene  1 4 13 -1.9306935286538192 0 171.0 -1.9306935286538192 1
gene  1 5 13 1.9442493989663965 0 172.0 1.9442493989663965 1
gene  1 6 13 -5.7738744453482775 0 173.0 -5.7738744453482775 1
gene  1 7 13 2.880933963192215 0 174.0 2.880933963192215 1
gene  1 14 13 0.6141837224612627 1 181.0 0.6141837224612627 1
gene  1 1 14 -2.450923901549555 0 182.0 -2.450923901549555 1
gene  1 2 14 0.6177920271248674 0 183.0 0.6177920271248674 1
gene  1 3 14 2.5946071441538163 0 184.0 2.5946071441538163 1
gene  1 13 14 1.1560400578105636 0 194.0 1.1560400578105636 1
gene  1 14 14 2.0038219269853017 1 195.0 2.0038219269853017 1
genomeend 12
genomestart  13
trait 1 0.0 0.0 0.0 0.0 0.0 0.16725497665413347 0.0 0.0 
node 1 1 1 1
node 2 1 1 1
node 3 1 1 1
node 4 1 1 1
node 5 1 1 1
node 6 1 1 1
node 7 1 1 3
node 13 1 0 2
node 14 1 0 2
gene  1 1 13 5.9404708735045695 0 168.0 5.9404708735045695 1
gene  1 2 13 6.4396568947112325 0 169.0 6.4396568947112325 1
gene  1 3 13 -0.5301058212868432 0 170.0 -0.5301058212868432 1
gene  1 4 13 -2.2007824921554904 0 171.0 -2.2007824921554904 1
gene  1 5 13 3.0525015175068884 0 172.0 3.0525015175068884 1
gene  1 6 13 -7.414575310935337 0 173.0 -7.414575310935337 1
gene  1 7 13 5.193443739429765 0 174.0 5.193443739429765 1
gene  1 14 13 -0.7136731378502448 1 181.0 -0.7136731378502448 1
gene  1 1 14 -3.7682040225946705 0 182.0 -3.7682040225946705 1
gene  1 2 14 3.209200133972063 0 183.0 3.209200133972063 1
gene  1 3 14 1.1943764268769073 0 184.0 1.1943764268769073 1
gene  1 13 14 -1.761226566341783 0 194.0 -1.761226566341783 1
gene  1 14 14 -1.7270141551580334 1 195.0 -1.7270141551580334 1
genomeend 13
genomestart  14
trait 1 0.0 0.0 0.0 0.0 0.0 0.16725497665413347 0.0 0.0 
node 1 1 1 1
node 2 1 1 1
node 3 1 1 1
node 4 1 1 1
node 5 1 1 1
node 6 1 1 1
node 7 1 1 3
node 13 1 0 2
node 14 1 0 2
node 23 1 0 0
gene  1 1 13 5.7163787496569745 0 168.0 5.7163787496569745 0
gene  1 2 13 8.062581985483211 0 169.0 8.062581985483211 1
gene  1 3 13 -0.47770888085876223 0 170.0 -0.47770888085876223 1
gene  1 4 13 -2.5009621545274046 0 171.0 -2.5009621545274046 1
gene  1 5 13 0.8119337732016663 0 172.0 0.8119337732016663 1
gene  1 6 13 -4.999495797638865 0 173.0 -4.999495797638865 1
gene  1 7 13 2.819349852361432 0 174.0 2.819349852361432 1
gene  1 14 13 1.0373347903026349 1 181.0 1.0373347903026349 1
gene  1 1 14 -1.6075630698160572 0 182.0 -1.6075630698160572 1
gene  1 2 14 2.185691161323108 0 183.0 2.185691161323108 1
gene  1 3 14 0.36873638381835994 0 184.0 0.36873638381835994 1
gene  1 13 14 -0.47436131171441964 0 194.0 -0.47436131171441964 1
gene  1 14 14 -0.722426422907702 1 195.0 -0.722426422907702 1
gene  1 1 23 1.0 0 248.0 0.0 1
gene  1 23 13 5.7163787496569745 0 249.0 0.0 1
genomeend 14
genomestart  15
trait 1 0.0 0.0 0.0 0.0 0.0 0.16725497665413347 0.0 0.0 
node 1 1 1 1
node 2 1 1 1
node 3 1 1 1
node 4 1 1 1
node 5 1 1 1
node 6 1 1 1
node 7 1 1 3
node 13 1 0 2
node 14 1 0 2
gene  1 1 13 6.955157408131468 0 168.0 6.955157408131468 1
gene  1 2 13 9.128750444071835 0 169.0 9.128750444071835 1
gene  1 3 13 -1.0906621951454623 0 170.0 -1.0906621951454623 1
gene  1 4 13 -3.6856558493947116 0 171.0 -3.6856558493947116 1
gene  1 5 13 -0.15130435663536113 0 172.0 -0.15130435663536113 1
gene  1 6 13 -4.279328107817237 0 173.0 -4.279328107817237 1
gene  1 7 13 2.427815666187715 0 174.0 2.427815666187715 1
gene  1 14 13 3.2669962749100163 1 181.0 3.2669962749100163 1
gene  1 1 14 -0.9080349010087119 0 182.0 -0.9080349010087119 1
gene  1 2 14 0.2219795931100248 0 183.0 0.2219795931100248 1
gene  1 3 14 0.24858011487203402 0 184.0 0.24858011487203402 1
gene  1 13 14 -1.17354366806536 0 194.0 -1.17354366806536 1
gene  1 14 14 -0.722426422907702 1 195.0 -0.722426422907702 1
genomeend 15
genomestart  16
trait 1 0.0 0.0 0.4837506990707928 0.0 0.10536140174041086 0.7373771694244708 0.38469724871211086 0.0 
node 1 1 1 1
node 2 1 1 1
node 3 1 1 1
node 4 1 1 1
node 5 1 1 1
node 6 1 1 1
node 7 1 1 3
node 8 1 0 0
node 9 1 0 0
node 13 1 0 2
node 14 1 0 2
node 20 1 0 0
gene  1 1 8 -3.9881975158052994 0 98.0 -3.9881975158052994 1
gene  1 2 8 5.819057862581426 0 99.0 5.819057862581426 1
gene  1 3 8 -0.13283120429720385 0 100.0 -0.13283120429720385 1
gene  1 6 8 -0.10016947677670429 0 103.0 -0.10016947677670429 1
gene  1 8 8 6.514234268588195 1 105.0 6.514234268588195 1
gene  1 9 8 9.77404349696828 1 106.0 9.77404349696828 1
gene  1 13 8 9.433772481372479 1 110.0 9.433772481372479 1
gene  1 14 8 -1.6738773973894572 1 111.0 -1.6738773973894572 1
gene  1 1 9 1.3623257647775113 0 112.0 1.3623257647775113 1
gene  1 4 9 1.951727534681494 0 115.0 1.951727534681494 1
gene  1 5 9 -1.9335341338704644 0 116.0 -1.9335341338704644 1
gene  1 7 9 -5.945138683469669 0 118.0 -5.945138683469669 1
gene  1 9 9 5.869608000230425 1 120.0 5.869608000230425 1
gene  1 14 9 -1.6207724785565623 1 125.0 -1.6207724785565623 1
gene  1 2 13 -7.453147937347861 0 169.0 -7.453147937347861 1
gene  1 5 13 -5.1702546453285985 0 172.0 -5.1702546453285985 1
gene  1 8 13 -3.5639588781099567 0 175.0 -3.5639588781099567 1
gene  1 1 14 4.346091867769981 0 182.0 4.346091867769981 0
gene  1 2 14 13.506265548303118 0 183.0 13.506265548303118 1
gene  1 3 14 -5.55455057906823 0 184.0 -5.55455057906823 1
gene  1 6 14 5.329093933639076 0 187.0 5.329093933639076 1
gene  1 13 14 -0.6010530622466119 0 194.0 -0.6010530622466119 1
gene  1 14 14 0.7644554031370734 1 195.0 0.7644554031370734 1
gene  1 5 8 -4.315994706488569 0 202.0 -4.315994706488569 1
gene  1 4 13 -0.7675901394793605 0 220.0 -0.7675901394793605 1
gene  1 1 20 -1.7128203025314634 0 231.0 -1.7128203025314634 1
gene  1 20 14 -1.0299045367785413 0 232.0 -1.0299045367785413 1
genomeend 16
genomestart  17
trait 1 0.0 0.0 0.4837506990707928 0.0 0.10536140174041086 0.7373771694244708 0.38469724871211086 0.0 
node 1 1 1 1
node 2 1 1 1
node 3 1 1 1
node 4 1 1 1
node 5 1 1 1
node 6 1 1 1
node 7 1 1 3
node 8 1 0 0
node 9 1 0 0
node 13 1 0 2
node 14 1 0 2
node 20 1 0 0
gene  1 1 8 -5.272651910547855 0 98.0 -5.272651910547855 1
gene  1 2 8 -2.491174749485245 0 99.0 -2.491174749485245 1
gene  1 3 8 -1.089218533686895 0 100.0 -1.089218533686895 1
gene  1 6 8 0.9485559586287033 0 103.0 0.9485559586287033 1
gene  1 8 8 1.9448000899884605 1 105.0 1.9448000899884605 1
gene  1 9 8 8.54115446904516 1 106.0 8.54115446904516 1
gene  1 13 8 9.130443979780091 1 110.0 9.130443979780091 1
gene  1 14 8 -3.661444989256152 1 111.0 -3.661444989256152 1
gene  1 1 9 -2.7666977226315947 0 112.0 -2.7666977226315947 1
gene  1 4 9 0.6896434728198897 0 115.0 0.6896434728198897 1
gene  1 5 9 -3.7342204027137784 0 116.0 -3.7342204027137784 1
gene  1 7 9 -4.33546746356744 0 118.0 -4.33546746356744 1
gene  1 9 9 4.042175395066006 1 120.0 4.042175395066006 1
gene  1 14 9 0.7219648058452233 1 125.0 0.7219648058452233 1
gene  1 2 13 -3.686448321525755 0 169.0 -3.686448321525755 1
gene  1 5 13 1.7515658937979577 0 172.0 1.7515658937979577 1
gene  1 8 13 2.3292441563125874 0 175.0 2.3292441563125874 1
gene  1 1 14 1.569203748235045 0 182.0 1.569203748235045 0
gene  1 2 14 13.730600871692673 0 183.0 13.730600871692673 1
gene  1 3 14 -6.025945740771352 0 184.0 -6.025945740771352 1
gene  1 6 14 2.862831260386613 0 187.0 2.862831260386613 1
gene  1 13 14 -0.1661183131176287 0 194.0 -0.1661183131176287 1
gene  1 14 14 2.5938268351162 1 195.0 2.5938268351162 1
gene  1 5 8 -2.441468762452724 0 202.0 -2.441468762452724 1
gene  1 4 13 -3.875280240729533 0 220.0 -3.875280240729533 1
gene  1 1 20 -0.28523931008623216 0 231.0 -0.28523931008623216 1
gene  1 20 14 2.28776267398522 0 232.0 2.28776267398522 1
genomeend 17
genomestart  18
trait 1 0.0 0.0 0.0 0.0 0.0 0.0 0.0 0.0 
node 1 1 1 1
node 2 1 1 1
node 3 1 1 1
node 4 1 1 1
node 5 1 1 1
node 6 1 1 1
node 7 1 1 3
node 13 1 0 2
node 14 1 0 2
gene  1 1 13 1.8362334372067692 0 168.0 1.8362334372067692 1
gene  1 2 13 0.47581028723513136 0 169.0 0.47581028723513136 1
gene  1 5 13 -0.723095915168682 0 172.0 -0.723095915168682 1
gene  1 6 13 -3.9390305520656517 0 173.0 -3.9390305520656517 1
gene  1 7 13 1.2464519222931363 0 174.0 1.2464519222931363 1
gene  1 3 14 -1.5265227665639745 0 184.0 -1.5265227665639745 1
gene  1 4 14 7.921517800591362 0 185.0 7.921517800591362 1
gene  1 7 14 -0.305729715113755 0 188.0 -0.305729715113755 1
gene  1 13 14 -2.597749710774031 0 194.0 -2.597749710774031 1
gene  1 14 14 5.609275031958638 1 195.0 5.609275031958638 1
gene  1 4 13 -8.780622402963868 0 235.0 -8.780622402963868 1
gene  1 1 14 -3.3718819669280666 0 242.0 -3.3718819669280666 1
genomeend 18
genomestart  19
trait 1 0.0 0.0 0.0 0.0 0.0 0.0 0.0 0.0 
node 1 1 1 1
node 2 1 1 1
node 3 1 1 1
node 4 1 1 1
node 5 1 1 1
node 6 1 1 1
node 7 1 1 3
node 13 1 0 2
node 14 1 0 2
gene  1 1 13 -1.4270570315548907 0 168.0 -1.4270570315548907 1
gene  1 2 13 0.47581028723513136 0 169.0 0.47581028723513136 1
gene  1 5 13 1.5680237298234245 0 172.0 1.5680237298234245 1
gene  1 6 13 -2.1124007745439046 0 173.0 -2.1124007745439046 1
gene  1 7 13 1.2464519222931363 0 174.0 1.2464519222931363 1
gene  1 3 14 -2.6255233729438965 0 184.0 -2.6255233729438965 1
gene  1 4 14 8.22101084551647 0 185.0 8.22101084551647 1
gene  1 7 14 1.539193371241795 0 188.0 1.539193371241795 1
gene  1 13 14 -2.597749710774031 0 194.0 -2.597749710774031 1
gene  1 14 14 6.773159605524004 1 195.0 6.773159605524004 1
gene  1 4 13 -8.780622402963868 0 235.0 -8.780622402963868 1
gene  1 1 14 -1.0053385729193518 0 242.0 -1.0053385729193518 1
genomeend 19
