genomestart  0
trait 1 0.12236385032328645 0.11996509262718169 0.0 1.2348572107762614 0.0 1.3168578850843018 1.0590140864502917 1.7905313975538821 
node 1 1 1 1
node 2 1 1 1
node 3 1 1 1
node 4 1 1 1
node 5 1 1 1
node 6 1 1 1
node 7 1 1 3
node 13 1 0 2
node 14 1 0 2
node 33 1 0 0
node 48 1 0 0
node 55 1 0 0
gene  1 2 13 -4.416063109304507 0 169.0 -4.416063109304507 1
gene  1 3 13 1.7954474202997297 0 170.0 1.7954474202997297 1
gene  1 4 13 4.022614491210321 0 171.0 4.022614491210321 1
gene  1 6 13 -6.460627228143406 0 173.0 -6.460627228143406 1
gene  1 7 13 -5.095892998393776 0 174.0 -5.095892998393776 1
gene  1 13 13 3.203921815919045 1 180.0 3.203921815919045 1
gene  1 1 14 2.2143987586140548 0 182.0 2.2143987586140548 1
gene  1 2 14 6.915890062894281 0 183.0 6.915890062894281 1
gene  1 5 14 0.06608356556937878 0 186.0 0.06608356556937878 1
gene  1 6 14 -2.064796535496897 0 187.0 -2.064796535496897 1
gene  1 7 14 -2.974122828412449 0 188.0 -2.974122828412449 1
gene  1 13 14 -0.5443189743502457 0 194.0 -0.5443189743502457 0
gene  1 14 14 -0.7732766061213897 1 195.0 -0.7732766061213897 1
gene  1 4 14 0.20675770909923308 0 196.0 0.20675770909923308 1
gene  1 1 13 9.531776344590092 0 216.0 9.531776344590092 1
gene  1 1 33 4.2929965635849445 0 313.0 4.2929965635849445 1
gene  1 33 14 -3.8527665691053934 0 314.0 -3.8527665691053934 1
gene  1 14 48 1.8074685750358013 1 379.0 1.8074685750358013 1
gene  1 48 14 1.746490480447636 0 380.0 1.746490480447636 1
gene  1 48 33 0.18178077040493457 0 381.0 0.18178077040493457 1
gene  1 4 33 -1.5841938974386294 0 384.0 -1.5841938974386294 1
gene  1 13 55 1.9552857506033432 0 407.0 1.9552857506033432 1
gene  1 55 14 -0.6201983207115023 0 408.0 -0.6201983207115023 1
gene  1 2 33 -2.0641873714913563 0 425.0 -2.0641873714913563 1
gene  1 13 33 0.5356019667955545 0 427.0 0.5356019667955545 1
genomeend 0
genomestart  1
trait 1 0.12236385032328645 0.0 0.0 2.0151746843784446 0.0 1.3168578850843018 1.0590140864502917 1.7905313975538821 
node 1 1 1 1
node 2 1 1 1
node 3 1 1 1
node 4 1 1 1
node 5 1 1 1
node 6 1 1 1
node 7 1 1 3
node 13 1 0 2
node 14 1 0 2
node 33 1 0 0
node 48 1 0 0
node 55 1 0 0
gene  1 2 13 -3.994154284634954 0 169.0 -3.994154284634954 1
gene  1 3 13 -0.45052003087500814 0 170.0 -0.45052003087500814 1
gene  1 4 13 3.3276159779143706 0 171.0 3.3276159779143706 1
gene  1 6 13 -4.914563795073086 0 173.0 -4.914563795073086 1
gene  1 7 13 -3.5833430144874914 0 174.0 -3.5833430144874914 1
gene  1 13 13 5.363807472873619 1 180.0 5.363807472873619 1
gene  1 1 14 -1.6204444756412542 0 182.0 -1.6204444756412542 1
gene  1 2 14 6.0986614472219784 0 183.0 6.0986614472219784 1
gene  1 5 14 1.8041893718382842 0 186.0 1.8041893718382842 1
gene  1 6 14 -0.9403504456273781 0 187.0 -0.9403504456273781 1
gene  1 7 14 -2.4427983093579426 0 188.0 -2.4427983093579426 1
gene  1 13 14 0.7369782329547778 0 194.0 0.7369782329547778 0
gene  1 14 14 0.02197958775383757 1 195.0 0.02197958775383757 1
gene  1 4 14 0.20675770909923308 0 196.0 0.20675770909923308 1
gene  1 1 13 8.09189775951619 0 216.0 8.09189775951619 1
gene  1 1 33 2.857559129611898 0 313.0 2.857559129611898 1
gene  1 33 14 -3.8527665691053934 0 314.0 -3.8527665691053934 1
gene  1 14 48 1.8074685750358013 1 379.0 1.8074685750358013 1
gene  1 48 14 2.139059111484566 0 380.0 2.139059111484566 1
gene  1 48 33 1.5275994801338446 0 381.0 1.5275994801338446 1
gene  1 4 33 -6.301983454978036 0 384.0 -6.301983454978036 1
gene  1 13 55 0.3252129180282944 0 407.0 0.3252129180282944 1
gene  1 55 14 0.23393366782728586 0 408.0 0.23393366782728586 1
gene  1 2 33 -1.7180025718565706 0 425.0 -1.7180025718565706 1
gene  1 13 33 0.9491725234259651 0 427.0 0.9491725234259651 1
genomeend 1
genomestart  2
trait 1 0.3582596345510627 0.22050694374858815 0.8146270411081855 0.0 0.4998562620066008 1.21277466076125 0.0 0.9579208503187541 
node 1 1 1 1
node 2 1 1 1
node 3 1 1 1
node 4 1 1 1
node 5 1 1 1
node 6 1 1 1
node 7 1 1 3
node 13 1 0 2
node 14 1 0 2
node 21 1 0 0
node 24 1 0 0
node 34 1 0 0
gene  1 1 13 2.5278565264228634 0 168.0 2.5278565264228634 1
gene  1 4 13 1.201563852230862 0 171.0 1.201563852230862 1
gene  1 5 13 -2.3708046895662056 0 172.0 -2.3708046895662056 1
gene  1 7 13 3.1592188604703546 0 174.0 3.1592188604703546 1
gene  1 13 13 -2.026438710039405 1 180.0 -2.026438710039405 1
gene  1 2 14 0.42561108610927834 0 183.0 0.42561108610927834 1
gene  1 3 14 0.884728482429691 0 184.0 0.884728482429691 1
gene  1 6 14 -1.285337648729508 0 187.0 -1.285337648729508 1
gene  1 13 14 2.6618105778860186 0 194.0 2.6618105778860186 1
gene  1 14 14 -0.4943087596786326 1 195.0 -0.4943087596786326 1
gene  1 6 13 2.622579499892696 0 205.0 2.622579499892696 1
gene  1 5 14 -2.9018436808639363 0 223.0 -2.9018436808639363 1
gene  1 3 13 3.893167897141597 0 229.0 3.893167897141597 1
gene  1 2 13 0.17652938202813173 0 233.0 0.17652938202813173 1
gene  1 1 21 7.520004695853506 0 238.0 7.520004695853506 1
gene  1 21 13 -2.2017104758161707 0 239.0 -2.2017104758161707 1
gene  1 5 21 -1.3845994396400791 0 253.0 -1.3845994396400791 1
gene  1 3 21 -1.7240494793864762 0 270.0 -1.7240494793864762 1
gene  1 1 24 0.8257018431930376 0 275.0 0.8257018431930376 1
gene  1 24 13 -4.110117942464771 0 276.0 -4.110117942464771 1
gene  1 3 34 -1.455875834290624 0 315.0 -1.455875834290624 1
gene  1 34 14 -0.3049699514428035 0 316.0 -0.3049699514428035 1
gene  1 3 24 -3.259541569987854 0 324.0 -3.259541569987854 1
gene  1 2 21 3.538080879351561 0 350.0 3.538080879351561 1
gene  1 34 13 -0.8505353929056687 0 355.0 -0.8505353929056687 1
gene  1 1 34 -5.714318781007023 0 361.0 -5.714318781007023 1
gene  1 7 14 -1.2473317497763259 0 388.0 -1.2473317497763259 1
genomeend 2
genomestart  3
trait 1 0.3582596345510627 0.4388362906987652 0.8146270411081855 0.0 1.0397212879708124 1.21277466076125 0.0 0.9579208503187541 
node 1 1 1 1
node 2 1 1 1
node 3 1 1 1
node 4 1 1 1
node 5 1 1 1
node 6 1 1 1
node 7 1 1 3
node 13 1 0 2
node 14 1 0 2
node 21 1 0 0
node 24 1 0 0
node 34 1 0 0
gene  1 1 13 1.5880807160467216 0 168.0 1.5880807160467216 1
gene  1 4 13 2.5333749703644175 0 171.0 2.5333749703644175 1
gene  1 5 13 -3.134028315829471 0 172.0 -3.134028315829471 1
gene  1 7 13 1.9546802661312876 0 174.0 1.9546802661312876 1
gene  1 13 13 -4.265729247186176 1 180.0 -4.265729247186176 1
gene  1 2 14 -1.3072109615761343 0 183.0 -1.3072109615761343 1
gene  1 3 14 1.6840338615498096 0 184.0 1.6840338615498096 1
gene  1 6 14 -0.5811978236787352 0 187.0 -0.5811978236787352 1
gene  1 13 14 0.3796252867404096 0 194.0 0.3796252867404096 1
gene  1 14 14 0.2200498359284216 1 195.0 0.2200498359284216 1
gene  1 6 13 1.1894052525155683 0 205.0 1.1894052525155683 1
gene  1 5 14 -2.0447236633383197 0 223.0 -2.0447236633383197 1
gene  1 3 13 1.7736215131708222 0 229.0 1.7736215131708222 1
gene  1 2 13 -1.5649982534134006 0 233.0 -1.5649982534134006 1
gene  1 1 21 5.771989998636393 0 238.0 5.771989998636393 1
gene  1 21 13 -1.8420917349481514 0 239.0 -1.8420917349481514 1
gene  1 5 21 -0.41524402378027236 0 253.0 -0.41524402378027236 1
gene  1 3 21 -0.3283452022747485 0 270.0 -0.3283452022747485 1
gene  1 1 24 1.2901980202180323 0 275.0 1.2901980202180323 1
gene  1 24 13 -5.487074634157366 0 276.0 -5.487074634157366 1
gene  1 3 34 -2.716039120051072 0 315.0 -2.716039120051072 1
gene  1 34 14 -2.0972255180577664 0 316.0 -2.0972255180577664 1
gene  1 3 24 -1.904613524835441 0 324.0 -1.904613524835441 1
gene  1 2 21 3.538080879351561 0 350.0 3.538080879351561 1
gene  1 34 13 -1.8807216707520005 0 355.0 -1.8807216707520005 1
gene  1 1 34 -5.714318781007023 0 361.0 -5.714318781007023 1
gene  1 7 14 -1.0415608426005762 0 388.0 -1.0415608426005762 1
genomeend 3
genomestart  4
trait 1 0.3582596345510627 0.4388362906987652 0.8146270411081855 0.0 1.0397212879708124 1.21277466076125 0.0 0.9579208503187541 
node 1 1 1 1
node 2 1 1 1
node 3 1 1 1
node 4 1 1 1
node 5 1 1 1
node 6 1 1 1
node 7 1 1 3
node 13 1 0 2
node 14 1 0 2
node 21 1 0 0
node 24 1 0 0
node 34 1 0 0
gene  1 1 13 1.5880807160467216 0 168.0 1.5880807160467216 1
gene  1 4 13 4.390750760019854 0 171.0 4.390750760019854 1
gene  1 5 13 1.3543670357779092 0 172.0 1.3543670357779092 1
gene  1 7 13 2.9358219687301297 0 174.0 2.9358219687301297 1
gene  1 13 13 -3.769058646137609 1 180.0 -3.769058646137609 1
gene  1 2 14 0.3340673787425952 0 183.0 0.3340673787425952 1
gene  1 3 14 0.7308857160091559 0 184.0 0.7308857160091559 1
gene  1 6 14 -2.331458216406707 0 187.0 -2.331458216406707 1
gene  1 13 14 2.1327074186117296 0 194.0 2.1327074186117296 1
gene  1 14 14 1.8834072427234936 1 195.0 1.8834072427234936 1
gene  1 6 13 0.46367820936681736 0 205.0 0.46367820936681736 1
gene  1 5 14 -2.899207937355965 0 223.0 -2.899207937355965 1
gene  1 3 13 1.7736215131708222 0 229.0 1.7736215131708222 1
gene  1 2 13 -3.8293462639786995 0 233.0 -3.8293462639786995 1
gene  1 1 21 5.414696980014461 0 238.0 5.414696980014461 1
gene  1 21 13 -1.4472093859266018 0 239.0 -1.4472093859266018 1
gene  1 5 21 0.7543652071643474 0 253.0 0.7543652071643474 1
gene  1 3 21 -2.2036710953023353 0 270.0 -2.2036710953023353 1
gene  1 1 24 2.228173104866721 0 275.0 2.228173104866721 1
gene  1 24 13 -4.11268041110378 0 276.0 -4.11268041110378 1
gene  1 3 34 -1.853650589822526 0 315.0 -1.853650589822526 1
gene  1 34 14 1.3989508681396412 0 316.0 1.3989508681396412 1
gene  1 3 24 -3.2647151005064146 0 324.0 -3.2647151005064146 1
gene  1 2 21 1.6570728996448414 0 350.0 1.6570728996448414 1
gene  1 34 13 1.0031358310948788 0 355.0 1.0031358310948788 1
gene  1 1 34 -3.2483396047292517 0 361.0 -3.2483396047292517 1
gene  1 7 14 -1.0415608426005762 0 388.0 -1.0415608426005762 1
genomeend 4
genomestart  5
trait 1 2.8264831974358327 1.038817852750874 0.43173212214279244 1.2383225027221012 1.329334485592839 0.0 0.6456726887502329 1.0929932745483306 
node 1 1 1 1
node 2 1 1 1
node 3 1 1 1
node 4 1 1 1
node 5 1 1 1
node 6 1 1 1
node 7 1 1 3
node 8 1 0 0
node 13 1 0 2
node 14 1 0 2
node 39 1 0 0
node 42 1 0 0
node 51 1 0 0
gene  1 1 8 -2.1658077183595266 0 98.0 -2.1658077183595266 1
gene  1 2 8 -0.2002092033460614 0 99.0 -0.2002092033460614 1
gene  1 3 8 6.541865234878393 0 100.0 6.541865234878393 1
gene  1 4 8 -0.6517078815237065 0 101.0 -0.6517078815237065 1
gene  1 5 8 -3.6874046602566306 0 102.0 -3.6874046602566306 1
gene  1 6 8 6.25234944522237 0 103.0 6.25234944522237 1
gene  1 8 8 -1.2481763358796485 1 105.0 -1.2481763358796485 1
gene  1 13 8 0.8559832631630893 1 110.0 0.8559832631630893 1
gene  1 14 8 4.838835577896785 1 111.0 4.838835577896785 1
gene  1 3 13 -1.349886290925043 0 170.0 -1.349886290925043 1
gene  1 5 13 7.709289951484385 0 172.0 7.709289951484385 1
gene  1 7 13 -2.902765987690378 0 174.0 -2.902765987690378 1
gene  1 13 13 -5.7163121961480865 1 180.0 -5.7163121961480865 1
gene  1 2 14 5.175123011594208 0 183.0 5.175123011594208 1
gene  1 4 14 -2.4466705169262566 0 185.0 -2.4466705169262566 1
gene  1 6 14 -1.8397366634690466 0 187.0 -1.8397366634690466 1
gene  1 8 14 2.6165257478993396 0 189.0 2.6165257478993396 1
gene  1 13 14 -5.744575572108044 0 194.0 -5.744575572108044 1
gene  1 2 13 -10.484515878678549 0 213.0 -10.484515878678549 1
gene  1 4 13 -3.207224074361851 0 230.0 -3.207224074361851 1
gene  1 13 8 -0.07719062752024941 0 244.0 -0.07719062752024941 1
gene  1 7 14 3.43827962752865 0 264.0 3.43827962752865 1
gene  1 1 14 0.6570045537386857 0 299.0 0.6570045537386857 1
gene  1 5 14 -2.2381786129953065 0 310.0 -2.2381786129953065 0
gene  1 1 13 0.6464606744347838 0 311.0 0.6464606744347838 1
gene  1 13 39 1.2053673217785374 0 344.0 1.2053673217785374 1
gene  1 39 8 5.20719093945128 0 345.0 5.20719093945128 1
gene  1 6 13 2.130449725590683 0 348.0 2.130449725590683 1
gene  1 2 42 4.88678739852492 0 359.0 4.88678739852492 1
gene  1 42 14 -1.8413521884227566 0 360.0 -1.8413521884227566 1
gene  1 13 42 -0.7275736035073337 0 366.0 -0.7275736035073337 1
gene  1 5 51 -3.3309678123660134 0 396.0 -3.3309678123660134 1
gene  1 51 14 -2.9929532254921236 0 397.0 -2.9929532254921236 1
gene  1 6 42 -0.8313107815443335 0 423.0 -0.8313107815443335 1
gene  1 39 42 1.981764722441433 0 426.0 1.981764722441433 1
genomeend 5
genomestart  6
trait 1 2.8264831974358327 1.038817852750874 0.43173212214279244 1.2383225027221012 1.329334485592839 0.0 0.6456726887502329 1.0929932745483306 
node 1 1 1 1
node 2 1 1 1
node 3 1 1 1
node 4 1 1 1
node 5 1 1 1
node 6 1 1 1
node 7 1 1 3
node 8 1 0 0
node 13 1 0 2
node 14 1 0 2
node 39 1 0 0
node 42 1 0 0
node 51 1 0 0
gene  1 1 8 -0.06201324168224687 0 98.0 -0.06201324168224687 1
gene  1 2 8 1.2315205108914995 0 99.0 1.2315205108914995 1
gene  1 3 8 5.015154919084679 0 100.0 5.015154919084679 1
gene  1 4 8 1.7189594448662042 0 101.0 1.7189594448662042 1
gene  1 5 8 -4.73337918362059 0 102.0 -4.73337918362059 1
gene  1 6 8 7.04307786549203 0 103.0 7.04307786549203 1
gene  1 8 8 -0.40182703063311354 1 105.0 -0.40182703063311354 1
gene  1 13 8 -0.4449601960791054 1 110.0 -0.4449601960791054 1
gene  1 14 8 4.922247847913549 1 111.0 4.922247847913549 1
gene  1 3 13 -1.5994803057502758 0 170.0 -1.5994803057502758 1
gene  1 5 13 5.898557057639968 0 172.0 5.898557057639968 1
gene  1 7 13 -1.113476540404882 0 174.0 -1.113476540404882 1
gene  1 13 13 -5.809714980655509 1 180.0 -5.809714980655509 1
gene  1 2 14 4.768101848603135 0 183.0 4.768101848603135 1
gene  1 4 14 -1.1265197454784452 0 185.0 -1.1265197454784452 1
gene  1 6 14 0.34813093439463927 0 187.0 0.34813093439463927 1
gene  1 8 14 1.1981191790609516 0 189.0 1.1981191790609516 1
gene  1 13 14 -6.016466527773389 0 194.0 -6.016466527773389 1
gene  1 2 13 -8.783969837353169 0 213.0 -8.783969837353169 1
gene  1 4 13 -1.3091489475198281 0 230.0 -1.3091489475198281 1
gene  1 13 8 -1.6044435335825422 0 244.0 -1.6044435335825422 1
gene  1 7 14 2.3576943406029507 0 264.0 2.3576943406029507 1
gene  1 1 14 0.7384190092492671 0 299.0 0.7384190092492671 1
gene  1 5 14 -1.9332808212567292 0 310.0 -1.9332808212567292 0
gene  1 1 13 3.069111772450392 0 311.0 3.069111772450392 1
gene  1 13 39 -1.21666791140821 0 344.0 -1.21666791140821 1
gene  1 39 8 4.4469593976176185 0 345.0 4.4469593976176185 1
gene  1 6 13 2.2231225956055978 0 348.0 2.2231225956055978 1
gene  1 2 42 5.008731142263651 0 359.0 5.008731142263651 1
gene  1 42 14 2.2442346977037655 0 360.0 2.2442346977037655 1
gene  1 13 42 -0.5474550872562369 0 366.0 -0.5474550872562369 1
gene  1 5 51 -1.084560549106416 0 396.0 -1.084560549106416 1
gene  1 51 14 -4.087241158340552 0 397.0 -4.087241158340552 1
gene  1 6 42 -12.224993871263827 0 423.0 -12.224993871263827 1
gene  1 39 42 -0.6969744734382521 0 426.0 -0.6969744734382521 1
gene  1 42 51 -5.85991012212418 0 428.0 -5.85991012212418 1
genomeend 6
genomestart  7
trait 1 2.225061889405073 0.0 0.0 1.3327232120186472 1.3666937545645097 0.0 1.091719119822867 0.9886345967811722 
node 1 1 1 1
node 2 1 1 1
node 3 1 1 1
node 4 1 1 1
node 5 1 1 1
node 6 1 1 1
node 7 1 1 3
node 8 1 0 0
node 9 1 0 0
node 10 1 0 0
node 13 1 0 2
node 14 1 0 2
node 28 1 0 0
node 41 1 0 0
node 43 1 0 0
node 47 1 0 0
gene  1 1 8 -0.356952652965117 0 98.0 -0.356952652965117 1
gene  1 3 8 -0.1597579707327208 0 100.0 -0.1597579707327208 1
gene  1 5 8 0.14691084149367617 0 102.0 0.14691084149367617 1
gene  1 6 8 8.586880865203238 0 103.0 8.586880865203238 1
gene  1 8 8 -0.15348902176346524 1 105.0 -0.15348902176346524 1
gene  1 1 9 -1.0905857230380565 0 112.0 -1.0905857230380565 1
gene  1 2 9 -6.911346238216426 0 113.0 -6.911346238216426 1
gene  1 3 9 -3.191248470090986 0 114.0 -3.191248470090986 1
gene  1 5 9 4.911508919565044 0 116.0 4.911508919565044 1
gene  1 7 9 7.235502949710298 0 118.0 7.235502949710298 1
gene  1 9 9 -1.1904736587497162 1 120.0 -1.1904736587497162 1
gene  1 10 9 2.4356083706988176 1 121.0 2.4356083706988176 1
gene  1 13 9 -2.317614378878964 1 124.0 -2.317614378878964 1
gene  1 2 10 2.25668181480936 0 127.0 2.25668181480936 1
gene  1 4 10 0.6085680059412877 0 129.0 0.6085680059412877 1
gene  1 5 10 -7.3671319689565715 0 130.0 -7.3671319689565715 1
gene  1 8 10 -3.010699109490468 0 133.0 -3.010699109490468 1
gene  1 9 10 0.4144994380308836 0 134.0 0.4144994380308836 1
gene  1 10 10 -4.2699122181798606 1 135.0 -4.2699122181798606 1
gene  1 13 10 3.948510448106428 1 138.0 3.948510448106428 1
gene  1 14 10 -0.13786507509252616 1 139.0 -0.13786507509252616 1
gene  1 2 13 -8.36307750332916 0 169.0 -8.36307750332916 1
gene  1 3 13 -6.912143211210019 0 170.0 -6.912143211210019 1
gene  1 6 13 -1.8585784864034482 0 173.0 -1.8585784864034482 1
gene  1 7 13 2.763396148564193 0 174.0 2.763396148564193 1
gene  1 9 13 -0.20118607836100333 0 176.0 -0.20118607836100333 1
gene  1 13 13 6.990136088496925 1 180.0 6.990136088496925 1
gene  1 14 13 3.996271357541772 1 181.0 3.996271357541772 1
gene  1 1 14 14.302680176399255 0 182.0 14.302680176399255 1
gene  1 3 14 14.146104634757977 0 184.0 14.146104634757977 1
gene  1 9 14 -2.9705596302321595 0 190.0 -2.9705596302321595 1
gene  1 10 14 -7.2325164657490335 0 191.0 -7.2325164657490335 1
gene  1 8 13 -3.6062404504333028 0 207.0 -3.6062404504333028 1
gene  1 1 10 -5.001490644064688 0 226.0 -5.001490644064688 1
gene  1 6 14 5.184753704297813 0 234.0 5.184753704297813 1
gene  1 8 28 0.11020672775496787 1 293.0 0.11020672775496787 1
gene  1 28 8 -1.3396021721298499 0 294.0 -1.3396021721298499 1
gene  1 8 9 2.2880728059106734 0 328.0 2.2880728059106734 1
gene  1 8 41 4.063239513022664 1 357.0 4.063239513022664 1
gene  1 41 8 4.324654081555403 0 358.0 4.324654081555403 1
gene  1 14 43 -6.0549954767958285 1 364.0 -6.0549954767958285 1
gene  1 43 10 -0.27271768709849864 0 365.0 -0.27271768709849864 1
gene  1 5 47 0.623167000986915 0 375.0 0.623167000986915 1
gene  1 47 9 -0.8122281507137452 0 376.0 -0.8122281507137452 1
gene  1 41 14 5.339433362357671 0 387.0 5.339433362357671 1
gene  1 4 28 5.439980013155217 0 419.0 5.439980013155217 1
gene  1 2 28 8.205498475739292 0 429.0 8.205498475739292 1
genomeend 7
genomestart  8
trait 1 2.225061889405073 0.0 0.0 1.3327232120186472 1.3666937545645097 0.0 1.091719119822867 0.9886345967811722 
node 1 1 1 1
node 2 1 1 1
node 3 1 1 1
node 4 1 1 1
node 5 1 1 1
node 6 1 1 1
node 7 1 1 3
node 8 1 0 0
node 9 1 0 0
node 10 1 0 0
node 13 1 0 2
node 14 1 0 2
node 28 1 0 0
node 41 1 0 0
node 43 1 0 0
node 47 1 0 0
gene  1 1 8 -0.356952652965117 0 98.0 -0.356952652965117 1
gene  1 3 8 -0.1597579707327208 0 100.0 -0.1597579707327208 1
gene  1 5 8 0.14691084149367617 0 102.0 0.14691084149367617 1
gene  1 6 8 8.586880865203238 0 103.0 8.586880865203238 1
gene  1 8 8 -0.15348902176346524 1 105.0 -0.15348902176346524 1
gene  1 1 9 -1.0905857230380565 0 112.0 -1.0905857230380565 1
gene  1 2 9 -6.911346238216426 0 113.0 -6.911346238216426 1
gene  1 3 9 -3.191248470090986 0 114.0 -3.191248470090986 1
gene  1 5 9 4.911508919565044 0 116.0 4.911508919565044 1
gene  1 7 9 7.235502949710298 0 118.0 7.235502949710298 1
gene  1 9 9 -1.1904736587497162 1 120.0 -1.1904736587497162 1
gene  1 10 9 2.4356083706988176 1 121.0 2.4356083706988176 1
gene  1 13 9 -2.317614378878964 1 124.0 -2.317614378878964 1
gene  1 2 10 2.25668181480936 0 127.0 2.25668181480936 1
gene  1 4 10 0.6085680059412877 0 129.0 0.6085680059412877 1
gene  1 5 10 -7.3671319689565715 0 130.0 -7.3671319689565715 1
gene  1 8 10 -3.010699109490468 0 133.0 -3.010699109490468 1
gene  1 9 10 0.4144994380308836 0 134.0 0.4144994380308836 1
gene  1 10 10 -4.2699122181798606 1 135.0 -4.2699122181798606 1
gene  1 13 10 3.948510448106428 1 138.0 3.948510448106428 1
gene  1 14 10 -0.13786507509252616 1 139.0 -0.13786507509252616 1
gene  1 2 13 -8.36307750332916 0 169.0 -8.36307750332916 1
gene  1 3 13 -6.912143211210019 0 170.0 -6.912143211210019 1
gene  1 6 13 -1.8585784864034482 0 173.0 -1.8585784864034482 1
gene  1 7 13 2.763396148564193 0 174.0 2.763396148564193 1
gene  1 9 13 -0.20118607836100333 0 176.0 -0.20118607836100333 1
gene  1 13 13 6.990136088496925 1 180.0 6.990136088496925 1
gene  1 14 13 3.996271357541772 1 181.0 3.996271357541772 1
gene  1 1 14 14.302680176399255 0 182.0 14.302680176399255 1
gene  1 3 14 14.146104634757977 0 184.0 14.146104634757977 1
gene  1 9 14 -2.9705596302321595 0 190.0 -2.9705596302321595 1
gene  1 10 14 -7.2325164657490335 0 191.0 -7.2325164657490335 1
gene  1 8 13 -3.6062404504333028 0 207.0 -3.6062404504333028 1
gene  1 1 10 -5.001490644064688 0 226.0 -5.001490644064688 1
gene  1 6 14 5.184753704297813 0 234.0 5.184753704297813 1
gene  1 8 28 0.11020672775496787 1 293.0 0.11020672775496787 1
gene  1 28 8 -1.3396021721298499 0 294.0 -1.3396021721298499 1
gene  1 8 9 2.2880728059106734 0 328.0 2.2880728059106734 1
gene  1 8 41 4.063239513022664 1 357.0 4.063239513022664 1
gene  1 41 8 4.324654081555403 0 358.0 4.324654081555403 1
gene  1 14 43 -6.0549954767958285 1 364.0 -6.0549954767958285 1
gene  1 43 10 -0.27271768709849864 0 365.0 -0.27271768709849864 1
gene  1 5 47 0.623167000986915 0 375.0 0.623167000986915 1
gene  1 47 9 -0.8122281507137452 0 376.0 -0.8122281507137452 1
gene  1 41 14 5.339433362357671 0 387.0 5.339433362357671 1
gene  1 4 28 5.439980013155217 0 419.0 5.439980013155217 1
genomeend 8
genomestart  9
trait 1 2.225061889405073 0.0 0.0 1.3327232120186472 1.3666937545645097 0.0 1.091719119822867 0.9886345967811722 
node 1 1 1 1
node 2 1 1 1
node 3 1 1 1
node 4 1 1 1
node 5 1 1 1
node 6 1 1 1
node 7 1 1 3
node 8 1 0 0
node 9 1 0 0
node 10 1 0 0
node 13 1 0 2
node 14 1 0 2
node 28 1 0 0
node 41 1 0 0
node 43 1 0 0
node 47 1 0 0
gene  1 1 8 -0.356952652965117 0 98.0 -0.356952652965117 1
gene  1 3 8 -0.1597579707327208 0 100.0 -0.1597579707327208 1
gene  1 5 8 0.14691084149367617 0 102.0 0.14691084149367617 1
gene  1 6 8 8.586880865203238 0 103.0 8.586880865203238 1
gene  1 8 8 -0.15348902176346524 1 105.0 -0.15348902176346524 1
gene  1 1 9 -1.0905857230380565 0 112.0 -1.0905857230380565 1
gene  1 2 9 -6.911346238216426 0 113.0 -6.911346238216426 1
gene  1 3 9 -3.191248470090986 0 114.0 -3.191248470090986 1
gene  1 5 9 4.911508919565044 0 116.0 4.911508919565044 1
gene  1 7 9 7.235502949710298 0 118.0 7.235502949710298 1
gene  1 9 9 -1.1904736587497162 1 120.0 -1.1904736587497162 1
gene  1 10 9 2.4356083706988176 1 121.0 2.4356083706988176 1
gene  1 13 9 -2.317614378878964 1 124.0 -2.317614378878964 1
gene  1 2 10 2.25668181480936 0 127.0 2.25668181480936 1
gene  1 4 10 0.6085680059412877 0 129.0 0.6085680059412877 1
gene  1 5 10 -7.3671319689565715 0 130.0 -7.3671319689565715 1
gene  1 8 10 -3.010699109490468 0 133.0 -3.010699109490468 1
gene  1 9 10 0.4144994380308836 0 134.0 0.4144994380308836 1
gene  1 10 10 -4.2699122181798606 1 135.0 -4.2699122181798606 1
gene  1 13 10 3.948510448106428 1 138.0 3.948510448106428 1
gene  1 14 10 -0.13786507509252616 1 139.0 -0.13786507509252616 1
gene  1 2 13 -8.36307750332916 0 169.0 -8.36307750332916 1
gene  1 3 13 -6.912143211210019 0 170.0 -6.912143211210019 1
gene  1 6 13 -1.8585784864034482 0 173.0 -1.8585784864034482 1
gene  1 7 13 2.763396148564193 0 174.0 2.763396148564193 1
gene  1 9 13 -0.20118607836100333 0 176.0 -0.20118607836100333 1
gene  1 13 13 6.990136088496925 1 180.0 6.990136088496925 1
gene  1 14 13 3.996271357541772 1 181.0 3.996271357541772 1
gene  1 1 14 14.302680176399255 0 182.0 14.302680176399255 1
gene  1 3 14 14.146104634757977 0 184.0 14.146104634757977 1
gene  1 9 14 -2.9705596302321595 0 190.0 -2.9705596302321595 1
gene  1 10 14 -7.2325164657490335 0 191.0 -7.2325164657490335 1
gene  1 8 13 -3.6062404504333028 0 207.0 -3.6062404504333028 1
gene  1 1 10 -5.001490644064688 0 226.0 -5.001490644064688 1
gene  1 6 14 5.184753704297813 0 234.0 5.184753704297813 1
gene  1 8 28 0.11020672775496787 1 293.0 0.11020672775496787 1
gene  1 28 8 -1.3396021721298499 0 294.0 -1.3396021721298499 1
gene  1 8 9 2.2880728059106734 0 328.0 2.2880728059106734 1
gene  1 8 41 4.063239513022664 1 357.0 4.063239513022664 1
gene  1 41 8 4.324654081555403 0 358.0 4.324654081555403 1
gene  1 14 43 -6.0549954767958285 1 364.0 -6.0549954767958285 1
gene  1 43 10 -0.27271768709849864 0 365.0 -0.27271768709849864 1
gene  1 5 47 0.623167000986915 0 375.0 0.623167000986915 1
gene  1 47 9 -0.8122281507137452 0 376.0 -0.8122281507137452 1
gene  1 41 14 5.339433362357671 0 387.0 5.339433362357671 1
gene  1 4 28 5.439980013155217 0 419.0 5.439980013155217 1
genomeend 9
genomestart  10
trait 1 0.0 0.507208509242693 0.0 1.336083291708453 2.3145837249829695 0.0 0.0 0.868067118942248 
node 1 1 1 1
node 2 1 1 1
node 3 1 1 1
node 4 1 1 1
node 5 1 1 1
node 6 1 1 1
node 7 1 1 3
node 8 1 0 0
node 13 1 0 2
node 14 1 0 2
node 22 1 0 0
node 25 1 0 0
node 29 1 0 0
gene  1 1 8 -4.1626525934999945 0 98.0 -4.1626525934999945 1
gene  1 3 8 0.3126677347369172 0 100.0 0.3126677347369172 1
gene  1 4 8 -0.7028010960074091 0 101.0 -0.7028010960074091 1
gene  1 5 8 1.3635101337417672 0 102.0 1.3635101337417672 1
gene  1 6 8 -1.8068236881162294 0 103.0 -1.8068236881162294 1
gene  1 8 8 4.62439120981958 1 105.0 4.62439120981958 1
gene  1 1 13 -0.36978003150162086 0 168.0 -0.36978003150162086 1
gene  1 5 13 4.200451285097931 0 172.0 4.200451285097931 1
gene  1 13 13 -2.1399739328567415 1 180.0 -2.1399739328567415 1
gene  1 14 13 2.68322957030347 1 181.0 2.68322957030347 1
gene  1 2 14 -1.1872093400020285 0 183.0 -1.1872093400020285 1
gene  1 3 14 1.0995643492350142 0 184.0 1.0995643492350142 1
gene  1 5 14 2.693182007578791 0 186.0 2.693182007578791 1
gene  1 7 14 -0.19016990373870868 0 188.0 -0.19016990373870868 1
gene  1 8 14 -3.7107765998424185 0 189.0 -3.7107765998424185 1
gene  1 13 14 -5.426726131418471 0 194.0 -5.426726131418471 1
gene  1 2 13 -0.7295278328116387 0 236.0 -0.7295278328116387 1
gene  1 8 22 -3.79171916589347 0 240.0 -3.79171916589347 1
gene  1 22 14 -1.3687572231880154 0 241.0 -1.3687572231880154 1
gene  1 1 22 2.802312045616823 0 245.0 2.802312045616823 1
gene  1 13 8 -5.255920555872022 0 257.0 -5.255920555872022 1
gene  1 5 22 -6.5726582581277455 0 265.0 -6.5726582581277455 1
gene  1 1 25 -1.8293289910291781 0 279.0 -1.8293289910291781 1
gene  1 25 8 -2.826824378467092 0 280.0 -2.826824378467092 1
gene  1 8 29 -2.0689433357341107 0 297.0 -2.0689433357341107 1
gene  1 29 14 -0.3702103071523616 0 298.0 -0.3702103071523616 1
gene  1 1 14 5.289393269598341 0 312.0 5.289393269598341 1
gene  1 2 29 -1.6882407518086269 0 330.0 -1.6882407518086269 1
gene  1 5 25 -4.04709066510116 0 343.0 -4.04709066510116 1
gene  1 6 29 -0.13546039488414818 0 386.0 -0.13546039488414818 1
gene  1 22 29 -3.376417454767851 0 416.0 -3.376417454767851 1
gene  1 4 14 -3.2702240996758394 0 424.0 -3.2702240996758394 1
genomeend 10
genomestart  11
trait 1 0.0 0.507208509242693 0.0 1.336083291708453 2.3145837249829695 0.0 0.0 0.868067118942248 
node 1 1 1 1
node 2 1 1 1
node 3 1 1 1
node 4 1 1 1
node 5 1 1 1
node 6 1 1 1
node 7 1 1 3
node 8 1 0 0
node 13 1 0 2
node 14 1 0 2
node 22 1 0 0
node 25 1 0 0
node 29 1 0 0
gene  1 1 8 -2.559041552892419 0 98.0 -2.559041552892419 1
gene  1 3 8 3.461440255938905 0 100.0 3.461440255938905 1
gene  1 4 8 -3.1933589420119297 0 101.0 -3.1933589420119297 1
gene  1 5 8 0.7745560429282028 0 102.0 0.7745560429282028 1
gene  1 6 8 0.3677204288640725 0 103.0 0.3677204288640725 1
gene  1 8 8 4.62439120981958 1 105.0 4.62439120981958 1
gene  1 1 13 0.22534469475910335 0 168.0 0.22534469475910335 1
gene  1 5 13 3.0669986372260647 0 172.0 3.0669986372260647 1
gene  1 13 13 -2.609190615409513 1 180.0 -2.609190615409513 1
gene  1 14 13 0.5222458069404468 1 181.0 0.5222458069404468 1
gene  1 2 14 -0.0999163112064736 0 183.0 -0.0999163112064736 1
gene  1 3 14 0.9085172200223628 0 184.0 0.9085172200223628 1
gene  1 5 14 2.693182007578791 0 186.0 2.693182007578791 1
gene  1 7 14 -1.1713858145577791 0 188.0 -1.1713858145577791 1
gene  1 8 14 -2.8621485820968076 0 189.0 -2.8621485820968076 1
gene  1 13 14 -5.774527992533468 0 194.0 -5.774527992533468 1
gene  1 2 13 -0.7295278328116387 0 236.0 -0.7295278328116387 1
gene  1 8 22 -4.176313695258897 0 240.0 -4.176313695258897 1
gene  1 22 14 -1.8420566867869073 0 241.0 -1.8420566867869073 1
gene  1 1 22 1.56590198717071 0 245.0 1.56590198717071 1
gene  1 13 8 -4.0253824501243525 0 257.0 -4.0253824501243525 1
gene  1 5 22 -4.392041117262947 0 265.0 -4.392041117262947 1
gene  1 1 25 -0.2746149426127523 0 279.0 -0.2746149426127523 1
gene  1 25 8 -2.2311359226257426 0 280.0 -2.2311359226257426 1
gene  1 8 29 -0.712574242971425 0 297.0 -0.712574242971425 1
gene  1 29 14 -3.8350678488233263 0 298.0 -3.8350678488233263 1
gene  1 1 14 5.289393269598341 0 312.0 5.289393269598341 1
gene  1 2 29 3.1359356514385808 0 330.0 3.1359356514385808 1
gene  1 5 25 -1.6509261560712665 0 343.0 -1.6509261560712665 1
gene  1 6 29 0.03177341923455729 0 386.0 0.03177341923455729 1
gene  1 22 29 -4.475064337628451 0 416.0 -4.475064337628451 1
gene  1 4 14 -1.5641626155156345 0 424.0 -1.5641626155156345 1
genomeend 11
genomestart  12
trait 1 0.0 0.33621170391628186 0.0 1.336083291708453 3.288202964145683 0.0 0.0 0.7627148860233137 
node 1 1 1 1
node 2 1 1 1
node 3 1 1 1
node 4 1 1 1
node 5 1 1 1
node 6 1 1 1
node 7 1 1 3
node 8 1 0 0
node 13 1 0 2
node 14 1 0 2
node 22 1 0 0
node 25 1 0 0
node 29 1 0 0
gene  1 1 8 -1.3755350024889905 0 98.0 -1.3755350024889905 1
gene  1 3 8 3.648292528359355 0 100.0 3.648292528359355 1
gene  1 4 8 -2.92991901378621 0 101.0 -2.92991901378621 1
gene  1 5 8 0.2511397861441076 0 102.0 0.2511397861441076 1
gene  1 6 8 -1.4688791765929028 0 103.0 -1.4688791765929028 1
gene  1 8 8 5.402193311643943 1 105.0 5.402193311643943 1
gene  1 1 13 -1.8272275295928098 0 168.0 -1.8272275295928098 1
gene  1 5 13 1.3004823803546417 0 172.0 1.3004823803546417 1
gene  1 13 13 -5.042307595223015 1 180.0 -5.042307595223015 1
gene  1 14 13 0.11081026172592545 1 181.0 0.11081026172592545 1
gene  1 2 14 0.1329203850302501 0 183.0 0.1329203850302501 1
gene  1 3 14 2.8413857368388094 0 184.0 2.8413857368388094 1
gene  1 5 14 0.7033656599441356 0 186.0 0.7033656599441356 1
gene  1 7 14 -2.5129794846463156 0 188.0 -2.5129794846463156 1
gene  1 8 14 -3.181475916780767 0 189.0 -3.181475916780767 1
gene  1 13 14 -3.423828582573493 0 194.0 -3.423828582573493 1
gene  1 2 13 0.17307524042931444 0 236.0 0.17307524042931444 1
gene  1 8 22 -6.067234946295394 0 240.0 -6.067234946295394 1
gene  1 22 14 -1.5725811692301017 0 241.0 -1.5725811692301017 1
gene  1 1 22 1.7037872175189732 0 245.0 1.7037872175189732 1
gene  1 13 8 -6.094595281431042 0 257.0 -6.094595281431042 1
gene  1 5 22 -5.154657374432734 0 265.0 -5.154657374432734 1
gene  1 1 25 1.5917266095542706 0 279.0 1.5917266095542706 1
gene  1 25 8 -4.581851199479645 0 280.0 -4.581851199479645 1
gene  1 8 29 -1.2816386313202208 0 297.0 -1.2816386313202208 1
gene  1 29 14 -3.70983910854658 0 298.0 -3.70983910854658 1
gene  1 1 14 5.289393269598341 0 312.0 5.289393269598341 1
gene  1 2 29 3.956947859694764 0 330.0 3.956947859694764 1
gene  1 5 25 -1.0807129177364403 0 343.0 -1.0807129177364403 1
gene  1 6 29 2.1765302781688303 0 386.0 2.1765302781688303 1
gene  1 22 29 -4.475064337628451 0 416.0 -4.475064337628451 1
gene  1 4 14 -2.1825414216632253 0 424.0 -2.1825414216632253 1
genomeend 12
genomestart  13
trait 1 0.4572982613450003 0.0 0.2801480703138618 0.0 0.0 1.2871131578344006 1.106386715936813 0.0 
node 1 1 1 1
node 2 1 1 1
node 3 1 1 1
node 4 1 1 1
node 5 1 1 1
node 6 1 1 1
node 7 1 1 3
node 13 1 0 2
node 14 1 0 2
node 49 1 0 0
gene  1 1 13 -0.6626114264641467 0 168.0 -0.6626114264641467 1
gene  1 2 13 2.8938433516358764 0 169.0 2.8938433516358764 1
gene  1 3 13 0.5316196585161512 0 170.0 0.5316196585161512 1
gene  1 4 13 -4.922069886515351 0 171.0 -4.922069886515351 1
gene  1 5 13 2.5696726077961363 0 172.0 2.5696726077961363 1
gene  1 6 13 -1.2297611647321331 0 173.0 -1.2297611647321331 1
gene  1 7 13 -3.1801881537019203 0 174.0 -3.1801881537019203 1
gene  1 14 13 2.082983273819037 1 181.0 2.082983273819037 1
gene  1 1 14 4.187539607495578 0 182.0 4.187539607495578 1
gene  1 2 14 -3.073521466894725 0 183.0 -3.073521466894725 1
gene  1 3 14 -7.169430791049901 0 184.0 -7.169430791049901 1
gene  1 13 14 1.012550672196176 0 194.0 1.012550672196176 1
gene  1 14 14 0.5680596143287509 1 195.0 0.5680596143287509 1
gene  1 7 14 -1.856265001307999 0 273.0 -1.856265001307999 1
gene  1 4 14 -0.05021309263378049 0 283.0 -0.05021309263378049 1
gene  1 5 14 1.7009948137023 0 303.0 1.7009948137023 1
gene  1 6 14 -1.2465523506783707 0 307.0 -1.2465523506783707 1
gene  1 3 49 0.5288704207472237 0 389.0 0.5288704207472237 1
gene  1 49 13 -0.09616901151666857 0 390.0 -0.09616901151666857 1
gene  1 5 49 3.9968962849764025 0 403.0 3.9968962849764025 1
genomeend 13
genomestart  14
trait 1 0.4572982613450003 0.0 0.2801480703138618 0.0 0.0 1.2871131578344006 1.106386715936813 0.0 
node 1 1 1 1
node 2 1 1 1
node 3 1 1 1
node 4 1 1 1
node 5 1 1 1
node 6 1 1 1
node 7 1 1 3
node 13 1 0 2
node 14 1 0 2
node 49 1 0 0
gene  1 1 13 -2.5294147611075597 0 168.0 -2.5294147611075597 1
gene  1 2 13 3.0201287540816772 0 169.0 3.0201287540816772 1
gene  1 3 13 -0.015865813186396682 0 170.0 -0.015865813186396682 0
gene  1 4 13 -0.27235590178535163 0 171.0 -0.27235590178535163 1
gene  1 5 13 1.1315577455380732 0 172.0 1.1315577455380732 1
gene  1 6 13 -1.8118402048381348 0 173.0 -1.8118402048381348 1
gene  1 7 13 -1.2227891446193957 0 174.0 -1.2227891446193957 1
gene  1 14 13 2.1479710273270696 1 181.0 2.1479710273270696 1
gene  1 1 14 1.7500554888977002 0 182.0 1.7500554888977002 1
gene  1 2 14 -3.073521466894725 0 183.0 -3.073521466894725 1
gene  1 3 14 -0.1960010240342308 0 184.0 -0.1960010240342308 1
gene  1 13 14 -0.379655012921559 0 194.0 -0.379655012921559 1
gene  1 14 14 -3.1493542655657656 1 195.0 -3.1493542655657656 1
gene  1 7 14 0.2865605193792584 0 273.0 0.2865605193792584 1
gene  1 4 14 -0.16100041566529222 0 283.0 -0.16100041566529222 1
gene  1 5 14 0.4566282393394605 0 303.0 0.4566282393394605 1
gene  1 6 14 -1.7349221396665078 0 307.0 -1.7349221396665078 1
gene  1 3 49 -0.3292719253273546 0 389.0 -0.3292719253273546 1
gene  1 49 13 4.014388991404765 0 390.0 4.014388991404765 1
gene  1 5 49 6.857615976044984 0 403.0 6.857615976044984 1
genomeend 14
genomestart  15
trait 1 0.731715373568969 0.5319433208524987 0.8875428902212121 1.0172554146688002 0.2545070174269727 0.6799681748259421 0.0 0.0 
node 1 1 1 1
node 2 1 1 1
node 3 1 1 1
node 4 1 1 1
node 5 1 1 1
node 6 1 1 1
node 7 1 1 3
node 8 1 0 0
node 9 1 0 0
node 13 1 0 2
node 14 1 0 2
node 20 1 0 0
gene  1 1 8 0.17539626418855953 0 98.0 0.17539626418855953 1
gene  1 2 8 0.7543230609664533 0 99.0 0.7543230609664533 1
gene  1 3 8 10.351184679245423 0 100.0 10.351184679245423 1
gene  1 6 8 7.037765114709509 0 103.0 7.037765114709509 1
gene  1 8 8 1.3192889887210741 1 105.0 1.3192889887210741 1
gene  1 9 8 6.125346502628658 1 106.0 6.125346502628658 1
gene  1 13 8 -0.6946409761743202 1 110.0 -0.6946409761743202 1
gene  1 14 8 -7.099247325527113 1 111.0 -7.099247325527113 1
gene  1 1 9 0.39834792381667916 0 112.0 0.39834792381667916 1
gene  1 4 9 -11.497450502831438 0 115.0 -11.497450502831438 1
gene  1 5 9 15.801534850339076 0 116.0 15.801534850339076 1
gene  1 7 9 2.052706570989791 0 118.0 2.052706570989791 1
gene  1 9 9 -2.2825129498297994 1 120.0 -2.2825129498297994 1
gene  1 14 9 -11.517334627921342 1 125.0 -11.517334627921342 1
gene  1 2 13 -0.550040296609331 0 169.0 -0.550040296609331 1
gene  1 5 13 2.816655799657468 0 172.0 2.816655799657468 1
gene  1 8 13 1.948489788752407 0 175.0 1.948489788752407 1
gene  1 1 14 4.101601523490304 0 182.0 4.101601523490304 1
gene  1 2 14 -5.661990915318222 0 183.0 -5.661990915318222 1
gene  1 3 14 -0.9788796993529125 0 184.0 -0.9788796993529125 1
gene  1 6 14 -11.019986610199721 0 187.0 -11.019986610199721 1
gene  1 13 14 -6.899954301062563 0 194.0 -6.899954301062563 1
gene  1 14 14 -2.311982375844599 1 195.0 -2.311982375844599 1
gene  1 5 8 -0.3282944628106155 0 202.0 -0.3282944628106155 1
gene  1 4 13 -5.624820563922383 0 220.0 -5.624820563922383 1
gene  1 1 20 -1.2104532080568244 0 231.0 -1.2104532080568244 1
gene  1 20 14 3.0991654323600284 0 232.0 3.0991654323600284 1
gene  1 1 13 0.659493284641733 0 329.0 0.659493284641733 1
gene  1 13 20 -2.3461331286305622 0 337.0 -2.3461331286305622 1
gene  1 4 20 1.1252335988433968 0 339.0 1.1252335988433968 1
gene  1 9 8 0.6416670650462266 0 404.0 0.6416670650462266 1
gene  1 8 14 11.838189994435131 0 410.0 11.838189994435131 1
genomeend 15
genomestart  16
trait 1 0.04702751910613956 0.5319433208524987 0.8875428902212121 0.7010184240616681 0.2545070174269727 0.020095000702126553 0.0 0.0 
node 1 1 1 1
node 2 1 1 1
node 3 1 1 1
node 4 1 1 1
node 5 1 1 1
node 6 1 1 1
node 7 1 1 3
node 8 1 0 0
node 9 1 0 0
node 13 1 0 2
node 14 1 0 2
node 20 1 0 0
gene  1 1 8 -3.661833815236388 0 98.0 -3.661833815236388 1
gene  1 2 8 1.7059093876497025 0 99.0 1.7059093876497025 1
gene  1 3 8 12.320908868779542 0 100.0 12.320908868779542 1
gene  1 6 8 6.614942992169659 0 103.0 6.614942992169659 1
gene  1 8 8 2.188437964677311 1 105.0 2.188437964677311 1
gene  1 9 8 5.972983570936227 1 106.0 5.972983570936227 1
gene  1 13 8 3.8157927419989917 1 110.0 3.8157927419989917 1
gene  1 14 8 -4.189488218558479 1 111.0 -4.189488218558479 1
gene  1 1 9 0.6955068773208499 0 112.0 0.6955068773208499 1
gene  1 4 9 -11.809471667307577 0 115.0 -11.809471667307577 1
gene  1 5 9 16.19420314837145 0 116.0 16.19420314837145 1
gene  1 7 9 2.24588923037246 0 118.0 2.24588923037246 1
gene  1 9 9 -1.9129895260492467 1 120.0 -1.9129895260492467 1
gene  1 14 9 -9.739139521213891 1 125.0 -9.739139521213891 1
gene  1 2 13 -0.7445145970337708 0 169.0 -0.7445145970337708 1
gene  1 5 13 0.8471327475486814 0 172.0 0.8471327475486814 1
gene  1 8 13 2.9824741521661737 0 175.0 2.9824741521661737 1
gene  1 1 14 5.866540286105796 0 182.0 5.866540286105796 1
gene  1 2 14 -5.391269483439092 0 183.0 -5.391269483439092 1
gene  1 3 14 2.4468826178077245 0 184.0 2.4468826178077245 1
gene  1 6 14 -9.160154377945883 0 187.0 -9.160154377945883 1
gene  1 13 14 -5.395079071735658 0 194.0 -5.395079071735658 1
gene  1 14 14 5.775447470979689 1 195.0 5.775447470979689 1
gene  1 5 8 -0.941605006220513 0 202.0 -0.941605006220513 1
gene  1 4 13 -2.1336689887373352 0 220.0 -2.1336689887373352 1
gene  1 1 20 -3.282158041373757 0 231.0 -3.282158041373757 1
gene  1 20 14 2.5611280594736896 0 232.0 2.5611280594736896 1
gene  1 1 13 -0.22731990405852304 0 329.0 -0.22731990405852304 1
gene  1 13 20 -0.8079843205022702 0 337.0 -0.8079843205022702 1
gene  1 4 20 -0.04546437262001124 0 339.0 -0.04546437262001124 1
gene  1 9 8 -1.022174247365325 0 404.0 -1.022174247365325 1
gene  1 8 14 11.83900427362038 0 410.0 11.83900427362038 1
genomeend 16
genomestart  17
trait 1 0.685217197429974 0.0 1.6981216406750186 0.11493069212669116 2.5335643132798116 0.515587326912087 0.0 0.07895419735974474 
node 1 1 1 1
node 2 1 1 1
node 3 1 1 1
node 4 1 1 1
node 5 1 1 1
node 6 1 1 1
node 7 1 1 3
node 13 1 0 2
node 14 1 0 2
node 45 1 0 0
gene  1 1 13 6.0057335226565325 0 168.0 6.0057335226565325 1
gene  1 2 13 -4.263856153352772 0 169.0 -4.263856153352772 1
gene  1 5 13 -0.21126918266777528 0 172.0 -0.21126918266777528 1
gene  1 6 13 -7.767774434383466 0 173.0 -7.767774434383466 1
gene  1 7 13 -1.7147681300364384 0 174.0 -1.7147681300364384 1
gene  1 3 14 -0.5295067098893356 0 184.0 -0.5295067098893356 1
gene  1 4 14 2.9351635297185155 0 185.0 2.9351635297185155 1
gene  1 7 14 -2.3406258422123685 0 188.0 -2.3406258422123685 1
gene  1 13 14 0.09839002459798385 0 194.0 0.09839002459798385 1
gene  1 14 14 1.7682219894426692 1 195.0 1.7682219894426692 1
gene  1 4 13 0.6963284461460704 0 235.0 0.6963284461460704 1
gene  1 1 14 -0.09430449612887498 0 242.0 -0.09430449612887498 1
gene  1 5 14 -0.19362665063686024 0 319.0 -0.19362665063686024 1
gene  1 1 45 7.468934462414685 0 370.0 7.468934462414685 1
gene  1 45 13 -0.0742409977932812 0 371.0 -0.0742409977932812 1
genomeend 17
genomestart  18
trait 1 0.685217197429974 0.0 1.6981216406750186 0.11493069212669116 2.5335643132798116 0.515587326912087 0.0 0.07895419735974474 
node 1 1 1 1
node 2 1 1 1
node 3 1 1 1
node 4 1 1 1
node 5 1 1 1
node 6 1 1 1
node 7 1 1 3
node 13 1 0 2
node 14 1 0 2
node 45 1 0 0
gene  1 1 13 4.292768308758081 0 168.0 4.292768308758081 1
gene  1 2 13 -1.051101167465745 0 169.0 -1.051101167465745 1
gene  1 5 13 -1.5313379252749708 0 172.0 -1.5313379252749708 1
gene  1 6 13 -5.760331056565192 0 173.0 -5.760331056565192 1
gene  1 7 13 2.9809730813851782 0 174.0 2.9809730813851782 1
gene  1 3 14 -0.1145236247721848 0 184.0 -0.1145236247721848 1
gene  1 4 14 0.030788743054865453 0 185.0 0.030788743054865453 1
gene  1 7 14 -0.31843760044435165 0 188.0 -0.31843760044435165 1
gene  1 13 14 -0.786787690896531 0 194.0 -0.786787690896531 1
gene  1 14 14 2.394597877556143 1 195.0 2.394597877556143 1
gene  1 4 13 -2.4137191453557363 0 235.0 -2.4137191453557363 1
gene  1 1 14 -0.5881126303536901 0 242.0 -0.5881126303536901 1
gene  1 5 14 0.4316073488606458 0 319.0 0.4316073488606458 1
gene  1 1 45 8.59356636840471 0 370.0 8.59356636840471 1
gene  1 45 13 0.41524046691933814 0 371.0 0.41524046691933814 1
genomeend 18
genomestart  19
trait 1 0.685217197429974 0.0 1.6981216406750186 0.11493069212669116 2.5335643132798116 0.515587326912087 0.0 0.07895419735974474 
node 1 1 1 1
node 2 1 1 1
node 3 1 1 1
node 4 1 1 1
node 5 1 1 1
node 6 1 1 1
node 7 1 1 3
node 13 1 0 2
node 14 1 0 2
node 45 1 0 0
gene  1 1 13 4.464952229921531 0 168.0 4.464952229921531 1
gene  1 2 13 -2.88686905267181 0 169.0 -2.88686905267181 1
gene  1 5 13 1.4372483792947317 0 172.0 1.4372483792947317 1
gene  1 6 13 1.956169082210576 0 173.0 1.956169082210576 1
gene  1 7 13 -0.7130877866063436 0 174.0 -0.7130877866063436 1
gene  1 3 14 -5.267356858676341 0 184.0 -5.267356858676341 1
gene  1 4 14 1.7112224368542677 0 185.0 1.7112224368542677 1
gene  1 7 14 -2.9147044344854303 0 188.0 -2.9147044344854303 1
gene  1 13 14 1.3887073460702095 0 194.0 1.3887073460702095 1
gene  1 14 14 3.7600933261847036 1 195.0 3.7600933261847036 1
gene  1 4 13 -1.2125269084332932 0 235.0 -1.2125269084332932 1
gene  1 1 14 -1.7129280818840522 0 242.0 -1.7129280818840522 1
gene  1 5 14 -1.8706930944774935 0 319.0 -1.8706930944774935 1
gene  1 1 45 5.9385477945123295 0 370.0 5.9385477945123295 1
gene  1 45 13 -1.4055689887565057 0 371.0 -1.4055689887565057 1
genomeend 19
