genomestart  0
trait 1 0.10533309519974143 0.0 3.804979718039517 1.4541016471004498 1.224291345458965 1.5033065889758592 0.9033628802953145 3.779689338966765 
node 1 1 1 1
node 2 1 1 1
node 3 1 1 1
node 4 1 1 1
node 5 1 1 1
node 6 1 1 1
node 7 1 1 3
node 13 1 0 2
node 14 1 0 2
node 24 1 0 0
node 36 1 0 0
node 65 1 0 0
node 91 1 0 0
node 92 1 0 0
gene  1 2 13 11.609682586935016 0 169.0 11.609682586935016 1
gene  1 3 13 10.8644366171948 0 170.0 10.8644366171948 1
gene  1 4 13 -9.51573534718142 0 171.0 -9.51573534718142 1
gene  1 6 13 -6.245322552337317 0 173.0 -6.245322552337317 1
gene  1 7 13 3.5766835284968606 0 174.0 3.5766835284968606 1
gene  1 13 13 -8.623825880860693 1 180.0 -8.623825880860693 1
gene  1 1 14 -1.8242765462731034 0 182.0 -1.8242765462731034 1
gene  1 2 14 4.468968715414565 0 183.0 4.468968715414565 1
gene  1 5 14 -2.768842955684092 0 186.0 -2.768842955684092 1
gene  1 6 14 -8.034527615636234 0 187.0 -8.034527615636234 1
gene  1 7 14 2.3187896691757723 0 188.0 2.3187896691757723 1
gene  1 13 14 -1.5742354325138086 0 194.0 -1.5742354325138086 1
gene  1 14 14 6.050955203592954 1 195.0 6.050955203592954 1
gene  1 2 24 10.943635902159762 0 226.0 10.943635902159762 1
gene  1 24 13 3.1469308584429565 0 227.0 3.1469308584429565 0
gene  1 7 24 15.28252253372315 0 245.0 15.28252253372315 1
gene  1 1 24 -6.2764894085084535 0 249.0 -6.2764894085084535 1
gene  1 4 14 -4.71078126091889 0 280.0 -4.71078126091889 1
gene  1 4 36 3.552050576961961 0 293.0 3.552050576961961 1
gene  1 36 14 -0.6320345362235873 0 294.0 -0.6320345362235873 1
gene  1 7 36 -9.163449351973469 0 301.0 -9.163449351973469 1
gene  1 3 36 -0.7357677748902465 0 313.0 -0.7357677748902465 1
gene  1 24 36 1.5649797467974917 0 345.0 1.5649797467974917 1
gene  1 5 13 3.8304895908137437 0 374.0 3.8304895908137437 1
gene  1 2 65 6.13284904755383 0 446.0 6.13284904755383 1
gene  1 65 13 -1.181792753938256 0 447.0 -1.181792753938256 1
gene  1 13 36 5.521981524524234 0 451.0 5.521981524524234 1
gene  1 65 36 2.5942693663434078 0 457.0 2.5942693663434078 1
gene  1 1 13 -3.1265373321661243 0 480.0 -3.1265373321661243 1
gene  1 7 65 0.02726376212432169 0 530.0 0.02726376212432169 1
gene  1 3 14 2.9758892638302363 0 554.0 2.9758892638302363 1
gene  1 24 91 -0.6899939616938117 0 561.0 -0.6899939616938117 1
gene  1 91 13 3.2251791994225036 0 562.0 3.2251791994225036 0
gene  1 91 92 -6.264740776546303 0 577.0 -6.264740776546303 1
gene  1 92 13 2.176263941261264 0 578.0 2.176263941261264 1
genomeend 0
genomestart  1
trait 1 0.10533309519974143 0.0 3.804979718039517 1.4541016471004498 1.224291345458965 1.5033065889758592 0.9033628802953145 3.779689338966765 
node 1 1 1 1
node 2 1 1 1
node 3 1 1 1
node 4 1 1 1
node 5 1 1 1
node 6 1 1 1
node 7 1 1 3
node 13 1 0 2
node 14 1 0 2
node 24 1 0 0
node 36 1 0 0
node 65 1 0 0
node 91 1 0 0
node 92 1 0 0
gene  1 2 13 11.992630550376582 0 169.0 11.992630550376582 1
gene  1 3 13 11.67567712823562 0 170.0 11.67567712823562 1
gene  1 4 13 -10.608430544702836 0 171.0 -10.608430544702836 1
gene  1 6 13 -5.598607731430102 0 173.0 -5.598607731430102 1
gene  1 7 13 0.27813342363050664 0 174.0 0.27813342363050664 1
gene  1 13 13 -7.788696975552574 1 180.0 -7.788696975552574 1
gene  1 1 14 -0.9112572848313233 0 182.0 -0.9112572848313233 1
gene  1 2 14 6.25688836118306 0 183.0 6.25688836118306 1
gene  1 5 14 -4.3769875954809665 0 186.0 -4.3769875954809665 1
gene  1 6 14 -6.3473773456119655 0 187.0 -6.3473773456119655 1
gene  1 7 14 4.3374052123341835 0 188.0 4.3374052123341835 1
gene  1 13 14 -4.793956655458968 0 194.0 -4.793956655458968 1
gene  1 14 14 2.9106431419666055 1 195.0 2.9106431419666055 1
gene  1 2 24 12.46682340508251 0 226.0 12.46682340508251 1
gene  1 24 13 2.2719253176563576 0 227.0 2.2719253176563576 0
gene  1 7 24 15.755606305636292 0 245.0 15.755606305636292 1
gene  1 1 24 -10.500829569932197 0 249.0 -10.500829569932197 1
gene  1 4 14 -2.0012373670551833 0 280.0 -2.0012373670551833 1
gene  1 4 36 1.9570081150875192 0 293.0 1.9570081150875192 1
gene  1 36 14 -3.0003855614515134 0 294.0 -3.0003855614515134 1
gene  1 7 36 -10.403168901890837 0 301.0 -10.403168901890837 1
gene  1 3 36 0.6127963709931958 0 313.0 0.6127963709931958 1
gene  1 24 36 0.6331931063446756 0 345.0 0.6331931063446756 1
gene  1 5 13 2.69705882027889 0 374.0 2.69705882027889 1
gene  1 2 65 9.9075537352608 0 446.0 9.9075537352608 1
gene  1 65 13 1.8481884278648573 0 447.0 1.8481884278648573 1
gene  1 13 36 4.007864951913564 0 451.0 4.007864951913564 1
gene  1 65 36 4.755704823547591 0 457.0 4.755704823547591 1
gene  1 1 13 1.1597557090418187 0 480.0 1.1597557090418187 1
gene  1 7 65 -1.0926810620524203 0 530.0 -1.0926810620524203 1
gene  1 3 14 -0.478567034789839 0 554.0 -0.478567034789839 1
gene  1 24 91 -0.6899939616938117 0 561.0 -0.6899939616938117 1
gene  1 91 13 3.2251791994225036 0 562.0 3.2251791994225036 0
gene  1 91 92 -4.139329522430879 0 577.0 -4.139329522430879 1
gene  1 92 13 -1.7134917086752461 0 578.0 -1.7134917086752461 1
genomeend 1
genomestart  2
trait 1 0.4542575689259424 1.655298600115295 0.819627792749592 0.0 0.0 1.8428747160601582 0.5285159271229856 0.0 
node 1 1 1 1
node 2 1 1 1
node 3 1 1 1
node 4 1 1 1
node 5 1 1 1
node 6 1 1 1
node 7 1 1 3
node 8 1 0 0
node 9 1 0 0
node 10 1 0 0
node 11 1 0 0
node 13 1 0 2
node 14 1 0 2
node 62 1 0 0
node 81 1 0 0
node 82 1 0 0
node 84 1 0 0
node 95 1 0 0
gene  1 2 8 0.8073518033844838 0 99.0 0.8073518033844838 1
gene  1 6 8 4.22296308678847 0 103.0 4.22296308678847 1
gene  1 8 8 0.39932750007100737 1 105.0 0.39932750007100737 1
gene  1 9 8 -2.1166834729363733 1 106.0 -2.1166834729363733 1
gene  1 10 8 -0.01903693119045513 1 107.0 -0.01903693119045513 1
gene  1 11 8 4.555231532450095 1 108.0 4.555231532450095 1
gene  1 13 8 -1.5098800251117481 1 110.0 -1.5098800251117481 1
gene  1 14 8 0.9110722254674917 1 111.0 0.9110722254674917 1
gene  1 1 9 0.4755876790805383 0 112.0 0.4755876790805383 1
gene  1 2 9 -0.9717552476638511 0 113.0 -0.9717552476638511 1
gene  1 3 9 -0.039706908650591455 0 114.0 -0.039706908650591455 1
gene  1 6 9 0.6638416415120649 0 117.0 0.6638416415120649 1
gene  1 7 9 14.855905799215352 0 118.0 14.855905799215352 1
gene  1 8 9 14.534783174335255 0 119.0 14.534783174335255 1
gene  1 9 9 -0.5478404875715233 1 120.0 -0.5478404875715233 1
gene  1 11 9 0.6637356791924116 1 122.0 0.6637356791924116 1
gene  1 13 9 2.3057594908173593 1 124.0 2.3057594908173593 1
gene  1 14 9 -2.069849172961743 1 125.0 -2.069849172961743 1
gene  1 1 10 -7.308553403772444 0 126.0 -7.308553403772444 1
gene  1 3 10 4.278889216975908 0 128.0 4.278889216975908 1
gene  1 4 10 0.6512660992193322 0 129.0 0.6512660992193322 1
gene  1 5 10 -3.223354449111352 0 130.0 -3.223354449111352 1
gene  1 6 10 4.547551936462916 0 131.0 4.547551936462916 1
gene  1 10 10 -6.659003628693903 1 135.0 -6.659003628693903 1
gene  1 11 10 4.092699347841867 1 136.0 4.092699347841867 1
gene  1 14 10 4.027724911714802 1 139.0 4.027724911714802 1
gene  1 1 11 -2.3978632441330077 0 140.0 -2.3978632441330077 1
gene  1 3 11 2.8589868689738958 0 142.0 2.8589868689738958 1
gene  1 5 11 5.727120193324338 0 144.0 5.727120193324338 1
gene  1 6 11 2.8043923529458263 0 145.0 2.8043923529458263 1
gene  1 7 11 0.42041430742859187 0 146.0 0.42041430742859187 1
gene  1 8 11 0.1921270108868669 0 147.0 0.1921270108868669 1
gene  1 9 11 -9.490973936810034 0 148.0 -9.490973936810034 1
gene  1 10 11 2.1627564661032084 0 149.0 2.1627564661032084 1
gene  1 11 11 -2.605582373841412 1 150.0 -2.605582373841412 1
gene  1 1 13 -6.678877402408812 0 168.0 -6.678877402408812 1
gene  1 2 13 5.9205242543365735 0 169.0 5.9205242543365735 1
gene  1 3 13 -0.39829700468054424 0 170.0 -0.39829700468054424 1
gene  1 7 13 8.929501068564266 0 174.0 8.929501068564266 1
gene  1 11 13 2.9085718792104513 0 178.0 2.9085718792104513 1
gene  1 13 13 -3.5818634297480987 1 180.0 -3.5818634297480987 1
gene  1 2 14 -1.0950554526769176 0 183.0 -1.0950554526769176 1
gene  1 3 14 -1.750118191799551 0 184.0 -1.750118191799551 1
gene  1 4 14 -0.9844387789956262 0 185.0 -0.9844387789956262 1
gene  1 7 14 -0.07322852518657186 0 188.0 -0.07322852518657186 1
gene  1 8 14 -13.253992337725865 0 189.0 -13.253992337725865 1
gene  1 10 14 2.0907597064277113 0 191.0 2.0907597064277113 1
gene  1 13 14 -0.22658695269647477 0 194.0 -0.22658695269647477 1
gene  1 5 13 0.43011447595139846 0 198.0 0.43011447595139846 1
gene  1 4 9 14.50931234215484 0 200.0 14.50931234215484 1
gene  1 8 13 9.052727547878384 0 248.0 9.052727547878384 1
gene  1 7 10 -2.351817263729185 0 270.0 -2.351817263729185 1
gene  1 9 10 5.166302265870102 0 274.0 5.166302265870102 1
gene  1 9 13 1.4829076544711304 0 288.0 1.4829076544711304 1
gene  1 5 14 -8.190148092050665 0 328.0 -8.190148092050665 1
gene  1 2 10 10.13203932543687 0 357.0 10.13203932543687 1
gene  1 6 14 -0.41939893916424564 0 388.0 -0.41939893916424564 1
gene  1 3 62 10.195425392471098 0 411.0 10.195425392471098 1
gene  1 62 9 0.5791428308971522 0 412.0 0.5791428308971522 1
gene  1 5 8 -3.458430111734093 0 414.0 -3.458430111734093 1
gene  1 7 8 -3.5660216272623826 0 436.0 -3.5660216272623826 1
gene  1 11 81 -1.8992315053307425 1 496.0 -1.8992315053307425 1
gene  1 81 11 -0.37285576181257385 0 497.0 -0.37285576181257385 1
gene  1 11 82 0.6816383178145726 1 507.0 0.6816383178145726 1
gene  1 82 81 -0.01730282457685073 0 508.0 -0.01730282457685073 1
gene  1 3 84 -2.10725725745053 0 517.0 -2.10725725745053 1
gene  1 84 13 0.6544162052900417 0 518.0 0.6544162052900417 1
gene  1 3 82 -10.009245349612874 0 531.0 -10.009245349612874 1
gene  1 5 81 0.6623706094633184 0 533.0 0.6623706094633184 1
gene  1 1 82 -5.071827247837279E-4 0 559.0 -5.071827247837279E-4 1
gene  1 10 95 3.978871579672435 1 586.0 3.978871579672435 1
gene  1 95 10 1.1932871067968804 0 587.0 1.1932871067968804 1
genomeend 2
genomestart  3
trait 1 0.4542575689259424 1.655298600115295 0.819627792749592 0.0 0.0 1.8428747160601582 0.5285159271229856 0.0 
node 1 1 1 1
node 2 1 1 1
node 3 1 1 1
node 4 1 1 1
node 5 1 1 1
node 6 1 1 1
node 7 1 1 3
node 8 1 0 0
node 9 1 0 0
node 10 1 0 0
node 11 1 0 0
node 13 1 0 2
node 14 1 0 2
node 62 1 0 0
node 81 1 0 0
node 82 1 0 0
node 84 1 0 0
node 95 1 0 0
gene  1 2 8 0.5930940823606707 0 99.0 0.5930940823606707 1
gene  1 6 8 -0.006356644596241523 0 103.0 -0.006356644596241523 1
gene  1 8 8 -1.7957499130092571 1 105.0 -1.7957499130092571 1
gene  1 9 8 -0.3504514716032616 1 106.0 -0.3504514716032616 1
gene  1 10 8 -0.42639989864474326 1 107.0 -0.42639989864474326 1
gene  1 11 8 3.4039926771415967 1 108.0 3.4039926771415967 1
gene  1 13 8 -0.6390228041682384 1 110.0 -0.6390228041682384 1
gene  1 14 8 0.7028503930938454 1 111.0 0.7028503930938454 1
gene  1 1 9 2.1269125757438303 0 112.0 2.1269125757438303 1
gene  1 2 9 0.3275685663983432 0 113.0 0.3275685663983432 1
gene  1 3 9 -3.0435861580092203 0 114.0 -3.0435861580092203 1
gene  1 6 9 -2.096128248911433 0 117.0 -2.096128248911433 1
gene  1 7 9 15.984741931730543 0 118.0 15.984741931730543 1
gene  1 8 9 14.041976855035397 0 119.0 14.041976855035397 1
gene  1 9 9 -3.956583766747963 1 120.0 -3.956583766747963 1
gene  1 11 9 -0.0027880742348060372 1 122.0 -0.0027880742348060372 1
gene  1 13 9 1.4279997940975027 1 124.0 1.4279997940975027 1
gene  1 14 9 2.0957278319388104 1 125.0 2.0957278319388104 1
gene  1 1 10 -8.84888449800288 0 126.0 -8.84888449800288 1
gene  1 3 10 1.790818614984333 0 128.0 1.790818614984333 1
gene  1 4 10 -0.6950915894335405 0 129.0 -0.6950915894335405 1
gene  1 5 10 -4.458936223094591 0 130.0 -4.458936223094591 1
gene  1 6 10 3.066718463332186 0 131.0 3.066718463332186 1
gene  1 10 10 -5.268425782432549 1 135.0 -5.268425782432549 1
gene  1 11 10 3.8755643423411295 1 136.0 3.8755643423411295 1
gene  1 14 10 2.3248615999672113 1 139.0 2.3248615999672113 1
gene  1 1 11 -2.128891459670447 0 140.0 -2.128891459670447 1
gene  1 3 11 2.5189419703026616 0 142.0 2.5189419703026616 1
gene  1 5 11 4.574967579348698 0 144.0 4.574967579348698 1
gene  1 6 11 3.0456461762042704 0 145.0 3.0456461762042704 1
gene  1 7 11 0.6105938461023818 0 146.0 0.6105938461023818 1
gene  1 8 11 -0.7000537486006619 0 147.0 -0.7000537486006619 1
gene  1 9 11 -8.72391984344283 0 148.0 -8.72391984344283 1
gene  1 10 11 2.4413536117641352 0 149.0 2.4413536117641352 1
gene  1 11 11 -4.55625418136762 1 150.0 -4.55625418136762 1
gene  1 1 13 -8.891056071837326 0 168.0 -8.891056071837326 1
gene  1 2 13 1.4993051737694607 0 169.0 1.4993051737694607 1
gene  1 3 13 -0.7672381023173966 0 170.0 -0.7672381023173966 1
gene  1 7 13 6.757372705038777 0 174.0 6.757372705038777 1
gene  1 11 13 3.902483162740361 0 178.0 3.902483162740361 1
gene  1 13 13 -3.996730880614887 1 180.0 -3.996730880614887 1
gene  1 2 14 -1.7457642769255721 0 183.0 -1.7457642769255721 1
gene  1 3 14 0.9275207432923719 0 184.0 0.9275207432923719 1
gene  1 4 14 -0.9232883252826607 0 185.0 -0.9232883252826607 1
gene  1 7 14 2.0889151116533053 0 188.0 2.0889151116533053 1
gene  1 8 14 -16.276747870850414 0 189.0 -16.276747870850414 1
gene  1 10 14 1.040369870306166 0 191.0 1.040369870306166 1
gene  1 13 14 3.962911348912687 0 194.0 3.962911348912687 1
gene  1 5 13 2.2764841010998067 0 198.0 2.2764841010998067 1
gene  1 4 9 17.647783555291845 0 200.0 17.647783555291845 1
gene  1 8 13 8.507776688728343 0 248.0 8.507776688728343 1
gene  1 7 10 -3.314849882526615 0 270.0 -3.314849882526615 1
gene  1 9 10 4.887876998543769 0 274.0 4.887876998543769 1
gene  1 9 13 2.2479924480175826 0 288.0 2.2479924480175826 1
gene  1 5 14 -6.036321195243229 0 328.0 -6.036321195243229 1
gene  1 2 10 8.372769312757491 0 357.0 8.372769312757491 1
gene  1 6 14 2.2403003498485132 0 388.0 2.2403003498485132 1
gene  1 3 62 9.519256148407317 0 411.0 9.519256148407317 1
gene  1 62 9 0.9117869195275485 0 412.0 0.9117869195275485 1
gene  1 5 8 -4.5423947842202015 0 414.0 -4.5423947842202015 1
gene  1 7 8 -2.2250113835884444 0 436.0 -2.2250113835884444 1
gene  1 11 81 -3.2679187963643583 1 496.0 -3.2679187963643583 1
gene  1 81 11 0.6060170408413066 0 497.0 0.6060170408413066 1
gene  1 11 82 -2.185802971436871 1 507.0 -2.185802971436871 1
gene  1 82 81 0.05531481374715885 0 508.0 0.05531481374715885 1
gene  1 3 84 -2.0801067375562154 0 517.0 -2.0801067375562154 1
gene  1 84 13 2.3899770283783823 0 518.0 2.3899770283783823 1
gene  1 3 82 -10.009245349612874 0 531.0 -10.009245349612874 1
gene  1 5 81 0.6623706094633184 0 533.0 0.6623706094633184 1
gene  1 1 82 0.2988230562409264 0 559.0 0.2988230562409264 1
gene  1 10 95 0.8475109375578538 1 586.0 0.8475109375578538 1
gene  1 95 10 1.052205729580901 0 587.0 1.052205729580901 1
genomeend 3
genomestart  4
trait 1 0.4542575689259424 1.655298600115295 0.819627792749592 0.0 0.0 1.8428747160601582 0.5285159271229856 0.0 
node 1 1 1 1
node 2 1 1 1
node 3 1 1 1
node 4 1 1 1
node 5 1 1 1
node 6 1 1 1
node 7 1 1 3
node 8 1 0 0
node 9 1 0 0
node 10 1 0 0
node 11 1 0 0
node 13 1 0 2
node 14 1 0 2
node 62 1 0 0
node 81 1 0 0
node 82 1 0 0
node 84 1 0 0
node 95 1 0 0
gene  1 2 8 -0.5551880640267317 0 99.0 -0.5551880640267317 1
gene  1 6 8 2.047137157853106 0 103.0 2.047137157853106 1
gene  1 8 8 0.591617398864402 1 105.0 0.591617398864402 1
gene  1 9 8 -0.1827694354472933 1 106.0 -0.1827694354472933 1
gene  1 10 8 0.6530298695979355 1 107.0 0.6530298695979355 1
gene  1 11 8 2.6062263801533234 1 108.0 2.6062263801533234 1
gene  1 13 8 -0.9845080300410034 1 110.0 -0.9845080300410034 1
gene  1 14 8 0.6867794699511329 1 111.0 0.6867794699511329 1
gene  1 1 9 0.05409317382886747 0 112.0 0.05409317382886747 1
gene  1 2 9 0.3778064104305958 0 113.0 0.3778064104305958 1
gene  1 3 9 -0.6004819586045878 0 114.0 -0.6004819586045878 1
gene  1 6 9 -1.0469172829859352 0 117.0 -1.0469172829859352 1
gene  1 7 9 17.294940072869974 0 118.0 17.294940072869974 1
gene  1 8 9 12.191633657593368 0 119.0 12.191633657593368 1
gene  1 9 9 -1.7271615168710617 1 120.0 -1.7271615168710617 1
gene  1 11 9 -0.34898244740151574 1 122.0 -0.34898244740151574 1
gene  1 13 9 0.16035221755232643 1 124.0 0.16035221755232643 1
gene  1 14 9 0.04539058261548923 1 125.0 0.04539058261548923 1
gene  1 1 10 -8.503304854607 0 126.0 -8.503304854607 1
gene  1 3 10 1.8452749164707114 0 128.0 1.8452749164707114 1
gene  1 4 10 -0.7677646841019246 0 129.0 -0.7677646841019246 1
gene  1 5 10 -4.821994157046109 0 130.0 -4.821994157046109 1
gene  1 6 10 4.830104543183717 0 131.0 4.830104543183717 1
gene  1 10 10 -4.298517881799663 1 135.0 -4.298517881799663 1
gene  1 11 10 4.3741411222466375 1 136.0 4.3741411222466375 1
gene  1 14 10 2.566125912867394 1 139.0 2.566125912867394 1
gene  1 1 11 -2.207001179015109 0 140.0 -2.207001179015109 1
gene  1 3 11 3.614294712672252 0 142.0 3.614294712672252 1
gene  1 5 11 4.975346711551634 0 144.0 4.975346711551634 1
gene  1 6 11 3.6872873191546787 0 145.0 3.6872873191546787 1
gene  1 7 11 -0.5049699359198353 0 146.0 -0.5049699359198353 1
gene  1 8 11 1.4319092187846283 0 147.0 1.4319092187846283 1
gene  1 9 11 -7.69133998047272 0 148.0 -7.69133998047272 1
gene  1 10 11 0.2421805398835093 0 149.0 0.2421805398835093 1
gene  1 11 11 -4.620445642410507 1 150.0 -4.620445642410507 1
gene  1 1 13 -8.718133276505691 0 168.0 -8.718133276505691 1
gene  1 2 13 3.6950776391758975 0 169.0 3.6950776391758975 1
gene  1 3 13 -0.09573670014973334 0 170.0 -0.09573670014973334 1
gene  1 7 13 6.618508654994241 0 174.0 6.618508654994241 1
gene  1 11 13 1.7967362006267054 0 178.0 1.7967362006267054 1
gene  1 13 13 -2.7389927022896363 1 180.0 -2.7389927022896363 1
gene  1 2 14 -0.5567222623903991 0 183.0 -0.5567222623903991 1
gene  1 3 14 0.22306258529622347 0 184.0 0.22306258529622347 1
gene  1 4 14 -3.087458070166858 0 185.0 -3.087458070166858 1
gene  1 7 14 2.118689893043597 0 188.0 2.118689893043597 1
gene  1 8 14 -15.313542304887953 0 189.0 -15.313542304887953 1
gene  1 10 14 2.2400563909010853 0 191.0 2.2400563909010853 1
gene  1 13 14 1.5574176108724633 0 194.0 1.5574176108724633 1
gene  1 5 13 0.13275597885131285 0 198.0 0.13275597885131285 1
gene  1 4 9 15.645426362252792 0 200.0 15.645426362252792 1
gene  1 8 13 8.325992925055642 0 248.0 8.325992925055642 1
gene  1 7 10 -1.9316636183821474 0 270.0 -1.9316636183821474 1
gene  1 9 10 2.7518812676620055 0 274.0 2.7518812676620055 1
gene  1 9 13 0.4772948543004029 0 288.0 0.4772948543004029 1
gene  1 5 14 -7.80941441178175 0 328.0 -7.80941441178175 1
gene  1 2 10 9.24807206110851 0 357.0 9.24807206110851 1
gene  1 6 14 -0.22629912317589884 0 388.0 -0.22629912317589884 1
gene  1 3 62 8.720504103062932 0 411.0 8.720504103062932 1
gene  1 62 9 0.9117869195275485 0 412.0 0.9117869195275485 1
gene  1 5 8 -3.458430111734093 0 414.0 -3.458430111734093 1
gene  1 7 8 -3.5660216272623826 0 436.0 -3.5660216272623826 1
gene  1 11 81 -2.9760329990922623 1 496.0 -2.9760329990922623 1
gene  1 81 11 0.6060170408413066 0 497.0 0.6060170408413066 1
gene  1 11 82 -0.8755434713905841 1 507.0 -0.8755434713905841 1
gene  1 82 81 0.05531481374715885 0 508.0 0.05531481374715885 1
gene  1 3 84 -2.0801067375562154 0 517.0 -2.0801067375562154 1
gene  1 84 13 0.6544162052900417 0 518.0 0.6544162052900417 1
gene  1 3 82 -10.009245349612874 0 531.0 -10.009245349612874 1
gene  1 5 81 0.6623706094633184 0 533.0 0.6623706094633184 1
gene  1 1 82 0.2988230562409264 0 559.0 0.2988230562409264 1
gene  1 10 95 2.6259807809183973 1 586.0 2.6259807809183973 1
gene  1 95 10 1.1932871067968804 0 587.0 1.1932871067968804 1
genomeend 4
genomestart  5
trait 1 1.7878230492365366 0.9365906229773271 0.5877664216349279 0.0 1.7799059348361965 1.2636555841906816 0.5088786206969129 0.48682907384645435 
node 1 1 1 1
node 2 1 1 1
node 3 1 1 1
node 4 1 1 1
node 5 1 1 1
node 6 1 1 1
node 7 1 1 3
node 8 1 0 0
node 13 1 0 2
node 14 1 0 2
node 16 1 0 0
node 20 1 0 0
node 50 1 0 0
node 55 1 0 0
node 70 1 0 0
node 87 1 0 0
node 97 1 0 0
node 102 1 0 0
gene  1 1 8 0.6468049596857359 0 98.0 0.6468049596857359 1
gene  1 2 8 -1.0128598339099872 0 99.0 -1.0128598339099872 1
gene  1 3 8 0.6985090952407647 0 100.0 0.6985090952407647 1
gene  1 4 8 -2.3801717894326417 0 101.0 -2.3801717894326417 1
gene  1 5 8 0.47035224559235755 0 102.0 0.47035224559235755 1
gene  1 6 8 -3.0265008532954383 0 103.0 -3.0265008532954383 1
gene  1 8 8 2.5830659504390168 1 105.0 2.5830659504390168 1
gene  1 13 8 7.380198230215836 1 110.0 7.380198230215836 1
gene  1 14 8 -0.3146013958429682 1 111.0 -0.3146013958429682 1
gene  1 3 13 3.8230636537149305 0 170.0 3.8230636537149305 1
gene  1 5 13 -2.306681018507622 0 172.0 -2.306681018507622 1
gene  1 7 13 -0.44864509370176026 0 174.0 -0.44864509370176026 1
gene  1 13 13 -7.2049660285514685 1 180.0 -7.2049660285514685 1
gene  1 2 14 -0.027627430218821747 0 183.0 -0.027627430218821747 1
gene  1 4 14 -1.987886487168458 0 185.0 -1.987886487168458 1
gene  1 6 14 -0.10261944176582866 0 187.0 -0.10261944176582866 1
gene  1 8 14 1.9063004325905784 0 189.0 1.9063004325905784 1
gene  1 13 14 -3.504667179221171 0 194.0 -3.504667179221171 1
gene  1 13 16 3.819289525524303 0 201.0 3.819289525524303 1
gene  1 16 14 -0.9138935081102539 0 202.0 -0.9138935081102539 1
gene  1 3 20 -7.998152624986645 0 215.0 -7.998152624986645 1
gene  1 20 8 -1.066906015820145 0 216.0 -1.066906015820145 1
gene  1 8 13 2.0402466003172655 0 233.0 2.0402466003172655 1
gene  1 2 16 -1.918698232925041 0 324.0 -1.918698232925041 1
gene  1 2 20 -1.5479004749854153 0 333.0 -1.5479004749854153 1
gene  1 7 8 11.691678460886132 0 352.0 11.691678460886132 1
gene  1 16 50 0.17923501889262927 0 364.0 0.17923501889262927 1
gene  1 50 14 -3.5192202201171776 0 365.0 -3.5192202201171776 1
gene  1 3 55 9.234509783011736 0 379.0 9.234509783011736 1
gene  1 55 20 5.097034245127964 0 380.0 5.097034245127964 0
gene  1 3 70 -0.8047287304000892 0 461.0 -0.8047287304000892 1
gene  1 70 13 1.2059702619520438 0 462.0 1.2059702619520438 1
gene  1 6 16 -0.6906945070250028 0 484.0 -0.6906945070250028 1
gene  1 70 20 -3.6128571173936557 0 498.0 -3.6128571173936557 1
gene  1 5 20 2.167182823777136 0 505.0 2.167182823777136 1
gene  1 4 55 -0.4304425900445275 0 519.0 -0.4304425900445275 1
gene  1 3 87 -1.1796321381561792 0 539.0 -1.1796321381561792 1
gene  1 87 13 0.6760429757290759 0 540.0 0.6760429757290759 0
gene  1 55 97 0.06948640504168774 0 592.0 0.06948640504168774 1
gene  1 97 20 4.32079359469654 0 593.0 4.32079359469654 1
gene  1 87 102 1.0 0 606.0 0.0 1
gene  1 102 13 0.6760429757290759 0 607.0 0.0 1
genomeend 5
genomestart  6
trait 1 1.7878230492365366 0.9365906229773271 0.5877664216349279 0.0 1.7799059348361965 1.2636555841906816 0.5088786206969129 0.48682907384645435 
node 1 1 1 1
node 2 1 1 1
node 3 1 1 1
node 4 1 1 1
node 5 1 1 1
node 6 1 1 1
node 7 1 1 3
node 8 1 0 0
node 13 1 0 2
node 14 1 0 2
node 16 1 0 0
node 20 1 0 0
node 50 1 0 0
node 55 1 0 0
node 70 1 0 0
node 87 1 0 0
node 97 1 0 0
gene  1 1 8 0.6468049596857359 0 98.0 0.6468049596857359 1
gene  1 2 8 -1.0128598339099872 0 99.0 -1.0128598339099872 1
gene  1 3 8 0.005355090519129635 0 100.0 0.005355090519129635 1
gene  1 4 8 1.6365745594333614 0 101.0 1.6365745594333614 1
gene  1 5 8 -1.836419423632663 0 102.0 -1.836419423632663 1
gene  1 6 8 -2.848492298026198 0 103.0 -2.848492298026198 1
gene  1 8 8 2.8572148783123157 1 105.0 2.8572148783123157 1
gene  1 13 8 6.726945324145614 1 110.0 6.726945324145614 1
gene  1 14 8 0.5636683577680001 1 111.0 0.5636683577680001 1
gene  1 3 13 1.103928187119607 0 170.0 1.103928187119607 1
gene  1 5 13 -2.907391889676963 0 172.0 -2.907391889676963 1
gene  1 7 13 1.6019417538006595 0 174.0 1.6019417538006595 1
gene  1 13 13 -6.269768173470223 1 180.0 -6.269768173470223 1
gene  1 2 14 -0.6600656555927173 0 183.0 -0.6600656555927173 1
gene  1 4 14 -3.9746368786077726 0 185.0 -3.9746368786077726 1
gene  1 6 14 -0.1990392349739163 0 187.0 -0.1990392349739163 1
gene  1 8 14 0.7068726141786765 0 189.0 0.7068726141786765 1
gene  1 13 14 -5.7374504890686575 0 194.0 -5.7374504890686575 1
gene  1 13 16 5.068648160633481 0 201.0 5.068648160633481 1
gene  1 16 14 1.1407159022557372 0 202.0 1.1407159022557372 1
gene  1 3 20 -7.998152624986645 0 215.0 -7.998152624986645 1
gene  1 20 8 1.3203322193580909 0 216.0 1.3203322193580909 1
gene  1 8 13 4.326973129260973 0 233.0 4.326973129260973 1
gene  1 2 16 -1.8731369736737853 0 324.0 -1.8731369736737853 1
gene  1 2 20 -2.3584199188337793 0 333.0 -2.3584199188337793 1
gene  1 7 8 10.572033718380972 0 352.0 10.572033718380972 1
gene  1 16 50 2.367085926341031 0 364.0 2.367085926341031 1
gene  1 50 14 -4.406390912519936 0 365.0 -4.406390912519936 1
gene  1 3 55 9.210309289124872 0 379.0 9.210309289124872 1
gene  1 55 20 6.2682156659708 0 380.0 6.2682156659708 0
gene  1 3 70 0.18835161957841706 0 461.0 0.18835161957841706 1
gene  1 70 13 0.748325664493616 0 462.0 0.748325664493616 1
gene  1 6 16 -0.7710620778591334 0 484.0 -0.7710620778591334 1
gene  1 70 20 -3.3643701654828986 0 498.0 -3.3643701654828986 1
gene  1 5 20 1.4361362076693474 0 505.0 1.4361362076693474 1
gene  1 4 55 1.4311485275430973 0 519.0 1.4311485275430973 1
gene  1 3 87 0.3864004635940823 0 539.0 0.3864004635940823 1
gene  1 87 13 3.086100569425955 0 540.0 3.086100569425955 1
gene  1 55 97 -0.8528234937166751 0 592.0 -0.8528234937166751 1
gene  1 97 20 4.5582777895052775 0 593.0 4.5582777895052775 1
genomeend 6
genomestart  7
trait 1 0.907232925829199 0.0 2.7344810196560863 0.30145754889830334 0.0 1.4007872281640394 0.0 1.6529965227924879 
node 1 1 1 1
node 2 1 1 1
node 3 1 1 1
node 4 1 1 1
node 5 1 1 1
node 6 1 1 1
node 7 1 1 3
node 8 1 0 0
node 9 1 0 0
node 10 1 0 0
node 13 1 0 2
node 14 1 0 2
node 21 1 0 0
node 29 1 0 0
node 52 1 0 0
node 53 1 0 0
node 64 1 0 0
node 85 1 0 0
gene  1 1 8 -1.8395777865695209 0 98.0 -1.8395777865695209 1
gene  1 3 8 -2.699423384468039 0 100.0 -2.699423384468039 1
gene  1 5 8 -0.7262056544978868 0 102.0 -0.7262056544978868 1
gene  1 6 8 7.698851841197672 0 103.0 7.698851841197672 1
gene  1 8 8 1.7573349327306649 1 105.0 1.7573349327306649 1
gene  1 1 9 -4.199484564233108 0 112.0 -4.199484564233108 1
gene  1 2 9 -5.656144176918826 0 113.0 -5.656144176918826 1
gene  1 3 9 1.1552930819067067 0 114.0 1.1552930819067067 1
gene  1 5 9 4.346772411313466 0 116.0 4.346772411313466 1
gene  1 7 9 -2.067071727888098 0 118.0 -2.067071727888098 1
gene  1 9 9 -2.4901814151903654 1 120.0 -2.4901814151903654 1
gene  1 10 9 -7.858658185985748 1 121.0 -7.858658185985748 1
gene  1 13 9 -7.659362744499803 1 124.0 -7.659362744499803 1
gene  1 2 10 -4.544271262332689 0 127.0 -4.544271262332689 1
gene  1 4 10 7.230997860408122 0 129.0 7.230997860408122 1
gene  1 5 10 -3.239165080845711 0 130.0 -3.239165080845711 1
gene  1 8 10 0.27958687422407946 0 133.0 0.27958687422407946 1
gene  1 9 10 -2.738279601262205 0 134.0 -2.738279601262205 1
gene  1 10 10 -0.5748622763258943 1 135.0 -0.5748622763258943 1
gene  1 13 10 -2.208317557346878 1 138.0 -2.208317557346878 1
gene  1 14 10 -2.0432765366613888 1 139.0 -2.0432765366613888 1
gene  1 2 13 1.6577395221804405 0 169.0 1.6577395221804405 1
gene  1 3 13 -0.19743477157235767 0 170.0 -0.19743477157235767 1
gene  1 6 13 -4.602777196651927 0 173.0 -4.602777196651927 1
gene  1 7 13 -2.5376551495261945 0 174.0 -2.5376551495261945 1
gene  1 9 13 -1.4074249635308682 0 176.0 -1.4074249635308682 1
gene  1 13 13 2.224487312378997 1 180.0 2.224487312378997 1
gene  1 14 13 -1.9380974608850279 1 181.0 -1.9380974608850279 1
gene  1 1 14 1.21130316834474 0 182.0 1.21130316834474 1
gene  1 3 14 -3.6088449584232993 0 184.0 -3.6088449584232993 1
gene  1 9 14 -0.19969884734313853 0 190.0 -0.19969884734313853 1
gene  1 10 14 -0.5943193687316776 0 191.0 -0.5943193687316776 1
gene  1 1 21 -2.0695010295732894 0 218.0 -2.0695010295732894 1
gene  1 21 8 0.5193876819421441 0 219.0 0.5193876819421441 1
gene  1 3 10 2.8418897951878024 0 223.0 2.8418897951878024 1
gene  1 6 29 3.317324971928585 0 259.0 3.317324971928585 1
gene  1 29 8 0.2361797759124476 0 260.0 0.2361797759124476 1
gene  1 29 21 0.7335621883316784 0 271.0 0.7335621883316784 1
gene  1 3 21 6.234448457378339 0 300.0 6.234448457378339 1
gene  1 9 52 -0.8349515583013403 0 368.0 -0.8349515583013403 1
gene  1 52 14 -2.6011495710995995 0 369.0 -2.6011495710995995 1
gene  1 1 53 0.9276646060201688 0 372.0 0.9276646060201688 1
gene  1 53 21 3.6442296098348823 0 373.0 3.6442296098348823 1
gene  1 2 52 0.4474154944734851 0 425.0 0.4474154944734851 1
gene  1 53 64 -2.2982846980154825 0 443.0 -2.2982846980154825 1
gene  1 64 21 1.1661054541209173 0 444.0 1.1661054541209173 1
gene  1 21 10 0.3223996916419771 0 509.0 0.3223996916419771 1
gene  1 9 85 1.4120798708310058 1 520.0 1.4120798708310058 1
gene  1 85 9 1.1638567462412805 0 521.0 1.1638567462412805 1
gene  1 13 52 -2.9641892335020947 0 523.0 -2.9641892335020947 1
gene  1 64 29 -2.3736064019016636 0 573.0 -2.3736064019016636 1
gene  1 52 10 -5.245021780821675 0 583.0 -5.245021780821675 1
gene  1 2 85 1.9701156119617147 0 595.0 1.9701156119617147 1
genomeend 7
genomestart  8
trait 1 0.907232925829199 0.0 2.7344810196560863 0.30145754889830334 0.0 1.4007872281640394 0.0 1.6529965227924879 
node 1 1 1 1
node 2 1 1 1
node 3 1 1 1
node 4 1 1 1
node 5 1 1 1
node 6 1 1 1
node 7 1 1 3
node 8 1 0 0
node 9 1 0 0
node 10 1 0 0
node 13 1 0 2
node 14 1 0 2
node 21 1 0 0
node 29 1 0 0
node 52 1 0 0
node 53 1 0 0
node 64 1 0 0
node 85 1 0 0
gene  1 1 8 0.8819253725600853 0 98.0 0.8819253725600853 1
gene  1 3 8 -2.45542296122723 0 100.0 -2.45542296122723 1
gene  1 5 8 -1.5757060586771638 0 102.0 -1.5757060586771638 1
gene  1 6 8 7.7597339320554735 0 103.0 7.7597339320554735 1
gene  1 8 8 2.9935531894136482 1 105.0 2.9935531894136482 1
gene  1 1 9 -3.595484567867309 0 112.0 -3.595484567867309 1
gene  1 2 9 -0.45186612924296765 0 113.0 -0.45186612924296765 1
gene  1 3 9 1.6113193344799794 0 114.0 1.6113193344799794 1
gene  1 5 9 3.1667346957284757 0 116.0 3.1667346957284757 1
gene  1 7 9 -4.185629948468327 0 118.0 -4.185629948468327 1
gene  1 9 9 1.361200769824632 1 120.0 1.361200769824632 1
gene  1 10 9 -6.2324944284192565 1 121.0 -6.2324944284192565 1
gene  1 13 9 -5.700785808035908 1 124.0 -5.700785808035908 1
gene  1 2 10 2.441758264582512 0 127.0 2.441758264582512 1
gene  1 4 10 5.036304595163239 0 129.0 5.036304595163239 1
gene  1 5 10 -0.5388634162356767 0 130.0 -0.5388634162356767 1
gene  1 8 10 0.978051929764512 0 133.0 0.978051929764512 1
gene  1 9 10 -2.7438174671941056 0 134.0 -2.7438174671941056 1
gene  1 10 10 -1.8137849239437034 1 135.0 -1.8137849239437034 1
gene  1 13 10 4.527922086197133 1 138.0 4.527922086197133 1
gene  1 14 10 -0.10398878639665021 1 139.0 -0.10398878639665021 1
gene  1 2 13 3.732717963718031 0 169.0 3.732717963718031 1
gene  1 3 13 2.230166084892323 0 170.0 2.230166084892323 1
gene  1 6 13 -2.32671823187337 0 173.0 -2.32671823187337 1
gene  1 7 13 1.5738382399345867 0 174.0 1.5738382399345867 1
gene  1 9 13 4.299505024995776 0 176.0 4.299505024995776 1
gene  1 13 13 0.8616032548168739 1 180.0 0.8616032548168739 1
gene  1 14 13 -1.389918444277221 1 181.0 -1.389918444277221 1
gene  1 1 14 -0.3267910037429281 0 182.0 -0.3267910037429281 1
gene  1 3 14 -2.71249484984293 0 184.0 -2.71249484984293 1
gene  1 9 14 2.454946374486543 0 190.0 2.454946374486543 1
gene  1 10 14 1.5949051025032794 0 191.0 1.5949051025032794 1
gene  1 1 21 -3.813597423578252 0 218.0 -3.813597423578252 1
gene  1 21 8 0.39010226297364625 0 219.0 0.39010226297364625 1
gene  1 3 10 -2.37521243408184 0 223.0 -2.37521243408184 1
gene  1 6 29 -0.5404423092983373 0 259.0 -0.5404423092983373 1
gene  1 29 8 0.8978645233408542 0 260.0 0.8978645233408542 1
gene  1 29 21 1.142539118388446 0 271.0 1.142539118388446 1
gene  1 3 21 4.063279171523906 0 300.0 4.063279171523906 1
gene  1 9 52 -2.0575040134430305 0 368.0 -2.0575040134430305 1
gene  1 52 14 -2.937118978808697 0 369.0 -2.937118978808697 1
gene  1 1 53 3.498397531530102 0 372.0 3.498397531530102 1
gene  1 53 21 0.44686798194036403 0 373.0 0.44686798194036403 1
gene  1 2 52 1.639781872674714 0 425.0 1.639781872674714 1
gene  1 53 64 -1.9826806102005017 0 443.0 -1.9826806102005017 1
gene  1 64 21 -1.7601443047860987 0 444.0 -1.7601443047860987 1
gene  1 21 10 2.0930371965957746 0 509.0 2.0930371965957746 1
gene  1 9 85 1.561640801567258 1 520.0 1.561640801567258 1
gene  1 85 9 -0.1221623982545863 0 521.0 -0.1221623982545863 1
gene  1 13 52 -3.887509784509862 0 523.0 -3.887509784509862 1
gene  1 64 29 -1.6397054019103985 0 573.0 -1.6397054019103985 1
gene  1 52 10 -3.567960599777682 0 583.0 -3.567960599777682 1
gene  1 2 85 -0.42598968560798145 0 595.0 -0.42598968560798145 1
genomeend 8
genomestart  9
trait 1 0.39340002544161434 0.4638621482816303 0.4185672944766822 1.064591410541687 0.0 1.4619974594472236 1.314330803229924 0.36223095093968216 
node 1 1 1 1
node 2 1 1 1
node 3 1 1 1
node 4 1 1 1
node 5 1 1 1
node 6 1 1 1
node 7 1 1 3
node 13 1 0 2
node 14 1 0 2
node 42 1 0 0
node 61 1 0 0
node 74 1 0 0
node 76 1 0 0
gene  1 1 13 5.293608290543379 0 168.0 5.293608290543379 1
gene  1 2 13 3.593111280869767 0 169.0 3.593111280869767 1
gene  1 3 13 -3.482954538958113 0 170.0 -3.482954538958113 1
gene  1 4 13 1.745537159317726 0 171.0 1.745537159317726 1
gene  1 5 13 -4.728898372164618 0 172.0 -4.728898372164618 1
gene  1 6 13 0.27810572269403583 0 173.0 0.27810572269403583 1
gene  1 7 13 1.3533391523133518 0 174.0 1.3533391523133518 1
gene  1 14 13 -2.2500865301841584 1 181.0 -2.2500865301841584 1
gene  1 1 14 0.570989525226258 0 182.0 0.570989525226258 1
gene  1 2 14 4.290994924096792 0 183.0 4.290994924096792 1
gene  1 3 14 -2.865596895493252 0 184.0 -2.865596895493252 1
gene  1 13 14 -2.8781404748938497 0 194.0 -2.8781404748938497 1
gene  1 14 14 -5.8643207596451 1 195.0 -5.8643207596451 1
gene  1 6 14 -3.861669943032484 0 230.0 -3.861669943032484 1
gene  1 4 14 -2.82968367942864 0 312.0 -2.82968367942864 1
gene  1 2 42 -2.5426776500546566 0 320.0 -2.5426776500546566 1
gene  1 42 13 -4.274490083607932 0 321.0 -4.274490083607932 1
gene  1 6 42 -2.5895246575169897 0 349.0 -2.5895246575169897 1
gene  1 7 14 16.00319601097761 0 353.0 16.00319601097761 1
gene  1 7 42 4.269196211203655 0 395.0 4.269196211203655 1
gene  1 5 61 0.24277117564621098 0 408.0 0.24277117564621098 1
gene  1 61 13 5.339613869331409 0 409.0 5.339613869331409 1
gene  1 5 42 2.983280363735819 0 426.0 2.983280363735819 1
gene  1 2 74 0.420168743199707 0 471.0 0.420168743199707 1
gene  1 74 13 0.9117288153255984 0 472.0 0.9117288153255984 1
gene  1 5 76 4.332389655344839 0 476.0 4.332389655344839 1
gene  1 76 42 4.567779931281381 0 477.0 4.567779931281381 1
gene  1 3 74 -3.4612092569563178 0 491.0 -3.4612092569563178 1
gene  1 61 74 -4.4010695958759705 0 527.0 -4.4010695958759705 1
gene  1 61 42 -0.23393413018881182 0 544.0 -0.23393413018881182 1
gene  1 42 14 -0.19548050155855012 0 568.0 -0.19548050155855012 1
gene  1 7 74 -7.960455615178985 0 582.0 -7.960455615178985 1
gene  1 74 14 -0.18275042866592012 0 596.0 -0.18275042866592012 1
genomeend 9
genomestart  10
trait 1 0.39340002544161434 0.4638621482816303 0.4185672944766822 1.064591410541687 0.0 1.4619974594472236 1.314330803229924 0.36223095093968216 
node 1 1 1 1
node 2 1 1 1
node 3 1 1 1
node 4 1 1 1
node 5 1 1 1
node 6 1 1 1
node 7 1 1 3
node 13 1 0 2
node 14 1 0 2
node 42 1 0 0
node 61 1 0 0
node 74 1 0 0
node 76 1 0 0
node 101 1 0 0
gene  1 1 13 3.379894479272862 0 168.0 3.379894479272862 0
gene  1 2 13 3.740652662573526 0 169.0 3.740652662573526 1
gene  1 3 13 -2.0446362872888972 0 170.0 -2.0446362872888972 1
gene  1 4 13 2.36499455115227 0 171.0 2.36499455115227 1
gene  1 5 13 -6.0473405825585775 0 172.0 -6.0473405825585775 1
gene  1 6 13 0.11468818268107106 0 173.0 0.11468818268107106 1
gene  1 7 13 3.334751043152904 0 174.0 3.334751043152904 1
gene  1 14 13 0.19848880170189753 1 181.0 0.19848880170189753 1
gene  1 1 14 2.7118443251539492 0 182.0 2.7118443251539492 1
gene  1 2 14 6.023414000102392 0 183.0 6.023414000102392 1
gene  1 3 14 -2.130374167426374 0 184.0 -2.130374167426374 1
gene  1 13 14 -0.699721038253424 0 194.0 -0.699721038253424 1
gene  1 14 14 -4.497197342236475 1 195.0 -4.497197342236475 1
gene  1 6 14 -3.6277273464348765 0 230.0 -3.6277273464348765 1
gene  1 4 14 -4.975975852047632 0 312.0 -4.975975852047632 1
gene  1 2 42 -3.1690504076449537 0 320.0 -3.1690504076449537 1
gene  1 42 13 -2.296482780909475 0 321.0 -2.296482780909475 1
gene  1 6 42 -2.7802387714450267 0 349.0 -2.7802387714450267 1
gene  1 7 14 15.008842936754688 0 353.0 15.008842936754688 1
gene  1 7 42 3.096090026152935 0 395.0 3.096090026152935 1
gene  1 5 61 -1.1711190695495233 0 408.0 -1.1711190695495233 1
gene  1 61 13 4.3749556993540635 0 409.0 4.3749556993540635 1
gene  1 5 42 1.5596080271432404 0 426.0 1.5596080271432404 1
gene  1 2 74 2.412645237438389 0 471.0 2.412645237438389 1
gene  1 74 13 -0.3460433368425023 0 472.0 -0.3460433368425023 1
gene  1 5 76 2.6473489075881087 0 476.0 2.6473489075881087 1
gene  1 76 42 3.650670112306908 0 477.0 3.650670112306908 1
gene  1 3 74 -1.5208280256875777 0 491.0 -1.5208280256875777 1
gene  1 61 74 -2.5869389501948024 0 527.0 -2.5869389501948024 1
gene  1 61 42 -1.4813557262184605 0 544.0 -1.4813557262184605 1
gene  1 42 14 -2.155837704254898 0 568.0 -2.155837704254898 1
gene  1 7 74 -6.589061262158035 0 582.0 -6.589061262158035 1
gene  1 74 14 -0.18275042866592012 0 596.0 -0.18275042866592012 1
gene  1 1 101 1.0 0 604.0 0.0 1
gene  1 101 13 3.379894479272862 0 605.0 0.0 1
genomeend 10
genomestart  11
trait 1 0.39340002544161434 0.4638621482816303 0.4185672944766822 1.064591410541687 0.0 1.4619974594472236 1.314330803229924 0.36223095093968216 
node 1 1 1 1
node 2 1 1 1
node 3 1 1 1
node 4 1 1 1
node 5 1 1 1
node 6 1 1 1
node 7 1 1 3
node 13 1 0 2
node 14 1 0 2
node 42 1 0 0
node 61 1 0 0
node 74 1 0 0
node 76 1 0 0
gene  1 1 13 4.894774636376788 0 168.0 4.894774636376788 1
gene  1 2 13 2.791378981041019 0 169.0 2.791378981041019 1
gene  1 3 13 -0.61544572292765 0 170.0 -0.61544572292765 1
gene  1 4 13 2.9324572174994206 0 171.0 2.9324572174994206 1
gene  1 5 13 -4.967118543632976 0 172.0 -4.967118543632976 1
gene  1 6 13 1.0962435914941764 0 173.0 1.0962435914941764 1
gene  1 7 13 2.6351350480205182 0 174.0 2.6351350480205182 1
gene  1 14 13 1.080077988570434 1 181.0 1.080077988570434 1
gene  1 1 14 4.8946271751423716 0 182.0 4.8946271751423716 1
gene  1 2 14 4.157005979499879 0 183.0 4.157005979499879 1
gene  1 3 14 -2.8092857494486396 0 184.0 -2.8092857494486396 1
gene  1 13 14 -1.6809169780163187 0 194.0 -1.6809169780163187 1
gene  1 14 14 -3.963020610751191 1 195.0 -3.963020610751191 1
gene  1 6 14 -3.5375671444583836 0 230.0 -3.5375671444583836 1
gene  1 4 14 -2.7637238983926653 0 312.0 -2.7637238983926653 1
gene  1 2 42 -4.386131189916343 0 320.0 -4.386131189916343 1
gene  1 42 13 -0.9932938974674008 0 321.0 -0.9932938974674008 1
gene  1 6 42 -2.9380621636574196 0 349.0 -2.9380621636574196 1
gene  1 7 14 14.675946622362867 0 353.0 14.675946622362867 1
gene  1 7 42 1.0197625646829689 0 395.0 1.0197625646829689 1
gene  1 5 61 -2.0771113862839092 0 408.0 -2.0771113862839092 1
gene  1 61 13 2.804964597408814 0 409.0 2.804964597408814 1
gene  1 5 42 3.1521159493523423 0 426.0 3.1521159493523423 1
gene  1 2 74 4.129680665833927 0 471.0 4.129680665833927 1
gene  1 74 13 -0.5631841102739236 0 472.0 -0.5631841102739236 1
gene  1 5 76 5.078050990016571 0 476.0 5.078050990016571 1
gene  1 76 42 3.165742686469097 0 477.0 3.165742686469097 1
gene  1 3 74 0.34668723308489113 0 491.0 0.34668723308489113 1
gene  1 61 74 -1.4317944648660288 0 527.0 -1.4317944648660288 1
gene  1 61 42 -2.40998431455401 0 544.0 -2.40998431455401 1
gene  1 42 14 -2.155837704254898 0 568.0 -2.155837704254898 1
gene  1 7 74 -6.589061262158035 0 582.0 -6.589061262158035 1
gene  1 74 14 -2.3492096941571132 0 596.0 -2.3492096941571132 1
genomeend 11
genomestart  12
trait 1 0.0 0.9160964204574156 0.03145355857324372 0.5098453143214142 0.4939563997667481 0.0238959621145034 1.3204749328510976 0.0 
node 1 1 1 1
node 2 1 1 1
node 3 1 1 1
node 4 1 1 1
node 5 1 1 1
node 6 1 1 1
node 7 1 1 3
node 8 1 0 0
node 13 1 0 2
node 14 1 0 2
node 49 1 0 0
node 59 1 0 0
node 63 1 0 0
node 88 1 0 0
gene  1 4 8 -0.7716165837650162 0 101.0 -0.7716165837650162 1
gene  1 5 8 0.30239921376624096 0 102.0 0.30239921376624096 1
gene  1 6 8 1.6477356872438764 0 103.0 1.6477356872438764 1
gene  1 14 8 -9.143282569992 1 111.0 -9.143282569992 1
gene  1 1 13 1.2229439704947707 0 168.0 1.2229439704947707 1
gene  1 2 13 -5.522726681702034 0 169.0 -5.522726681702034 1
gene  1 3 13 1.0171263695040902 0 170.0 1.0171263695040902 1
gene  1 5 13 -3.1411821385792926 0 172.0 -3.1411821385792926 1
gene  1 7 13 -7.934659491478503 0 174.0 -7.934659491478503 1
gene  1 14 13 -2.231457455323403 1 181.0 -2.231457455323403 1
gene  1 1 14 3.5859513038800053 0 182.0 3.5859513038800053 1
gene  1 2 14 -0.20049429691293447 0 183.0 -0.20049429691293447 1
gene  1 3 14 1.074379051053 0 184.0 1.074379051053 1
gene  1 4 14 -0.5281134194580844 0 185.0 -0.5281134194580844 1
gene  1 8 14 2.4760217240633344 0 189.0 2.4760217240633344 1
gene  1 14 14 -1.5647612347088864 1 195.0 -1.5647612347088864 1
gene  1 6 14 -8.859872748852808 0 240.0 -8.859872748852808 1
gene  1 8 13 -0.9556840423696349 0 311.0 -0.9556840423696349 1
gene  1 14 13 10.252485323766267 0 322.0 10.252485323766267 1
gene  1 2 49 1.0722276663703447 0 362.0 1.0722276663703447 1
gene  1 49 14 1.7811446118485192 0 363.0 1.7811446118485192 1
gene  1 3 8 2.564598209693307 0 393.0 2.564598209693307 1
gene  1 49 59 -1.8418981512963237 0 401.0 -1.8418981512963237 1
gene  1 59 14 2.668245697173978 0 402.0 2.668245697173978 1
gene  1 2 59 -0.5768492956295665 0 403.0 -0.5768492956295665 1
gene  1 7 14 1.8704511043127658 0 424.0 1.8704511043127658 1
gene  1 59 13 2.5806107568802727 0 427.0 2.5806107568802727 1
gene  1 3 63 4.293007093755013 0 440.0 4.293007093755013 1
gene  1 63 8 0.9694745688264567 0 441.0 0.9694745688264567 1
gene  1 5 59 -7.232501770377696 0 525.0 -7.232501770377696 1
gene  1 1 59 1.8478485280222714 0 534.0 1.8478485280222714 1
gene  1 49 88 -6.676207908581315 0 546.0 -6.676207908581315 1
gene  1 88 59 4.338703328320399 0 547.0 4.338703328320399 1
genomeend 12
genomestart  13
trait 1 0.0 0.9160964204574156 0.03145355857324372 0.5098453143214142 0.4939563997667481 0.0238959621145034 1.3204749328510976 0.0 
node 1 1 1 1
node 2 1 1 1
node 3 1 1 1
node 4 1 1 1
node 5 1 1 1
node 6 1 1 1
node 7 1 1 3
node 8 1 0 0
node 13 1 0 2
node 14 1 0 2
node 49 1 0 0
node 59 1 0 0
node 63 1 0 0
node 88 1 0 0
gene  1 4 8 1.1846263344619552 0 101.0 1.1846263344619552 1
gene  1 5 8 -4.985905179376748 0 102.0 -4.985905179376748 1
gene  1 6 8 -0.009667734035147646 0 103.0 -0.009667734035147646 1
gene  1 14 8 -8.430977516187653 1 111.0 -8.430977516187653 1
gene  1 1 13 0.5877908624184882 0 168.0 0.5877908624184882 1
gene  1 2 13 -3.313884005007544 0 169.0 -3.313884005007544 1
gene  1 3 13 0.5773570092051823 0 170.0 0.5773570092051823 1
gene  1 5 13 -1.1684613442702705 0 172.0 -1.1684613442702705 1
gene  1 7 13 -7.319577855889879 0 174.0 -7.319577855889879 1
gene  1 14 13 -0.8412517807346698 1 181.0 -0.8412517807346698 1
gene  1 1 14 1.1847305271027415 0 182.0 1.1847305271027415 1
gene  1 2 14 -2.301464575612461 0 183.0 -2.301464575612461 1
gene  1 3 14 8.433606429393658 0 184.0 8.433606429393658 1
gene  1 4 14 -0.7980927036562804 0 185.0 -0.7980927036562804 1
gene  1 8 14 -1.538503293695865 0 189.0 -1.538503293695865 1
gene  1 14 14 -1.5960759852246036 1 195.0 -1.5960759852246036 1
gene  1 6 14 -8.725014179958201 0 240.0 -8.725014179958201 1
gene  1 8 13 -2.230699041921505 0 311.0 -2.230699041921505 1
gene  1 14 13 10.252485323766267 0 322.0 10.252485323766267 1
gene  1 2 49 -1.124390256860363 0 362.0 -1.124390256860363 1
gene  1 49 14 1.9327244594379138 0 363.0 1.9327244594379138 1
gene  1 3 8 0.7473776653971769 0 393.0 0.7473776653971769 1
gene  1 49 59 -4.013524204568745 0 401.0 -4.013524204568745 1
gene  1 59 14 0.41830049838005945 0 402.0 0.41830049838005945 1
gene  1 2 59 -0.06703067738585311 0 403.0 -0.06703067738585311 1
gene  1 7 14 -0.47632773313497406 0 424.0 -0.47632773313497406 1
gene  1 59 13 0.6889097760781255 0 427.0 0.6889097760781255 1
gene  1 3 63 4.448279533720797 0 440.0 4.448279533720797 1
gene  1 63 8 -0.558358821611402 0 441.0 -0.558358821611402 1
gene  1 5 59 -7.232501770377696 0 525.0 -7.232501770377696 1
gene  1 1 59 -2.0033646910564555 0 534.0 -2.0033646910564555 1
gene  1 49 88 -6.043686813280145 0 546.0 -6.043686813280145 1
gene  1 88 59 2.9492857870935176 0 547.0 2.9492857870935176 1
gene  1 7 88 -7.572928717697801 0 608.0 -7.572928717697801 1
genomeend 13
genomestart  14
trait 1 0.7266510416492057 1.51783543229617 1.2671621196902727 0.49951333318806035 0.0 2.2133304098674773 1.1489259737536075 0.06730656714772287 
node 1 1 1 1
node 2 1 1 1
node 3 1 1 1
node 4 1 1 1
node 5 1 1 1
node 6 1 1 1
node 7 1 1 3
node 8 1 0 0
node 9 1 0 0
node 10 1 0 0
node 11 1 0 0
node 12 1 0 0
node 13 1 0 2
node 14 1 0 2
node 27 1 0 0
node 34 1 0 0
node 40 1 0 0
node 48 1 0 0
node 71 1 0 0
gene  1 1 8 1.898910591879391 0 98.0 1.898910591879391 1
gene  1 3 8 -0.44070073408959387 0 100.0 -0.44070073408959387 1
gene  1 4 8 2.02630251281629 0 101.0 2.02630251281629 1
gene  1 6 8 2.315922538836439 0 103.0 2.315922538836439 1
gene  1 8 8 11.6336867698989 1 105.0 11.6336867698989 1
gene  1 10 8 -2.127676489559491 1 107.0 -2.127676489559491 1
gene  1 3 9 -2.4258551532118457 0 114.0 -2.4258551532118457 1
gene  1 6 9 0.14791674543280764 0 117.0 0.14791674543280764 1
gene  1 8 9 -1.7956770136783484 0 119.0 -1.7956770136783484 1
gene  1 10 9 4.373515328287357 1 121.0 4.373515328287357 1
gene  1 11 9 -7.397587974801185 1 122.0 -7.397587974801185 1
gene  1 13 9 1.6830066531479781 1 124.0 1.6830066531479781 1
gene  1 14 9 2.9304785462979615 1 125.0 2.9304785462979615 1
gene  1 1 10 13.848526572872299 0 126.0 13.848526572872299 1
gene  1 3 10 1.2391933062948535 0 128.0 1.2391933062948535 1
gene  1 4 10 -1.3973600294508046 0 129.0 -1.3973600294508046 1
gene  1 5 10 -0.4217685423707658 0 130.0 -0.4217685423707658 1
gene  1 9 10 -1.9845044091725847 0 134.0 -1.9845044091725847 1
gene  1 13 10 -3.661224849715097 1 138.0 -3.661224849715097 1
gene  1 1 11 -0.6588548393637523 0 140.0 -0.6588548393637523 1
gene  1 3 11 -3.269692663771755 0 142.0 -3.269692663771755 1
gene  1 5 11 10.512211254660022 0 144.0 10.512211254660022 1
gene  1 9 11 -9.607738394632433 0 148.0 -9.607738394632433 1
gene  1 10 11 2.421845292205581 0 149.0 2.421845292205581 1
gene  1 12 11 3.419216591325026 1 151.0 3.419216591325026 1
gene  1 14 11 -4.958079097645091 1 153.0 -4.958079097645091 1
gene  1 2 12 1.3800944467124514 0 155.0 1.3800944467124514 1
gene  1 4 12 0.2719786277197427 0 157.0 0.2719786277197427 1
gene  1 6 12 -1.932137405864563 0 159.0 -1.932137405864563 1
gene  1 7 12 2.588979865533456 0 160.0 2.588979865533456 1
gene  1 9 12 -2.997771302977263 0 162.0 -2.997771302977263 1
gene  1 10 12 -6.863863148425371 0 163.0 -6.863863148425371 1
gene  1 12 12 5.183377974544424 1 165.0 5.183377974544424 1
gene  1 14 12 2.5537582407034627 1 167.0 2.5537582407034627 1
gene  1 1 13 2.5440968032517963 0 168.0 2.5440968032517963 1
gene  1 3 13 -4.1638513592962205 0 170.0 -4.1638513592962205 1
gene  1 4 13 -4.1591746189816945 0 171.0 -4.1591746189816945 1
gene  1 6 13 -3.6138306520770267 0 173.0 -3.6138306520770267 1
gene  1 8 13 -4.500580397095698 0 175.0 -4.500580397095698 1
gene  1 9 13 -2.775533347499919 0 176.0 -2.775533347499919 1
gene  1 8 14 -4.746288433456261 0 189.0 -4.746288433456261 1
gene  1 11 14 -1.2378634764096719 0 192.0 -1.2378634764096719 1
gene  1 5 8 7.210685944713193 0 235.0 7.210685944713193 1
gene  1 1 27 -4.017164408552497 0 241.0 -4.017164408552497 1
gene  1 27 8 5.979711754044156 0 242.0 5.979711754044156 1
gene  1 9 34 -3.1549610012424947 0 272.0 -3.1549610012424947 1
gene  1 34 11 -0.07149413888396605 0 273.0 -0.07149413888396605 1
gene  1 5 13 -4.674017040216169 0 277.0 -4.674017040216169 1
gene  1 12 14 1.7435922801983197 0 296.0 1.7435922801983197 1
gene  1 8 40 -1.0990263035443548 1 308.0 -1.0990263035443548 1
gene  1 40 8 -2.8929201594455893 0 309.0 -2.8929201594455893 1
gene  1 10 14 1.956470984816272 0 341.0 1.956470984816272 1
gene  1 3 48 2.1047266370106468 0 360.0 2.1047266370106468 1
gene  1 48 8 5.341066047280189 0 361.0 5.341066047280189 1
gene  1 10 13 -0.3777504718636173 0 404.0 -0.3777504718636173 1
gene  1 48 71 2.8229336471755957 0 463.0 2.8229336471755957 1
gene  1 71 8 1.782256852916718 0 464.0 1.782256852916718 1
gene  1 11 12 -2.299415142724376 0 478.0 -2.299415142724376 1
gene  1 34 14 -2.0843183198964748 0 481.0 -2.0843183198964748 1
genomeend 14
genomestart  15
trait 1 0.7266510416492057 1.51783543229617 1.2671621196902727 0.49951333318806035 0.0 2.2133304098674773 1.1489259737536075 0.06730656714772287 
node 1 1 1 1
node 2 1 1 1
node 3 1 1 1
node 4 1 1 1
node 5 1 1 1
node 6 1 1 1
node 7 1 1 3
node 8 1 0 0
node 9 1 0 0
node 10 1 0 0
node 11 1 0 0
node 12 1 0 0
node 13 1 0 2
node 14 1 0 2
node 27 1 0 0
node 34 1 0 0
node 40 1 0 0
node 48 1 0 0
node 71 1 0 0
gene  1 1 8 -2.5466451723111003 0 98.0 -2.5466451723111003 1
gene  1 3 8 2.388266117222245 0 100.0 2.388266117222245 1
gene  1 4 8 1.6987000690056688 0 101.0 1.6987000690056688 1
gene  1 6 8 1.7449181891347327 0 103.0 1.7449181891347327 1
gene  1 8 8 12.46721166945144 1 105.0 12.46721166945144 1
gene  1 10 8 1.4259469544776708 1 107.0 1.4259469544776708 1
gene  1 3 9 -2.9356661752058097 0 114.0 -2.9356661752058097 1
gene  1 6 9 -0.7743683451735646 0 117.0 -0.7743683451735646 1
gene  1 8 9 -1.5261090818850385 0 119.0 -1.5261090818850385 1
gene  1 10 9 6.586625581475483 1 121.0 6.586625581475483 1
gene  1 11 9 -5.862743958257105 1 122.0 -5.862743958257105 1
gene  1 13 9 -1.785986106487857 1 124.0 -1.785986106487857 1
gene  1 14 9 1.4496937361928168 1 125.0 1.4496937361928168 1
gene  1 1 10 14.48994444755313 0 126.0 14.48994444755313 1
gene  1 3 10 -0.9762551340380266 0 128.0 -0.9762551340380266 1
gene  1 4 10 -2.446970655080154 0 129.0 -2.446970655080154 1
gene  1 5 10 1.6969747100535277 0 130.0 1.6969747100535277 1
gene  1 9 10 0.4539760152608527 0 134.0 0.4539760152608527 1
gene  1 13 10 -1.5546358255780077 1 138.0 -1.5546358255780077 1
gene  1 1 11 -0.8155782705979695 0 140.0 -0.8155782705979695 1
gene  1 3 11 -1.468686164417764 0 142.0 -1.468686164417764 1
gene  1 5 11 10.533100343600552 0 144.0 10.533100343600552 1
gene  1 9 11 -6.166080945807293 0 148.0 -6.166080945807293 1
gene  1 10 11 1.6692225917436403 0 149.0 1.6692225917436403 1
gene  1 12 11 4.982972841213261 1 151.0 4.982972841213261 1
gene  1 14 11 -3.8886027856166607 1 153.0 -3.8886027856166607 1
gene  1 2 12 2.1101947146518043 0 155.0 2.1101947146518043 1
gene  1 4 12 4.853401827770901 0 157.0 4.853401827770901 1
gene  1 6 12 -1.5556022608842528 0 159.0 -1.5556022608842528 1
gene  1 7 12 1.7983901895121044 0 160.0 1.7983901895121044 1
gene  1 9 12 -2.642627539484553 0 162.0 -2.642627539484553 1
gene  1 10 12 -4.239016731045773 0 163.0 -4.239016731045773 1
gene  1 12 12 3.56243659510473 1 165.0 3.56243659510473 1
gene  1 14 12 3.408426424440944 1 167.0 3.408426424440944 1
gene  1 1 13 4.094009545770761 0 168.0 4.094009545770761 1
gene  1 3 13 -2.0746999317073507 0 170.0 -2.0746999317073507 1
gene  1 4 13 -4.712938262526309 0 171.0 -4.712938262526309 1
gene  1 6 13 -4.150311162824256 0 173.0 -4.150311162824256 1
gene  1 8 13 -2.892289488449683 0 175.0 -2.892289488449683 1
gene  1 9 13 -3.802351516724517 0 176.0 -3.802351516724517 1
gene  1 8 14 -6.0102609204283315 0 189.0 -6.0102609204283315 1
gene  1 11 14 1.8705402014463555 0 192.0 1.8705402014463555 1
gene  1 5 8 7.999018123903583 0 235.0 7.999018123903583 1
gene  1 1 27 -1.1249974990456664 0 241.0 -1.1249974990456664 1
gene  1 27 8 5.082750654123668 0 242.0 5.082750654123668 1
gene  1 9 34 -3.2565019164479314 0 272.0 -3.2565019164479314 1
gene  1 34 11 2.6916038457320415 0 273.0 2.6916038457320415 1
gene  1 5 13 -5.864919934278943 0 277.0 -5.864919934278943 1
gene  1 12 14 1.682886708124673 0 296.0 1.682886708124673 1
gene  1 8 40 -1.3540878152543354 1 308.0 -1.3540878152543354 1
gene  1 40 8 -1.1406105352507347 0 309.0 -1.1406105352507347 1
gene  1 10 14 2.1354739811296772 0 341.0 2.1354739811296772 1
gene  1 3 48 2.0658745310496984 0 360.0 2.0658745310496984 1
gene  1 48 8 1.7293763100574988 0 361.0 1.7293763100574988 1
gene  1 10 13 2.358712636085054 0 404.0 2.358712636085054 1
gene  1 48 71 -0.16076001895566877 0 463.0 -0.16076001895566877 1
gene  1 71 8 1.782256852916718 0 464.0 1.782256852916718 1
gene  1 11 12 -6.962355231599492 0 478.0 -6.962355231599492 1
gene  1 34 14 -0.7536810375070058 0 481.0 -0.7536810375070058 1
genomeend 15
genomestart  16
trait 1 0.7266510416492057 1.51783543229617 1.2671621196902727 0.49951333318806035 0.0 2.2133304098674773 1.1489259737536075 0.06730656714772287 
node 1 1 1 1
node 2 1 1 1
node 3 1 1 1
node 4 1 1 1
node 5 1 1 1
node 6 1 1 1
node 7 1 1 3
node 8 1 0 0
node 9 1 0 0
node 10 1 0 0
node 11 1 0 0
node 12 1 0 0
node 13 1 0 2
node 14 1 0 2
node 27 1 0 0
node 34 1 0 0
node 40 1 0 0
node 48 1 0 0
node 71 1 0 0
gene  1 1 8 -0.44762384703228286 0 98.0 -0.44762384703228286 1
gene  1 3 8 1.300535129522498 0 100.0 1.300535129522498 1
gene  1 4 8 3.0057924249465344 0 101.0 3.0057924249465344 1
gene  1 6 8 0.4356672505033172 0 103.0 0.4356672505033172 1
gene  1 8 8 11.733470319899709 1 105.0 11.733470319899709 1
gene  1 10 8 -0.21473615054871753 1 107.0 -0.21473615054871753 1
gene  1 3 9 -3.849377301631045 0 114.0 -3.849377301631045 1
gene  1 6 9 1.1542556417322511 0 117.0 1.1542556417322511 1
gene  1 8 9 -0.8279060593135743 0 119.0 -0.8279060593135743 1
gene  1 10 9 5.434079670506918 1 121.0 5.434079670506918 1
gene  1 11 9 -7.192193437433261 1 122.0 -7.192193437433261 1
gene  1 13 9 -0.5768106718244224 1 124.0 -0.5768106718244224 1
gene  1 14 9 2.3177600455003344 1 125.0 2.3177600455003344 1
gene  1 1 10 14.615765607987743 0 126.0 14.615765607987743 1
gene  1 3 10 -0.10082052374031397 0 128.0 -0.10082052374031397 1
gene  1 4 10 -0.6111066413649087 0 129.0 -0.6111066413649087 1
gene  1 5 10 1.7696742134271624 0 130.0 1.7696742134271624 1
gene  1 9 10 -0.12981303485996493 0 134.0 -0.12981303485996493 1
gene  1 13 10 -2.339910826355755 1 138.0 -2.339910826355755 1
gene  1 1 11 -1.881576380471147 0 140.0 -1.881576380471147 1
gene  1 3 11 -3.131512138197977 0 142.0 -3.131512138197977 1
gene  1 5 11 10.029611703209115 0 144.0 10.029611703209115 1
gene  1 9 11 -8.32969391328589 0 148.0 -8.32969391328589 1
gene  1 10 11 0.07158556876854427 0 149.0 0.07158556876854427 1
gene  1 12 11 3.676233897052331 1 151.0 3.676233897052331 1
gene  1 14 11 -4.531849635063338 1 153.0 -4.531849635063338 1
gene  1 2 12 1.400550788205262 0 155.0 1.400550788205262 1
gene  1 4 12 2.58598591064016 0 157.0 2.58598591064016 1
gene  1 6 12 -2.60447720617554 0 159.0 -2.60447720617554 1
gene  1 7 12 1.2037663067101478 0 160.0 1.2037663067101478 1
gene  1 9 12 -1.9596463979549852 0 162.0 -1.9596463979549852 1
gene  1 10 12 -4.461061538414796 0 163.0 -4.461061538414796 1
gene  1 12 12 5.787146333077781 1 165.0 5.787146333077781 1
gene  1 14 12 1.5865821730950715 1 167.0 1.5865821730950715 1
gene  1 1 13 4.635871040920277 0 168.0 4.635871040920277 1
gene  1 3 13 -2.60361687321773 0 170.0 -2.60361687321773 1
gene  1 4 13 -2.3655473855768445 0 171.0 -2.3655473855768445 1
gene  1 6 13 -3.388652921901858 0 173.0 -3.388652921901858 1
gene  1 8 13 -2.0210323784783677 0 175.0 -2.0210323784783677 1
gene  1 9 13 -2.3573187868502443 0 176.0 -2.3573187868502443 1
gene  1 8 14 -3.955297600003658 0 189.0 -3.955297600003658 1
gene  1 11 14 0.2987914924611046 0 192.0 0.2987914924611046 1
gene  1 5 8 6.339967483316956 0 235.0 6.339967483316956 1
gene  1 1 27 -1.8401303700915423 0 241.0 -1.8401303700915423 1
gene  1 27 8 6.916895939412228 0 242.0 6.916895939412228 1
gene  1 9 34 -4.476061603218692 0 272.0 -4.476061603218692 1
gene  1 34 11 0.7280554502250951 0 273.0 0.7280554502250951 1
gene  1 5 13 -4.712854217094399 0 277.0 -4.712854217094399 1
gene  1 12 14 1.682886708124673 0 296.0 1.682886708124673 1
gene  1 8 40 -1.0990263035443548 1 308.0 -1.0990263035443548 1
gene  1 40 8 -2.8929201594455893 0 309.0 -2.8929201594455893 1
gene  1 10 14 1.956470984816272 0 341.0 1.956470984816272 1
gene  1 3 48 2.0658745310496984 0 360.0 2.0658745310496984 1
gene  1 48 8 5.341066047280189 0 361.0 5.341066047280189 1
gene  1 10 13 -0.3777504718636173 0 404.0 -0.3777504718636173 1
gene  1 48 71 0.6533840102827446 0 463.0 0.6533840102827446 1
gene  1 71 8 1.782256852916718 0 464.0 1.782256852916718 1
gene  1 11 12 -4.730098342847473 0 478.0 -4.730098342847473 1
gene  1 34 14 -0.7536810375070058 0 481.0 -0.7536810375070058 1
gene  1 3 14 6.183155047332689 0 609.0 6.183155047332689 1
genomeend 16
genomestart  17
trait 1 0.7266510416492057 1.51783543229617 1.2671621196902727 0.49951333318806035 0.0 2.2133304098674773 1.1489259737536075 0.06730656714772287 
node 1 1 1 1
node 2 1 1 1
node 3 1 1 1
node 4 1 1 1
node 5 1 1 1
node 6 1 1 1
node 7 1 1 3
node 8 1 0 0
node 9 1 0 0
node 10 1 0 0
node 11 1 0 0
node 12 1 0 0
node 13 1 0 2
node 14 1 0 2
node 27 1 0 0
node 34 1 0 0
node 40 1 0 0
node 48 1 0 0
node 71 1 0 0
gene  1 1 8 -2.544593253068208 0 98.0 -2.544593253068208 1
gene  1 3 8 -0.3439899503317759 0 100.0 -0.3439899503317759 1
gene  1 4 8 2.280780842875339 0 101.0 2.280780842875339 1
gene  1 6 8 2.2497966201017023 0 103.0 2.2497966201017023 1
gene  1 8 8 13.352353050678502 1 105.0 13.352353050678502 1
gene  1 10 8 1.4618973369956 1 107.0 1.4618973369956 1
gene  1 3 9 -2.403016674750295 0 114.0 -2.403016674750295 1
gene  1 6 9 -0.6713640816467101 0 117.0 -0.6713640816467101 1
gene  1 8 9 -1.3323563558195977 0 119.0 -1.3323563558195977 1
gene  1 10 9 3.657144445297041 1 121.0 3.657144445297041 1
gene  1 11 9 -7.997778196385244 1 122.0 -7.997778196385244 1
gene  1 13 9 -1.0159688658509647 1 124.0 -1.0159688658509647 1
gene  1 14 9 4.719905807053944 1 125.0 4.719905807053944 1
gene  1 1 10 12.808075272642004 0 126.0 12.808075272642004 1
gene  1 3 10 -2.3692744222446436 0 128.0 -2.3692744222446436 1
gene  1 4 10 0.928217573494075 0 129.0 0.928217573494075 1
gene  1 5 10 1.7888426600955294 0 130.0 1.7888426600955294 1
gene  1 9 10 1.5313223391148376 0 134.0 1.5313223391148376 1
gene  1 13 10 -2.4646913815797444 1 138.0 -2.4646913815797444 1
gene  1 1 11 -3.8921489802516835 0 140.0 -3.8921489802516835 1
gene  1 3 11 -1.7676935965427396 0 142.0 -1.7676935965427396 1
gene  1 5 11 9.869955260757298 0 144.0 9.869955260757298 1
gene  1 9 11 1.1724895003691105 0 148.0 1.1724895003691105 1
gene  1 10 11 2.117330693600988 0 149.0 2.117330693600988 1
gene  1 12 11 2.5752016980160954 1 151.0 2.5752016980160954 1
gene  1 14 11 -3.0831542735630713 1 153.0 -3.0831542735630713 1
gene  1 2 12 3.2372088712526947 0 155.0 3.2372088712526947 1
gene  1 4 12 4.045965206460902 0 157.0 4.045965206460902 1
gene  1 6 12 -4.609628863157732 0 159.0 -4.609628863157732 1
gene  1 7 12 3.3693021130587155 0 160.0 3.3693021130587155 1
gene  1 9 12 -1.9596463979549852 0 162.0 -1.9596463979549852 1
gene  1 10 12 -5.986632758590554 0 163.0 -5.986632758590554 1
gene  1 12 12 7.220251707803996 1 165.0 7.220251707803996 1
gene  1 14 12 1.0193981061664419 1 167.0 1.0193981061664419 1
gene  1 1 13 -1.363636198565711 0 168.0 -1.363636198565711 1
gene  1 3 13 -2.60361687321773 0 170.0 -2.60361687321773 1
gene  1 4 13 -3.220954315249077 0 171.0 -3.220954315249077 1
gene  1 6 13 -2.954585641003067 0 173.0 -2.954585641003067 1
gene  1 8 13 1.300239274567835 0 175.0 1.300239274567835 1
gene  1 9 13 -0.5188905514776403 0 176.0 -0.5188905514776403 1
gene  1 8 14 -5.870195004110268 0 189.0 -5.870195004110268 1
gene  1 11 14 2.7196574660289947 0 192.0 2.7196574660289947 1
gene  1 5 8 5.46322168058962 0 235.0 5.46322168058962 1
gene  1 1 27 -4.099602468718245 0 241.0 -4.099602468718245 1
gene  1 27 8 4.465886990949789 0 242.0 4.465886990949789 1
gene  1 9 34 -2.9425647069253493 0 272.0 -2.9425647069253493 1
gene  1 34 11 -1.320262227582645 0 273.0 -1.320262227582645 1
gene  1 5 13 -2.8743442443338036 0 277.0 -2.8743442443338036 1
gene  1 12 14 3.3875434422012773 0 296.0 3.3875434422012773 1
gene  1 8 40 2.297166230272498 1 308.0 2.297166230272498 1
gene  1 40 8 2.1503166561353866 0 309.0 2.1503166561353866 1
gene  1 10 14 2.193403336875201 0 341.0 2.193403336875201 1
gene  1 3 48 0.6690849473100868 0 360.0 0.6690849473100868 1
gene  1 48 8 -2.3024332849713263 0 361.0 -2.3024332849713263 1
gene  1 10 13 -1.3563684303016168 0 404.0 -1.3563684303016168 1
gene  1 48 71 -0.3410698346601342 0 463.0 -0.3410698346601342 1
gene  1 71 8 3.1395761005326417 0 464.0 3.1395761005326417 1
gene  1 11 12 -6.020177850942128 0 478.0 -6.020177850942128 1
gene  1 34 14 -2.164833094315005 0 481.0 -2.164833094315005 1
genomeend 17
genomestart  18
trait 1 0.33760641808164704 1.299704635597652 0.9547867298575612 0.017203006884936534 1.0258166876977075 0.9586270994970227 0.12889370418766055 0.0 
node 1 1 1 1
node 2 1 1 1
node 3 1 1 1
node 4 1 1 1
node 5 1 1 1
node 6 1 1 1
node 7 1 1 3
node 8 1 0 0
node 9 1 0 0
node 10 1 0 0
node 13 1 0 2
node 14 1 0 2
node 16 1 0 0
node 21 1 0 0
node 29 1 0 0
node 52 1 0 0
node 53 1 0 0
node 79 1 0 0
gene  1 1 8 0.22687245436023562 0 98.0 0.22687245436023562 1
gene  1 2 8 0.7179330254226268 0 99.0 0.7179330254226268 1
gene  1 3 8 -3.347001913594535 0 100.0 -3.347001913594535 1
gene  1 4 8 -3.0614260166853047 0 101.0 -3.0614260166853047 1
gene  1 5 8 1.5386889773272694 0 102.0 1.5386889773272694 1
gene  1 6 8 5.697144976529716 0 103.0 5.697144976529716 1
gene  1 8 8 3.0745485784386446 1 105.0 3.0745485784386446 1
gene  1 13 8 -3.760204368143733 1 110.0 -3.760204368143733 1
gene  1 14 8 1.814697238738935 1 111.0 1.814697238738935 1
gene  1 3 13 1.8167181047557375 0 170.0 1.8167181047557375 1
gene  1 5 13 0.3881204561754614 0 172.0 0.3881204561754614 1
gene  1 7 13 1.4113884212665702 0 174.0 1.4113884212665702 1
gene  1 13 13 1.7416021526035164 1 180.0 1.7416021526035164 1
gene  1 2 14 1.9209209636179936 0 183.0 1.9209209636179936 1
gene  1 4 14 7.140886144232328 0 185.0 7.140886144232328 1
gene  1 6 14 2.2475732577116334 0 187.0 2.2475732577116334 1
gene  1 8 14 14.357332106786147 0 189.0 14.357332106786147 1
gene  1 13 14 0.3944466942754954 0 194.0 0.3944466942754954 1
gene  1 13 16 -2.2048062312797505 0 201.0 -2.2048062312797505 1
gene  1 16 14 -0.9131773871339692 0 202.0 -0.9131773871339692 1
gene  1 1 21 -0.05203517086845966 0 218.0 -0.05203517086845966 1
gene  1 21 8 0.4268700664410974 0 219.0 0.4268700664410974 1
gene  1 3 10 5.7245564532062625 0 223.0 5.7245564532062625 1
gene  1 6 29 -3.8362637887083055 0 259.0 -3.8362637887083055 1
gene  1 29 8 1.867938733306604 0 260.0 1.867938733306604 1
gene  1 29 21 3.911644665366084 0 271.0 3.911644665366084 1
gene  1 3 21 -0.0312900907305112 0 300.0 -0.0312900907305112 1
gene  1 9 52 -3.8620858746523647 0 368.0 -3.8620858746523647 1
gene  1 52 14 -2.4150615461858793 0 369.0 -2.4150615461858793 1
gene  1 1 53 -4.30034355013921 0 372.0 -4.30034355013921 1
gene  1 53 21 -1.0150898332031018 0 373.0 -1.0150898332031018 1
gene  1 2 16 -3.2081743105704077 0 439.0 -3.2081743105704077 1
gene  1 21 79 -0.15742113826843784 0 489.0 -0.15742113826843784 1
gene  1 79 8 -1.1768723887074122 0 490.0 -1.1768723887074122 1
gene  1 52 10 -0.653682143416723 0 588.0 -0.653682143416723 1
genomeend 18
genomestart  19
trait 1 0.33760641808164704 1.299704635597652 0.9547867298575612 0.017203006884936534 1.0258166876977075 0.9586270994970227 0.12889370418766055 0.0 
node 1 1 1 1
node 2 1 1 1
node 3 1 1 1
node 4 1 1 1
node 5 1 1 1
node 6 1 1 1
node 7 1 1 3
node 8 1 0 0
node 9 1 0 0
node 10 1 0 0
node 13 1 0 2
node 14 1 0 2
node 16 1 0 0
node 21 1 0 0
node 29 1 0 0
node 52 1 0 0
node 53 1 0 0
node 79 1 0 0
gene  1 1 8 0.48152049898207083 0 98.0 0.48152049898207083 1
gene  1 2 8 -0.020625088621891052 0 99.0 -0.020625088621891052 1
gene  1 3 8 -4.139326866332466 0 100.0 -4.139326866332466 1
gene  1 4 8 -3.112414018138153 0 101.0 -3.112414018138153 1
gene  1 5 8 -0.4337907400645976 0 102.0 -0.4337907400645976 1
gene  1 6 8 5.543290792684944 0 103.0 5.543290792684944 1
gene  1 8 8 3.109040712853503 1 105.0 3.109040712853503 1
gene  1 13 8 -2.262759107624563 1 110.0 -2.262759107624563 1
gene  1 14 8 1.0577654927231623 1 111.0 1.0577654927231623 1
gene  1 3 13 1.1785859488503454 0 170.0 1.1785859488503454 1
gene  1 5 13 0.15109615205767235 0 172.0 0.15109615205767235 1
gene  1 7 13 3.20566533229932 0 174.0 3.20566533229932 1
gene  1 13 13 3.457824829911966 1 180.0 3.457824829911966 1
gene  1 2 14 -0.14168687749899656 0 183.0 -0.14168687749899656 1
gene  1 4 14 5.28047931339115 0 185.0 5.28047931339115 1
gene  1 6 14 4.039984075498989 0 187.0 4.039984075498989 1
gene  1 8 14 13.064455770797451 0 189.0 13.064455770797451 1
gene  1 13 14 1.8082823674739454 0 194.0 1.8082823674739454 1
gene  1 13 16 -0.7153279403029302 0 201.0 -0.7153279403029302 1
gene  1 16 14 -3.077366023478622 0 202.0 -3.077366023478622 1
gene  1 1 21 -0.7997874892498267 0 218.0 -0.7997874892498267 1
gene  1 21 8 -0.9938527180606809 0 219.0 -0.9938527180606809 1
gene  1 3 10 4.538674271339373 0 223.0 4.538674271339373 1
gene  1 6 29 -4.093419784098947 0 259.0 -4.093419784098947 1
gene  1 29 8 2.2888916590855524 0 260.0 2.2888916590855524 1
gene  1 29 21 3.1405604097484723 0 271.0 3.1405604097484723 1
gene  1 3 21 -1.0815554595940353 0 300.0 -1.0815554595940353 1
gene  1 9 52 -3.0723030227555324 0 368.0 -3.0723030227555324 1
gene  1 52 14 0.9258013171842239 0 369.0 0.9258013171842239 1
gene  1 1 53 -3.2877534740446888 0 372.0 -3.2877534740446888 1
gene  1 53 21 -5.036548484746381 0 373.0 -5.036548484746381 1
gene  1 2 16 -4.599049032902049 0 439.0 -4.599049032902049 1
gene  1 21 79 1.0046514328685552 0 489.0 1.0046514328685552 1
gene  1 79 8 -0.3090719596399119 0 490.0 -0.3090719596399119 1
gene  1 52 10 -2.86066400788536 0 588.0 -2.86066400788536 1
genomeend 19
