genomestart  0
trait 1 0.0 0.29964541126798605 0.0 0.5917793035862625 0.0 0.5239379551513967 0.8464040429162474 0.9121227953336634 
node 1 1 1 1
node 2 1 1 1
node 3 1 1 1
node 4 1 1 1
node 5 1 1 1
node 6 1 1 1
node 7 1 1 3
node 13 1 0 2
node 14 1 0 2
node 19 1 0 0
node 33 1 0 0
node 41 1 0 0
node 45 1 0 0
gene  1 1 13 2.0975125186775667 0 168.0 2.0975125186775667 1
gene  1 3 13 5.368529274427459 0 170.0 5.368529274427459 1
gene  1 5 13 -8.570683074667286 0 172.0 -8.570683074667286 1
gene  1 6 13 5.255496809993167 0 173.0 5.255496809993167 1
gene  1 14 13 -1.6456172323798637 1 181.0 -1.6456172323798637 1
gene  1 1 14 -2.6145103349724357 0 182.0 -2.6145103349724357 1
gene  1 2 14 5.86982368204103 0 183.0 5.86982368204103 1
gene  1 4 14 -1.897653762996105 0 185.0 -1.897653762996105 1
gene  1 5 14 -4.83676125861441 0 186.0 -4.83676125861441 1
gene  1 6 14 6.01632485742428 0 187.0 6.01632485742428 1
gene  1 7 14 2.1025435999925066 0 188.0 2.1025435999925066 1
gene  1 13 14 -2.088570714270665 0 194.0 -2.088570714270665 1
gene  1 14 14 -8.252940361676814 1 195.0 -8.252940361676814 1
gene  1 5 19 5.047170155781302 0 213.0 5.047170155781302 1
gene  1 19 13 9.084861339476284 0 214.0 9.084861339476284 1
gene  1 2 13 -0.3554908050921126 0 243.0 -0.3554908050921126 1
gene  1 6 19 -12.53517941529215 0 257.0 -12.53517941529215 1
gene  1 19 14 -0.3173943976872497 0 267.0 -0.3173943976872497 1
gene  1 14 33 5.735292006313955 1 268.0 5.735292006313955 1
gene  1 33 14 -5.980322294469223 0 269.0 -5.980322294469223 1
gene  1 4 13 3.5388952583509035 0 292.0 3.5388952583509035 1
gene  1 14 41 -1.934501277730028 1 315.0 -1.934501277730028 1
gene  1 41 13 0.33906598081315686 0 316.0 0.33906598081315686 1
gene  1 5 45 2.158486213558784 0 338.0 2.158486213558784 1
gene  1 45 14 -1.8428258095089858 0 339.0 -1.8428258095089858 1
genomeend 0
genomestart  1
trait 1 0.0 0.29964541126798605 0.0 0.5917793035862625 0.0 0.5239379551513967 0.8464040429162474 0.9121227953336634 
node 1 1 1 1
node 2 1 1 1
node 3 1 1 1
node 4 1 1 1
node 5 1 1 1
node 6 1 1 1
node 7 1 1 3
node 13 1 0 2
node 14 1 0 2
node 19 1 0 0
node 33 1 0 0
node 41 1 0 0
node 45 1 0 0
gene  1 1 13 3.2735755573064322 0 168.0 3.2735755573064322 1
gene  1 3 13 3.8455592919750936 0 170.0 3.8455592919750936 1
gene  1 5 13 -7.238290346936017 0 172.0 -7.238290346936017 1
gene  1 6 13 6.31141412023433 0 173.0 6.31141412023433 1
gene  1 14 13 -0.7881475252627812 1 181.0 -0.7881475252627812 1
gene  1 1 14 -4.592130449728291 0 182.0 -4.592130449728291 1
gene  1 2 14 1.6278353272234503 0 183.0 1.6278353272234503 1
gene  1 4 14 -1.299901490284212 0 185.0 -1.299901490284212 1
gene  1 5 14 -8.8179827055942 0 186.0 -8.8179827055942 1
gene  1 6 14 5.141411287661823 0 187.0 5.141411287661823 1
gene  1 7 14 1.5087558136599437 0 188.0 1.5087558136599437 1
gene  1 13 14 -1.268118334012627 0 194.0 -1.268118334012627 1
gene  1 14 14 -3.9082939242372463 1 195.0 -3.9082939242372463 1
gene  1 5 19 6.274474332562377 0 213.0 6.274474332562377 1
gene  1 19 13 9.00811856761136 0 214.0 9.00811856761136 1
gene  1 2 13 2.7202042523451317 0 243.0 2.7202042523451317 1
gene  1 6 19 -11.685249069566263 0 257.0 -11.685249069566263 1
gene  1 19 14 -1.8748010131807575 0 267.0 -1.8748010131807575 1
gene  1 14 33 0.8161298700764608 1 268.0 0.8161298700764608 1
gene  1 33 14 -3.0192044590086953 0 269.0 -3.0192044590086953 1
gene  1 4 13 1.1817564040532438 0 292.0 1.1817564040532438 1
gene  1 14 41 -0.49876014428450827 1 315.0 -0.49876014428450827 1
gene  1 41 13 0.8244112916639296 0 316.0 0.8244112916639296 1
gene  1 5 45 -0.41389407138675205 0 338.0 -0.41389407138675205 1
gene  1 45 14 -3.2681354017728874 0 339.0 -3.2681354017728874 1
genomeend 1
genomestart  2
trait 1 0.923919939663707 0.3939242450473083 1.814993674286454 0.10887551862234701 1.0577508098755246 1.0290111265680415 0.6887198692276033 1.0137132597089906 
node 1 1 1 1
node 2 1 1 1
node 3 1 1 1
node 4 1 1 1
node 5 1 1 1
node 6 1 1 1
node 7 1 1 3
node 13 1 0 2
node 14 1 0 2
node 24 1 0 0
node 36 1 0 0
gene  1 2 13 3.329531641692168 0 169.0 3.329531641692168 1
gene  1 3 13 1.8175830271648352 0 170.0 1.8175830271648352 1
gene  1 4 13 8.489879376457484 0 171.0 8.489879376457484 1
gene  1 6 13 2.07343390009964 0 173.0 2.07343390009964 1
gene  1 7 13 -4.683110174495591 0 174.0 -4.683110174495591 1
gene  1 13 13 3.2144226440708987 1 180.0 3.2144226440708987 1
gene  1 1 14 2.3930856035828327 0 182.0 2.3930856035828327 1
gene  1 2 14 -0.3626409450966128 0 183.0 -0.3626409450966128 1
gene  1 5 14 2.6352435151829368 0 186.0 2.6352435151829368 1
gene  1 6 14 5.207101452809032 0 187.0 5.207101452809032 1
gene  1 7 14 -0.890628237780908 0 188.0 -0.890628237780908 1
gene  1 13 14 1.341858960529449 0 194.0 1.341858960529449 1
gene  1 14 14 -1.0380964629441962 1 195.0 -1.0380964629441962 1
gene  1 2 24 -0.25204944133742213 0 226.0 -0.25204944133742213 1
gene  1 24 13 1.6745809410929693 0 227.0 1.6745809410929693 1
gene  1 7 24 1.6592882509724305 0 245.0 1.6592882509724305 1
gene  1 1 24 0.8137631163128423 0 249.0 0.8137631163128423 1
gene  1 4 14 -1.644092513493382 0 280.0 -1.644092513493382 1
gene  1 4 36 -12.52149043964044 0 293.0 -12.52149043964044 1
gene  1 36 14 1.4501226633716404 0 294.0 1.4501226633716404 1
gene  1 7 36 3.0905985829515554 0 301.0 3.0905985829515554 1
gene  1 3 36 1.5794117563845744 0 313.0 1.5794117563845744 1
gene  1 24 36 -2.651583893410678 0 345.0 -2.651583893410678 1
gene  1 5 13 0.8537600496068832 0 374.0 0.8537600496068832 1
genomeend 2
genomestart  3
trait 1 0.923919939663707 0.3939242450473083 1.814993674286454 0.10887551862234701 1.0577508098755246 1.0290111265680415 0.6887198692276033 1.0137132597089906 
node 1 1 1 1
node 2 1 1 1
node 3 1 1 1
node 4 1 1 1
node 5 1 1 1
node 6 1 1 1
node 7 1 1 3
node 13 1 0 2
node 14 1 0 2
node 24 1 0 0
node 36 1 0 0
gene  1 2 13 5.650186884094346 0 169.0 5.650186884094346 1
gene  1 3 13 3.997918536414098 0 170.0 3.997918536414098 1
gene  1 4 13 9.656248562819806 0 171.0 9.656248562819806 1
gene  1 6 13 3.764511694816631 0 173.0 3.764511694816631 1
gene  1 7 13 -0.8122612180242852 0 174.0 -0.8122612180242852 1
gene  1 13 13 4.985531509692689 1 180.0 4.985531509692689 1
gene  1 1 14 3.159778910997821 0 182.0 3.159778910997821 1
gene  1 2 14 -0.7995886898202903 0 183.0 -0.7995886898202903 1
gene  1 5 14 -2.302430123008668 0 186.0 -2.302430123008668 1
gene  1 6 14 5.207101452809032 0 187.0 5.207101452809032 1
gene  1 7 14 -0.2937434461868822 0 188.0 -0.2937434461868822 1
gene  1 13 14 1.2128575902353202 0 194.0 1.2128575902353202 1
gene  1 14 14 -0.28230270634221594 1 195.0 -0.28230270634221594 1
gene  1 2 24 0.7949021102966844 0 226.0 0.7949021102966844 1
gene  1 24 13 -2.192096967019932 0 227.0 -2.192096967019932 1
gene  1 7 24 1.1867067111175567 0 245.0 1.1867067111175567 1
gene  1 1 24 1.7839313051974184 0 249.0 1.7839313051974184 1
gene  1 4 14 -1.669941553570297 0 280.0 -1.669941553570297 1
gene  1 4 36 -11.356432088934213 0 293.0 -11.356432088934213 1
gene  1 36 14 1.6746120465919425 0 294.0 1.6746120465919425 1
gene  1 7 36 4.526693681067329 0 301.0 4.526693681067329 1
gene  1 3 36 -1.79882422505931 0 313.0 -1.79882422505931 1
gene  1 24 36 -1.5046643570809 0 345.0 -1.5046643570809 1
gene  1 5 13 1.7969571584643762 0 374.0 1.7969571584643762 1
genomeend 3
genomestart  4
trait 1 0.5881716647646825 1.1670994370229146 1.7222968700001862 0.0 0.0 0.848052698667654 1.03226273292552 0.32776473700175157 
node 1 1 1 1
node 2 1 1 1
node 3 1 1 1
node 4 1 1 1
node 5 1 1 1
node 6 1 1 1
node 7 1 1 3
node 8 1 0 0
node 9 1 0 0
node 10 1 0 0
node 11 1 0 0
node 13 1 0 2
node 14 1 0 2
node 62 1 0 0
gene  1 2 8 2.4027487370246643 0 99.0 2.4027487370246643 1
gene  1 6 8 2.890164995633555 0 103.0 2.890164995633555 1
gene  1 8 8 0.14305467485384776 1 105.0 0.14305467485384776 1
gene  1 9 8 -0.8118556870548037 1 106.0 -0.8118556870548037 1
gene  1 10 8 0.3229260814592805 1 107.0 0.3229260814592805 1
gene  1 11 8 -0.985755145898632 1 108.0 -0.985755145898632 1
gene  1 13 8 -1.5650452777500357 1 110.0 -1.5650452777500357 1
gene  1 14 8 3.1135575281709027 1 111.0 3.1135575281709027 1
gene  1 1 9 1.9574051049720518 0 112.0 1.9574051049720518 1
gene  1 2 9 1.2328833033054316 0 113.0 1.2328833033054316 1
gene  1 3 9 0.0856878755289125 0 114.0 0.0856878755289125 0
gene  1 6 9 -4.5716881382552375 0 117.0 -4.5716881382552375 1
gene  1 7 9 3.628863369429518 0 118.0 3.628863369429518 1
gene  1 8 9 4.097221238715593 0 119.0 4.097221238715593 1
gene  1 9 9 -6.874129389833206 1 120.0 -6.874129389833206 1
gene  1 11 9 1.9993461542144642 1 122.0 1.9993461542144642 1
gene  1 13 9 0.41854810880577387 1 124.0 0.41854810880577387 1
gene  1 14 9 -5.202433972080258 1 125.0 -5.202433972080258 1
gene  1 1 10 -6.093014912999846 0 126.0 -6.093014912999846 1
gene  1 3 10 0.9875109169328993 0 128.0 0.9875109169328993 1
gene  1 4 10 4.614313540675039 0 129.0 4.614313540675039 1
gene  1 5 10 -2.3660035142516787 0 130.0 -2.3660035142516787 1
gene  1 6 10 0.7649183886886894 0 131.0 0.7649183886886894 1
gene  1 10 10 1.9770206773559134 1 135.0 1.9770206773559134 1
gene  1 11 10 -1.9350846448663028 1 136.0 -1.9350846448663028 1
gene  1 14 10 -2.2691870252937862 1 139.0 -2.2691870252937862 1
gene  1 1 11 1.442239873097893 0 140.0 1.442239873097893 1
gene  1 3 11 -3.5367332923494548 0 142.0 -3.5367332923494548 1
gene  1 5 11 -1.0333677325928947 0 144.0 -1.0333677325928947 1
gene  1 6 11 -6.4420543073020795 0 145.0 -6.4420543073020795 1
gene  1 7 11 1.4970261803309297 0 146.0 1.4970261803309297 1
gene  1 8 11 1.8320645195576866 0 147.0 1.8320645195576866 1
gene  1 9 11 -5.419804804267326 0 148.0 -5.419804804267326 1
gene  1 10 11 -1.4335388000657534 0 149.0 -1.4335388000657534 1
gene  1 11 11 1.1897759836904285 1 150.0 1.1897759836904285 1
gene  1 1 13 -1.1031922724003622 0 168.0 -1.1031922724003622 1
gene  1 2 13 -7.7216229974686295 0 169.0 -7.7216229974686295 1
gene  1 3 13 0.3966646192528728 0 170.0 0.3966646192528728 1
gene  1 7 13 1.9276194847577537 0 174.0 1.9276194847577537 1
gene  1 11 13 3.900198517553456 0 178.0 3.900198517553456 1
gene  1 13 13 4.329181363766944 1 180.0 4.329181363766944 1
gene  1 2 14 2.449387491620188 0 183.0 2.449387491620188 1
gene  1 3 14 -7.957851058666243 0 184.0 -7.957851058666243 1
gene  1 4 14 -2.618978435098349 0 185.0 -2.618978435098349 1
gene  1 7 14 1.1084678090701385 0 188.0 1.1084678090701385 1
gene  1 8 14 -1.6025667367760295 0 189.0 -1.6025667367760295 1
gene  1 10 14 -0.35069291546566655 0 191.0 -0.35069291546566655 1
gene  1 13 14 -4.450164907993838 0 194.0 -4.450164907993838 1
gene  1 5 13 0.3645969522915873 0 198.0 0.3645969522915873 1
gene  1 4 9 -0.6851843599301801 0 200.0 -0.6851843599301801 1
gene  1 8 13 -0.9989208152768653 0 248.0 -0.9989208152768653 1
gene  1 7 10 -2.723065014792645 0 270.0 -2.723065014792645 1
gene  1 9 10 -2.521875326300961 0 274.0 -2.521875326300961 1
gene  1 9 13 0.9092480423620855 0 288.0 0.9092480423620855 1
gene  1 5 14 1.4927905334558411 0 328.0 1.4927905334558411 1
gene  1 2 10 -1.7928127793339175 0 357.0 -1.7928127793339175 1
gene  1 6 14 1.407447143091434 0 388.0 1.407447143091434 1
gene  1 3 62 1.1643590350892246 0 411.0 1.1643590350892246 1
gene  1 62 9 -2.3039437977916433 0 412.0 -2.3039437977916433 1
gene  1 5 8 1.55064318117214 0 414.0 1.55064318117214 1
genomeend 4
genomestart  5
trait 1 0.5881716647646825 1.1670994370229146 1.8564835101802153 0.00908753191703493 0.0 0.848052698667654 1.6423806715703035 0.0 
node 1 1 1 1
node 2 1 1 1
node 3 1 1 1
node 4 1 1 1
node 5 1 1 1
node 6 1 1 1
node 7 1 1 3
node 8 1 0 0
node 9 1 0 0
node 10 1 0 0
node 11 1 0 0
node 13 1 0 2
node 14 1 0 2
node 62 1 0 0
gene  1 2 8 0.02584464973549916 0 99.0 0.02584464973549916 1
gene  1 6 8 1.4781656043740101 0 103.0 1.4781656043740101 1
gene  1 8 8 -0.48137075309981525 1 105.0 -0.48137075309981525 1
gene  1 9 8 -0.15260266832992508 1 106.0 -0.15260266832992508 1
gene  1 10 8 -2.073085008779056 1 107.0 -2.073085008779056 1
gene  1 11 8 0.14251666860459222 1 108.0 0.14251666860459222 1
gene  1 13 8 2.525722291879841 1 110.0 2.525722291879841 1
gene  1 14 8 -2.037142296250502 1 111.0 -2.037142296250502 1
gene  1 1 9 0.07068630797270686 0 112.0 0.07068630797270686 1
gene  1 2 9 1.2961467600035914 0 113.0 1.2961467600035914 1
gene  1 3 9 0.7589911080246303 0 114.0 0.7589911080246303 0
gene  1 6 9 -4.1930274724102325 0 117.0 -4.1930274724102325 1
gene  1 7 9 3.792602747615387 0 118.0 3.792602747615387 1
gene  1 8 9 -0.8210622103096357 0 119.0 -0.8210622103096357 1
gene  1 9 9 2.211828565022063 1 120.0 2.211828565022063 1
gene  1 11 9 2.92104840078797 1 122.0 2.92104840078797 1
gene  1 13 9 1.7271491756039918 1 124.0 1.7271491756039918 1
gene  1 14 9 -0.7098829268611495 1 125.0 -0.7098829268611495 1
gene  1 1 10 -6.6327459422630906 0 126.0 -6.6327459422630906 1
gene  1 3 10 -0.7881776038059876 0 128.0 -0.7881776038059876 1
gene  1 4 10 3.5748445688761192 0 129.0 3.5748445688761192 1
gene  1 5 10 -3.6866616122471516 0 130.0 -3.6866616122471516 1
gene  1 6 10 2.352580424491592 0 131.0 2.352580424491592 1
gene  1 10 10 -0.30314870537427985 1 135.0 -0.30314870537427985 1
gene  1 11 10 8.096393580115125 1 136.0 8.096393580115125 1
gene  1 14 10 -1.8751603046303142 1 139.0 -1.8751603046303142 1
gene  1 1 11 -0.4634113041276522 0 140.0 -0.4634113041276522 1
gene  1 3 11 -2.4776527325919337 0 142.0 -2.4776527325919337 1
gene  1 5 11 -2.03680929127841 0 144.0 -2.03680929127841 1
gene  1 6 11 -2.1613430708832655 0 145.0 -2.1613430708832655 1
gene  1 7 11 -0.37750432403242495 0 146.0 -0.37750432403242495 1
gene  1 8 11 -1.5332682533447923 0 147.0 -1.5332682533447923 1
gene  1 9 11 -7.090499250742816 0 148.0 -7.090499250742816 1
gene  1 10 11 -4.63747682247841 0 149.0 -4.63747682247841 1
gene  1 11 11 -0.7407482269303276 1 150.0 -0.7407482269303276 1
gene  1 1 13 -3.3771784259026694 0 168.0 -3.3771784259026694 1
gene  1 2 13 -5.625750960273583 0 169.0 -5.625750960273583 1
gene  1 3 13 -0.7254204010982429 0 170.0 -0.7254204010982429 1
gene  1 7 13 3.3924507827408474 0 174.0 3.3924507827408474 1
gene  1 11 13 2.932858083696847 0 178.0 2.932858083696847 1
gene  1 13 13 1.4546919939817256 1 180.0 1.4546919939817256 1
gene  1 2 14 1.5945099106481437 0 183.0 1.5945099106481437 1
gene  1 3 14 -4.754870237816938 0 184.0 -4.754870237816938 1
gene  1 4 14 -2.8744366631511946 0 185.0 -2.8744366631511946 1
gene  1 7 14 1.9099575458037283 0 188.0 1.9099575458037283 1
gene  1 8 14 -2.5441549623849173 0 189.0 -2.5441549623849173 1
gene  1 10 14 1.6708977741587163 0 191.0 1.6708977741587163 1
gene  1 13 14 -2.7885439779907966 0 194.0 -2.7885439779907966 1
gene  1 5 13 0.06757199475738718 0 198.0 0.06757199475738718 1
gene  1 4 9 0.014271340674517685 0 200.0 0.014271340674517685 1
gene  1 8 13 -1.8867146101591148 0 248.0 -1.8867146101591148 1
gene  1 7 10 -4.84779899366935 0 270.0 -4.84779899366935 1
gene  1 9 10 -2.1063981692400398 0 274.0 -2.1063981692400398 1
gene  1 9 13 0.13361706122526523 0 288.0 0.13361706122526523 1
gene  1 5 14 1.027925619819333 0 328.0 1.027925619819333 1
gene  1 2 10 -1.7928127793339175 0 357.0 -1.7928127793339175 1
gene  1 6 14 -1.2283828162091366 0 388.0 -1.2283828162091366 1
gene  1 3 62 2.454111560239676 0 411.0 2.454111560239676 1
gene  1 62 9 -1.6279971526240873 0 412.0 -1.6279971526240873 1
gene  1 5 8 2.397368621072553 0 414.0 2.397368621072553 1
genomeend 5
genomestart  6
trait 1 1.0413842760921321 0.9365906229773271 0.0 0.0 1.7799059348361965 1.2636555841906816 0.0 0.21732163222648737 
node 1 1 1 1
node 2 1 1 1
node 3 1 1 1
node 4 1 1 1
node 5 1 1 1
node 6 1 1 1
node 7 1 1 3
node 8 1 0 0
node 13 1 0 2
node 14 1 0 2
node 16 1 0 0
node 20 1 0 0
node 50 1 0 0
node 55 1 0 0
gene  1 1 8 -4.697667127802832 0 98.0 -4.697667127802832 1
gene  1 2 8 1.264646107355809 0 99.0 1.264646107355809 1
gene  1 3 8 0.27297612323777476 0 100.0 0.27297612323777476 1
gene  1 4 8 -6.132122925051993 0 101.0 -6.132122925051993 1
gene  1 5 8 6.726264517597097 0 102.0 6.726264517597097 1
gene  1 6 8 -6.414588495390837 0 103.0 -6.414588495390837 1
gene  1 8 8 -1.6928536529325555 1 105.0 -1.6928536529325555 1
gene  1 13 8 -0.22350704026076373 1 110.0 -0.22350704026076373 1
gene  1 14 8 -0.6868432058671116 1 111.0 -0.6868432058671116 1
gene  1 3 13 -6.826662637038286 0 170.0 -6.826662637038286 1
gene  1 5 13 -1.6644989647387065 0 172.0 -1.6644989647387065 1
gene  1 7 13 -0.8670610504512137 0 174.0 -0.8670610504512137 1
gene  1 13 13 1.1752653668955622 1 180.0 1.1752653668955622 1
gene  1 2 14 -2.4602912947292026 0 183.0 -2.4602912947292026 1
gene  1 4 14 -6.142310141376721 0 185.0 -6.142310141376721 1
gene  1 6 14 0.6578735375313052 0 187.0 0.6578735375313052 1
gene  1 8 14 0.08638741114763904 0 189.0 0.08638741114763904 1
gene  1 13 14 -11.116583724886933 0 194.0 -11.116583724886933 1
gene  1 13 16 4.0488184258715805 0 201.0 4.0488184258715805 1
gene  1 16 14 6.436310172762372 0 202.0 6.436310172762372 1
gene  1 3 20 -4.191458207082231 0 215.0 -4.191458207082231 1
gene  1 20 8 -2.0328741233854233 0 216.0 -2.0328741233854233 1
gene  1 8 13 2.1893654425698443 0 233.0 2.1893654425698443 1
gene  1 2 16 -0.8675609209891786 0 324.0 -0.8675609209891786 1
gene  1 2 20 -7.236599763045017 0 333.0 -7.236599763045017 1
gene  1 7 8 -4.402052310982193 0 352.0 -4.402052310982193 1
gene  1 16 50 -2.1992956539310233 0 364.0 -2.1992956539310233 1
gene  1 50 14 -1.2308629546855805 0 365.0 -1.2308629546855805 1
gene  1 3 55 -2.924549845687592 0 379.0 -2.924549845687592 1
gene  1 55 20 -3.719188752477486 0 380.0 -3.719188752477486 1
genomeend 6
genomestart  7
trait 1 1.0413842760921321 0.9365906229773271 0.0 0.0 1.7799059348361965 1.2636555841906816 0.0 0.21732163222648737 
node 1 1 1 1
node 2 1 1 1
node 3 1 1 1
node 4 1 1 1
node 5 1 1 1
node 6 1 1 1
node 7 1 1 3
node 8 1 0 0
node 13 1 0 2
node 14 1 0 2
node 16 1 0 0
node 20 1 0 0
node 50 1 0 0
node 55 1 0 0
gene  1 1 8 -2.317544616351877 0 98.0 -2.317544616351877 1
gene  1 2 8 -0.35708430665203106 0 99.0 -0.35708430665203106 1
gene  1 3 8 1.8288028590999743 0 100.0 1.8288028590999743 1
gene  1 4 8 -5.906002435525975 0 101.0 -5.906002435525975 1
gene  1 5 8 3.182069002523677 0 102.0 3.182069002523677 1
gene  1 6 8 -10.912386400615553 0 103.0 -10.912386400615553 1
gene  1 8 8 -2.3847242803714046 1 105.0 -2.3847242803714046 1
gene  1 13 8 2.7997221125142255 1 110.0 2.7997221125142255 1
gene  1 14 8 -0.9454096514695962 1 111.0 -0.9454096514695962 1
gene  1 3 13 -8.182918348441527 0 170.0 -8.182918348441527 1
gene  1 5 13 -0.04815783774342053 0 172.0 -0.04815783774342053 1
gene  1 7 13 -0.8123162418132361 0 174.0 -0.8123162418132361 1
gene  1 13 13 3.7611155868097708 1 180.0 3.7611155868097708 1
gene  1 2 14 -0.09598473089832016 0 183.0 -0.09598473089832016 1
gene  1 4 14 -5.431229126120112 0 185.0 -5.431229126120112 1
gene  1 6 14 -1.3223311333599421 0 187.0 -1.3223311333599421 1
gene  1 8 14 -0.4594938386351459 0 189.0 -0.4594938386351459 1
gene  1 13 14 -11.06396345310485 0 194.0 -11.06396345310485 1
gene  1 13 16 7.295227678863987 0 201.0 7.295227678863987 1
gene  1 16 14 2.2345126851325885 0 202.0 2.2345126851325885 1
gene  1 3 20 -5.619298056203631 0 215.0 -5.619298056203631 1
gene  1 20 8 -3.5147833057935247 0 216.0 -3.5147833057935247 1
gene  1 8 13 -1.5009440868759834 0 233.0 -1.5009440868759834 1
gene  1 2 16 2.0218241615066477 0 324.0 2.0218241615066477 1
gene  1 2 20 -7.710053266735389 0 333.0 -7.710053266735389 1
gene  1 7 8 -3.730473223722059 0 352.0 -3.730473223722059 1
gene  1 16 50 -1.5830195884682858 0 364.0 -1.5830195884682858 1
gene  1 50 14 -2.0097387259077872 0 365.0 -2.0097387259077872 1
gene  1 3 55 -0.8236392294110977 0 379.0 -0.8236392294110977 1
gene  1 55 20 -3.74914089346784 0 380.0 -3.74914089346784 1
genomeend 7
genomestart  8
trait 1 1.0413842760921321 0.9365906229773271 0.0 0.0 1.7799059348361965 1.2636555841906816 0.0 0.21732163222648737 
node 1 1 1 1
node 2 1 1 1
node 3 1 1 1
node 4 1 1 1
node 5 1 1 1
node 6 1 1 1
node 7 1 1 3
node 8 1 0 0
node 13 1 0 2
node 14 1 0 2
node 16 1 0 0
node 20 1 0 0
node 50 1 0 0
node 55 1 0 0
gene  1 1 8 -1.8621808549203482 0 98.0 -1.8621808549203482 1
gene  1 2 8 0.6202955481146607 0 99.0 0.6202955481146607 1
gene  1 3 8 -0.83310235849581 0 100.0 -0.83310235849581 1
gene  1 4 8 -0.5230770450412553 0 101.0 -0.5230770450412553 1
gene  1 5 8 4.9730249699414255 0 102.0 4.9730249699414255 1
gene  1 6 8 1.4053377259549502 0 103.0 1.4053377259549502 1
gene  1 8 8 -2.6671532422944466 1 105.0 -2.6671532422944466 1
gene  1 13 8 -1.38192320217454 1 110.0 -1.38192320217454 1
gene  1 14 8 -0.9866656805777578 1 111.0 -0.9866656805777578 1
gene  1 3 13 -6.04365872634309 0 170.0 -6.04365872634309 1
gene  1 5 13 -1.4702471114058384 0 172.0 -1.4702471114058384 1
gene  1 7 13 -0.4418343857699898 0 174.0 -0.4418343857699898 1
gene  1 13 13 2.7076957862021507 1 180.0 2.7076957862021507 1
gene  1 2 14 -0.8286247341153785 0 183.0 -0.8286247341153785 1
gene  1 4 14 -1.7238807270502412 0 185.0 -1.7238807270502412 1
gene  1 6 14 1.9044664914473284 0 187.0 1.9044664914473284 1
gene  1 8 14 2.0292211053114384 0 189.0 2.0292211053114384 1
gene  1 13 14 -12.883928901307485 0 194.0 -12.883928901307485 1
gene  1 13 16 -1.6743857326808338 0 201.0 -1.6743857326808338 1
gene  1 16 14 0.1907843015784677 0 202.0 0.1907843015784677 1
gene  1 3 20 -4.557006044381178 0 215.0 -4.557006044381178 1
gene  1 20 8 -4.6537630226484525 0 216.0 -4.6537630226484525 1
gene  1 8 13 2.2718932226375905 0 233.0 2.2718932226375905 1
gene  1 2 16 -1.6652642369225807 0 324.0 -1.6652642369225807 1
gene  1 2 20 -5.001973613891551 0 333.0 -5.001973613891551 1
gene  1 7 8 -3.874173209716905 0 352.0 -3.874173209716905 1
gene  1 16 50 -0.007552953079895008 0 364.0 -0.007552953079895008 1
gene  1 50 14 0.046013849438216514 0 365.0 0.046013849438216514 1
gene  1 3 55 -0.3916265563762754 0 379.0 -0.3916265563762754 1
gene  1 55 20 -3.4925606008288037 0 380.0 -3.4925606008288037 1
genomeend 8
genomestart  9
trait 1 0.0 0.2763675853393155 0.875982788337901 0.7948206016704883 0.358711806223011 0.9714201015196656 0.0 0.6764016660929384 
node 1 1 1 1
node 2 1 1 1
node 3 1 1 1
node 4 1 1 1
node 5 1 1 1
node 6 1 1 1
node 7 1 1 3
node 8 1 0 0
node 9 1 0 0
node 10 1 0 0
node 13 1 0 2
node 14 1 0 2
node 21 1 0 0
node 29 1 0 0
node 52 1 0 0
node 53 1 0 0
gene  1 1 8 -0.6303170921322526 0 98.0 -0.6303170921322526 1
gene  1 3 8 0.025444670318791607 0 100.0 0.025444670318791607 1
gene  1 5 8 2.4046623508641636 0 102.0 2.4046623508641636 1
gene  1 6 8 -1.1541906484384055 0 103.0 -1.1541906484384055 1
gene  1 8 8 -0.04841667660697069 1 105.0 -0.04841667660697069 1
gene  1 1 9 -0.11092207855446412 0 112.0 -0.11092207855446412 1
gene  1 2 9 3.590911480297928 0 113.0 3.590911480297928 1
gene  1 3 9 -2.1433206648375465 0 114.0 -2.1433206648375465 1
gene  1 5 9 -5.417980895087926 0 116.0 -5.417980895087926 1
gene  1 7 9 1.617046349974597 0 118.0 1.617046349974597 1
gene  1 9 9 -6.6704470420353354 1 120.0 -6.6704470420353354 1
gene  1 10 9 -6.061438038215017 1 121.0 -6.061438038215017 1
gene  1 13 9 -0.3677827767683072 1 124.0 -0.3677827767683072 1
gene  1 2 10 1.4131705678323638 0 127.0 1.4131705678323638 1
gene  1 4 10 -2.8311417778115837 0 129.0 -2.8311417778115837 1
gene  1 5 10 -0.7121031264207769 0 130.0 -0.7121031264207769 1
gene  1 8 10 -5.061316079154433 0 133.0 -5.061316079154433 1
gene  1 9 10 6.060882553405379 0 134.0 6.060882553405379 1
gene  1 10 10 1.9674115420819591 1 135.0 1.9674115420819591 1
gene  1 13 10 -2.9354565731840974 1 138.0 -2.9354565731840974 1
gene  1 14 10 -0.48721755584734405 1 139.0 -0.48721755584734405 1
gene  1 2 13 6.9239697719978235 0 169.0 6.9239697719978235 1
gene  1 3 13 -1.8176923684002584 0 170.0 -1.8176923684002584 1
gene  1 6 13 -3.5365219335953118 0 173.0 -3.5365219335953118 1
gene  1 7 13 -2.3307723107194396 0 174.0 -2.3307723107194396 1
gene  1 9 13 2.8064676211286264 0 176.0 2.8064676211286264 1
gene  1 13 13 -9.326934691898987 1 180.0 -9.326934691898987 1
gene  1 14 13 0.1568335603240496 1 181.0 0.1568335603240496 1
gene  1 1 14 -5.75278277663643 0 182.0 -5.75278277663643 1
gene  1 3 14 8.076414232291258 0 184.0 8.076414232291258 1
gene  1 9 14 -9.916260564307603 0 190.0 -9.916260564307603 0
gene  1 10 14 -2.2561504049223298 0 191.0 -2.2561504049223298 1
gene  1 1 21 -1.0358652365618224 0 218.0 -1.0358652365618224 1
gene  1 21 8 4.8913326168346 0 219.0 4.8913326168346 1
gene  1 3 10 -3.143607736101652 0 223.0 -3.143607736101652 1
gene  1 6 29 -2.7077795690483635 0 259.0 -2.7077795690483635 1
gene  1 29 8 7.116488571535085 0 260.0 7.116488571535085 1
gene  1 29 21 3.8577063153169178 0 271.0 3.8577063153169178 1
gene  1 3 21 -0.6681902477141253 0 300.0 -0.6681902477141253 1
gene  1 9 52 -1.7263386832129868 0 368.0 -1.7263386832129868 1
gene  1 52 14 2.1483720750115314 0 369.0 2.1483720750115314 1
gene  1 1 53 -4.544861600962158 0 372.0 -4.544861600962158 1
gene  1 53 21 -1.066261385377627 0 373.0 -1.066261385377627 1
gene  1 2 52 -0.2002710627846363 0 425.0 -0.2002710627846363 1
genomeend 9
genomestart  10
trait 1 0.0 0.2763675853393155 0.875982788337901 0.7948206016704883 0.358711806223011 0.9714201015196656 0.0 0.6764016660929384 
node 1 1 1 1
node 2 1 1 1
node 3 1 1 1
node 4 1 1 1
node 5 1 1 1
node 6 1 1 1
node 7 1 1 3
node 8 1 0 0
node 9 1 0 0
node 10 1 0 0
node 13 1 0 2
node 14 1 0 2
node 21 1 0 0
node 29 1 0 0
node 52 1 0 0
node 53 1 0 0
gene  1 1 8 -0.8441198436424363 0 98.0 -0.8441198436424363 1
gene  1 3 8 -0.40821208392064073 0 100.0 -0.40821208392064073 1
gene  1 5 8 2.067837097391934 0 102.0 2.067837097391934 1
gene  1 6 8 -1.9821692068466903 0 103.0 -1.9821692068466903 1
gene  1 8 8 -0.9499159243225677 1 105.0 -0.9499159243225677 1
gene  1 1 9 0.47166565729962706 0 112.0 0.47166565729962706 1
gene  1 2 9 1.607579900911996 0 113.0 1.607579900911996 1
gene  1 3 9 -4.171200967671792 0 114.0 -4.171200967671792 1
gene  1 5 9 -4.251734888660415 0 116.0 -4.251734888660415 1
gene  1 7 9 3.625866320473441 0 118.0 3.625866320473441 1
gene  1 9 9 -5.224564881536979 1 120.0 -5.224564881536979 1
gene  1 10 9 -4.759924237690312 1 121.0 -4.759924237690312 1
gene  1 13 9 -1.363467518184977 1 124.0 -1.363467518184977 1
gene  1 2 10 1.1479735098163815 0 127.0 1.1479735098163815 1
gene  1 4 10 -3.78789060608855 0 129.0 -3.78789060608855 1
gene  1 5 10 -2.425672752297798 0 130.0 -2.425672752297798 1
gene  1 8 10 -5.049375908606207 0 133.0 -5.049375908606207 1
gene  1 9 10 4.7443995249826205 0 134.0 4.7443995249826205 1
gene  1 10 10 0.2135457317142661 1 135.0 0.2135457317142661 1
gene  1 13 10 -1.0668859179616481 1 138.0 -1.0668859179616481 1
gene  1 14 10 -0.1693405751855584 1 139.0 -0.1693405751855584 1
gene  1 2 13 6.150691656581715 0 169.0 6.150691656581715 1
gene  1 3 13 -1.4346569116784604 0 170.0 -1.4346569116784604 1
gene  1 6 13 -2.7837870084754592 0 173.0 -2.7837870084754592 1
gene  1 7 13 -1.28015310564324 0 174.0 -1.28015310564324 1
gene  1 9 13 1.717847041204322 0 176.0 1.717847041204322 1
gene  1 13 13 -7.672022936660154 1 180.0 -7.672022936660154 1
gene  1 14 13 0.6356488227715691 1 181.0 0.6356488227715691 1
gene  1 1 14 -3.67057560249117 0 182.0 -3.67057560249117 1
gene  1 3 14 6.115787627601829 0 184.0 6.115787627601829 1
gene  1 9 14 -9.01192783535654 0 190.0 -9.01192783535654 0
gene  1 10 14 -1.375609442671693 0 191.0 -1.375609442671693 1
gene  1 1 21 -1.4536763036801443 0 218.0 -1.4536763036801443 1
gene  1 21 8 7.038239555954476 0 219.0 7.038239555954476 1
gene  1 3 10 -3.8284649676787383 0 223.0 -3.8284649676787383 1
gene  1 6 29 -4.029190701389616 0 259.0 -4.029190701389616 1
gene  1 29 8 7.116488571535085 0 260.0 7.116488571535085 1
gene  1 29 21 5.42710692052839 0 271.0 5.42710692052839 1
gene  1 3 21 -0.6681902477141253 0 300.0 -0.6681902477141253 1
gene  1 9 52 -1.7263386832129868 0 368.0 -1.7263386832129868 1
gene  1 52 14 0.7958967546755094 0 369.0 0.7958967546755094 1
gene  1 1 53 -4.544861600962158 0 372.0 -4.544861600962158 1
gene  1 53 21 3.651192177842195 0 373.0 3.651192177842195 1
gene  1 2 52 -0.2002710627846363 0 425.0 -0.2002710627846363 1
gene  1 13 21 0.8380493999983851 0 428.0 0.8380493999983851 1
genomeend 10
genomestart  11
trait 1 1.2278199519511421 0.8431431947056619 0.4185672944766822 0.24340368269336865 0.3977567512441774 1.7239330509845825 0.9233259469650144 0.0 
node 1 1 1 1
node 2 1 1 1
node 3 1 1 1
node 4 1 1 1
node 5 1 1 1
node 6 1 1 1
node 7 1 1 3
node 13 1 0 2
node 14 1 0 2
node 42 1 0 0
node 61 1 0 0
gene  1 1 13 0.5019036644936161 0 168.0 0.5019036644936161 1
gene  1 2 13 -3.7982425842491043 0 169.0 -3.7982425842491043 1
gene  1 3 13 -1.9002383154409301 0 170.0 -1.9002383154409301 1
gene  1 4 13 -0.9227330297659001 0 171.0 -0.9227330297659001 1
gene  1 5 13 -1.7454706730191527 0 172.0 -1.7454706730191527 0
gene  1 6 13 12.472156737679908 0 173.0 12.472156737679908 1
gene  1 7 13 6.1415502171124 0 174.0 6.1415502171124 1
gene  1 14 13 1.0864064909745128 1 181.0 1.0864064909745128 1
gene  1 1 14 1.8955570100296921 0 182.0 1.8955570100296921 1
gene  1 2 14 -3.914535780039334 0 183.0 -3.914535780039334 1
gene  1 3 14 1.4443321331021437 0 184.0 1.4443321331021437 1
gene  1 13 14 -3.6841205509408512 0 194.0 -3.6841205509408512 1
gene  1 14 14 -4.496897737362403 1 195.0 -4.496897737362403 1
gene  1 6 14 0.9027481606593382 0 230.0 0.9027481606593382 1
gene  1 4 14 -0.19718412281614106 0 312.0 -0.19718412281614106 1
gene  1 2 42 2.6954815943239088 0 320.0 2.6954815943239088 1
gene  1 42 13 -5.669734934638584 0 321.0 -5.669734934638584 1
gene  1 6 42 0.711726976522241 0 349.0 0.711726976522241 1
gene  1 7 14 9.033104192381996 0 353.0 9.033104192381996 1
gene  1 7 42 -1.0737348853158415 0 395.0 -1.0737348853158415 1
gene  1 5 61 -3.8857539000051275 0 408.0 -3.8857539000051275 1
gene  1 61 13 -0.44372332957809557 0 409.0 -0.44372332957809557 1
gene  1 5 42 1.744698361430426 0 426.0 1.744698361430426 1
genomeend 11
genomestart  12
trait 1 1.2278199519511421 0.8431431947056619 0.4185672944766822 0.24340368269336865 0.3977567512441774 1.7239330509845825 0.9233259469650144 0.0 
node 1 1 1 1
node 2 1 1 1
node 3 1 1 1
node 4 1 1 1
node 5 1 1 1
node 6 1 1 1
node 7 1 1 3
node 13 1 0 2
node 14 1 0 2
node 42 1 0 0
node 61 1 0 0
gene  1 1 13 -0.3294626783494461 0 168.0 -0.3294626783494461 1
gene  1 2 13 -1.0384200794758665 0 169.0 -1.0384200794758665 1
gene  1 3 13 2.539424386251756 0 170.0 2.539424386251756 1
gene  1 4 13 -3.2751413258195674 0 171.0 -3.2751413258195674 1
gene  1 5 13 0.3677977774416602 0 172.0 0.3677977774416602 0
gene  1 6 13 8.64397467968984 0 173.0 8.64397467968984 1
gene  1 7 13 6.808754479455426 0 174.0 6.808754479455426 1
gene  1 14 13 3.7502911034749826 1 181.0 3.7502911034749826 1
gene  1 1 14 1.096032304183039 0 182.0 1.096032304183039 1
gene  1 2 14 -4.348181690595716 0 183.0 -4.348181690595716 1
gene  1 3 14 1.0686706664757835 0 184.0 1.0686706664757835 1
gene  1 13 14 -1.7662954211998316 0 194.0 -1.7662954211998316 1
gene  1 14 14 -5.307431969057452 1 195.0 -5.307431969057452 1
gene  1 6 14 -0.19021577868240602 0 230.0 -0.19021577868240602 1
gene  1 4 14 2.9651001372888057 0 312.0 2.9651001372888057 1
gene  1 2 42 2.074962931790879 0 320.0 2.074962931790879 1
gene  1 42 13 -4.914684685680767 0 321.0 -4.914684685680767 1
gene  1 6 42 -0.6666431711255617 0 349.0 -0.6666431711255617 1
gene  1 7 14 9.941795792037116 0 353.0 9.941795792037116 1
gene  1 7 42 -0.7943335339467668 0 395.0 -0.7943335339467668 1
gene  1 5 61 -3.286089504681454 0 408.0 -3.286089504681454 1
gene  1 61 13 -1.761031040243532 0 409.0 -1.761031040243532 1
gene  1 5 42 -0.005617824555439299 0 426.0 -0.005617824555439299 1
genomeend 12
genomestart  13
trait 1 0.4052735378133179 0.3434669452255633 0.6134710218904108 0.03889581307332757 0.0 0.34443587063922654 0.676045690880051 0.7626488466698699 
node 1 1 1 1
node 2 1 1 1
node 3 1 1 1
node 4 1 1 1
node 5 1 1 1
node 6 1 1 1
node 7 1 1 3
node 8 1 0 0
node 13 1 0 2
node 14 1 0 2
node 49 1 0 0
node 59 1 0 0
gene  1 4 8 -5.284360852968074 0 101.0 -5.284360852968074 1
gene  1 5 8 -5.489890620647509 0 102.0 -5.489890620647509 1
gene  1 6 8 -8.12990315228856 0 103.0 -8.12990315228856 1
gene  1 14 8 -1.9239149485801839 1 111.0 -1.9239149485801839 1
gene  1 1 13 -0.0912269187121948 0 168.0 -0.0912269187121948 1
gene  1 2 13 3.1010088327618752 0 169.0 3.1010088327618752 1
gene  1 3 13 -0.5353109243338448 0 170.0 -0.5353109243338448 1
gene  1 5 13 2.7895384526265246 0 172.0 2.7895384526265246 1
gene  1 7 13 -11.494915512793987 0 174.0 -11.494915512793987 1
gene  1 14 13 8.424585135041147 1 181.0 8.424585135041147 1
gene  1 1 14 6.142275129509362 0 182.0 6.142275129509362 1
gene  1 2 14 -0.15897500256590336 0 183.0 -0.15897500256590336 1
gene  1 3 14 0.3174843514472585 0 184.0 0.3174843514472585 1
gene  1 4 14 -0.8053698799404558 0 185.0 -0.8053698799404558 1
gene  1 8 14 -3.028827131839005 0 189.0 -3.028827131839005 1
gene  1 14 14 -4.555149728438149 1 195.0 -4.555149728438149 1
gene  1 6 14 -0.6722398526028444 0 240.0 -0.6722398526028444 1
gene  1 8 13 1.0443650687625774 0 311.0 1.0443650687625774 1
gene  1 14 13 3.4020955865756117 0 322.0 3.4020955865756117 1
gene  1 2 49 -0.42694059407337415 0 362.0 -0.42694059407337415 1
gene  1 49 14 -4.499630264637465 0 363.0 -4.499630264637465 0
gene  1 3 8 1.4443422283592924 0 393.0 1.4443422283592924 1
gene  1 49 59 2.355761851127532 0 401.0 2.355761851127532 1
gene  1 59 14 2.1325520980655863 0 402.0 2.1325520980655863 1
gene  1 2 59 4.41041962283136 0 403.0 4.41041962283136 1
gene  1 7 14 0.4668805856979734 0 424.0 0.4668805856979734 1
genomeend 13
genomestart  14
trait 1 0.4052735378133179 0.3434669452255633 0.6134710218904108 0.03889581307332757 0.0 0.34443587063922654 0.676045690880051 0.7626488466698699 
node 1 1 1 1
node 2 1 1 1
node 3 1 1 1
node 4 1 1 1
node 5 1 1 1
node 6 1 1 1
node 7 1 1 3
node 8 1 0 0
node 13 1 0 2
node 14 1 0 2
node 49 1 0 0
node 59 1 0 0
gene  1 4 8 -5.284360852968074 0 101.0 -5.284360852968074 1
gene  1 5 8 -5.489890620647509 0 102.0 -5.489890620647509 1
gene  1 6 8 -8.12990315228856 0 103.0 -8.12990315228856 1
gene  1 14 8 -1.9239149485801839 1 111.0 -1.9239149485801839 1
gene  1 1 13 -0.0912269187121948 0 168.0 -0.0912269187121948 1
gene  1 2 13 3.1010088327618752 0 169.0 3.1010088327618752 1
gene  1 3 13 -0.5353109243338448 0 170.0 -0.5353109243338448 1
gene  1 5 13 2.7895384526265246 0 172.0 2.7895384526265246 1
gene  1 7 13 -11.494915512793987 0 174.0 -11.494915512793987 1
gene  1 14 13 8.424585135041147 1 181.0 8.424585135041147 1
gene  1 1 14 6.142275129509362 0 182.0 6.142275129509362 1
gene  1 2 14 -0.15897500256590336 0 183.0 -0.15897500256590336 1
gene  1 3 14 0.3174843514472585 0 184.0 0.3174843514472585 1
gene  1 4 14 -0.8053698799404558 0 185.0 -0.8053698799404558 1
gene  1 8 14 -3.028827131839005 0 189.0 -3.028827131839005 1
gene  1 14 14 -4.555149728438149 1 195.0 -4.555149728438149 1
gene  1 6 14 -0.6722398526028444 0 240.0 -0.6722398526028444 1
gene  1 8 13 1.0443650687625774 0 311.0 1.0443650687625774 1
gene  1 14 13 3.4020955865756117 0 322.0 3.4020955865756117 1
gene  1 2 49 -0.42694059407337415 0 362.0 -0.42694059407337415 1
gene  1 49 14 -4.499630264637465 0 363.0 -4.499630264637465 0
gene  1 3 8 1.4443422283592924 0 393.0 1.4443422283592924 1
gene  1 49 59 2.355761851127532 0 401.0 2.355761851127532 1
gene  1 59 14 2.1325520980655863 0 402.0 2.1325520980655863 1
gene  1 2 59 4.41041962283136 0 403.0 4.41041962283136 1
gene  1 7 14 0.4668805856979734 0 424.0 0.4668805856979734 1
gene  1 59 13 -8.08052702062297 0 427.0 -8.08052702062297 1
genomeend 14
genomestart  15
trait 1 0.6191963994983718 1.8437409326683576 0.7816155317589891 0.49951333318806035 0.760472394127403 2.2133304098674773 0.0 0.0 
node 1 1 1 1
node 2 1 1 1
node 3 1 1 1
node 4 1 1 1
node 5 1 1 1
node 6 1 1 1
node 7 1 1 3
node 8 1 0 0
node 9 1 0 0
node 10 1 0 0
node 11 1 0 0
node 12 1 0 0
node 13 1 0 2
node 14 1 0 2
node 27 1 0 0
node 34 1 0 0
node 40 1 0 0
node 48 1 0 0
gene  1 1 8 1.2649046794357512 0 98.0 1.2649046794357512 1
gene  1 3 8 1.873890837758031 0 100.0 1.873890837758031 1
gene  1 4 8 -0.78645499932432 0 101.0 -0.78645499932432 1
gene  1 6 8 1.3349356165623434 0 103.0 1.3349356165623434 1
gene  1 8 8 1.6453065251928445 1 105.0 1.6453065251928445 1
gene  1 10 8 -6.411766498697146 1 107.0 -6.411766498697146 1
gene  1 3 9 -2.7522823571592365 0 114.0 -2.7522823571592365 1
gene  1 6 9 -3.552781669883523 0 117.0 -3.552781669883523 1
gene  1 8 9 0.31046196792896064 0 119.0 0.31046196792896064 1
gene  1 10 9 -7.595671991385695 1 121.0 -7.595671991385695 1
gene  1 11 9 -0.8494777398519637 1 122.0 -0.8494777398519637 1
gene  1 13 9 3.1749790836825293 1 124.0 3.1749790836825293 1
gene  1 14 9 -0.027435424230359273 1 125.0 -0.027435424230359273 1
gene  1 1 10 -3.611042711400678 0 126.0 -3.611042711400678 1
gene  1 3 10 13.018582650019402 0 128.0 13.018582650019402 1
gene  1 4 10 4.674999334201133 0 129.0 4.674999334201133 1
gene  1 5 10 -6.776334512079176 0 130.0 -6.776334512079176 1
gene  1 9 10 -1.962349775448166 0 134.0 -1.962349775448166 1
gene  1 13 10 -8.015396892706846 1 138.0 -8.015396892706846 1
gene  1 1 11 -0.11520414388943995 0 140.0 -0.11520414388943995 1
gene  1 3 11 -2.4347799403546047 0 142.0 -2.4347799403546047 1
gene  1 5 11 -4.343170126097191 0 144.0 -4.343170126097191 1
gene  1 9 11 -0.0028522734220635115 0 148.0 -0.0028522734220635115 1
gene  1 10 11 2.2438667683196383 0 149.0 2.2438667683196383 1
gene  1 12 11 -4.1021500204946415 1 151.0 -4.1021500204946415 1
gene  1 14 11 -7.51282496855071 1 153.0 -7.51282496855071 1
gene  1 2 12 0.34283817496287394 0 155.0 0.34283817496287394 1
gene  1 4 12 -0.8536851647441117 0 157.0 -0.8536851647441117 1
gene  1 6 12 10.921587503795287 0 159.0 10.921587503795287 1
gene  1 7 12 3.969799590030881 0 160.0 3.969799590030881 1
gene  1 9 12 -4.0975771755537895 0 162.0 -4.0975771755537895 1
gene  1 10 12 2.7505061517397027 0 163.0 2.7505061517397027 1
gene  1 12 12 2.5925449141968087 1 165.0 2.5925449141968087 1
gene  1 14 12 -0.48612476618253075 1 167.0 -0.48612476618253075 1
gene  1 1 13 4.574096183834248 0 168.0 4.574096183834248 1
gene  1 3 13 -9.782126147461167 0 170.0 -9.782126147461167 1
gene  1 4 13 0.2784827364228339 0 171.0 0.2784827364228339 1
gene  1 6 13 2.092606566638607 0 173.0 2.092606566638607 1
gene  1 8 13 3.6522497409980357 0 175.0 3.6522497409980357 1
gene  1 9 13 0.6856693533551461 0 176.0 0.6856693533551461 1
gene  1 8 14 -3.75908345027153 0 189.0 -3.75908345027153 1
gene  1 11 14 22.086905096363658 0 192.0 22.086905096363658 1
gene  1 5 8 0.5942850533130837 0 235.0 0.5942850533130837 1
gene  1 1 27 -3.57853194589254 0 241.0 -3.57853194589254 1
gene  1 27 8 -1.6925577920602841 0 242.0 -1.6925577920602841 1
gene  1 9 34 -3.331143433117817 0 272.0 -3.331143433117817 1
gene  1 34 11 0.7642736043060587 0 273.0 0.7642736043060587 1
gene  1 5 13 -0.009876845623849329 0 277.0 -0.009876845623849329 1
gene  1 12 14 -0.7783447781312212 0 296.0 -0.7783447781312212 1
gene  1 8 40 -0.21341348427694973 1 308.0 -0.21341348427694973 1
gene  1 40 8 2.00952007536603 0 309.0 2.00952007536603 1
gene  1 10 14 4.4768228993318155 0 341.0 4.4768228993318155 1
gene  1 3 48 0.014703271724824774 0 360.0 0.014703271724824774 1
gene  1 48 8 0.8970744792475 0 361.0 0.8970744792475 1
gene  1 10 13 -2.9672055986113213 0 404.0 -2.9672055986113213 1
genomeend 15
genomestart  16
trait 1 0.6191963994983718 1.8437409326683576 0.7816155317589891 0.49951333318806035 0.760472394127403 2.2133304098674773 0.0 0.0 
node 1 1 1 1
node 2 1 1 1
node 3 1 1 1
node 4 1 1 1
node 5 1 1 1
node 6 1 1 1
node 7 1 1 3
node 8 1 0 0
node 9 1 0 0
node 10 1 0 0
node 11 1 0 0
node 12 1 0 0
node 13 1 0 2
node 14 1 0 2
node 27 1 0 0
node 34 1 0 0
node 40 1 0 0
node 48 1 0 0
gene  1 1 8 2.383329939493753 0 98.0 2.383329939493753 1
gene  1 3 8 2.907435985125079 0 100.0 2.907435985125079 1
gene  1 4 8 1.188590451254837 0 101.0 1.188590451254837 1
gene  1 6 8 -0.2974896758958623 0 103.0 -0.2974896758958623 1
gene  1 8 8 0.3205832536641 1 105.0 0.3205832536641 1
gene  1 10 8 -5.031117155767461 1 107.0 -5.031117155767461 1
gene  1 3 9 -3.4516330209926673 0 114.0 -3.4516330209926673 1
gene  1 6 9 -2.07357791235387 0 117.0 -2.07357791235387 1
gene  1 8 9 -2.002617240093678 0 119.0 -2.002617240093678 1
gene  1 10 9 -6.236950035589038 1 121.0 -6.236950035589038 1
gene  1 11 9 -1.639310202660248 1 122.0 -1.639310202660248 1
gene  1 13 9 1.1967881019897901 1 124.0 1.1967881019897901 1
gene  1 14 9 -0.051302864891635824 1 125.0 -0.051302864891635824 1
gene  1 1 10 -4.206888764209585 0 126.0 -4.206888764209585 1
gene  1 3 10 11.659608738190588 0 128.0 11.659608738190588 1
gene  1 4 10 3.9293704030539427 0 129.0 3.9293704030539427 1
gene  1 5 10 -5.754604783084883 0 130.0 -5.754604783084883 1
gene  1 9 10 -2.6239536580247664 0 134.0 -2.6239536580247664 1
gene  1 13 10 -5.97697124794627 1 138.0 -5.97697124794627 1
gene  1 1 11 -0.3479417837692367 0 140.0 -0.3479417837692367 1
gene  1 3 11 -0.5316540072695697 0 142.0 -0.5316540072695697 1
gene  1 5 11 -4.056105449860303 0 144.0 -4.056105449860303 1
gene  1 9 11 -2.0539794511726215 0 148.0 -2.0539794511726215 1
gene  1 10 11 2.410182079045761 0 149.0 2.410182079045761 1
gene  1 12 11 -4.167192133331239 1 151.0 -4.167192133331239 1
gene  1 14 11 -6.795704127325955 1 153.0 -6.795704127325955 1
gene  1 2 12 -1.8332702143878752 0 155.0 -1.8332702143878752 1
gene  1 4 12 -0.3805251414647839 0 157.0 -0.3805251414647839 1
gene  1 6 12 10.223061402477947 0 159.0 10.223061402477947 1
gene  1 7 12 2.361157970380864 0 160.0 2.361157970380864 1
gene  1 9 12 -4.488699996662609 0 162.0 -4.488699996662609 1
gene  1 10 12 1.8364756299020095 0 163.0 1.8364756299020095 1
gene  1 12 12 1.4024269224099837 1 165.0 1.4024269224099837 1
gene  1 14 12 -1.921716586382692 1 167.0 -1.921716586382692 1
gene  1 1 13 4.4790227904103554 0 168.0 4.4790227904103554 1
gene  1 3 13 -8.02813086065073 0 170.0 -8.02813086065073 1
gene  1 4 13 -0.051858182782108075 0 171.0 -0.051858182782108075 1
gene  1 6 13 3.712601039571571 0 173.0 3.712601039571571 1
gene  1 8 13 3.540176245382866 0 175.0 3.540176245382866 1
gene  1 9 13 2.6622541083567306 0 176.0 2.6622541083567306 1
gene  1 8 14 -1.597070531109783 0 189.0 -1.597070531109783 1
gene  1 11 14 20.53250336753915 0 192.0 20.53250336753915 1
gene  1 5 8 -1.8376790829257053 0 235.0 -1.8376790829257053 1
gene  1 1 27 -2.5442684435562457 0 241.0 -2.5442684435562457 1
gene  1 27 8 -2.6452808622712833 0 242.0 -2.6452808622712833 1
gene  1 9 34 -2.4557990373036223 0 272.0 -2.4557990373036223 1
gene  1 34 11 0.7642736043060587 0 273.0 0.7642736043060587 1
gene  1 5 13 -0.009876845623849329 0 277.0 -0.009876845623849329 1
gene  1 12 14 -0.7783447781312212 0 296.0 -0.7783447781312212 1
gene  1 8 40 -2.3824583631252407 1 308.0 -2.3824583631252407 1
gene  1 40 8 1.0829917955676747 0 309.0 1.0829917955676747 1
gene  1 10 14 2.0930950126660632 0 341.0 2.0930950126660632 1
gene  1 3 48 0.014703271724824774 0 360.0 0.014703271724824774 1
gene  1 48 8 0.8970744792475 0 361.0 0.8970744792475 1
gene  1 10 13 -1.7011464890126828 0 404.0 -1.7011464890126828 1
gene  1 40 27 9.330163035401132 0 429.0 9.330163035401132 1
genomeend 16
genomestart  17
trait 1 0.6191963994983718 1.8437409326683576 0.7816155317589891 0.49951333318806035 0.760472394127403 2.2133304098674773 0.0 0.0 
node 1 1 1 1
node 2 1 1 1
node 3 1 1 1
node 4 1 1 1
node 5 1 1 1
node 6 1 1 1
node 7 1 1 3
node 8 1 0 0
node 9 1 0 0
node 10 1 0 0
node 11 1 0 0
node 12 1 0 0
node 13 1 0 2
node 14 1 0 2
node 27 1 0 0
node 34 1 0 0
node 40 1 0 0
node 48 1 0 0
gene  1 1 8 2.383329939493753 0 98.0 2.383329939493753 1
gene  1 3 8 2.907435985125079 0 100.0 2.907435985125079 1
gene  1 4 8 1.188590451254837 0 101.0 1.188590451254837 1
gene  1 6 8 -0.2974896758958623 0 103.0 -0.2974896758958623 1
gene  1 8 8 0.3205832536641 1 105.0 0.3205832536641 1
gene  1 10 8 -5.031117155767461 1 107.0 -5.031117155767461 1
gene  1 3 9 -3.4516330209926673 0 114.0 -3.4516330209926673 1
gene  1 6 9 -2.07357791235387 0 117.0 -2.07357791235387 1
gene  1 8 9 -2.002617240093678 0 119.0 -2.002617240093678 1
gene  1 10 9 -6.236950035589038 1 121.0 -6.236950035589038 1
gene  1 11 9 -1.639310202660248 1 122.0 -1.639310202660248 1
gene  1 13 9 1.1967881019897901 1 124.0 1.1967881019897901 1
gene  1 14 9 -0.051302864891635824 1 125.0 -0.051302864891635824 1
gene  1 1 10 -4.206888764209585 0 126.0 -4.206888764209585 1
gene  1 3 10 11.659608738190588 0 128.0 11.659608738190588 1
gene  1 4 10 3.9293704030539427 0 129.0 3.9293704030539427 1
gene  1 5 10 -5.754604783084883 0 130.0 -5.754604783084883 1
gene  1 9 10 -2.6239536580247664 0 134.0 -2.6239536580247664 1
gene  1 13 10 -5.97697124794627 1 138.0 -5.97697124794627 1
gene  1 1 11 -0.3479417837692367 0 140.0 -0.3479417837692367 1
gene  1 3 11 -0.5316540072695697 0 142.0 -0.5316540072695697 1
gene  1 5 11 -4.056105449860303 0 144.0 -4.056105449860303 1
gene  1 9 11 -2.0539794511726215 0 148.0 -2.0539794511726215 1
gene  1 10 11 2.410182079045761 0 149.0 2.410182079045761 1
gene  1 12 11 -4.167192133331239 1 151.0 -4.167192133331239 1
gene  1 14 11 -6.795704127325955 1 153.0 -6.795704127325955 1
gene  1 2 12 -1.8332702143878752 0 155.0 -1.8332702143878752 1
gene  1 4 12 -0.3805251414647839 0 157.0 -0.3805251414647839 1
gene  1 6 12 10.223061402477947 0 159.0 10.223061402477947 1
gene  1 7 12 2.361157970380864 0 160.0 2.361157970380864 1
gene  1 9 12 -4.488699996662609 0 162.0 -4.488699996662609 1
gene  1 10 12 1.8364756299020095 0 163.0 1.8364756299020095 1
gene  1 12 12 1.4024269224099837 1 165.0 1.4024269224099837 1
gene  1 14 12 -1.921716586382692 1 167.0 -1.921716586382692 1
gene  1 1 13 4.4790227904103554 0 168.0 4.4790227904103554 1
gene  1 3 13 -8.02813086065073 0 170.0 -8.02813086065073 1
gene  1 4 13 -0.051858182782108075 0 171.0 -0.051858182782108075 1
gene  1 6 13 3.712601039571571 0 173.0 3.712601039571571 1
gene  1 8 13 3.540176245382866 0 175.0 3.540176245382866 1
gene  1 9 13 2.6622541083567306 0 176.0 2.6622541083567306 1
gene  1 8 14 -1.597070531109783 0 189.0 -1.597070531109783 1
gene  1 11 14 20.53250336753915 0 192.0 20.53250336753915 1
gene  1 5 8 -1.8376790829257053 0 235.0 -1.8376790829257053 1
gene  1 1 27 -2.5442684435562457 0 241.0 -2.5442684435562457 1
gene  1 27 8 -2.6452808622712833 0 242.0 -2.6452808622712833 1
gene  1 9 34 -2.4557990373036223 0 272.0 -2.4557990373036223 1
gene  1 34 11 0.7642736043060587 0 273.0 0.7642736043060587 1
gene  1 5 13 -0.009876845623849329 0 277.0 -0.009876845623849329 1
gene  1 12 14 -0.7783447781312212 0 296.0 -0.7783447781312212 1
gene  1 8 40 -2.3824583631252407 1 308.0 -2.3824583631252407 1
gene  1 40 8 1.0829917955676747 0 309.0 1.0829917955676747 1
gene  1 10 14 2.0930950126660632 0 341.0 2.0930950126660632 1
gene  1 3 48 0.014703271724824774 0 360.0 0.014703271724824774 1
gene  1 48 8 0.8970744792475 0 361.0 0.8970744792475 1
gene  1 10 13 -1.7011464890126828 0 404.0 -1.7011464890126828 1
genomeend 17
genomestart  18
trait 1 0.0 0.27695848508415316 2.183035731163029 0.8248600646495707 2.263038934258368 0.8372542455634346 0.3613767976006988 0.41873446294033273 
node 1 1 1 1
node 2 1 1 1
node 3 1 1 1
node 4 1 1 1
node 5 1 1 1
node 6 1 1 1
node 7 1 1 3
node 8 1 0 0
node 9 1 0 0
node 10 1 0 0
node 13 1 0 2
node 14 1 0 2
node 16 1 0 0
node 21 1 0 0
node 29 1 0 0
node 52 1 0 0
node 53 1 0 0
gene  1 1 8 1.2053011781870817 0 98.0 1.2053011781870817 1
gene  1 2 8 -1.4488275872056153 0 99.0 -1.4488275872056153 1
gene  1 3 8 0.9529526411246796 0 100.0 0.9529526411246796 1
gene  1 4 8 -5.230165036754689 0 101.0 -5.230165036754689 1
gene  1 5 8 -0.7968579210848578 0 102.0 -0.7968579210848578 1
gene  1 6 8 3.062542108334706 0 103.0 3.062542108334706 1
gene  1 8 8 1.1494538236795764 1 105.0 1.1494538236795764 1
gene  1 13 8 -3.957557560877211 1 110.0 -3.957557560877211 1
gene  1 14 8 -12.580701476578005 1 111.0 -12.580701476578005 1
gene  1 3 13 0.02238905506486799 0 170.0 0.02238905506486799 1
gene  1 5 13 6.483278361163643 0 172.0 6.483278361163643 1
gene  1 7 13 -2.3798809465422703 0 174.0 -2.3798809465422703 1
gene  1 13 13 0.29188569644200246 1 180.0 0.29188569644200246 1
gene  1 2 14 4.914018725527633 0 183.0 4.914018725527633 1
gene  1 4 14 -0.8928810207335689 0 185.0 -0.8928810207335689 1
gene  1 6 14 -0.9466946794484286 0 187.0 -0.9466946794484286 1
gene  1 8 14 -1.3710424859262764 0 189.0 -1.3710424859262764 1
gene  1 13 14 -0.321925430375831 0 194.0 -0.321925430375831 1
gene  1 13 16 -0.696335263277231 0 201.0 -0.696335263277231 1
gene  1 16 14 -5.504035233257419 0 202.0 -5.504035233257419 1
gene  1 1 21 2.2263861778112175 0 218.0 2.2263861778112175 1
gene  1 21 8 1.7916161949947407 0 219.0 1.7916161949947407 1
gene  1 3 10 9.306999881583456 0 223.0 9.306999881583456 1
gene  1 6 29 6.324745334842332 0 259.0 6.324745334842332 1
gene  1 29 8 0.9775978650936179 0 260.0 0.9775978650936179 1
gene  1 29 21 -1.719039934243832 0 271.0 -1.719039934243832 1
gene  1 3 21 -6.530597410490817 0 300.0 -6.530597410490817 1
gene  1 9 52 -1.590692463840342 0 368.0 -1.590692463840342 1
gene  1 52 14 0.35235587100772553 0 369.0 0.35235587100772553 1
gene  1 1 53 4.380118032869417 0 372.0 4.380118032869417 1
gene  1 53 21 -2.601779614545343 0 373.0 -2.601779614545343 1
genomeend 18
genomestart  19
trait 1 0.33971452717739675 0.27695848508415316 1.2324307960896477 0.38263542198384 1.7668704662528345 0.8372542455634346 0.3613767976006988 0.3567570363531483 
node 1 1 1 1
node 2 1 1 1
node 3 1 1 1
node 4 1 1 1
node 5 1 1 1
node 6 1 1 1
node 7 1 1 3
node 8 1 0 0
node 9 1 0 0
node 10 1 0 0
node 13 1 0 2
node 14 1 0 2
node 16 1 0 0
node 21 1 0 0
node 29 1 0 0
node 52 1 0 0
node 53 1 0 0
gene  1 1 8 0.490966810648245 0 98.0 0.490966810648245 1
gene  1 2 8 -1.5225420456013712 0 99.0 -1.5225420456013712 1
gene  1 3 8 -0.0855556500139627 0 100.0 -0.0855556500139627 1
gene  1 4 8 -6.23795908285561 0 101.0 -6.23795908285561 1
gene  1 5 8 2.088483154153888 0 102.0 2.088483154153888 1
gene  1 6 8 -0.5244422063252983 0 103.0 -0.5244422063252983 1
gene  1 8 8 -0.9799345573127065 1 105.0 -0.9799345573127065 1
gene  1 13 8 -3.6997110926785703 1 110.0 -3.6997110926785703 1
gene  1 14 8 -12.867463792176126 1 111.0 -12.867463792176126 1
gene  1 3 13 0.3256034652299413 0 170.0 0.3256034652299413 1
gene  1 5 13 3.2576833652700774 0 172.0 3.2576833652700774 1
gene  1 7 13 -0.13518328177645672 0 174.0 -0.13518328177645672 1
gene  1 13 13 -1.0895207569445189 1 180.0 -1.0895207569445189 1
gene  1 2 14 3.1284129482800083 0 183.0 3.1284129482800083 1
gene  1 4 14 -0.008661014534681877 0 185.0 -0.008661014534681877 1
gene  1 6 14 -1.0922584079779512 0 187.0 -1.0922584079779512 1
gene  1 8 14 1.5709895627191814 0 189.0 1.5709895627191814 1
gene  1 13 14 -0.4660024399177565 0 194.0 -0.4660024399177565 1
gene  1 13 16 -1.143185356776229 0 201.0 -1.143185356776229 1
gene  1 16 14 -1.5646960351727834 0 202.0 -1.5646960351727834 1
gene  1 1 21 1.5150617246075433 0 218.0 1.5150617246075433 1
gene  1 21 8 2.7600695058429934 0 219.0 2.7600695058429934 1
gene  1 3 10 8.840395813130524 0 223.0 8.840395813130524 1
gene  1 6 29 3.6008265134406896 0 259.0 3.6008265134406896 1
gene  1 29 8 2.854898734330389 0 260.0 2.854898734330389 1
gene  1 29 21 -1.3505942401031499 0 271.0 -1.3505942401031499 1
gene  1 3 21 -6.530597410490817 0 300.0 -6.530597410490817 1
gene  1 9 52 -1.8692391799741124 0 368.0 -1.8692391799741124 1
gene  1 52 14 -1.4853440755590137 0 369.0 -1.4853440755590137 1
gene  1 1 53 4.384143031153377 0 372.0 4.384143031153377 1
gene  1 53 21 -2.601779614545343 0 373.0 -2.601779614545343 1
genomeend 19
