genomestart  0
trait 1 0.0 0.0 0.0 0.0 0.0 0.0 0.0 0.0 
node 1 1 1 1
node 2 1 1 1
node 3 1 1 1
node 4 1 1 1
node 5 1 1 1
node 6 1 1 1
node 7 1 1 3
node 13 1 0 2
node 14 1 0 2
node 15 1 0 0
gene  1 1 13 0.47672342656812206 0 168.0 0.47672342656812206 0
gene  1 2 13 -0.8530552930658426 0 169.0 -0.8530552930658426 1
gene  1 5 13 0.23177344063829963 0 172.0 0.23177344063829963 1
gene  1 6 13 -0.8891177572379736 0 173.0 -0.8891177572379736 1
gene  1 7 13 -0.6420601665702363 0 174.0 -0.6420601665702363 1
gene  1 14 13 0.05272505646602077 1 181.0 0.05272505646602077 1
gene  1 1 14 -0.13287983276604698 0 182.0 -0.13287983276604698 1
gene  1 2 14 -0.9635194758845167 0 183.0 -0.9635194758845167 1
gene  1 3 14 -0.2830080643756927 0 184.0 -0.2830080643756927 1
gene  1 4 14 0.1529134771861982 0 185.0 0.1529134771861982 1
gene  1 6 14 0.8649429664756224 0 187.0 0.8649429664756224 1
gene  1 7 14 -0.396104244877751 0 188.0 -0.396104244877751 1
gene  1 14 14 0.8050666024299852 1 195.0 0.8050666024299852 1
gene  1 1 15 1.0 0 196.0 0.0 1
gene  1 15 13 0.47672342656812206 0 197.0 0.0 1
genomeend 0
genomestart  1
trait 1 0.4624299745997721 0.0 0.0 0.0 0.0 0.0 0.0 0.0 
node 1 1 1 1
node 2 1 1 1
node 3 1 1 1
node 4 1 1 1
node 5 1 1 1
node 6 1 1 1
node 7 1 1 3
node 8 1 0 0
node 9 1 0 0
node 13 1 0 2
node 14 1 0 2
gene  1 2 8 -0.2656427455092385 0 99.0 -0.2656427455092385 1
gene  1 3 8 -0.8717970571348809 0 100.0 -0.8717970571348809 1
gene  1 4 8 -0.20851157844026869 0 101.0 -0.20851157844026869 1
gene  1 5 8 0.7760853909804093 0 102.0 0.7760853909804093 1
gene  1 7 8 -0.2861744789214121 0 104.0 -0.2861744789214121 1
gene  1 8 8 -0.19233290481521492 1 105.0 -0.19233290481521492 1
gene  1 9 8 0.9417814668616858 1 106.0 0.9417814668616858 1
gene  1 1 9 -0.9588295530208903 0 112.0 -0.9588295530208903 1
gene  1 2 9 0.9841296608631855 0 113.0 0.9841296608631855 1
gene  1 3 9 0.3209302019991094 0 114.0 0.3209302019991094 1
gene  1 6 9 -0.5433385146827641 0 117.0 -0.5433385146827641 1
gene  1 7 9 -0.9192431858021654 0 118.0 -0.9192431858021654 1
gene  1 8 9 -0.3487277850812801 0 119.0 -0.3487277850812801 1
gene  1 9 9 -0.04021447130178257 1 120.0 -0.04021447130178257 1
gene  1 13 9 -0.05133155331203265 1 124.0 -0.05133155331203265 1
gene  1 1 13 0.9634386341602216 0 168.0 0.9634386341602216 1
gene  1 2 13 -0.5564263167582811 0 169.0 -0.5564263167582811 1
gene  1 5 13 0.6335499677646905 0 172.0 0.6335499677646905 1
gene  1 6 13 -0.06873532040230901 0 173.0 -0.06873532040230901 1
gene  1 7 13 -0.2954487226118214 0 174.0 -0.2954487226118214 1
gene  1 8 13 -0.3892036832856757 0 175.0 -0.3892036832856757 1
gene  1 13 13 0.008906638977871584 1 180.0 0.008906638977871584 1
gene  1 1 14 0.730555167810246 0 182.0 0.730555167810246 1
gene  1 3 14 -0.754899751312099 0 184.0 -0.754899751312099 1
gene  1 5 14 -0.20954601611894297 0 186.0 -0.20954601611894297 1
gene  1 6 14 -0.423048087229029 0 187.0 -0.423048087229029 1
gene  1 14 14 -0.5789453124577071 1 195.0 -0.5789453124577071 1
genomeend 1
genomestart  2
trait 1 0.0 0.0 0.0 0.0 0.0 0.0 0.0 0.0 
node 1 1 1 1
node 2 1 1 1
node 3 1 1 1
node 4 1 1 1
node 5 1 1 1
node 6 1 1 1
node 7 1 1 3
node 8 1 0 0
node 9 1 0 0
node 13 1 0 2
node 14 1 0 2
gene  1 2 8 1.1721461734047667 0 99.0 1.1721461734047667 1
gene  1 3 8 -1.6253824943124395 0 100.0 -1.6253824943124395 1
gene  1 4 8 1.6039179811094342 0 101.0 1.6039179811094342 1
gene  1 5 8 1.7474099955150948 0 102.0 1.7474099955150948 1
gene  1 7 8 -0.20732402927191945 0 104.0 -0.20732402927191945 1
gene  1 8 8 -1.7037689714677446 1 105.0 -1.7037689714677446 1
gene  1 9 8 2.7372970013229385 1 106.0 2.7372970013229385 1
gene  1 1 9 -2.2373118335978797 0 112.0 -2.2373118335978797 1
gene  1 2 9 -1.5060441712934762 0 113.0 -1.5060441712934762 1
gene  1 3 9 1.131656201023611 0 114.0 1.131656201023611 1
gene  1 6 9 -1.64705803678906 0 117.0 -1.64705803678906 1
gene  1 7 9 0.02363503000260847 0 118.0 0.02363503000260847 1
gene  1 8 9 2.0527347560076086 0 119.0 2.0527347560076086 1
gene  1 9 9 -1.6826618906882018 1 120.0 -1.6826618906882018 1
gene  1 13 9 -0.7098261545404253 1 124.0 -0.7098261545404253 1
gene  1 1 13 0.8438712596352773 0 168.0 0.8438712596352773 1
gene  1 2 13 1.8129970947493685 0 169.0 1.8129970947493685 1
gene  1 5 13 -1.3163549680432953 0 172.0 -1.3163549680432953 1
gene  1 6 13 -1.062661827370567 0 173.0 -1.062661827370567 1
gene  1 7 13 1.9165504195394498 0 174.0 1.9165504195394498 1
gene  1 8 13 0.038754416928878155 0 175.0 0.038754416928878155 1
gene  1 13 13 -1.198271505346163 1 180.0 -1.198271505346163 1
gene  1 1 14 -0.03520963829388851 0 182.0 -0.03520963829388851 1
gene  1 3 14 -0.754899751312099 0 184.0 -0.754899751312099 1
gene  1 5 14 -1.8136915102275126 0 186.0 -1.8136915102275126 1
gene  1 6 14 -0.8614890928772353 0 187.0 -0.8614890928772353 1
gene  1 14 14 -0.5984961813192022 1 195.0 -0.5984961813192022 1
genomeend 2
genomestart  3
trait 1 0.0 0.0 0.0 0.0 0.0 0.0 0.0 0.0 
node 1 1 1 1
node 2 1 1 1
node 3 1 1 1
node 4 1 1 1
node 5 1 1 1
node 6 1 1 1
node 7 1 1 3
node 13 1 0 2
node 14 1 0 2
gene  1 1 13 0.7601505789387532 0 168.0 0.7601505789387532 1
gene  1 3 13 -0.16516343219148233 0 170.0 -0.16516343219148233 1
gene  1 5 13 0.012361530842520674 0 172.0 0.012361530842520674 1
gene  1 6 13 -0.23104677685181174 0 173.0 -0.23104677685181174 1
gene  1 14 13 -0.12194221048373954 1 181.0 -0.12194221048373954 1
gene  1 1 14 -0.2938203257941172 0 182.0 -0.2938203257941172 1
gene  1 2 14 -0.8023481476883632 0 183.0 -0.8023481476883632 1
gene  1 4 14 0.37325799158409656 0 185.0 0.37325799158409656 1
gene  1 5 14 0.6646227164498052 0 186.0 0.6646227164498052 1
gene  1 6 14 -0.7374621047044371 0 187.0 -0.7374621047044371 1
gene  1 7 14 -0.9533891477652067 0 188.0 -0.9533891477652067 1
gene  1 13 14 0.7488559661654978 0 194.0 0.7488559661654978 1
gene  1 14 14 -0.1140355686137271 1 195.0 -0.1140355686137271 1
genomeend 3
genomestart  4
trait 1 0.0 0.196600227429382 0.03986823462448674 0.06592305130205067 0.0 0.0 0.0 0.6287707644438196 
node 1 1 1 1
node 2 1 1 1
node 3 1 1 1
node 4 1 1 1
node 5 1 1 1
node 6 1 1 1
node 7 1 1 3
node 13 1 0 2
node 14 1 0 2
gene  1 2 13 1.8964625856619781 0 169.0 1.8964625856619781 1
gene  1 3 13 -0.402084839767213 0 170.0 -0.402084839767213 1
gene  1 4 13 -0.49301591103752773 0 171.0 -0.49301591103752773 1
gene  1 6 13 -0.7926544698179351 0 173.0 -0.7926544698179351 1
gene  1 7 13 -2.3245966375773333 0 174.0 -2.3245966375773333 1
gene  1 13 13 1.8408208154977321 1 180.0 1.8408208154977321 1
gene  1 1 14 -0.16719167654376754 0 182.0 -0.16719167654376754 1
gene  1 2 14 0.5128063901919372 0 183.0 0.5128063901919372 1
gene  1 5 14 1.170623105890186 0 186.0 1.170623105890186 1
gene  1 6 14 -0.4808663522822366 0 187.0 -0.4808663522822366 1
gene  1 7 14 0.6321819492522982 0 188.0 0.6321819492522982 1
gene  1 13 14 0.6683027265991608 0 194.0 0.6683027265991608 1
gene  1 14 14 1.7254386769352736 1 195.0 1.7254386769352736 1
genomeend 4
genomestart  5
trait 1 0.0 0.0 0.0 0.0 0.0 0.0 0.0 0.0 
node 1 1 1 1
node 2 1 1 1
node 3 1 1 1
node 4 1 1 1
node 5 1 1 1
node 6 1 1 1
node 7 1 1 3
node 8 1 0 0
node 9 1 0 0
node 10 1 0 0
node 11 1 0 0
node 13 1 0 2
node 14 1 0 2
gene  1 2 8 -0.17909651017695916 0 99.0 -0.17909651017695916 1
gene  1 6 8 -0.17132484411373905 0 103.0 -0.17132484411373905 1
gene  1 8 8 -0.543476026631258 1 105.0 -0.543476026631258 1
gene  1 9 8 -0.24550049197877322 1 106.0 -0.24550049197877322 1
gene  1 10 8 -0.9698480280207954 1 107.0 -0.9698480280207954 1
gene  1 11 8 0.9244554880128328 1 108.0 0.9244554880128328 1
gene  1 13 8 -0.05891120265620953 1 110.0 -0.05891120265620953 1
gene  1 14 8 0.4094646587475037 1 111.0 0.4094646587475037 1
gene  1 1 9 0.680787722063012 0 112.0 0.680787722063012 1
gene  1 2 9 0.005364237777669256 0 113.0 0.005364237777669256 1
gene  1 3 9 0.10106116148236077 0 114.0 0.10106116148236077 1
gene  1 6 9 0.4804979332488546 0 117.0 0.4804979332488546 1
gene  1 7 9 0.46284151583747857 0 118.0 0.46284151583747857 1
gene  1 8 9 -0.7537870352261474 0 119.0 -0.7537870352261474 1
gene  1 9 9 0.5923439748486674 1 120.0 0.5923439748486674 1
gene  1 11 9 -0.7061343921633819 1 122.0 -0.7061343921633819 1
gene  1 13 9 0.7371765682317439 1 124.0 0.7371765682317439 1
gene  1 14 9 0.4300955249388215 1 125.0 0.4300955249388215 1
gene  1 1 10 -0.04393706090940752 0 126.0 -0.04393706090940752 1
gene  1 3 10 0.7953860463786722 0 128.0 0.7953860463786722 1
gene  1 4 10 0.4368505695669189 0 129.0 0.4368505695669189 1
gene  1 5 10 -0.3099790831972049 0 130.0 -0.3099790831972049 1
gene  1 6 10 -0.47697648373916146 0 131.0 -0.47697648373916146 1
gene  1 10 10 0.020286938936653565 1 135.0 0.020286938936653565 1
gene  1 11 10 -0.09341857444298862 1 136.0 -0.09341857444298862 1
gene  1 14 10 0.8070017193144805 1 139.0 0.8070017193144805 1
gene  1 1 11 0.30176578516916697 0 140.0 0.30176578516916697 1
gene  1 3 11 -0.2392873435761459 0 142.0 -0.2392873435761459 1
gene  1 5 11 -0.6709942525539238 0 144.0 -0.6709942525539238 1
gene  1 6 11 -0.13588896389732352 0 145.0 -0.13588896389732352 1
gene  1 7 11 -0.8526519441085902 0 146.0 -0.8526519441085902 1
gene  1 8 11 -0.4922576164887227 0 147.0 -0.4922576164887227 1
gene  1 9 11 0.1582070842223442 0 148.0 0.1582070842223442 1
gene  1 10 11 -0.29000883036727787 0 149.0 -0.29000883036727787 1
gene  1 11 11 -0.247176534335241 1 150.0 -0.247176534335241 1
gene  1 1 13 -0.5004123573256523 0 168.0 -0.5004123573256523 1
gene  1 2 13 -0.045901839975979186 0 169.0 -0.045901839975979186 1
gene  1 3 13 0.766960907089901 0 170.0 0.766960907089901 1
gene  1 7 13 -0.01783876361490766 0 174.0 -0.01783876361490766 1
gene  1 11 13 -0.6641281523243447 0 178.0 -0.6641281523243447 1
gene  1 13 13 -0.14939424999893103 1 180.0 -0.14939424999893103 1
gene  1 2 14 -0.4788611254606586 0 183.0 -0.4788611254606586 1
gene  1 3 14 -0.1246004253154922 0 184.0 -0.1246004253154922 1
gene  1 4 14 -0.39072251773931255 0 185.0 -0.39072251773931255 1
gene  1 7 14 -0.7796012025849348 0 188.0 -0.7796012025849348 1
gene  1 8 14 -0.8055670517943232 0 189.0 -0.8055670517943232 1
gene  1 10 14 0.4892868893210738 0 191.0 0.4892868893210738 1
gene  1 13 14 0.5654812991722971 0 194.0 0.5654812991722971 1
gene  1 5 13 -0.5828160234113977 0 198.0 -0.5828160234113977 1
genomeend 5
genomestart  6
trait 1 0.0 0.0 0.0 0.0 0.0 0.0 0.0 0.0 
node 1 1 1 1
node 2 1 1 1
node 3 1 1 1
node 4 1 1 1
node 5 1 1 1
node 6 1 1 1
node 7 1 1 3
node 8 1 0 0
node 9 1 0 0
node 10 1 0 0
node 11 1 0 0
node 13 1 0 2
node 14 1 0 2
gene  1 2 8 2.0123815277729427 0 99.0 2.0123815277729427 1
gene  1 6 8 1.8319241082220636 0 103.0 1.8319241082220636 1
gene  1 8 8 1.774777567471673 1 105.0 1.774777567471673 1
gene  1 9 8 1.8417726768846054 1 106.0 1.8417726768846054 1
gene  1 10 8 -1.8862187091700133 1 107.0 -1.8862187091700133 1
gene  1 11 8 1.9224939374677172 1 108.0 1.9224939374677172 1
gene  1 13 8 2.334501048365058 1 110.0 2.334501048365058 1
gene  1 14 8 -1.3216858340774034 1 111.0 -1.3216858340774034 1
gene  1 1 9 -1.4659163899920609 0 112.0 -1.4659163899920609 1
gene  1 2 9 0.41475035194989 0 113.0 0.41475035194989 1
gene  1 3 9 1.895683804304643 0 114.0 1.895683804304643 1
gene  1 6 9 -1.6538080818502479 0 117.0 -1.6538080818502479 1
gene  1 7 9 1.5905497724178053 0 118.0 1.5905497724178053 1
gene  1 8 9 -1.7194017192560622 0 119.0 -1.7194017192560622 1
gene  1 9 9 -0.3631689842600456 1 120.0 -0.3631689842600456 1
gene  1 11 9 0.9841021165807097 1 122.0 0.9841021165807097 1
gene  1 13 9 -0.6452024583395115 1 124.0 -0.6452024583395115 1
gene  1 14 9 2.6680762842640067 1 125.0 2.6680762842640067 1
gene  1 1 10 -1.2437957132891584 0 126.0 -1.2437957132891584 1
gene  1 3 10 -1.5389130933434298 0 128.0 -1.5389130933434298 1
gene  1 4 10 -1.8003024652012958 0 129.0 -1.8003024652012958 1
gene  1 5 10 2.1423891056070294 0 130.0 2.1423891056070294 1
gene  1 6 10 -2.1179032563611235 0 131.0 -2.1179032563611235 1
gene  1 10 10 -2.2600351159597016 1 135.0 -2.2600351159597016 1
gene  1 11 10 -1.0456005777516135 1 136.0 -1.0456005777516135 1
gene  1 14 10 1.2741886602015295 1 139.0 1.2741886602015295 1
gene  1 1 11 -0.1117773582533359 0 140.0 -0.1117773582533359 1
gene  1 3 11 -1.4718001356870842 0 142.0 -1.4718001356870842 1
gene  1 5 11 1.5066234875595632 0 144.0 1.5066234875595632 1
gene  1 6 11 0.32361466675286965 0 145.0 0.32361466675286965 1
gene  1 7 11 0.01337888437146395 0 146.0 0.01337888437146395 1
gene  1 8 11 1.5121957065189093 0 147.0 1.5121957065189093 1
gene  1 9 11 -1.771587781783545 0 148.0 -1.771587781783545 1
gene  1 10 11 -1.0269959297182947 0 149.0 -1.0269959297182947 1
gene  1 11 11 -1.1550551804845712 1 150.0 -1.1550551804845712 1
gene  1 1 13 1.3997091944970155 0 168.0 1.3997091944970155 1
gene  1 2 13 -1.4658040420344618 0 169.0 -1.4658040420344618 1
gene  1 3 13 -1.259559532230762 0 170.0 -1.259559532230762 1
gene  1 7 13 0.1812297285207271 0 174.0 0.1812297285207271 1
gene  1 11 13 -2.9495377727113707 0 178.0 -2.9495377727113707 1
gene  1 13 13 -0.14939424999893103 1 180.0 -0.14939424999893103 1
gene  1 2 14 -0.4788611254606586 0 183.0 -0.4788611254606586 1
gene  1 3 14 1.7680547237541013 0 184.0 1.7680547237541013 1
gene  1 4 14 -2.8828813698059688 0 185.0 -2.8828813698059688 1
gene  1 7 14 -0.7258986200339954 0 188.0 -0.7258986200339954 1
gene  1 8 14 -1.6753228094997004 0 189.0 -1.6753228094997004 1
gene  1 10 14 0.4892868893210738 0 191.0 0.4892868893210738 1
gene  1 13 14 -1.625675013691209 0 194.0 -1.625675013691209 1
genomeend 6
genomestart  7
trait 1 0.0 0.0 0.0 0.0 0.24791110537771144 0.060786168384182604 0.7312226168082698 0.0 
node 1 1 1 1
node 2 1 1 1
node 3 1 1 1
node 4 1 1 1
node 5 1 1 1
node 6 1 1 1
node 7 1 1 3
node 8 1 0 0
node 9 1 0 0
node 10 1 0 0
node 11 1 0 0
node 13 1 0 2
node 14 1 0 2
gene  1 2 8 0.5623361854301158 0 99.0 0.5623361854301158 1
gene  1 6 8 1.4851675407822822 0 103.0 1.4851675407822822 1
gene  1 8 8 -2.2862243668230455 1 105.0 -2.2862243668230455 1
gene  1 9 8 -0.8604094306209754 1 106.0 -0.8604094306209754 1
gene  1 10 8 -0.9698480280207954 1 107.0 -0.9698480280207954 1
gene  1 11 8 -0.9717791346548843 1 108.0 -0.9717791346548843 1
gene  1 13 8 0.22643887719654854 1 110.0 0.22643887719654854 1
gene  1 14 8 2.793486227854518 1 111.0 2.793486227854518 1
gene  1 1 9 -0.7077325600421928 0 112.0 -0.7077325600421928 1
gene  1 2 9 -1.425489989198651 0 113.0 -1.425489989198651 1
gene  1 3 9 0.8704487687344425 0 114.0 0.8704487687344425 1
gene  1 6 9 2.789207634169186 0 117.0 2.789207634169186 1
gene  1 7 9 -0.5180543250858742 0 118.0 -0.5180543250858742 1
gene  1 8 9 -2.560475731320518 0 119.0 -2.560475731320518 1
gene  1 9 9 1.6939967182407378 1 120.0 1.6939967182407378 1
gene  1 11 9 0.5912324659438709 1 122.0 0.5912324659438709 1
gene  1 13 9 3.008102155305494 1 124.0 3.008102155305494 1
gene  1 14 9 0.6404869780109441 1 125.0 0.6404869780109441 1
gene  1 1 10 -1.9924080805152937 0 126.0 -1.9924080805152937 1
gene  1 3 10 -0.4943734711281611 0 128.0 -0.4943734711281611 1
gene  1 4 10 -0.4384681031302349 0 129.0 -0.4384681031302349 1
gene  1 5 10 1.023314040892151 0 130.0 1.023314040892151 1
gene  1 6 10 1.2706155834267023 0 131.0 1.2706155834267023 1
gene  1 10 10 -0.31998241804585303 1 135.0 -0.31998241804585303 1
gene  1 11 10 2.267531167928623 1 136.0 2.267531167928623 1
gene  1 14 10 1.8220198975508493 1 139.0 1.8220198975508493 1
gene  1 1 11 -1.1818963035086292 0 140.0 -1.1818963035086292 1
gene  1 3 11 -0.3515784108831419 0 142.0 -0.3515784108831419 1
gene  1 5 11 0.7306952542528095 0 144.0 0.7306952542528095 1
gene  1 6 11 1.9819915518919413 0 145.0 1.9819915518919413 1
gene  1 7 11 -1.3820240484243533 0 146.0 -1.3820240484243533 1
gene  1 8 11 -0.7977813854567475 0 147.0 -0.7977813854567475 1
gene  1 9 11 1.413891217135473 0 148.0 1.413891217135473 1
gene  1 10 11 -0.5790878918360474 0 149.0 -0.5790878918360474 1
gene  1 11 11 2.1540013182628384 1 150.0 2.1540013182628384 1
gene  1 1 13 1.7355120274851725 0 168.0 1.7355120274851725 1
gene  1 2 13 1.8820245882417521 0 169.0 1.8820245882417521 1
gene  1 3 13 2.6091539988383023 0 170.0 2.6091539988383023 1
gene  1 7 13 -2.1810685120902327 0 174.0 -2.1810685120902327 1
gene  1 11 13 -2.2529409874321704 0 178.0 -2.2529409874321704 1
gene  1 13 13 0.29636568968687843 1 180.0 0.29636568968687843 1
gene  1 2 14 -0.5638755617820983 0 183.0 -0.5638755617820983 1
gene  1 3 14 -0.035885452467597445 0 184.0 -0.035885452467597445 1
gene  1 4 14 0.03895543395194184 0 185.0 0.03895543395194184 1
gene  1 7 14 2.3012656354031815 0 188.0 2.3012656354031815 1
gene  1 8 14 -2.399003717148223 0 189.0 -2.399003717148223 1
gene  1 10 14 0.3685894991465354 0 191.0 0.3685894991465354 1
gene  1 13 14 2.0873154716980293 0 194.0 2.0873154716980293 1
genomeend 7
genomestart  8
trait 1 0.0 0.0 0.0 0.0 0.0 0.0 0.0 0.0 
node 1 1 1 1
node 2 1 1 1
node 3 1 1 1
node 4 1 1 1
node 5 1 1 1
node 6 1 1 1
node 7 1 1 3
node 8 1 0 0
node 13 1 0 2
node 14 1 0 2
gene  1 1 8 1.129344027515996 0 98.0 1.129344027515996 1
gene  1 2 8 1.736716143530471 0 99.0 1.736716143530471 1
gene  1 3 8 -2.493115115024278 0 100.0 -2.493115115024278 1
gene  1 4 8 -2.3842853862109985 0 101.0 -2.3842853862109985 1
gene  1 5 8 -0.9777480152672009 0 102.0 -0.9777480152672009 1
gene  1 6 8 -1.306724521987758 0 103.0 -1.306724521987758 1
gene  1 8 8 -0.7512186726424857 1 105.0 -0.7512186726424857 1
gene  1 13 8 -0.15966277587145322 1 110.0 -0.15966277587145322 1
gene  1 14 8 -1.0563255265904201 1 111.0 -1.0563255265904201 1
gene  1 3 13 -1.6155716908469042 0 170.0 -1.6155716908469042 1
gene  1 5 13 0.15044984036701609 0 172.0 0.15044984036701609 1
gene  1 7 13 2.8747336885411885 0 174.0 2.8747336885411885 1
gene  1 13 13 -1.3689272417747373 1 180.0 -1.3689272417747373 1
gene  1 2 14 0.6275422342725446 0 183.0 0.6275422342725446 1
gene  1 4 14 -1.0780981847317137 0 185.0 -1.0780981847317137 1
gene  1 6 14 0.5961376891682141 0 187.0 0.5961376891682141 1
gene  1 8 14 -0.6064774243022553 0 189.0 -0.6064774243022553 1
gene  1 13 14 0.7260934640988728 0 194.0 0.7260934640988728 1
genomeend 8
genomestart  9
trait 1 0.0 0.0 0.0 0.0 0.0 0.0 0.0 0.0 
node 1 1 1 1
node 2 1 1 1
node 3 1 1 1
node 4 1 1 1
node 5 1 1 1
node 6 1 1 1
node 7 1 1 3
node 8 1 0 0
node 9 1 0 0
node 13 1 0 2
node 14 1 0 2
gene  1 1 8 -0.7662410438389415 0 98.0 -0.7662410438389415 1
gene  1 2 8 1.724446838076047 0 99.0 1.724446838076047 1
gene  1 3 8 -0.31653460485283336 0 100.0 -0.31653460485283336 1
gene  1 5 8 -0.5553139167162567 0 102.0 -0.5553139167162567 1
gene  1 6 8 0.0739519588670115 0 103.0 0.0739519588670115 1
gene  1 9 8 2.168156315042416 1 106.0 2.168156315042416 1
gene  1 2 9 -1.0786573176701446 0 113.0 -1.0786573176701446 1
gene  1 3 9 1.2777834095340364 0 114.0 1.2777834095340364 1
gene  1 6 9 2.5527014119327163 0 117.0 2.5527014119327163 1
gene  1 9 9 1.918710404605671 1 120.0 1.918710404605671 1
gene  1 13 9 1.2712311473566769 1 124.0 1.2712311473566769 1
gene  1 14 9 -1.9376886843951153 1 125.0 -1.9376886843951153 1
gene  1 1 13 -0.8954334646572049 0 168.0 -0.8954334646572049 1
gene  1 2 13 0.5414770608796563 0 169.0 0.5414770608796563 1
gene  1 3 13 -1.9290610747869237 0 170.0 -1.9290610747869237 1
gene  1 4 13 0.11724776637685519 0 171.0 0.11724776637685519 1
gene  1 5 13 -0.06678161942315419 0 172.0 -0.06678161942315419 1
gene  1 6 13 1.2059869753186443 0 173.0 1.2059869753186443 1
gene  1 7 13 -0.4287433839784828 0 174.0 -0.4287433839784828 1
gene  1 2 14 -1.0242098069564785 0 183.0 -1.0242098069564785 1
gene  1 3 14 -0.5347897546385174 0 184.0 -0.5347897546385174 1
gene  1 4 14 1.4699376999875817 0 185.0 1.4699376999875817 1
gene  1 6 14 0.48840028059324847 0 187.0 0.48840028059324847 1
gene  1 8 14 1.6059534178863957 0 189.0 1.6059534178863957 1
genomeend 9
genomestart  10
trait 1 0.0 0.0 0.0 0.0 0.0 0.0 0.0 0.0 
node 1 1 1 1
node 2 1 1 1
node 3 1 1 1
node 4 1 1 1
node 5 1 1 1
node 6 1 1 1
node 7 1 1 3
node 8 1 0 0
node 9 1 0 0
node 10 1 0 0
node 13 1 0 2
node 14 1 0 2
gene  1 1 8 -2.1955002936281183 0 98.0 -2.1955002936281183 1
gene  1 3 8 1.9570848259139182 0 100.0 1.9570848259139182 1
gene  1 5 8 1.65527812659283 0 102.0 1.65527812659283 1
gene  1 6 8 -1.5576759374714695 0 103.0 -1.5576759374714695 1
gene  1 8 8 -0.5798121735544093 1 105.0 -0.5798121735544093 1
gene  1 1 9 1.5620959329654278 0 112.0 1.5620959329654278 1
gene  1 2 9 -2.011239846741263 0 113.0 -2.011239846741263 1
gene  1 3 9 2.568989593706968 0 114.0 2.568989593706968 1
gene  1 5 9 0.5182908035981703 0 116.0 0.5182908035981703 1
gene  1 7 9 -2.7879710264498425 0 118.0 -2.7879710264498425 1
gene  1 9 9 -1.6787913668511378 1 120.0 -1.6787913668511378 1
gene  1 10 9 -0.23662887204941763 1 121.0 -0.23662887204941763 1
gene  1 13 9 2.14005842545377 1 124.0 2.14005842545377 1
gene  1 2 10 0.8537744205799747 0 127.0 0.8537744205799747 1
gene  1 4 10 -1.4313014845469805 0 129.0 -1.4313014845469805 1
gene  1 5 10 -0.4695718629150427 0 130.0 -0.4695718629150427 1
gene  1 8 10 -0.33542007725385764 0 133.0 -0.33542007725385764 1
gene  1 9 10 -0.501264251802737 0 134.0 -0.501264251802737 1
gene  1 10 10 0.8526010304119775 1 135.0 0.8526010304119775 1
gene  1 13 10 -0.19702388448050923 1 138.0 -0.19702388448050923 1
gene  1 14 10 -1.5186587401943072 1 139.0 -1.5186587401943072 1
gene  1 2 13 1.4098843526097626 0 169.0 1.4098843526097626 1
gene  1 3 13 -1.3007655383461636 0 170.0 -1.3007655383461636 1
gene  1 6 13 -0.3773636743256553 0 173.0 -0.3773636743256553 1
gene  1 7 13 1.749958300181425 0 174.0 1.749958300181425 1
gene  1 9 13 -0.3769275987451949 0 176.0 -0.3769275987451949 1
gene  1 13 13 1.1023654823939086 1 180.0 1.1023654823939086 1
gene  1 14 13 -1.9987487102209074 1 181.0 -1.9987487102209074 1
gene  1 1 14 -0.2183227491865961 0 182.0 -0.2183227491865961 1
gene  1 3 14 0.0013667189863355578 0 184.0 0.0013667189863355578 1
gene  1 9 14 -0.5355072564404727 0 190.0 -0.5355072564404727 1
gene  1 10 14 -1.597809145098816 0 191.0 -1.597809145098816 1
genomeend 10
genomestart  11
trait 1 0.0 0.0 0.0 0.0 0.0 0.0 0.0 0.0 
node 1 1 1 1
node 2 1 1 1
node 3 1 1 1
node 4 1 1 1
node 5 1 1 1
node 6 1 1 1
node 7 1 1 3
node 8 1 0 0
node 13 1 0 2
node 14 1 0 2
gene  1 1 8 0.47253585701931256 0 98.0 0.47253585701931256 1
gene  1 3 8 0.13986151540337322 0 100.0 0.13986151540337322 1
gene  1 4 8 -0.005488310880342295 0 101.0 -0.005488310880342295 1
gene  1 5 8 0.13058233371229944 0 102.0 0.13058233371229944 1
gene  1 6 8 0.19282272633080166 0 103.0 0.19282272633080166 1
gene  1 8 8 -0.17936101584947506 1 105.0 -0.17936101584947506 1
gene  1 1 13 0.37477790536864164 0 168.0 0.37477790536864164 1
gene  1 5 13 -0.17188389247243485 0 172.0 -0.17188389247243485 1
gene  1 13 13 -0.6031884116406742 1 180.0 -0.6031884116406742 1
gene  1 14 13 -0.6765818997203547 1 181.0 -0.6765818997203547 1
gene  1 2 14 -0.9462129739088072 0 183.0 -0.9462129739088072 1
gene  1 3 14 0.47325694269708674 0 184.0 0.47325694269708674 1
gene  1 5 14 0.6313981677571953 0 186.0 0.6313981677571953 1
gene  1 7 14 -0.3011529862227199 0 188.0 -0.3011529862227199 1
gene  1 8 14 0.21839586778089115 0 189.0 0.21839586778089115 1
gene  1 13 14 0.7795386937704052 0 194.0 0.7795386937704052 1
gene  1 6 13 -4.444059066660516 0 199.0 -4.444059066660516 1
genomeend 11
genomestart  12
trait 1 0.0 0.0 0.0 0.0 0.0 0.0 0.0 0.0 
node 1 1 1 1
node 2 1 1 1
node 3 1 1 1
node 4 1 1 1
node 5 1 1 1
node 6 1 1 1
node 7 1 1 3
node 13 1 0 2
node 14 1 0 2
gene  1 1 13 2.4015326855525716 0 168.0 2.4015326855525716 1
gene  1 2 13 0.27997573412312793 0 169.0 0.27997573412312793 1
gene  1 3 13 -0.4241658971968109 0 170.0 -0.4241658971968109 1
gene  1 4 13 0.4414986780822976 0 171.0 0.4414986780822976 1
gene  1 5 13 1.4363470987030222 0 172.0 1.4363470987030222 1
gene  1 6 13 1.561181602153824 0 173.0 1.561181602153824 1
gene  1 7 13 -0.7281598289070264 0 174.0 -0.7281598289070264 1
gene  1 14 13 0.8849412522413678 1 181.0 0.8849412522413678 1
gene  1 1 14 -0.06550080372622447 0 182.0 -0.06550080372622447 1
gene  1 2 14 -0.39855276886196667 0 183.0 -0.39855276886196667 1
gene  1 3 14 -1.8937517159094899 0 184.0 -1.8937517159094899 1
gene  1 13 14 2.1742069898003877 0 194.0 2.1742069898003877 1
gene  1 14 14 -0.19528872452504775 1 195.0 -0.19528872452504775 1
genomeend 12
genomestart  13
trait 1 0.0 0.0 0.0 0.0 0.0 0.0 0.0 0.0 
node 1 1 1 1
node 2 1 1 1
node 3 1 1 1
node 4 1 1 1
node 5 1 1 1
node 6 1 1 1
node 7 1 1 3
node 8 1 0 0
node 9 1 0 0
node 13 1 0 2
node 14 1 0 2
gene  1 1 8 1.0529649285729001 0 98.0 1.0529649285729001 1
gene  1 2 8 -1.7891568302108416 0 99.0 -1.7891568302108416 1
gene  1 3 8 -1.826402854515457 0 100.0 -1.826402854515457 1
gene  1 6 8 -0.9981342468372794 0 103.0 -0.9981342468372794 1
gene  1 8 8 -0.6472675750739999 1 105.0 -0.6472675750739999 1
gene  1 9 8 0.18823533478105092 1 106.0 0.18823533478105092 1
gene  1 13 8 0.21276993506870145 1 110.0 0.21276993506870145 1
gene  1 14 8 0.5829849926713335 1 111.0 0.5829849926713335 1
gene  1 1 9 -0.806853958931214 0 112.0 -0.806853958931214 1
gene  1 4 9 0.04691163168825396 0 115.0 0.04691163168825396 1
gene  1 5 9 0.9283619291499323 0 116.0 0.9283619291499323 1
gene  1 7 9 0.5424539114409369 0 118.0 0.5424539114409369 1
gene  1 9 9 -2.182172485991547 1 120.0 -2.182172485991547 1
gene  1 14 9 -0.013421297173772828 1 125.0 -0.013421297173772828 1
gene  1 2 13 0.19184259935357573 0 169.0 0.19184259935357573 1
gene  1 5 13 -1.8118365795121218 0 172.0 -1.8118365795121218 1
gene  1 8 13 0.5534980153370119 0 175.0 0.5534980153370119 1
gene  1 1 14 -2.024446194116256 0 182.0 -2.024446194116256 1
gene  1 2 14 2.4869440573880124 0 183.0 2.4869440573880124 1
gene  1 3 14 -1.6439404670861435 0 184.0 -1.6439404670861435 1
gene  1 6 14 -0.5677369776214711 0 187.0 -0.5677369776214711 1
gene  1 13 14 1.9343398202371176 0 194.0 1.9343398202371176 1
gene  1 14 14 -2.914812158623497 1 195.0 -2.914812158623497 1
genomeend 13
genomestart  14
trait 1 0.0 0.0 0.0 0.0 0.0 0.0 0.0 0.0 
node 1 1 1 1
node 2 1 1 1
node 3 1 1 1
node 4 1 1 1
node 5 1 1 1
node 6 1 1 1
node 7 1 1 3
node 13 1 0 2
node 14 1 0 2
gene  1 1 13 1.5062885626684563 0 168.0 1.5062885626684563 1
gene  1 2 13 -1.7810807819214407 0 169.0 -1.7810807819214407 1
gene  1 3 13 1.562902905009652 0 170.0 1.562902905009652 1
gene  1 4 13 -3.2817644419614878 0 171.0 -3.2817644419614878 1
gene  1 5 13 2.1069224783041314 0 172.0 2.1069224783041314 1
gene  1 6 13 0.5856021739797311 0 173.0 0.5856021739797311 1
gene  1 13 13 -0.8014545141848683 1 180.0 -0.8014545141848683 1
gene  1 14 13 0.15015500982249003 1 181.0 0.15015500982249003 1
gene  1 1 14 1.0708202755137126 0 182.0 1.0708202755137126 1
gene  1 4 14 0.7995195704600389 0 185.0 0.7995195704600389 1
gene  1 7 14 -1.5498774269994395 0 188.0 -1.5498774269994395 1
genomeend 14
genomestart  15
trait 1 0.0 0.0 0.0 0.0 0.0 0.0 0.0 0.0 
node 1 1 1 1
node 2 1 1 1
node 3 1 1 1
node 4 1 1 1
node 5 1 1 1
node 6 1 1 1
node 7 1 1 3
node 8 1 0 0
node 13 1 0 2
node 14 1 0 2
gene  1 4 8 0.2021294516935902 0 101.0 0.2021294516935902 1
gene  1 5 8 -0.21915594242933112 0 102.0 -0.21915594242933112 1
gene  1 6 8 1.4837532574777446 0 103.0 1.4837532574777446 1
gene  1 14 8 -0.37090251423696985 1 111.0 -0.37090251423696985 1
gene  1 1 13 0.732835909454402 0 168.0 0.732835909454402 1
gene  1 2 13 0.5520003108194413 0 169.0 0.5520003108194413 1
gene  1 3 13 0.4338517332773374 0 170.0 0.4338517332773374 1
gene  1 5 13 0.9443579928257917 0 172.0 0.9443579928257917 1
gene  1 7 13 1.0248320445916266 0 174.0 1.0248320445916266 1
gene  1 14 13 -1.7121764365428171 1 181.0 -1.7121764365428171 1
gene  1 1 14 0.5277172338351246 0 182.0 0.5277172338351246 1
gene  1 2 14 -1.0234179616365022 0 183.0 -1.0234179616365022 1
gene  1 3 14 -0.9567617653581063 0 184.0 -0.9567617653581063 1
gene  1 4 14 1.5977904328821009 0 185.0 1.5977904328821009 1
gene  1 8 14 1.3149046953768857 0 189.0 1.3149046953768857 1
gene  1 14 14 2.150993197274048 1 195.0 2.150993197274048 1
genomeend 15
genomestart  16
trait 1 0.0 0.0 0.0 0.0 0.0 0.0 0.0 0.0 
node 1 1 1 1
node 2 1 1 1
node 3 1 1 1
node 4 1 1 1
node 5 1 1 1
node 6 1 1 1
node 7 1 1 3
node 8 1 0 0
node 9 1 0 0
node 10 1 0 0
node 13 1 0 2
node 14 1 0 2
gene  1 3 8 -1.1843496197699963 0 100.0 -1.1843496197699963 1
gene  1 7 8 1.5676678400555848 0 104.0 1.5676678400555848 1
gene  1 8 8 -0.9095095705839438 1 105.0 -0.9095095705839438 1
gene  1 9 8 0.5662288984984741 1 106.0 0.5662288984984741 1
gene  1 13 8 0.5260920686064604 1 110.0 0.5260920686064604 1
gene  1 2 9 -2.481522443210565 0 113.0 -2.481522443210565 1
gene  1 3 9 -0.8290579583758294 0 114.0 -0.8290579583758294 1
gene  1 4 9 -1.4821367343570113 0 115.0 -1.4821367343570113 1
gene  1 5 9 0.6128997859478312 0 116.0 0.6128997859478312 1
gene  1 6 9 0.0073443531025563225 0 117.0 0.0073443531025563225 1
gene  1 8 9 -0.2892577240971656 0 119.0 -0.2892577240971656 1
gene  1 13 9 0.21519232760504625 1 124.0 0.21519232760504625 1
gene  1 14 9 1.3080936364401499 1 125.0 1.3080936364401499 1
gene  1 4 10 0.24641305202345232 0 129.0 0.24641305202345232 1
gene  1 5 10 1.7622413782168445 0 130.0 1.7622413782168445 1
gene  1 8 10 -0.26240769199553804 0 133.0 -0.26240769199553804 1
gene  1 10 10 -0.195339028563968 1 135.0 -0.195339028563968 1
gene  1 3 13 0.6153999374470683 0 170.0 0.6153999374470683 1
gene  1 10 13 -2.1028073803379064 0 177.0 -2.1028073803379064 1
gene  1 1 14 2.5710853598878263 0 182.0 2.5710853598878263 1
gene  1 3 14 1.8058129886040772 0 184.0 1.8058129886040772 1
gene  1 4 14 -2.710399395538236 0 185.0 -2.710399395538236 1
gene  1 5 14 2.4342700403062003 0 186.0 2.4342700403062003 1
genomeend 16
genomestart  17
trait 1 0.0 0.0 0.0 0.0 0.0 0.0 0.0 0.0 
node 1 1 1 1
node 2 1 1 1
node 3 1 1 1
node 4 1 1 1
node 5 1 1 1
node 6 1 1 1
node 7 1 1 3
node 8 1 0 0
node 9 1 0 0
node 10 1 0 0
node 13 1 0 2
node 14 1 0 2
gene  1 2 8 -1.5557628294637782 0 99.0 -1.5557628294637782 1
gene  1 3 8 0.5862085664274344 0 100.0 0.5862085664274344 1
gene  1 5 8 1.647254816182711 0 102.0 1.647254816182711 1
gene  1 6 8 1.0074103796494835 0 103.0 1.0074103796494835 1
gene  1 10 8 -0.9565855394206977 1 107.0 -0.9565855394206977 1
gene  1 14 8 0.424524655110012 1 111.0 0.424524655110012 1
gene  1 1 9 -0.057548068778092154 0 112.0 -0.057548068778092154 1
gene  1 2 9 0.7941189545957524 0 113.0 0.7941189545957524 1
gene  1 4 9 -1.4574666326040107 0 115.0 -1.4574666326040107 1
gene  1 8 9 -1.888326449952455 0 119.0 -1.888326449952455 1
gene  1 9 9 1.1362529726381156 1 120.0 1.1362529726381156 1
gene  1 13 9 0.03330026101272443 1 124.0 0.03330026101272443 1
gene  1 14 9 0.4317024451181534 1 125.0 0.4317024451181534 1
gene  1 1 10 2.803335684161733 0 126.0 2.803335684161733 1
gene  1 2 10 -2.365890447137478 0 127.0 -2.365890447137478 1
gene  1 4 10 -1.4440213349689632 0 129.0 -1.4440213349689632 1
gene  1 5 10 -0.5761758794630185 0 130.0 -0.5761758794630185 1
gene  1 7 10 -0.9369294485530621 0 132.0 -0.9369294485530621 1
gene  1 13 10 2.3753623190198456 1 138.0 2.3753623190198456 1
gene  1 1 13 1.590252076072293 0 168.0 1.590252076072293 1
gene  1 2 13 -1.775408835440712 0 169.0 -1.775408835440712 1
gene  1 3 13 0.05321461675554795 0 170.0 0.05321461675554795 1
gene  1 5 13 -1.278284337705781 0 172.0 -1.278284337705781 1
gene  1 6 13 -1.987554445462349 0 173.0 -1.987554445462349 1
gene  1 8 13 2.505276383277856 0 175.0 2.505276383277856 1
gene  1 9 13 -0.4879987833661954 0 176.0 -0.4879987833661954 1
gene  1 3 14 1.0768357763954566 0 184.0 1.0768357763954566 1
gene  1 5 14 -1.5641752888714655 0 186.0 -1.5641752888714655 1
gene  1 7 14 -0.3419641909745602 0 188.0 -0.3419641909745602 1
gene  1 8 14 1.7481195764551196 0 189.0 1.7481195764551196 1
gene  1 13 14 0.37440672864821434 0 194.0 0.37440672864821434 1
genomeend 17
genomestart  18
trait 1 0.0 0.0 0.0 0.0 0.0 0.0 0.0 0.0 
node 1 1 1 1
node 2 1 1 1
node 3 1 1 1
node 4 1 1 1
node 5 1 1 1
node 6 1 1 1
node 7 1 1 3
node 13 1 0 2
node 14 1 0 2
gene  1 1 13 -0.38551257662531957 0 168.0 -0.38551257662531957 1
gene  1 2 13 0.9488293256990932 0 169.0 0.9488293256990932 1
gene  1 5 13 -0.9944723754153804 0 172.0 -0.9944723754153804 1
gene  1 6 13 -1.3781339756058322 0 173.0 -1.3781339756058322 1
gene  1 7 13 0.9648185207876854 0 174.0 0.9648185207876854 1
gene  1 3 14 -0.035969884115504724 0 184.0 -0.035969884115504724 1
gene  1 4 14 -1.7665046908016213 0 185.0 -1.7665046908016213 1
gene  1 7 14 -0.6344094211754424 0 188.0 -0.6344094211754424 1
gene  1 13 14 2.262894539435512 0 194.0 2.262894539435512 1
gene  1 14 14 -0.8483136527092976 1 195.0 -0.8483136527092976 1
genomeend 18
genomestart  19
trait 1 0.0 0.0 0.0 0.0 0.0 0.0 0.0 0.0 
node 1 1 1 1
node 2 1 1 1
node 3 1 1 1
node 4 1 1 1
node 5 1 1 1
node 6 1 1 1
node 7 1 1 3
node 8 1 0 0
node 9 1 0 0
node 10 1 0 0
node 11 1 0 0
node 12 1 0 0
node 13 1 0 2
node 14 1 0 2
gene  1 1 8 2.910156079374878 0 98.0 2.910156079374878 1
gene  1 3 8 1.5691326598290827 0 100.0 1.5691326598290827 1
gene  1 4 8 0.40295893821227063 0 101.0 0.40295893821227063 1
gene  1 6 8 1.400115251752521 0 103.0 1.400115251752521 1
gene  1 8 8 1.6971065267753178 1 105.0 1.6971065267753178 1
gene  1 10 8 -2.053528765831173 1 107.0 -2.053528765831173 1
gene  1 3 9 -2.432099222663364 0 114.0 -2.432099222663364 1
gene  1 6 9 -1.9043416455228304 0 117.0 -1.9043416455228304 1
gene  1 8 9 2.9893188431771587 0 119.0 2.9893188431771587 1
gene  1 10 9 2.1384491333017417 1 121.0 2.1384491333017417 1
gene  1 11 9 -3.37977714090942 1 122.0 -3.37977714090942 1
gene  1 13 9 0.9799106312543523 1 124.0 0.9799106312543523 1
gene  1 14 9 -0.5616030716855036 1 125.0 -0.5616030716855036 1
gene  1 1 10 1.2078787455263549 0 126.0 1.2078787455263549 1
gene  1 3 10 -0.8034481752299144 0 128.0 -0.8034481752299144 1
gene  1 4 10 -0.49704210357500134 0 129.0 -0.49704210357500134 1
gene  1 5 10 1.4507000967793857 0 130.0 1.4507000967793857 1
gene  1 9 10 -0.8171716392993431 0 134.0 -0.8171716392993431 1
gene  1 13 10 -1.0082515939005678 1 138.0 -1.0082515939005678 1
gene  1 1 11 2.5800200071204253 0 140.0 2.5800200071204253 1
gene  1 3 11 -0.15267830878951272 0 142.0 -0.15267830878951272 1
gene  1 5 11 0.4794144647155718 0 144.0 0.4794144647155718 1
gene  1 9 11 -0.7592656342141061 0 148.0 -0.7592656342141061 1
gene  1 10 11 1.9089311941319123 0 149.0 1.9089311941319123 1
gene  1 12 11 0.03178415035168691 1 151.0 0.03178415035168691 1
gene  1 14 11 -1.4449900425082376 1 153.0 -1.4449900425082376 1
gene  1 2 12 -0.6548888975963512 0 155.0 -0.6548888975963512 1
gene  1 4 12 -1.4374449723455935 0 157.0 -1.4374449723455935 1
gene  1 6 12 -0.7689196003718337 0 159.0 -0.7689196003718337 1
gene  1 7 12 2.7614110189965855 0 160.0 2.7614110189965855 1
gene  1 9 12 0.8380766216149895 0 162.0 0.8380766216149895 1
gene  1 10 12 -1.252929016303483 0 163.0 -1.252929016303483 1
gene  1 12 12 -1.5758635840489226 1 165.0 -1.5758635840489226 1
gene  1 14 12 0.36104245662047685 1 167.0 0.36104245662047685 1
gene  1 1 13 0.597594816503323 0 168.0 0.597594816503323 1
gene  1 3 13 -0.9964136108914653 0 170.0 -0.9964136108914653 1
gene  1 4 13 0.326007550306467 0 171.0 0.326007550306467 1
gene  1 6 13 0.2589251281492423 0 173.0 0.2589251281492423 1
gene  1 8 13 -0.13629573734124567 0 175.0 -0.13629573734124567 1
gene  1 9 13 2.804495085962056 0 176.0 2.804495085962056 1
gene  1 8 14 -0.6533319997342584 0 189.0 -0.6533319997342584 1
gene  1 11 14 -1.8952556245741536 0 192.0 -1.8952556245741536 1
genomeend 19
