genomestart  0
trait 1 0.0 0.29964541126798605 0.0 0.5917793035862625 0.0 0.5239379551513967 0.8464040429162474 0.9121227953336634 
node 1 1 1 1
node 2 1 1 1
node 3 1 1 1
node 4 1 1 1
node 5 1 1 1
node 6 1 1 1
node 7 1 1 3
node 13 1 0 2
node 14 1 0 2
node 19 1 0 0
node 33 1 0 0
node 41 1 0 0
node 45 1 0 0
gene  1 1 13 -0.5208995577780913 0 168.0 -0.5208995577780913 1
gene  1 3 13 2.3976471456206574 0 170.0 2.3976471456206574 1
gene  1 5 13 1.980846013400879 0 172.0 1.980846013400879 1
gene  1 6 13 -1.5487428690949159 0 173.0 -1.5487428690949159 1
gene  1 14 13 11.324690526003792 1 181.0 11.324690526003792 1
gene  1 1 14 0.6038968999598968 0 182.0 0.6038968999598968 1
gene  1 2 14 2.868683855603942 0 183.0 2.868683855603942 1
gene  1 4 14 1.774990665496816 0 185.0 1.774990665496816 1
gene  1 5 14 -1.6688913858615915 0 186.0 -1.6688913858615915 1
gene  1 6 14 0.6044904577789216 0 187.0 0.6044904577789216 1
gene  1 7 14 -1.7569148015470673 0 188.0 -1.7569148015470673 1
gene  1 13 14 -9.096475061801733 0 194.0 -9.096475061801733 1
gene  1 14 14 -7.411208016382467 1 195.0 -7.411208016382467 1
gene  1 5 19 4.685831873351566 0 213.0 4.685831873351566 1
gene  1 19 13 2.8164260517062605 0 214.0 2.8164260517062605 1
gene  1 2 13 13.074241080554549 0 243.0 13.074241080554549 1
gene  1 6 19 -2.1870046610367124 0 257.0 -2.1870046610367124 1
gene  1 19 14 -2.3881476184910704 0 267.0 -2.3881476184910704 1
gene  1 14 33 4.956322290744527 1 268.0 4.956322290744527 1
gene  1 33 14 -4.253126630729786 0 269.0 -4.253126630729786 1
gene  1 4 13 -9.596948024769361 0 292.0 -9.596948024769361 1
gene  1 14 41 -2.370109304850009 1 315.0 -2.370109304850009 1
gene  1 41 13 4.695665770909176 0 316.0 4.695665770909176 1
gene  1 5 45 0.9260119682182664 0 338.0 0.9260119682182664 1
gene  1 45 14 1.7494755268964455 0 339.0 1.7494755268964455 1
genomeend 0
genomestart  1
trait 1 0.0 0.29964541126798605 0.0 0.5917793035862625 0.0 0.5239379551513967 0.8464040429162474 0.9121227953336634 
node 1 1 1 1
node 2 1 1 1
node 3 1 1 1
node 4 1 1 1
node 5 1 1 1
node 6 1 1 1
node 7 1 1 3
node 13 1 0 2
node 14 1 0 2
node 19 1 0 0
node 33 1 0 0
node 41 1 0 0
node 45 1 0 0
gene  1 1 13 -0.20429883870538523 0 168.0 -0.20429883870538523 1
gene  1 3 13 3.4264961596643086 0 170.0 3.4264961596643086 1
gene  1 5 13 -0.35975069253804803 0 172.0 -0.35975069253804803 1
gene  1 6 13 0.42745442846071136 0 173.0 0.42745442846071136 1
gene  1 14 13 13.08334295723744 1 181.0 13.08334295723744 1
gene  1 1 14 -0.6473961972095226 0 182.0 -0.6473961972095226 1
gene  1 2 14 0.92987912709832 0 183.0 0.92987912709832 1
gene  1 4 14 0.18058660841538043 0 185.0 0.18058660841538043 1
gene  1 5 14 -2.654086382085706 0 186.0 -2.654086382085706 1
gene  1 6 14 -1.30043510945998 0 187.0 -1.30043510945998 1
gene  1 7 14 -1.9359550926237925 0 188.0 -1.9359550926237925 1
gene  1 13 14 -9.026710725919624 0 194.0 -9.026710725919624 1
gene  1 14 14 -9.689253194047316 1 195.0 -9.689253194047316 1
gene  1 5 19 3.7784551024646875 0 213.0 3.7784551024646875 1
gene  1 19 13 2.8240423855562757 0 214.0 2.8240423855562757 1
gene  1 2 13 12.034572178416774 0 243.0 12.034572178416774 1
gene  1 6 19 -2.8281784367784115 0 257.0 -2.8281784367784115 1
gene  1 19 14 -4.87235471662779 0 267.0 -4.87235471662779 1
gene  1 14 33 5.632154667003536 1 268.0 5.632154667003536 1
gene  1 33 14 -6.4949963030240045 0 269.0 -6.4949963030240045 1
gene  1 4 13 -9.015323512402047 0 292.0 -9.015323512402047 1
gene  1 14 41 -1.8453735775239746 1 315.0 -1.8453735775239746 1
gene  1 41 13 2.2929395629775704 0 316.0 2.2929395629775704 1
gene  1 5 45 3.0878673867377184 0 338.0 3.0878673867377184 1
gene  1 45 14 -0.07885525837323182 0 339.0 -0.07885525837323182 1
gene  1 7 41 -9.154939369771114 0 396.0 -9.154939369771114 1
genomeend 1
genomestart  2
trait 1 1.1756336028754273 1.559738843652866 1.1151568346067857 0.0 0.9717650480871391 1.0290111265680415 0.6793983389774335 1.790124103969837 
node 1 1 1 1
node 2 1 1 1
node 3 1 1 1
node 4 1 1 1
node 5 1 1 1
node 6 1 1 1
node 7 1 1 3
node 13 1 0 2
node 14 1 0 2
node 24 1 0 0
node 36 1 0 0
gene  1 2 13 0.2646021483942673 0 169.0 0.2646021483942673 1
gene  1 3 13 0.8103146938159554 0 170.0 0.8103146938159554 1
gene  1 4 13 6.118657120662891 0 171.0 6.118657120662891 1
gene  1 6 13 2.2796579279884828 0 173.0 2.2796579279884828 1
gene  1 7 13 0.1392441846544591 0 174.0 0.1392441846544591 1
gene  1 13 13 4.406113303816729 1 180.0 4.406113303816729 1
gene  1 1 14 -1.1728198360067115 0 182.0 -1.1728198360067115 1
gene  1 2 14 4.540566834688485 0 183.0 4.540566834688485 1
gene  1 5 14 6.125442401131573 0 186.0 6.125442401131573 1
gene  1 6 14 3.7911650313678584 0 187.0 3.7911650313678584 1
gene  1 7 14 0.27224046265400004 0 188.0 0.27224046265400004 1
gene  1 13 14 0.9785902670508857 0 194.0 0.9785902670508857 1
gene  1 14 14 1.7543039726568024 1 195.0 1.7543039726568024 1
gene  1 2 24 0.7605423990573352 0 226.0 0.7605423990573352 1
gene  1 24 13 4.361531503495872 0 227.0 4.361531503495872 1
gene  1 7 24 12.342859951810835 0 245.0 12.342859951810835 1
gene  1 1 24 0.12171337937061733 0 249.0 0.12171337937061733 1
gene  1 4 14 1.4761479583851762 0 280.0 1.4761479583851762 1
gene  1 4 36 -10.254936200901984 0 293.0 -10.254936200901984 1
gene  1 36 14 3.586821463084065 0 294.0 3.586821463084065 1
gene  1 7 36 -0.3925427663444378 0 301.0 -0.3925427663444378 1
gene  1 3 36 1.1302711948028237 0 313.0 1.1302711948028237 1
gene  1 24 36 1.2538252187890568 0 345.0 1.2538252187890568 1
gene  1 5 13 -3.7578861079862267 0 374.0 -3.7578861079862267 1
genomeend 2
genomestart  3
trait 1 1.1756336028754273 1.559738843652866 1.1151568346067857 0.0 0.9717650480871391 1.0290111265680415 0.6793983389774335 1.790124103969837 
node 1 1 1 1
node 2 1 1 1
node 3 1 1 1
node 4 1 1 1
node 5 1 1 1
node 6 1 1 1
node 7 1 1 3
node 13 1 0 2
node 14 1 0 2
node 24 1 0 0
node 36 1 0 0
gene  1 2 13 -0.38354729724555314 0 169.0 -0.38354729724555314 1
gene  1 3 13 -0.4205968834771645 0 170.0 -0.4205968834771645 1
gene  1 4 13 9.88094406535582 0 171.0 9.88094406535582 1
gene  1 6 13 1.8486762540602313 0 173.0 1.8486762540602313 1
gene  1 7 13 1.5516909934654735 0 174.0 1.5516909934654735 1
gene  1 13 13 2.8286670531746734 1 180.0 2.8286670531746734 1
gene  1 1 14 -4.301845999484933 0 182.0 -4.301845999484933 1
gene  1 2 14 8.659401482304741 0 183.0 8.659401482304741 1
gene  1 5 14 3.676624594615711 0 186.0 3.676624594615711 1
gene  1 6 14 3.0892719983167427 0 187.0 3.0892719983167427 1
gene  1 7 14 1.561476895353048 0 188.0 1.561476895353048 1
gene  1 13 14 0.0323484930494895 0 194.0 0.0323484930494895 1
gene  1 14 14 2.9601143982479066 1 195.0 2.9601143982479066 1
gene  1 2 24 1.4606323914706247 0 226.0 1.4606323914706247 1
gene  1 24 13 3.9918351061453934 0 227.0 3.9918351061453934 1
gene  1 7 24 11.060842101266855 0 245.0 11.060842101266855 1
gene  1 1 24 -2.2784995294573536 0 249.0 -2.2784995294573536 1
gene  1 4 14 4.04705693506647 0 280.0 4.04705693506647 1
gene  1 4 36 -9.11923783519538 0 293.0 -9.11923783519538 1
gene  1 36 14 -0.010979213340634786 0 294.0 -0.010979213340634786 1
gene  1 7 36 -2.2748615491799926 0 301.0 -2.2748615491799926 1
gene  1 3 36 1.4941938089265894 0 313.0 1.4941938089265894 1
gene  1 24 36 1.4331694441822918 0 345.0 1.4331694441822918 1
gene  1 5 13 -1.2303700146379803 0 374.0 -1.2303700146379803 1
genomeend 3
genomestart  4
trait 1 0.5881716647646825 0.21357948226159307 1.8564835101802153 0.8861824623786819 0.0 1.3132693424315245 1.6423806715703035 0.004307252023895924 
node 1 1 1 1
node 2 1 1 1
node 3 1 1 1
node 4 1 1 1
node 5 1 1 1
node 6 1 1 1
node 7 1 1 3
node 8 1 0 0
node 9 1 0 0
node 10 1 0 0
node 11 1 0 0
node 13 1 0 2
node 14 1 0 2
gene  1 2 8 -2.447402569759 0 99.0 -2.447402569759 1
gene  1 6 8 -4.620232403025442 0 103.0 -4.620232403025442 1
gene  1 8 8 -3.040595119147353 1 105.0 -3.040595119147353 1
gene  1 9 8 5.168484633653359 1 106.0 5.168484633653359 1
gene  1 10 8 8.891299347988852 1 107.0 8.891299347988852 1
gene  1 11 8 2.6406882773047866 1 108.0 2.6406882773047866 1
gene  1 13 8 -1.1887474927047588 1 110.0 -1.1887474927047588 1
gene  1 14 8 -0.5840875183328469 1 111.0 -0.5840875183328469 1
gene  1 1 9 -1.986951917479176 0 112.0 -1.986951917479176 1
gene  1 2 9 -2.596010368765464 0 113.0 -2.596010368765464 1
gene  1 3 9 6.468300421048599 0 114.0 6.468300421048599 1
gene  1 6 9 -2.301824973922374 0 117.0 -2.301824973922374 1
gene  1 7 9 -2.1580586849387413 0 118.0 -2.1580586849387413 1
gene  1 8 9 1.252685940072134 0 119.0 1.252685940072134 1
gene  1 9 9 -2.703070528339123 1 120.0 -2.703070528339123 1
gene  1 11 9 0.7457663243865401 1 122.0 0.7457663243865401 1
gene  1 13 9 -0.6917024562018028 1 124.0 -0.6917024562018028 1
gene  1 14 9 2.0334147231327386 1 125.0 2.0334147231327386 1
gene  1 1 10 -2.5559475550833173 0 126.0 -2.5559475550833173 1
gene  1 3 10 1.4595457874904576 0 128.0 1.4595457874904576 1
gene  1 4 10 -1.3477323463836643 0 129.0 -1.3477323463836643 1
gene  1 5 10 -1.8342673627942405 0 130.0 -1.8342673627942405 1
gene  1 6 10 -3.488543563399049 0 131.0 -3.488543563399049 1
gene  1 10 10 0.22891289836227063 1 135.0 0.22891289836227063 1
gene  1 11 10 -0.6525923118161354 1 136.0 -0.6525923118161354 1
gene  1 14 10 -4.9118521148325955 1 139.0 -4.9118521148325955 1
gene  1 1 11 -4.923229203550682 0 140.0 -4.923229203550682 1
gene  1 3 11 -1.0765978792720652 0 142.0 -1.0765978792720652 1
gene  1 5 11 -7.822966749649127 0 144.0 -7.822966749649127 1
gene  1 6 11 0.08992886449631038 0 145.0 0.08992886449631038 1
gene  1 7 11 8.00869081319405 0 146.0 8.00869081319405 1
gene  1 8 11 -3.148443691113301 0 147.0 -3.148443691113301 1
gene  1 9 11 1.620678434448695 0 148.0 1.620678434448695 1
gene  1 10 11 0.9419833203437993 0 149.0 0.9419833203437993 1
gene  1 11 11 3.071042991942387 1 150.0 3.071042991942387 1
gene  1 1 13 -0.1462594655887497 0 168.0 -0.1462594655887497 1
gene  1 2 13 0.5542650351049339 0 169.0 0.5542650351049339 1
gene  1 3 13 -1.2317152235212958 0 170.0 -1.2317152235212958 1
gene  1 7 13 -1.9093247943951768 0 174.0 -1.9093247943951768 1
gene  1 11 13 2.010467169566523 0 178.0 2.010467169566523 1
gene  1 13 13 3.164808108744956 1 180.0 3.164808108744956 1
gene  1 2 14 -3.256485373514723 0 183.0 -3.256485373514723 1
gene  1 3 14 -7.01529528792834 0 184.0 -7.01529528792834 1
gene  1 4 14 3.6122420280914946 0 185.0 3.6122420280914946 1
gene  1 7 14 3.486366847755846 0 188.0 3.486366847755846 1
gene  1 8 14 -2.9705034722186427 0 189.0 -2.9705034722186427 1
gene  1 10 14 3.2527658740186984 0 191.0 3.2527658740186984 1
gene  1 13 14 0.6208441517442778 0 194.0 0.6208441517442778 1
gene  1 5 13 0.1450881497986828 0 198.0 0.1450881497986828 1
gene  1 4 9 2.1859127345514215 0 200.0 2.1859127345514215 1
gene  1 8 13 -0.03698236556029216 0 248.0 -0.03698236556029216 1
gene  1 7 10 0.8950952805413297 0 270.0 0.8950952805413297 1
gene  1 9 10 -0.38726638906924227 0 274.0 -0.38726638906924227 1
gene  1 9 13 1.4877910772795058 0 288.0 1.4877910772795058 1
gene  1 5 14 -1.7422416015390194 0 328.0 -1.7422416015390194 1
gene  1 2 10 4.743525775036959 0 357.0 4.743525775036959 1
gene  1 6 14 1.6954092424448843 0 388.0 1.6954092424448843 1
genomeend 4
genomestart  5
trait 1 0.5881716647646825 1.0557985000358252 1.8564835101802153 0.5050160712141273 0.0 0.848052698667654 1.6423806715703035 0.0 
node 1 1 1 1
node 2 1 1 1
node 3 1 1 1
node 4 1 1 1
node 5 1 1 1
node 6 1 1 1
node 7 1 1 3
node 8 1 0 0
node 9 1 0 0
node 10 1 0 0
node 11 1 0 0
node 13 1 0 2
node 14 1 0 2
gene  1 2 8 -1.792237653927552 0 99.0 -1.792237653927552 1
gene  1 6 8 0.19878218242684487 0 103.0 0.19878218242684487 1
gene  1 8 8 -1.2837543663909508 1 105.0 -1.2837543663909508 1
gene  1 9 8 4.8844483384060995 1 106.0 4.8844483384060995 1
gene  1 10 8 7.049727896821536 1 107.0 7.049727896821536 1
gene  1 11 8 -1.5607470287295824 1 108.0 -1.5607470287295824 1
gene  1 13 8 -1.4324944836445366 1 110.0 -1.4324944836445366 1
gene  1 14 8 -1.9873577824904258 1 111.0 -1.9873577824904258 1
gene  1 1 9 -0.027192771189904208 0 112.0 -0.027192771189904208 1
gene  1 2 9 -3.4545687251936834 0 113.0 -3.4545687251936834 1
gene  1 3 9 0.07412880829716223 0 114.0 0.07412880829716223 1
gene  1 6 9 -3.748661656757167 0 117.0 -3.748661656757167 1
gene  1 7 9 -0.9489509830727499 0 118.0 -0.9489509830727499 1
gene  1 8 9 1.30310887692263 0 119.0 1.30310887692263 1
gene  1 9 9 -2.4152533493482764 1 120.0 -2.4152533493482764 1
gene  1 11 9 3.9212158147770997 1 122.0 3.9212158147770997 1
gene  1 13 9 0.2733033496752632 1 124.0 0.2733033496752632 1
gene  1 14 9 -1.463871259500598 1 125.0 -1.463871259500598 1
gene  1 1 10 -4.711230343269381 0 126.0 -4.711230343269381 1
gene  1 3 10 1.3616539880211578 0 128.0 1.3616539880211578 1
gene  1 4 10 2.3637539983316262 0 129.0 2.3637539983316262 1
gene  1 5 10 -0.10301772611394444 0 130.0 -0.10301772611394444 1
gene  1 6 10 -0.2674972732238798 0 131.0 -0.2674972732238798 1
gene  1 10 10 0.19971000804219924 1 135.0 0.19971000804219924 1
gene  1 11 10 1.8915920813938112 1 136.0 1.8915920813938112 1
gene  1 14 10 -2.2364320779760525 1 139.0 -2.2364320779760525 1
gene  1 1 11 -3.4056859416796663 0 140.0 -3.4056859416796663 1
gene  1 3 11 1.04952929086079 0 142.0 1.04952929086079 1
gene  1 5 11 -3.5719547156924225 0 144.0 -3.5719547156924225 1
gene  1 6 11 -1.2676280939112348 0 145.0 -1.2676280939112348 1
gene  1 7 11 1.3562202752655306 0 146.0 1.3562202752655306 1
gene  1 8 11 -2.0603280919928006 0 147.0 -2.0603280919928006 1
gene  1 9 11 -0.36359281049821135 0 148.0 -0.36359281049821135 1
gene  1 10 11 0.21598312475551162 0 149.0 0.21598312475551162 1
gene  1 11 11 2.346857168071609 1 150.0 2.346857168071609 1
gene  1 1 13 0.7438641791056284 0 168.0 0.7438641791056284 1
gene  1 2 13 -1.0532124196974704 0 169.0 -1.0532124196974704 1
gene  1 3 13 -1.6579571159220663 0 170.0 -1.6579571159220663 1
gene  1 7 13 -0.3153130036462899 0 174.0 -0.3153130036462899 1
gene  1 11 13 3.9497779156401736 0 178.0 3.9497779156401736 1
gene  1 13 13 1.5135289040079907 1 180.0 1.5135289040079907 1
gene  1 2 14 -5.173323134671887 0 183.0 -5.173323134671887 1
gene  1 3 14 -8.03854393637673 0 184.0 -8.03854393637673 1
gene  1 4 14 1.5339570453256721 0 185.0 1.5339570453256721 1
gene  1 7 14 5.8658675922942205 0 188.0 5.8658675922942205 1
gene  1 8 14 0.20560464023996916 0 189.0 0.20560464023996916 1
gene  1 10 14 2.0637251089188777 0 191.0 2.0637251089188777 1
gene  1 13 14 2.2553432105652256 0 194.0 2.2553432105652256 1
gene  1 5 13 -2.4406464146582176 0 198.0 -2.4406464146582176 1
gene  1 4 9 4.086593225710119 0 200.0 4.086593225710119 1
gene  1 8 13 -1.2615600599761492 0 248.0 -1.2615600599761492 1
gene  1 7 10 2.2406868973015213 0 270.0 2.2406868973015213 1
gene  1 9 10 -1.9137507871873436 0 274.0 -1.9137507871873436 1
gene  1 9 13 1.4877910772795058 0 288.0 1.4877910772795058 1
gene  1 5 14 -2.172495527087733 0 328.0 -2.172495527087733 1
gene  1 2 10 5.041177494738495 0 357.0 5.041177494738495 1
gene  1 6 14 1.3551307523075937 0 388.0 1.3551307523075937 1
genomeend 5
genomestart  6
trait 1 0.7748407867188624 0.0 0.0 0.0 1.7799059348361965 1.021634367088284 0.7227535952013976 0.03711240661335824 
node 1 1 1 1
node 2 1 1 1
node 3 1 1 1
node 4 1 1 1
node 5 1 1 1
node 6 1 1 1
node 7 1 1 3
node 8 1 0 0
node 13 1 0 2
node 14 1 0 2
node 16 1 0 0
node 20 1 0 0
node 50 1 0 0
node 55 1 0 0
gene  1 1 8 3.7765978799140765 0 98.0 3.7765978799140765 1
gene  1 2 8 0.3806736590766213 0 99.0 0.3806736590766213 1
gene  1 3 8 4.868327884842603 0 100.0 4.868327884842603 1
gene  1 4 8 -5.428044100958104 0 101.0 -5.428044100958104 1
gene  1 5 8 -4.85128649189402 0 102.0 -4.85128649189402 1
gene  1 6 8 -7.683888069097699 0 103.0 -7.683888069097699 1
gene  1 8 8 -3.244418623545421 1 105.0 -3.244418623545421 1
gene  1 13 8 -11.113473957722892 1 110.0 -11.113473957722892 1
gene  1 14 8 -8.701536369453205 1 111.0 -8.701536369453205 1
gene  1 3 13 0.9305337682970334 0 170.0 0.9305337682970334 1
gene  1 5 13 4.04814795450645 0 172.0 4.04814795450645 1
gene  1 7 13 -0.041638176636251245 0 174.0 -0.041638176636251245 1
gene  1 13 13 2.3714031643844513 1 180.0 2.3714031643844513 1
gene  1 2 14 -4.3170982130500555 0 183.0 -4.3170982130500555 1
gene  1 4 14 -2.136634479238875 0 185.0 -2.136634479238875 1
gene  1 6 14 -1.206486180014394 0 187.0 -1.206486180014394 1
gene  1 8 14 0.9536919487140603 0 189.0 0.9536919487140603 1
gene  1 13 14 -14.196141623030432 0 194.0 -14.196141623030432 1
gene  1 13 16 -2.337314807617789 0 201.0 -2.337314807617789 1
gene  1 16 14 2.268557130350846 0 202.0 2.268557130350846 0
gene  1 3 20 1.3634132751407835 0 215.0 1.3634132751407835 0
gene  1 20 8 -6.338294371528898 0 216.0 -6.338294371528898 1
gene  1 8 13 -4.623534666215394 0 233.0 -4.623534666215394 1
gene  1 2 16 1.216366225916732 0 324.0 1.216366225916732 1
gene  1 2 20 -5.2293074844580225 0 333.0 -5.2293074844580225 1
gene  1 7 8 -5.025509598049536 0 352.0 -5.025509598049536 1
gene  1 16 50 -0.4548678060783886 0 364.0 -0.4548678060783886 1
gene  1 50 14 -0.944224404517332 0 365.0 -0.944224404517332 1
gene  1 3 55 0.8758630307931948 0 379.0 0.8758630307931948 1
gene  1 55 20 -0.10766516722866787 0 380.0 -0.10766516722866787 1
genomeend 6
genomestart  7
trait 1 0.7748407867188624 0.0 0.0 0.0 1.7799059348361965 1.021634367088284 0.7227535952013976 0.03711240661335824 
node 1 1 1 1
node 2 1 1 1
node 3 1 1 1
node 4 1 1 1
node 5 1 1 1
node 6 1 1 1
node 7 1 1 3
node 8 1 0 0
node 13 1 0 2
node 14 1 0 2
node 16 1 0 0
node 20 1 0 0
node 50 1 0 0
node 55 1 0 0
gene  1 1 8 2.213448116075575 0 98.0 2.213448116075575 1
gene  1 2 8 -0.22664918801692363 0 99.0 -0.22664918801692363 1
gene  1 3 8 4.106301179436478 0 100.0 4.106301179436478 1
gene  1 4 8 -3.329645943151201 0 101.0 -3.329645943151201 1
gene  1 5 8 -5.4237646366141 0 102.0 -5.4237646366141 1
gene  1 6 8 -3.868870699058016 0 103.0 -3.868870699058016 1
gene  1 8 8 -1.1658611947592434 1 105.0 -1.1658611947592434 1
gene  1 13 8 -13.114956902411116 1 110.0 -13.114956902411116 1
gene  1 14 8 -8.96095092429005 1 111.0 -8.96095092429005 1
gene  1 3 13 3.4550707133921943 0 170.0 3.4550707133921943 1
gene  1 5 13 1.5202156568646625 0 172.0 1.5202156568646625 1
gene  1 7 13 -0.051394489377804664 0 174.0 -0.051394489377804664 1
gene  1 13 13 0.6870837417708329 1 180.0 0.6870837417708329 1
gene  1 2 14 -4.694162249897657 0 183.0 -4.694162249897657 1
gene  1 4 14 -2.147389709884745 0 185.0 -2.147389709884745 1
gene  1 6 14 0.251893337317342 0 187.0 0.251893337317342 1
gene  1 8 14 -0.736832558642635 0 189.0 -0.736832558642635 1
gene  1 13 14 -14.849998093545699 0 194.0 -14.849998093545699 1
gene  1 13 16 -1.962683928010966 0 201.0 -1.962683928010966 1
gene  1 16 14 1.4910220800791665 0 202.0 1.4910220800791665 1
gene  1 3 20 -0.48118799553618585 0 215.0 -0.48118799553618585 1
gene  1 20 8 -5.637534846637725 0 216.0 -5.637534846637725 1
gene  1 8 13 -5.060328488033501 0 233.0 -5.060328488033501 1
gene  1 2 16 -3.403451856461559 0 324.0 -3.403451856461559 1
gene  1 2 20 -4.933585548197536 0 333.0 -4.933585548197536 1
gene  1 7 8 -0.9498190509931184 0 352.0 -0.9498190509931184 1
gene  1 16 50 -2.0094770923466596 0 364.0 -2.0094770923466596 1
gene  1 50 14 -0.024412511605866882 0 365.0 -0.024412511605866882 1
gene  1 3 55 1.4339974892111225 0 379.0 1.4339974892111225 1
gene  1 55 20 -0.14071606016876892 0 380.0 -0.14071606016876892 1
genomeend 7
genomestart  8
trait 1 0.0 0.2763675853393155 0.2647539208127345 0.7948206016704883 0.5668155252003936 0.9714201015196656 0.0 0.6764016660929384 
node 1 1 1 1
node 2 1 1 1
node 3 1 1 1
node 4 1 1 1
node 5 1 1 1
node 6 1 1 1
node 7 1 1 3
node 8 1 0 0
node 9 1 0 0
node 10 1 0 0
node 13 1 0 2
node 14 1 0 2
node 21 1 0 0
node 29 1 0 0
node 52 1 0 0
node 53 1 0 0
gene  1 1 8 -1.834564461740735 0 98.0 -1.834564461740735 1
gene  1 3 8 -0.8111370817535148 0 100.0 -0.8111370817535148 1
gene  1 5 8 1.292533198860534 0 102.0 1.292533198860534 1
gene  1 6 8 1.096498264216573 0 103.0 1.096498264216573 1
gene  1 8 8 2.3034961970595726 1 105.0 2.3034961970595726 1
gene  1 1 9 -1.4930951691500305 0 112.0 -1.4930951691500305 1
gene  1 2 9 -0.5677684433595875 0 113.0 -0.5677684433595875 1
gene  1 3 9 -2.550182001521362 0 114.0 -2.550182001521362 1
gene  1 5 9 -1.7566062656445178 0 116.0 -1.7566062656445178 1
gene  1 7 9 -1.1831570539213883 0 118.0 -1.1831570539213883 1
gene  1 9 9 0.2400329299365711 1 120.0 0.2400329299365711 1
gene  1 10 9 -3.7761063648631215 1 121.0 -3.7761063648631215 1
gene  1 13 9 2.4940164891481507 1 124.0 2.4940164891481507 1
gene  1 2 10 9.165715325678644 0 127.0 9.165715325678644 1
gene  1 4 10 -1.4106680884881935 0 129.0 -1.4106680884881935 1
gene  1 5 10 -6.22189272439413 0 130.0 -6.22189272439413 1
gene  1 8 10 0.2801838659665565 0 133.0 0.2801838659665565 1
gene  1 9 10 -2.476725048638756 0 134.0 -2.476725048638756 1
gene  1 10 10 0.5355841128025601 1 135.0 0.5355841128025601 1
gene  1 13 10 6.9642837478844095 1 138.0 6.9642837478844095 1
gene  1 14 10 2.076198879639456 1 139.0 2.076198879639456 1
gene  1 2 13 5.9712246181717585 0 169.0 5.9712246181717585 1
gene  1 3 13 0.6653294637881131 0 170.0 0.6653294637881131 1
gene  1 6 13 -2.0519717812312472 0 173.0 -2.0519717812312472 1
gene  1 7 13 -0.48342040257639385 0 174.0 -0.48342040257639385 1
gene  1 9 13 5.116085389933205 0 176.0 5.116085389933205 1
gene  1 13 13 -3.290020732807673 1 180.0 -3.290020732807673 1
gene  1 14 13 -3.5773303307609945 1 181.0 -3.5773303307609945 1
gene  1 1 14 10.159595424325293 0 182.0 10.159595424325293 1
gene  1 3 14 -5.839533363874791 0 184.0 -5.839533363874791 1
gene  1 9 14 -3.3801660260371498 0 190.0 -3.3801660260371498 0
gene  1 10 14 -2.0387485805407652 0 191.0 -2.0387485805407652 1
gene  1 1 21 -0.34445076939432884 0 218.0 -0.34445076939432884 1
gene  1 21 8 8.156761509397306 0 219.0 8.156761509397306 1
gene  1 3 10 0.7540931713816155 0 223.0 0.7540931713816155 1
gene  1 6 29 -1.2691718636532705 0 259.0 -1.2691718636532705 1
gene  1 29 8 1.8727609538883505 0 260.0 1.8727609538883505 1
gene  1 29 21 1.9799380963809523 0 271.0 1.9799380963809523 1
gene  1 3 21 -6.027918678701813 0 300.0 -6.027918678701813 1
gene  1 9 52 -2.917054131899359 0 368.0 -2.917054131899359 1
gene  1 52 14 -2.025936204145154 0 369.0 -2.025936204145154 1
gene  1 1 53 2.3664631944560384 0 372.0 2.3664631944560384 1
gene  1 53 21 3.8923331951265343 0 373.0 3.8923331951265343 1
genomeend 8
genomestart  9
trait 1 0.0 0.2763675853393155 0.2647539208127345 0.7948206016704883 0.5668155252003936 0.9714201015196656 0.0 0.6764016660929384 
node 1 1 1 1
node 2 1 1 1
node 3 1 1 1
node 4 1 1 1
node 5 1 1 1
node 6 1 1 1
node 7 1 1 3
node 8 1 0 0
node 9 1 0 0
node 10 1 0 0
node 13 1 0 2
node 14 1 0 2
node 21 1 0 0
node 29 1 0 0
node 52 1 0 0
node 53 1 0 0
gene  1 1 8 0.3257592191467642 0 98.0 0.3257592191467642 1
gene  1 3 8 -4.660305462465371 0 100.0 -4.660305462465371 1
gene  1 5 8 -1.3655177179786018 0 102.0 -1.3655177179786018 1
gene  1 6 8 0.2641650809390692 0 103.0 0.2641650809390692 1
gene  1 8 8 4.005865410851334 1 105.0 4.005865410851334 1
gene  1 1 9 -4.386209167633572 0 112.0 -4.386209167633572 1
gene  1 2 9 1.7577574788889727 0 113.0 1.7577574788889727 1
gene  1 3 9 0.3191349292227461 0 114.0 0.3191349292227461 1
gene  1 5 9 0.2074331575460534 0 116.0 0.2074331575460534 1
gene  1 7 9 0.6929970766144045 0 118.0 0.6929970766144045 1
gene  1 9 9 2.6375792580161006 1 120.0 2.6375792580161006 1
gene  1 10 9 -5.538966159699282 1 121.0 -5.538966159699282 1
gene  1 13 9 2.4087859695887257 1 124.0 2.4087859695887257 1
gene  1 2 10 6.883162236586911 0 127.0 6.883162236586911 1
gene  1 4 10 -3.2703073298359913 0 129.0 -3.2703073298359913 1
gene  1 5 10 -7.750890848247337 0 130.0 -7.750890848247337 1
gene  1 8 10 -5.823265856468222 0 133.0 -5.823265856468222 1
gene  1 9 10 -1.287359467290162 0 134.0 -1.287359467290162 1
gene  1 10 10 -3.273377744276128 1 135.0 -3.273377744276128 1
gene  1 13 10 7.7642592500714525 1 138.0 7.7642592500714525 1
gene  1 14 10 -1.5428733128089207 1 139.0 -1.5428733128089207 1
gene  1 2 13 4.5959921377178885 0 169.0 4.5959921377178885 1
gene  1 3 13 -1.4352968105136235 0 170.0 -1.4352968105136235 1
gene  1 6 13 -1.3866601657097983 0 173.0 -1.3866601657097983 1
gene  1 7 13 -1.013652483430628 0 174.0 -1.013652483430628 1
gene  1 9 13 2.381957494482139 0 176.0 2.381957494482139 1
gene  1 13 13 -6.331423770496359 1 180.0 -6.331423770496359 1
gene  1 14 13 -6.704064715163718 1 181.0 -6.704064715163718 1
gene  1 1 14 7.582454101112345 0 182.0 7.582454101112345 1
gene  1 3 14 -1.0885699242687772 0 184.0 -1.0885699242687772 1
gene  1 9 14 -5.143221029038072 0 190.0 -5.143221029038072 0
gene  1 10 14 -8.207125988956674 0 191.0 -8.207125988956674 1
gene  1 1 21 -1.0726470025886388 0 218.0 -1.0726470025886388 1
gene  1 21 8 6.621981793239511 0 219.0 6.621981793239511 1
gene  1 3 10 -2.542313296985117 0 223.0 -2.542313296985117 1
gene  1 6 29 2.17527884210798 0 259.0 2.17527884210798 1
gene  1 29 8 -1.185487388653403 0 260.0 -1.185487388653403 1
gene  1 29 21 1.5990628124095458 0 271.0 1.5990628124095458 1
gene  1 3 21 1.403071019629993 0 300.0 1.403071019629993 1
gene  1 9 52 -1.189139565699521 0 368.0 -1.189139565699521 1
gene  1 52 14 -1.9122727537121418 0 369.0 -1.9122727537121418 1
gene  1 1 53 2.7686803939001035 0 372.0 2.7686803939001035 1
gene  1 53 21 5.889744042794686 0 373.0 5.889744042794686 1
genomeend 9
genomestart  10
trait 1 0.0 0.2763675853393155 0.2647539208127345 0.7948206016704883 0.5668155252003936 0.9714201015196656 0.0 0.6764016660929384 
node 1 1 1 1
node 2 1 1 1
node 3 1 1 1
node 4 1 1 1
node 5 1 1 1
node 6 1 1 1
node 7 1 1 3
node 8 1 0 0
node 9 1 0 0
node 10 1 0 0
node 13 1 0 2
node 14 1 0 2
node 21 1 0 0
node 29 1 0 0
node 52 1 0 0
node 53 1 0 0
gene  1 1 8 0.32237792322158865 0 98.0 0.32237792322158865 1
gene  1 3 8 -4.521091685980238 0 100.0 -4.521091685980238 1
gene  1 5 8 2.5362098275140896 0 102.0 2.5362098275140896 1
gene  1 6 8 -1.220529844560779 0 103.0 -1.220529844560779 1
gene  1 8 8 5.7391807516203555 1 105.0 5.7391807516203555 1
gene  1 1 9 -2.902675406670475 0 112.0 -2.902675406670475 1
gene  1 2 9 0.8585332734315383 0 113.0 0.8585332734315383 1
gene  1 3 9 -0.9598741862426998 0 114.0 -0.9598741862426998 1
gene  1 5 9 0.9933789433972362 0 116.0 0.9933789433972362 1
gene  1 7 9 -0.1691592493617169 0 118.0 -0.1691592493617169 1
gene  1 9 9 2.0168377205263974 1 120.0 2.0168377205263974 1
gene  1 10 9 -2.957948444234198 1 121.0 -2.957948444234198 1
gene  1 13 9 1.8127349304699107 1 124.0 1.8127349304699107 1
gene  1 2 10 9.205732975951399 0 127.0 9.205732975951399 1
gene  1 4 10 -3.385964498719053 0 129.0 -3.385964498719053 1
gene  1 5 10 -4.295207748180065 0 130.0 -4.295207748180065 1
gene  1 8 10 -4.416176961548843 0 133.0 -4.416176961548843 1
gene  1 9 10 -2.5999726483693966 0 134.0 -2.5999726483693966 1
gene  1 10 10 -5.259294290081526 1 135.0 -5.259294290081526 1
gene  1 13 10 9.078712004069441 1 138.0 9.078712004069441 1
gene  1 14 10 0.1412763607672467 1 139.0 0.1412763607672467 1
gene  1 2 13 4.965903165892353 0 169.0 4.965903165892353 1
gene  1 3 13 -1.6865148366157476 0 170.0 -1.6865148366157476 1
gene  1 6 13 -0.8852865498909979 0 173.0 -0.8852865498909979 1
gene  1 7 13 1.2282667005046957 0 174.0 1.2282667005046957 1
gene  1 9 13 5.09346538523792 0 176.0 5.09346538523792 1
gene  1 13 13 -6.100465499361883 1 180.0 -6.100465499361883 1
gene  1 14 13 -2.6853766925827207 1 181.0 -2.6853766925827207 1
gene  1 1 14 11.285703312630543 0 182.0 11.285703312630543 1
gene  1 3 14 -5.358349081300853 0 184.0 -5.358349081300853 1
gene  1 9 14 -5.2367628424160255 0 190.0 -5.2367628424160255 0
gene  1 10 14 -10.120064130993587 0 191.0 -10.120064130993587 1
gene  1 1 21 -1.864957352841639 0 218.0 -1.864957352841639 1
gene  1 21 8 3.74536677300637 0 219.0 3.74536677300637 1
gene  1 3 10 -1.5859064236380103 0 223.0 -1.5859064236380103 1
gene  1 6 29 -0.77153432005379 0 259.0 -0.77153432005379 1
gene  1 29 8 2.260552932902209 0 260.0 2.260552932902209 1
gene  1 29 21 4.790287574714114 0 271.0 4.790287574714114 1
gene  1 3 21 -0.7215502646240551 0 300.0 -0.7215502646240551 1
gene  1 9 52 -0.2073480865676599 0 368.0 -0.2073480865676599 1
gene  1 52 14 -0.23467004679026027 0 369.0 -0.23467004679026027 1
gene  1 1 53 1.5452853924953802 0 372.0 1.5452853924953802 1
gene  1 53 21 6.929597695929169 0 373.0 6.929597695929169 1
genomeend 10
genomestart  11
trait 1 0.0 0.2763675853393155 0.2647539208127345 0.7948206016704883 0.5668155252003936 0.9714201015196656 0.0 0.6764016660929384 
node 1 1 1 1
node 2 1 1 1
node 3 1 1 1
node 4 1 1 1
node 5 1 1 1
node 6 1 1 1
node 7 1 1 3
node 8 1 0 0
node 9 1 0 0
node 10 1 0 0
node 13 1 0 2
node 14 1 0 2
node 21 1 0 0
node 29 1 0 0
node 52 1 0 0
node 53 1 0 0
gene  1 1 8 -3.1258352456157223 0 98.0 -3.1258352456157223 1
gene  1 3 8 -6.832642674617121 0 100.0 -6.832642674617121 1
gene  1 5 8 2.367018547775057 0 102.0 2.367018547775057 1
gene  1 6 8 2.131158249905853 0 103.0 2.131158249905853 1
gene  1 8 8 5.318407712841353 1 105.0 5.318407712841353 1
gene  1 1 9 -4.147760131460316 0 112.0 -4.147760131460316 1
gene  1 2 9 -0.260280484096292 0 113.0 -0.260280484096292 1
gene  1 3 9 -1.8626851537360405 0 114.0 -1.8626851537360405 1
gene  1 5 9 1.0990563533948707 0 116.0 1.0990563533948707 1
gene  1 7 9 -2.6285753916756036 0 118.0 -2.6285753916756036 1
gene  1 9 9 1.7834411834035115 1 120.0 1.7834411834035115 1
gene  1 10 9 -4.860684494891929 1 121.0 -4.860684494891929 1
gene  1 13 9 1.14427785138743 1 124.0 1.14427785138743 1
gene  1 2 10 7.521503009714624 0 127.0 7.521503009714624 1
gene  1 4 10 0.9677688736674814 0 129.0 0.9677688736674814 1
gene  1 5 10 -5.376785648183023 0 130.0 -5.376785648183023 1
gene  1 8 10 -5.156281066560262 0 133.0 -5.156281066560262 1
gene  1 9 10 -1.549596383860171 0 134.0 -1.549596383860171 1
gene  1 10 10 -4.7378531279680836 1 135.0 -4.7378531279680836 1
gene  1 13 10 -0.6783463856535568 1 138.0 -0.6783463856535568 1
gene  1 14 10 0.08241816576019384 1 139.0 0.08241816576019384 1
gene  1 2 13 6.2856946893574825 0 169.0 6.2856946893574825 1
gene  1 3 13 -1.50849356057778 0 170.0 -1.50849356057778 1
gene  1 6 13 -1.6934229636954647 0 173.0 -1.6934229636954647 1
gene  1 7 13 2.1231094034079288 0 174.0 2.1231094034079288 1
gene  1 9 13 2.283748865173608 0 176.0 2.283748865173608 1
gene  1 13 13 -3.917170143730174 1 180.0 -3.917170143730174 1
gene  1 14 13 -3.097694204613618 1 181.0 -3.097694204613618 1
gene  1 1 14 0.6141675534558391 0 182.0 0.6141675534558391 1
gene  1 3 14 -3.6229843394364942 0 184.0 -3.6229843394364942 1
gene  1 9 14 -4.048316177944528 0 190.0 -4.048316177944528 0
gene  1 10 14 -7.724882136649556 0 191.0 -7.724882136649556 1
gene  1 1 21 -2.088510777873976 0 218.0 -2.088510777873976 1
gene  1 21 8 7.106784426785143 0 219.0 7.106784426785143 1
gene  1 3 10 -1.8192826708634622 0 223.0 -1.8192826708634622 1
gene  1 6 29 0.3479168000878201 0 259.0 0.3479168000878201 1
gene  1 29 8 2.4336307183689447 0 260.0 2.4336307183689447 1
gene  1 29 21 -2.032601696002197 0 271.0 -2.032601696002197 1
gene  1 3 21 -4.3859692410705255 0 300.0 -4.3859692410705255 1
gene  1 9 52 -2.0986695631742966 0 368.0 -2.0986695631742966 1
gene  1 52 14 -2.5110225793326273 0 369.0 -2.5110225793326273 1
gene  1 1 53 0.7791844455843024 0 372.0 0.7791844455843024 1
gene  1 53 21 6.919273778291752 0 373.0 6.919273778291752 1
genomeend 11
genomestart  12
trait 1 1.2278199519511421 0.8431431947056619 0.0 0.24340368269336865 0.0 1.7239330509845825 0.9506980277045094 0.0 
node 1 1 1 1
node 2 1 1 1
node 3 1 1 1
node 4 1 1 1
node 5 1 1 1
node 6 1 1 1
node 7 1 1 3
node 13 1 0 2
node 14 1 0 2
node 42 1 0 0
gene  1 1 13 1.6472248041971587 0 168.0 1.6472248041971587 1
gene  1 2 13 1.8152243214885555 0 169.0 1.8152243214885555 1
gene  1 3 13 -3.1617876087617143 0 170.0 -3.1617876087617143 1
gene  1 4 13 1.0083102711158636 0 171.0 1.0083102711158636 1
gene  1 5 13 -2.6826627483722953 0 172.0 -2.6826627483722953 1
gene  1 6 13 6.463631601439378 0 173.0 6.463631601439378 1
gene  1 7 13 -0.6361365327514095 0 174.0 -0.6361365327514095 1
gene  1 14 13 4.040328294280213 1 181.0 4.040328294280213 1
gene  1 1 14 2.906132690438096 0 182.0 2.906132690438096 1
gene  1 2 14 5.214759677930585 0 183.0 5.214759677930585 1
gene  1 3 14 1.3054852793502647 0 184.0 1.3054852793502647 1
gene  1 13 14 2.952879255165131 0 194.0 2.952879255165131 1
gene  1 14 14 2.2058040473113403 1 195.0 2.2058040473113403 1
gene  1 6 14 -4.000629415850991 0 230.0 -4.000629415850991 1
gene  1 4 14 -6.683083982368522 0 312.0 -6.683083982368522 1
gene  1 2 42 -0.5807243509781796 0 320.0 -0.5807243509781796 1
gene  1 42 13 -0.2170170567299219 0 321.0 -0.2170170567299219 1
gene  1 6 42 1.5996651350527877 0 349.0 1.5996651350527877 1
gene  1 7 14 -0.38775972785479995 0 353.0 -0.38775972785479995 1
gene  1 7 42 -6.305733152249046 0 395.0 -6.305733152249046 1
genomeend 12
genomestart  13
trait 1 1.2278199519511421 0.8431431947056619 0.4185672944766822 0.24340368269336865 0.3977567512441774 1.7239330509845825 0.9233259469650144 0.0 
node 1 1 1 1
node 2 1 1 1
node 3 1 1 1
node 4 1 1 1
node 5 1 1 1
node 6 1 1 1
node 7 1 1 3
node 13 1 0 2
node 14 1 0 2
node 42 1 0 0
gene  1 1 13 -0.3551068154897341 0 168.0 -0.3551068154897341 1
gene  1 2 13 1.9081800646558211 0 169.0 1.9081800646558211 1
gene  1 3 13 -4.215792161462235 0 170.0 -4.215792161462235 1
gene  1 4 13 2.3971585073544137 0 171.0 2.3971585073544137 1
gene  1 5 13 -3.113951409858611 0 172.0 -3.113951409858611 1
gene  1 6 13 6.344733288921585 0 173.0 6.344733288921585 1
gene  1 7 13 0.9757789036071729 0 174.0 0.9757789036071729 1
gene  1 14 13 5.694729330646297 1 181.0 5.694729330646297 1
gene  1 1 14 4.029193865411234 0 182.0 4.029193865411234 1
gene  1 2 14 3.4357861332743163 0 183.0 3.4357861332743163 1
gene  1 3 14 -0.6318764006305477 0 184.0 -0.6318764006305477 1
gene  1 13 14 1.2137308435324186 0 194.0 1.2137308435324186 1
gene  1 14 14 1.5040982483846639 1 195.0 1.5040982483846639 1
gene  1 6 14 -2.2602320482276466 0 230.0 -2.2602320482276466 1
gene  1 4 14 -4.6199332978499665 0 312.0 -4.6199332978499665 1
gene  1 2 42 -0.05529636757838419 0 320.0 -0.05529636757838419 1
gene  1 42 13 -2.518417612705903 0 321.0 -2.518417612705903 1
gene  1 6 42 1.682927636581869 0 349.0 1.682927636581869 1
gene  1 7 14 1.9652542663588837 0 353.0 1.9652542663588837 1
gene  1 7 42 -6.442788083865411 0 395.0 -6.442788083865411 1
genomeend 13
genomestart  14
trait 1 0.5031937912988503 0.0 0.0 0.7829824703357012 0.0 0.34443587063922654 1.458500715638835 0.0 
node 1 1 1 1
node 2 1 1 1
node 3 1 1 1
node 4 1 1 1
node 5 1 1 1
node 6 1 1 1
node 7 1 1 3
node 8 1 0 0
node 13 1 0 2
node 14 1 0 2
node 49 1 0 0
gene  1 4 8 -1.3200379391903994 0 101.0 -1.3200379391903994 1
gene  1 5 8 -7.675548849665385 0 102.0 -7.675548849665385 1
gene  1 6 8 -6.855512499713716 0 103.0 -6.855512499713716 1
gene  1 14 8 1.8604345315320077 1 111.0 1.8604345315320077 1
gene  1 1 13 2.4327914112246694 0 168.0 2.4327914112246694 1
gene  1 2 13 -0.45351575874395844 0 169.0 -0.45351575874395844 1
gene  1 3 13 4.117448609832118 0 170.0 4.117448609832118 1
gene  1 5 13 3.08833133770613 0 172.0 3.08833133770613 1
gene  1 7 13 -8.773223648717625 0 174.0 -8.773223648717625 1
gene  1 14 13 8.579008782956468 1 181.0 8.579008782956468 1
gene  1 1 14 5.482383970792132 0 182.0 5.482383970792132 1
gene  1 2 14 0.6206411883269334 0 183.0 0.6206411883269334 1
gene  1 3 14 -1.6008150532221976 0 184.0 -1.6008150532221976 1
gene  1 4 14 -1.6141865938212152 0 185.0 -1.6141865938212152 1
gene  1 8 14 0.8645706159104812 0 189.0 0.8645706159104812 1
gene  1 14 14 3.741231333910619 1 195.0 3.741231333910619 1
gene  1 6 14 -2.90401879218516 0 240.0 -2.90401879218516 1
gene  1 8 13 -0.3007625235534025 0 311.0 -0.3007625235534025 1
gene  1 14 13 2.036113026919282 0 322.0 2.036113026919282 1
gene  1 2 49 -5.5288190876943375 0 362.0 -5.5288190876943375 1
gene  1 49 14 0.13273440793590907 0 363.0 0.13273440793590907 1
gene  1 3 8 2.359655741162741 0 393.0 2.359655741162741 1
genomeend 14
genomestart  15
trait 1 0.5031937912988503 0.0 0.0 0.7829824703357012 0.0 0.34443587063922654 0.6332814071952078 0.0 
node 1 1 1 1
node 2 1 1 1
node 3 1 1 1
node 4 1 1 1
node 5 1 1 1
node 6 1 1 1
node 7 1 1 3
node 8 1 0 0
node 13 1 0 2
node 14 1 0 2
node 49 1 0 0
gene  1 4 8 -2.1154832782812334 0 101.0 -2.1154832782812334 1
gene  1 5 8 -9.265753334851896 0 102.0 -9.265753334851896 1
gene  1 6 8 -7.723499923780116 0 103.0 -7.723499923780116 1
gene  1 14 8 1.3869370961705783 1 111.0 1.3869370961705783 1
gene  1 1 13 2.4327914112246694 0 168.0 2.4327914112246694 1
gene  1 2 13 -2.1086467768588957 0 169.0 -2.1086467768588957 1
gene  1 3 13 2.2961400567406343 0 170.0 2.2961400567406343 1
gene  1 5 13 1.7805848478650081 0 172.0 1.7805848478650081 1
gene  1 7 13 -7.1717996931128445 0 174.0 -7.1717996931128445 1
gene  1 14 13 7.400878180152415 1 181.0 7.400878180152415 1
gene  1 1 14 5.675638228549061 0 182.0 5.675638228549061 1
gene  1 2 14 1.6105435508885646 0 183.0 1.6105435508885646 1
gene  1 3 14 6.434714674590348 0 184.0 6.434714674590348 1
gene  1 4 14 -2.1081035040530782 0 185.0 -2.1081035040530782 1
gene  1 8 14 1.0471819695168707 0 189.0 1.0471819695168707 1
gene  1 14 14 3.741231333910619 1 195.0 3.741231333910619 1
gene  1 6 14 -3.135522887680124 0 240.0 -3.135522887680124 1
gene  1 8 13 -0.3007625235534025 0 311.0 -0.3007625235534025 1
gene  1 14 13 -1.638941394055045 0 322.0 -1.638941394055045 1
gene  1 2 49 -4.180425669110819 0 362.0 -4.180425669110819 1
gene  1 49 14 0.8572535067189138 0 363.0 0.8572535067189138 1
gene  1 3 8 2.8803111560667882 0 393.0 0.0 1
genomeend 15
genomestart  16
trait 1 0.8225567813410785 1.8437409326683576 0.7816155317589891 0.49951333318806035 0.760472394127403 1.9200467398379193 0.30471319978561984 0.0 
node 1 1 1 1
node 2 1 1 1
node 3 1 1 1
node 4 1 1 1
node 5 1 1 1
node 6 1 1 1
node 7 1 1 3
node 8 1 0 0
node 9 1 0 0
node 10 1 0 0
node 11 1 0 0
node 12 1 0 0
node 13 1 0 2
node 14 1 0 2
node 27 1 0 0
node 34 1 0 0
node 40 1 0 0
node 48 1 0 0
gene  1 1 8 -1.9891527010113292 0 98.0 -1.9891527010113292 1
gene  1 3 8 -2.554405091208131 0 100.0 -2.554405091208131 0
gene  1 4 8 4.088544236393249 0 101.0 4.088544236393249 1
gene  1 6 8 -1.140532130244082 0 103.0 -1.140532130244082 1
gene  1 8 8 -0.5030235999319566 1 105.0 -0.5030235999319566 1
gene  1 10 8 -0.9817625028606358 1 107.0 -0.9817625028606358 1
gene  1 3 9 -5.273934963121176 0 114.0 -5.273934963121176 1
gene  1 6 9 0.5062027202622187 0 117.0 0.5062027202622187 1
gene  1 8 9 5.107883754289794 0 119.0 5.107883754289794 1
gene  1 10 9 0.24684020520191086 1 121.0 0.24684020520191086 1
gene  1 11 9 -1.2144304002822301 1 122.0 -1.2144304002822301 1
gene  1 13 9 0.5014983453871502 1 124.0 0.5014983453871502 1
gene  1 14 9 -0.8176274949112061 1 125.0 -0.8176274949112061 1
gene  1 1 10 2.0183795165923213 0 126.0 2.0183795165923213 1
gene  1 3 10 4.962372867400213 0 128.0 4.962372867400213 1
gene  1 4 10 -6.84501269194922 0 129.0 -6.84501269194922 1
gene  1 5 10 -3.975817727703879 0 130.0 -3.975817727703879 1
gene  1 9 10 -1.60199803733852 0 134.0 -1.60199803733852 1
gene  1 13 10 -6.172033881653071 1 138.0 -6.172033881653071 1
gene  1 1 11 1.7418799979589812 0 140.0 1.7418799979589812 1
gene  1 3 11 -4.262434545925004 0 142.0 -4.262434545925004 1
gene  1 5 11 10.551393713259682 0 144.0 10.551393713259682 1
gene  1 9 11 -1.0407128347091892 0 148.0 -1.0407128347091892 1
gene  1 10 11 -2.3267257843051774 0 149.0 -2.3267257843051774 1
gene  1 12 11 -2.693303520335748 1 151.0 -2.693303520335748 1
gene  1 14 11 0.1313900600364057 1 153.0 0.1313900600364057 1
gene  1 2 12 -0.47809741267559935 0 155.0 -0.47809741267559935 1
gene  1 4 12 -1.7176053894472563 0 157.0 -1.7176053894472563 1
gene  1 6 12 8.580775522011162 0 159.0 8.580775522011162 1
gene  1 7 12 1.6974003089923366 0 160.0 1.6974003089923366 1
gene  1 9 12 -2.4281745328098117 0 162.0 -2.4281745328098117 1
gene  1 10 12 -2.6937977612338324 0 163.0 -2.6937977612338324 1
gene  1 12 12 1.581417133676448 1 165.0 1.581417133676448 1
gene  1 14 12 0.6376501166737686 1 167.0 0.6376501166737686 1
gene  1 1 13 3.224248341537135 0 168.0 3.224248341537135 1
gene  1 3 13 2.3018385023877457 0 170.0 2.3018385023877457 1
gene  1 4 13 -4.302390423278832 0 171.0 -4.302390423278832 1
gene  1 6 13 5.922622513117228 0 173.0 5.922622513117228 1
gene  1 8 13 -0.4132003053571154 0 175.0 -0.4132003053571154 1
gene  1 9 13 4.0006914797647966 0 176.0 4.0006914797647966 1
gene  1 8 14 0.8380674957182701 0 189.0 0.8380674957182701 1
gene  1 11 14 16.328325466706538 0 192.0 16.328325466706538 1
gene  1 5 8 -0.9810679914774525 0 235.0 -0.9810679914774525 1
gene  1 1 27 2.247272942611003 0 241.0 2.247272942611003 1
gene  1 27 8 0.020093100909231554 0 242.0 0.020093100909231554 1
gene  1 9 34 -0.7286675804576657 0 272.0 -0.7286675804576657 1
gene  1 34 11 0.824196148576857 0 273.0 0.824196148576857 1
gene  1 5 13 -2.0355938126913844 0 277.0 -2.0355938126913844 1
gene  1 12 14 2.282825854884111 0 296.0 2.282825854884111 1
gene  1 8 40 -0.05792246986152638 1 308.0 -0.05792246986152638 1
gene  1 40 8 -0.6311614820362903 0 309.0 -0.6311614820362903 1
gene  1 10 14 5.778128205271425 0 341.0 5.778128205271425 1
gene  1 3 48 0.483298691982249 0 360.0 0.483298691982249 1
gene  1 48 8 -3.318572658462382 0 361.0 -3.318572658462382 1
genomeend 16
genomestart  17
trait 1 0.8225567813410785 1.2140246672840036 0.7816155317589891 0.49951333318806035 0.760472394127403 0.9742749841765682 0.16709809669901776 0.20144182840303793 
node 1 1 1 1
node 2 1 1 1
node 3 1 1 1
node 4 1 1 1
node 5 1 1 1
node 6 1 1 1
node 7 1 1 3
node 8 1 0 0
node 9 1 0 0
node 10 1 0 0
node 11 1 0 0
node 12 1 0 0
node 13 1 0 2
node 14 1 0 2
node 27 1 0 0
node 34 1 0 0
node 40 1 0 0
node 48 1 0 0
gene  1 1 8 -0.6901516123415872 0 98.0 -0.6901516123415872 1
gene  1 3 8 -4.599581700327747 0 100.0 -4.599581700327747 0
gene  1 4 8 3.1848777610385426 0 101.0 3.1848777610385426 1
gene  1 6 8 -8.278378820174781 0 103.0 -8.278378820174781 1
gene  1 8 8 8.17769178964227 1 105.0 8.17769178964227 1
gene  1 10 8 -2.1580857462146685 1 107.0 -2.1580857462146685 1
gene  1 3 9 -5.180800378662237 0 114.0 -5.180800378662237 1
gene  1 6 9 -1.1562929567868157 0 117.0 -1.1562929567868157 1
gene  1 8 9 2.059839858695552 0 119.0 2.059839858695552 1
gene  1 10 9 2.0134352448989388 1 121.0 2.0134352448989388 1
gene  1 11 9 -0.5199990099531966 1 122.0 -0.5199990099531966 1
gene  1 13 9 2.8732927219536575 1 124.0 2.8732927219536575 1
gene  1 14 9 3.6709442317881416 1 125.0 3.6709442317881416 1
gene  1 1 10 4.47899636145459 0 126.0 4.47899636145459 1
gene  1 3 10 5.215534333964377 0 128.0 5.215534333964377 1
gene  1 4 10 -7.842124684453642 0 129.0 -7.842124684453642 1
gene  1 5 10 -1.3562291599445768 0 130.0 -1.3562291599445768 1
gene  1 9 10 1.8000210651414692 0 134.0 1.8000210651414692 1
gene  1 13 10 -2.982161954720122 1 138.0 -2.982161954720122 1
gene  1 1 11 1.3354001506533613 0 140.0 1.3354001506533613 1
gene  1 3 11 -2.60191019555063 0 142.0 -2.60191019555063 1
gene  1 5 11 8.945085674510437 0 144.0 8.945085674510437 1
gene  1 9 11 0.3555975476535216 0 148.0 0.3555975476535216 1
gene  1 10 11 2.1048886624294534 0 149.0 2.1048886624294534 1
gene  1 12 11 -3.6017222941328417 1 151.0 -3.6017222941328417 1
gene  1 14 11 3.776706786229636 1 153.0 3.776706786229636 1
gene  1 2 12 0.2541012565568057 0 155.0 0.2541012565568057 1
gene  1 4 12 5.874719477959779 0 157.0 5.874719477959779 1
gene  1 6 12 6.270384192054193 0 159.0 6.270384192054193 1
gene  1 7 12 -1.953849798184066 0 160.0 -1.953849798184066 1
gene  1 9 12 -2.34876685917952 0 162.0 -2.34876685917952 1
gene  1 10 12 -4.768184499569168 0 163.0 -4.768184499569168 1
gene  1 12 12 -3.1661156514039392 1 165.0 -3.1661156514039392 1
gene  1 14 12 -4.882527508374238 1 167.0 -4.882527508374238 1
gene  1 1 13 3.5865719165504384 0 168.0 3.5865719165504384 1
gene  1 3 13 4.482517427938786 0 170.0 4.482517427938786 1
gene  1 4 13 -3.9966580271183534 0 171.0 -3.9966580271183534 1
gene  1 6 13 8.010075361526107 0 173.0 8.010075361526107 1
gene  1 8 13 0.9455501599958025 0 175.0 0.9455501599958025 1
gene  1 9 13 1.198466271144057 0 176.0 1.198466271144057 1
gene  1 8 14 -2.518515458816821 0 189.0 -2.518515458816821 1
gene  1 11 14 13.732826113259442 0 192.0 13.732826113259442 1
gene  1 5 8 -1.5737280219196323 0 235.0 -1.5737280219196323 1
gene  1 1 27 -2.2100253746900234 0 241.0 -2.2100253746900234 1
gene  1 27 8 -0.6084149564572194 0 242.0 -0.6084149564572194 1
gene  1 9 34 -3.319669448499128 0 272.0 -3.319669448499128 1
gene  1 34 11 -0.41411612851397606 0 273.0 -0.41411612851397606 1
gene  1 5 13 1.2230349113990204 0 277.0 1.2230349113990204 1
gene  1 12 14 -0.6150653188338338 0 296.0 -0.6150653188338338 1
gene  1 8 40 0.19889074532986406 1 308.0 0.19889074532986406 1
gene  1 40 8 -0.46418327107088597 0 309.0 -0.46418327107088597 1
gene  1 10 14 5.84114559054184 0 341.0 5.84114559054184 1
gene  1 3 48 -0.7654492830342707 0 360.0 -0.7654492830342707 1
gene  1 48 8 -3.7217517733296597 0 361.0 -3.7217517733296597 1
genomeend 17
genomestart  18
trait 1 0.33971452717739675 0.27695848508415316 1.2324307960896477 0.38263542198384 1.7668704662528345 0.8372542455634346 0.3613767976006988 0.3567570363531483 
node 1 1 1 1
node 2 1 1 1
node 3 1 1 1
node 4 1 1 1
node 5 1 1 1
node 6 1 1 1
node 7 1 1 3
node 8 1 0 0
node 9 1 0 0
node 10 1 0 0
node 13 1 0 2
node 14 1 0 2
node 16 1 0 0
node 21 1 0 0
node 29 1 0 0
node 52 1 0 0
node 53 1 0 0
gene  1 1 8 2.1052726094017564 0 98.0 2.1052726094017564 1
gene  1 2 8 4.196651047545785 0 99.0 4.196651047545785 1
gene  1 3 8 -2.4024821575698683 0 100.0 -2.4024821575698683 1
gene  1 4 8 -4.937177558670565 0 101.0 -4.937177558670565 1
gene  1 5 8 -2.877907646103165 0 102.0 -2.877907646103165 1
gene  1 6 8 2.7811792306257543 0 103.0 2.7811792306257543 1
gene  1 8 8 -0.005932432482074201 1 105.0 -0.005932432482074201 1
gene  1 13 8 -1.5636382504541135 1 110.0 -1.5636382504541135 1
gene  1 14 8 -9.98821446557531 1 111.0 -9.98821446557531 1
gene  1 3 13 0.5959108596071605 0 170.0 0.5959108596071605 1
gene  1 5 13 -3.937907626465806 0 172.0 -3.937907626465806 1
gene  1 7 13 0.08167190001539343 0 174.0 0.08167190001539343 1
gene  1 13 13 4.014033992155867 1 180.0 4.014033992155867 1
gene  1 2 14 1.6974034848846005 0 183.0 1.6974034848846005 1
gene  1 4 14 3.0536404368203494 0 185.0 3.0536404368203494 1
gene  1 6 14 -2.417982261817282 0 187.0 -2.417982261817282 1
gene  1 8 14 -4.171871812229402 0 189.0 -4.171871812229402 1
gene  1 13 14 -0.6295777434574164 0 194.0 -0.6295777434574164 1
gene  1 13 16 0.4821609536450758 0 201.0 0.4821609536450758 1
gene  1 16 14 -2.2438867460810226 0 202.0 -2.2438867460810226 1
gene  1 1 21 -7.299967537135714 0 218.0 -7.299967537135714 1
gene  1 21 8 -2.1714944305451076 0 219.0 -2.1714944305451076 1
gene  1 3 10 2.1158258390045885 0 223.0 2.1158258390045885 1
gene  1 6 29 5.799269739369316 0 259.0 5.799269739369316 1
gene  1 29 8 -2.2023235213222208 0 260.0 -2.2023235213222208 1
gene  1 29 21 6.962445420047751 0 271.0 6.962445420047751 1
gene  1 3 21 -1.8280605995306642 0 300.0 -1.8280605995306642 1
gene  1 9 52 -0.6411909729279652 0 368.0 -0.6411909729279652 1
gene  1 52 14 0.868364651963379 0 369.0 0.868364651963379 1
gene  1 1 53 2.0487924904577945 0 372.0 2.0487924904577945 1
gene  1 53 21 0.020666667754931645 0 373.0 0.020666667754931645 1
genomeend 18
genomestart  19
trait 1 0.33971452717739675 0.27695848508415316 1.2324307960896477 0.38263542198384 1.7668704662528345 0.8372542455634346 0.3613767976006988 0.3567570363531483 
node 1 1 1 1
node 2 1 1 1
node 3 1 1 1
node 4 1 1 1
node 5 1 1 1
node 6 1 1 1
node 7 1 1 3
node 8 1 0 0
node 9 1 0 0
node 10 1 0 0
node 13 1 0 2
node 14 1 0 2
node 16 1 0 0
node 21 1 0 0
node 29 1 0 0
node 52 1 0 0
node 53 1 0 0
gene  1 1 8 -0.045714277317304985 0 98.0 -0.045714277317304985 1
gene  1 2 8 3.079200176720843 0 99.0 3.079200176720843 1
gene  1 3 8 -3.3439219772191993 0 100.0 -3.3439219772191993 1
gene  1 4 8 -2.8181255207036453 0 101.0 -2.8181255207036453 1
gene  1 5 8 -0.9960956694816394 0 102.0 -0.9960956694816394 1
gene  1 6 8 2.7103375852072786 0 103.0 2.7103375852072786 1
gene  1 8 8 2.4588485102200215 1 105.0 2.4588485102200215 1
gene  1 13 8 -5.837110923783355 1 110.0 -5.837110923783355 1
gene  1 14 8 -9.159528933067618 1 111.0 -9.159528933067618 1
gene  1 3 13 -1.0458770433235653 0 170.0 -1.0458770433235653 1
gene  1 5 13 -4.39725668552706 0 172.0 -4.39725668552706 1
gene  1 7 13 -0.176289596208833 0 174.0 -0.176289596208833 1
gene  1 13 13 5.3703565495349945 1 180.0 5.3703565495349945 1
gene  1 2 14 6.113281298898632 0 183.0 6.113281298898632 1
gene  1 4 14 0.8751979594236372 0 185.0 0.8751979594236372 1
gene  1 6 14 -4.039256367126935 0 187.0 -4.039256367126935 1
gene  1 8 14 -4.196872817521303 0 189.0 -4.196872817521303 1
gene  1 13 14 3.4889145473345144 0 194.0 3.4889145473345144 1
gene  1 13 16 5.419722680809742 0 201.0 5.419722680809742 1
gene  1 16 14 1.3367787817960726 0 202.0 1.3367787817960726 1
gene  1 1 21 -7.299967537135714 0 218.0 -7.299967537135714 1
gene  1 21 8 -0.42726966595545063 0 219.0 -0.42726966595545063 1
gene  1 3 10 2.993380444884829 0 223.0 2.993380444884829 1
gene  1 6 29 4.023374464260787 0 259.0 4.023374464260787 1
gene  1 29 8 -0.8768208479670072 0 260.0 -0.8768208479670072 1
gene  1 29 21 5.096087240709075 0 271.0 5.096087240709075 1
gene  1 3 21 2.2490901182052405 0 300.0 2.2490901182052405 1
gene  1 9 52 0.7764818128369897 0 368.0 0.7764818128369897 1
gene  1 52 14 2.2556549859405335 0 369.0 2.2556549859405335 1
gene  1 1 53 2.2789482259046774 0 372.0 2.2789482259046774 1
gene  1 53 21 -0.6112224485487017 0 373.0 -0.6112224485487017 1
genomeend 19
