genomestart  0
trait 1 0.0 0.29964541126798605 0.0 0.5917793035862625 0.0 0.5239379551513967 0.08354904834950888 0.0 
node 1 1 1 1
node 2 1 1 1
node 3 1 1 1
node 4 1 1 1
node 5 1 1 1
node 6 1 1 1
node 7 1 1 3
node 13 1 0 2
node 14 1 0 2
node 19 1 0 0
node 33 1 0 0
node 41 1 0 0
gene  1 1 13 -1.782906560155162 0 168.0 -1.782906560155162 1
gene  1 3 13 -0.8296459703429049 0 170.0 -0.8296459703429049 1
gene  1 5 13 -6.7952721223242145 0 172.0 -6.7952721223242145 1
gene  1 6 13 -1.9917931987187087 0 173.0 -1.9917931987187087 1
gene  1 14 13 -1.551827991754362 1 181.0 -1.551827991754362 1
gene  1 1 14 4.846024668568276 0 182.0 4.846024668568276 1
gene  1 2 14 0.2705925547329649 0 183.0 0.2705925547329649 1
gene  1 4 14 -3.305141545812341 0 185.0 -3.305141545812341 1
gene  1 5 14 3.780049208449929 0 186.0 3.780049208449929 1
gene  1 6 14 -0.5222686790143889 0 187.0 -0.5222686790143889 1
gene  1 7 14 -3.348414110120756 0 188.0 -3.348414110120756 1
gene  1 13 14 0.7054885322388429 0 194.0 0.7054885322388429 1
gene  1 14 14 -0.6507127694928042 1 195.0 -0.6507127694928042 1
gene  1 5 19 -0.234961196484623 0 213.0 -0.234961196484623 1
gene  1 19 13 1.7744755238657124 0 214.0 1.7744755238657124 1
gene  1 2 13 -0.16384363176570038 0 243.0 -0.16384363176570038 1
gene  1 6 19 1.3045180194569777 0 257.0 1.3045180194569777 1
gene  1 19 14 -1.5083914238810268 0 267.0 -1.5083914238810268 1
gene  1 14 33 2.0195651295294645 1 268.0 2.0195651295294645 1
gene  1 33 14 -1.4254160346032496 0 269.0 -1.4254160346032496 1
gene  1 4 13 -1.2835620174927866 0 292.0 -1.2835620174927866 1
gene  1 14 41 -3.2385031581285895 1 315.0 -3.2385031581285895 1
gene  1 41 13 -1.9112425746545094 0 316.0 -1.9112425746545094 1
gene  1 3 19 -5.5243662614110525 0 329.0 -5.5243662614110525 1
genomeend 0
genomestart  1
trait 1 0.0 0.29964541126798605 0.0 0.5917793035862625 0.0 0.5239379551513967 0.08354904834950888 0.0 
node 1 1 1 1
node 2 1 1 1
node 3 1 1 1
node 4 1 1 1
node 5 1 1 1
node 6 1 1 1
node 7 1 1 3
node 13 1 0 2
node 14 1 0 2
node 19 1 0 0
node 33 1 0 0
node 41 1 0 0
gene  1 1 13 -3.6340989180074637 0 168.0 -3.6340989180074637 1
gene  1 3 13 1.428181454735597 0 170.0 1.428181454735597 1
gene  1 5 13 -6.471495531273881 0 172.0 -6.471495531273881 1
gene  1 6 13 -2.403821220726367 0 173.0 -2.403821220726367 1
gene  1 14 13 -2.0122815965979184 1 181.0 -2.0122815965979184 1
gene  1 1 14 4.702108112726198 0 182.0 4.702108112726198 1
gene  1 2 14 0.9288081079444377 0 183.0 0.9288081079444377 1
gene  1 4 14 -4.673210834471501 0 185.0 -4.673210834471501 1
gene  1 5 14 5.008479505045599 0 186.0 5.008479505045599 1
gene  1 6 14 -1.1998132489905666 0 187.0 -1.1998132489905666 1
gene  1 7 14 -3.7253826129108636 0 188.0 -3.7253826129108636 1
gene  1 13 14 0.24155620299802222 0 194.0 0.24155620299802222 1
gene  1 14 14 -2.1759093138727277 1 195.0 -2.1759093138727277 1
gene  1 5 19 1.4345243172582252 0 213.0 1.4345243172582252 1
gene  1 19 13 0.6880330201082345 0 214.0 0.6880330201082345 1
gene  1 2 13 1.4857129913831926 0 243.0 1.4857129913831926 1
gene  1 6 19 0.6769244816024673 0 257.0 0.6769244816024673 1
gene  1 19 14 -0.6307698189355282 0 267.0 -0.6307698189355282 1
gene  1 14 33 0.9252380888039928 1 268.0 0.9252380888039928 1
gene  1 33 14 -1.4254160346032496 0 269.0 -1.4254160346032496 1
gene  1 4 13 -1.2835620174927866 0 292.0 -1.2835620174927866 1
gene  1 14 41 -1.046713163132681 1 315.0 -1.046713163132681 1
gene  1 41 13 -3.321091304784196 0 316.0 -3.321091304784196 1
genomeend 1
genomestart  2
trait 1 0.38509797114028876 1.2858127313064698 0.0 0.17101181944213528 0.0 0.0 0.0 1.0208282639679993 
node 1 1 1 1
node 2 1 1 1
node 3 1 1 1
node 4 1 1 1
node 5 1 1 1
node 6 1 1 1
node 7 1 1 3
node 13 1 0 2
node 14 1 0 2
node 24 1 0 0
node 36 1 0 0
gene  1 2 13 2.1918092832263536 0 169.0 2.1918092832263536 1
gene  1 3 13 -2.1434113274249884 0 170.0 -2.1434113274249884 1
gene  1 4 13 -3.576495623277462 0 171.0 -3.576495623277462 1
gene  1 6 13 -3.6881370679507923 0 173.0 -3.6881370679507923 1
gene  1 7 13 5.321917647515439 0 174.0 5.321917647515439 1
gene  1 13 13 -3.271846691487442 1 180.0 -3.271846691487442 1
gene  1 1 14 2.680878911455052 0 182.0 2.680878911455052 1
gene  1 2 14 0.22171999334525738 0 183.0 0.22171999334525738 1
gene  1 5 14 -2.501358873133336 0 186.0 -2.501358873133336 1
gene  1 6 14 -1.7493558452284148 0 187.0 -1.7493558452284148 1
gene  1 7 14 1.7320665169792413 0 188.0 1.7320665169792413 1
gene  1 13 14 -1.171363542629159 0 194.0 -1.171363542629159 1
gene  1 14 14 -0.7849574860648447 1 195.0 -0.7849574860648447 1
gene  1 2 24 -2.9958248049006895 0 226.0 -2.9958248049006895 1
gene  1 24 13 -4.326963601879555 0 227.0 -4.326963601879555 1
gene  1 7 24 1.771210265139111 0 245.0 1.771210265139111 1
gene  1 1 24 -2.9725136912121655 0 249.0 -2.9725136912121655 1
gene  1 4 14 -6.087282439612366 0 280.0 -6.087282439612366 0
gene  1 4 36 -1.748403340601842 0 293.0 -1.748403340601842 1
gene  1 36 14 -0.018699150694923228 0 294.0 -0.018699150694923228 1
gene  1 7 36 0.21773792656976454 0 301.0 0.21773792656976454 1
gene  1 3 36 -2.522188477496999 0 313.0 -2.522188477496999 1
genomeend 2
genomestart  3
trait 1 0.38509797114028876 1.2858127313064698 0.0 0.17101181944213528 0.0 0.0 0.0 1.0208282639679993 
node 1 1 1 1
node 2 1 1 1
node 3 1 1 1
node 4 1 1 1
node 5 1 1 1
node 6 1 1 1
node 7 1 1 3
node 13 1 0 2
node 14 1 0 2
node 24 1 0 0
node 36 1 0 0
gene  1 2 13 0.18143132253119054 0 169.0 0.18143132253119054 1
gene  1 3 13 3.044160299875417 0 170.0 3.044160299875417 1
gene  1 4 13 -1.7808501831564285 0 171.0 -1.7808501831564285 1
gene  1 6 13 -4.176559958767586 0 173.0 -4.176559958767586 1
gene  1 7 13 3.380496696572544 0 174.0 3.380496696572544 1
gene  1 13 13 -1.6346201774639844 1 180.0 -1.6346201774639844 1
gene  1 1 14 2.9188462722408994 0 182.0 2.9188462722408994 1
gene  1 2 14 3.4098617530990802 0 183.0 3.4098617530990802 1
gene  1 5 14 -0.4924585214171095 0 186.0 -0.4924585214171095 1
gene  1 6 14 -1.2687666833504592 0 187.0 -1.2687666833504592 1
gene  1 7 14 3.2025198014894913 0 188.0 3.2025198014894913 1
gene  1 13 14 -2.199379865831478 0 194.0 -2.199379865831478 1
gene  1 14 14 2.768529323468733 1 195.0 2.768529323468733 1
gene  1 2 24 -0.8441833485672767 0 226.0 -0.8441833485672767 1
gene  1 24 13 -5.674794036537897 0 227.0 -5.674794036537897 1
gene  1 7 24 -1.1160126696967372 0 245.0 -1.1160126696967372 1
gene  1 1 24 -4.5279112559824855 0 249.0 -4.5279112559824855 1
gene  1 4 14 -2.7034945154328254 0 280.0 -2.7034945154328254 0
gene  1 4 36 -2.0863338412708665 0 293.0 -2.0863338412708665 1
gene  1 36 14 -0.09507138052188069 0 294.0 -0.09507138052188069 1
gene  1 7 36 -0.07209707431406143 0 301.0 -0.07209707431406143 1
gene  1 3 36 -2.540523275379805 0 313.0 -2.540523275379805 1
genomeend 3
genomestart  4
trait 1 0.38509797114028876 1.2858127313064698 0.0 0.17101181944213528 0.0 0.0 0.0 1.0208282639679993 
node 1 1 1 1
node 2 1 1 1
node 3 1 1 1
node 4 1 1 1
node 5 1 1 1
node 6 1 1 1
node 7 1 1 3
node 13 1 0 2
node 14 1 0 2
node 24 1 0 0
node 36 1 0 0
gene  1 2 13 0.2414011374012035 0 169.0 0.2414011374012035 1
gene  1 3 13 3.9778529280459236 0 170.0 3.9778529280459236 1
gene  1 4 13 -1.4077848049492263 0 171.0 -1.4077848049492263 1
gene  1 6 13 -5.316673106047704 0 173.0 -5.316673106047704 1
gene  1 7 13 4.878472976166838 0 174.0 4.878472976166838 1
gene  1 13 13 -2.383305495962398 1 180.0 -2.383305495962398 1
gene  1 1 14 2.163756856813139 0 182.0 2.163756856813139 1
gene  1 2 14 2.745223620725045 0 183.0 2.745223620725045 1
gene  1 5 14 -0.860775977090962 0 186.0 -0.860775977090962 1
gene  1 6 14 -1.8025429538738047 0 187.0 -1.8025429538738047 1
gene  1 7 14 3.7515170259128157 0 188.0 3.7515170259128157 1
gene  1 13 14 -0.7673440143244403 0 194.0 -0.7673440143244403 1
gene  1 14 14 4.1444237655171765 1 195.0 4.1444237655171765 1
gene  1 2 24 -1.9269812972109464 0 226.0 -1.9269812972109464 1
gene  1 24 13 -2.288455823057013 0 227.0 -2.288455823057013 1
gene  1 7 24 1.5842959962113825 0 245.0 1.5842959962113825 1
gene  1 1 24 -3.162253565224432 0 249.0 -3.162253565224432 1
gene  1 4 14 -3.167650131701717 0 280.0 -3.167650131701717 0
gene  1 4 36 -1.1645223143522485 0 293.0 -1.1645223143522485 1
gene  1 36 14 -0.6071283792635874 0 294.0 -0.6071283792635874 1
gene  1 7 36 0.8177408977295324 0 301.0 0.8177408977295324 1
gene  1 3 36 -4.2329125951991955 0 313.0 -4.2329125951991955 1
genomeend 4
genomestart  5
trait 1 0.9658100958370718 0.21357948226159307 1.7535517816909252 0.0 0.0 2.076285480926863 0.7279373662985449 0.0 
node 1 1 1 1
node 2 1 1 1
node 3 1 1 1
node 4 1 1 1
node 5 1 1 1
node 6 1 1 1
node 7 1 1 3
node 8 1 0 0
node 9 1 0 0
node 10 1 0 0
node 11 1 0 0
node 13 1 0 2
node 14 1 0 2
gene  1 2 8 1.8721875258970078 0 99.0 1.8721875258970078 1
gene  1 6 8 0.6617514720087669 0 103.0 0.6617514720087669 1
gene  1 8 8 3.8679294981350454 1 105.0 3.8679294981350454 1
gene  1 9 8 -1.4808039408500129 1 106.0 -1.4808039408500129 1
gene  1 10 8 -9.500520912733197 1 107.0 -9.500520912733197 1
gene  1 11 8 -7.025150447316953 1 108.0 -7.025150447316953 1
gene  1 13 8 -0.3342869957571406 1 110.0 -0.3342869957571406 1
gene  1 14 8 -2.9892122159448364 1 111.0 -2.9892122159448364 1
gene  1 1 9 -1.9743169920952957 0 112.0 -1.9743169920952957 1
gene  1 2 9 -1.7312899289986685 0 113.0 -1.7312899289986685 1
gene  1 3 9 3.2661511000125776 0 114.0 3.2661511000125776 1
gene  1 6 9 0.301142136961053 0 117.0 0.301142136961053 1
gene  1 7 9 1.1416934829012266 0 118.0 1.1416934829012266 1
gene  1 8 9 2.8074748876003763 0 119.0 2.8074748876003763 1
gene  1 9 9 -1.9668336567626292 1 120.0 -1.9668336567626292 1
gene  1 11 9 -4.802982725753891 1 122.0 -4.802982725753891 1
gene  1 13 9 1.234773861994636 1 124.0 1.234773861994636 1
gene  1 14 9 0.9185422572656814 1 125.0 0.9185422572656814 1
gene  1 1 10 -4.551523577259026 0 126.0 -4.551523577259026 1
gene  1 3 10 -4.14692285195849 0 128.0 -4.14692285195849 1
gene  1 4 10 -4.102768506554166 0 129.0 -4.102768506554166 1
gene  1 5 10 -7.9689201169087 0 130.0 -7.9689201169087 1
gene  1 6 10 2.731296774307931 0 131.0 2.731296774307931 1
gene  1 10 10 -5.786744555418441 1 135.0 -5.786744555418441 1
gene  1 11 10 -0.9860364809609607 1 136.0 -0.9860364809609607 1
gene  1 14 10 -5.691052876080674 1 139.0 -5.691052876080674 1
gene  1 1 11 3.683056349461404 0 140.0 3.683056349461404 1
gene  1 3 11 -0.29348349092166126 0 142.0 -0.29348349092166126 1
gene  1 5 11 -1.737929001986368 0 144.0 -1.737929001986368 1
gene  1 6 11 -4.529964236653001 0 145.0 -4.529964236653001 1
gene  1 7 11 -1.4471782830792068 0 146.0 -1.4471782830792068 1
gene  1 8 11 -1.0956684875475133 0 147.0 -1.0956684875475133 1
gene  1 9 11 -0.2942219289670512 0 148.0 -0.2942219289670512 1
gene  1 10 11 -9.587194804979715 0 149.0 -9.587194804979715 1
gene  1 11 11 -15.672505189930781 1 150.0 -15.672505189930781 1
gene  1 1 13 2.2329387987488083 0 168.0 2.2329387987488083 1
gene  1 2 13 2.8212080001940603 0 169.0 2.8212080001940603 1
gene  1 3 13 3.714263952998478 0 170.0 3.714263952998478 1
gene  1 7 13 3.7823284719764043 0 174.0 3.7823284719764043 1
gene  1 11 13 -0.7472310367714952 0 178.0 -0.7472310367714952 1
gene  1 13 13 -1.2680182937250122 1 180.0 -1.2680182937250122 1
gene  1 2 14 3.8777282381423337 0 183.0 3.8777282381423337 1
gene  1 3 14 -2.3822166274493517 0 184.0 -2.3822166274493517 1
gene  1 4 14 2.3388181740093543 0 185.0 2.3388181740093543 1
gene  1 7 14 5.473388377032938 0 188.0 5.473388377032938 1
gene  1 8 14 4.05537997717474 0 189.0 4.05537997717474 1
gene  1 10 14 1.7784307870949132 0 191.0 1.7784307870949132 1
gene  1 13 14 -3.880925582272662 0 194.0 -3.880925582272662 1
gene  1 5 13 1.1148727173411608 0 198.0 1.1148727173411608 1
gene  1 4 9 2.4548305429107993 0 200.0 2.4548305429107993 1
gene  1 8 13 0.35614275962312647 0 248.0 0.35614275962312647 1
gene  1 7 10 2.042100444190858 0 270.0 2.042100444190858 1
gene  1 9 10 3.370075557056714 0 274.0 3.370075557056714 1
gene  1 9 13 -1.2885977126694579 0 288.0 -1.2885977126694579 1
gene  1 5 14 2.2144851150562115 0 328.0 2.2144851150562115 1
genomeend 5
genomestart  6
trait 1 0.9658100958370718 0.21357948226159307 1.7535517816909252 0.0 0.0 2.076285480926863 0.7279373662985449 0.0 
node 1 1 1 1
node 2 1 1 1
node 3 1 1 1
node 4 1 1 1
node 5 1 1 1
node 6 1 1 1
node 7 1 1 3
node 8 1 0 0
node 9 1 0 0
node 10 1 0 0
node 11 1 0 0
node 13 1 0 2
node 14 1 0 2
node 43 1 0 0
gene  1 2 8 1.8721875258970078 0 99.0 1.8721875258970078 1
gene  1 6 8 0.6617514720087669 0 103.0 0.6617514720087669 1
gene  1 8 8 3.8679294981350454 1 105.0 3.8679294981350454 1
gene  1 9 8 -1.4808039408500129 1 106.0 -1.4808039408500129 1
gene  1 10 8 -9.500520912733197 1 107.0 -9.500520912733197 1
gene  1 11 8 -7.025150447316953 1 108.0 -7.025150447316953 1
gene  1 13 8 -0.3342869957571406 1 110.0 -0.3342869957571406 1
gene  1 14 8 -2.9892122159448364 1 111.0 -2.9892122159448364 1
gene  1 1 9 -1.9743169920952957 0 112.0 -1.9743169920952957 1
gene  1 2 9 -1.7312899289986685 0 113.0 -1.7312899289986685 1
gene  1 3 9 3.2661511000125776 0 114.0 3.2661511000125776 1
gene  1 6 9 0.301142136961053 0 117.0 0.301142136961053 1
gene  1 7 9 1.1416934829012266 0 118.0 1.1416934829012266 1
gene  1 8 9 2.8074748876003763 0 119.0 2.8074748876003763 1
gene  1 9 9 -1.9668336567626292 1 120.0 -1.9668336567626292 0
gene  1 11 9 -4.802982725753891 1 122.0 -4.802982725753891 1
gene  1 13 9 1.234773861994636 1 124.0 1.234773861994636 1
gene  1 14 9 0.9185422572656814 1 125.0 0.9185422572656814 1
gene  1 1 10 -4.551523577259026 0 126.0 -4.551523577259026 1
gene  1 3 10 -4.14692285195849 0 128.0 -4.14692285195849 1
gene  1 4 10 -4.102768506554166 0 129.0 -4.102768506554166 1
gene  1 5 10 -7.9689201169087 0 130.0 -7.9689201169087 1
gene  1 6 10 2.731296774307931 0 131.0 2.731296774307931 1
gene  1 10 10 -5.786744555418441 1 135.0 -5.786744555418441 1
gene  1 11 10 -0.9860364809609607 1 136.0 -0.9860364809609607 1
gene  1 14 10 -5.691052876080674 1 139.0 -5.691052876080674 1
gene  1 1 11 3.683056349461404 0 140.0 3.683056349461404 1
gene  1 3 11 -0.29348349092166126 0 142.0 -0.29348349092166126 1
gene  1 5 11 -1.737929001986368 0 144.0 -1.737929001986368 1
gene  1 6 11 -4.529964236653001 0 145.0 -4.529964236653001 1
gene  1 7 11 -1.4471782830792068 0 146.0 -1.4471782830792068 1
gene  1 8 11 -1.0956684875475133 0 147.0 -1.0956684875475133 1
gene  1 9 11 -0.2942219289670512 0 148.0 -0.2942219289670512 1
gene  1 10 11 -9.587194804979715 0 149.0 -9.587194804979715 1
gene  1 11 11 -15.672505189930781 1 150.0 -15.672505189930781 1
gene  1 1 13 2.2329387987488083 0 168.0 2.2329387987488083 1
gene  1 2 13 2.8212080001940603 0 169.0 2.8212080001940603 1
gene  1 3 13 3.714263952998478 0 170.0 3.714263952998478 1
gene  1 7 13 3.7823284719764043 0 174.0 3.7823284719764043 1
gene  1 11 13 -0.7472310367714952 0 178.0 -0.7472310367714952 1
gene  1 13 13 -1.2680182937250122 1 180.0 -1.2680182937250122 1
gene  1 2 14 3.8777282381423337 0 183.0 3.8777282381423337 1
gene  1 3 14 -2.3822166274493517 0 184.0 -2.3822166274493517 1
gene  1 4 14 2.3388181740093543 0 185.0 2.3388181740093543 1
gene  1 7 14 5.473388377032938 0 188.0 5.473388377032938 1
gene  1 8 14 4.05537997717474 0 189.0 4.05537997717474 1
gene  1 10 14 1.7784307870949132 0 191.0 1.7784307870949132 1
gene  1 13 14 -3.880925582272662 0 194.0 -3.880925582272662 1
gene  1 5 13 1.1148727173411608 0 198.0 1.1148727173411608 1
gene  1 4 9 2.4548305429107993 0 200.0 2.4548305429107993 1
gene  1 8 13 0.35614275962312647 0 248.0 0.35614275962312647 1
gene  1 7 10 2.042100444190858 0 270.0 2.042100444190858 1
gene  1 9 10 3.370075557056714 0 274.0 3.370075557056714 1
gene  1 9 13 -1.2885977126694579 0 288.0 -1.2885977126694579 1
gene  1 5 14 2.2144851150562115 0 328.0 2.2144851150562115 1
gene  1 9 43 1.0 1 330.0 0.0 1
gene  1 43 9 -1.9668336567626292 0 331.0 0.0 1
genomeend 6
genomestart  7
trait 1 0.9094479393069818 0.0 0.18125169842722821 0.0 1.363566452656893 0.20991346759087715 0.04208433817433466 0.03711240661335824 
node 1 1 1 1
node 2 1 1 1
node 3 1 1 1
node 4 1 1 1
node 5 1 1 1
node 6 1 1 1
node 7 1 1 3
node 8 1 0 0
node 13 1 0 2
node 14 1 0 2
node 16 1 0 0
node 20 1 0 0
gene  1 1 8 1.5173697353223847 0 98.0 1.5173697353223847 1
gene  1 2 8 -1.9820126438040528 0 99.0 -1.9820126438040528 1
gene  1 3 8 4.262183210059682 0 100.0 4.262183210059682 1
gene  1 4 8 -6.106188199196076 0 101.0 -6.106188199196076 1
gene  1 5 8 0.6466698380979188 0 102.0 0.6466698380979188 1
gene  1 6 8 -10.490086844448035 0 103.0 -10.490086844448035 1
gene  1 8 8 -4.92868033458251 1 105.0 -4.92868033458251 1
gene  1 13 8 -9.096341302287563 1 110.0 -9.096341302287563 1
gene  1 14 8 1.9873153287753378 1 111.0 1.9873153287753378 1
gene  1 3 13 4.244264074113965 0 170.0 4.244264074113965 1
gene  1 5 13 -5.323702821071947 0 172.0 -5.323702821071947 1
gene  1 7 13 3.9894435907829293 0 174.0 3.9894435907829293 1
gene  1 13 13 -2.266834246367252 1 180.0 -2.266834246367252 1
gene  1 2 14 1.453490167006209 0 183.0 1.453490167006209 1
gene  1 4 14 -2.5524856987085447 0 185.0 -2.5524856987085447 1
gene  1 6 14 0.3219797258314707 0 187.0 0.3219797258314707 1
gene  1 8 14 1.80659663278677 0 189.0 1.80659663278677 1
gene  1 13 14 -7.0219517958295 0 194.0 -7.0219517958295 1
gene  1 13 16 3.5591037327111845 0 201.0 3.5591037327111845 1
gene  1 16 14 0.25637154840354603 0 202.0 0.25637154840354603 1
gene  1 3 20 2.8815102701709883 0 215.0 2.8815102701709883 1
gene  1 20 8 -0.17537135057827807 0 216.0 -0.17537135057827807 1
gene  1 8 13 -0.9469907607255101 0 233.0 -0.9469907607255101 1
gene  1 2 16 -7.650886906620848 0 324.0 -7.650886906620848 1
genomeend 7
genomestart  8
trait 1 0.9094479393069818 0.0 0.18125169842722821 0.0 1.363566452656893 0.20991346759087715 0.04208433817433466 0.03711240661335824 
node 1 1 1 1
node 2 1 1 1
node 3 1 1 1
node 4 1 1 1
node 5 1 1 1
node 6 1 1 1
node 7 1 1 3
node 8 1 0 0
node 13 1 0 2
node 14 1 0 2
node 16 1 0 0
node 20 1 0 0
gene  1 1 8 3.904986479082646 0 98.0 3.904986479082646 1
gene  1 2 8 -4.536854763945644 0 99.0 -4.536854763945644 1
gene  1 3 8 3.2797664564295363 0 100.0 3.2797664564295363 1
gene  1 4 8 -3.3813908819682608 0 101.0 -3.3813908819682608 1
gene  1 5 8 -0.0494696566829691 0 102.0 -0.0494696566829691 1
gene  1 6 8 -8.626480840084557 0 103.0 -8.626480840084557 1
gene  1 8 8 -5.422204438542349 1 105.0 -5.422204438542349 1
gene  1 13 8 -8.227227946010123 1 110.0 -8.227227946010123 1
gene  1 14 8 1.3645854298151805 1 111.0 1.3645854298151805 1
gene  1 3 13 5.6082838055551925 0 170.0 5.6082838055551925 1
gene  1 5 13 -6.75479528818538 0 172.0 -6.75479528818538 1
gene  1 7 13 5.389531075874467 0 174.0 5.389531075874467 1
gene  1 13 13 -4.667122270561942 1 180.0 -4.667122270561942 1
gene  1 2 14 1.7452504763786465 0 183.0 1.7452504763786465 1
gene  1 4 14 -3.9258257673461747 0 185.0 -3.9258257673461747 1
gene  1 6 14 1.6152246857901602 0 187.0 1.6152246857901602 1
gene  1 8 14 0.9782575734340078 0 189.0 0.9782575734340078 1
gene  1 13 14 -8.066248558809793 0 194.0 -8.066248558809793 1
gene  1 13 16 1.922665876477959 0 201.0 1.922665876477959 1
gene  1 16 14 1.6204626503105117 0 202.0 1.6204626503105117 1
gene  1 3 20 -1.1958669075230066 0 215.0 -1.1958669075230066 1
gene  1 20 8 -1.0878700639029517 0 216.0 -1.0878700639029517 1
gene  1 8 13 1.147042787867833 0 233.0 1.147042787867833 1
gene  1 2 16 -5.312012932025574 0 324.0 -5.312012932025574 1
genomeend 8
genomestart  9
trait 1 0.9094479393069818 0.0 0.18125169842722821 0.0 1.363566452656893 0.20991346759087715 0.04208433817433466 0.03711240661335824 
node 1 1 1 1
node 2 1 1 1
node 3 1 1 1
node 4 1 1 1
node 5 1 1 1
node 6 1 1 1
node 7 1 1 3
node 8 1 0 0
node 13 1 0 2
node 14 1 0 2
node 16 1 0 0
node 20 1 0 0
gene  1 1 8 0.8252622491335067 0 98.0 0.8252622491335067 1
gene  1 2 8 -2.426113240871796 0 99.0 -2.426113240871796 1
gene  1 3 8 0.1512918436815891 0 100.0 0.1512918436815891 1
gene  1 4 8 -4.695946096688798 0 101.0 -4.695946096688798 1
gene  1 5 8 3.7791797923906727 0 102.0 3.7791797923906727 1
gene  1 6 8 -8.811348484402918 0 103.0 -8.811348484402918 1
gene  1 8 8 -1.0792104646277054 1 105.0 -1.0792104646277054 1
gene  1 13 8 -9.827313141574349 1 110.0 -9.827313141574349 1
gene  1 14 8 0.9621463290929524 1 111.0 0.9621463290929524 1
gene  1 3 13 3.6512998472086213 0 170.0 3.6512998472086213 1
gene  1 5 13 -5.984930827283263 0 172.0 -5.984930827283263 1
gene  1 7 13 4.5378842314935 0 174.0 4.5378842314935 1
gene  1 13 13 1.322747434777682 1 180.0 1.322747434777682 1
gene  1 2 14 1.140846824027483 0 183.0 1.140846824027483 1
gene  1 4 14 -2.3256764769634994 0 185.0 -2.3256764769634994 1
gene  1 6 14 1.4679198539635199 0 187.0 1.4679198539635199 1
gene  1 8 14 2.8236897020318064 0 189.0 2.8236897020318064 1
gene  1 13 14 -9.439088257473434 0 194.0 -9.439088257473434 1
gene  1 13 16 2.9056382060054835 0 201.0 2.9056382060054835 1
gene  1 16 14 1.3877512904559928 0 202.0 1.3877512904559928 1
gene  1 3 20 4.144840032204763 0 215.0 4.144840032204763 1
gene  1 20 8 3.464865495404731 0 216.0 3.464865495404731 1
gene  1 8 13 0.9500605040639474 0 233.0 0.9500605040639474 1
gene  1 2 16 -7.819607381426519 0 324.0 -7.819607381426519 1
genomeend 9
genomestart  10
trait 1 0.0 0.0 0.687885284225863 0.0 0.0 0.0 0.0 0.0 
node 1 1 1 1
node 2 1 1 1
node 3 1 1 1
node 4 1 1 1
node 5 1 1 1
node 6 1 1 1
node 7 1 1 3
node 8 1 0 0
node 9 1 0 0
node 10 1 0 0
node 13 1 0 2
node 14 1 0 2
node 21 1 0 0
node 29 1 0 0
gene  1 1 8 0.5113459166250622 0 98.0 0.5113459166250622 1
gene  1 3 8 -2.4197769644069584 0 100.0 -2.4197769644069584 1
gene  1 5 8 -4.526215058678496 0 102.0 -4.526215058678496 1
gene  1 6 8 -1.8822724065525753 0 103.0 -1.8822724065525753 1
gene  1 8 8 4.940943316447819 1 105.0 4.940943316447819 1
gene  1 1 9 0.7899770301400089 0 112.0 0.7899770301400089 1
gene  1 2 9 5.88492183639697 0 113.0 5.88492183639697 1
gene  1 3 9 2.2961211199412053 0 114.0 2.2961211199412053 1
gene  1 5 9 6.399096194059681 0 116.0 6.399096194059681 1
gene  1 7 9 -15.948925600422678 0 118.0 -15.948925600422678 1
gene  1 9 9 -0.919396267744329 1 120.0 -0.919396267744329 1
gene  1 10 9 14.924535106069197 1 121.0 14.924535106069197 1
gene  1 13 9 7.385358114086238 1 124.0 7.385358114086238 1
gene  1 2 10 0.08944084970722604 0 127.0 0.08944084970722604 1
gene  1 4 10 -1.846374120274827 0 129.0 -1.846374120274827 1
gene  1 5 10 8.284996371372408 0 130.0 8.284996371372408 1
gene  1 8 10 4.072624624528856 0 133.0 4.072624624528856 1
gene  1 9 10 -16.34695264920936 0 134.0 -16.34695264920936 1
gene  1 10 10 -1.8863407486198236 1 135.0 -1.8863407486198236 1
gene  1 13 10 -7.371297982043065 1 138.0 -7.371297982043065 1
gene  1 14 10 0.37457127775784627 1 139.0 0.37457127775784627 1
gene  1 2 13 1.5244460142231913 0 169.0 1.5244460142231913 1
gene  1 3 13 -2.5426436478783274 0 170.0 -2.5426436478783274 1
gene  1 6 13 -2.435858981448039 0 173.0 -2.435858981448039 1
gene  1 7 13 1.4314527734526798 0 174.0 1.4314527734526798 1
gene  1 9 13 2.9122486158288208 0 176.0 2.9122486158288208 1
gene  1 13 13 -2.333135693000425 1 180.0 -2.333135693000425 1
gene  1 14 13 0.5956416430885332 1 181.0 0.5956416430885332 1
gene  1 1 14 -5.5006389631240475 0 182.0 -5.5006389631240475 1
gene  1 3 14 0.3594049189977889 0 184.0 0.3594049189977889 1
gene  1 9 14 0.5677103529316976 0 190.0 0.5677103529316976 1
gene  1 10 14 -1.8062846964107808 0 191.0 -1.8062846964107808 1
gene  1 1 21 3.2030999714476933 0 218.0 3.2030999714476933 1
gene  1 21 8 4.337867624140884 0 219.0 4.337867624140884 1
gene  1 3 10 -2.52070914081749 0 223.0 -2.52070914081749 1
gene  1 6 29 1.8543537030414128 0 259.0 1.8543537030414128 1
gene  1 29 8 -4.61051237220297 0 260.0 -4.61051237220297 1
gene  1 29 21 0.6105706209311415 0 271.0 0.6105706209311415 1
gene  1 3 21 -0.15315457922346587 0 300.0 -0.15315457922346587 1
genomeend 10
genomestart  11
trait 1 0.0 0.0 0.687885284225863 0.0 0.0 0.0 0.0 0.0 
node 1 1 1 1
node 2 1 1 1
node 3 1 1 1
node 4 1 1 1
node 5 1 1 1
node 6 1 1 1
node 7 1 1 3
node 8 1 0 0
node 9 1 0 0
node 10 1 0 0
node 13 1 0 2
node 14 1 0 2
node 21 1 0 0
node 29 1 0 0
gene  1 1 8 3.954140393191018 0 98.0 3.954140393191018 1
gene  1 3 8 2.327479515198691 0 100.0 2.327479515198691 1
gene  1 5 8 -4.90883020019268 0 102.0 -4.90883020019268 1
gene  1 6 8 0.23117321292253024 0 103.0 0.23117321292253024 1
gene  1 8 8 4.5777102000679175 1 105.0 4.5777102000679175 1
gene  1 1 9 1.4286073533354315 0 112.0 1.4286073533354315 1
gene  1 2 9 8.58033251081034 0 113.0 8.58033251081034 1
gene  1 3 9 3.58905025635695 0 114.0 3.58905025635695 1
gene  1 5 9 5.826863126962666 0 116.0 5.826863126962666 1
gene  1 7 9 -17.16377195852218 0 118.0 -17.16377195852218 1
gene  1 9 9 -1.205406149163762 1 120.0 -1.205406149163762 1
gene  1 10 9 15.037148090990831 1 121.0 15.037148090990831 1
gene  1 13 9 6.5390036703195165 1 124.0 6.5390036703195165 1
gene  1 2 10 -2.7336843923599776 0 127.0 -2.7336843923599776 1
gene  1 4 10 0.8655841302495693 0 129.0 0.8655841302495693 1
gene  1 5 10 7.965527345531752 0 130.0 7.965527345531752 1
gene  1 8 10 3.928938599832616 0 133.0 3.928938599832616 1
gene  1 9 10 -11.682682837685729 0 134.0 -11.682682837685729 1
gene  1 10 10 1.4394736641630597 1 135.0 1.4394736641630597 1
gene  1 13 10 -11.362029151530521 1 138.0 -11.362029151530521 1
gene  1 14 10 -0.9583765836335147 1 139.0 -0.9583765836335147 1
gene  1 2 13 1.9191712790889848 0 169.0 1.9191712790889848 1
gene  1 3 13 -1.672281081976665 0 170.0 -1.672281081976665 1
gene  1 6 13 0.840714220703864 0 173.0 0.840714220703864 1
gene  1 7 13 -0.8558123606499386 0 174.0 -0.8558123606499386 1
gene  1 9 13 -1.7513433006909767 0 176.0 -1.7513433006909767 1
gene  1 13 13 6.106939642761729 1 180.0 6.106939642761729 1
gene  1 14 13 -0.3294888280680044 1 181.0 -0.3294888280680044 1
gene  1 1 14 -7.884035360021791 0 182.0 -7.884035360021791 1
gene  1 3 14 1.9446725977781583 0 184.0 1.9446725977781583 1
gene  1 9 14 -0.15066594258227872 0 190.0 -0.15066594258227872 1
gene  1 10 14 -3.223578987938995 0 191.0 -3.223578987938995 1
gene  1 1 21 -0.5922554927969306 0 218.0 -0.5922554927969306 1
gene  1 21 8 3.2345958324994513 0 219.0 3.2345958324994513 1
gene  1 3 10 -2.0918533773210735 0 223.0 -2.0918533773210735 1
gene  1 6 29 1.137328243238628 0 259.0 1.137328243238628 1
gene  1 29 8 -2.50506369313334 0 260.0 -2.50506369313334 1
gene  1 29 21 2.978889218967093 0 271.0 2.978889218967093 1
gene  1 3 21 1.3166248876801347 0 300.0 1.3166248876801347 1
genomeend 11
genomestart  12
trait 1 1.080830066389972 0.0 1.563145969794439 0.0 0.0 0.9629060889116104 0.2518745141043184 0.0 
node 1 1 1 1
node 2 1 1 1
node 3 1 1 1
node 4 1 1 1
node 5 1 1 1
node 6 1 1 1
node 7 1 1 3
node 13 1 0 2
node 14 1 0 2
node 42 1 0 0
gene  1 1 13 -0.40697881473260006 0 168.0 -0.40697881473260006 1
gene  1 2 13 0.17751746499911808 0 169.0 0.17751746499911808 0
gene  1 3 13 -0.4527672229387685 0 170.0 -0.4527672229387685 1
gene  1 4 13 -1.9795772267644445 0 171.0 -1.9795772267644445 1
gene  1 5 13 2.8258007972244106 0 172.0 2.8258007972244106 1
gene  1 6 13 -1.8484105133141915 0 173.0 -1.8484105133141915 1
gene  1 7 13 0.23483662693378005 0 174.0 0.23483662693378005 1
gene  1 14 13 -1.0059666274569286 1 181.0 -1.0059666274569286 1
gene  1 1 14 -5.9238819196676555 0 182.0 -5.9238819196676555 1
gene  1 2 14 0.7179407126492982 0 183.0 0.7179407126492982 1
gene  1 3 14 0.6450434803273475 0 184.0 0.6450434803273475 1
gene  1 13 14 0.19923794322099259 0 194.0 0.19923794322099259 1
gene  1 14 14 -1.8345713433616408 1 195.0 -1.8345713433616408 1
gene  1 6 14 3.85698463639387 0 230.0 3.85698463639387 1
gene  1 4 14 -3.1267621970069737 0 312.0 -3.1267621970069737 1
gene  1 2 42 2.009280536668908 0 320.0 2.009280536668908 1
gene  1 42 13 2.581791210660056 0 321.0 2.581791210660056 1
genomeend 12
genomestart  13
trait 1 1.080830066389972 0.0 1.563145969794439 0.0 0.0 0.9629060889116104 0.2518745141043184 0.0 
node 1 1 1 1
node 2 1 1 1
node 3 1 1 1
node 4 1 1 1
node 5 1 1 1
node 6 1 1 1
node 7 1 1 3
node 13 1 0 2
node 14 1 0 2
node 42 1 0 0
gene  1 1 13 -1.3979672048978855 0 168.0 -1.3979672048978855 1
gene  1 2 13 -1.7595116205692267 0 169.0 -1.7595116205692267 0
gene  1 3 13 -1.390325247777243 0 170.0 -1.390325247777243 1
gene  1 4 13 -0.1989650152841993 0 171.0 -0.1989650152841993 1
gene  1 5 13 4.460891488395033 0 172.0 4.460891488395033 1
gene  1 6 13 0.17604551475083285 0 173.0 0.17604551475083285 1
gene  1 7 13 -1.9469609944086792 0 174.0 -1.9469609944086792 1
gene  1 14 13 3.016774336146198 1 181.0 3.016774336146198 1
gene  1 1 14 -7.853030113201794 0 182.0 -7.853030113201794 1
gene  1 2 14 12.143881883758718 0 183.0 12.143881883758718 1
gene  1 3 14 2.008350958919142 0 184.0 2.008350958919142 1
gene  1 13 14 2.134055121078874 0 194.0 2.134055121078874 1
gene  1 14 14 -4.509385481167821 1 195.0 -4.509385481167821 1
gene  1 6 14 2.4392570400413525 0 230.0 2.4392570400413525 1
gene  1 4 14 -4.530245717200661 0 312.0 -4.530245717200661 1
gene  1 2 42 0.7249448624755999 0 320.0 0.7249448624755999 1
gene  1 42 13 -1.4008951317045586 0 321.0 -1.4008951317045586 1
genomeend 13
genomestart  14
trait 1 1.080830066389972 0.0 1.563145969794439 0.0 0.0 0.9629060889116104 0.2518745141043184 0.0 
node 1 1 1 1
node 2 1 1 1
node 3 1 1 1
node 4 1 1 1
node 5 1 1 1
node 6 1 1 1
node 7 1 1 3
node 13 1 0 2
node 14 1 0 2
node 42 1 0 0
gene  1 1 13 -1.611762692327782 0 168.0 -1.611762692327782 1
gene  1 2 13 0.4970757633857763 0 169.0 0.4970757633857763 0
gene  1 3 13 -2.2490111347183235 0 170.0 -2.2490111347183235 1
gene  1 4 13 -1.6990624071607954 0 171.0 -1.6990624071607954 1
gene  1 5 13 2.8258007972244106 0 172.0 2.8258007972244106 1
gene  1 6 13 -2.152496529852691 0 173.0 -2.152496529852691 1
gene  1 7 13 0.23483662693378005 0 174.0 0.23483662693378005 1
gene  1 14 13 3.2255055011187075 1 181.0 3.2255055011187075 1
gene  1 1 14 -7.564226272684227 0 182.0 -7.564226272684227 1
gene  1 2 14 10.95036448460749 0 183.0 10.95036448460749 1
gene  1 3 14 0.19638280391549273 0 184.0 0.19638280391549273 1
gene  1 13 14 -0.009283278177992793 0 194.0 -0.009283278177992793 1
gene  1 14 14 -2.8565494398994304 1 195.0 -2.8565494398994304 1
gene  1 6 14 2.3015424225263343 0 230.0 2.3015424225263343 1
gene  1 4 14 -4.482265444347619 0 312.0 -4.482265444347619 1
gene  1 2 42 0.8757236866675229 0 320.0 0.8757236866675229 1
gene  1 42 13 3.614532126002924 0 321.0 3.614532126002924 1
genomeend 14
genomestart  15
trait 1 1.080830066389972 0.0 1.563145969794439 0.0 0.0 0.9629060889116104 0.2518745141043184 0.0 
node 1 1 1 1
node 2 1 1 1
node 3 1 1 1
node 4 1 1 1
node 5 1 1 1
node 6 1 1 1
node 7 1 1 3
node 13 1 0 2
node 14 1 0 2
node 42 1 0 0
gene  1 1 13 -4.0943772883169816 0 168.0 -4.0943772883169816 1
gene  1 2 13 -1.2100803242210707 0 169.0 -1.2100803242210707 0
gene  1 3 13 0.01597579817375694 0 170.0 0.01597579817375694 1
gene  1 4 13 -3.8716024955628967 0 171.0 -3.8716024955628967 1
gene  1 5 13 1.0534434874224068 0 172.0 1.0534434874224068 1
gene  1 6 13 -2.4062517783791426 0 173.0 -2.4062517783791426 1
gene  1 7 13 1.0966010231873136 0 174.0 1.0966010231873136 1
gene  1 14 13 3.9035893478670323 1 181.0 3.9035893478670323 1
gene  1 1 14 -7.951004092857629 0 182.0 -7.951004092857629 1
gene  1 2 14 9.95002806320071 0 183.0 9.95002806320071 1
gene  1 3 14 -0.7301381820088193 0 184.0 -0.7301381820088193 1
gene  1 13 14 -0.7059024868870323 0 194.0 -0.7059024868870323 1
gene  1 14 14 -0.6385736369606247 1 195.0 -0.6385736369606247 1
gene  1 6 14 2.743214873498726 0 230.0 2.743214873498726 1
gene  1 4 14 -6.861935490501393 0 312.0 -6.861935490501393 1
gene  1 2 42 3.25141495396932 0 320.0 3.25141495396932 1
gene  1 42 13 1.5262302194874695 0 321.0 1.5262302194874695 1
genomeend 15
genomestart  16
trait 1 0.7543954501876767 0.0 0.0 0.0 0.0 0.7506659743992431 0.6528869165846171 0.760618498603839 
node 1 1 1 1
node 2 1 1 1
node 3 1 1 1
node 4 1 1 1
node 5 1 1 1
node 6 1 1 1
node 7 1 1 3
node 8 1 0 0
node 13 1 0 2
node 14 1 0 2
gene  1 4 8 -5.330044778060715 0 101.0 -5.330044778060715 1
gene  1 5 8 -0.27448138762132757 0 102.0 -0.27448138762132757 1
gene  1 6 8 1.7631447482994376 0 103.0 1.7631447482994376 1
gene  1 14 8 6.600316812741812 1 111.0 6.600316812741812 1
gene  1 1 13 1.0578140150503998 0 168.0 1.0578140150503998 1
gene  1 2 13 -0.3218195209013211 0 169.0 -0.3218195209013211 1
gene  1 3 13 1.1971124182182717 0 170.0 1.1971124182182717 1
gene  1 5 13 -0.4733219863377325 0 172.0 -0.4733219863377325 1
gene  1 7 13 -0.9256546717143941 0 174.0 -0.9256546717143941 1
gene  1 14 13 0.6487116051588093 1 181.0 0.6487116051588093 1
gene  1 1 14 3.528105234367972 0 182.0 3.528105234367972 1
gene  1 2 14 -1.8625178557087685 0 183.0 -1.8625178557087685 1
gene  1 3 14 -1.4045255010059443 0 184.0 -1.4045255010059443 1
gene  1 4 14 1.092621512286307 0 185.0 1.092621512286307 1
gene  1 8 14 -9.127825687142764 0 189.0 -9.127825687142764 1
gene  1 14 14 -4.3086536415667 1 195.0 -4.3086536415667 1
gene  1 6 14 -1.0692760853168315 0 240.0 -1.0692760853168315 1
gene  1 8 13 2.274846331024813 0 311.0 2.274846331024813 1
gene  1 14 13 4.758319932051053 0 322.0 4.758319932051053 1
genomeend 16
genomestart  17
trait 1 0.7543954501876767 0.0 0.0 0.0 0.0 0.7506659743992431 0.6528869165846171 0.760618498603839 
node 1 1 1 1
node 2 1 1 1
node 3 1 1 1
node 4 1 1 1
node 5 1 1 1
node 6 1 1 1
node 7 1 1 3
node 8 1 0 0
node 13 1 0 2
node 14 1 0 2
gene  1 4 8 -5.330044778060715 0 101.0 -5.330044778060715 1
gene  1 5 8 -5.59206338676587 0 102.0 -5.59206338676587 1
gene  1 6 8 -0.473720539151683 0 103.0 -0.473720539151683 1
gene  1 14 8 6.600316812741812 1 111.0 6.600316812741812 1
gene  1 1 13 1.2943995075076575 0 168.0 1.2943995075076575 1
gene  1 2 13 -0.3218195209013211 0 169.0 -0.3218195209013211 1
gene  1 3 13 1.5248761253696896 0 170.0 1.5248761253696896 1
gene  1 5 13 0.2751523675078382 0 172.0 0.2751523675078382 1
gene  1 7 13 -3.2917663601292992 0 174.0 -3.2917663601292992 1
gene  1 14 13 -1.030901618057361 1 181.0 -1.030901618057361 1
gene  1 1 14 3.056545911517042 0 182.0 3.056545911517042 1
gene  1 2 14 -1.860709915456254 0 183.0 -1.860709915456254 1
gene  1 3 14 -10.159448915207715 0 184.0 -10.159448915207715 1
gene  1 4 14 0.8590369942085019 0 185.0 0.8590369942085019 1
gene  1 8 14 -7.539407310132696 0 189.0 -7.539407310132696 1
gene  1 14 14 -2.370976396891955 1 195.0 -2.370976396891955 1
gene  1 6 14 -0.8612340717107523 0 240.0 -0.8612340717107523 1
gene  1 8 13 6.054376201787251 0 311.0 6.054376201787251 1
gene  1 14 13 5.846651824974692 0 322.0 5.846651824974692 1
genomeend 17
genomestart  18
trait 1 0.8225567813410785 1.2140246672840036 0.7816155317589891 0.49951333318806035 0.760472394127403 0.9742749841765682 0.16709809669901776 0.20144182840303793 
node 1 1 1 1
node 2 1 1 1
node 3 1 1 1
node 4 1 1 1
node 5 1 1 1
node 6 1 1 1
node 7 1 1 3
node 8 1 0 0
node 9 1 0 0
node 10 1 0 0
node 11 1 0 0
node 12 1 0 0
node 13 1 0 2
node 14 1 0 2
node 27 1 0 0
node 34 1 0 0
node 40 1 0 0
gene  1 1 8 -1.496748798280071 0 98.0 -1.496748798280071 1
gene  1 3 8 2.1062233864534408 0 100.0 2.1062233864534408 1
gene  1 4 8 -0.7444686315171334 0 101.0 -0.7444686315171334 1
gene  1 6 8 0.7134986920748441 0 103.0 0.7134986920748441 1
gene  1 8 8 -0.06684084900294351 1 105.0 -0.06684084900294351 0
gene  1 10 8 -0.8768905581040594 1 107.0 -0.8768905581040594 1
gene  1 3 9 -5.628099906659582 0 114.0 -5.628099906659582 1
gene  1 6 9 2.8547954123930195 0 117.0 2.8547954123930195 1
gene  1 8 9 0.678635611555626 0 119.0 0.678635611555626 1
gene  1 10 9 -0.4072743737437923 1 121.0 -0.4072743737437923 1
gene  1 11 9 -3.3932630140473203 1 122.0 -3.3932630140473203 1
gene  1 13 9 -4.434117698778312 1 124.0 -4.434117698778312 1
gene  1 14 9 -0.9196784686289559 1 125.0 -0.9196784686289559 1
gene  1 1 10 0.9005542205741449 0 126.0 0.9005542205741449 1
gene  1 3 10 5.198018468007852 0 128.0 5.198018468007852 1
gene  1 4 10 -5.662926161598261 0 129.0 -5.662926161598261 1
gene  1 5 10 2.3527731374241303 0 130.0 2.3527731374241303 1
gene  1 9 10 8.762269898020476 0 134.0 8.762269898020476 1
gene  1 13 10 3.034591138019473 1 138.0 3.034591138019473 1
gene  1 1 11 0.08500607660508264 0 140.0 0.08500607660508264 1
gene  1 3 11 -2.1624744449058615 0 142.0 -2.1624744449058615 1
gene  1 5 11 -1.1853446638169332 0 144.0 -1.1853446638169332 1
gene  1 9 11 4.671037803767375 0 148.0 4.671037803767375 1
gene  1 10 11 -6.030195616320306 0 149.0 -6.030195616320306 1
gene  1 12 11 -2.8608844663473523 1 151.0 -2.8608844663473523 1
gene  1 14 11 0.41101057152462395 1 153.0 0.41101057152462395 1
gene  1 2 12 1.0625831666416938 0 155.0 1.0625831666416938 1
gene  1 4 12 0.7139619536179669 0 157.0 0.7139619536179669 1
gene  1 6 12 2.027453755955356 0 159.0 2.027453755955356 1
gene  1 7 12 -1.4535882144802632 0 160.0 -1.4535882144802632 1
gene  1 9 12 5.055816495366029 0 162.0 5.055816495366029 1
gene  1 10 12 -6.1689118377585945 0 163.0 -6.1689118377585945 1
gene  1 12 12 -1.2190950955259012 1 165.0 -1.2190950955259012 1
gene  1 14 12 -0.21525988719920175 1 167.0 -0.21525988719920175 1
gene  1 1 13 -2.7555321886552333 0 168.0 -2.7555321886552333 1
gene  1 3 13 -5.000980833445759 0 170.0 -5.000980833445759 1
gene  1 4 13 1.005953731302077 0 171.0 1.005953731302077 1
gene  1 6 13 5.360448843087714 0 173.0 5.360448843087714 1
gene  1 8 13 -2.233466838547343 0 175.0 -2.233466838547343 1
gene  1 9 13 -2.5345290225860735 0 176.0 -2.5345290225860735 1
gene  1 8 14 1.7464127703935235 0 189.0 1.7464127703935235 1
gene  1 11 14 -1.2235046959174656 0 192.0 -1.2235046959174656 1
gene  1 5 8 1.8427855807828994 0 235.0 1.8427855807828994 1
gene  1 1 27 1.097087914596469 0 241.0 1.097087914596469 1
gene  1 27 8 1.6056712289345088 0 242.0 1.6056712289345088 1
gene  1 9 34 0.7414547187842877 0 272.0 0.7414547187842877 1
gene  1 34 11 1.4669869270855345 0 273.0 1.4669869270855345 1
gene  1 5 13 3.9938512187238935 0 277.0 3.9938512187238935 1
gene  1 12 14 -1.0239254711872356 0 296.0 -1.0239254711872356 1
gene  1 8 40 0.6350480512288446 1 308.0 0.6350480512288446 1
gene  1 40 8 -5.277428016244104 0 309.0 -5.277428016244104 1
genomeend 18
genomestart  19
trait 1 0.8225567813410785 1.2140246672840036 0.7816155317589891 0.49951333318806035 0.760472394127403 0.9742749841765682 0.16709809669901776 0.20144182840303793 
node 1 1 1 1
node 2 1 1 1
node 3 1 1 1
node 4 1 1 1
node 5 1 1 1
node 6 1 1 1
node 7 1 1 3
node 8 1 0 0
node 9 1 0 0
node 10 1 0 0
node 11 1 0 0
node 12 1 0 0
node 13 1 0 2
node 14 1 0 2
node 27 1 0 0
node 34 1 0 0
node 40 1 0 0
gene  1 1 8 -4.927814792708659 0 98.0 -4.927814792708659 1
gene  1 3 8 1.9956892086645315 0 100.0 1.9956892086645315 1
gene  1 4 8 -2.5924900208074937 0 101.0 -2.5924900208074937 1
gene  1 6 8 -1.5590171182250907 0 103.0 -1.5590171182250907 1
gene  1 8 8 3.7039681828143505 1 105.0 3.7039681828143505 0
gene  1 10 8 2.6638754821400696 1 107.0 2.6638754821400696 1
gene  1 3 9 -4.603692030440283 0 114.0 -4.603692030440283 1
gene  1 6 9 2.5144676558507393 0 117.0 2.5144676558507393 1
gene  1 8 9 -1.8572492449600804 0 119.0 -1.8572492449600804 1
gene  1 10 9 -0.9062760827179961 1 121.0 -0.9062760827179961 1
gene  1 11 9 -4.2822771034867575 1 122.0 -4.2822771034867575 1
gene  1 13 9 -5.398916460352105 1 124.0 -5.398916460352105 1
gene  1 14 9 0.5458619127318456 1 125.0 0.5458619127318456 1
gene  1 1 10 -2.344029090356978 0 126.0 -2.344029090356978 1
gene  1 3 10 3.65515928790503 0 128.0 3.65515928790503 1
gene  1 4 10 -4.118801280088589 0 129.0 -4.118801280088589 1
gene  1 5 10 -1.4599420050519314 0 130.0 -1.4599420050519314 1
gene  1 9 10 7.4871217977286 0 134.0 7.4871217977286 1
gene  1 13 10 2.023239609885637 1 138.0 2.023239609885637 1
gene  1 1 11 -1.0065005646726406 0 140.0 -1.0065005646726406 1
gene  1 3 11 -2.635030515919401 0 142.0 -2.635030515919401 1
gene  1 5 11 1.2752809239311462 0 144.0 1.2752809239311462 1
gene  1 9 11 3.2026914054760596 0 148.0 3.2026914054760596 1
gene  1 10 11 -5.7141968175188955 0 149.0 -5.7141968175188955 1
gene  1 12 11 -4.2163328874502195 1 151.0 -4.2163328874502195 1
gene  1 14 11 -0.29016133871752126 1 153.0 -0.29016133871752126 1
gene  1 2 12 -2.1846481939565905 0 155.0 -2.1846481939565905 1
gene  1 4 12 -2.119070827094215 0 157.0 -2.119070827094215 1
gene  1 6 12 4.915686236063556 0 159.0 4.915686236063556 1
gene  1 7 12 -4.100475881587953 0 160.0 -4.100475881587953 1
gene  1 9 12 5.693993473619791 0 162.0 5.693993473619791 1
gene  1 10 12 -5.102283698257549 0 163.0 -5.102283698257549 1
gene  1 12 12 -0.586419120133322 1 165.0 -0.586419120133322 1
gene  1 14 12 -0.33531260867131185 1 167.0 -0.33531260867131185 1
gene  1 1 13 -1.830249324591923 0 168.0 -1.830249324591923 1
gene  1 3 13 -8.785083235097925 0 170.0 -8.785083235097925 1
gene  1 4 13 -2.0752859063577853 0 171.0 -2.0752859063577853 1
gene  1 6 13 1.7294177318933117 0 173.0 1.7294177318933117 1
gene  1 8 13 -3.805346765247112 0 175.0 -3.805346765247112 1
gene  1 9 13 0.5418364862098376 0 176.0 0.5418364862098376 1
gene  1 8 14 0.22437409040490897 0 189.0 0.22437409040490897 1
gene  1 11 14 -2.1172644541057526 0 192.0 -2.1172644541057526 1
gene  1 5 8 1.4864877374356087 0 235.0 1.4864877374356087 1
gene  1 1 27 -0.1658422014511568 0 241.0 -0.1658422014511568 1
gene  1 27 8 0.00969711593233491 0 242.0 0.00969711593233491 1
gene  1 9 34 3.04734347097668 0 272.0 3.04734347097668 1
gene  1 34 11 3.6211623375618087 0 273.0 3.6211623375618087 1
gene  1 5 13 1.634911498615503 0 277.0 1.634911498615503 1
gene  1 12 14 1.9243472207475998 0 296.0 1.9243472207475998 1
gene  1 8 40 2.6464491885673658 1 308.0 2.6464491885673658 1
gene  1 40 8 -6.425627718332313 0 309.0 -6.425627718332313 1
genomeend 19
