genomestart  0
trait 1 0.0 0.29964541126798605 0.0 0.0 0.0 0.0 0.08354904834950888 0.0 
node 1 1 1 1
node 2 1 1 1
node 3 1 1 1
node 4 1 1 1
node 5 1 1 1
node 6 1 1 1
node 7 1 1 3
node 13 1 0 2
node 14 1 0 2
node 19 1 0 0
gene  1 1 13 -2.721307401033009 0 168.0 -2.721307401033009 1
gene  1 3 13 1.4135406600368332 0 170.0 1.4135406600368332 1
gene  1 5 13 0.34431298016965073 0 172.0 0.34431298016965073 0
gene  1 6 13 -4.351417247267358 0 173.0 -4.351417247267358 1
gene  1 14 13 -0.6609132885860124 1 181.0 -0.6609132885860124 1
gene  1 1 14 3.2283903784826267 0 182.0 3.2283903784826267 1
gene  1 2 14 -1.4652464341745248 0 183.0 -1.4652464341745248 1
gene  1 4 14 3.998205732679332 0 185.0 3.998205732679332 1
gene  1 5 14 4.307705635261632 0 186.0 4.307705635261632 1
gene  1 6 14 -0.6264227867468626 0 187.0 -0.6264227867468626 1
gene  1 7 14 -1.5147439994212195 0 188.0 -1.5147439994212195 1
gene  1 13 14 0.24517412514178216 0 194.0 0.24517412514178216 1
gene  1 14 14 -4.89390610943897 1 195.0 -4.89390610943897 1
gene  1 5 19 -1.7455732061320437 0 213.0 -1.7455732061320437 1
gene  1 19 13 3.646471034192636 0 214.0 3.646471034192636 1
gene  1 2 13 8.622005549676338 0 243.0 8.622005549676338 1
gene  1 6 19 -3.681843052799395 0 257.0 -3.681843052799395 1
gene  1 19 14 -1.5846076614802573 0 267.0 -1.5846076614802573 1
genomeend 0
genomestart  1
trait 1 0.0 0.29964541126798605 0.0 0.0 0.0 0.0 0.08354904834950888 0.0 
node 1 1 1 1
node 2 1 1 1
node 3 1 1 1
node 4 1 1 1
node 5 1 1 1
node 6 1 1 1
node 7 1 1 3
node 13 1 0 2
node 14 1 0 2
node 19 1 0 0
node 33 1 0 0
gene  1 1 13 -2.4532834077361394 0 168.0 -2.4532834077361394 1
gene  1 3 13 0.38590229375040463 0 170.0 0.38590229375040463 1
gene  1 5 13 -1.4433900422821497 0 172.0 -1.4433900422821497 0
gene  1 6 13 -6.759686919781435 0 173.0 -6.759686919781435 1
gene  1 14 13 -0.36240798866671076 1 181.0 -0.36240798866671076 1
gene  1 1 14 2.216872320887661 0 182.0 2.216872320887661 1
gene  1 2 14 -3.636102398975989 0 183.0 -3.636102398975989 1
gene  1 4 14 1.9121528909787926 0 185.0 1.9121528909787926 1
gene  1 5 14 5.284353454259914 0 186.0 5.284353454259914 1
gene  1 6 14 -2.0372430661960452 0 187.0 -2.0372430661960452 1
gene  1 7 14 -0.29534663001494516 0 188.0 -0.29534663001494516 1
gene  1 13 14 -0.6953954277870045 0 194.0 -0.6953954277870045 1
gene  1 14 14 -5.641934543809567 1 195.0 -5.641934543809567 0
gene  1 5 19 0.06866736034193799 0 213.0 0.06866736034193799 1
gene  1 19 13 2.436679517997487 0 214.0 2.436679517997487 1
gene  1 2 13 8.622005549676338 0 243.0 8.622005549676338 1
gene  1 6 19 -3.681843052799395 0 257.0 -3.681843052799395 1
gene  1 19 14 7.279475296303557 0 267.0 7.279475296303557 1
gene  1 14 33 1.0 1 268.0 0.0 1
gene  1 33 14 -5.641934543809567 0 269.0 0.0 1
genomeend 1
genomestart  2
trait 1 0.38509797114028876 1.1306295992632984 0.0 0.17101181944213528 0.0 0.0 0.0 1.0208282639679993 
node 1 1 1 1
node 2 1 1 1
node 3 1 1 1
node 4 1 1 1
node 5 1 1 1
node 6 1 1 1
node 7 1 1 3
node 13 1 0 2
node 14 1 0 2
node 24 1 0 0
gene  1 2 13 -2.4918479369432545 0 169.0 -2.4918479369432545 1
gene  1 3 13 -2.7195784668308693 0 170.0 -2.7195784668308693 1
gene  1 4 13 0.9486572947520164 0 171.0 0.9486572947520164 1
gene  1 6 13 3.096953191968924 0 173.0 3.096953191968924 1
gene  1 7 13 0.9042878526181621 0 174.0 0.9042878526181621 1
gene  1 13 13 -0.5985323467031942 1 180.0 -0.5985323467031942 1
gene  1 1 14 3.366940802473742 0 182.0 3.366940802473742 1
gene  1 2 14 3.1018071309153616 0 183.0 3.1018071309153616 1
gene  1 5 14 0.3054961125517822 0 186.0 0.3054961125517822 1
gene  1 6 14 -1.7132681729565244 0 187.0 -1.7132681729565244 1
gene  1 7 14 1.0018100427735273 0 188.0 1.0018100427735273 1
gene  1 13 14 2.7432108157900066 0 194.0 2.7432108157900066 1
gene  1 14 14 -2.248767260149042 1 195.0 -2.248767260149042 1
gene  1 2 24 -5.1029333657294345 0 226.0 -5.1029333657294345 1
gene  1 24 13 -5.5764166823508425 0 227.0 -5.5764166823508425 1
gene  1 7 24 1.6063659094016063 0 245.0 1.6063659094016063 1
gene  1 1 24 -2.8231992480883754 0 249.0 -2.8231992480883754 1
genomeend 2
genomestart  3
trait 1 0.38509797114028876 1.1306295992632984 0.0 0.17101181944213528 0.0 0.0 0.0 1.0208282639679993 
node 1 1 1 1
node 2 1 1 1
node 3 1 1 1
node 4 1 1 1
node 5 1 1 1
node 6 1 1 1
node 7 1 1 3
node 13 1 0 2
node 14 1 0 2
node 24 1 0 0
gene  1 2 13 -3.561679344111885 0 169.0 -3.561679344111885 1
gene  1 3 13 -0.9934828984455961 0 170.0 -0.9934828984455961 1
gene  1 4 13 2.361967253519383 0 171.0 2.361967253519383 1
gene  1 6 13 4.999323963656053 0 173.0 4.999323963656053 1
gene  1 7 13 -0.6692488355692299 0 174.0 -0.6692488355692299 1
gene  1 13 13 0.9226520791552355 1 180.0 0.9226520791552355 1
gene  1 1 14 4.635739667067663 0 182.0 4.635739667067663 1
gene  1 2 14 2.244889135297762 0 183.0 2.244889135297762 1
gene  1 5 14 -1.1938279902681381 0 186.0 -1.1938279902681381 1
gene  1 6 14 -1.3326516020498704 0 187.0 -1.3326516020498704 1
gene  1 7 14 1.9242447977170425 0 188.0 1.9242447977170425 1
gene  1 13 14 2.842639153711895 0 194.0 2.842639153711895 1
gene  1 14 14 0.3068717366187571 1 195.0 0.3068717366187571 1
gene  1 2 24 -0.9187344768200383 0 226.0 -0.9187344768200383 1
gene  1 24 13 -4.089909447262722 0 227.0 -4.089909447262722 1
gene  1 7 24 0.6002661920066465 0 245.0 0.6002661920066465 1
gene  1 1 24 -1.4827386245465393 0 249.0 -1.4827386245465393 1
genomeend 3
genomestart  4
trait 1 0.9658100958370718 0.5527206392592479 1.7535517816909252 0.0 0.0 1.5188178498138516 0.7279373662985449 0.0 
node 1 1 1 1
node 2 1 1 1
node 3 1 1 1
node 4 1 1 1
node 5 1 1 1
node 6 1 1 1
node 7 1 1 3
node 8 1 0 0
node 9 1 0 0
node 10 1 0 0
node 11 1 0 0
node 13 1 0 2
node 14 1 0 2
gene  1 2 8 5.867597508374088 0 99.0 5.867597508374088 1
gene  1 6 8 -2.100343394485813 0 103.0 -2.100343394485813 1
gene  1 8 8 5.162599690830959 1 105.0 5.162599690830959 1
gene  1 9 8 -6.592211332832273 1 106.0 -6.592211332832273 1
gene  1 10 8 0.6224946513711851 1 107.0 0.6224946513711851 1
gene  1 11 8 6.402386318427067 1 108.0 6.402386318427067 1
gene  1 13 8 0.2033059780460334 1 110.0 0.2033059780460334 1
gene  1 14 8 3.6460728354991367 1 111.0 3.6460728354991367 1
gene  1 1 9 -0.11236466729600969 0 112.0 -0.11236466729600969 1
gene  1 2 9 3.435495498272344 0 113.0 3.435495498272344 1
gene  1 3 9 -3.2352381571352726 0 114.0 -3.2352381571352726 1
gene  1 6 9 -3.438549399764692 0 117.0 -3.438549399764692 1
gene  1 7 9 0.8145855438708549 0 118.0 0.8145855438708549 1
gene  1 8 9 0.5616592954561723 0 119.0 0.5616592954561723 1
gene  1 9 9 -1.0955229188570408 1 120.0 -1.0955229188570408 1
gene  1 11 9 -4.0699869484707065 1 122.0 -4.0699869484707065 1
gene  1 13 9 3.300467783410097 1 124.0 3.300467783410097 1
gene  1 14 9 1.6353091462233624 1 125.0 1.6353091462233624 1
gene  1 1 10 -1.0498991442658983 0 126.0 -1.0498991442658983 1
gene  1 3 10 5.894855058761834 0 128.0 5.894855058761834 1
gene  1 4 10 -2.8287414295244155 0 129.0 -2.8287414295244155 1
gene  1 5 10 -6.840343027108656 0 130.0 -6.840343027108656 1
gene  1 6 10 -4.47610114783032 0 131.0 -4.47610114783032 1
gene  1 10 10 3.296266721115692 1 135.0 3.296266721115692 1
gene  1 11 10 0.344921556426947 1 136.0 0.344921556426947 1
gene  1 14 10 -1.542480778315894 1 139.0 -1.542480778315894 1
gene  1 1 11 7.138804692610904 0 140.0 7.138804692610904 1
gene  1 3 11 4.094547441268672 0 142.0 4.094547441268672 1
gene  1 5 11 1.5639064167481591 0 144.0 1.5639064167481591 1
gene  1 6 11 0.8339276462516478 0 145.0 0.8339276462516478 1
gene  1 7 11 3.7160423601340278 0 146.0 3.7160423601340278 1
gene  1 8 11 2.3091445227228515 0 147.0 2.3091445227228515 1
gene  1 9 11 4.61512052691584 0 148.0 4.61512052691584 1
gene  1 10 11 0.3808908164228919 0 149.0 0.3808908164228919 1
gene  1 11 11 9.179210755116719 1 150.0 9.179210755116719 1
gene  1 1 13 -7.978761814124086 0 168.0 -7.978761814124086 1
gene  1 2 13 2.727510869442201 0 169.0 2.727510869442201 1
gene  1 3 13 1.003651354651149 0 170.0 1.003651354651149 1
gene  1 7 13 4.5535911483839655 0 174.0 4.5535911483839655 1
gene  1 11 13 5.996652534831778 0 178.0 5.996652534831778 1
gene  1 13 13 9.342159605567211 1 180.0 9.342159605567211 1
gene  1 2 14 2.680286501345981 0 183.0 2.680286501345981 1
gene  1 3 14 2.8637164709858958 0 184.0 2.8637164709858958 1
gene  1 4 14 -3.2640423492681823 0 185.0 -3.2640423492681823 1
gene  1 7 14 0.32540381892042336 0 188.0 0.32540381892042336 1
gene  1 8 14 -1.1685524458382892 0 189.0 -1.1685524458382892 1
gene  1 10 14 1.4915342940813223 0 191.0 1.4915342940813223 1
gene  1 13 14 2.4517232399625253 0 194.0 2.4517232399625253 1
gene  1 5 13 3.308563081415959 0 198.0 3.308563081415959 1
gene  1 4 9 -4.082580907532652 0 200.0 -4.082580907532652 1
gene  1 8 13 -2.1224458525803853 0 248.0 -2.1224458525803853 1
gene  1 7 10 -8.835523245962207 0 270.0 -8.835523245962207 1
genomeend 4
genomestart  5
trait 1 0.9658100958370718 0.5527206392592479 1.7535517816909252 0.0 0.0 1.5188178498138516 0.7279373662985449 0.0 
node 1 1 1 1
node 2 1 1 1
node 3 1 1 1
node 4 1 1 1
node 5 1 1 1
node 6 1 1 1
node 7 1 1 3
node 8 1 0 0
node 9 1 0 0
node 10 1 0 0
node 11 1 0 0
node 13 1 0 2
node 14 1 0 2
gene  1 2 8 5.905659099753903 0 99.0 5.905659099753903 1
gene  1 6 8 -0.15223424783295414 0 103.0 -0.15223424783295414 1
gene  1 8 8 3.36620493609319 1 105.0 3.36620493609319 1
gene  1 9 8 -7.146077510506636 1 106.0 -7.146077510506636 1
gene  1 10 8 2.3841714084636005 1 107.0 2.3841714084636005 1
gene  1 11 8 8.267273066116626 1 108.0 8.267273066116626 1
gene  1 13 8 1.2812127730745781 1 110.0 1.2812127730745781 1
gene  1 14 8 3.2862952267974106 1 111.0 3.2862952267974106 1
gene  1 1 9 -1.9721543951468579 0 112.0 -1.9721543951468579 1
gene  1 2 9 1.361665520279518 0 113.0 1.361665520279518 1
gene  1 3 9 -4.985427805646253 0 114.0 -4.985427805646253 1
gene  1 6 9 -4.176765318379559 0 117.0 -4.176765318379559 1
gene  1 7 9 1.6842770660741473 0 118.0 1.6842770660741473 1
gene  1 8 9 -1.5106098657091944 0 119.0 -1.5106098657091944 1
gene  1 9 9 -2.200678892712572 1 120.0 -2.200678892712572 1
gene  1 11 9 -2.1369326013891072 1 122.0 -2.1369326013891072 1
gene  1 13 9 3.970328063006593 1 124.0 3.970328063006593 1
gene  1 14 9 1.513202337578653 1 125.0 1.513202337578653 1
gene  1 1 10 -1.3924320659962237 0 126.0 -1.3924320659962237 1
gene  1 3 10 4.212244319555721 0 128.0 4.212244319555721 1
gene  1 4 10 -4.353502003165831 0 129.0 -4.353502003165831 1
gene  1 5 10 -4.627393006302334 0 130.0 -4.627393006302334 1
gene  1 6 10 -4.194744169570196 0 131.0 -4.194744169570196 1
gene  1 10 10 2.750098866934776 1 135.0 2.750098866934776 1
gene  1 11 10 0.8023484816691978 1 136.0 0.8023484816691978 1
gene  1 14 10 0.2827412801688962 1 139.0 0.2827412801688962 1
gene  1 1 11 5.328048421003226 0 140.0 5.328048421003226 1
gene  1 3 11 5.2638585959371715 0 142.0 5.2638585959371715 1
gene  1 5 11 1.6939743083400205 0 144.0 1.6939743083400205 1
gene  1 6 11 2.0222225123014126 0 145.0 2.0222225123014126 1
gene  1 7 11 1.3243537633700644 0 146.0 1.3243537633700644 1
gene  1 8 11 3.873780207465329 0 147.0 3.873780207465329 1
gene  1 9 11 5.001348402927911 0 148.0 5.001348402927911 1
gene  1 10 11 2.4345665770295826 0 149.0 2.4345665770295826 1
gene  1 11 11 11.142946950693934 1 150.0 11.142946950693934 1
gene  1 1 13 -7.569804677258051 0 168.0 -7.569804677258051 1
gene  1 2 13 1.8095291274014753 0 169.0 1.8095291274014753 1
gene  1 3 13 -1.1093810973818061 0 170.0 -1.1093810973818061 1
gene  1 7 13 5.138699686974855 0 174.0 5.138699686974855 1
gene  1 11 13 3.5167900639338674 0 178.0 3.5167900639338674 1
gene  1 13 13 10.354612973765764 1 180.0 10.354612973765764 1
gene  1 2 14 2.680286501345981 0 183.0 2.680286501345981 1
gene  1 3 14 2.5389963627973997 0 184.0 2.5389963627973997 1
gene  1 4 14 -3.2640423492681823 0 185.0 -3.2640423492681823 1
gene  1 7 14 -1.0341003939363311 0 188.0 -1.0341003939363311 1
gene  1 8 14 -2.0195668668202975 0 189.0 -2.0195668668202975 1
gene  1 10 14 1.589356115795257 0 191.0 1.589356115795257 1
gene  1 13 14 1.758331141349693 0 194.0 1.758331141349693 1
gene  1 5 13 -2.438622367884496 0 198.0 -2.438622367884496 1
gene  1 4 9 0.9190823563255296 0 200.0 0.9190823563255296 1
gene  1 8 13 -2.954957894788352 0 248.0 -2.954957894788352 1
genomeend 5
genomestart  6
trait 1 0.9658100958370718 0.5527206392592479 1.7535517816909252 0.0 0.0 1.5188178498138516 0.7279373662985449 0.0 
node 1 1 1 1
node 2 1 1 1
node 3 1 1 1
node 4 1 1 1
node 5 1 1 1
node 6 1 1 1
node 7 1 1 3
node 8 1 0 0
node 9 1 0 0
node 10 1 0 0
node 11 1 0 0
node 13 1 0 2
node 14 1 0 2
gene  1 2 8 1.238906248522773 0 99.0 1.238906248522773 1
gene  1 6 8 -2.017802456853685 0 103.0 -2.017802456853685 1
gene  1 8 8 3.4522494179415 1 105.0 3.4522494179415 1
gene  1 9 8 -7.639439990270915 1 106.0 -7.639439990270915 1
gene  1 10 8 0.3877690393073243 1 107.0 0.3877690393073243 1
gene  1 11 8 -1.5818916840876087 1 108.0 -1.5818916840876087 1
gene  1 13 8 -1.9147678061293534 1 110.0 -1.9147678061293534 1
gene  1 14 8 5.101122655373874 1 111.0 5.101122655373874 1
gene  1 1 9 -1.2821244914834602 0 112.0 -1.2821244914834602 1
gene  1 2 9 5.835777615760833 0 113.0 5.835777615760833 1
gene  1 3 9 -4.8307226990185415 0 114.0 -4.8307226990185415 1
gene  1 6 9 -2.84094402567623 0 117.0 -2.84094402567623 1
gene  1 7 9 0.2184669618765417 0 118.0 0.2184669618765417 1
gene  1 8 9 1.0242605652911638 0 119.0 1.0242605652911638 1
gene  1 9 9 1.8058775772419178 1 120.0 1.8058775772419178 1
gene  1 11 9 -2.3350241837554786 1 122.0 -2.3350241837554786 1
gene  1 13 9 5.277397807769968 1 124.0 5.277397807769968 1
gene  1 14 9 0.36238567576590697 1 125.0 0.36238567576590697 1
gene  1 1 10 0.9125898800821646 0 126.0 0.9125898800821646 1
gene  1 3 10 0.70434212280884 0 128.0 0.70434212280884 1
gene  1 4 10 -2.8287414295244155 0 129.0 -2.8287414295244155 1
gene  1 5 10 -5.979999301777666 0 130.0 -5.979999301777666 1
gene  1 6 10 -3.376305139574302 0 131.0 -3.376305139574302 1
gene  1 10 10 3.296266721115692 1 135.0 3.296266721115692 1
gene  1 11 10 -1.5929646932221662 1 136.0 -1.5929646932221662 1
gene  1 14 10 -2.961211868625271 1 139.0 -2.961211868625271 1
gene  1 1 11 5.627225058396479 0 140.0 5.627225058396479 1
gene  1 3 11 4.094547441268672 0 142.0 4.094547441268672 1
gene  1 5 11 0.3200083334373774 0 144.0 0.3200083334373774 1
gene  1 6 11 0.8339276462516478 0 145.0 0.8339276462516478 1
gene  1 7 11 3.7160423601340278 0 146.0 3.7160423601340278 1
gene  1 8 11 -0.031157675049567624 0 147.0 -0.031157675049567624 1
gene  1 9 11 2.348227125165049 0 148.0 2.348227125165049 1
gene  1 10 11 0.6930846073054386 0 149.0 0.6930846073054386 1
gene  1 11 11 9.179210755116719 1 150.0 9.179210755116719 1
gene  1 1 13 -7.978761814124086 0 168.0 -7.978761814124086 1
gene  1 2 13 1.9919307178095589 0 169.0 1.9919307178095589 1
gene  1 3 13 1.265198908193162 0 170.0 1.265198908193162 1
gene  1 7 13 2.7578296306753405 0 174.0 2.7578296306753405 1
gene  1 11 13 8.18760854873291 0 178.0 8.18760854873291 1
gene  1 13 13 7.3060462199588345 1 180.0 7.3060462199588345 1
gene  1 2 14 3.692015737459293 0 183.0 3.692015737459293 1
gene  1 3 14 4.720634497106839 0 184.0 4.720634497106839 1
gene  1 4 14 -2.3616131205100865 0 185.0 -2.3616131205100865 1
gene  1 7 14 -1.6268359407763555 0 188.0 -1.6268359407763555 1
gene  1 8 14 -1.6826319799925817 0 189.0 -1.6826319799925817 1
gene  1 10 14 0.6883914407938455 0 191.0 0.6883914407938455 1
gene  1 13 14 0.5846128935070033 0 194.0 0.5846128935070033 1
gene  1 5 13 4.1331423313142235 0 198.0 4.1331423313142235 1
gene  1 4 9 1.26023737179551 0 200.0 1.26023737179551 1
gene  1 8 13 -4.13550648473527 0 248.0 -4.13550648473527 1
genomeend 6
genomestart  7
trait 1 0.9094479393069818 0.0 0.18125169842722821 0.0 0.5658812609091859 0.42041845515383636 0.6672100230779487 0.0 
node 1 1 1 1
node 2 1 1 1
node 3 1 1 1
node 4 1 1 1
node 5 1 1 1
node 6 1 1 1
node 7 1 1 3
node 8 1 0 0
node 13 1 0 2
node 14 1 0 2
node 16 1 0 0
node 20 1 0 0
gene  1 1 8 -0.1275083297236923 0 98.0 -0.1275083297236923 1
gene  1 2 8 6.200467958172805 0 99.0 6.200467958172805 1
gene  1 3 8 0.48429549253716897 0 100.0 0.48429549253716897 1
gene  1 4 8 -0.011967126952399543 0 101.0 -0.011967126952399543 1
gene  1 5 8 1.5860947910690626 0 102.0 1.5860947910690626 1
gene  1 6 8 -1.97685394347476 0 103.0 -1.97685394347476 1
gene  1 8 8 -1.39875609689564 1 105.0 -1.39875609689564 1
gene  1 13 8 0.20930691722065664 1 110.0 0.20930691722065664 1
gene  1 14 8 -2.924116785096201 1 111.0 -2.924116785096201 1
gene  1 3 13 1.8270655245217906 0 170.0 1.8270655245217906 1
gene  1 5 13 4.792898486502595 0 172.0 4.792898486502595 1
gene  1 7 13 -3.5943465523417544 0 174.0 -3.5943465523417544 1
gene  1 13 13 6.415260627553058 1 180.0 6.415260627553058 1
gene  1 2 14 -2.49519097935809 0 183.0 -2.49519097935809 1
gene  1 4 14 -2.293270434438812 0 185.0 -2.293270434438812 1
gene  1 6 14 -0.7586473733229209 0 187.0 -0.7586473733229209 1
gene  1 8 14 6.945618125120216 0 189.0 6.945618125120216 1
gene  1 13 14 3.8640871164254955 0 194.0 3.8640871164254955 1
gene  1 13 16 0.7037116079265182 0 201.0 0.7037116079265182 1
gene  1 16 14 0.6570887828056051 0 202.0 0.6570887828056051 1
gene  1 3 20 -0.403026545991934 0 215.0 -0.403026545991934 1
gene  1 20 8 1.9965061649791618 0 216.0 1.9965061649791618 1
gene  1 8 13 -3.602622370736928 0 233.0 -3.602622370736928 1
genomeend 7
genomestart  8
trait 1 0.9094479393069818 0.0 0.18125169842722821 0.0 0.5658812609091859 0.42041845515383636 0.6672100230779487 0.0 
node 1 1 1 1
node 2 1 1 1
node 3 1 1 1
node 4 1 1 1
node 5 1 1 1
node 6 1 1 1
node 7 1 1 3
node 8 1 0 0
node 13 1 0 2
node 14 1 0 2
node 16 1 0 0
node 20 1 0 0
gene  1 1 8 -0.34143217233770007 0 98.0 -0.34143217233770007 1
gene  1 2 8 3.318366935205392 0 99.0 3.318366935205392 1
gene  1 3 8 4.777501056730836 0 100.0 4.777501056730836 1
gene  1 4 8 1.511125415529029 0 101.0 1.511125415529029 1
gene  1 5 8 0.9823207747742729 0 102.0 0.9823207747742729 1
gene  1 6 8 1.6849455894898193 0 103.0 1.6849455894898193 1
gene  1 8 8 -2.461278577448795 1 105.0 -2.461278577448795 1
gene  1 13 8 -2.059844496246938 1 110.0 -2.059844496246938 1
gene  1 14 8 -3.1926964490005814 1 111.0 -3.1926964490005814 1
gene  1 3 13 1.9528555779102617 0 170.0 1.9528555779102617 1
gene  1 5 13 7.29321578071693 0 172.0 7.29321578071693 1
gene  1 7 13 -2.229010934189387 0 174.0 -2.229010934189387 1
gene  1 13 13 -0.3621687758342029 1 180.0 -0.3621687758342029 1
gene  1 2 14 -3.370032525968922 0 183.0 -3.370032525968922 1
gene  1 4 14 -3.244883079378046 0 185.0 -3.244883079378046 1
gene  1 6 14 -0.8771460869605883 0 187.0 -0.8771460869605883 1
gene  1 8 14 5.254517738834786 0 189.0 5.254517738834786 1
gene  1 13 14 5.051420625687232 0 194.0 5.051420625687232 1
gene  1 13 16 3.341588773965275 0 201.0 3.341588773965275 1
gene  1 16 14 -2.0557757933239595 0 202.0 -2.0557757933239595 1
gene  1 3 20 0.4702037146251288 0 215.0 0.4702037146251288 1
gene  1 20 8 1.6249329454072692 0 216.0 1.6249329454072692 1
gene  1 8 13 -1.2826081238685472 0 233.0 -1.2826081238685472 1
genomeend 8
genomestart  9
trait 1 0.9094479393069818 0.0 0.18125169842722821 0.0 0.5658812609091859 0.42041845515383636 0.6672100230779487 0.0 
node 1 1 1 1
node 2 1 1 1
node 3 1 1 1
node 4 1 1 1
node 5 1 1 1
node 6 1 1 1
node 7 1 1 3
node 8 1 0 0
node 13 1 0 2
node 14 1 0 2
node 16 1 0 0
node 20 1 0 0
gene  1 1 8 -3.517083708436063 0 98.0 -3.517083708436063 1
gene  1 2 8 7.116174589120833 0 99.0 7.116174589120833 1
gene  1 3 8 2.3395499437708924 0 100.0 2.3395499437708924 1
gene  1 4 8 0.19457904050481334 0 101.0 0.19457904050481334 1
gene  1 5 8 3.666886521039192 0 102.0 3.666886521039192 1
gene  1 6 8 1.0735558693906504 0 103.0 1.0735558693906504 1
gene  1 8 8 -2.9473150733943676 1 105.0 -2.9473150733943676 1
gene  1 13 8 2.5471698034400934 1 110.0 2.5471698034400934 1
gene  1 14 8 -2.5625761818127764 1 111.0 -2.5625761818127764 1
gene  1 3 13 2.5672081422122806 0 170.0 2.5672081422122806 1
gene  1 5 13 6.794622509125524 0 172.0 6.794622509125524 1
gene  1 7 13 -2.041032386352991 0 174.0 -2.041032386352991 1
gene  1 13 13 8.292509097302617 1 180.0 8.292509097302617 1
gene  1 2 14 -0.12747420831869327 0 183.0 -0.12747420831869327 1
gene  1 4 14 -3.1921614044190103 0 185.0 -3.1921614044190103 1
gene  1 6 14 -3.1206135157179307 0 187.0 -3.1206135157179307 1
gene  1 8 14 7.596469054350267 0 189.0 7.596469054350267 1
gene  1 13 14 3.834916808643464 0 194.0 3.834916808643464 1
gene  1 13 16 1.8294815584631565 0 201.0 1.8294815584631565 1
gene  1 16 14 4.730311972703355 0 202.0 4.730311972703355 1
gene  1 3 20 1.9934960718402577 0 215.0 1.9934960718402577 1
gene  1 20 8 -1.6535242911605044 0 216.0 -1.6535242911605044 1
gene  1 8 13 -3.7023202837985036 0 233.0 -3.7023202837985036 1
genomeend 9
genomestart  10
trait 1 0.0 0.0 0.0 0.0 0.0 0.0 0.0 0.0 
node 1 1 1 1
node 2 1 1 1
node 3 1 1 1
node 4 1 1 1
node 5 1 1 1
node 6 1 1 1
node 7 1 1 3
node 8 1 0 0
node 9 1 0 0
node 10 1 0 0
node 13 1 0 2
node 14 1 0 2
node 21 1 0 0
node 29 1 0 0
gene  1 1 8 3.10959560445835 0 98.0 3.10959560445835 0
gene  1 3 8 2.2112973239863325 0 100.0 2.2112973239863325 1
gene  1 5 8 2.884891869432668 0 102.0 2.884891869432668 1
gene  1 6 8 -5.4063429582080005 0 103.0 -5.4063429582080005 1
gene  1 8 8 4.368841464157484 1 105.0 4.368841464157484 1
gene  1 1 9 -1.9949647755996383 0 112.0 -1.9949647755996383 1
gene  1 2 9 8.061116348352899 0 113.0 8.061116348352899 1
gene  1 3 9 6.90838146232373 0 114.0 6.90838146232373 1
gene  1 5 9 -1.51520227757676 0 116.0 -1.51520227757676 1
gene  1 7 9 -1.8414704012920093 0 118.0 -1.8414704012920093 1
gene  1 9 9 -3.441657281574197 1 120.0 -3.441657281574197 1
gene  1 10 9 7.605248190998445 1 121.0 7.605248190998445 1
gene  1 13 9 -0.8504939914829526 1 124.0 -0.8504939914829526 1
gene  1 2 10 3.9626493872849675 0 127.0 3.9626493872849675 1
gene  1 4 10 -3.555051449455447 0 129.0 -3.555051449455447 1
gene  1 5 10 -1.4167243580233153 0 130.0 -1.4167243580233153 1
gene  1 8 10 5.009812808678186 0 133.0 5.009812808678186 1
gene  1 9 10 3.3927966749263305 0 134.0 3.3927966749263305 1
gene  1 10 10 -1.5919178301070234 1 135.0 -1.5919178301070234 1
gene  1 13 10 -0.7298755520574813 1 138.0 -0.7298755520574813 1
gene  1 14 10 3.905549098011342 1 139.0 3.905549098011342 1
gene  1 2 13 0.062146395683218114 0 169.0 0.062146395683218114 1
gene  1 3 13 -5.898339988797925 0 170.0 -5.898339988797925 1
gene  1 6 13 6.346277448167394 0 173.0 6.346277448167394 1
gene  1 7 13 7.570796818850818 0 174.0 7.570796818850818 1
gene  1 9 13 11.965355907416361 0 176.0 11.965355907416361 1
gene  1 13 13 -2.2576562748466924 1 180.0 -2.2576562748466924 1
gene  1 14 13 -2.095582190096534 1 181.0 -2.095582190096534 1
gene  1 1 14 -1.406829253791057 0 182.0 -1.406829253791057 1
gene  1 3 14 0.8582313923871641 0 184.0 0.8582313923871641 1
gene  1 9 14 -4.197149148588818 0 190.0 -4.197149148588818 1
gene  1 10 14 -2.371911703007707 0 191.0 -2.371911703007707 1
gene  1 1 21 1.9613525925294166 0 218.0 1.9613525925294166 1
gene  1 21 8 -5.719141194626299 0 219.0 -5.719141194626299 1
gene  1 3 10 -3.1701428249705756 0 223.0 -3.1701428249705756 1
gene  1 6 29 1.6651249812388254 0 259.0 1.6651249812388254 1
gene  1 29 8 -7.433033726253525 0 260.0 -7.433033726253525 1
gene  1 29 21 6.258312922453165 0 271.0 6.258312922453165 1
genomeend 10
genomestart  11
trait 1 0.0 0.0 0.0 0.0 0.0 0.0 0.0 0.0 
node 1 1 1 1
node 2 1 1 1
node 3 1 1 1
node 4 1 1 1
node 5 1 1 1
node 6 1 1 1
node 7 1 1 3
node 8 1 0 0
node 9 1 0 0
node 10 1 0 0
node 13 1 0 2
node 14 1 0 2
node 21 1 0 0
node 29 1 0 0
gene  1 1 8 3.10959560445835 0 98.0 3.10959560445835 0
gene  1 3 8 -1.6677846172548285 0 100.0 -1.6677846172548285 1
gene  1 5 8 2.392248657854419 0 102.0 2.392248657854419 1
gene  1 6 8 -6.257676390728079 0 103.0 -6.257676390728079 0
gene  1 8 8 4.097466443156907 1 105.0 4.097466443156907 1
gene  1 1 9 -3.432027793718315 0 112.0 -3.432027793718315 1
gene  1 2 9 1.2963423832430867 0 113.0 1.2963423832430867 1
gene  1 3 9 8.037932960282454 0 114.0 8.037932960282454 1
gene  1 5 9 0.8969185082158815 0 116.0 0.8969185082158815 1
gene  1 7 9 -2.352720702728662 0 118.0 -2.352720702728662 1
gene  1 9 9 -2.9094401601200257 1 120.0 -2.9094401601200257 1
gene  1 10 9 0.14134615027017017 1 121.0 0.14134615027017017 1
gene  1 13 9 -0.10649740188423285 1 124.0 -0.10649740188423285 1
gene  1 2 10 1.9811309921942362 0 127.0 1.9811309921942362 1
gene  1 4 10 -4.673527246336382 0 129.0 -4.673527246336382 1
gene  1 5 10 -0.3769152002836712 0 130.0 -0.3769152002836712 1
gene  1 8 10 5.928328656189683 0 133.0 5.928328656189683 1
gene  1 9 10 1.8112303434157684 0 134.0 1.8112303434157684 1
gene  1 10 10 0.09889628834869518 1 135.0 0.09889628834869518 1
gene  1 13 10 0.7698016197084161 1 138.0 0.7698016197084161 1
gene  1 14 10 4.5452205563617705 1 139.0 4.5452205563617705 1
gene  1 2 13 -0.12460648058732998 0 169.0 -0.12460648058732998 1
gene  1 3 13 -8.185370566527329 0 170.0 -8.185370566527329 1
gene  1 6 13 6.041679871593502 0 173.0 6.041679871593502 1
gene  1 7 13 -0.12018084283905245 0 174.0 -0.12018084283905245 1
gene  1 9 13 13.128572393322893 0 176.0 13.128572393322893 1
gene  1 13 13 -1.4755771274361003 1 180.0 -1.4755771274361003 1
gene  1 14 13 -0.24583993611693988 1 181.0 -0.24583993611693988 1
gene  1 1 14 -2.593281694600601 0 182.0 -2.593281694600601 1
gene  1 3 14 1.2857713567096762 0 184.0 1.2857713567096762 1
gene  1 9 14 -3.7533640322186974 0 190.0 -3.7533640322186974 1
gene  1 10 14 2.4155214180017213 0 191.0 2.4155214180017213 1
gene  1 1 21 0.6102689179521783 0 218.0 0.6102689179521783 1
gene  1 21 8 -7.140560043964441 0 219.0 -7.140560043964441 1
gene  1 3 10 -3.1701428249705756 0 223.0 -3.1701428249705756 1
gene  1 6 29 1.1689856759461388 0 259.0 1.1689856759461388 1
gene  1 29 8 -5.489487793416328 0 260.0 -5.489487793416328 1
genomeend 11
genomestart  12
trait 1 0.508121932065467 0.0 0.5320965200184643 0.26183196038933176 0.0 0.0 0.0 0.0 
node 1 1 1 1
node 2 1 1 1
node 3 1 1 1
node 4 1 1 1
node 5 1 1 1
node 6 1 1 1
node 7 1 1 3
node 13 1 0 2
node 14 1 0 2
gene  1 1 13 1.8200793499967487 0 168.0 1.8200793499967487 1
gene  1 2 13 1.7215536965026494 0 169.0 1.7215536965026494 1
gene  1 3 13 -1.0430439018500335 0 170.0 -1.0430439018500335 1
gene  1 4 13 -9.56333511571311 0 171.0 -9.56333511571311 1
gene  1 5 13 4.38911640224649 0 172.0 4.38911640224649 1
gene  1 6 13 -2.0343750595920884 0 173.0 -2.0343750595920884 1
gene  1 7 13 -0.33315868293343737 0 174.0 -0.33315868293343737 1
gene  1 14 13 8.650718579584673 1 181.0 8.650718579584673 1
gene  1 1 14 -0.5746878632917312 0 182.0 -0.5746878632917312 1
gene  1 2 14 -7.6702547765248354 0 183.0 -7.6702547765248354 1
gene  1 3 14 1.8846252569335644 0 184.0 1.8846252569335644 1
gene  1 13 14 1.6482025964144702 0 194.0 1.6482025964144702 1
gene  1 14 14 -1.5675100573022358 1 195.0 -1.5675100573022358 1
gene  1 6 14 -1.9025898485780284 0 230.0 -1.9025898485780284 1
genomeend 12
genomestart  13
trait 1 0.508121932065467 0.0 0.5320965200184643 0.26183196038933176 0.0 0.0 0.0 0.0 
node 1 1 1 1
node 2 1 1 1
node 3 1 1 1
node 4 1 1 1
node 5 1 1 1
node 6 1 1 1
node 7 1 1 3
node 13 1 0 2
node 14 1 0 2
gene  1 1 13 6.6250352577983485 0 168.0 6.6250352577983485 1
gene  1 2 13 3.5838768850958016 0 169.0 3.5838768850958016 1
gene  1 3 13 -1.1448299428647362 0 170.0 -1.1448299428647362 1
gene  1 4 13 -10.023281574512 0 171.0 -10.023281574512 1
gene  1 5 13 6.088396403794955 0 172.0 6.088396403794955 1
gene  1 6 13 2.0803725029064983 0 173.0 2.0803725029064983 1
gene  1 7 13 1.2542438423337245 0 174.0 1.2542438423337245 1
gene  1 14 13 6.298409600757498 1 181.0 6.298409600757498 1
gene  1 1 14 0.16478561388748786 0 182.0 0.16478561388748786 1
gene  1 2 14 -3.959126078977074 0 183.0 -3.959126078977074 1
gene  1 3 14 4.736456739797706 0 184.0 4.736456739797706 1
gene  1 13 14 -2.1068179059568903 0 194.0 -2.1068179059568903 1
gene  1 14 14 -2.968933395309578 1 195.0 -2.968933395309578 1
gene  1 6 14 0.39461563504178704 0 230.0 0.39461563504178704 1
genomeend 13
genomestart  14
trait 1 0.0 0.0 0.0 0.0 0.0 0.0 0.0 0.0 
node 1 1 1 1
node 2 1 1 1
node 3 1 1 1
node 4 1 1 1
node 5 1 1 1
node 6 1 1 1
node 7 1 1 3
node 8 1 0 0
node 13 1 0 2
node 14 1 0 2
gene  1 4 8 -1.7081377457156042 0 101.0 -1.7081377457156042 1
gene  1 5 8 -3.901066088552739 0 102.0 -3.901066088552739 1
gene  1 6 8 0.2223142440992567 0 103.0 0.2223142440992567 1
gene  1 14 8 4.613254199005077 1 111.0 4.613254199005077 1
gene  1 1 13 3.5896891362705934 0 168.0 3.5896891362705934 1
gene  1 2 13 -1.613188208883955 0 169.0 -1.613188208883955 1
gene  1 3 13 1.7819204434696785 0 170.0 1.7819204434696785 1
gene  1 5 13 3.199267333204412 0 172.0 3.199267333204412 1
gene  1 7 13 0.40650677849648953 0 174.0 0.40650677849648953 1
gene  1 14 13 3.9405984672095924 1 181.0 3.9405984672095924 1
gene  1 1 14 10.434963274857342 0 182.0 10.434963274857342 1
gene  1 2 14 2.5811602707731653 0 183.0 2.5811602707731653 1
gene  1 3 14 -2.0539092538133144 0 184.0 -2.0539092538133144 1
gene  1 4 14 -3.167889573268904 0 185.0 -3.167889573268904 1
gene  1 8 14 -2.414556336807908 0 189.0 -2.414556336807908 1
gene  1 14 14 -5.1564007553405675 1 195.0 -5.1564007553405675 1
gene  1 6 14 -0.7840842827116217 0 240.0 -0.7840842827116217 1
genomeend 14
genomestart  15
trait 1 0.0 0.0 0.0 0.0 0.0 0.0 0.0 0.0 
node 1 1 1 1
node 2 1 1 1
node 3 1 1 1
node 4 1 1 1
node 5 1 1 1
node 6 1 1 1
node 7 1 1 3
node 8 1 0 0
node 13 1 0 2
node 14 1 0 2
gene  1 4 8 -4.176773885831009 0 101.0 -4.176773885831009 1
gene  1 5 8 -5.459420321298624 0 102.0 -5.459420321298624 1
gene  1 6 8 0.22058542508845447 0 103.0 0.22058542508845447 1
gene  1 14 8 3.1763599228728663 1 111.0 3.1763599228728663 1
gene  1 1 13 3.625447652777427 0 168.0 3.625447652777427 1
gene  1 2 13 2.3463892795346117 0 169.0 2.3463892795346117 1
gene  1 3 13 3.336922909121895 0 170.0 3.336922909121895 1
gene  1 5 13 2.8252835209347995 0 172.0 2.8252835209347995 1
gene  1 7 13 0.2605727467444261 0 174.0 0.2605727467444261 1
gene  1 14 13 -0.35682927752148486 1 181.0 -0.35682927752148486 1
gene  1 1 14 12.247122181395124 0 182.0 12.247122181395124 1
gene  1 2 14 4.540489954557671 0 183.0 4.540489954557671 1
gene  1 3 14 -3.6941727842168257 0 184.0 -3.6941727842168257 1
gene  1 4 14 -4.886368692551075 0 185.0 -4.886368692551075 1
gene  1 8 14 0.7359372406380005 0 189.0 0.7359372406380005 1
gene  1 14 14 -6.595909977902451 1 195.0 -6.595909977902451 1
gene  1 6 14 -2.753811382609597 0 240.0 -2.753811382609597 1
genomeend 15
genomestart  16
trait 1 0.0 0.0 0.0 0.0 0.0 0.0 0.0 0.0 
node 1 1 1 1
node 2 1 1 1
node 3 1 1 1
node 4 1 1 1
node 5 1 1 1
node 6 1 1 1
node 7 1 1 3
node 8 1 0 0
node 13 1 0 2
node 14 1 0 2
gene  1 4 8 -2.0569999263701586 0 101.0 -2.0569999263701586 1
gene  1 5 8 -5.366232071929649 0 102.0 -5.366232071929649 1
gene  1 6 8 2.1630643864575543 0 103.0 2.1630643864575543 1
gene  1 14 8 3.1050010391969325 1 111.0 3.1050010391969325 1
gene  1 1 13 -2.352397093596887 0 168.0 -2.352397093596887 1
gene  1 2 13 -0.15014343435235566 0 169.0 -0.15014343435235566 1
gene  1 3 13 4.477333615831689 0 170.0 4.477333615831689 1
gene  1 5 13 3.580668418265793 0 172.0 3.580668418265793 1
gene  1 7 13 3.753413323433244 0 174.0 3.753413323433244 1
gene  1 14 13 3.2587770610400244 1 181.0 3.2587770610400244 1
gene  1 1 14 -1.5995291188753376 0 182.0 -1.5995291188753376 1
gene  1 2 14 2.5448438766126946 0 183.0 2.5448438766126946 1
gene  1 3 14 1.2241482820999792 0 184.0 1.2241482820999792 1
gene  1 4 14 -3.9690136318338998 0 185.0 -3.9690136318338998 1
gene  1 8 14 -0.030882263783313046 0 189.0 -0.030882263783313046 1
gene  1 14 14 -5.1564007553405675 1 195.0 -5.1564007553405675 1
gene  1 6 14 2.2185663568490104 0 240.0 2.2185663568490104 1
genomeend 16
genomestart  17
trait 1 0.8225567813410785 0.22949821013610905 0.25783251468105195 0.0 0.0 0.0 0.16709809669901776 0.6352627776851354 
node 1 1 1 1
node 2 1 1 1
node 3 1 1 1
node 4 1 1 1
node 5 1 1 1
node 6 1 1 1
node 7 1 1 3
node 8 1 0 0
node 9 1 0 0
node 10 1 0 0
node 11 1 0 0
node 12 1 0 0
node 13 1 0 2
node 14 1 0 2
node 27 1 0 0
node 34 1 0 0
gene  1 1 8 -1.6526704862759294 0 98.0 -1.6526704862759294 0
gene  1 3 8 6.459513262747288 0 100.0 6.459513262747288 1
gene  1 4 8 1.0051337833064595 0 101.0 1.0051337833064595 1
gene  1 6 8 10.681581141958253 0 103.0 10.681581141958253 1
gene  1 8 8 1.274703051018991 1 105.0 1.274703051018991 1
gene  1 10 8 -0.7301604525107317 1 107.0 -0.7301604525107317 1
gene  1 3 9 0.3553767061417973 0 114.0 0.3553767061417973 1
gene  1 6 9 2.779448670749238 0 117.0 2.779448670749238 1
gene  1 8 9 -1.9097945032713912 0 119.0 -1.9097945032713912 1
gene  1 10 9 4.681492559534999 1 121.0 4.681492559534999 1
gene  1 11 9 7.82123811360105 1 122.0 7.82123811360105 1
gene  1 13 9 -4.629413582159877 1 124.0 -4.629413582159877 1
gene  1 14 9 -0.47502637770939937 1 125.0 -0.47502637770939937 1
gene  1 1 10 1.6945627912713115 0 126.0 1.6945627912713115 1
gene  1 3 10 0.5603429127818413 0 128.0 0.5603429127818413 1
gene  1 4 10 2.0755804753091702 0 129.0 2.0755804753091702 1
gene  1 5 10 2.898685857098852 0 130.0 2.898685857098852 1
gene  1 9 10 0.1620096841535104 0 134.0 0.1620096841535104 1
gene  1 13 10 2.1524789030785714 1 138.0 2.1524789030785714 1
gene  1 1 11 0.007260013052782233 0 140.0 0.007260013052782233 1
gene  1 3 11 -1.575279663601441 0 142.0 -1.575279663601441 1
gene  1 5 11 9.38164437009808 0 144.0 9.38164437009808 1
gene  1 9 11 -2.6947919423320625 0 148.0 -2.6947919423320625 0
gene  1 10 11 -8.70808244802189 0 149.0 -8.70808244802189 1
gene  1 12 11 2.1231672470335 1 151.0 2.1231672470335 1
gene  1 14 11 0.27649947416272913 1 153.0 0.27649947416272913 1
gene  1 2 12 -8.288565671462427 0 155.0 -8.288565671462427 1
gene  1 4 12 -0.7942067367804846 0 157.0 -0.7942067367804846 1
gene  1 6 12 -0.39094347873209134 0 159.0 -0.39094347873209134 1
gene  1 7 12 1.1892503751473282 0 160.0 1.1892503751473282 1
gene  1 9 12 -3.135616062850305 0 162.0 -3.135616062850305 1
gene  1 10 12 5.4547861331100655 0 163.0 5.4547861331100655 1
gene  1 12 12 -1.548070157532587 1 165.0 -1.548070157532587 1
gene  1 14 12 10.215049038430504 1 167.0 10.215049038430504 1
gene  1 1 13 1.5752940684607282 0 168.0 1.5752940684607282 1
gene  1 3 13 -1.6082559778995942 0 170.0 -1.6082559778995942 1
gene  1 4 13 -1.912007091725445 0 171.0 -1.912007091725445 1
gene  1 6 13 -0.26607171901971327 0 173.0 -0.26607171901971327 1
gene  1 8 13 -2.4981255590679448 0 175.0 -2.4981255590679448 1
gene  1 9 13 2.3466628159123832 0 176.0 2.3466628159123832 1
gene  1 8 14 0.19713357613453608 0 189.0 0.19713357613453608 1
gene  1 11 14 0.3544302234189209 0 192.0 0.3544302234189209 1
gene  1 5 8 0.7985726911013438 0 235.0 0.7985726911013438 1
gene  1 1 27 -4.717270464167848 0 241.0 -4.717270464167848 1
gene  1 27 8 0.19564559438823004 0 242.0 0.19564559438823004 1
gene  1 9 34 1.0 0 272.0 0.0 1
gene  1 34 11 -2.6947919423320625 0 273.0 0.0 1
genomeend 17
genomestart  18
trait 1 0.8225567813410785 0.22949821013610905 0.25783251468105195 0.0 0.0 0.0 0.16709809669901776 0.6352627776851354 
node 1 1 1 1
node 2 1 1 1
node 3 1 1 1
node 4 1 1 1
node 5 1 1 1
node 6 1 1 1
node 7 1 1 3
node 8 1 0 0
node 9 1 0 0
node 10 1 0 0
node 11 1 0 0
node 12 1 0 0
node 13 1 0 2
node 14 1 0 2
node 27 1 0 0
gene  1 1 8 -1.4102969628345077 0 98.0 -1.4102969628345077 0
gene  1 3 8 6.390909504892981 0 100.0 6.390909504892981 1
gene  1 4 8 1.8723823269617368 0 101.0 1.8723823269617368 1
gene  1 6 8 8.368825083614185 0 103.0 8.368825083614185 1
gene  1 8 8 1.274703051018991 1 105.0 1.274703051018991 1
gene  1 10 8 -2.552910814014382 1 107.0 -2.552910814014382 1
gene  1 3 9 0.3553767061417973 0 114.0 0.3553767061417973 1
gene  1 6 9 0.5711177042973086 0 117.0 0.5711177042973086 1
gene  1 8 9 -2.7309586703609603 0 119.0 -2.7309586703609603 1
gene  1 10 9 -0.7145063776120464 1 121.0 -0.7145063776120464 1
gene  1 11 9 9.871310245002132 1 122.0 9.871310245002132 1
gene  1 13 9 -1.2964211174678233 1 124.0 -1.2964211174678233 1
gene  1 14 9 -0.47502637770939937 1 125.0 -0.47502637770939937 1
gene  1 1 10 1.518816099367862 0 126.0 1.518816099367862 1
gene  1 3 10 1.6297474111240051 0 128.0 1.6297474111240051 1
gene  1 4 10 1.49181384577272 0 129.0 1.49181384577272 1
gene  1 5 10 2.4458829173754646 0 130.0 2.4458829173754646 1
gene  1 9 10 0.8509014255518554 0 134.0 0.8509014255518554 1
gene  1 13 10 2.9384908697396024 1 138.0 2.9384908697396024 1
gene  1 1 11 0.007260013052782233 0 140.0 0.007260013052782233 1
gene  1 3 11 -2.658439553121442 0 142.0 -2.658439553121442 1
gene  1 5 11 10.179541811294605 0 144.0 10.179541811294605 1
gene  1 9 11 -4.056537680722343 0 148.0 -4.056537680722343 1
gene  1 10 11 -0.7723230930710099 0 149.0 -0.7723230930710099 1
gene  1 12 11 4.332093303050222 1 151.0 4.332093303050222 1
gene  1 14 11 2.375774196206847 1 153.0 2.375774196206847 1
gene  1 2 12 -6.5405232661638175 0 155.0 -6.5405232661638175 1
gene  1 4 12 -1.109015659303702 0 157.0 -1.109015659303702 1
gene  1 6 12 -1.279727023019069 0 159.0 -1.279727023019069 1
gene  1 7 12 3.282835156383991 0 160.0 3.282835156383991 1
gene  1 9 12 -2.236943756280736 0 162.0 -2.236943756280736 1
gene  1 10 12 7.674626231301923 0 163.0 7.674626231301923 1
gene  1 12 12 -2.785314954010962 1 165.0 -2.785314954010962 1
gene  1 14 12 11.683421202534257 1 167.0 11.683421202534257 1
gene  1 1 13 2.041874566198037 0 168.0 2.041874566198037 1
gene  1 3 13 -1.6871976380552276 0 170.0 -1.6871976380552276 1
gene  1 4 13 -1.1758204351875703 0 171.0 -1.1758204351875703 1
gene  1 6 13 -0.26607171901971327 0 173.0 -0.26607171901971327 1
gene  1 8 13 -4.9110150577796805 0 175.0 -4.9110150577796805 1
gene  1 9 13 0.3036897732275903 0 176.0 0.3036897732275903 1
gene  1 8 14 0.9480135185814231 0 189.0 0.9480135185814231 1
gene  1 11 14 1.4748937239893942 0 192.0 1.4748937239893942 1
gene  1 5 8 -0.16896020729545547 0 235.0 -0.16896020729545547 1
gene  1 1 27 0.13752974571421273 0 241.0 0.13752974571421273 1
gene  1 27 8 -1.4068025146277119 0 242.0 -1.4068025146277119 1
genomeend 18
genomestart  19
trait 1 0.8225567813410785 0.22949821013610905 0.25783251468105195 0.0 0.0 0.0 0.16709809669901776 0.6352627776851354 
node 1 1 1 1
node 2 1 1 1
node 3 1 1 1
node 4 1 1 1
node 5 1 1 1
node 6 1 1 1
node 7 1 1 3
node 8 1 0 0
node 9 1 0 0
node 10 1 0 0
node 11 1 0 0
node 12 1 0 0
node 13 1 0 2
node 14 1 0 2
node 27 1 0 0
gene  1 1 8 -1.8448928030017115 0 98.0 -1.8448928030017115 0
gene  1 3 8 4.75606692288499 0 100.0 4.75606692288499 1
gene  1 4 8 -0.45539836100187925 0 101.0 -0.45539836100187925 1
gene  1 6 8 8.388659536193238 0 103.0 8.388659536193238 1
gene  1 8 8 -0.2743802658515453 1 105.0 -0.2743802658515453 1
gene  1 10 8 0.4711930139400269 1 107.0 0.4711930139400269 1
gene  1 3 9 -0.7007906391273141 0 114.0 -0.7007906391273141 1
gene  1 6 9 4.116423406664968 0 117.0 4.116423406664968 1
gene  1 8 9 -0.7086986279798044 0 119.0 -0.7086986279798044 1
gene  1 10 9 5.452449272666838 1 121.0 5.452449272666838 1
gene  1 11 9 9.81965549861427 1 122.0 9.81965549861427 1
gene  1 13 9 -6.026818260041841 1 124.0 -6.026818260041841 1
gene  1 14 9 -0.7316907964243691 1 125.0 -0.7316907964243691 1
gene  1 1 10 -0.5826731588540293 0 126.0 -0.5826731588540293 1
gene  1 3 10 1.7538055521999958 0 128.0 1.7538055521999958 1
gene  1 4 10 3.998049363873199 0 129.0 3.998049363873199 1
gene  1 5 10 2.3841422406167205 0 130.0 2.3841422406167205 1
gene  1 9 10 2.213562717637539 0 134.0 2.213562717637539 1
gene  1 13 10 0.8452026259834287 1 138.0 0.8452026259834287 1
gene  1 1 11 1.1807952082580278 0 140.0 1.1807952082580278 1
gene  1 3 11 -0.6615038268824249 0 142.0 -0.6615038268824249 1
gene  1 5 11 10.678918681187959 0 144.0 10.678918681187959 1
gene  1 9 11 -1.4823690013867168 0 148.0 -1.4823690013867168 1
gene  1 10 11 -7.890235715428798 0 149.0 -7.890235715428798 1
gene  1 12 11 0.6534723751008014 1 151.0 0.6534723751008014 1
gene  1 14 11 1.0565773320349847 1 153.0 1.0565773320349847 1
gene  1 2 12 -9.815580994542882 0 155.0 -9.815580994542882 1
gene  1 4 12 -0.1085768437620711 0 157.0 -0.1085768437620711 1
gene  1 6 12 -0.6146593678810968 0 159.0 -0.6146593678810968 1
gene  1 7 12 -0.6048629116601447 0 160.0 -0.6048629116601447 1
gene  1 9 12 -2.46015649147116 0 162.0 -2.46015649147116 1
gene  1 10 12 3.6914770808520583 0 163.0 3.6914770808520583 1
gene  1 12 12 -2.505305861328948 1 165.0 -2.505305861328948 1
gene  1 14 12 10.695424652856824 1 167.0 10.695424652856824 1
gene  1 1 13 1.2628772326537778 0 168.0 1.2628772326537778 1
gene  1 3 13 -2.2160381069452626 0 170.0 -2.2160381069452626 1
gene  1 4 13 -2.7939303124644495 0 171.0 -2.7939303124644495 1
gene  1 6 13 -1.7014457240827046 0 173.0 -1.7014457240827046 1
gene  1 8 13 -3.4287689590669315 0 175.0 -3.4287689590669315 1
gene  1 9 13 0.04376124154060801 0 176.0 0.04376124154060801 1
gene  1 8 14 -0.21501982002723324 0 189.0 -0.21501982002723324 1
gene  1 11 14 0.3544302234189209 0 192.0 0.3544302234189209 1
gene  1 5 8 -0.9136154082343679 0 235.0 -0.9136154082343679 1
gene  1 1 27 -0.3930000207413342 0 241.0 -0.3930000207413342 1
gene  1 27 8 -0.01495985210884132 0 242.0 -0.01495985210884132 1
genomeend 19
