genomestart  0
trait 1 0.10533309519974143 0.0 3.804979718039517 0.6442969214911753 1.8591506659015948 1.496821663222914 0.9033628802953145 3.779689338966765 
node 1 1 1 1
node 2 1 1 1
node 3 1 1 1
node 4 1 1 1
node 5 1 1 1
node 6 1 1 1
node 7 1 1 3
node 13 1 0 2
node 14 1 0 2
node 24 1 0 0
node 36 1 0 0
node 65 1 0 0
node 91 1 0 0
gene  1 2 13 10.076737370739359 0 169.0 10.076737370739359 1
gene  1 3 13 5.850559120777912 0 170.0 5.850559120777912 1
gene  1 4 13 5.970927586070939 0 171.0 5.970927586070939 1
gene  1 6 13 1.3570894740400845 0 173.0 1.3570894740400845 1
gene  1 7 13 0.147551793694777 0 174.0 0.147551793694777 1
gene  1 13 13 0.6505371527457062 1 180.0 0.6505371527457062 1
gene  1 1 14 18.33740198029079 0 182.0 18.33740198029079 1
gene  1 2 14 0.08515239121907481 0 183.0 0.08515239121907481 1
gene  1 5 14 -3.7746165327778263 0 186.0 -3.7746165327778263 1
gene  1 6 14 4.477564901079783 0 187.0 4.477564901079783 1
gene  1 7 14 -4.55270582588472 0 188.0 -4.55270582588472 1
gene  1 13 14 -3.9725587206969104 0 194.0 -3.9725587206969104 1
gene  1 14 14 2.0839325630329073 1 195.0 2.0839325630329073 1
gene  1 2 24 9.316554987860387 0 226.0 9.316554987860387 1
gene  1 24 13 -5.401700840860286 0 227.0 -5.401700840860286 0
gene  1 7 24 7.099204212985897 0 245.0 7.099204212985897 1
gene  1 1 24 0.4490296816824344 0 249.0 0.4490296816824344 1
gene  1 4 14 0.5647241673388959 0 280.0 0.5647241673388959 1
gene  1 4 36 -0.3922021498304823 0 293.0 -0.3922021498304823 1
gene  1 36 14 5.101525515931005 0 294.0 5.101525515931005 1
gene  1 7 36 -3.9186448903986144 0 301.0 -3.9186448903986144 1
gene  1 3 36 -1.200017444686173 0 313.0 -1.200017444686173 1
gene  1 24 36 6.017622027876467 0 345.0 6.017622027876467 1
gene  1 5 13 -0.29551439179830963 0 374.0 -0.29551439179830963 1
gene  1 2 65 3.8597080826990084 0 446.0 3.8597080826990084 1
gene  1 65 13 3.82051306514697 0 447.0 3.82051306514697 1
gene  1 13 36 -2.8320345358067374 0 451.0 -2.8320345358067374 1
gene  1 65 36 -0.8767534414449283 0 457.0 -0.8767534414449283 1
gene  1 1 13 -4.511039087437059 0 480.0 -4.511039087437059 1
gene  1 7 65 4.499286790908964 0 530.0 4.499286790908964 1
gene  1 3 14 -9.522767308078118 0 554.0 -9.522767308078118 1
gene  1 24 91 1.0 0 561.0 1.0 1
gene  1 91 13 -0.33448808735982577 0 562.0 -0.33448808735982577 1
genomeend 0
genomestart  1
trait 1 0.10533309519974143 0.0 3.804979718039517 0.6442969214911753 1.8591506659015948 1.496821663222914 0.9033628802953145 3.779689338966765 
node 1 1 1 1
node 2 1 1 1
node 3 1 1 1
node 4 1 1 1
node 5 1 1 1
node 6 1 1 1
node 7 1 1 3
node 13 1 0 2
node 14 1 0 2
node 24 1 0 0
node 36 1 0 0
node 65 1 0 0
node 91 1 0 0
gene  1 2 13 6.292861996127976 0 169.0 6.292861996127976 1
gene  1 3 13 3.988558004359548 0 170.0 3.988558004359548 1
gene  1 4 13 1.7958085397909929 0 171.0 1.7958085397909929 1
gene  1 6 13 1.6970086135311715 0 173.0 1.6970086135311715 1
gene  1 7 13 1.2666909696178523 0 174.0 1.2666909696178523 1
gene  1 13 13 2.2390757515511868 1 180.0 2.2390757515511868 1
gene  1 1 14 19.90228548624382 0 182.0 19.90228548624382 1
gene  1 2 14 1.284174483978906 0 183.0 1.284174483978906 1
gene  1 5 14 -0.6454566677532512 0 186.0 -0.6454566677532512 1
gene  1 6 14 2.9941378037512685 0 187.0 2.9941378037512685 1
gene  1 7 14 -4.840421989857106 0 188.0 -4.840421989857106 1
gene  1 13 14 0.24675003504537885 0 194.0 0.24675003504537885 1
gene  1 14 14 1.7138405873957168 1 195.0 1.7138405873957168 1
gene  1 2 24 10.895788913910009 0 226.0 10.895788913910009 1
gene  1 24 13 -7.737489652312244 0 227.0 -7.737489652312244 0
gene  1 7 24 8.650764083470067 0 245.0 8.650764083470067 1
gene  1 1 24 -0.40360677667750666 0 249.0 -0.40360677667750666 1
gene  1 4 14 3.0480809249213 0 280.0 3.0480809249213 1
gene  1 4 36 1.157277310263315 0 293.0 1.157277310263315 1
gene  1 36 14 6.01819587910235 0 294.0 6.01819587910235 1
gene  1 7 36 -6.58419216089676 0 301.0 -6.58419216089676 1
gene  1 3 36 0.005270157604185366 0 313.0 0.005270157604185366 1
gene  1 24 36 6.9811280425335225 0 345.0 6.9811280425335225 1
gene  1 5 13 -4.196966813574075 0 374.0 -4.196966813574075 1
gene  1 2 65 1.1567050707716209 0 446.0 1.1567050707716209 1
gene  1 65 13 6.107692087151836 0 447.0 6.107692087151836 1
gene  1 13 36 -1.7442443299487336 0 451.0 -1.7442443299487336 1
gene  1 65 36 2.590650900334912 0 457.0 2.590650900334912 1
gene  1 1 13 0.20851521648758642 0 480.0 0.20851521648758642 1
gene  1 7 65 0.660800711554631 0 530.0 0.660800711554631 1
gene  1 3 14 -7.873799513171368 0 554.0 -7.873799513171368 1
gene  1 24 91 1.0 0 561.0 1.0 1
gene  1 91 13 -7.002905683767008 0 562.0 -7.002905683767008 1
genomeend 1
genomestart  2
trait 1 0.6976195114279153 1.655298600115295 1.2826486181487047 0.8745625712070293 0.26966952468357097 0.9779011330715643 0.16855889281805303 0.0 
node 1 1 1 1
node 2 1 1 1
node 3 1 1 1
node 4 1 1 1
node 5 1 1 1
node 6 1 1 1
node 7 1 1 3
node 8 1 0 0
node 9 1 0 0
node 10 1 0 0
node 11 1 0 0
node 13 1 0 2
node 14 1 0 2
node 62 1 0 0
node 81 1 0 0
node 82 1 0 0
node 84 1 0 0
gene  1 2 8 -8.04268346681243 0 99.0 -8.04268346681243 1
gene  1 6 8 -6.536216071770424 0 103.0 -6.536216071770424 1
gene  1 8 8 -3.9405627848770313 1 105.0 -3.9405627848770313 1
gene  1 9 8 1.2067326020994893 1 106.0 1.2067326020994893 1
gene  1 10 8 -3.2723453386544477 1 107.0 -3.2723453386544477 1
gene  1 11 8 -1.132775591955776 1 108.0 -1.132775591955776 1
gene  1 13 8 -7.3180977257072275 1 110.0 -7.3180977257072275 1
gene  1 14 8 -1.1024167777081335 1 111.0 -1.1024167777081335 1
gene  1 1 9 -11.355217109979824 0 112.0 -11.355217109979824 1
gene  1 2 9 11.595992799685801 0 113.0 11.595992799685801 1
gene  1 3 9 -0.7730995593147081 0 114.0 -0.7730995593147081 1
gene  1 6 9 -2.7733389014107717 0 117.0 -2.7733389014107717 1
gene  1 7 9 6.42230935294885 0 118.0 6.42230935294885 1
gene  1 8 9 6.517430202269983 0 119.0 6.517430202269983 1
gene  1 9 9 4.488280769907886 1 120.0 4.488280769907886 1
gene  1 11 9 -2.4149525733658046 1 122.0 -2.4149525733658046 1
gene  1 13 9 4.33440708162318 1 124.0 4.33440708162318 1
gene  1 14 9 -2.0076510587028937 1 125.0 -2.0076510587028937 1
gene  1 1 10 -6.484861775038627 0 126.0 -6.484861775038627 1
gene  1 3 10 -4.375355402292656 0 128.0 -4.375355402292656 1
gene  1 4 10 -3.6333681235878865 0 129.0 -3.6333681235878865 1
gene  1 5 10 -0.6027551396829038 0 130.0 -0.6027551396829038 1
gene  1 6 10 -2.8951445630585857 0 131.0 -2.8951445630585857 1
gene  1 10 10 3.788076094517487 1 135.0 3.788076094517487 1
gene  1 11 10 1.3182436454271267 1 136.0 1.3182436454271267 1
gene  1 14 10 -3.2978190910198943 1 139.0 -3.2978190910198943 1
gene  1 1 11 -5.887566580223607 0 140.0 -5.887566580223607 1
gene  1 3 11 -3.558533556333432 0 142.0 -3.558533556333432 1
gene  1 5 11 -4.305287695453712 0 144.0 -4.305287695453712 1
gene  1 6 11 8.172640926274756 0 145.0 8.172640926274756 1
gene  1 7 11 -6.497088144111855 0 146.0 -6.497088144111855 1
gene  1 8 11 1.805977240045602 0 147.0 1.805977240045602 1
gene  1 9 11 -2.5188305137854394 0 148.0 -2.5188305137854394 1
gene  1 10 11 2.328130177551847 0 149.0 2.328130177551847 1
gene  1 11 11 -4.603033387919933 1 150.0 -4.603033387919933 1
gene  1 1 13 -0.5215605858513477 0 168.0 -0.5215605858513477 1
gene  1 2 13 6.038669330986329 0 169.0 6.038669330986329 1
gene  1 3 13 3.3103881739509955 0 170.0 3.3103881739509955 1
gene  1 7 13 -1.7508029437770274 0 174.0 -1.7508029437770274 1
gene  1 11 13 7.7715185908063935 0 178.0 7.7715185908063935 1
gene  1 13 13 0.8429431715138693 1 180.0 0.8429431715138693 1
gene  1 2 14 0.2044898158606403 0 183.0 0.2044898158606403 1
gene  1 3 14 2.8058871724829535 0 184.0 2.8058871724829535 1
gene  1 4 14 2.9374585905172346 0 185.0 2.9374585905172346 1
gene  1 7 14 -0.7086569502095411 0 188.0 -0.7086569502095411 1
gene  1 8 14 -9.773467037358465 0 189.0 -9.773467037358465 1
gene  1 10 14 -5.568608903868697 0 191.0 -5.568608903868697 1
gene  1 13 14 0.5131159860671086 0 194.0 0.5131159860671086 1
gene  1 5 13 -10.779413480799146 0 198.0 -10.779413480799146 1
gene  1 4 9 8.12048577446409 0 200.0 8.12048577446409 1
gene  1 8 13 2.492585051771252 0 248.0 2.492585051771252 1
gene  1 7 10 -1.197195526447033 0 270.0 -1.197195526447033 1
gene  1 9 10 -0.381607805027085 0 274.0 -0.381607805027085 1
gene  1 9 13 -2.733317999968865 0 288.0 -2.733317999968865 1
gene  1 5 14 2.4290974669194356 0 328.0 2.4290974669194356 1
gene  1 2 10 -0.09407800824360013 0 357.0 -0.09407800824360013 1
gene  1 6 14 7.205340752729 0 388.0 7.205340752729 1
gene  1 3 62 -1.4815386676468438 0 411.0 -1.4815386676468438 1
gene  1 62 9 7.807063331184009 0 412.0 7.807063331184009 1
gene  1 5 8 -0.6011726986381457 0 414.0 -0.6011726986381457 1
gene  1 7 8 -2.730110829735691 0 436.0 -2.730110829735691 1
gene  1 11 81 1.916781109985811 1 496.0 1.916781109985811 1
gene  1 81 11 2.4023633146189955 0 497.0 2.4023633146189955 1
gene  1 11 82 1.4437649308944254 1 507.0 1.4437649308944254 1
gene  1 82 81 2.2972286725100366 0 508.0 2.2972286725100366 1
gene  1 3 84 2.3495686514130214 0 517.0 2.3495686514130214 1
gene  1 84 13 -1.8336249188772837 0 518.0 -1.8336249188772837 1
gene  1 3 82 1.6100998813891987 0 531.0 1.6100998813891987 1
gene  1 5 81 0.06897656678904873 0 533.0 0.06897656678904873 1
gene  1 1 82 -1.9182322755218462 0 559.0 -1.9182322755218462 1
genomeend 2
genomestart  3
trait 1 0.6976195114279153 1.655298600115295 1.2826486181487047 0.8745625712070293 0.26966952468357097 0.9779011330715643 0.16855889281805303 0.0 
node 1 1 1 1
node 2 1 1 1
node 3 1 1 1
node 4 1 1 1
node 5 1 1 1
node 6 1 1 1
node 7 1 1 3
node 8 1 0 0
node 9 1 0 0
node 10 1 0 0
node 11 1 0 0
node 13 1 0 2
node 14 1 0 2
node 62 1 0 0
node 81 1 0 0
node 82 1 0 0
node 84 1 0 0
gene  1 2 8 -7.242470224962003 0 99.0 -7.242470224962003 1
gene  1 6 8 -6.403980836334405 0 103.0 -6.403980836334405 1
gene  1 8 8 -1.7640426357146717 1 105.0 -1.7640426357146717 1
gene  1 9 8 -1.112611498181184 1 106.0 -1.112611498181184 1
gene  1 10 8 -2.5021817883551076 1 107.0 -2.5021817883551076 1
gene  1 11 8 -0.5611005292075824 1 108.0 -0.5611005292075824 1
gene  1 13 8 -3.0261036347973675 1 110.0 -3.0261036347973675 1
gene  1 14 8 -1.0921557625350213 1 111.0 -1.0921557625350213 1
gene  1 1 9 -10.91457739430567 0 112.0 -10.91457739430567 1
gene  1 2 9 12.503534066202647 0 113.0 12.503534066202647 1
gene  1 3 9 0.6170962966911819 0 114.0 0.6170962966911819 1
gene  1 6 9 -3.8665171443164787 0 117.0 -3.8665171443164787 1
gene  1 7 9 3.4349068972809347 0 118.0 3.4349068972809347 1
gene  1 8 9 4.134133611452366 0 119.0 4.134133611452366 1
gene  1 9 9 1.649465167869596 1 120.0 1.649465167869596 1
gene  1 11 9 1.3464492447590117 1 122.0 1.3464492447590117 1
gene  1 13 9 5.693536730159105 1 124.0 5.693536730159105 1
gene  1 14 9 -1.3913607767490868 1 125.0 -1.3913607767490868 1
gene  1 1 10 -4.467275935670106 0 126.0 -4.467275935670106 1
gene  1 3 10 -4.126291213890406 0 128.0 -4.126291213890406 1
gene  1 4 10 -6.072040169683638 0 129.0 -6.072040169683638 1
gene  1 5 10 -1.2178675672075423 0 130.0 -1.2178675672075423 1
gene  1 6 10 -4.9378299033398365 0 131.0 -4.9378299033398365 1
gene  1 10 10 2.356599207272423 1 135.0 2.356599207272423 1
gene  1 11 10 0.16739666759015026 1 136.0 0.16739666759015026 1
gene  1 14 10 -0.667612465742739 1 139.0 -0.667612465742739 1
gene  1 1 11 -6.3486672207553685 0 140.0 -6.3486672207553685 1
gene  1 3 11 -5.378283691902961 0 142.0 -5.378283691902961 1
gene  1 5 11 -1.7852327795916878 0 144.0 -1.7852327795916878 1
gene  1 6 11 11.384102117929627 0 145.0 11.384102117929627 1
gene  1 7 11 -5.006403699494495 0 146.0 -5.006403699494495 1
gene  1 8 11 1.0016410878156174 0 147.0 1.0016410878156174 1
gene  1 9 11 -1.877933883166524 0 148.0 -1.877933883166524 1
gene  1 10 11 1.3164303492945104 0 149.0 1.3164303492945104 1
gene  1 11 11 -5.795880352262524 1 150.0 -5.795880352262524 1
gene  1 1 13 1.0020314841603821 0 168.0 1.0020314841603821 1
gene  1 2 13 3.9173956379939003 0 169.0 3.9173956379939003 1
gene  1 3 13 0.6236036613526288 0 170.0 0.6236036613526288 1
gene  1 7 13 -2.9257967865322185 0 174.0 -2.9257967865322185 1
gene  1 11 13 10.195120922504374 0 178.0 10.195120922504374 1
gene  1 13 13 -3.0200501135741264 1 180.0 -3.0200501135741264 1
gene  1 2 14 -0.4890344550063437 0 183.0 -0.4890344550063437 1
gene  1 3 14 4.163278810055529 0 184.0 4.163278810055529 1
gene  1 4 14 5.093292071463304 0 185.0 5.093292071463304 1
gene  1 7 14 -0.03683946195813692 0 188.0 -0.03683946195813692 1
gene  1 8 14 -8.849589521416 0 189.0 -8.849589521416 1
gene  1 10 14 -4.420790923947207 0 191.0 -4.420790923947207 1
gene  1 13 14 2.867188561239397 0 194.0 2.867188561239397 1
gene  1 5 13 -13.683755185656208 0 198.0 -13.683755185656208 1
gene  1 4 9 4.2800100910078696 0 200.0 4.2800100910078696 1
gene  1 8 13 3.1264464294737304 0 248.0 3.1264464294737304 1
gene  1 7 10 -0.6615447142991975 0 270.0 -0.6615447142991975 1
gene  1 9 10 -1.0354715396364964 0 274.0 -1.0354715396364964 1
gene  1 9 13 -0.7648949344323237 0 288.0 -0.7648949344323237 1
gene  1 5 14 4.568196084622208 0 328.0 4.568196084622208 1
gene  1 2 10 1.284602304606672 0 357.0 1.284602304606672 1
gene  1 6 14 6.015984585817194 0 388.0 6.015984585817194 1
gene  1 3 62 1.9532004069962752 0 411.0 1.9532004069962752 1
gene  1 62 9 8.781869968793767 0 412.0 8.781869968793767 1
gene  1 5 8 0.8441634843338743 0 414.0 0.8441634843338743 1
gene  1 7 8 0.7065446565579896 0 436.0 0.7065446565579896 1
gene  1 11 81 3.3390796932109197 1 496.0 3.3390796932109197 1
gene  1 81 11 2.131373376105999 0 497.0 2.131373376105999 1
gene  1 11 82 -0.6771835454507642 1 507.0 -0.6771835454507642 1
gene  1 82 81 0.02395000451686169 0 508.0 0.02395000451686169 1
gene  1 3 84 0.030346004909189983 0 517.0 0.030346004909189983 1
gene  1 84 13 -0.4612932903385276 0 518.0 -0.4612932903385276 1
gene  1 3 82 0.41163083094390845 0 531.0 0.41163083094390845 1
gene  1 5 81 1.330164980602521 0 533.0 1.330164980602521 1
gene  1 1 82 -0.8147992379216795 0 559.0 -0.8147992379216795 1
genomeend 3
genomestart  4
trait 1 1.7878230492365366 0.9365906229773271 0.0 0.0 1.7799059348361965 1.2636555841906816 0.0 0.48682907384645435 
node 1 1 1 1
node 2 1 1 1
node 3 1 1 1
node 4 1 1 1
node 5 1 1 1
node 6 1 1 1
node 7 1 1 3
node 8 1 0 0
node 13 1 0 2
node 14 1 0 2
node 16 1 0 0
node 20 1 0 0
node 50 1 0 0
node 55 1 0 0
node 70 1 0 0
node 87 1 0 0
gene  1 1 8 0.04918458359401612 0 98.0 0.04918458359401612 1
gene  1 2 8 2.7317736514361988 0 99.0 2.7317736514361988 1
gene  1 3 8 0.4832660248763112 0 100.0 0.4832660248763112 1
gene  1 4 8 -0.7701912644958699 0 101.0 -0.7701912644958699 1
gene  1 5 8 0.8436372689555993 0 102.0 0.8436372689555993 1
gene  1 6 8 0.4515993366045077 0 103.0 0.4515993366045077 1
gene  1 8 8 -0.322750113667011 1 105.0 -0.322750113667011 1
gene  1 13 8 -0.25091781716293116 1 110.0 -0.25091781716293116 1
gene  1 14 8 0.19541879572973642 1 111.0 0.19541879572973642 1
gene  1 3 13 -11.922661294056647 0 170.0 -11.922661294056647 0
gene  1 5 13 -2.1371405065492746 0 172.0 -2.1371405065492746 1
gene  1 7 13 2.306694017280086 0 174.0 2.306694017280086 1
gene  1 13 13 -0.024085620252063844 1 180.0 -0.024085620252063844 1
gene  1 2 14 3.3091563934680917 0 183.0 3.3091563934680917 1
gene  1 4 14 -0.8371120992305026 0 185.0 -0.8371120992305026 1
gene  1 6 14 1.2448312331027729 0 187.0 1.2448312331027729 1
gene  1 8 14 -10.946468924905098 0 189.0 -10.946468924905098 1
gene  1 13 14 -1.665953248465079 0 194.0 -1.665953248465079 1
gene  1 13 16 2.6129876937370273 0 201.0 2.6129876937370273 1
gene  1 16 14 -5.868803459931335 0 202.0 -5.868803459931335 1
gene  1 3 20 -6.184996959001344 0 215.0 -6.184996959001344 1
gene  1 20 8 -0.5722565545456018 0 216.0 -0.5722565545456018 1
gene  1 8 13 -2.848361699816511 0 233.0 -2.848361699816511 1
gene  1 2 16 0.14440836584038053 0 324.0 0.14440836584038053 1
gene  1 2 20 0.7913094652216447 0 333.0 0.7913094652216447 1
gene  1 7 8 3.9083318243193403 0 352.0 3.9083318243193403 1
gene  1 16 50 3.055856902365944 0 364.0 3.055856902365944 1
gene  1 50 14 -0.4954310621739504 0 365.0 -0.4954310621739504 1
gene  1 3 55 -0.25924927916983065 0 379.0 -0.25924927916983065 1
gene  1 55 20 -3.0438265121821972 0 380.0 -3.0438265121821972 1
gene  1 3 70 -3.203272044807035 0 461.0 -3.203272044807035 1
gene  1 70 13 -1.1996010220017062 0 462.0 -1.1996010220017062 1
gene  1 6 16 -0.8262046502639608 0 484.0 -0.8262046502639608 1
gene  1 70 20 -0.2173274064938291 0 498.0 -0.2173274064938291 1
gene  1 5 20 0.7218568943231074 0 505.0 0.7218568943231074 1
gene  1 4 55 -1.9523487444585261 0 519.0 -1.9523487444585261 1
gene  1 3 87 0.4770940312291236 0 539.0 0.4770940312291236 1
gene  1 87 13 0.2232766496576507 0 540.0 0.2232766496576507 1
genomeend 4
genomestart  5
trait 1 1.7878230492365366 0.9365906229773271 0.0 0.0 1.7799059348361965 1.2636555841906816 0.0 0.48682907384645435 
node 1 1 1 1
node 2 1 1 1
node 3 1 1 1
node 4 1 1 1
node 5 1 1 1
node 6 1 1 1
node 7 1 1 3
node 8 1 0 0
node 13 1 0 2
node 14 1 0 2
node 16 1 0 0
node 20 1 0 0
node 50 1 0 0
node 55 1 0 0
node 70 1 0 0
node 87 1 0 0
gene  1 1 8 -1.554146445971869 0 98.0 -1.554146445971869 1
gene  1 2 8 3.954557042188862 0 99.0 3.954557042188862 1
gene  1 3 8 1.3621625665376218 0 100.0 1.3621625665376218 1
gene  1 4 8 -0.7749441827425091 0 101.0 -0.7749441827425091 1
gene  1 5 8 -1.0918982698759132 0 102.0 -1.0918982698759132 1
gene  1 6 8 -0.7107173553927304 0 103.0 -0.7107173553927304 1
gene  1 8 8 -1.6968725321297486 1 105.0 -1.6968725321297486 1
gene  1 13 8 0.16584582953474536 1 110.0 0.16584582953474536 1
gene  1 14 8 -0.978454525036647 1 111.0 -0.978454525036647 1
gene  1 3 13 -9.916991073966303 0 170.0 -9.916991073966303 0
gene  1 5 13 -2.273931278707315 0 172.0 -2.273931278707315 1
gene  1 7 13 2.866690117334808 0 174.0 2.866690117334808 1
gene  1 13 13 -0.7579699900906327 1 180.0 -0.7579699900906327 1
gene  1 2 14 1.8172093472429942 0 183.0 1.8172093472429942 1
gene  1 4 14 -2.473757142107189 0 185.0 -2.473757142107189 1
gene  1 6 14 1.8033443452305251 0 187.0 1.8033443452305251 1
gene  1 8 14 -11.194280411579545 0 189.0 -11.194280411579545 1
gene  1 13 14 -2.121964242832987 0 194.0 -2.121964242832987 1
gene  1 13 16 2.1006822590424243 0 201.0 2.1006822590424243 1
gene  1 16 14 -6.585827048149187 0 202.0 -6.585827048149187 1
gene  1 3 20 -5.489585487677625 0 215.0 -5.489585487677625 1
gene  1 20 8 -2.871344865428237 0 216.0 -2.871344865428237 1
gene  1 8 13 -3.8508194112750616 0 233.0 -3.8508194112750616 1
gene  1 2 16 -2.220896937322059 0 324.0 -2.220896937322059 1
gene  1 2 20 0.633387375944487 0 333.0 0.633387375944487 1
gene  1 7 8 3.5354106622690162 0 352.0 3.5354106622690162 1
gene  1 16 50 1.3033406930499647 0 364.0 1.3033406930499647 1
gene  1 50 14 -1.0832439877717228 0 365.0 -1.0832439877717228 1
gene  1 3 55 0.4989527184206082 0 379.0 0.4989527184206082 1
gene  1 55 20 -3.6207915309551004 0 380.0 -3.6207915309551004 1
gene  1 3 70 -5.580457880082836 0 461.0 -5.580457880082836 1
gene  1 70 13 0.31985083153833416 0 462.0 0.31985083153833416 1
gene  1 6 16 -1.9422539221563206 0 484.0 -1.9422539221563206 1
gene  1 70 20 9.591114131474077 0 498.0 9.591114131474077 1
gene  1 5 20 2.706311042386929 0 505.0 2.706311042386929 1
gene  1 4 55 -2.7617369823180056 0 519.0 -2.7617369823180056 1
gene  1 3 87 0.6504160370535061 0 539.0 0.6504160370535061 1
gene  1 87 13 0.2232766496576507 0 540.0 0.2232766496576507 1
gene  1 5 55 -2.2489524345142065 0 563.0 -2.2489524345142065 1
genomeend 5
genomestart  6
trait 1 1.7878230492365366 0.9365906229773271 0.0 0.0 1.7799059348361965 1.2636555841906816 0.0 0.48682907384645435 
node 1 1 1 1
node 2 1 1 1
node 3 1 1 1
node 4 1 1 1
node 5 1 1 1
node 6 1 1 1
node 7 1 1 3
node 8 1 0 0
node 13 1 0 2
node 14 1 0 2
node 16 1 0 0
node 20 1 0 0
node 50 1 0 0
node 55 1 0 0
node 70 1 0 0
node 87 1 0 0
gene  1 1 8 0.3406633356366273 0 98.0 0.3406633356366273 1
gene  1 2 8 1.4829054195742568 0 99.0 1.4829054195742568 1
gene  1 3 8 1.2481720845181534 0 100.0 1.2481720845181534 1
gene  1 4 8 0.5003962953658779 0 101.0 0.5003962953658779 1
gene  1 5 8 -0.6928757637108747 0 102.0 -0.6928757637108747 1
gene  1 6 8 -1.2759907504075438 0 103.0 -1.2759907504075438 1
gene  1 8 8 -0.1538835246396375 1 105.0 -0.1538835246396375 1
gene  1 13 8 0.9437242348059285 1 110.0 0.9437242348059285 1
gene  1 14 8 0.07934478831921887 1 111.0 0.07934478831921887 1
gene  1 3 13 -9.91997459875757 0 170.0 -9.91997459875757 0
gene  1 5 13 -0.5733357032179436 0 172.0 -0.5733357032179436 1
gene  1 7 13 2.470483241628056 0 174.0 2.470483241628056 1
gene  1 13 13 -1.4901098194937252 1 180.0 -1.4901098194937252 1
gene  1 2 14 3.0709495091797523 0 183.0 3.0709495091797523 1
gene  1 4 14 -1.6910114106934278 0 185.0 -1.6910114106934278 1
gene  1 6 14 0.5525893177883907 0 187.0 0.5525893177883907 1
gene  1 8 14 -12.762302373622575 0 189.0 -12.762302373622575 1
gene  1 13 14 -1.7130607211139046 0 194.0 -1.7130607211139046 1
gene  1 13 16 2.911382912451455 0 201.0 2.911382912451455 1
gene  1 16 14 -4.622657696483389 0 202.0 -4.622657696483389 1
gene  1 3 20 -4.838050372425218 0 215.0 -4.838050372425218 1
gene  1 20 8 -1.4054771588676238 0 216.0 -1.4054771588676238 1
gene  1 8 13 -2.535857034630677 0 233.0 -2.535857034630677 1
gene  1 2 16 -2.5754946687757183 0 324.0 -2.5754946687757183 1
gene  1 2 20 -0.6116104514499883 0 333.0 -0.6116104514499883 1
gene  1 7 8 2.539622569314666 0 352.0 2.539622569314666 1
gene  1 16 50 -0.16352552709192336 0 364.0 -0.16352552709192336 1
gene  1 50 14 -1.033164567152941 0 365.0 -1.033164567152941 1
gene  1 3 55 -0.9269609124567866 0 379.0 -0.9269609124567866 1
gene  1 55 20 -2.390314063604354 0 380.0 -2.390314063604354 1
gene  1 3 70 -6.503664620073965 0 461.0 -6.503664620073965 1
gene  1 70 13 -0.024885988613244925 0 462.0 -0.024885988613244925 1
gene  1 6 16 1.7343641945618309 0 484.0 1.7343641945618309 1
gene  1 70 20 9.591114131474077 0 498.0 9.591114131474077 1
gene  1 5 20 0.9800382032297468 0 505.0 0.9800382032297468 1
gene  1 4 55 -2.7617369823180056 0 519.0 -2.7617369823180056 1
gene  1 3 87 0.5038817171870491 0 539.0 0.5038817171870491 1
gene  1 87 13 0.2232766496576507 0 540.0 0.2232766496576507 1
genomeend 6
genomestart  7
trait 1 0.0 0.22591697987852943 2.7344810196560863 0.5140847956629644 0.0 1.4007872281640394 0.0 1.6529965227924879 
node 1 1 1 1
node 2 1 1 1
node 3 1 1 1
node 4 1 1 1
node 5 1 1 1
node 6 1 1 1
node 7 1 1 3
node 8 1 0 0
node 9 1 0 0
node 10 1 0 0
node 13 1 0 2
node 14 1 0 2
node 21 1 0 0
node 29 1 0 0
node 52 1 0 0
node 53 1 0 0
node 64 1 0 0
node 85 1 0 0
gene  1 1 8 0.7333557618514199 0 98.0 0.7333557618514199 1
gene  1 3 8 -3.8978456756992905 0 100.0 -3.8978456756992905 1
gene  1 5 8 18.64761205939399 0 102.0 18.64761205939399 1
gene  1 6 8 -0.39212103579572555 0 103.0 -0.39212103579572555 1
gene  1 8 8 -3.9084023461249693 1 105.0 -3.9084023461249693 1
gene  1 1 9 4.419922410842725 0 112.0 4.419922410842725 1
gene  1 2 9 -1.6403078480387956 0 113.0 -1.6403078480387956 1
gene  1 3 9 -0.728400051138614 0 114.0 -0.728400051138614 1
gene  1 5 9 1.1691482173206802 0 116.0 1.1691482173206802 1
gene  1 7 9 -1.1882834955262316 0 118.0 -1.1882834955262316 1
gene  1 9 9 -5.336285208159617 1 120.0 -5.336285208159617 0
gene  1 10 9 -0.09485424447587354 1 121.0 -0.09485424447587354 1
gene  1 13 9 -2.2696492475343693 1 124.0 -2.2696492475343693 1
gene  1 2 10 9.421015256219414 0 127.0 9.421015256219414 1
gene  1 4 10 0.30519040875988335 0 129.0 0.30519040875988335 1
gene  1 5 10 3.6106518805748693 0 130.0 3.6106518805748693 1
gene  1 8 10 1.8286568750787873 0 133.0 1.8286568750787873 1
gene  1 9 10 -2.5042956862068104 0 134.0 -2.5042956862068104 1
gene  1 10 10 -0.11356790851470211 1 135.0 -0.11356790851470211 1
gene  1 13 10 -2.8853923419542546 1 138.0 -2.8853923419542546 1
gene  1 14 10 -4.158578084998712 1 139.0 -4.158578084998712 1
gene  1 2 13 -1.7389722827843181 0 169.0 -1.7389722827843181 1
gene  1 3 13 0.5773581909720618 0 170.0 0.5773581909720618 1
gene  1 6 13 -0.1349570754300391 0 173.0 -0.1349570754300391 1
gene  1 7 13 -1.5550832104537062 0 174.0 -1.5550832104537062 1
gene  1 9 13 0.8420358158505388 0 176.0 0.8420358158505388 1
gene  1 13 13 -1.9156476906558253 1 180.0 -1.9156476906558253 1
gene  1 14 13 3.507391739445884 1 181.0 3.507391739445884 1
gene  1 1 14 -0.24767610712956012 0 182.0 -0.24767610712956012 1
gene  1 3 14 -0.703694434605163 0 184.0 -0.703694434605163 1
gene  1 9 14 2.157784802718965 0 190.0 2.157784802718965 1
gene  1 10 14 -1.6113323540630928 0 191.0 -1.6113323540630928 1
gene  1 1 21 -0.10909349042734995 0 218.0 -0.10909349042734995 1
gene  1 21 8 0.7134991311068921 0 219.0 0.7134991311068921 1
gene  1 3 10 -3.4496063628191744 0 223.0 -3.4496063628191744 1
gene  1 6 29 -0.15642714752747877 0 259.0 -0.15642714752747877 1
gene  1 29 8 0.005895315995233297 0 260.0 0.005895315995233297 1
gene  1 29 21 1.8051267068950632 0 271.0 1.8051267068950632 1
gene  1 3 21 3.661869203347634 0 300.0 3.661869203347634 1
gene  1 9 52 0.14077537516752692 0 368.0 0.14077537516752692 1
gene  1 52 14 -1.9469417579268309 0 369.0 -1.9469417579268309 1
gene  1 1 53 -1.224402751273809 0 372.0 -1.224402751273809 1
gene  1 53 21 -0.8988641587047332 0 373.0 -0.8988641587047332 0
gene  1 2 52 2.7062464006091855 0 425.0 2.7062464006091855 1
gene  1 53 64 5.700018002151573 0 443.0 5.700018002151573 1
gene  1 64 21 -5.111376699411199 0 444.0 -5.111376699411199 1
gene  1 21 10 0.658679452740053 0 509.0 0.658679452740053 1
gene  1 9 85 -5.209252421996636 1 520.0 -5.209252421996636 1
gene  1 85 9 -1.976912049422313 0 521.0 -1.976912049422313 1
gene  1 13 52 1.4918687410141747 0 523.0 1.4918687410141747 1
genomeend 7
genomestart  8
trait 1 0.0 0.22591697987852943 1.814227304495946 0.0 0.0 1.4007872281640394 0.14596744535389206 1.6529965227924879 
node 1 1 1 1
node 2 1 1 1
node 3 1 1 1
node 4 1 1 1
node 5 1 1 1
node 6 1 1 1
node 7 1 1 3
node 8 1 0 0
node 9 1 0 0
node 10 1 0 0
node 13 1 0 2
node 14 1 0 2
node 21 1 0 0
node 29 1 0 0
node 52 1 0 0
node 53 1 0 0
node 64 1 0 0
node 85 1 0 0
gene  1 1 8 -1.4381954710008344 0 98.0 -1.4381954710008344 1
gene  1 3 8 -2.7890589078330708 0 100.0 -2.7890589078330708 1
gene  1 5 8 16.3350395380273 0 102.0 16.3350395380273 1
gene  1 6 8 -2.9014141544724006 0 103.0 -2.9014141544724006 1
gene  1 8 8 -4.193407661324206 1 105.0 -4.193407661324206 1
gene  1 1 9 4.7020142648025 0 112.0 4.7020142648025 1
gene  1 2 9 -3.6361470502434905 0 113.0 -3.6361470502434905 1
gene  1 3 9 -1.571547237357163 0 114.0 -1.571547237357163 1
gene  1 5 9 0.17087301850065129 0 116.0 0.17087301850065129 1
gene  1 7 9 2.995330182499637 0 118.0 2.995330182499637 1
gene  1 9 9 -9.091514505905822 1 120.0 -9.091514505905822 0
gene  1 10 9 -0.002848320687758754 1 121.0 -0.002848320687758754 1
gene  1 13 9 1.4696245933899705 1 124.0 1.4696245933899705 1
gene  1 2 10 10.100850380726587 0 127.0 10.100850380726587 1
gene  1 4 10 -0.7838731387662787 0 129.0 -0.7838731387662787 1
gene  1 5 10 2.0110533686587613 0 130.0 2.0110533686587613 1
gene  1 8 10 1.0928485089220585 0 133.0 1.0928485089220585 1
gene  1 9 10 0.41617595541822183 0 134.0 0.41617595541822183 1
gene  1 10 10 -1.8600887460739743 1 135.0 -1.8600887460739743 1
gene  1 13 10 -3.2841133087693954 1 138.0 -3.2841133087693954 1
gene  1 14 10 -5.719172990746813 1 139.0 -5.719172990746813 1
gene  1 2 13 -0.001827608056704566 0 169.0 -0.001827608056704566 1
gene  1 3 13 -2.386027718564639 0 170.0 -2.386027718564639 1
gene  1 6 13 -2.0577991146112415 0 173.0 -2.0577991146112415 1
gene  1 7 13 -0.8235308110804992 0 174.0 -0.8235308110804992 1
gene  1 9 13 0.7426235922673796 0 176.0 0.7426235922673796 1
gene  1 13 13 1.6436959414788301 1 180.0 1.6436959414788301 1
gene  1 14 13 1.687765530414318 1 181.0 1.687765530414318 1
gene  1 1 14 -3.8035677463882607 0 182.0 -3.8035677463882607 1
gene  1 3 14 1.3842953818077481 0 184.0 1.3842953818077481 1
gene  1 9 14 4.05078580702545 0 190.0 4.05078580702545 1
gene  1 10 14 -2.154937042120249 0 191.0 -2.154937042120249 1
gene  1 1 21 1.996759387033404 0 218.0 1.996759387033404 1
gene  1 21 8 0.9094278768492843 0 219.0 0.9094278768492843 1
gene  1 3 10 -2.306135511922583 0 223.0 -2.306135511922583 1
gene  1 6 29 1.88878911445067 0 259.0 1.88878911445067 1
gene  1 29 8 -0.9459034987563559 0 260.0 -0.9459034987563559 1
gene  1 29 21 -1.4250087859897405 0 271.0 -1.4250087859897405 1
gene  1 3 21 4.203895427455147 0 300.0 4.203895427455147 1
gene  1 9 52 -1.7240023790296126 0 368.0 -1.7240023790296126 1
gene  1 52 14 0.056578726337550345 0 369.0 0.056578726337550345 1
gene  1 1 53 -1.627235352814512 0 372.0 -1.627235352814512 1
gene  1 53 21 -2.273367362755792 0 373.0 -2.273367362755792 0
gene  1 2 52 1.5466426498677843 0 425.0 1.5466426498677843 1
gene  1 53 64 5.029416637697228 0 443.0 5.029416637697228 1
gene  1 64 21 -5.111376699411199 0 444.0 -5.111376699411199 1
gene  1 21 10 1.507233202028848 0 509.0 1.507233202028848 1
gene  1 9 85 -6.446896658320062 1 520.0 -6.446896658320062 1
gene  1 85 9 -1.4472194600754902 0 521.0 -1.4472194600754902 1
gene  1 13 52 0.6612950861643025 0 523.0 0.6612950861643025 1
genomeend 8
genomestart  9
trait 1 0.39340002544161434 0.4638621482816303 0.4185672944766822 1.064591410541687 0.18796189784306305 1.4619974594472236 1.314330803229924 0.36223095093968216 
node 1 1 1 1
node 2 1 1 1
node 3 1 1 1
node 4 1 1 1
node 5 1 1 1
node 6 1 1 1
node 7 1 1 3
node 13 1 0 2
node 14 1 0 2
node 42 1 0 0
node 61 1 0 0
node 74 1 0 0
node 76 1 0 0
gene  1 1 13 1.2050843105013722 0 168.0 1.2050843105013722 1
gene  1 2 13 1.5352309332651943 0 169.0 1.5352309332651943 1
gene  1 3 13 -2.412331130864011 0 170.0 -2.412331130864011 1
gene  1 4 13 0.7886279271126682 0 171.0 0.7886279271126682 1
gene  1 5 13 5.221051038253777 0 172.0 5.221051038253777 1
gene  1 6 13 -1.8153713100009259 0 173.0 -1.8153713100009259 1
gene  1 7 13 2.7477485625772453 0 174.0 2.7477485625772453 1
gene  1 14 13 0.9549734901151208 1 181.0 0.9549734901151208 1
gene  1 1 14 0.35199656958530046 0 182.0 0.35199656958530046 1
gene  1 2 14 -4.308973581564164 0 183.0 -4.308973581564164 1
gene  1 3 14 1.681151611926013 0 184.0 1.681151611926013 1
gene  1 13 14 -0.7511929907057151 0 194.0 -0.7511929907057151 1
gene  1 14 14 -4.622864373584731 1 195.0 -4.622864373584731 1
gene  1 6 14 -1.615809473569676 0 230.0 -1.615809473569676 1
gene  1 4 14 1.1122740586987097 0 312.0 1.1122740586987097 1
gene  1 2 42 -2.5458767348049784 0 320.0 -2.5458767348049784 1
gene  1 42 13 -1.2541535705613698 0 321.0 -1.2541535705613698 1
gene  1 6 42 -1.6875681593022585 0 349.0 -1.6875681593022585 1
gene  1 7 14 2.2821443712749865 0 353.0 2.2821443712749865 1
gene  1 7 42 -0.140418894962151 0 395.0 -0.140418894962151 1
gene  1 5 61 2.01848051339592 0 408.0 2.01848051339592 1
gene  1 61 13 15.476814024851928 0 409.0 15.476814024851928 1
gene  1 5 42 -0.3102361458847709 0 426.0 -0.3102361458847709 1
gene  1 2 74 5.433272237701232 0 471.0 5.433272237701232 1
gene  1 74 13 1.1082200008005412 0 472.0 1.1082200008005412 1
gene  1 5 76 1.509713035619554 0 476.0 1.509713035619554 1
gene  1 76 42 1.5655318640853315 0 477.0 1.5655318640853315 1
gene  1 3 74 6.893686843778774 0 491.0 6.893686843778774 1
gene  1 61 74 0.694783206622142 0 527.0 0.694783206622142 1
gene  1 61 42 2.043631858066436 0 544.0 2.043631858066436 1
genomeend 9
genomestart  10
trait 1 0.39340002544161434 0.4638621482816303 0.4185672944766822 1.064591410541687 0.18796189784306305 1.4619974594472236 1.314330803229924 0.36223095093968216 
node 1 1 1 1
node 2 1 1 1
node 3 1 1 1
node 4 1 1 1
node 5 1 1 1
node 6 1 1 1
node 7 1 1 3
node 13 1 0 2
node 14 1 0 2
node 42 1 0 0
node 61 1 0 0
node 74 1 0 0
node 76 1 0 0
gene  1 1 13 -1.7527534270570988 0 168.0 -1.7527534270570988 1
gene  1 2 13 4.414570252081953 0 169.0 4.414570252081953 1
gene  1 3 13 -2.6153635986917 0 170.0 -2.6153635986917 1
gene  1 4 13 -0.012361398235681165 0 171.0 -0.012361398235681165 1
gene  1 5 13 3.6957556868954975 0 172.0 3.6957556868954975 1
gene  1 6 13 -0.8010098314560994 0 173.0 -0.8010098314560994 1
gene  1 7 13 5.807982214796023 0 174.0 5.807982214796023 1
gene  1 14 13 -1.964076806996169 1 181.0 -1.964076806996169 1
gene  1 1 14 -1.5615842260950672 0 182.0 -1.5615842260950672 1
gene  1 2 14 -1.8771003468423517 0 183.0 -1.8771003468423517 1
gene  1 3 14 -1.2301081189713112 0 184.0 -1.2301081189713112 1
gene  1 13 14 -0.09169675977150743 0 194.0 -0.09169675977150743 1
gene  1 14 14 -2.6358839055117755 1 195.0 -2.6358839055117755 1
gene  1 6 14 -1.0764810545964718 0 230.0 -1.0764810545964718 1
gene  1 4 14 -2.5679015807957812 0 312.0 -2.5679015807957812 1
gene  1 2 42 -6.9488662435134785 0 320.0 -6.9488662435134785 1
gene  1 42 13 -0.7595941239328037 0 321.0 -0.7595941239328037 1
gene  1 6 42 -1.4083588161403096 0 349.0 -1.4083588161403096 1
gene  1 7 14 3.244387213080732 0 353.0 3.244387213080732 1
gene  1 7 42 -0.38679818844156333 0 395.0 -0.38679818844156333 1
gene  1 5 61 -0.4595582510653392 0 408.0 -0.4595582510653392 1
gene  1 61 13 14.739282688983222 0 409.0 14.739282688983222 1
gene  1 5 42 0.5054899465851734 0 426.0 0.5054899465851734 1
gene  1 2 74 3.261300174784417 0 471.0 3.261300174784417 1
gene  1 74 13 0.39043240075982055 0 472.0 0.39043240075982055 1
gene  1 5 76 0.2852533866784459 0 476.0 0.2852533866784459 1
gene  1 76 42 3.2952276400811487 0 477.0 3.2952276400811487 1
gene  1 3 74 4.587931097569388 0 491.0 4.587931097569388 1
gene  1 61 74 0.08094571561351849 0 527.0 0.08094571561351849 1
gene  1 61 42 3.663699880590779 0 544.0 3.663699880590779 1
genomeend 10
genomestart  11
trait 1 0.39340002544161434 0.4638621482816303 0.4185672944766822 1.064591410541687 0.18796189784306305 1.4619974594472236 1.314330803229924 0.36223095093968216 
node 1 1 1 1
node 2 1 1 1
node 3 1 1 1
node 4 1 1 1
node 5 1 1 1
node 6 1 1 1
node 7 1 1 3
node 13 1 0 2
node 14 1 0 2
node 42 1 0 0
node 61 1 0 0
node 74 1 0 0
node 76 1 0 0
gene  1 1 13 3.4112811772919116 0 168.0 3.4112811772919116 1
gene  1 2 13 1.5126286944679508 0 169.0 1.5126286944679508 1
gene  1 3 13 2.42376909173518 0 170.0 2.42376909173518 1
gene  1 4 13 1.2781343193318935 0 171.0 1.2781343193318935 1
gene  1 5 13 4.913604831727281 0 172.0 4.913604831727281 1
gene  1 6 13 2.5245039185949505 0 173.0 2.5245039185949505 1
gene  1 7 13 -1.3707043352157995 0 174.0 -1.3707043352157995 1
gene  1 14 13 -0.47966865917073853 1 181.0 -0.47966865917073853 1
gene  1 1 14 -0.029539539441778673 0 182.0 -0.029539539441778673 1
gene  1 2 14 -1.2054475507791658 0 183.0 -1.2054475507791658 1
gene  1 3 14 -0.5693496438076326 0 184.0 -0.5693496438076326 1
gene  1 13 14 0.09421417825009931 0 194.0 0.09421417825009931 1
gene  1 14 14 -1.151535482544435 1 195.0 -1.151535482544435 1
gene  1 6 14 -2.1319445763254627 0 230.0 -2.1319445763254627 1
gene  1 4 14 1.1533579973371557 0 312.0 1.1533579973371557 1
gene  1 2 42 -5.08919706567598 0 320.0 -5.08919706567598 1
gene  1 42 13 -1.1289567342201792 0 321.0 -1.1289567342201792 1
gene  1 6 42 -1.0876751501880153 0 349.0 -1.0876751501880153 1
gene  1 7 14 3.9902517269501763 0 353.0 3.9902517269501763 1
gene  1 7 42 1.0065115851759225 0 395.0 1.0065115851759225 1
gene  1 5 61 -1.7674011656550843 0 408.0 -1.7674011656550843 1
gene  1 61 13 15.572463143707013 0 409.0 15.572463143707013 1
gene  1 5 42 -0.1925156621709495 0 426.0 -0.1925156621709495 1
gene  1 2 74 6.968668039965485 0 471.0 6.968668039965485 1
gene  1 74 13 -0.34407182919224066 0 472.0 -0.34407182919224066 1
gene  1 5 76 3.846523564577528 0 476.0 3.846523564577528 1
gene  1 76 42 -0.29792523263881976 0 477.0 -0.29792523263881976 1
gene  1 3 74 0.7236072356059259 0 491.0 0.7236072356059259 1
gene  1 61 74 -2.9279173331610275 0 527.0 -2.9279173331610275 1
gene  1 61 42 5.886401703008192 0 544.0 5.886401703008192 1
genomeend 11
genomestart  12
trait 1 0.0 0.9160964204574156 0.03145355857324372 0.5098453143214142 0.4939563997667481 0.0238959621145034 1.3204749328510976 0.0 
node 1 1 1 1
node 2 1 1 1
node 3 1 1 1
node 4 1 1 1
node 5 1 1 1
node 6 1 1 1
node 7 1 1 3
node 8 1 0 0
node 13 1 0 2
node 14 1 0 2
node 49 1 0 0
node 59 1 0 0
node 63 1 0 0
node 88 1 0 0
gene  1 4 8 0.3439049609728703 0 101.0 0.3439049609728703 1
gene  1 5 8 -0.5081779339493322 0 102.0 -0.5081779339493322 1
gene  1 6 8 -4.768334905345769 0 103.0 -4.768334905345769 1
gene  1 14 8 4.272727068732118 1 111.0 4.272727068732118 1
gene  1 1 13 -4.07752634742339 0 168.0 -4.07752634742339 1
gene  1 2 13 -0.19305305541074846 0 169.0 -0.19305305541074846 1
gene  1 3 13 -1.867754364737553 0 170.0 -1.867754364737553 1
gene  1 5 13 0.382299180180099 0 172.0 0.382299180180099 1
gene  1 7 13 -0.8546129448192754 0 174.0 -0.8546129448192754 1
gene  1 14 13 -3.5599620289031684 1 181.0 -3.5599620289031684 1
gene  1 1 14 -1.7485877423600262 0 182.0 -1.7485877423600262 1
gene  1 2 14 -2.946720879772558 0 183.0 -2.946720879772558 1
gene  1 3 14 -1.4523104714516037 0 184.0 -1.4523104714516037 1
gene  1 4 14 2.594883676161212 0 185.0 2.594883676161212 1
gene  1 8 14 3.712190173225096 0 189.0 3.712190173225096 1
gene  1 14 14 6.568063878415071 1 195.0 6.568063878415071 1
gene  1 6 14 -8.090103089881488 0 240.0 -8.090103089881488 1
gene  1 8 13 -0.7407272767904272 0 311.0 -0.7407272767904272 1
gene  1 14 13 0.04685761090962881 0 322.0 0.04685761090962881 1
gene  1 2 49 2.2354059771321326 0 362.0 2.2354059771321326 1
gene  1 49 14 0.08680490849072658 0 363.0 0.08680490849072658 1
gene  1 3 8 -2.0297322921637613 0 393.0 -2.0297322921637613 1
gene  1 49 59 0.26223691159133894 0 401.0 0.26223691159133894 0
gene  1 59 14 1.7098899508887038 0 402.0 1.7098899508887038 1
gene  1 2 59 -3.8630591626557336 0 403.0 -3.8630591626557336 1
gene  1 7 14 1.3930855679420815 0 424.0 1.3930855679420815 1
gene  1 59 13 4.023642623357159 0 427.0 4.023642623357159 1
gene  1 3 63 -5.965989073992127 0 440.0 -5.965989073992127 1
gene  1 63 8 -0.8532168003452709 0 441.0 -0.8532168003452709 1
gene  1 5 59 1.2782122896675416 0 525.0 1.2782122896675416 1
gene  1 1 59 -0.12922672889969566 0 534.0 -0.12922672889969566 1
gene  1 49 88 -0.37090312091785704 0 546.0 -0.37090312091785704 1
gene  1 88 59 1.2231943981643316 0 547.0 1.2231943981643316 1
genomeend 12
genomestart  13
trait 1 0.0 0.9160964204574156 0.03145355857324372 0.5098453143214142 0.4939563997667481 0.0238959621145034 1.3204749328510976 0.0 
node 1 1 1 1
node 2 1 1 1
node 3 1 1 1
node 4 1 1 1
node 5 1 1 1
node 6 1 1 1
node 7 1 1 3
node 8 1 0 0
node 13 1 0 2
node 14 1 0 2
node 49 1 0 0
node 59 1 0 0
node 63 1 0 0
node 88 1 0 0
gene  1 4 8 1.9489164515339175 0 101.0 1.9489164515339175 1
gene  1 5 8 -3.8010209536839454 0 102.0 -3.8010209536839454 1
gene  1 6 8 -3.184173480683338 0 103.0 -3.184173480683338 1
gene  1 14 8 5.156514409103131 1 111.0 5.156514409103131 1
gene  1 1 13 -3.764463654694466 0 168.0 -3.764463654694466 1
gene  1 2 13 2.97683368653052 0 169.0 2.97683368653052 1
gene  1 3 13 -3.192743893759026 0 170.0 -3.192743893759026 1
gene  1 5 13 1.2279301171406476 0 172.0 1.2279301171406476 1
gene  1 7 13 -1.395278801905159 0 174.0 -1.395278801905159 1
gene  1 14 13 -5.71749455870958 1 181.0 -5.71749455870958 1
gene  1 1 14 1.5991855721200108 0 182.0 1.5991855721200108 1
gene  1 2 14 -3.8519207262555715 0 183.0 -3.8519207262555715 1
gene  1 3 14 -0.7084356015888376 0 184.0 -0.7084356015888376 1
gene  1 4 14 3.709614704204212 0 185.0 3.709614704204212 1
gene  1 8 14 4.314269482550345 0 189.0 4.314269482550345 1
gene  1 14 14 5.676477345271405 1 195.0 5.676477345271405 1
gene  1 6 14 -4.692450199018684 0 240.0 -4.692450199018684 1
gene  1 8 13 -5.160752889184686 0 311.0 -5.160752889184686 1
gene  1 14 13 -2.981892838801148 0 322.0 -2.981892838801148 1
gene  1 2 49 3.446691575721176 0 362.0 3.446691575721176 1
gene  1 49 14 2.322142007252235 0 363.0 2.322142007252235 1
gene  1 3 8 1.9793109178959978 0 393.0 1.9793109178959978 1
gene  1 49 59 0.7353313720204018 0 401.0 0.7353313720204018 0
gene  1 59 14 -0.8087311704785791 0 402.0 -0.8087311704785791 1
gene  1 2 59 -0.9611430240040488 0 403.0 -0.9611430240040488 1
gene  1 7 14 3.9987559636816012 0 424.0 3.9987559636816012 1
gene  1 59 13 -0.32411789607842945 0 427.0 -0.32411789607842945 1
gene  1 3 63 -6.179954462956321 0 440.0 -6.179954462956321 1
gene  1 63 8 -3.21491543798233 0 441.0 -3.21491543798233 1
gene  1 5 59 0.7008244207437007 0 525.0 0.7008244207437007 1
gene  1 1 59 -0.7617485573120338 0 534.0 -0.7617485573120338 1
gene  1 49 88 0.4402984670561918 0 546.0 0.4402984670561918 1
gene  1 88 59 -1.136310728563069 0 547.0 -1.136310728563069 1
genomeend 13
genomestart  14
trait 1 0.13128347031454002 2.1861426182912065 1.9374932614318525 1.0892501474140128 0.08204160544798289 2.65917914065412 0.4897091754502324 0.34147463893030316 
node 1 1 1 1
node 2 1 1 1
node 3 1 1 1
node 4 1 1 1
node 5 1 1 1
node 6 1 1 1
node 7 1 1 3
node 8 1 0 0
node 9 1 0 0
node 10 1 0 0
node 11 1 0 0
node 12 1 0 0
node 13 1 0 2
node 14 1 0 2
node 27 1 0 0
node 34 1 0 0
node 40 1 0 0
node 48 1 0 0
node 71 1 0 0
gene  1 1 8 -3.664717174997764 0 98.0 -3.664717174997764 1
gene  1 3 8 -1.6000090149354282 0 100.0 -1.6000090149354282 1
gene  1 4 8 2.3098268011292187 0 101.0 2.3098268011292187 1
gene  1 6 8 0.3319553239254738 0 103.0 0.3319553239254738 1
gene  1 8 8 4.475286771813844 1 105.0 4.475286771813844 1
gene  1 10 8 1.78698364381071 1 107.0 1.78698364381071 1
gene  1 3 9 0.08185297891189869 0 114.0 0.08185297891189869 1
gene  1 6 9 -7.503566513401665 0 117.0 -7.503566513401665 1
gene  1 8 9 3.1275021255408024 0 119.0 3.1275021255408024 1
gene  1 10 9 2.805075951979312 1 121.0 2.805075951979312 1
gene  1 11 9 0.5926495929381292 1 122.0 0.5926495929381292 1
gene  1 13 9 -2.0381661992369247 1 124.0 -2.0381661992369247 1
gene  1 14 9 1.7421248381294248 1 125.0 1.7421248381294248 1
gene  1 1 10 5.940461699576748 0 126.0 5.940461699576748 1
gene  1 3 10 7.526773878328571 0 128.0 7.526773878328571 1
gene  1 4 10 0.4740636774249578 0 129.0 0.4740636774249578 1
gene  1 5 10 5.670902424294094 0 130.0 5.670902424294094 1
gene  1 9 10 1.0936809799448257 0 134.0 1.0936809799448257 1
gene  1 13 10 7.607396133944992 1 138.0 7.607396133944992 1
gene  1 1 11 -1.5366153417923205 0 140.0 -1.5366153417923205 1
gene  1 3 11 1.0287451814580502 0 142.0 1.0287451814580502 1
gene  1 5 11 1.0597585580682432 0 144.0 1.0597585580682432 1
gene  1 9 11 2.1701714050687877 0 148.0 2.1701714050687877 1
gene  1 10 11 7.067998209245333 0 149.0 7.067998209245333 1
gene  1 12 11 -0.5398248061089987 1 151.0 -0.5398248061089987 1
gene  1 14 11 -3.8526838543057793 1 153.0 -3.8526838543057793 1
gene  1 2 12 6.842728113585982 0 155.0 6.842728113585982 1
gene  1 4 12 -1.2074266765338173 0 157.0 -1.2074266765338173 1
gene  1 6 12 -4.083060374497449 0 159.0 -4.083060374497449 1
gene  1 7 12 -1.1689593017859523 0 160.0 -1.1689593017859523 1
gene  1 9 12 -3.842424817010037 0 162.0 -3.842424817010037 1
gene  1 10 12 4.355032432208138 0 163.0 4.355032432208138 1
gene  1 12 12 -3.0427264201418507 1 165.0 -3.0427264201418507 1
gene  1 14 12 4.22320203921298 1 167.0 4.22320203921298 1
gene  1 1 13 1.0561389512773625 0 168.0 1.0561389512773625 1
gene  1 3 13 -0.9947575632110276 0 170.0 -0.9947575632110276 1
gene  1 4 13 -2.3790312045560706 0 171.0 -2.3790312045560706 1
gene  1 6 13 -2.1644999960324105 0 173.0 -2.1644999960324105 1
gene  1 8 13 -13.997441741524316 0 175.0 -13.997441741524316 1
gene  1 9 13 0.525442890897633 0 176.0 0.525442890897633 1
gene  1 8 14 -0.2776572106138513 0 189.0 -0.2776572106138513 1
gene  1 11 14 6.207840402056403 0 192.0 6.207840402056403 1
gene  1 5 8 -2.6713486170720517 0 235.0 -2.6713486170720517 1
gene  1 1 27 -2.0972184259123807 0 241.0 -2.0972184259123807 1
gene  1 27 8 -0.26441947343346817 0 242.0 -0.26441947343346817 1
gene  1 9 34 0.583639365563764 0 272.0 0.583639365563764 1
gene  1 34 11 -0.9057377767991048 0 273.0 -0.9057377767991048 1
gene  1 5 13 1.465518669478278 0 277.0 1.465518669478278 1
gene  1 12 14 -1.2316113168992757 0 296.0 -1.2316113168992757 1
gene  1 8 40 -0.26522256040668823 1 308.0 -0.26522256040668823 1
gene  1 40 8 5.043185734457446 0 309.0 5.043185734457446 1
gene  1 10 14 -1.2561644427853538 0 341.0 -1.2561644427853538 1
gene  1 3 48 -2.0725724027556236 0 360.0 -2.0725724027556236 1
gene  1 48 8 1.8951336772715366 0 361.0 1.8951336772715366 1
gene  1 10 13 0.8666848408717771 0 404.0 0.8666848408717771 1
gene  1 48 71 1.4976020884661514 0 463.0 1.4976020884661514 1
gene  1 71 8 0.8965187029365476 0 464.0 0.8965187029365476 1
gene  1 11 12 -2.2023120288918596 0 478.0 -2.2023120288918596 1
gene  1 34 14 -2.1954461145293824 0 481.0 -2.1954461145293824 1
genomeend 14
genomestart  15
trait 1 0.13128347031454002 2.1861426182912065 1.2671621196902727 0.49951333318806035 0.0 2.2133304098674773 0.4897091754502324 0.06730656714772287 
node 1 1 1 1
node 2 1 1 1
node 3 1 1 1
node 4 1 1 1
node 5 1 1 1
node 6 1 1 1
node 7 1 1 3
node 8 1 0 0
node 9 1 0 0
node 10 1 0 0
node 11 1 0 0
node 12 1 0 0
node 13 1 0 2
node 14 1 0 2
node 27 1 0 0
node 34 1 0 0
node 40 1 0 0
node 48 1 0 0
node 71 1 0 0
gene  1 1 8 -6.793793397610536 0 98.0 -6.793793397610536 1
gene  1 3 8 -0.6741155584488291 0 100.0 -0.6741155584488291 1
gene  1 4 8 1.8368094146147806 0 101.0 1.8368094146147806 1
gene  1 6 8 0.6141578199288056 0 103.0 0.6141578199288056 1
gene  1 8 8 2.2621590109584857 1 105.0 2.2621590109584857 1
gene  1 10 8 1.5075541534972847 1 107.0 1.5075541534972847 1
gene  1 3 9 -4.0235227064029875 0 114.0 -4.0235227064029875 1
gene  1 6 9 -6.867084402940655 0 117.0 -6.867084402940655 1
gene  1 8 9 1.3905737210444327 0 119.0 1.3905737210444327 1
gene  1 10 9 2.8103879491696206 1 121.0 2.8103879491696206 1
gene  1 11 9 0.17645717632445568 1 122.0 0.17645717632445568 1
gene  1 13 9 -5.136738318359924 1 124.0 -5.136738318359924 1
gene  1 14 9 1.669957319804119 1 125.0 1.669957319804119 1
gene  1 1 10 6.6630321098291425 0 126.0 6.6630321098291425 1
gene  1 3 10 4.1026259127027185 0 128.0 4.1026259127027185 1
gene  1 4 10 3.4386298889153775 0 129.0 3.4386298889153775 1
gene  1 5 10 6.130903517155438 0 130.0 6.130903517155438 1
gene  1 9 10 -2.4864647739814894 0 134.0 -2.4864647739814894 1
gene  1 13 10 5.7497414265551114 1 138.0 5.7497414265551114 1
gene  1 1 11 0.46889379597434444 0 140.0 0.46889379597434444 1
gene  1 3 11 4.09896826781182 0 142.0 4.09896826781182 1
gene  1 5 11 1.6954920136671228 0 144.0 1.6954920136671228 1
gene  1 9 11 0.8671656742829641 0 148.0 0.8671656742829641 1
gene  1 10 11 8.595190453518 0 149.0 8.595190453518 1
gene  1 12 11 0.30491725418246207 1 151.0 0.30491725418246207 1
gene  1 14 11 -4.142365848828977 1 153.0 -4.142365848828977 1
gene  1 2 12 3.403067846491536 0 155.0 3.403067846491536 1
gene  1 4 12 -0.9766716674921851 0 157.0 -0.9766716674921851 1
gene  1 6 12 -5.9317448876573335 0 159.0 -5.9317448876573335 1
gene  1 7 12 -3.414004105397792 0 160.0 -3.414004105397792 1
gene  1 9 12 -0.5671054578750938 0 162.0 -0.5671054578750938 1
gene  1 10 12 4.497455639230255 0 163.0 4.497455639230255 1
gene  1 12 12 0.63529644406889 1 165.0 0.63529644406889 1
gene  1 14 12 6.598127722823437 1 167.0 6.598127722823437 1
gene  1 1 13 2.506334033137294 0 168.0 2.506334033137294 1
gene  1 3 13 0.6093257741488539 0 170.0 0.6093257741488539 1
gene  1 4 13 -4.526305858476396 0 171.0 -4.526305858476396 1
gene  1 6 13 -5.209067570981303 0 173.0 -5.209067570981303 1
gene  1 8 13 -15.280264455491805 0 175.0 -15.280264455491805 1
gene  1 9 13 -1.9450396612088678 0 176.0 -1.9450396612088678 1
gene  1 8 14 -0.5043907623490029 0 189.0 -0.5043907623490029 1
gene  1 11 14 4.515613954349081 0 192.0 4.515613954349081 1
gene  1 5 8 -3.1517293166620033 0 235.0 -3.1517293166620033 1
gene  1 1 27 -3.388176288870703 0 241.0 -3.388176288870703 1
gene  1 27 8 -4.295840932672537 0 242.0 -4.295840932672537 1
gene  1 9 34 -2.54979412191828 0 272.0 -2.54979412191828 1
gene  1 34 11 -4.122164017160162 0 273.0 -4.122164017160162 1
gene  1 5 13 2.9284291124972683 0 277.0 2.9284291124972683 1
gene  1 12 14 6.038169907601342 0 296.0 6.038169907601342 1
gene  1 8 40 1.3837253527451718 1 308.0 1.3837253527451718 1
gene  1 40 8 5.043185734457446 0 309.0 5.043185734457446 1
gene  1 10 14 1.295381812530341 0 341.0 1.295381812530341 1
gene  1 3 48 -4.023370405459589 0 360.0 -4.023370405459589 1
gene  1 48 8 0.452249206120873 0 361.0 0.452249206120873 1
gene  1 10 13 0.09625684393638284 0 404.0 0.09625684393638284 1
gene  1 48 71 -0.7236634597579905 0 463.0 -0.7236634597579905 1
gene  1 71 8 3.31763727650134 0 464.0 3.31763727650134 1
gene  1 11 12 -1.2826008282527601 0 478.0 -1.2826008282527601 1
gene  1 34 14 -1.1755872152380566 0 481.0 -1.1755872152380566 1
genomeend 15
genomestart  16
trait 1 0.13128347031454002 2.1861426182912065 1.2671621196902727 0.49951333318806035 0.0 2.2133304098674773 0.4897091754502324 0.06730656714772287 
node 1 1 1 1
node 2 1 1 1
node 3 1 1 1
node 4 1 1 1
node 5 1 1 1
node 6 1 1 1
node 7 1 1 3
node 8 1 0 0
node 9 1 0 0
node 10 1 0 0
node 11 1 0 0
node 12 1 0 0
node 13 1 0 2
node 14 1 0 2
node 27 1 0 0
node 34 1 0 0
node 40 1 0 0
node 48 1 0 0
node 71 1 0 0
gene  1 1 8 -5.600653227870571 0 98.0 -5.600653227870571 1
gene  1 3 8 2.5286507246750274 0 100.0 2.5286507246750274 1
gene  1 4 8 2.4895640952387192 0 101.0 2.4895640952387192 1
gene  1 6 8 -1.3503754642866812 0 103.0 -1.3503754642866812 1
gene  1 8 8 4.887845216141921 1 105.0 4.887845216141921 1
gene  1 10 8 2.733629775702636 1 107.0 2.733629775702636 1
gene  1 3 9 -0.4630784286870364 0 114.0 -0.4630784286870364 1
gene  1 6 9 -8.96977676612688 0 117.0 -8.96977676612688 1
gene  1 8 9 0.4138481644526677 0 119.0 0.4138481644526677 1
gene  1 10 9 4.2051175371934235 1 121.0 4.2051175371934235 1
gene  1 11 9 2.389247957814459 1 122.0 2.389247957814459 1
gene  1 13 9 -2.9108107426286 1 124.0 -2.9108107426286 1
gene  1 14 9 -1.5252719057036421 1 125.0 -1.5252719057036421 1
gene  1 1 10 5.065319201086305 0 126.0 5.065319201086305 1
gene  1 3 10 6.75552061083366 0 128.0 6.75552061083366 1
gene  1 4 10 -0.6881979332481634 0 129.0 -0.6881979332481634 1
gene  1 5 10 7.031681686652102 0 130.0 7.031681686652102 1
gene  1 9 10 -0.5077967463179841 0 134.0 -0.5077967463179841 1
gene  1 13 10 7.020523834931177 1 138.0 7.020523834931177 1
gene  1 1 11 0.3509991669100365 0 140.0 0.3509991669100365 1
gene  1 3 11 3.38505438794636 0 142.0 3.38505438794636 1
gene  1 5 11 0.3084863616264337 0 144.0 0.3084863616264337 1
gene  1 9 11 -0.021638562520721827 0 148.0 -0.021638562520721827 1
gene  1 10 11 6.147389356023506 0 149.0 6.147389356023506 1
gene  1 12 11 -3.034701059728441 1 151.0 -3.034701059728441 1
gene  1 14 11 -2.39872005524182 1 153.0 -2.39872005524182 1
gene  1 2 12 5.207337077055426 0 155.0 5.207337077055426 1
gene  1 4 12 -1.8528364269288762 0 157.0 -1.8528364269288762 1
gene  1 6 12 -4.451734876193138 0 159.0 -4.451734876193138 1
gene  1 7 12 -3.985082726398241 0 160.0 -3.985082726398241 1
gene  1 9 12 0.19937286631459283 0 162.0 0.19937286631459283 1
gene  1 10 12 3.2656802361021837 0 163.0 3.2656802361021837 1
gene  1 12 12 1.7326861471729966 1 165.0 1.7326861471729966 1
gene  1 14 12 5.434368721310373 1 167.0 5.434368721310373 1
gene  1 1 13 1.7157480262002687 0 168.0 1.7157480262002687 1
gene  1 3 13 -2.9884655998817626 0 170.0 -2.9884655998817626 1
gene  1 4 13 -3.198704018333339 0 171.0 -3.198704018333339 1
gene  1 6 13 -2.5295339680400617 0 173.0 -2.5295339680400617 1
gene  1 8 13 -15.285119818585178 0 175.0 -15.285119818585178 1
gene  1 9 13 -1.6406166572191576 0 176.0 -1.6406166572191576 1
gene  1 8 14 -4.657535653988623 0 189.0 -4.657535653988623 1
gene  1 11 14 2.6820977264851447 0 192.0 2.6820977264851447 1
gene  1 5 8 -4.196253724946776 0 235.0 -4.196253724946776 1
gene  1 1 27 -3.357554459537251 0 241.0 -3.357554459537251 1
gene  1 27 8 -2.845449127852616 0 242.0 -2.845449127852616 1
gene  1 9 34 1.471804176324925 0 272.0 1.471804176324925 1
gene  1 34 11 -3.551652161422094 0 273.0 -3.551652161422094 1
gene  1 5 13 2.451928897117552 0 277.0 2.451928897117552 1
gene  1 12 14 5.074704080942062 0 296.0 5.074704080942062 1
gene  1 8 40 1.3957785656353383 1 308.0 1.3957785656353383 1
gene  1 40 8 6.242601759720636 0 309.0 6.242601759720636 1
gene  1 10 14 2.1773811856310994 0 341.0 2.1773811856310994 1
gene  1 3 48 -1.0830015912898516 0 360.0 -1.0830015912898516 1
gene  1 48 8 1.6049988601119862 0 361.0 1.6049988601119862 1
gene  1 10 13 -0.9623082493097093 0 404.0 -0.9623082493097093 1
gene  1 48 71 -4.183115936554764 0 463.0 -4.183115936554764 1
gene  1 71 8 3.3285153184933454 0 464.0 3.3285153184933454 1
gene  1 11 12 -3.1356750162278217 0 478.0 -3.1356750162278217 1
gene  1 34 14 -1.207038562283532 0 481.0 -1.207038562283532 1
genomeend 16
genomestart  17
trait 1 0.33760641808164704 1.299704635597652 0.9547867298575612 0.017203006884936534 1.0258166876977075 0.9586270994970227 0.12889370418766055 0.0 
node 1 1 1 1
node 2 1 1 1
node 3 1 1 1
node 4 1 1 1
node 5 1 1 1
node 6 1 1 1
node 7 1 1 3
node 8 1 0 0
node 9 1 0 0
node 10 1 0 0
node 13 1 0 2
node 14 1 0 2
node 16 1 0 0
node 21 1 0 0
node 29 1 0 0
node 52 1 0 0
node 53 1 0 0
node 79 1 0 0
gene  1 1 8 0.687055875001902 0 98.0 0.687055875001902 1
gene  1 2 8 -6.258817182629077 0 99.0 -6.258817182629077 1
gene  1 3 8 1.9191653075698831 0 100.0 1.9191653075698831 1
gene  1 4 8 0.753275270183977 0 101.0 0.753275270183977 1
gene  1 5 8 -2.8077186337764184 0 102.0 -2.8077186337764184 1
gene  1 6 8 -3.2954263316941326 0 103.0 -3.2954263316941326 1
gene  1 8 8 -3.4615038122474457 1 105.0 -3.4615038122474457 1
gene  1 13 8 -2.918712089572971 1 110.0 -2.918712089572971 1
gene  1 14 8 0.42915527196198355 1 111.0 0.42915527196198355 1
gene  1 3 13 -7.064260649177395 0 170.0 -7.064260649177395 1
gene  1 5 13 -3.7314339829545675 0 172.0 -3.7314339829545675 1
gene  1 7 13 1.0480761169058872 0 174.0 1.0480761169058872 1
gene  1 13 13 0.6068103148221419 1 180.0 0.6068103148221419 1
gene  1 2 14 -0.5434187433364288 0 183.0 -0.5434187433364288 1
gene  1 4 14 0.15067152830633823 0 185.0 0.15067152830633823 1
gene  1 6 14 1.5634459982723197 0 187.0 1.5634459982723197 1
gene  1 8 14 4.455855797333436 0 189.0 4.455855797333436 1
gene  1 13 14 -2.5700775823765696 0 194.0 -2.5700775823765696 1
gene  1 13 16 -0.17129324225589937 0 201.0 -0.17129324225589937 1
gene  1 16 14 2.8114886886550914 0 202.0 2.8114886886550914 1
gene  1 1 21 6.369732829470895 0 218.0 6.369732829470895 1
gene  1 21 8 0.5178191284757201 0 219.0 0.5178191284757201 1
gene  1 3 10 -0.24803946381952446 0 223.0 -0.24803946381952446 1
gene  1 6 29 5.670434614991126 0 259.0 5.670434614991126 1
gene  1 29 8 -0.20124379946157278 0 260.0 -0.20124379946157278 1
gene  1 29 21 5.458403806783501 0 271.0 5.458403806783501 1
gene  1 3 21 -0.22743813985923622 0 300.0 -0.22743813985923622 1
gene  1 9 52 8.426137966206369 0 368.0 8.426137966206369 1
gene  1 52 14 -3.9316069145298655 0 369.0 -3.9316069145298655 1
gene  1 1 53 -2.1652388322676464 0 372.0 -2.1652388322676464 1
gene  1 53 21 -0.3945311747052663 0 373.0 -0.3945311747052663 1
gene  1 2 16 0.15252984877835107 0 439.0 0.15252984877835107 1
gene  1 21 79 1.0639487915048291 0 489.0 1.0639487915048291 1
gene  1 79 8 4.567216816708253 0 490.0 4.567216816708253 1
genomeend 17
genomestart  18
trait 1 0.33760641808164704 1.299704635597652 0.9547867298575612 0.017203006884936534 1.0258166876977075 0.9586270994970227 0.9997203782073337 0.3567570363531483 
node 1 1 1 1
node 2 1 1 1
node 3 1 1 1
node 4 1 1 1
node 5 1 1 1
node 6 1 1 1
node 7 1 1 3
node 8 1 0 0
node 9 1 0 0
node 10 1 0 0
node 13 1 0 2
node 14 1 0 2
node 16 1 0 0
node 21 1 0 0
node 29 1 0 0
node 52 1 0 0
node 53 1 0 0
node 79 1 0 0
gene  1 1 8 -1.4829952253895544 0 98.0 -1.4829952253895544 1
gene  1 2 8 -8.523573654281247 0 99.0 -8.523573654281247 1
gene  1 3 8 2.296636498780726 0 100.0 2.296636498780726 1
gene  1 4 8 2.3439110974116617 0 101.0 2.3439110974116617 1
gene  1 5 8 -2.8077186337764184 0 102.0 -2.8077186337764184 1
gene  1 6 8 -2.0698464961839305 0 103.0 -2.0698464961839305 1
gene  1 8 8 -5.56547671403031 1 105.0 -5.56547671403031 1
gene  1 13 8 -4.10383533175856 1 110.0 -4.10383533175856 1
gene  1 14 8 -0.7054514228744597 1 111.0 -0.7054514228744597 1
gene  1 3 13 -9.182559258068379 0 170.0 -9.182559258068379 1
gene  1 5 13 -4.646560141038197 0 172.0 -4.646560141038197 1
gene  1 7 13 1.0480761169058872 0 174.0 1.0480761169058872 1
gene  1 13 13 0.40118179352255456 1 180.0 0.40118179352255456 1
gene  1 2 14 -1.0313340288087431 0 183.0 -1.0313340288087431 1
gene  1 4 14 0.15067152830633823 0 185.0 0.15067152830633823 1
gene  1 6 14 2.26142711466352 0 187.0 2.26142711466352 1
gene  1 8 14 1.4789360066301662 0 189.0 1.4789360066301662 1
gene  1 13 14 -2.79841139365368 0 194.0 -2.79841139365368 1
gene  1 13 16 -1.6586651842161064 0 201.0 -1.6586651842161064 1
gene  1 16 14 1.1361708828863115 0 202.0 1.1361708828863115 1
gene  1 1 21 5.028655242036271 0 218.0 5.028655242036271 1
gene  1 21 8 -0.7921997675270123 0 219.0 -0.7921997675270123 1
gene  1 3 10 -0.19518058509379166 0 223.0 -0.19518058509379166 1
gene  1 6 29 4.633830360650723 0 259.0 4.633830360650723 1
gene  1 29 8 -0.971387013373019 0 260.0 -0.971387013373019 1
gene  1 29 21 6.080021231641894 0 271.0 6.080021231641894 1
gene  1 3 21 2.43335818188758 0 300.0 2.43335818188758 1
gene  1 9 52 6.9025099034447175 0 368.0 6.9025099034447175 1
gene  1 52 14 -3.9316069145298655 0 369.0 -3.9316069145298655 1
gene  1 1 53 -2.141876575377076 0 372.0 -2.141876575377076 1
gene  1 53 21 1.2135645177102716 0 373.0 1.2135645177102716 1
gene  1 2 16 -2.3187849158759373 0 439.0 -2.3187849158759373 1
gene  1 21 79 1.557514968370599 0 489.0 1.557514968370599 1
gene  1 79 8 4.40602702493951 0 490.0 4.40602702493951 1
genomeend 18
genomestart  19
trait 1 0.33760641808164704 1.299704635597652 0.9547867298575612 0.017203006884936534 1.0258166876977075 0.9586270994970227 0.9997203782073337 0.3567570363531483 
node 1 1 1 1
node 2 1 1 1
node 3 1 1 1
node 4 1 1 1
node 5 1 1 1
node 6 1 1 1
node 7 1 1 3
node 8 1 0 0
node 9 1 0 0
node 10 1 0 0
node 13 1 0 2
node 14 1 0 2
node 16 1 0 0
node 21 1 0 0
node 29 1 0 0
node 52 1 0 0
node 53 1 0 0
node 79 1 0 0
gene  1 1 8 0.6998729770441777 0 98.0 0.6998729770441777 1
gene  1 2 8 -6.013592447214162 0 99.0 -6.013592447214162 1
gene  1 3 8 1.4249268226883212 0 100.0 1.4249268226883212 1
gene  1 4 8 1.3624398120360413 0 101.0 1.3624398120360413 1
gene  1 5 8 -0.4436777263024787 0 102.0 -0.4436777263024787 1
gene  1 6 8 -2.0635564278945715 0 103.0 -2.0635564278945715 1
gene  1 8 8 -3.486089509757525 1 105.0 -3.486089509757525 1
gene  1 13 8 -3.6871888194923494 1 110.0 -3.6871888194923494 1
gene  1 14 8 -2.017609028643707 1 111.0 -2.017609028643707 1
gene  1 3 13 -6.623627340958785 0 170.0 -6.623627340958785 1
gene  1 5 13 -4.498471351426009 0 172.0 -4.498471351426009 1
gene  1 7 13 1.7396729261068142 0 174.0 1.7396729261068142 1
gene  1 13 13 -0.419569815340065 1 180.0 -0.419569815340065 1
gene  1 2 14 -2.985572763574385 0 183.0 -2.985572763574385 1
gene  1 4 14 0.1175118125849382 0 185.0 0.1175118125849382 1
gene  1 6 14 -0.3712448059928244 0 187.0 -0.3712448059928244 1
gene  1 8 14 3.3358746199830134 0 189.0 3.3358746199830134 1
gene  1 13 14 -4.25559517123826 0 194.0 -4.25559517123826 1
gene  1 13 16 1.915842438818376 0 201.0 1.915842438818376 1
gene  1 16 14 1.989412701222776 0 202.0 1.989412701222776 1
gene  1 1 21 5.618720019532731 0 218.0 5.618720019532731 1
gene  1 21 8 0.9462393347237779 0 219.0 0.9462393347237779 1
gene  1 3 10 0.479498514554909 0 223.0 0.479498514554909 1
gene  1 6 29 3.8892461839538726 0 259.0 3.8892461839538726 1
gene  1 29 8 0.605350595951364 0 260.0 0.605350595951364 1
gene  1 29 21 5.6310112984033305 0 271.0 5.6310112984033305 1
gene  1 3 21 -1.0010431570106078 0 300.0 -1.0010431570106078 1
gene  1 9 52 7.368158602177413 0 368.0 7.368158602177413 1
gene  1 52 14 -1.0456832144867803 0 369.0 -1.0456832144867803 1
gene  1 1 53 2.486494237507795 0 372.0 2.486494237507795 1
gene  1 53 21 1.2742873744660588 0 373.0 1.2742873744660588 1
gene  1 2 16 -0.9115070202920863 0 439.0 -0.9115070202920863 1
gene  1 21 79 2.0257044528120773 0 489.0 2.0257044528120773 1
gene  1 79 8 3.896008477105697 0 490.0 3.896008477105697 1
genomeend 19
