genomestart  0
trait 1 0.10533309519974143 0.0 3.804979718039517 0.6442969214911753 1.8591506659015948 1.496821663222914 0.9033628802953145 3.779689338966765 
node 1 1 1 1
node 2 1 1 1
node 3 1 1 1
node 4 1 1 1
node 5 1 1 1
node 6 1 1 1
node 7 1 1 3
node 13 1 0 2
node 14 1 0 2
node 24 1 0 0
node 36 1 0 0
node 65 1 0 0
node 91 1 0 0
node 92 1 0 0
gene  1 2 13 4.977965087651708 0 169.0 4.977965087651708 1
gene  1 3 13 1.7387717559766478 0 170.0 1.7387717559766478 1
gene  1 4 13 -2.3822137100046112 0 171.0 -2.3822137100046112 1
gene  1 6 13 2.048128370692642 0 173.0 2.048128370692642 1
gene  1 7 13 3.119177507170254 0 174.0 3.119177507170254 1
gene  1 13 13 -1.3970792569382722 1 180.0 -1.3970792569382722 1
gene  1 1 14 -1.918299011239143 0 182.0 -1.918299011239143 1
gene  1 2 14 6.666337966805605 0 183.0 6.666337966805605 1
gene  1 5 14 -6.617842852084316 0 186.0 -6.617842852084316 1
gene  1 6 14 7.484505087268685 0 187.0 7.484505087268685 1
gene  1 7 14 -1.3934866779868265 0 188.0 -1.3934866779868265 1
gene  1 13 14 -0.039545380304927547 0 194.0 -0.039545380304927547 1
gene  1 14 14 -0.313840672734385 1 195.0 -0.313840672734385 1
gene  1 2 24 7.9796897565097975 0 226.0 7.9796897565097975 1
gene  1 24 13 -1.8320941071558066 0 227.0 -1.8320941071558066 0
gene  1 7 24 9.962255088405685 0 245.0 9.962255088405685 1
gene  1 1 24 -1.3782173997904335 0 249.0 -1.3782173997904335 1
gene  1 4 14 0.7695779988292462 0 280.0 0.7695779988292462 1
gene  1 4 36 -1.2547248109804774 0 293.0 -1.2547248109804774 1
gene  1 36 14 6.2407748025734024 0 294.0 6.2407748025734024 1
gene  1 7 36 -5.013406985434418 0 301.0 -5.013406985434418 1
gene  1 3 36 -0.17815131963194775 0 313.0 -0.17815131963194775 1
gene  1 24 36 0.7146005369314126 0 345.0 0.7146005369314126 1
gene  1 5 13 2.3590977717765402 0 374.0 2.3590977717765402 1
gene  1 2 65 1.3003741843071221 0 446.0 1.3003741843071221 1
gene  1 65 13 1.8181466405455815 0 447.0 1.8181466405455815 1
gene  1 13 36 2.501055651561829 0 451.0 2.501055651561829 1
gene  1 65 36 -1.3678688255374871 0 457.0 -1.3678688255374871 1
gene  1 1 13 -1.8185140934805146 0 480.0 -1.8185140934805146 1
gene  1 7 65 0.1678126684058081 0 530.0 0.1678126684058081 1
gene  1 3 14 -1.8193974697089814 0 554.0 -1.8193974697089814 1
gene  1 24 91 -0.1359672832295522 0 561.0 -0.1359672832295522 1
gene  1 91 13 -1.2402843950389588 0 562.0 -1.2402843950389588 0
gene  1 91 92 1.0 0 577.0 0.0 1
gene  1 92 13 -1.2402843950389588 0 578.0 0.0 1
genomeend 0
genomestart  1
trait 1 0.10533309519974143 0.0 3.804979718039517 0.6442969214911753 1.8591506659015948 1.496821663222914 0.9033628802953145 3.779689338966765 
node 1 1 1 1
node 2 1 1 1
node 3 1 1 1
node 4 1 1 1
node 5 1 1 1
node 6 1 1 1
node 7 1 1 3
node 13 1 0 2
node 14 1 0 2
node 24 1 0 0
node 36 1 0 0
node 65 1 0 0
node 91 1 0 0
gene  1 2 13 5.549665007918016 0 169.0 5.549665007918016 1
gene  1 3 13 2.078381670030558 0 170.0 2.078381670030558 1
gene  1 4 13 -2.3822137100046112 0 171.0 -2.3822137100046112 1
gene  1 6 13 2.5817581523765023 0 173.0 2.5817581523765023 1
gene  1 7 13 3.4713157474815057 0 174.0 3.4713157474815057 1
gene  1 13 13 0.2587262746137866 1 180.0 0.2587262746137866 1
gene  1 1 14 -2.0797465045580386 0 182.0 -2.0797465045580386 1
gene  1 2 14 8.238675019868698 0 183.0 8.238675019868698 1
gene  1 5 14 -6.617842852084316 0 186.0 -6.617842852084316 1
gene  1 6 14 7.025485648650836 0 187.0 7.025485648650836 1
gene  1 7 14 -0.3674004093954303 0 188.0 -0.3674004093954303 1
gene  1 13 14 -0.10113371689200568 0 194.0 -0.10113371689200568 1
gene  1 14 14 -1.7535317298584148 1 195.0 -1.7535317298584148 1
gene  1 2 24 8.395482081896198 0 226.0 8.395482081896198 1
gene  1 24 13 -1.8320941071558066 0 227.0 -1.8320941071558066 0
gene  1 7 24 9.195745858602628 0 245.0 9.195745858602628 1
gene  1 1 24 0.41995183332640096 0 249.0 0.41995183332640096 1
gene  1 4 14 2.1018881981786226 0 280.0 2.1018881981786226 1
gene  1 4 36 0.778483669624435 0 293.0 0.778483669624435 1
gene  1 36 14 6.3665618823837065 0 294.0 6.3665618823837065 1
gene  1 7 36 -6.63139049859994 0 301.0 -6.63139049859994 1
gene  1 3 36 0.18459632482420368 0 313.0 0.18459632482420368 1
gene  1 24 36 2.9489298517373506 0 345.0 2.9489298517373506 1
gene  1 5 13 2.334220191581837 0 374.0 2.334220191581837 1
gene  1 2 65 1.3003741843071221 0 446.0 1.3003741843071221 1
gene  1 65 13 4.102753911921758 0 447.0 4.102753911921758 1
gene  1 13 36 1.4236605095471722 0 451.0 1.4236605095471722 1
gene  1 65 36 1.8195408388375711 0 457.0 1.8195408388375711 1
gene  1 1 13 -1.223715339190366 0 480.0 -1.223715339190366 1
gene  1 7 65 1.4694181999282954 0 530.0 1.4694181999282954 1
gene  1 3 14 -4.241743194845076 0 554.0 -4.241743194845076 1
gene  1 24 91 -1.9857069712069586 0 561.0 -1.9857069712069586 1
gene  1 91 13 0.48537558076215115 0 562.0 0.48537558076215115 1
genomeend 1
genomestart  2
trait 1 0.4542575689259424 1.7877595969983129 1.1527958772948677 0.661671069218735 0.0 1.8428747160601582 0.1794372195754218 0.0 
node 1 1 1 1
node 2 1 1 1
node 3 1 1 1
node 4 1 1 1
node 5 1 1 1
node 6 1 1 1
node 7 1 1 3
node 8 1 0 0
node 9 1 0 0
node 10 1 0 0
node 11 1 0 0
node 13 1 0 2
node 14 1 0 2
node 62 1 0 0
node 81 1 0 0
node 82 1 0 0
node 84 1 0 0
gene  1 2 8 -1.985115515970487 0 99.0 -1.985115515970487 1
gene  1 6 8 -4.045468187370643 0 103.0 -4.045468187370643 1
gene  1 8 8 -6.455740435595865 1 105.0 -6.455740435595865 1
gene  1 9 8 2.1075923256918743 1 106.0 2.1075923256918743 1
gene  1 10 8 4.796266639564365 1 107.0 4.796266639564365 1
gene  1 11 8 -3.8633098100016046 1 108.0 -3.8633098100016046 1
gene  1 13 8 1.8315036059012342 1 110.0 1.8315036059012342 1
gene  1 14 8 1.5358840676814811 1 111.0 1.5358840676814811 1
gene  1 1 9 -0.45118396149367834 0 112.0 -0.45118396149367834 1
gene  1 2 9 11.380173241784938 0 113.0 11.380173241784938 1
gene  1 3 9 3.4420822913591973 0 114.0 3.4420822913591973 1
gene  1 6 9 2.1781180183254545 0 117.0 2.1781180183254545 1
gene  1 7 9 12.588465390386226 0 118.0 12.588465390386226 1
gene  1 8 9 10.755923787376078 0 119.0 10.755923787376078 1
gene  1 9 9 4.461282127938134 1 120.0 4.461282127938134 1
gene  1 11 9 -4.967755246649001 1 122.0 -4.967755246649001 1
gene  1 13 9 -4.09374388228863 1 124.0 -4.09374388228863 1
gene  1 14 9 2.0432990459410214 1 125.0 2.0432990459410214 1
gene  1 1 10 -3.6111579422194193 0 126.0 -3.6111579422194193 1
gene  1 3 10 1.4898475559609965 0 128.0 1.4898475559609965 1
gene  1 4 10 -0.1706076246862328 0 129.0 -0.1706076246862328 1
gene  1 5 10 -5.585794091040809 0 130.0 -5.585794091040809 1
gene  1 6 10 5.144169791500687 0 131.0 5.144169791500687 1
gene  1 10 10 0.2764959031646823 1 135.0 0.2764959031646823 1
gene  1 11 10 0.9360614849358977 1 136.0 0.9360614849358977 1
gene  1 14 10 -1.6821966830457993 1 139.0 -1.6821966830457993 1
gene  1 1 11 2.4612157672668973 0 140.0 2.4612157672668973 1
gene  1 3 11 2.232321237668304 0 142.0 2.232321237668304 1
gene  1 5 11 -4.279489527469101 0 144.0 -4.279489527469101 1
gene  1 6 11 11.145130375445714 0 145.0 11.145130375445714 1
gene  1 7 11 -3.273982499640224 0 146.0 -3.273982499640224 1
gene  1 8 11 0.6304808066824317 0 147.0 0.6304808066824317 1
gene  1 9 11 -5.829308212150542 0 148.0 -5.829308212150542 1
gene  1 10 11 3.141289268317773 0 149.0 3.141289268317773 1
gene  1 11 11 -0.9842175028892994 1 150.0 -0.9842175028892994 1
gene  1 1 13 -7.1271699633132855 0 168.0 -7.1271699633132855 1
gene  1 2 13 4.370532520685879 0 169.0 4.370532520685879 1
gene  1 3 13 -1.6645637586019904 0 170.0 -1.6645637586019904 1
gene  1 7 13 0.08464965533339863 0 174.0 0.08464965533339863 1
gene  1 11 13 4.597291602103404 0 178.0 4.597291602103404 1
gene  1 13 13 4.018375662779197 1 180.0 4.018375662779197 1
gene  1 2 14 -1.5483625102957 0 183.0 -1.5483625102957 1
gene  1 3 14 11.904714902648697 0 184.0 11.904714902648697 1
gene  1 4 14 1.6885960057396496 0 185.0 1.6885960057396496 1
gene  1 7 14 -1.6186894618304901 0 188.0 -1.6186894618304901 1
gene  1 8 14 -13.378526435550947 0 189.0 -13.378526435550947 1
gene  1 10 14 2.564039216334015 0 191.0 2.564039216334015 1
gene  1 13 14 0.07488284720076477 0 194.0 0.07488284720076477 1
gene  1 5 13 -13.20274928241607 0 198.0 -13.20274928241607 1
gene  1 4 9 10.624539830682513 0 200.0 10.624539830682513 1
gene  1 8 13 3.9974432187124025 0 248.0 3.9974432187124025 1
gene  1 7 10 -3.9667684184812417 0 270.0 -3.9667684184812417 1
gene  1 9 10 -2.744343996172133 0 274.0 -2.744343996172133 1
gene  1 9 13 3.629492239439034 0 288.0 3.629492239439034 1
gene  1 5 14 -0.9591020066390776 0 328.0 -0.9591020066390776 1
gene  1 2 10 2.0641964050871366 0 357.0 2.0641964050871366 1
gene  1 6 14 4.328065390113721 0 388.0 4.328065390113721 1
gene  1 3 62 2.5579750706822764 0 411.0 2.5579750706822764 1
gene  1 62 9 10.884927693657355 0 412.0 10.884927693657355 1
gene  1 5 8 0.5548215184750049 0 414.0 0.5548215184750049 1
gene  1 7 8 -2.2904784852218247 0 436.0 -2.2904784852218247 1
gene  1 11 81 -1.0998624288880987 1 496.0 -1.0998624288880987 1
gene  1 81 11 2.852661116048436 0 497.0 2.852661116048436 1
gene  1 11 82 -1.5734016003338431 1 507.0 -1.5734016003338431 1
gene  1 82 81 3.010737217336527 0 508.0 3.010737217336527 1
gene  1 3 84 -0.4736894234969191 0 517.0 -0.4736894234969191 1
gene  1 84 13 0.9997883016483924 0 518.0 0.9997883016483924 1
gene  1 3 82 -3.03747422970262 0 531.0 -3.03747422970262 1
gene  1 5 81 -0.18499927977481345 0 533.0 -0.18499927977481345 1
gene  1 1 82 0.7488315185806222 0 559.0 0.7488315185806222 1
genomeend 2
genomestart  3
trait 1 0.4542575689259424 1.655298600115295 0.819627792749592 0.0 0.0 1.8428747160601582 0.5285159271229856 0.0 
node 1 1 1 1
node 2 1 1 1
node 3 1 1 1
node 4 1 1 1
node 5 1 1 1
node 6 1 1 1
node 7 1 1 3
node 8 1 0 0
node 9 1 0 0
node 10 1 0 0
node 11 1 0 0
node 13 1 0 2
node 14 1 0 2
node 62 1 0 0
node 81 1 0 0
node 82 1 0 0
node 84 1 0 0
gene  1 2 8 1.3185790265374757 0 99.0 1.3185790265374757 1
gene  1 6 8 -2.9286089398661144 0 103.0 -2.9286089398661144 1
gene  1 8 8 -5.698071678034791 1 105.0 -5.698071678034791 1
gene  1 9 8 0.09357516184991521 1 106.0 0.09357516184991521 1
gene  1 10 8 2.4399426488619524 1 107.0 2.4399426488619524 1
gene  1 11 8 -0.026022416026015627 1 108.0 -0.026022416026015627 1
gene  1 13 8 2.3208167856475845 1 110.0 2.3208167856475845 1
gene  1 14 8 2.7904742628281376 1 111.0 2.7904742628281376 1
gene  1 1 9 0.26931082005444873 0 112.0 0.26931082005444873 1
gene  1 2 9 7.770137861263857 0 113.0 7.770137861263857 1
gene  1 3 9 3.1459245161150005 0 114.0 3.1459245161150005 1
gene  1 6 9 -0.9670846493635965 0 117.0 -0.9670846493635965 1
gene  1 7 9 13.995277165872945 0 118.0 13.995277165872945 1
gene  1 8 9 6.8924845297606865 0 119.0 6.8924845297606865 1
gene  1 9 9 4.278538532290893 1 120.0 4.278538532290893 1
gene  1 11 9 -3.572876324432494 1 122.0 -3.572876324432494 1
gene  1 13 9 -5.722075797672304 1 124.0 -5.722075797672304 1
gene  1 14 9 -0.5730902296029377 1 125.0 -0.5730902296029377 1
gene  1 1 10 -3.4259626585038214 0 126.0 -3.4259626585038214 1
gene  1 3 10 3.2010300278717594 0 128.0 3.2010300278717594 1
gene  1 4 10 -0.291152283532213 0 129.0 -0.291152283532213 1
gene  1 5 10 -3.8037161792702934 0 130.0 -3.8037161792702934 1
gene  1 6 10 4.970849118650817 0 131.0 4.970849118650817 1
gene  1 10 10 1.1427858299393439 1 135.0 1.1427858299393439 1
gene  1 11 10 3.2837118998203936 1 136.0 3.2837118998203936 1
gene  1 14 10 1.6620881047157694 1 139.0 1.6620881047157694 1
gene  1 1 11 0.838321139869463 0 140.0 0.838321139869463 1
gene  1 3 11 2.095217474546482 0 142.0 2.095217474546482 1
gene  1 5 11 -3.7120264127333087 0 144.0 -3.7120264127333087 1
gene  1 6 11 13.789854043750019 0 145.0 13.789854043750019 1
gene  1 7 11 -1.710587387995853 0 146.0 -1.710587387995853 1
gene  1 8 11 1.637261857313857 0 147.0 1.637261857313857 1
gene  1 9 11 -1.2538177924141682 0 148.0 -1.2538177924141682 1
gene  1 10 11 -1.0167494551228529 0 149.0 -1.0167494551228529 1
gene  1 11 11 -3.107495213791287 1 150.0 -3.107495213791287 1
gene  1 1 13 -6.919743920059092 0 168.0 -6.919743920059092 1
gene  1 2 13 5.140074316011082 0 169.0 5.140074316011082 1
gene  1 3 13 -4.9157278043778065 0 170.0 -4.9157278043778065 1
gene  1 7 13 1.110610461716582 0 174.0 1.110610461716582 1
gene  1 11 13 5.31931064349499 0 178.0 5.31931064349499 1
gene  1 13 13 2.1002643587559056 1 180.0 2.1002643587559056 1
gene  1 2 14 -2.3086743133267804 0 183.0 -2.3086743133267804 1
gene  1 3 14 8.434639655750612 0 184.0 8.434639655750612 1
gene  1 4 14 6.077104309746359 0 185.0 6.077104309746359 1
gene  1 7 14 -3.0684189140242895 0 188.0 -3.0684189140242895 1
gene  1 8 14 -12.145844040370147 0 189.0 -12.145844040370147 1
gene  1 10 14 4.615029933054543 0 191.0 4.615029933054543 1
gene  1 13 14 -3.1967201568981842 0 194.0 -3.1967201568981842 1
gene  1 5 13 -13.51134801523597 0 198.0 -13.51134801523597 1
gene  1 4 9 11.880971377008546 0 200.0 11.880971377008546 1
gene  1 8 13 3.010026511193847 0 248.0 3.010026511193847 1
gene  1 7 10 -2.732029964784843 0 270.0 -2.732029964784843 1
gene  1 9 10 0.5442890805823164 0 274.0 0.5442890805823164 1
gene  1 9 13 1.771872102245927 0 288.0 1.771872102245927 1
gene  1 5 14 -4.945601060006485 0 328.0 -4.945601060006485 1
gene  1 2 10 5.705692282233237 0 357.0 5.705692282233237 1
gene  1 6 14 1.5214333085299077 0 388.0 1.5214333085299077 1
gene  1 3 62 1.2899362438319626 0 411.0 1.2899362438319626 1
gene  1 62 9 9.046100827628585 0 412.0 9.046100827628585 1
gene  1 5 8 -1.100332113810704 0 414.0 -1.100332113810704 1
gene  1 7 8 0.19272822440610532 0 436.0 0.19272822440610532 1
gene  1 11 81 -2.1204132851908852 1 496.0 -2.1204132851908852 1
gene  1 81 11 -0.7132497549585848 0 497.0 -0.7132497549585848 1
gene  1 11 82 0.70810722940521 1 507.0 0.70810722940521 1
gene  1 82 81 1.4942729609989676 0 508.0 1.4942729609989676 1
gene  1 3 84 0.5292299215462279 0 517.0 0.5292299215462279 1
gene  1 84 13 0.9997883016483924 0 518.0 0.9997883016483924 1
gene  1 3 82 -6.4725453669678785 0 531.0 -6.4725453669678785 1
gene  1 5 81 -0.41419250616044234 0 533.0 -0.41419250616044234 1
gene  1 1 82 0.41993609532626797 0 559.0 0.41993609532626797 1
genomeend 3
genomestart  4
trait 1 0.4542575689259424 1.655298600115295 0.819627792749592 0.0 0.0 1.8428747160601582 0.5285159271229856 0.0 
node 1 1 1 1
node 2 1 1 1
node 3 1 1 1
node 4 1 1 1
node 5 1 1 1
node 6 1 1 1
node 7 1 1 3
node 8 1 0 0
node 9 1 0 0
node 10 1 0 0
node 11 1 0 0
node 13 1 0 2
node 14 1 0 2
node 62 1 0 0
node 81 1 0 0
node 82 1 0 0
node 84 1 0 0
gene  1 2 8 -0.015116527446641659 0 99.0 -0.015116527446641659 1
gene  1 6 8 -3.895175614921669 0 103.0 -3.895175614921669 1
gene  1 8 8 -6.101671177233236 1 105.0 -6.101671177233236 1
gene  1 9 8 2.4042671373240263 1 106.0 2.4042671373240263 1
gene  1 10 8 2.9589664788485175 1 107.0 2.9589664788485175 1
gene  1 11 8 -1.995642596637504 1 108.0 -1.995642596637504 1
gene  1 13 8 0.787542903215974 1 110.0 0.787542903215974 1
gene  1 14 8 0.7290327950956204 1 111.0 0.7290327950956204 1
gene  1 1 9 2.0308972137237786 0 112.0 2.0308972137237786 1
gene  1 2 9 10.16963720426728 0 113.0 10.16963720426728 1
gene  1 3 9 2.0018758616824437 0 114.0 2.0018758616824437 1
gene  1 6 9 0.026397520586238787 0 117.0 0.026397520586238787 1
gene  1 7 9 12.247845290050062 0 118.0 12.247845290050062 1
gene  1 8 9 8.758550761974519 0 119.0 8.758550761974519 1
gene  1 9 9 6.510339593285881 1 120.0 6.510339593285881 1
gene  1 11 9 -4.133456167987728 1 122.0 -4.133456167987728 1
gene  1 13 9 -3.346508386942958 1 124.0 -3.346508386942958 1
gene  1 14 9 1.759824397093237 1 125.0 1.759824397093237 1
gene  1 1 10 -3.470168226784466 0 126.0 -3.470168226784466 1
gene  1 3 10 1.7880731701323804 0 128.0 1.7880731701323804 1
gene  1 4 10 0.8053471089545788 0 129.0 0.8053471089545788 1
gene  1 5 10 -3.5374074860970675 0 130.0 -3.5374074860970675 1
gene  1 6 10 3.8335254511456975 0 131.0 3.8335254511456975 1
gene  1 10 10 2.200240412967589 1 135.0 2.200240412967589 1
gene  1 11 10 2.275684609552999 1 136.0 2.275684609552999 1
gene  1 14 10 -0.5730514772181217 1 139.0 -0.5730514772181217 1
gene  1 1 11 1.556903034286821 0 140.0 1.556903034286821 1
gene  1 3 11 1.0765105046052 0 142.0 1.0765105046052 1
gene  1 5 11 -3.472613104068877 0 144.0 -3.472613104068877 1
gene  1 6 11 11.35553444174152 0 145.0 11.35553444174152 1
gene  1 7 11 -3.4250195216628536 0 146.0 -3.4250195216628536 1
gene  1 8 11 0.6025217416316928 0 147.0 0.6025217416316928 1
gene  1 9 11 -3.55926099667131 0 148.0 -3.55926099667131 1
gene  1 10 11 1.1180538192138132 0 149.0 1.1180538192138132 1
gene  1 11 11 -1.9336085513997687 1 150.0 -1.9336085513997687 1
gene  1 1 13 -5.014617794208585 0 168.0 -5.014617794208585 1
gene  1 2 13 3.878550415984879 0 169.0 3.878550415984879 1
gene  1 3 13 -3.8487848916361584 0 170.0 -3.8487848916361584 1
gene  1 7 13 -0.4279604468226672 0 174.0 -0.4279604468226672 1
gene  1 11 13 6.160660072775731 0 178.0 6.160660072775731 1
gene  1 13 13 2.545269908154599 1 180.0 2.545269908154599 1
gene  1 2 14 -2.4297082281310205 0 183.0 -2.4297082281310205 1
gene  1 3 14 10.789974103753122 0 184.0 10.789974103753122 1
gene  1 4 14 3.757737505919911 0 185.0 3.757737505919911 1
gene  1 7 14 -0.9871855133613585 0 188.0 -0.9871855133613585 1
gene  1 8 14 -13.694836793814144 0 189.0 -13.694836793814144 1
gene  1 10 14 2.8146448336281793 0 191.0 2.8146448336281793 1
gene  1 13 14 -2.2103481613208693 0 194.0 -2.2103481613208693 1
gene  1 5 13 -12.15636592218851 0 198.0 -12.15636592218851 1
gene  1 4 9 11.484075321718215 0 200.0 11.484075321718215 1
gene  1 8 13 3.423160359685693 0 248.0 3.423160359685693 1
gene  1 7 10 -3.178378997446967 0 270.0 -3.178378997446967 1
gene  1 9 10 -0.6238450718691826 0 274.0 -0.6238450718691826 1
gene  1 9 13 2.682657189889668 0 288.0 2.682657189889668 1
gene  1 5 14 -2.7611861666081525 0 328.0 -2.7611861666081525 1
gene  1 2 10 3.6837769991873675 0 357.0 3.6837769991873675 1
gene  1 6 14 2.5180997618912224 0 388.0 2.5180997618912224 1
gene  1 3 62 3.662593374136069 0 411.0 3.662593374136069 1
gene  1 62 9 10.57994430633153 0 412.0 10.57994430633153 1
gene  1 5 8 1.0065404874916604 0 414.0 1.0065404874916604 1
gene  1 7 8 0.19272822440610532 0 436.0 0.19272822440610532 1
gene  1 11 81 -1.0998624288880987 1 496.0 -1.0998624288880987 1
gene  1 81 11 2.852661116048436 0 497.0 2.852661116048436 1
gene  1 11 82 0.70810722940521 1 507.0 0.70810722940521 1
gene  1 82 81 3.6361803126337855 0 508.0 3.6361803126337855 1
gene  1 3 84 0.7156153720515055 0 517.0 0.7156153720515055 1
gene  1 84 13 0.9997883016483924 0 518.0 0.9997883016483924 1
gene  1 3 82 -4.437144233371035 0 531.0 -4.437144233371035 1
gene  1 5 81 -0.18499927977481345 0 533.0 -0.18499927977481345 1
gene  1 1 82 1.0205756350727988 0 559.0 1.0205756350727988 1
gene  1 62 81 5.233230814901033 0 579.0 5.233230814901033 1
genomeend 4
genomestart  5
trait 1 1.7878230492365366 0.9365906229773271 0.5877664216349279 0.0 1.7799059348361965 1.2636555841906816 0.5088786206969129 0.48682907384645435 
node 1 1 1 1
node 2 1 1 1
node 3 1 1 1
node 4 1 1 1
node 5 1 1 1
node 6 1 1 1
node 7 1 1 3
node 8 1 0 0
node 13 1 0 2
node 14 1 0 2
node 16 1 0 0
node 20 1 0 0
node 50 1 0 0
node 55 1 0 0
node 70 1 0 0
node 87 1 0 0
gene  1 1 8 -0.5694469885539223 0 98.0 -0.5694469885539223 1
gene  1 2 8 -1.7485318736379518 0 99.0 -1.7485318736379518 1
gene  1 3 8 2.2993185672250345 0 100.0 2.2993185672250345 1
gene  1 4 8 0.059193590610831515 0 101.0 0.059193590610831515 1
gene  1 5 8 -4.352069391115952 0 102.0 -4.352069391115952 1
gene  1 6 8 4.048931992403825 0 103.0 4.048931992403825 1
gene  1 8 8 1.8154312694097956 1 105.0 1.8154312694097956 1
gene  1 13 8 4.333308194586869 1 110.0 4.333308194586869 1
gene  1 14 8 1.0866871982542785 1 111.0 1.0866871982542785 1
gene  1 3 13 2.1994602456681664 0 170.0 2.1994602456681664 0
gene  1 5 13 2.1685616739252014 0 172.0 2.1685616739252014 1
gene  1 7 13 -7.719480815458939 0 174.0 -7.719480815458939 1
gene  1 13 13 -3.752010405572859 1 180.0 -3.752010405572859 1
gene  1 2 14 2.41807573386461 0 183.0 2.41807573386461 1
gene  1 4 14 -3.3617373894085594 0 185.0 -3.3617373894085594 1
gene  1 6 14 -4.71711278756397 0 187.0 -4.71711278756397 1
gene  1 8 14 -10.04699170883215 0 189.0 -10.04699170883215 1
gene  1 13 14 -0.12694475875989958 0 194.0 -0.12694475875989958 1
gene  1 13 16 -1.2510462276135974 0 201.0 -1.2510462276135974 1
gene  1 16 14 0.9102600154464404 0 202.0 0.9102600154464404 1
gene  1 3 20 -6.159593219585395 0 215.0 -6.159593219585395 1
gene  1 20 8 -0.7914123835686337 0 216.0 -0.7914123835686337 1
gene  1 8 13 -0.07609012451933772 0 233.0 -0.07609012451933772 1
gene  1 2 16 -1.5568613276920942 0 324.0 -1.5568613276920942 1
gene  1 2 20 -1.0508606306868606 0 333.0 -1.0508606306868606 1
gene  1 7 8 8.303939461205747 0 352.0 8.303939461205747 1
gene  1 16 50 -1.952341576518638 0 364.0 -1.952341576518638 1
gene  1 50 14 0.5758569834360212 0 365.0 0.5758569834360212 1
gene  1 3 55 1.1996783085131177 0 379.0 1.1996783085131177 1
gene  1 55 20 0.8193408075259694 0 380.0 0.8193408075259694 1
gene  1 3 70 -8.429340443538315 0 461.0 -8.429340443538315 1
gene  1 70 13 -3.0515705359771332 0 462.0 -3.0515705359771332 1
gene  1 6 16 2.7426034706017313 0 484.0 2.7426034706017313 1
gene  1 70 20 -1.6542487646822868 0 498.0 -1.6542487646822868 1
gene  1 5 20 1.0366917444120547 0 505.0 1.0366917444120547 1
gene  1 4 55 -0.38259798341925233 0 519.0 -0.38259798341925233 1
gene  1 3 87 -1.756535060818193 0 539.0 -1.756535060818193 1
gene  1 87 13 -0.152522612685422 0 540.0 -0.152522612685422 1
genomeend 5
genomestart  6
trait 1 1.7878230492365366 0.9365906229773271 0.5877664216349279 0.0 1.7799059348361965 1.2636555841906816 0.5088786206969129 0.48682907384645435 
node 1 1 1 1
node 2 1 1 1
node 3 1 1 1
node 4 1 1 1
node 5 1 1 1
node 6 1 1 1
node 7 1 1 3
node 8 1 0 0
node 13 1 0 2
node 14 1 0 2
node 16 1 0 0
node 20 1 0 0
node 50 1 0 0
node 55 1 0 0
node 70 1 0 0
node 87 1 0 0
gene  1 1 8 0.8374031429020148 0 98.0 0.8374031429020148 1
gene  1 2 8 -3.4465937713160364 0 99.0 -3.4465937713160364 1
gene  1 3 8 0.5906092036476156 0 100.0 0.5906092036476156 1
gene  1 4 8 -4.244475072120536 0 101.0 -4.244475072120536 1
gene  1 5 8 -6.717027652325393 0 102.0 -6.717027652325393 1
gene  1 6 8 5.180751831941758 0 103.0 5.180751831941758 1
gene  1 8 8 2.8327086420086194 1 105.0 2.8327086420086194 1
gene  1 13 8 4.092459689407159 1 110.0 4.092459689407159 1
gene  1 14 8 -2.295750270957713 1 111.0 -2.295750270957713 1
gene  1 3 13 0.26062080301712154 0 170.0 0.26062080301712154 0
gene  1 5 13 -2.939128122149599 0 172.0 -2.939128122149599 1
gene  1 7 13 -7.007670228463831 0 174.0 -7.007670228463831 1
gene  1 13 13 -2.5195697002901207 1 180.0 -2.5195697002901207 1
gene  1 2 14 0.5366489009277873 0 183.0 0.5366489009277873 1
gene  1 4 14 -5.883779519076821 0 185.0 -5.883779519076821 1
gene  1 6 14 -1.6381599215053264 0 187.0 -1.6381599215053264 1
gene  1 8 14 -10.794657771224175 0 189.0 -10.794657771224175 1
gene  1 13 14 0.44000664631072794 0 194.0 0.44000664631072794 1
gene  1 13 16 -1.5320216546282264 0 201.0 -1.5320216546282264 1
gene  1 16 14 1.4897115431453913 0 202.0 1.4897115431453913 1
gene  1 3 20 -8.780560859472168 0 215.0 -8.780560859472168 1
gene  1 20 8 -1.0983476918362225 0 216.0 -1.0983476918362225 1
gene  1 8 13 -3.841104202456028 0 233.0 -3.841104202456028 1
gene  1 2 16 -3.471337107472203 0 324.0 -3.471337107472203 1
gene  1 2 20 -4.175959651123221 0 333.0 -4.175959651123221 1
gene  1 7 8 5.251220859474445 0 352.0 5.251220859474445 1
gene  1 16 50 3.7241293969618265 0 364.0 3.7241293969618265 1
gene  1 50 14 3.8733547833550332 0 365.0 3.8733547833550332 1
gene  1 3 55 0.11977628390396067 0 379.0 0.11977628390396067 1
gene  1 55 20 -2.283014373017755 0 380.0 -2.283014373017755 1
gene  1 3 70 -7.234714563464859 0 461.0 -7.234714563464859 1
gene  1 70 13 -3.8155520513673356 0 462.0 -3.8155520513673356 1
gene  1 6 16 -0.32659728570821156 0 484.0 -0.32659728570821156 1
gene  1 70 20 -3.703795370996805 0 498.0 -3.703795370996805 1
gene  1 5 20 0.8664787169588624 0 505.0 0.8664787169588624 1
gene  1 4 55 1.290214139479122 0 519.0 1.290214139479122 1
gene  1 3 87 0.20720650969245524 0 539.0 0.20720650969245524 1
gene  1 87 13 -1.9846243121616398 0 540.0 -1.9846243121616398 1
genomeend 6
genomestart  7
trait 1 0.907232925829199 0.0 2.7344810196560863 0.30145754889830334 0.0 1.4007872281640394 0.0 1.6529965227924879 
node 1 1 1 1
node 2 1 1 1
node 3 1 1 1
node 4 1 1 1
node 5 1 1 1
node 6 1 1 1
node 7 1 1 3
node 8 1 0 0
node 9 1 0 0
node 10 1 0 0
node 13 1 0 2
node 14 1 0 2
node 21 1 0 0
node 29 1 0 0
node 52 1 0 0
node 53 1 0 0
node 64 1 0 0
node 85 1 0 0
gene  1 1 8 2.24215574761576 0 98.0 2.24215574761576 1
gene  1 3 8 -2.650772126066669 0 100.0 -2.650772126066669 1
gene  1 5 8 22.747892659992637 0 102.0 22.747892659992637 1
gene  1 6 8 -0.3138088151103169 0 103.0 -0.3138088151103169 1
gene  1 8 8 2.662885525859878 1 105.0 2.662885525859878 1
gene  1 1 9 2.9850576670586384 0 112.0 2.9850576670586384 1
gene  1 2 9 -1.1058845188002149 0 113.0 -1.1058845188002149 1
gene  1 3 9 1.3221552240240368 0 114.0 1.3221552240240368 1
gene  1 5 9 -9.200770396703723 0 116.0 -9.200770396703723 1
gene  1 7 9 1.3190419866472212 0 118.0 1.3190419866472212 1
gene  1 9 9 -1.5880283905576125 1 120.0 -1.5880283905576125 0
gene  1 10 9 -1.861658250486273 1 121.0 -1.861658250486273 1
gene  1 13 9 -5.516206188702909 1 124.0 -5.516206188702909 1
gene  1 2 10 1.1450294084071158 0 127.0 1.1450294084071158 1
gene  1 4 10 6.80748565794076 0 129.0 6.80748565794076 1
gene  1 5 10 1.919993385099749 0 130.0 1.919993385099749 1
gene  1 8 10 -4.701240165358122 0 133.0 -4.701240165358122 1
gene  1 9 10 -4.75302165884405 0 134.0 -4.75302165884405 1
gene  1 10 10 2.619921352265396 1 135.0 2.619921352265396 1
gene  1 13 10 3.303756957467359 1 138.0 3.303756957467359 1
gene  1 14 10 -1.370949798109259 1 139.0 -1.370949798109259 1
gene  1 2 13 -0.007522999093553473 0 169.0 -0.007522999093553473 1
gene  1 3 13 -3.235039335261998 0 170.0 -3.235039335261998 1
gene  1 6 13 0.19776814477244753 0 173.0 0.19776814477244753 1
gene  1 7 13 -1.5744847805263888 0 174.0 -1.5744847805263888 1
gene  1 9 13 -0.698756119693402 0 176.0 -0.698756119693402 1
gene  1 13 13 3.7022306959232267 1 180.0 3.7022306959232267 1
gene  1 14 13 -3.0023315159180255 1 181.0 -3.0023315159180255 1
gene  1 1 14 2.3835477543921657 0 182.0 2.3835477543921657 1
gene  1 3 14 -2.044533514517995 0 184.0 -2.044533514517995 1
gene  1 9 14 4.402715693429552 0 190.0 4.402715693429552 1
gene  1 10 14 0.4268214744746641 0 191.0 0.4268214744746641 1
gene  1 1 21 -1.4889961641559715 0 218.0 -1.4889961641559715 1
gene  1 21 8 -4.590254095777663 0 219.0 -4.590254095777663 1
gene  1 3 10 -6.911576713224587 0 223.0 -6.911576713224587 1
gene  1 6 29 -0.7353320966292196 0 259.0 -0.7353320966292196 1
gene  1 29 8 -0.3535725227559308 0 260.0 -0.3535725227559308 1
gene  1 29 21 2.3690965559584867 0 271.0 2.3690965559584867 1
gene  1 3 21 8.222643655387593 0 300.0 8.222643655387593 1
gene  1 9 52 2.160550053830684 0 368.0 2.160550053830684 1
gene  1 52 14 -4.4606646171977165 0 369.0 -4.4606646171977165 1
gene  1 1 53 1.2191172151219696 0 372.0 1.2191172151219696 1
gene  1 53 21 -0.04835094879127477 0 373.0 -0.04835094879127477 0
gene  1 2 52 -3.4983205700172735 0 425.0 -3.4983205700172735 1
gene  1 53 64 2.0975116338206505 0 443.0 2.0975116338206505 1
gene  1 64 21 -1.9960374933967766 0 444.0 -1.9960374933967766 1
gene  1 21 10 -2.196334852401135 0 509.0 -2.196334852401135 1
gene  1 9 85 -1.0130949748906481 1 520.0 -1.0130949748906481 1
gene  1 85 9 -3.2308045007683024 0 521.0 -3.2308045007683024 1
gene  1 13 52 -1.9309527689669852 0 523.0 -1.9309527689669852 1
gene  1 64 29 -0.6442815659887358 0 573.0 -0.6442815659887358 1
genomeend 7
genomestart  8
trait 1 0.907232925829199 0.0 2.7344810196560863 0.30145754889830334 0.0 1.4007872281640394 0.0 1.6529965227924879 
node 1 1 1 1
node 2 1 1 1
node 3 1 1 1
node 4 1 1 1
node 5 1 1 1
node 6 1 1 1
node 7 1 1 3
node 8 1 0 0
node 9 1 0 0
node 10 1 0 0
node 13 1 0 2
node 14 1 0 2
node 21 1 0 0
node 29 1 0 0
node 52 1 0 0
node 53 1 0 0
node 64 1 0 0
node 85 1 0 0
gene  1 1 8 1.3618063114728267 0 98.0 1.3618063114728267 1
gene  1 3 8 -1.9113653179600556 0 100.0 -1.9113653179600556 1
gene  1 5 8 24.029956345666122 0 102.0 24.029956345666122 1
gene  1 6 8 -0.5662279591755572 0 103.0 -0.5662279591755572 1
gene  1 8 8 -1.438629556318235 1 105.0 -1.438629556318235 1
gene  1 1 9 1.2701348904321148 0 112.0 1.2701348904321148 1
gene  1 2 9 2.4475202717808573 0 113.0 2.4475202717808573 1
gene  1 3 9 1.5309898434971103 0 114.0 1.5309898434971103 1
gene  1 5 9 -9.100427592065332 0 116.0 -9.100427592065332 1
gene  1 7 9 0.960043607521964 0 118.0 0.960043607521964 1
gene  1 9 9 1.564441672129229 1 120.0 1.564441672129229 0
gene  1 10 9 -0.0813518744748638 1 121.0 -0.0813518744748638 1
gene  1 13 9 0.4997750910838314 1 124.0 0.4997750910838314 1
gene  1 2 10 1.9934816766674233 0 127.0 1.9934816766674233 1
gene  1 4 10 -2.11053190160333 0 129.0 -2.11053190160333 1
gene  1 5 10 2.477337094670497 0 130.0 2.477337094670497 1
gene  1 8 10 -4.0041934107365496 0 133.0 -4.0041934107365496 1
gene  1 9 10 -1.5087833234344772 0 134.0 -1.5087833234344772 1
gene  1 10 10 1.1350756505884116 1 135.0 1.1350756505884116 1
gene  1 13 10 2.960976499632201 1 138.0 2.960976499632201 1
gene  1 14 10 -0.4879756126927286 1 139.0 -0.4879756126927286 1
gene  1 2 13 2.1488340173843605 0 169.0 2.1488340173843605 1
gene  1 3 13 0.7973979987552887 0 170.0 0.7973979987552887 1
gene  1 6 13 -0.5587620754989303 0 173.0 -0.5587620754989303 1
gene  1 7 13 -3.0431624356780436 0 174.0 -3.0431624356780436 1
gene  1 9 13 3.517164011538635 0 176.0 3.517164011538635 1
gene  1 13 13 3.5011817645374976 1 180.0 3.5011817645374976 1
gene  1 14 13 -1.7207790169061576 1 181.0 -1.7207790169061576 1
gene  1 1 14 -0.44570240512218834 0 182.0 -0.44570240512218834 1
gene  1 3 14 -0.5123929482092273 0 184.0 -0.5123929482092273 1
gene  1 9 14 3.603472221601352 0 190.0 3.603472221601352 1
gene  1 10 14 1.073884227433291 0 191.0 1.073884227433291 1
gene  1 1 21 0.6761795007434626 0 218.0 0.6761795007434626 1
gene  1 21 8 1.2776517294970444 0 219.0 1.2776517294970444 1
gene  1 3 10 -6.343617719254888 0 223.0 -6.343617719254888 1
gene  1 6 29 -2.099555745531891 0 259.0 -2.099555745531891 1
gene  1 29 8 1.5771935881440216 0 260.0 1.5771935881440216 1
gene  1 29 21 0.9496118393762665 0 271.0 0.9496118393762665 1
gene  1 3 21 11.164082208997163 0 300.0 11.164082208997163 1
gene  1 9 52 2.496123795630178 0 368.0 2.496123795630178 1
gene  1 52 14 -4.596548601052887 0 369.0 -4.596548601052887 1
gene  1 1 53 1.4688750654465819 0 372.0 1.4688750654465819 1
gene  1 53 21 -0.8565223619399711 0 373.0 -0.8565223619399711 0
gene  1 2 52 -3.616976172297658 0 425.0 -3.616976172297658 1
gene  1 53 64 1.119296423257488 0 443.0 1.119296423257488 1
gene  1 64 21 2.195945702781127 0 444.0 2.195945702781127 1
gene  1 21 10 1.304795014266411 0 509.0 1.304795014266411 1
gene  1 9 85 -5.318297973601601 1 520.0 -5.318297973601601 1
gene  1 85 9 -0.734793594005632 0 521.0 -0.734793594005632 1
gene  1 13 52 -2.339872110091034 0 523.0 -2.339872110091034 1
gene  1 64 29 1.4228533134284778 0 573.0 1.4228533134284778 1
genomeend 8
genomestart  9
trait 1 0.907232925829199 0.0 2.7344810196560863 0.30145754889830334 0.0 1.4007872281640394 0.0 1.6529965227924879 
node 1 1 1 1
node 2 1 1 1
node 3 1 1 1
node 4 1 1 1
node 5 1 1 1
node 6 1 1 1
node 7 1 1 3
node 8 1 0 0
node 9 1 0 0
node 10 1 0 0
node 13 1 0 2
node 14 1 0 2
node 21 1 0 0
node 29 1 0 0
node 52 1 0 0
node 53 1 0 0
node 64 1 0 0
node 85 1 0 0
gene  1 1 8 2.320877738020012 0 98.0 2.320877738020012 1
gene  1 3 8 -1.6820009512393477 0 100.0 -1.6820009512393477 1
gene  1 5 8 23.044063618277402 0 102.0 23.044063618277402 1
gene  1 6 8 -0.8419636129783632 0 103.0 -0.8419636129783632 1
gene  1 8 8 -1.7919287125890895 1 105.0 -1.7919287125890895 1
gene  1 1 9 -0.12237779355795153 0 112.0 -0.12237779355795153 1
gene  1 2 9 -1.9155598670278315 0 113.0 -1.9155598670278315 1
gene  1 3 9 1.80877388682406 0 114.0 1.80877388682406 1
gene  1 5 9 -5.538792950471292 0 116.0 -5.538792950471292 1
gene  1 7 9 -1.366086871884712 0 118.0 -1.366086871884712 1
gene  1 9 9 -0.09840263237837177 1 120.0 -0.09840263237837177 0
gene  1 10 9 -3.7100633766213402 1 121.0 -3.7100633766213402 1
gene  1 13 9 -5.136615071439467 1 124.0 -5.136615071439467 1
gene  1 2 10 3.4005175231900404 0 127.0 3.4005175231900404 1
gene  1 4 10 7.390649130522319 0 129.0 7.390649130522319 1
gene  1 5 10 4.8354613343154185 0 130.0 4.8354613343154185 1
gene  1 8 10 -4.1951408733940925 0 133.0 -4.1951408733940925 1
gene  1 9 10 -0.20049074720840965 0 134.0 -0.20049074720840965 1
gene  1 10 10 -0.6780649141379589 1 135.0 -0.6780649141379589 1
gene  1 13 10 3.285581142650284 1 138.0 3.285581142650284 1
gene  1 14 10 -2.3066630667066317 1 139.0 -2.3066630667066317 1
gene  1 2 13 3.8327760082929228 0 169.0 3.8327760082929228 1
gene  1 3 13 -5.2676591102414925 0 170.0 -5.2676591102414925 1
gene  1 6 13 -0.9102913963407029 0 173.0 -0.9102913963407029 1
gene  1 7 13 -4.963122295679181 0 174.0 -4.963122295679181 1
gene  1 9 13 -0.0945186192105456 0 176.0 -0.0945186192105456 1
gene  1 13 13 2.7455153639416285 1 180.0 2.7455153639416285 1
gene  1 14 13 -0.35830891303490897 1 181.0 -0.35830891303490897 1
gene  1 1 14 3.8231981949399865 0 182.0 3.8231981949399865 1
gene  1 3 14 0.05512582148113798 0 184.0 0.05512582148113798 1
gene  1 9 14 5.8288039044507425 0 190.0 5.8288039044507425 1
gene  1 10 14 0.2048477111676743 0 191.0 0.2048477111676743 1
gene  1 1 21 2.8673349457299926 0 218.0 2.8673349457299926 1
gene  1 21 8 -2.4560428582156053 0 219.0 -2.4560428582156053 1
gene  1 3 10 -4.795460400230891 0 223.0 -4.795460400230891 1
gene  1 6 29 -3.6266280504424855 0 259.0 -3.6266280504424855 1
gene  1 29 8 0.7355018668356451 0 260.0 0.7355018668356451 1
gene  1 29 21 2.0072440182460527 0 271.0 2.0072440182460527 1
gene  1 3 21 11.938584115326716 0 300.0 11.938584115326716 1
gene  1 9 52 2.1182679092313736 0 368.0 2.1182679092313736 1
gene  1 52 14 -6.34362458041452 0 369.0 -6.34362458041452 1
gene  1 1 53 1.0839326980679231 0 372.0 1.0839326980679231 1
gene  1 53 21 0.6563661984556332 0 373.0 0.6563661984556332 0
gene  1 2 52 -4.226471260795061 0 425.0 -4.226471260795061 1
gene  1 53 64 2.9999605154753572 0 443.0 2.9999605154753572 1
gene  1 64 21 2.4249538019177974 0 444.0 2.4249538019177974 1
gene  1 21 10 2.4805546677064543 0 509.0 2.4805546677064543 1
gene  1 9 85 -1.7850972407441128 1 520.0 -1.7850972407441128 1
gene  1 85 9 -5.1124882891680485 0 521.0 -5.1124882891680485 1
gene  1 13 52 -1.9309527689669852 0 523.0 -1.9309527689669852 1
gene  1 64 29 0.18952230302401363 0 573.0 0.18952230302401363 1
genomeend 9
genomestart  10
trait 1 0.39340002544161434 0.4638621482816303 0.4185672944766822 1.064591410541687 0.0 1.4619974594472236 1.314330803229924 0.36223095093968216 
node 1 1 1 1
node 2 1 1 1
node 3 1 1 1
node 4 1 1 1
node 5 1 1 1
node 6 1 1 1
node 7 1 1 3
node 13 1 0 2
node 14 1 0 2
node 42 1 0 0
node 61 1 0 0
node 74 1 0 0
node 76 1 0 0
node 93 1 0 0
gene  1 1 13 3.259790968042366 0 168.0 3.259790968042366 1
gene  1 2 13 2.117290041522007 0 169.0 2.117290041522007 1
gene  1 3 13 -0.7877235069720512 0 170.0 -0.7877235069720512 1
gene  1 4 13 0.5838124155969371 0 171.0 0.5838124155969371 1
gene  1 5 13 -2.135402361465411 0 172.0 -2.135402361465411 1
gene  1 6 13 -0.14672533118314102 0 173.0 -0.14672533118314102 1
gene  1 7 13 -0.07410287467752485 0 174.0 -0.07410287467752485 1
gene  1 14 13 1.0099607638054928 1 181.0 1.0099607638054928 1
gene  1 1 14 -2.0558716737066884 0 182.0 -2.0558716737066884 1
gene  1 2 14 3.967823721233964 0 183.0 3.967823721233964 1
gene  1 3 14 -1.2830459167987818 0 184.0 -1.2830459167987818 1
gene  1 13 14 -2.082381759304933 0 194.0 -2.082381759304933 1
gene  1 14 14 -2.1035044577453235 1 195.0 -2.1035044577453235 1
gene  1 6 14 -3.8129213908967463 0 230.0 -3.8129213908967463 1
gene  1 4 14 -1.2685044854574965 0 312.0 -1.2685044854574965 1
gene  1 2 42 -0.8627722481090139 0 320.0 -0.8627722481090139 1
gene  1 42 13 -1.509543559119511 0 321.0 -1.509543559119511 1
gene  1 6 42 -3.3319778161396036 0 349.0 -3.3319778161396036 1
gene  1 7 14 10.489971904031979 0 353.0 10.489971904031979 1
gene  1 7 42 4.152818864735847 0 395.0 4.152818864735847 1
gene  1 5 61 -0.605504900779617 0 408.0 -0.605504900779617 1
gene  1 61 13 -2.0239284894542657 0 409.0 -2.0239284894542657 1
gene  1 5 42 2.4423784646125166 0 426.0 2.4423784646125166 1
gene  1 2 74 -5.168561950137672 0 471.0 -5.168561950137672 1
gene  1 74 13 -2.7202949119665703 0 472.0 -2.7202949119665703 1
gene  1 5 76 0.12568496258616696 0 476.0 0.12568496258616696 1
gene  1 76 42 3.1516350055987745 0 477.0 3.1516350055987745 1
gene  1 3 74 -4.55969358680022 0 491.0 -4.55969358680022 0
gene  1 61 74 -3.5788253819454945 0 527.0 -3.5788253819454945 1
gene  1 61 42 -1.294349103373695 0 544.0 -1.294349103373695 1
gene  1 42 14 -0.2882997563462586 0 568.0 -0.2882997563462586 1
gene  1 3 93 1.0 0 580.0 0.0 1
gene  1 93 74 -4.55969358680022 0 581.0 0.0 1
genomeend 10
genomestart  11
trait 1 0.39340002544161434 0.4638621482816303 0.4185672944766822 1.064591410541687 0.0 1.4619974594472236 1.314330803229924 0.36223095093968216 
node 1 1 1 1
node 2 1 1 1
node 3 1 1 1
node 4 1 1 1
node 5 1 1 1
node 6 1 1 1
node 7 1 1 3
node 13 1 0 2
node 14 1 0 2
node 42 1 0 0
node 61 1 0 0
node 74 1 0 0
node 76 1 0 0
gene  1 1 13 3.259790968042366 0 168.0 3.259790968042366 1
gene  1 2 13 2.117290041522007 0 169.0 2.117290041522007 1
gene  1 3 13 -0.7877235069720512 0 170.0 -0.7877235069720512 1
gene  1 4 13 0.5838124155969371 0 171.0 0.5838124155969371 1
gene  1 5 13 -2.135402361465411 0 172.0 -2.135402361465411 1
gene  1 6 13 -0.14672533118314102 0 173.0 -0.14672533118314102 1
gene  1 7 13 -0.07410287467752485 0 174.0 -0.07410287467752485 1
gene  1 14 13 1.0099607638054928 1 181.0 1.0099607638054928 1
gene  1 1 14 -2.0558716737066884 0 182.0 -2.0558716737066884 1
gene  1 2 14 3.967823721233964 0 183.0 3.967823721233964 1
gene  1 3 14 -1.2830459167987818 0 184.0 -1.2830459167987818 1
gene  1 13 14 -2.082381759304933 0 194.0 -2.082381759304933 1
gene  1 14 14 -2.1035044577453235 1 195.0 -2.1035044577453235 1
gene  1 6 14 -3.8129213908967463 0 230.0 -3.8129213908967463 1
gene  1 4 14 -1.2685044854574965 0 312.0 -1.2685044854574965 1
gene  1 2 42 -0.8627722481090139 0 320.0 -0.8627722481090139 1
gene  1 42 13 -1.509543559119511 0 321.0 -1.509543559119511 1
gene  1 6 42 -3.3319778161396036 0 349.0 -3.3319778161396036 1
gene  1 7 14 10.489971904031979 0 353.0 10.489971904031979 1
gene  1 7 42 4.152818864735847 0 395.0 4.152818864735847 1
gene  1 5 61 -0.605504900779617 0 408.0 -0.605504900779617 1
gene  1 61 13 -2.0239284894542657 0 409.0 -2.0239284894542657 1
gene  1 5 42 2.4423784646125166 0 426.0 2.4423784646125166 1
gene  1 2 74 -5.168561950137672 0 471.0 -5.168561950137672 1
gene  1 74 13 -2.7202949119665703 0 472.0 -2.7202949119665703 1
gene  1 5 76 0.12568496258616696 0 476.0 0.12568496258616696 1
gene  1 76 42 3.1516350055987745 0 477.0 3.1516350055987745 1
gene  1 3 74 -4.55969358680022 0 491.0 -4.55969358680022 1
gene  1 61 74 -3.5788253819454945 0 527.0 -3.5788253819454945 1
gene  1 61 42 -1.294349103373695 0 544.0 -1.294349103373695 1
gene  1 42 14 -0.2882997563462586 0 568.0 -0.2882997563462586 1
gene  1 7 74 9.732938564917612 0 582.0 9.732938564917612 1
genomeend 11
genomestart  12
trait 1 0.0 0.9160964204574156 0.03145355857324372 0.5098453143214142 0.4939563997667481 0.0238959621145034 1.3204749328510976 0.0 
node 1 1 1 1
node 2 1 1 1
node 3 1 1 1
node 4 1 1 1
node 5 1 1 1
node 6 1 1 1
node 7 1 1 3
node 8 1 0 0
node 13 1 0 2
node 14 1 0 2
node 49 1 0 0
node 59 1 0 0
node 63 1 0 0
node 88 1 0 0
gene  1 4 8 0.8910680155863973 0 101.0 0.8910680155863973 1
gene  1 5 8 -0.9116138406977107 0 102.0 -0.9116138406977107 1
gene  1 6 8 2.1981721117840745 0 103.0 2.1981721117840745 1
gene  1 14 8 -2.8318339195942768 1 111.0 -2.8318339195942768 1
gene  1 1 13 -3.6449861911542136 0 168.0 -3.6449861911542136 1
gene  1 2 13 -3.8646126190229984 0 169.0 -3.8646126190229984 1
gene  1 3 13 5.133323951066068 0 170.0 5.133323951066068 1
gene  1 5 13 3.1163441985394775 0 172.0 3.1163441985394775 1
gene  1 7 13 -0.21559850851217932 0 174.0 -0.21559850851217932 1
gene  1 14 13 1.1771101854808517 1 181.0 1.1771101854808517 1
gene  1 1 14 -0.9737929133388386 0 182.0 -0.9737929133388386 1
gene  1 2 14 -7.929313432206545 0 183.0 -7.929313432206545 1
gene  1 3 14 2.2947769395686892 0 184.0 2.2947769395686892 1
gene  1 4 14 -1.7679700968371175 0 185.0 -1.7679700968371175 1
gene  1 8 14 0.2620058737024086 0 189.0 0.2620058737024086 1
gene  1 14 14 -2.6026904583578596 1 195.0 -2.6026904583578596 1
gene  1 6 14 -6.232819183353361 0 240.0 -6.232819183353361 1
gene  1 8 13 0.03708631591209821 0 311.0 0.03708631591209821 1
gene  1 14 13 2.2110100209332115 0 322.0 2.2110100209332115 1
gene  1 2 49 -4.321781988960847 0 362.0 -4.321781988960847 1
gene  1 49 14 4.126443854494935 0 363.0 4.126443854494935 1
gene  1 3 8 5.50929520963591 0 393.0 5.50929520963591 1
gene  1 49 59 -1.7799049571407135 0 401.0 -1.7799049571407135 1
gene  1 59 14 -2.9051222193158455 0 402.0 -2.9051222193158455 1
gene  1 2 59 -4.34931318216812 0 403.0 -4.34931318216812 1
gene  1 7 14 -2.0514522139130307 0 424.0 -2.0514522139130307 1
gene  1 59 13 2.6133457856490097 0 427.0 2.6133457856490097 1
gene  1 3 63 -9.756180448770559 0 440.0 -9.756180448770559 1
gene  1 63 8 -1.894417298542462 0 441.0 -1.894417298542462 1
gene  1 5 59 1.3336254243469061 0 525.0 1.3336254243469061 1
gene  1 1 59 0.35029612378376185 0 534.0 0.35029612378376185 1
gene  1 49 88 2.177847836455018 0 546.0 2.177847836455018 1
gene  1 88 59 -1.09901525414679 0 547.0 -1.09901525414679 1
genomeend 12
genomestart  13
trait 1 0.0 0.9160964204574156 0.03145355857324372 0.5098453143214142 0.4939563997667481 0.0238959621145034 1.3204749328510976 0.0 
node 1 1 1 1
node 2 1 1 1
node 3 1 1 1
node 4 1 1 1
node 5 1 1 1
node 6 1 1 1
node 7 1 1 3
node 8 1 0 0
node 13 1 0 2
node 14 1 0 2
node 49 1 0 0
node 59 1 0 0
node 63 1 0 0
node 88 1 0 0
gene  1 4 8 5.095569768319493 0 101.0 5.095569768319493 1
gene  1 5 8 2.1001953477118014 0 102.0 2.1001953477118014 1
gene  1 6 8 1.23685933107614 0 103.0 1.23685933107614 1
gene  1 14 8 1.551428742938179 1 111.0 1.551428742938179 1
gene  1 1 13 -6.93645367753334 0 168.0 -6.93645367753334 1
gene  1 2 13 -1.787075444397487 0 169.0 -1.787075444397487 1
gene  1 3 13 2.752141415724353 0 170.0 2.752141415724353 1
gene  1 5 13 1.8362788157563052 0 172.0 1.8362788157563052 1
gene  1 7 13 -0.4333872121940134 0 174.0 -0.4333872121940134 1
gene  1 14 13 0.40682390815999536 1 181.0 0.40682390815999536 1
gene  1 1 14 -2.6944856078364703 0 182.0 -2.6944856078364703 1
gene  1 2 14 -8.806143881652398 0 183.0 -8.806143881652398 1
gene  1 3 14 4.850235404525225 0 184.0 4.850235404525225 1
gene  1 4 14 -0.36632617773528464 0 185.0 -0.36632617773528464 1
gene  1 8 14 1.185653806639724 0 189.0 1.185653806639724 1
gene  1 14 14 -1.7020739520020274 1 195.0 -1.7020739520020274 1
gene  1 6 14 -5.153660005183813 0 240.0 -5.153660005183813 1
gene  1 8 13 -2.9543787656029936 0 311.0 -2.9543787656029936 1
gene  1 14 13 1.3832963571787704 0 322.0 1.3832963571787704 1
gene  1 2 49 -3.936121853827458 0 362.0 -3.936121853827458 1
gene  1 49 14 1.8616831762404533 0 363.0 1.8616831762404533 1
gene  1 3 8 6.412130067168016 0 393.0 6.412130067168016 1
gene  1 49 59 -1.3418042043722025 0 401.0 -1.3418042043722025 0
gene  1 59 14 0.892497225762434 0 402.0 0.892497225762434 1
gene  1 2 59 -2.9743576449599267 0 403.0 -2.9743576449599267 1
gene  1 7 14 -3.290933721265895 0 424.0 -3.290933721265895 1
gene  1 59 13 2.208136418984726 0 427.0 2.208136418984726 1
gene  1 3 63 -9.756180448770559 0 440.0 -9.756180448770559 1
gene  1 63 8 -1.317538536983232 0 441.0 -1.317538536983232 1
gene  1 5 59 4.116858622201971 0 525.0 4.116858622201971 1
gene  1 1 59 -2.3392550559941423 0 534.0 -2.3392550559941423 1
gene  1 49 88 1.150258748988402 0 546.0 1.150258748988402 1
gene  1 88 59 0.4385374172248129 0 547.0 0.4385374172248129 1
genomeend 13
genomestart  14
trait 1 0.7266510416492057 1.51783543229617 1.2671621196902727 0.49951333318806035 0.0 2.2133304098674773 1.1489259737536075 0.06730656714772287 
node 1 1 1 1
node 2 1 1 1
node 3 1 1 1
node 4 1 1 1
node 5 1 1 1
node 6 1 1 1
node 7 1 1 3
node 8 1 0 0
node 9 1 0 0
node 10 1 0 0
node 11 1 0 0
node 12 1 0 0
node 13 1 0 2
node 14 1 0 2
node 27 1 0 0
node 34 1 0 0
node 40 1 0 0
node 48 1 0 0
node 71 1 0 0
gene  1 1 8 0.7527431298495244 0 98.0 0.7527431298495244 1
gene  1 3 8 2.3392200595979338 0 100.0 2.3392200595979338 1
gene  1 4 8 0.029908222235477178 0 101.0 0.029908222235477178 1
gene  1 6 8 0.387281255253488 0 103.0 0.387281255253488 1
gene  1 8 8 9.968243783449115 1 105.0 9.968243783449115 1
gene  1 10 8 -2.110782053891273 1 107.0 -2.110782053891273 1
gene  1 3 9 -4.073490276826572 0 114.0 -4.073490276826572 1
gene  1 6 9 -2.8008022571662767 0 117.0 -2.8008022571662767 1
gene  1 8 9 3.265822399736997 0 119.0 3.265822399736997 1
gene  1 10 9 0.07105666003283134 1 121.0 0.07105666003283134 1
gene  1 11 9 -0.6396798149567708 1 122.0 -0.6396798149567708 1
gene  1 13 9 1.7622880330566453 1 124.0 1.7622880330566453 1
gene  1 14 9 2.4108199159190216 1 125.0 2.4108199159190216 1
gene  1 1 10 1.2074250527246306 0 126.0 1.2074250527246306 1
gene  1 3 10 -0.47172126418920657 0 128.0 -0.47172126418920657 1
gene  1 4 10 0.21492941171072188 0 129.0 0.21492941171072188 1
gene  1 5 10 9.834809287349852 0 130.0 9.834809287349852 1
gene  1 9 10 0.2649319589113369 0 134.0 0.2649319589113369 1
gene  1 13 10 0.18199479432187493 1 138.0 0.18199479432187493 1
gene  1 1 11 -1.049427148160789 0 140.0 -1.049427148160789 1
gene  1 3 11 8.261695236035978 0 142.0 8.261695236035978 1
gene  1 5 11 7.278882272616487 0 144.0 7.278882272616487 1
gene  1 9 11 -1.5085130578778796 0 148.0 -1.5085130578778796 1
gene  1 10 11 -1.1945342111476183 0 149.0 -1.1945342111476183 1
gene  1 12 11 0.48646323864943875 1 151.0 0.48646323864943875 1
gene  1 14 11 6.8633678716612465 1 153.0 6.8633678716612465 1
gene  1 2 12 8.796831989284613 0 155.0 8.796831989284613 1
gene  1 4 12 0.8949033891654798 0 157.0 0.8949033891654798 1
gene  1 6 12 1.8086316976282466 0 159.0 1.8086316976282466 1
gene  1 7 12 0.8196930918567189 0 160.0 0.8196930918567189 1
gene  1 9 12 5.442394182909459 0 162.0 5.442394182909459 1
gene  1 10 12 -1.1138322004919106 0 163.0 -1.1138322004919106 1
gene  1 12 12 -2.4592674440728497 1 165.0 -2.4592674440728497 1
gene  1 14 12 2.9301038040389784 1 167.0 2.9301038040389784 1
gene  1 1 13 4.860203152377048 0 168.0 4.860203152377048 1
gene  1 3 13 -0.9847476119895842 0 170.0 -0.9847476119895842 1
gene  1 4 13 -1.436347747928689 0 171.0 -1.436347747928689 1
gene  1 6 13 -8.339245796248266 0 173.0 -8.339245796248266 1
gene  1 8 13 -18.06668245551715 0 175.0 -18.06668245551715 1
gene  1 9 13 0.6543431239731243 0 176.0 0.6543431239731243 1
gene  1 8 14 -1.1418470872663593 0 189.0 -1.1418470872663593 1
gene  1 11 14 -2.066202878963642 0 192.0 -2.066202878963642 1
gene  1 5 8 1.0603294569726205 0 235.0 1.0603294569726205 1
gene  1 1 27 -0.07786795366396904 0 241.0 -0.07786795366396904 1
gene  1 27 8 -2.6838218773624636 0 242.0 -2.6838218773624636 1
gene  1 9 34 -1.9461716762334518 0 272.0 -1.9461716762334518 1
gene  1 34 11 2.3723092991541703 0 273.0 2.3723092991541703 1
gene  1 5 13 6.4746917338838355 0 277.0 6.4746917338838355 1
gene  1 12 14 2.569420559836039 0 296.0 2.569420559836039 1
gene  1 8 40 -0.49211854097376384 1 308.0 -0.49211854097376384 1
gene  1 40 8 1.788186973493003 0 309.0 1.788186973493003 1
gene  1 10 14 -1.349003237221884 0 341.0 -1.349003237221884 1
gene  1 3 48 0.45654177283599107 0 360.0 0.45654177283599107 1
gene  1 48 8 -0.46581974590919506 0 361.0 -0.46581974590919506 1
gene  1 10 13 2.9325559661646707 0 404.0 2.9325559661646707 1
gene  1 48 71 0.505822020218343 0 463.0 0.505822020218343 1
gene  1 71 8 -3.9056623115566858 0 464.0 -3.9056623115566858 1
gene  1 11 12 2.3953270748355884 0 478.0 2.3953270748355884 1
gene  1 34 14 1.056539017840402 0 481.0 1.056539017840402 1
genomeend 14
genomestart  15
trait 1 0.7266510416492057 1.51783543229617 1.2671621196902727 0.49951333318806035 0.0 2.2133304098674773 1.1489259737536075 0.06730656714772287 
node 1 1 1 1
node 2 1 1 1
node 3 1 1 1
node 4 1 1 1
node 5 1 1 1
node 6 1 1 1
node 7 1 1 3
node 8 1 0 0
node 9 1 0 0
node 10 1 0 0
node 11 1 0 0
node 12 1 0 0
node 13 1 0 2
node 14 1 0 2
node 27 1 0 0
node 34 1 0 0
node 40 1 0 0
node 48 1 0 0
node 71 1 0 0
gene  1 1 8 2.1100564529577315 0 98.0 2.1100564529577315 1
gene  1 3 8 -0.5817439801196698 0 100.0 -0.5817439801196698 1
gene  1 4 8 -0.6609925618554082 0 101.0 -0.6609925618554082 1
gene  1 6 8 0.804667943697276 0 103.0 0.804667943697276 1
gene  1 8 8 12.342222656399152 1 105.0 12.342222656399152 1
gene  1 10 8 -4.052702596187325 1 107.0 -4.052702596187325 1
gene  1 3 9 -2.5196924655672204 0 114.0 -2.5196924655672204 1
gene  1 6 9 0.06951153942523414 0 117.0 0.06951153942523414 1
gene  1 8 9 4.004291382634426 0 119.0 4.004291382634426 1
gene  1 10 9 5.456558478223518 1 121.0 5.456558478223518 1
gene  1 11 9 -2.9361217834533972 1 122.0 -2.9361217834533972 1
gene  1 13 9 1.922832653075794 1 124.0 1.922832653075794 1
gene  1 14 9 3.726557927161523 1 125.0 3.726557927161523 1
gene  1 1 10 6.159105289923016 0 126.0 6.159105289923016 1
gene  1 3 10 0.727315991489871 0 128.0 0.727315991489871 1
gene  1 4 10 -1.2877812039916243 0 129.0 -1.2877812039916243 1
gene  1 5 10 11.196527432779348 0 130.0 11.196527432779348 1
gene  1 9 10 1.8595864452509614 0 134.0 1.8595864452509614 1
gene  1 13 10 1.7616799370488572 1 138.0 1.7616799370488572 1
gene  1 1 11 -0.6659028651472945 0 140.0 -0.6659028651472945 1
gene  1 3 11 7.359305590732336 0 142.0 7.359305590732336 1
gene  1 5 11 6.877438873002408 0 144.0 6.877438873002408 1
gene  1 9 11 -1.236499220527618 0 148.0 -1.236499220527618 1
gene  1 10 11 1.5704924785247207 0 149.0 1.5704924785247207 1
gene  1 12 11 1.4793292910189222 1 151.0 1.4793292910189222 1
gene  1 14 11 6.210154639457133 1 153.0 6.210154639457133 1
gene  1 2 12 8.622669994921925 0 155.0 8.622669994921925 1
gene  1 4 12 0.07371716497994973 0 157.0 0.07371716497994973 1
gene  1 6 12 2.229414371628012 0 159.0 2.229414371628012 1
gene  1 7 12 0.8492002028960819 0 160.0 0.8492002028960819 1
gene  1 9 12 7.081585866070877 0 162.0 7.081585866070877 1
gene  1 10 12 0.14245022692166742 0 163.0 0.14245022692166742 1
gene  1 12 12 -0.5103415256409742 1 165.0 -0.5103415256409742 1
gene  1 14 12 -1.026777619980763 1 167.0 -1.026777619980763 1
gene  1 1 13 4.493785933763638 0 168.0 4.493785933763638 1
gene  1 3 13 -0.1917548029164351 0 170.0 -0.1917548029164351 1
gene  1 4 13 -1.689401286512685 0 171.0 -1.689401286512685 1
gene  1 6 13 -7.860695474600468 0 173.0 -7.860695474600468 1
gene  1 8 13 -18.073683971770024 0 175.0 -18.073683971770024 1
gene  1 9 13 -0.3544760269025309 0 176.0 -0.3544760269025309 1
gene  1 8 14 1.2193193391837287 0 189.0 1.2193193391837287 1
gene  1 11 14 2.978744468872305 0 192.0 2.978744468872305 1
gene  1 5 8 -0.8066819387690238 0 235.0 -0.8066819387690238 1
gene  1 1 27 -0.4733798947792564 0 241.0 -0.4733798947792564 1
gene  1 27 8 -1.2436727275888249 0 242.0 -1.2436727275888249 1
gene  1 9 34 0.7486312804392554 0 272.0 0.7486312804392554 1
gene  1 34 11 0.15395419873289384 0 273.0 0.15395419873289384 1
gene  1 5 13 5.067680819006577 0 277.0 5.067680819006577 1
gene  1 12 14 3.952907033172113 0 296.0 3.952907033172113 1
gene  1 8 40 -2.4452246668364115 1 308.0 -2.4452246668364115 1
gene  1 40 8 -0.6211774169595266 0 309.0 -0.6211774169595266 1
gene  1 10 14 -0.6322382324394051 0 341.0 -0.6322382324394051 1
gene  1 3 48 2.3131244729120497 0 360.0 2.3131244729120497 1
gene  1 48 8 0.5542553046243892 0 361.0 0.5542553046243892 1
gene  1 10 13 -0.33762617410241424 0 404.0 -0.33762617410241424 1
gene  1 48 71 -0.6011768909677323 0 463.0 -0.6011768909677323 1
gene  1 71 8 0.9621265558788722 0 464.0 0.9621265558788722 1
gene  1 11 12 3.8982815161091593 0 478.0 3.8982815161091593 1
gene  1 34 14 -1.213741278722746 0 481.0 -1.213741278722746 1
genomeend 15
genomestart  16
trait 1 0.7266510416492057 1.51783543229617 1.2671621196902727 0.49951333318806035 0.0 2.2133304098674773 1.1489259737536075 0.06730656714772287 
node 1 1 1 1
node 2 1 1 1
node 3 1 1 1
node 4 1 1 1
node 5 1 1 1
node 6 1 1 1
node 7 1 1 3
node 8 1 0 0
node 9 1 0 0
node 10 1 0 0
node 11 1 0 0
node 12 1 0 0
node 13 1 0 2
node 14 1 0 2
node 27 1 0 0
node 34 1 0 0
node 40 1 0 0
node 48 1 0 0
node 71 1 0 0
gene  1 1 8 2.5352781291490327 0 98.0 2.5352781291490327 1
gene  1 3 8 2.0158335554360027 0 100.0 2.0158335554360027 1
gene  1 4 8 0.4117175364999375 0 101.0 0.4117175364999375 1
gene  1 6 8 -2.0346085383420904 0 103.0 -2.0346085383420904 1
gene  1 8 8 2.17424244711922 1 105.0 2.17424244711922 1
gene  1 10 8 -2.577136902945056 1 107.0 -2.577136902945056 1
gene  1 3 9 -2.7017290861172563 0 114.0 -2.7017290861172563 1
gene  1 6 9 -2.082578832729324 0 117.0 -2.082578832729324 1
gene  1 8 9 0.6366367151816252 0 119.0 0.6366367151816252 1
gene  1 10 9 6.786727688421824 1 121.0 6.786727688421824 1
gene  1 11 9 -2.806916233500462 1 122.0 -2.806916233500462 1
gene  1 13 9 -1.891873365053178 1 124.0 -1.891873365053178 1
gene  1 14 9 2.0437474538501235 1 125.0 2.0437474538501235 1
gene  1 1 10 7.3182316475998554 0 126.0 7.3182316475998554 1
gene  1 3 10 0.5575410109865848 0 128.0 0.5575410109865848 1
gene  1 4 10 -3.3360364971335543 0 129.0 -3.3360364971335543 1
gene  1 5 10 0.6945231132580689 0 130.0 0.6945231132580689 1
gene  1 9 10 4.990737404067804 0 134.0 4.990737404067804 1
gene  1 13 10 1.4430137032235866 1 138.0 1.4430137032235866 1
gene  1 1 11 0.15943139368779724 0 140.0 0.15943139368779724 1
gene  1 3 11 8.189360953331526 0 142.0 8.189360953331526 1
gene  1 5 11 9.62561125111057 0 144.0 9.62561125111057 1
gene  1 9 11 1.9792468074858063 0 148.0 1.9792468074858063 1
gene  1 10 11 2.387839642384639 0 149.0 2.387839642384639 1
gene  1 12 11 1.9827117321327714 1 151.0 1.9827117321327714 1
gene  1 14 11 5.485886808824945 1 153.0 5.485886808824945 1
gene  1 2 12 -1.4755987509269506 0 155.0 -1.4755987509269506 1
gene  1 4 12 1.6851407312569753 0 157.0 1.6851407312569753 1
gene  1 6 12 2.9641901118590357 0 159.0 2.9641901118590357 1
gene  1 7 12 -1.328191888480223 0 160.0 -1.328191888480223 1
gene  1 9 12 7.4581299916210995 0 162.0 7.4581299916210995 1
gene  1 10 12 0.03614044357679158 0 163.0 0.03614044357679158 1
gene  1 12 12 -2.3888512974965574 1 165.0 -2.3888512974965574 1
gene  1 14 12 0.7234005309981151 1 167.0 0.7234005309981151 1
gene  1 1 13 5.084236504972193 0 168.0 5.084236504972193 1
gene  1 3 13 -0.9847476119895842 0 170.0 -0.9847476119895842 1
gene  1 4 13 2.375337267378808 0 171.0 2.375337267378808 1
gene  1 6 13 -2.229134843575557 0 173.0 -2.229134843575557 1
gene  1 8 13 -15.455044021926431 0 175.0 -15.455044021926431 1
gene  1 9 13 2.3624677037050983 0 176.0 2.3624677037050983 1
gene  1 8 14 1.8902766896992038 0 189.0 1.8902766896992038 1
gene  1 11 14 1.3382148213336453 0 192.0 1.3382148213336453 1
gene  1 5 8 -2.945895658428859 0 235.0 -2.945895658428859 1
gene  1 1 27 0.8493423645797007 0 241.0 0.8493423645797007 1
gene  1 27 8 -2.112715500368455 0 242.0 -2.112715500368455 1
gene  1 9 34 1.0836143151978255 0 272.0 1.0836143151978255 1
gene  1 34 11 -1.5722768264154143 0 273.0 -1.5722768264154143 1
gene  1 5 13 3.171638167112193 0 277.0 3.171638167112193 1
gene  1 12 14 4.290595032289279 0 296.0 4.290595032289279 1
gene  1 8 40 -1.8610154550855182 1 308.0 -1.8610154550855182 1
gene  1 40 8 1.4662585481291732 0 309.0 1.4662585481291732 1
gene  1 10 14 -0.09691434272408955 0 341.0 -0.09691434272408955 1
gene  1 3 48 0.24604754594001965 0 360.0 0.24604754594001965 1
gene  1 48 8 0.3397887076453969 0 361.0 0.3397887076453969 1
gene  1 10 13 3.419798100879202 0 404.0 3.419798100879202 1
gene  1 48 71 -0.728934398937273 0 463.0 -0.728934398937273 1
gene  1 71 8 -0.5009637486153204 0 464.0 -0.5009637486153204 1
gene  1 11 12 7.400553962750465 0 478.0 7.400553962750465 1
gene  1 34 14 -1.6557849008444032 0 481.0 -1.6557849008444032 1
genomeend 16
genomestart  17
trait 1 0.33760641808164704 1.299704635597652 0.9547867298575612 0.017203006884936534 1.0258166876977075 0.9586270994970227 0.12889370418766055 0.0 
node 1 1 1 1
node 2 1 1 1
node 3 1 1 1
node 4 1 1 1
node 5 1 1 1
node 6 1 1 1
node 7 1 1 3
node 8 1 0 0
node 9 1 0 0
node 10 1 0 0
node 13 1 0 2
node 14 1 0 2
node 16 1 0 0
node 21 1 0 0
node 29 1 0 0
node 52 1 0 0
node 53 1 0 0
node 79 1 0 0
gene  1 1 8 0.4765267197470928 0 98.0 0.4765267197470928 1
gene  1 2 8 1.8003315139191831 0 99.0 1.8003315139191831 1
gene  1 3 8 -7.974948489807148 0 100.0 -7.974948489807148 1
gene  1 4 8 1.474943580348401 0 101.0 1.474943580348401 1
gene  1 5 8 0.5340347324108186 0 102.0 0.5340347324108186 1
gene  1 6 8 4.1930562064319625 0 103.0 4.1930562064319625 1
gene  1 8 8 0.9470008371352199 1 105.0 0.9470008371352199 1
gene  1 13 8 -2.196673951131189 1 110.0 -2.196673951131189 1
gene  1 14 8 1.1366985936959357 1 111.0 1.1366985936959357 1
gene  1 3 13 -2.4971350536730723 0 170.0 -2.4971350536730723 1
gene  1 5 13 5.245240292011062 0 172.0 5.245240292011062 1
gene  1 7 13 3.187013154682306 0 174.0 3.187013154682306 1
gene  1 13 13 -2.2893874576740965 1 180.0 -2.2893874576740965 1
gene  1 2 14 -0.20154741523794312 0 183.0 -0.20154741523794312 1
gene  1 4 14 7.867150458948557 0 185.0 7.867150458948557 1
gene  1 6 14 6.668999378611307 0 187.0 6.668999378611307 1
gene  1 8 14 10.139856837850514 0 189.0 10.139856837850514 1
gene  1 13 14 -4.221573415404078 0 194.0 -4.221573415404078 1
gene  1 13 16 0.36719851874621723 0 201.0 0.36719851874621723 1
gene  1 16 14 -0.1762594890778626 0 202.0 -0.1762594890778626 1
gene  1 1 21 2.8844647871234304 0 218.0 2.8844647871234304 1
gene  1 21 8 -0.48949838855866346 0 219.0 -0.48949838855866346 1
gene  1 3 10 1.4137473816760666 0 223.0 1.4137473816760666 1
gene  1 6 29 -0.9100659282250341 0 259.0 -0.9100659282250341 1
gene  1 29 8 1.0409251438903344 0 260.0 1.0409251438903344 1
gene  1 29 21 1.4957805815189782 0 271.0 1.4957805815189782 1
gene  1 3 21 2.30955671576261 0 300.0 2.30955671576261 1
gene  1 9 52 -0.6803559363395157 0 368.0 -0.6803559363395157 1
gene  1 52 14 -3.5471935699495374 0 369.0 -3.5471935699495374 1
gene  1 1 53 -0.012628816721626801 0 372.0 -0.012628816721626801 1
gene  1 53 21 -0.04577005910394005 0 373.0 -0.04577005910394005 1
gene  1 2 16 -2.489954411016946 0 439.0 -2.489954411016946 1
gene  1 21 79 1.5750176769113868 0 489.0 1.5750176769113868 1
gene  1 79 8 3.643709660176543 0 490.0 3.643709660176543 1
genomeend 17
genomestart  18
trait 1 0.33760641808164704 1.299704635597652 0.9547867298575612 0.017203006884936534 1.0258166876977075 0.9586270994970227 0.12889370418766055 0.0 
node 1 1 1 1
node 2 1 1 1
node 3 1 1 1
node 4 1 1 1
node 5 1 1 1
node 6 1 1 1
node 7 1 1 3
node 8 1 0 0
node 9 1 0 0
node 10 1 0 0
node 13 1 0 2
node 14 1 0 2
node 16 1 0 0
node 21 1 0 0
node 29 1 0 0
node 52 1 0 0
node 53 1 0 0
node 79 1 0 0
gene  1 1 8 -1.6034091662599086 0 98.0 -1.6034091662599086 1
gene  1 2 8 0.772136179612898 0 99.0 0.772136179612898 1
gene  1 3 8 -6.361679739502415 0 100.0 -6.361679739502415 1
gene  1 4 8 3.456541816500826 0 101.0 3.456541816500826 1
gene  1 5 8 -0.3646909755221944 0 102.0 -0.3646909755221944 1
gene  1 6 8 5.47362388365743 0 103.0 5.47362388365743 1
gene  1 8 8 1.0975089181613082 1 105.0 1.0975089181613082 1
gene  1 13 8 -2.5369510412437903 1 110.0 -2.5369510412437903 1
gene  1 14 8 -0.08190549055722585 1 111.0 -0.08190549055722585 1
gene  1 3 13 0.19455302839336885 0 170.0 0.19455302839336885 1
gene  1 5 13 1.6465532770083513 0 172.0 1.6465532770083513 1
gene  1 7 13 3.646032000730206 0 174.0 3.646032000730206 1
gene  1 13 13 -1.7380765478754174 1 180.0 -1.7380765478754174 1
gene  1 2 14 -0.3835743674157174 0 183.0 -0.3835743674157174 1
gene  1 4 14 4.7477735452038585 0 185.0 4.7477735452038585 1
gene  1 6 14 4.716258475481198 0 187.0 4.716258475481198 1
gene  1 8 14 2.372843870430104 0 189.0 2.372843870430104 1
gene  1 13 14 -4.770391715697421 0 194.0 -4.770391715697421 1
gene  1 13 16 -2.3987221608585148 0 201.0 -2.3987221608585148 1
gene  1 16 14 -2.3022857723177084 0 202.0 -2.3022857723177084 1
gene  1 1 21 1.5932839453824115 0 218.0 1.5932839453824115 1
gene  1 21 8 0.20627695945200153 0 219.0 0.20627695945200153 1
gene  1 3 10 0.5982540649824261 0 223.0 0.5982540649824261 1
gene  1 6 29 -3.302960025105457 0 259.0 -3.302960025105457 1
gene  1 29 8 -3.2140133576507237 0 260.0 -3.2140133576507237 1
gene  1 29 21 5.861702899584337 0 271.0 5.861702899584337 1
gene  1 3 21 4.249508526696023 0 300.0 4.249508526696023 1
gene  1 9 52 1.4890997836327546 0 368.0 1.4890997836327546 1
gene  1 52 14 -1.8443408170187816 0 369.0 -1.8443408170187816 1
gene  1 1 53 8.54783589574737 0 372.0 8.54783589574737 1
gene  1 53 21 1.6292937605102131 0 373.0 1.6292937605102131 1
gene  1 2 16 0.003692235037455971 0 439.0 0.003692235037455971 1
gene  1 21 79 3.772087675893869 0 489.0 3.772087675893869 1
gene  1 79 8 -0.3795370582734556 0 490.0 -0.3795370582734556 1
genomeend 18
genomestart  19
trait 1 0.33760641808164704 1.299704635597652 0.9547867298575612 0.017203006884936534 1.0258166876977075 0.9586270994970227 0.12889370418766055 0.0 
node 1 1 1 1
node 2 1 1 1
node 3 1 1 1
node 4 1 1 1
node 5 1 1 1
node 6 1 1 1
node 7 1 1 3
node 8 1 0 0
node 9 1 0 0
node 10 1 0 0
node 13 1 0 2
node 14 1 0 2
node 16 1 0 0
node 21 1 0 0
node 29 1 0 0
node 52 1 0 0
node 53 1 0 0
node 79 1 0 0
gene  1 1 8 1.172628794525058 0 98.0 1.172628794525058 1
gene  1 2 8 1.2731517458701558 0 99.0 1.2731517458701558 1
gene  1 3 8 -6.979996296647155 0 100.0 -6.979996296647155 1
gene  1 4 8 0.4256461720930529 0 101.0 0.4256461720930529 1
gene  1 5 8 -3.9886295303891997 0 102.0 -3.9886295303891997 1
gene  1 6 8 6.545371758095325 0 103.0 6.545371758095325 1
gene  1 8 8 -0.19953810904472424 1 105.0 -0.19953810904472424 1
gene  1 13 8 -2.106711630533372 1 110.0 -2.106711630533372 1
gene  1 14 8 2.042055139765263 1 111.0 2.042055139765263 1
gene  1 3 13 -11.162345066772088 0 170.0 -11.162345066772088 1
gene  1 5 13 5.3827134731289235 0 172.0 5.3827134731289235 1
gene  1 7 13 3.620730320943337 0 174.0 3.620730320943337 1
gene  1 13 13 -3.4834490873999298 1 180.0 -3.4834490873999298 1
gene  1 2 14 2.0210055428090827 0 183.0 2.0210055428090827 1
gene  1 4 14 0.3018770128739884 0 185.0 0.3018770128739884 1
gene  1 6 14 4.716258475481198 0 187.0 4.716258475481198 1
gene  1 8 14 7.285594506122598 0 189.0 7.285594506122598 1
gene  1 13 14 -1.8799186047530894 0 194.0 -1.8799186047530894 1
gene  1 13 16 0.893569109113487 0 201.0 0.893569109113487 1
gene  1 16 14 -1.063994181393539 0 202.0 -1.063994181393539 1
gene  1 1 21 -0.4543810218170824 0 218.0 -0.4543810218170824 1
gene  1 21 8 3.778038796077791 0 219.0 3.778038796077791 1
gene  1 3 10 -1.4581946003373747 0 223.0 -1.4581946003373747 1
gene  1 6 29 -0.8526214439536235 0 259.0 -0.8526214439536235 1
gene  1 29 8 -2.2932580910128997 0 260.0 -2.2932580910128997 1
gene  1 29 21 0.6019213838902562 0 271.0 0.6019213838902562 1
gene  1 3 21 6.041786588581115 0 300.0 6.041786588581115 1
gene  1 9 52 0.26454781079302325 0 368.0 0.26454781079302325 1
gene  1 52 14 -3.5471935699495374 0 369.0 -3.5471935699495374 1
gene  1 1 53 1.424834076592734 0 372.0 1.424834076592734 1
gene  1 53 21 0.9877189798717645 0 373.0 0.9877189798717645 1
gene  1 2 16 -1.8552481391964846 0 439.0 -1.8552481391964846 1
gene  1 21 79 2.267279328274396 0 489.0 2.267279328274396 1
gene  1 79 8 3.466508767280657 0 490.0 3.466508767280657 1
genomeend 19
