genomestart  0
trait 1 0.0 0.0 0.0 0.0 0.0 0.0 0.0 0.0 
node 1 1 1 1
node 2 1 1 1
node 3 1 1 1
node 4 1 1 1
node 5 1 1 1
node 6 1 1 1
node 7 1 1 3
node 13 1 0 2
node 14 1 0 2
node 19 1 0 0
gene  1 1 13 -0.24101083738883117 0 168.0 -0.24101083738883117 1
gene  1 3 13 2.7889189321232006 0 170.0 2.7889189321232006 1
gene  1 5 13 -1.9486576555938062 0 172.0 -1.9486576555938062 0
gene  1 6 13 0.33625492158520015 0 173.0 0.33625492158520015 1
gene  1 14 13 0.2188839548226822 1 181.0 0.2188839548226822 1
gene  1 1 14 0.6137775034275343 0 182.0 0.6137775034275343 1
gene  1 2 14 -2.4325431239914534 0 183.0 -2.4325431239914534 1
gene  1 4 14 -2.170589148165523 0 185.0 -2.170589148165523 1
gene  1 5 14 2.244341841228932 0 186.0 2.244341841228932 1
gene  1 6 14 -3.735205756181253 0 187.0 -3.735205756181253 1
gene  1 7 14 -1.3793903443217088 0 188.0 -1.3793903443217088 1
gene  1 13 14 -2.2683454370438048 0 194.0 -2.2683454370438048 1
gene  1 14 14 1.2236964628710947 1 195.0 1.2236964628710947 1
gene  1 5 19 3.4779463266322335 0 213.0 3.4779463266322335 1
gene  1 19 13 -1.7859935766774808 0 214.0 -1.7859935766774808 1
genomeend 0
genomestart  1
trait 1 0.0 0.0 0.0 0.0 0.0 0.0 0.0 0.0 
node 1 1 1 1
node 2 1 1 1
node 3 1 1 1
node 4 1 1 1
node 5 1 1 1
node 6 1 1 1
node 7 1 1 3
node 13 1 0 2
node 14 1 0 2
node 19 1 0 0
gene  1 1 13 0.42832516070890664 0 168.0 0.42832516070890664 1
gene  1 3 13 4.646032030012916 0 170.0 4.646032030012916 1
gene  1 5 13 -1.6621824773883866 0 172.0 -1.6621824773883866 0
gene  1 6 13 -1.4969047253415293 0 173.0 -1.4969047253415293 1
gene  1 14 13 -0.8451609523922137 1 181.0 -0.8451609523922137 1
gene  1 1 14 -1.0360250916455076 0 182.0 -1.0360250916455076 1
gene  1 2 14 -2.3033264843432586 0 183.0 -2.3033264843432586 1
gene  1 4 14 -1.2497343419577438 0 185.0 -1.2497343419577438 1
gene  1 5 14 3.529670382103215 0 186.0 3.529670382103215 1
gene  1 6 14 -1.6694283852620275 0 187.0 -1.6694283852620275 1
gene  1 7 14 -0.11346324502399341 0 188.0 -0.11346324502399341 1
gene  1 13 14 -2.995263690059721 0 194.0 -2.995263690059721 1
gene  1 14 14 2.2764442951233654 1 195.0 2.2764442951233654 1
gene  1 5 19 1.6435824785522941 0 213.0 1.6435824785522941 1
gene  1 19 13 -1.7859935766774808 0 214.0 -1.7859935766774808 1
genomeend 1
genomestart  2
trait 1 0.38509797114028876 1.1306295992632984 0.0 0.17101181944213528 0.0 0.0 0.0 1.0208282639679993 
node 1 1 1 1
node 2 1 1 1
node 3 1 1 1
node 4 1 1 1
node 5 1 1 1
node 6 1 1 1
node 7 1 1 3
node 13 1 0 2
node 14 1 0 2
gene  1 2 13 1.663807919961811 0 169.0 1.663807919961811 1
gene  1 3 13 1.6077033672445111 0 170.0 1.6077033672445111 1
gene  1 4 13 -3.696599421240075 0 171.0 -3.696599421240075 1
gene  1 6 13 -1.904056436074508 0 173.0 -1.904056436074508 1
gene  1 7 13 -8.054703626458442 0 174.0 -8.054703626458442 1
gene  1 13 13 2.6655870431861963 1 180.0 2.6655870431861963 1
gene  1 1 14 -0.7618509862373555 0 182.0 -0.7618509862373555 1
gene  1 2 14 2.4469716973950284 0 183.0 2.4469716973950284 1
gene  1 5 14 2.392229939493203 0 186.0 2.392229939493203 1
gene  1 6 14 -2.2141737186351036 0 187.0 -2.2141737186351036 1
gene  1 7 14 2.304048621622309 0 188.0 2.304048621622309 1
gene  1 13 14 -0.654987004086687 0 194.0 -0.654987004086687 1
gene  1 14 14 -6.363680065330495 1 195.0 -6.363680065330495 1
genomeend 2
genomestart  3
trait 1 0.38509797114028876 1.1306295992632984 0.0 0.17101181944213528 0.0 0.0 0.0 1.0208282639679993 
node 1 1 1 1
node 2 1 1 1
node 3 1 1 1
node 4 1 1 1
node 5 1 1 1
node 6 1 1 1
node 7 1 1 3
node 13 1 0 2
node 14 1 0 2
gene  1 2 13 2.5981078440839194 0 169.0 2.5981078440839194 1
gene  1 3 13 4.569329349514182 0 170.0 4.569329349514182 1
gene  1 4 13 -3.0016671166280657 0 171.0 -3.0016671166280657 1
gene  1 6 13 2.186503284381209 0 173.0 2.186503284381209 1
gene  1 7 13 -7.481785012875557 0 174.0 -7.481785012875557 1
gene  1 13 13 1.8762316332208782 1 180.0 1.8762316332208782 1
gene  1 1 14 -1.1434323408094842 0 182.0 -1.1434323408094842 1
gene  1 2 14 0.5969897140421313 0 183.0 0.5969897140421313 1
gene  1 5 14 2.9638151827826684 0 186.0 2.9638151827826684 1
gene  1 6 14 -2.2310473983676404 0 187.0 -2.2310473983676404 1
gene  1 7 14 -0.9685702460865273 0 188.0 -0.9685702460865273 1
gene  1 13 14 -1.5657595125702386 0 194.0 -1.5657595125702386 1
gene  1 14 14 0.8345845446367042 1 195.0 0.8345845446367042 1
genomeend 3
genomestart  4
trait 1 0.38509797114028876 1.1306295992632984 0.0 0.17101181944213528 0.0 0.0 0.0 1.0208282639679993 
node 1 1 1 1
node 2 1 1 1
node 3 1 1 1
node 4 1 1 1
node 5 1 1 1
node 6 1 1 1
node 7 1 1 3
node 13 1 0 2
node 14 1 0 2
gene  1 2 13 -1.8272582616283426 0 169.0 -1.8272582616283426 1
gene  1 3 13 -0.14078008564197608 0 170.0 -0.14078008564197608 1
gene  1 4 13 -2.467643199308396 0 171.0 -2.467643199308396 1
gene  1 6 13 2.002095434392357 0 173.0 2.002095434392357 1
gene  1 7 13 2.2822182688244514 0 174.0 2.2822182688244514 1
gene  1 13 13 1.4897105463737452 1 180.0 1.4897105463737452 1
gene  1 1 14 -1.0668026394472967 0 182.0 -1.0668026394472967 1
gene  1 2 14 1.5485447932507896 0 183.0 1.5485447932507896 1
gene  1 5 14 1.630954957955157 0 186.0 1.630954957955157 1
gene  1 6 14 -2.0586396038911206 0 187.0 -2.0586396038911206 1
gene  1 7 14 -1.0721488246138802 0 188.0 -1.0721488246138802 1
gene  1 13 14 -1.5657595125702386 0 194.0 -1.5657595125702386 1
gene  1 14 14 -3.4127874374576774 1 195.0 -3.4127874374576774 1
genomeend 4
genomestart  5
trait 1 0.0 0.37193661584753135 1.7535517816909252 0.0 0.0 0.7773532350912568 0.0 0.0 
node 1 1 1 1
node 2 1 1 1
node 3 1 1 1
node 4 1 1 1
node 5 1 1 1
node 6 1 1 1
node 7 1 1 3
node 8 1 0 0
node 9 1 0 0
node 10 1 0 0
node 11 1 0 0
node 13 1 0 2
node 14 1 0 2
gene  1 2 8 4.478332082282692 0 99.0 4.478332082282692 1
gene  1 6 8 2.864700738029779 0 103.0 2.864700738029779 1
gene  1 8 8 -1.7056233911265528 1 105.0 -1.7056233911265528 1
gene  1 9 8 3.8158547994097516 1 106.0 3.8158547994097516 1
gene  1 10 8 1.760489078980485 1 107.0 1.760489078980485 1
gene  1 11 8 2.530581253283839 1 108.0 2.530581253283839 1
gene  1 13 8 0.019263595558181856 1 110.0 0.019263595558181856 1
gene  1 14 8 2.4581555664278056 1 111.0 2.4581555664278056 1
gene  1 1 9 -1.266943540318207 0 112.0 -1.266943540318207 1
gene  1 2 9 2.206793240457074 0 113.0 2.206793240457074 1
gene  1 3 9 0.5755301710118379 0 114.0 0.5755301710118379 1
gene  1 6 9 -3.822913088297669 0 117.0 -3.822913088297669 1
gene  1 7 9 2.329404545236315 0 118.0 2.329404545236315 1
gene  1 8 9 -2.169561142822209 0 119.0 -2.169561142822209 1
gene  1 9 9 -0.5308697565886225 1 120.0 -0.5308697565886225 1
gene  1 11 9 -3.308494550686639 1 122.0 -3.308494550686639 1
gene  1 13 9 2.6747479191996772 1 124.0 2.6747479191996772 1
gene  1 14 9 -2.007465422456796 1 125.0 -2.007465422456796 1
gene  1 1 10 1.300197648965189 0 126.0 1.300197648965189 1
gene  1 3 10 -0.7594822786096584 0 128.0 -0.7594822786096584 1
gene  1 4 10 1.2736145265519958 0 129.0 1.2736145265519958 1
gene  1 5 10 1.9925631309991139 0 130.0 1.9925631309991139 1
gene  1 6 10 -0.17552709841456848 0 131.0 -0.17552709841456848 1
gene  1 10 10 -2.3538133583727285 1 135.0 -2.3538133583727285 1
gene  1 11 10 -4.21401391181428 1 136.0 -4.21401391181428 1
gene  1 14 10 -1.1711102896841616 1 139.0 -1.1711102896841616 1
gene  1 1 11 0.9379663970010301 0 140.0 0.9379663970010301 1
gene  1 3 11 3.29186439806075 0 142.0 3.29186439806075 1
gene  1 5 11 -2.4548294727763396 0 144.0 -2.4548294727763396 1
gene  1 6 11 -1.1037745767743747 0 145.0 -1.1037745767743747 1
gene  1 7 11 -0.2672717955533548 0 146.0 -0.2672717955533548 1
gene  1 8 11 2.5154114448136253 0 147.0 2.5154114448136253 1
gene  1 9 11 1.186735890574586 0 148.0 1.186735890574586 1
gene  1 10 11 3.808550332407657 0 149.0 3.808550332407657 1
gene  1 11 11 0.39446079122738986 1 150.0 0.39446079122738986 1
gene  1 1 13 -1.4069907198788931 0 168.0 -1.4069907198788931 1
gene  1 2 13 -2.3202631950641455 0 169.0 -2.3202631950641455 1
gene  1 3 13 -2.895638650584253 0 170.0 -2.895638650584253 1
gene  1 7 13 1.83760487429856 0 174.0 1.83760487429856 1
gene  1 11 13 4.380851217787398 0 178.0 4.380851217787398 1
gene  1 13 13 7.131590878246052 1 180.0 7.131590878246052 1
gene  1 2 14 3.64593884966476 0 183.0 3.64593884966476 1
gene  1 3 14 2.321041044899199 0 184.0 2.321041044899199 1
gene  1 4 14 -2.217171664971552 0 185.0 -2.217171664971552 1
gene  1 7 14 1.2822058071989104 0 188.0 1.2822058071989104 1
gene  1 8 14 -0.7608862289570564 0 189.0 -0.7608862289570564 1
gene  1 10 14 2.023685983956573 0 191.0 2.023685983956573 1
gene  1 13 14 0.16166962521601302 0 194.0 0.16166962521601302 1
gene  1 5 13 -2.496098607207387 0 198.0 -2.496098607207387 1
gene  1 4 9 -4.684771216878034 0 200.0 -4.684771216878034 1
genomeend 5
genomestart  6
trait 1 0.0 0.37193661584753135 1.7535517816909252 0.0 0.0 0.7773532350912568 0.0 0.0 
node 1 1 1 1
node 2 1 1 1
node 3 1 1 1
node 4 1 1 1
node 5 1 1 1
node 6 1 1 1
node 7 1 1 3
node 8 1 0 0
node 9 1 0 0
node 10 1 0 0
node 11 1 0 0
node 13 1 0 2
node 14 1 0 2
gene  1 2 8 4.828303767570284 0 99.0 4.828303767570284 1
gene  1 6 8 2.2560461678572574 0 103.0 2.2560461678572574 1
gene  1 8 8 -0.634987769131643 1 105.0 -0.634987769131643 1
gene  1 9 8 4.185330812058352 1 106.0 4.185330812058352 1
gene  1 10 8 -0.4906198322327784 1 107.0 -0.4906198322327784 1
gene  1 11 8 3.4662393148722725 1 108.0 3.4662393148722725 1
gene  1 13 8 1.8318005479585182 1 110.0 1.8318005479585182 1
gene  1 14 8 4.049878806449991 1 111.0 4.049878806449991 1
gene  1 1 9 -3.271715956728919 0 112.0 -3.271715956728919 1
gene  1 2 9 1.7201696103515078 0 113.0 1.7201696103515078 1
gene  1 3 9 2.6324745925085207 0 114.0 2.6324745925085207 1
gene  1 6 9 -5.445853540239551 0 117.0 -5.445853540239551 1
gene  1 7 9 2.864251727736684 0 118.0 2.864251727736684 1
gene  1 8 9 -0.6934682203626785 0 119.0 -0.6934682203626785 1
gene  1 9 9 1.2675354346465748 1 120.0 1.2675354346465748 1
gene  1 11 9 -4.952663547664128 1 122.0 -4.952663547664128 1
gene  1 13 9 1.3722962949568218 1 124.0 1.3722962949568218 1
gene  1 14 9 -2.061187686202456 1 125.0 -2.061187686202456 1
gene  1 1 10 0.5170410936354217 0 126.0 0.5170410936354217 1
gene  1 3 10 -2.2605043433083964 0 128.0 -2.2605043433083964 1
gene  1 4 10 0.5554953369962277 0 129.0 0.5554953369962277 1
gene  1 5 10 3.187635729841028 0 130.0 3.187635729841028 1
gene  1 6 10 -1.1434473452363343 0 131.0 -1.1434473452363343 1
gene  1 10 10 -1.0156794425215636 1 135.0 -1.0156794425215636 1
gene  1 11 10 -1.9210029793295198 1 136.0 -1.9210029793295198 1
gene  1 14 10 0.5408721312418077 1 139.0 0.5408721312418077 1
gene  1 1 11 -1.0854978688452497 0 140.0 -1.0854978688452497 1
gene  1 3 11 4.982104089199987 0 142.0 4.982104089199987 1
gene  1 5 11 -1.3498982901532017 0 144.0 -1.3498982901532017 1
gene  1 6 11 0.10478453544128308 0 145.0 0.10478453544128308 1
gene  1 7 11 1.0988926553045695 0 146.0 1.0988926553045695 1
gene  1 8 11 0.7181347204115596 0 147.0 0.7181347204115596 1
gene  1 9 11 -0.9151750628409736 0 148.0 -0.9151750628409736 1
gene  1 10 11 2.1343920828940792 0 149.0 2.1343920828940792 1
gene  1 11 11 -0.40987071379674833 1 150.0 -0.40987071379674833 1
gene  1 1 13 -2.344825898121575 0 168.0 -2.344825898121575 1
gene  1 2 13 -3.8924813443090236 0 169.0 -3.8924813443090236 1
gene  1 3 13 -0.9785167477745431 0 170.0 -0.9785167477745431 1
gene  1 7 13 4.320339420108073 0 174.0 4.320339420108073 1
gene  1 11 13 3.023889894636799 0 178.0 3.023889894636799 1
gene  1 13 13 4.996882127979296 1 180.0 4.996882127979296 1
gene  1 2 14 3.7281952343002325 0 183.0 3.7281952343002325 1
gene  1 3 14 2.356620702438942 0 184.0 2.356620702438942 1
gene  1 4 14 -2.217171664971552 0 185.0 -2.217171664971552 1
gene  1 7 14 -1.0487065743402184 0 188.0 -1.0487065743402184 1
gene  1 8 14 -0.7608862289570564 0 189.0 -0.7608862289570564 1
gene  1 10 14 1.7058914164716104 0 191.0 1.7058914164716104 1
gene  1 13 14 0.16166962521601302 0 194.0 0.16166962521601302 1
gene  1 5 13 -4.653891431193889 0 198.0 -4.653891431193889 1
gene  1 4 9 -2.3961756969539576 0 200.0 -2.3961756969539576 1
genomeend 6
genomestart  7
trait 1 0.9094479393069818 0.0 0.18125169842722821 0.0 0.5658812609091859 0.42041845515383636 0.6672100230779487 0.0 
node 1 1 1 1
node 2 1 1 1
node 3 1 1 1
node 4 1 1 1
node 5 1 1 1
node 6 1 1 1
node 7 1 1 3
node 8 1 0 0
node 13 1 0 2
node 14 1 0 2
node 16 1 0 0
node 20 1 0 0
gene  1 1 8 -1.7218437034244283 0 98.0 -1.7218437034244283 1
gene  1 2 8 2.489034136351071 0 99.0 2.489034136351071 1
gene  1 3 8 -3.9354679249781648 0 100.0 -3.9354679249781648 0
gene  1 4 8 -3.4254383642378237 0 101.0 -3.4254383642378237 1
gene  1 5 8 -2.318337535631725 0 102.0 -2.318337535631725 1
gene  1 6 8 1.135083452850501 0 103.0 1.135083452850501 1
gene  1 8 8 2.567242318425823 1 105.0 2.567242318425823 1
gene  1 13 8 7.62044992960786 1 110.0 7.62044992960786 1
gene  1 14 8 2.3643977110828387 1 111.0 2.3643977110828387 1
gene  1 3 13 1.2489910964584428 0 170.0 1.2489910964584428 1
gene  1 5 13 0.8441279411177973 0 172.0 0.8441279411177973 1
gene  1 7 13 1.5917975643560403 0 174.0 1.5917975643560403 1
gene  1 13 13 2.8035615107035308 1 180.0 2.8035615107035308 1
gene  1 2 14 0.6793001719709768 0 183.0 0.6793001719709768 1
gene  1 4 14 7.2644145834672464 0 185.0 7.2644145834672464 1
gene  1 6 14 2.517195446407626 0 187.0 2.517195446407626 1
gene  1 8 14 8.32862176443272 0 189.0 8.32862176443272 1
gene  1 13 14 -2.1384589096935116 0 194.0 -2.1384589096935116 0
gene  1 13 16 -2.455637417327474 0 201.0 -2.455637417327474 1
gene  1 16 14 1.0426923866414242 0 202.0 1.0426923866414242 1
gene  1 3 20 -1.6468106291985143 0 215.0 -1.6468106291985143 1
gene  1 20 8 -0.564350799013855 0 216.0 -0.564350799013855 1
genomeend 7
genomestart  8
trait 1 0.9094479393069818 0.0 0.18125169842722821 0.0 0.5658812609091859 0.42041845515383636 0.6672100230779487 0.0 
node 1 1 1 1
node 2 1 1 1
node 3 1 1 1
node 4 1 1 1
node 5 1 1 1
node 6 1 1 1
node 7 1 1 3
node 8 1 0 0
node 13 1 0 2
node 14 1 0 2
node 16 1 0 0
node 20 1 0 0
gene  1 1 8 0.31252174482994644 0 98.0 0.31252174482994644 1
gene  1 2 8 2.342454921836646 0 99.0 2.342454921836646 1
gene  1 3 8 -1.7610768601294766 0 100.0 -1.7610768601294766 0
gene  1 4 8 -1.0958495907131127 0 101.0 -1.0958495907131127 1
gene  1 5 8 -1.165497787316335 0 102.0 -1.165497787316335 1
gene  1 6 8 1.7325575956204946 0 103.0 1.7325575956204946 1
gene  1 8 8 1.5406779195461004 1 105.0 1.5406779195461004 1
gene  1 13 8 6.67695671643078 1 110.0 6.67695671643078 1
gene  1 14 8 3.9112476029783076 1 111.0 3.9112476029783076 1
gene  1 3 13 2.317941799067114 0 170.0 2.317941799067114 1
gene  1 5 13 -0.32903965308824823 0 172.0 -0.32903965308824823 1
gene  1 7 13 2.816989963723397 0 174.0 2.816989963723397 1
gene  1 13 13 3.171485920240142 1 180.0 3.171485920240142 1
gene  1 2 14 2.592158995659161 0 183.0 2.592158995659161 1
gene  1 4 14 5.057307396967201 0 185.0 5.057307396967201 1
gene  1 6 14 0.49471855184924474 0 187.0 0.49471855184924474 1
gene  1 8 14 5.887075369463024 0 189.0 5.887075369463024 1
gene  1 13 14 -0.19144940350374728 0 194.0 -0.19144940350374728 0
gene  1 13 16 -1.8858334095905296 0 201.0 -1.8858334095905296 1
gene  1 16 14 0.4347019565279769 0 202.0 0.4347019565279769 1
gene  1 3 20 0.5435646540096002 0 215.0 0.5435646540096002 1
gene  1 20 8 -2.0778424899519297 0 216.0 -2.0778424899519297 1
gene  1 2 16 8.873182367798316 0 222.0 8.873182367798316 1
genomeend 8
genomestart  9
trait 1 0.0 0.0 0.0 0.0 0.0 0.0 0.0 0.0 
node 1 1 1 1
node 2 1 1 1
node 3 1 1 1
node 4 1 1 1
node 5 1 1 1
node 6 1 1 1
node 7 1 1 3
node 8 1 0 0
node 9 1 0 0
node 10 1 0 0
node 13 1 0 2
node 14 1 0 2
node 21 1 0 0
gene  1 1 8 -0.4671956870203171 0 98.0 -0.4671956870203171 0
gene  1 3 8 0.3813431776054794 0 100.0 0.3813431776054794 1
gene  1 5 8 -5.437320159775915 0 102.0 -5.437320159775915 1
gene  1 6 8 -4.472433008207674 0 103.0 -4.472433008207674 1
gene  1 8 8 -5.411284881567536 1 105.0 -5.411284881567536 1
gene  1 1 9 6.021266870324973 0 112.0 6.021266870324973 1
gene  1 2 9 -1.194890121042187 0 113.0 -1.194890121042187 1
gene  1 3 9 7.214885366708694 0 114.0 7.214885366708694 1
gene  1 5 9 3.2087228004135437 0 116.0 3.2087228004135437 1
gene  1 7 9 -4.948104246207805 0 118.0 -4.948104246207805 1
gene  1 9 9 1.270685906355729 1 120.0 1.270685906355729 1
gene  1 10 9 3.8493139879060623 1 121.0 3.8493139879060623 1
gene  1 13 9 3.8196966941727055 1 124.0 3.8196966941727055 1
gene  1 2 10 1.8909564917848884 0 127.0 1.8909564917848884 1
gene  1 4 10 -0.9529772833540777 0 129.0 -0.9529772833540777 1
gene  1 5 10 -0.7557260735830647 0 130.0 -0.7557260735830647 1
gene  1 8 10 8.276287658241518 0 133.0 8.276287658241518 1
gene  1 9 10 2.149064296951277 0 134.0 2.149064296951277 1
gene  1 10 10 7.744534494724077 1 135.0 7.744534494724077 1
gene  1 13 10 4.974171359485672 1 138.0 4.974171359485672 1
gene  1 14 10 2.312717208311663 1 139.0 2.312717208311663 1
gene  1 2 13 0.6165147392535719 0 169.0 0.6165147392535719 1
gene  1 3 13 -3.3165451058020725 0 170.0 -3.3165451058020725 1
gene  1 6 13 5.610923480609934 0 173.0 5.610923480609934 1
gene  1 7 13 8.112798257991814 0 174.0 8.112798257991814 1
gene  1 9 13 0.5255928544962214 0 176.0 0.5255928544962214 1
gene  1 13 13 1.877425243481151 1 180.0 1.877425243481151 1
gene  1 14 13 -3.1981293426479653 1 181.0 -3.1981293426479653 1
gene  1 1 14 -1.2658620587782115 0 182.0 -1.2658620587782115 1
gene  1 3 14 -1.7139232794257429 0 184.0 -1.7139232794257429 1
gene  1 9 14 -0.6744584405399461 0 190.0 -0.6744584405399461 1
gene  1 10 14 -0.6075887742784556 0 191.0 -0.6075887742784556 1
gene  1 1 21 -2.4260635868768583 0 218.0 -2.4260635868768583 1
gene  1 21 8 -0.40985391663309556 0 219.0 -0.40985391663309556 1
genomeend 9
genomestart  10
trait 1 0.0 0.0 0.0 0.0 0.0 0.0 0.0 0.0 
node 1 1 1 1
node 2 1 1 1
node 3 1 1 1
node 4 1 1 1
node 5 1 1 1
node 6 1 1 1
node 7 1 1 3
node 8 1 0 0
node 9 1 0 0
node 10 1 0 0
node 13 1 0 2
node 14 1 0 2
node 21 1 0 0
gene  1 1 8 -0.9781066684054858 0 98.0 -0.9781066684054858 0
gene  1 3 8 -1.586094717356779 0 100.0 -1.586094717356779 1
gene  1 5 8 -3.724934609298109 0 102.0 -3.724934609298109 1
gene  1 6 8 -2.033502139551912 0 103.0 -2.033502139551912 1
gene  1 8 8 -4.072657949432261 1 105.0 -4.072657949432261 1
gene  1 1 9 5.184132076199919 0 112.0 5.184132076199919 1
gene  1 2 9 -0.41520255089277436 0 113.0 -0.41520255089277436 1
gene  1 3 9 5.185335180085282 0 114.0 5.185335180085282 1
gene  1 5 9 2.604605281037686 0 116.0 2.604605281037686 1
gene  1 7 9 -3.4023832394010833 0 118.0 -3.4023832394010833 1
gene  1 9 9 -0.5544071107603754 1 120.0 -0.5544071107603754 1
gene  1 10 9 6.09074895539791 1 121.0 6.09074895539791 1
gene  1 13 9 1.3769525769994684 1 124.0 1.3769525769994684 1
gene  1 2 10 -0.39629218834236035 0 127.0 -0.39629218834236035 1
gene  1 4 10 0.36987576336745387 0 129.0 0.36987576336745387 1
gene  1 5 10 -2.1959874504734644 0 130.0 -2.1959874504734644 1
gene  1 8 10 6.453516821259381 0 133.0 6.453516821259381 1
gene  1 9 10 1.8945479931951663 0 134.0 1.8945479931951663 1
gene  1 10 10 8.744570798294522 1 135.0 8.744570798294522 1
gene  1 13 10 3.243587520474497 1 138.0 3.243587520474497 1
gene  1 14 10 2.3113689031315836 1 139.0 2.3113689031315836 1
gene  1 2 13 0.2129511568246758 0 169.0 0.2129511568246758 1
gene  1 3 13 -1.7476322792275782 0 170.0 -1.7476322792275782 1
gene  1 6 13 4.4069087590191 0 173.0 4.4069087590191 1
gene  1 7 13 6.22471524817684 0 174.0 6.22471524817684 1
gene  1 9 13 1.9064174062017412 0 176.0 1.9064174062017412 1
gene  1 13 13 2.461698320285693 1 180.0 2.461698320285693 1
gene  1 14 13 -2.0128908460210213 1 181.0 -2.0128908460210213 1
gene  1 1 14 -0.7641824437338118 0 182.0 -0.7641824437338118 1
gene  1 3 14 -2.2575954251115586 0 184.0 -2.2575954251115586 1
gene  1 9 14 -0.6744584405399461 0 190.0 -0.6744584405399461 1
gene  1 10 14 -2.4265023265918577 0 191.0 -2.4265023265918577 1
gene  1 1 21 1.0 0 218.0 0.0 1
gene  1 21 8 -0.9781066684054858 0 219.0 0.0 1
gene  1 3 10 9.801656111511315 0 223.0 9.801656111511315 1
genomeend 10
genomestart  11
trait 1 0.0 0.0 0.0 0.0 0.0 0.0 0.0 0.0 
node 1 1 1 1
node 2 1 1 1
node 3 1 1 1
node 4 1 1 1
node 5 1 1 1
node 6 1 1 1
node 7 1 1 3
node 8 1 0 0
node 9 1 0 0
node 10 1 0 0
node 13 1 0 2
node 14 1 0 2
node 21 1 0 0
gene  1 1 8 0.7259453012349577 0 98.0 0.7259453012349577 0
gene  1 3 8 -3.079563848552152 0 100.0 -3.079563848552152 1
gene  1 5 8 -5.938722688183741 0 102.0 -5.938722688183741 1
gene  1 6 8 -4.045329882734105 0 103.0 -4.045329882734105 1
gene  1 8 8 -6.367133574721114 1 105.0 -6.367133574721114 1
gene  1 1 9 2.848449766417537 0 112.0 2.848449766417537 1
gene  1 2 9 -2.0594980604002204 0 113.0 -2.0594980604002204 1
gene  1 3 9 6.970970557522163 0 114.0 6.970970557522163 1
gene  1 5 9 0.8566618673517694 0 116.0 0.8566618673517694 1
gene  1 7 9 -4.016508289491777 0 118.0 -4.016508289491777 1
gene  1 9 9 1.5318696550583826 1 120.0 1.5318696550583826 1
gene  1 10 9 8.375823564470316 1 121.0 8.375823564470316 1
gene  1 13 9 0.8275021980309755 1 124.0 0.8275021980309755 1
gene  1 2 10 0.8019551693578512 0 127.0 0.8019551693578512 1
gene  1 4 10 -1.5667077970694414 0 129.0 -1.5667077970694414 1
gene  1 5 10 -3.9497140016514187 0 130.0 -3.9497140016514187 1
gene  1 8 10 6.002983512040327 0 133.0 6.002983512040327 1
gene  1 9 10 3.519225807031978 0 134.0 3.519225807031978 1
gene  1 10 10 8.171914002516294 1 135.0 8.171914002516294 1
gene  1 13 10 4.605838838524481 1 138.0 4.605838838524481 1
gene  1 14 10 0.029483668519609374 1 139.0 0.029483668519609374 1
gene  1 2 13 1.0971577860016715 0 169.0 1.0971577860016715 1
gene  1 3 13 -0.8694945667332827 0 170.0 -0.8694945667332827 1
gene  1 6 13 4.347113991910771 0 173.0 4.347113991910771 1
gene  1 7 13 8.471495038382184 0 174.0 8.471495038382184 1
gene  1 9 13 0.8857477991382652 0 176.0 0.8857477991382652 1
gene  1 13 13 0.5587797344554799 1 180.0 0.5587797344554799 1
gene  1 14 13 -2.038372770617424 1 181.0 -2.038372770617424 1
gene  1 1 14 -0.7641824437338118 0 182.0 -0.7641824437338118 1
gene  1 3 14 -2.2575954251115586 0 184.0 -2.2575954251115586 1
gene  1 9 14 -1.9489645294368991 0 190.0 -1.9489645294368991 1
gene  1 10 14 -4.401122373221455 0 191.0 -4.401122373221455 1
gene  1 1 21 1.340273685055523 0 218.0 1.340273685055523 1
gene  1 21 8 -0.9781066684054858 0 219.0 -0.9781066684054858 1
genomeend 11
genomestart  12
trait 1 0.0 0.0 0.0 0.0 0.0 0.0 0.0 0.0 
node 1 1 1 1
node 2 1 1 1
node 3 1 1 1
node 4 1 1 1
node 5 1 1 1
node 6 1 1 1
node 7 1 1 3
node 13 1 0 2
node 14 1 0 2
gene  1 1 13 7.093704653965248 0 168.0 7.093704653965248 1
gene  1 2 13 -1.3191958236944217 0 169.0 -1.3191958236944217 1
gene  1 3 13 -3.0718078736519594 0 170.0 -3.0718078736519594 1
gene  1 4 13 -0.4195616744252646 0 171.0 -0.4195616744252646 1
gene  1 5 13 -0.8591269328108693 0 172.0 -0.8591269328108693 1
gene  1 6 13 8.297952372213718 0 173.0 8.297952372213718 1
gene  1 7 13 2.7358803723256955 0 174.0 2.7358803723256955 1
gene  1 14 13 5.506271678880648 1 181.0 5.506271678880648 1
gene  1 1 14 1.8259221201898779 0 182.0 1.8259221201898779 1
gene  1 2 14 -3.503290611213831 0 183.0 -3.503290611213831 1
gene  1 3 14 0.32735909312606726 0 184.0 0.32735909312606726 1
gene  1 13 14 0.7391929980400617 0 194.0 0.7391929980400617 1
gene  1 14 14 0.6623859912843716 1 195.0 0.6623859912843716 1
genomeend 12
genomestart  13
trait 1 0.0 0.0 0.0 0.0 0.0 0.0 0.0 0.0 
node 1 1 1 1
node 2 1 1 1
node 3 1 1 1
node 4 1 1 1
node 5 1 1 1
node 6 1 1 1
node 7 1 1 3
node 13 1 0 2
node 14 1 0 2
gene  1 1 13 5.593240172848455 0 168.0 5.593240172848455 1
gene  1 2 13 -0.8170502663970669 0 169.0 -0.8170502663970669 1
gene  1 3 13 -2.6181102281210644 0 170.0 -2.6181102281210644 1
gene  1 4 13 -2.3148023260916464 0 171.0 -2.3148023260916464 1
gene  1 5 13 -1.3774948283182922 0 172.0 -1.3774948283182922 1
gene  1 6 13 4.160224054299391 0 173.0 4.160224054299391 1
gene  1 7 13 5.522332855632059 0 174.0 5.522332855632059 1
gene  1 14 13 6.668427525366829 1 181.0 6.668427525366829 1
gene  1 1 14 1.2685627839116287 0 182.0 1.2685627839116287 1
gene  1 2 14 -5.435499147074752 0 183.0 -5.435499147074752 1
gene  1 3 14 -0.6802884832781866 0 184.0 -0.6802884832781866 1
gene  1 13 14 -1.502370867207308 0 194.0 -1.502370867207308 1
gene  1 14 14 0.10766121788923555 1 195.0 0.10766121788923555 1
genomeend 13
genomestart  14
trait 1 0.0 0.0 0.0 0.0 0.0 0.0 0.0 0.0 
node 1 1 1 1
node 2 1 1 1
node 3 1 1 1
node 4 1 1 1
node 5 1 1 1
node 6 1 1 1
node 7 1 1 3
node 8 1 0 0
node 13 1 0 2
node 14 1 0 2
gene  1 4 8 2.199627029287666 0 101.0 2.199627029287666 1
gene  1 5 8 -1.755606263551797 0 102.0 -1.755606263551797 1
gene  1 6 8 0.9842939855183553 0 103.0 0.9842939855183553 1
gene  1 14 8 -0.8664821848263335 1 111.0 -0.8664821848263335 1
gene  1 1 13 0.3759727750071411 0 168.0 0.3759727750071411 1
gene  1 2 13 -3.751719007331217 0 169.0 -3.751719007331217 1
gene  1 3 13 -3.0860483402264096 0 170.0 -3.0860483402264096 1
gene  1 5 13 -2.3239260862378965 0 172.0 -2.3239260862378965 1
gene  1 7 13 3.788972481266465 0 174.0 3.788972481266465 1
gene  1 14 13 -1.8784001734249933 1 181.0 -1.8784001734249933 1
gene  1 1 14 1.9520078577026 0 182.0 1.9520078577026 1
gene  1 2 14 2.189702909912519 0 183.0 2.189702909912519 1
gene  1 3 14 -1.58734984463574 0 184.0 -1.58734984463574 1
gene  1 4 14 -2.702994647196463 0 185.0 -2.702994647196463 1
gene  1 8 14 1.8307506669065443 0 189.0 1.8307506669065443 1
gene  1 14 14 -3.878029089492425 1 195.0 -3.878029089492425 1
genomeend 14
genomestart  15
trait 1 0.0 0.0 0.0 0.0 0.0 0.0 0.0 0.0 
node 1 1 1 1
node 2 1 1 1
node 3 1 1 1
node 4 1 1 1
node 5 1 1 1
node 6 1 1 1
node 7 1 1 3
node 8 1 0 0
node 13 1 0 2
node 14 1 0 2
gene  1 4 8 -1.1735414069684342 0 101.0 -1.1735414069684342 1
gene  1 5 8 -3.424034197781176 0 102.0 -3.424034197781176 1
gene  1 6 8 3.30021790911505 0 103.0 3.30021790911505 1
gene  1 14 8 0.03051000777218671 1 111.0 0.03051000777218671 1
gene  1 1 13 1.7996385236482508 0 168.0 1.7996385236482508 1
gene  1 2 13 -3.7768929311984762 0 169.0 -3.7768929311984762 1
gene  1 3 13 -0.6938869090836466 0 170.0 -0.6938869090836466 1
gene  1 5 13 -2.9737106681990255 0 172.0 -2.9737106681990255 1
gene  1 7 13 0.21064462662583994 0 174.0 0.21064462662583994 1
gene  1 14 13 -3.404975193234119 1 181.0 -3.404975193234119 1
gene  1 1 14 1.883953660634369 0 182.0 1.883953660634369 1
gene  1 2 14 0.7641151006029823 0 183.0 0.7641151006029823 1
gene  1 3 14 -1.6902118428219066 0 184.0 -1.6902118428219066 1
gene  1 4 14 1.4958056555871775 0 185.0 1.4958056555871775 1
gene  1 8 14 2.022648999879861 0 189.0 2.022648999879861 1
gene  1 14 14 0.453705652424852 1 195.0 0.453705652424852 1
genomeend 15
genomestart  16
trait 1 0.0 0.0 0.0 0.0 0.0 0.0 0.0 0.0 
node 1 1 1 1
node 2 1 1 1
node 3 1 1 1
node 4 1 1 1
node 5 1 1 1
node 6 1 1 1
node 7 1 1 3
node 8 1 0 0
node 13 1 0 2
node 14 1 0 2
gene  1 4 8 -1.6299876544701477 0 101.0 -1.6299876544701477 1
gene  1 5 8 -1.178192376904617 0 102.0 -1.178192376904617 1
gene  1 6 8 0.13970067500372418 0 103.0 0.13970067500372418 1
gene  1 14 8 1.441141052456976 1 111.0 1.441141052456976 1
gene  1 1 13 2.1979153000298743 0 168.0 2.1979153000298743 1
gene  1 2 13 -1.6480194888784596 0 169.0 -1.6480194888784596 1
gene  1 3 13 -3.7566285422166503 0 170.0 -3.7566285422166503 1
gene  1 5 13 0.2863003557812721 0 172.0 0.2863003557812721 1
gene  1 7 13 0.476842076587074 0 174.0 0.476842076587074 1
gene  1 14 13 1.7592880354018317 1 181.0 1.7592880354018317 1
gene  1 1 14 -0.2981798368117876 0 182.0 -0.2981798368117876 1
gene  1 2 14 3.118383632973518 0 183.0 3.118383632973518 1
gene  1 3 14 -2.634954344456569 0 184.0 -2.634954344456569 1
gene  1 4 14 -1.3458778238286069 0 185.0 -1.3458778238286069 1
gene  1 8 14 4.070233803894209 0 189.0 4.070233803894209 1
gene  1 14 14 -5.027342467812425 1 195.0 -5.027342467812425 1
genomeend 16
genomestart  17
trait 1 0.0 0.5992908225359721 0.0 0.0 0.0 0.0 0.16709809669901776 0.0 
node 1 1 1 1
node 2 1 1 1
node 3 1 1 1
node 4 1 1 1
node 5 1 1 1
node 6 1 1 1
node 7 1 1 3
node 8 1 0 0
node 9 1 0 0
node 10 1 0 0
node 11 1 0 0
node 12 1 0 0
node 13 1 0 2
node 14 1 0 2
gene  1 1 8 -0.5715006761976276 0 98.0 -0.5715006761976276 1
gene  1 3 8 -1.1535778578632865 0 100.0 -1.1535778578632865 1
gene  1 4 8 0.17616927531062893 0 101.0 0.17616927531062893 1
gene  1 6 8 0.5611384888498716 0 103.0 0.5611384888498716 1
gene  1 8 8 -1.0093585351354746 1 105.0 -1.0093585351354746 1
gene  1 10 8 4.039323255512149 1 107.0 4.039323255512149 1
gene  1 3 9 -1.2098820523152092 0 114.0 -1.2098820523152092 1
gene  1 6 9 -2.817455984495755 0 117.0 -2.817455984495755 1
gene  1 8 9 -0.23965741483371739 0 119.0 -0.23965741483371739 1
gene  1 10 9 4.836384892614394 1 121.0 4.836384892614394 1
gene  1 11 9 3.616491440037371 1 122.0 3.616491440037371 1
gene  1 13 9 -1.8972054068052864 1 124.0 -1.8972054068052864 1
gene  1 14 9 -0.38341181144605696 1 125.0 -0.38341181144605696 1
gene  1 1 10 1.5897240397516388 0 126.0 1.5897240397516388 1
gene  1 3 10 -0.45458210635752483 0 128.0 -0.45458210635752483 1
gene  1 4 10 -2.063946419558959 0 129.0 -2.063946419558959 1
gene  1 5 10 1.8468269844211864 0 130.0 1.8468269844211864 1
gene  1 9 10 2.3241900971529845 0 134.0 2.3241900971529845 1
gene  1 13 10 0.4738491847369178 1 138.0 0.4738491847369178 1
gene  1 1 11 0.7078270275918923 0 140.0 0.7078270275918923 1
gene  1 3 11 -5.857967595044629 0 142.0 -5.857967595044629 1
gene  1 5 11 2.5743941642156973 0 144.0 2.5743941642156973 1
gene  1 9 11 1.5065244390155508 0 148.0 1.5065244390155508 1
gene  1 10 11 0.16790501311865635 0 149.0 0.16790501311865635 1
gene  1 12 11 5.021121526994293 1 151.0 5.021121526994293 1
gene  1 14 11 -1.6577708992848232 1 153.0 -1.6577708992848232 1
gene  1 2 12 3.6281594958985988 0 155.0 3.6281594958985988 1
gene  1 4 12 -0.8276433434389354 0 157.0 -0.8276433434389354 1
gene  1 6 12 -0.24692551933312434 0 159.0 -0.24692551933312434 1
gene  1 7 12 -2.572029469228772 0 160.0 -2.572029469228772 1
gene  1 9 12 -0.7360819566333967 0 162.0 -0.7360819566333967 1
gene  1 10 12 -3.5674175108918575 0 163.0 -3.5674175108918575 1
gene  1 12 12 0.2966794901370542 1 165.0 0.2966794901370542 1
gene  1 14 12 5.643006784698036 1 167.0 5.643006784698036 1
gene  1 1 13 3.805769275752005 0 168.0 3.805769275752005 1
gene  1 3 13 -0.27696111019875547 0 170.0 -0.27696111019875547 1
gene  1 4 13 -0.2996067908963047 0 171.0 -0.2996067908963047 1
gene  1 6 13 -0.5863936780307717 0 173.0 -0.5863936780307717 1
gene  1 8 13 -1.4550831904830095 0 175.0 -1.4550831904830095 1
gene  1 9 13 -0.4595439856429931 0 176.0 -0.4595439856429931 1
gene  1 8 14 -4.3190760528973104 0 189.0 -4.3190760528973104 1
gene  1 11 14 2.6861575085480833 0 192.0 2.6861575085480833 1
genomeend 17
genomestart  18
trait 1 0.0 0.5992908225359721 0.0 0.0 0.0 0.0 0.16709809669901776 0.0 
node 1 1 1 1
node 2 1 1 1
node 3 1 1 1
node 4 1 1 1
node 5 1 1 1
node 6 1 1 1
node 7 1 1 3
node 8 1 0 0
node 9 1 0 0
node 10 1 0 0
node 11 1 0 0
node 12 1 0 0
node 13 1 0 2
node 14 1 0 2
gene  1 1 8 0.6110765982082175 0 98.0 0.6110765982082175 1
gene  1 3 8 1.4559228453092934 0 100.0 1.4559228453092934 1
gene  1 4 8 -1.9570161223634415 0 101.0 -1.9570161223634415 1
gene  1 6 8 2.785984838978041 0 103.0 2.785984838978041 1
gene  1 8 8 -1.9920414622445133 1 105.0 -1.9920414622445133 1
gene  1 10 8 1.6934760839236258 1 107.0 1.6934760839236258 1
gene  1 3 9 -3.4965318048216867 0 114.0 -3.4965318048216867 1
gene  1 6 9 -3.434800963746537 0 117.0 -3.434800963746537 1
gene  1 8 9 -1.0338788436665702 0 119.0 -1.0338788436665702 1
gene  1 10 9 3.082801765183076 1 121.0 3.082801765183076 1
gene  1 11 9 5.481176826922611 1 122.0 5.481176826922611 1
gene  1 13 9 0.40510971710352256 1 124.0 0.40510971710352256 1
gene  1 14 9 -1.9390385934327024 1 125.0 -1.9390385934327024 1
gene  1 1 10 -0.75974447851586 0 126.0 -0.75974447851586 1
gene  1 3 10 1.6360272450471476 0 128.0 1.6360272450471476 1
gene  1 4 10 -3.6355348404349246 0 129.0 -3.6355348404349246 1
gene  1 5 10 -0.5333055691257643 0 130.0 -0.5333055691257643 1
gene  1 9 10 -0.39915058031493533 0 134.0 -0.39915058031493533 1
gene  1 13 10 0.4507705043427115 1 138.0 0.4507705043427115 1
gene  1 1 11 3.678043995539822 0 140.0 3.678043995539822 1
gene  1 3 11 -4.3353475261217795 0 142.0 -4.3353475261217795 1
gene  1 5 11 3.704243970941155 0 144.0 3.704243970941155 1
gene  1 9 11 -4.276553132460038 0 148.0 -4.276553132460038 1
gene  1 10 11 -1.9491253844374656 0 149.0 -1.9491253844374656 1
gene  1 12 11 1.4920258932847372 1 151.0 1.4920258932847372 1
gene  1 14 11 -4.876042742130604 1 153.0 -4.876042742130604 1
gene  1 2 12 -0.10642884089944932 0 155.0 -0.10642884089944932 1
gene  1 4 12 -3.3062605394204327 0 157.0 -3.3062605394204327 1
gene  1 6 12 -2.433254344796485 0 159.0 -2.433254344796485 1
gene  1 7 12 -0.7870279712419626 0 160.0 -0.7870279712419626 1
gene  1 9 12 5.867540259926013 0 162.0 5.867540259926013 1
gene  1 10 12 1.0153748137334209 0 163.0 1.0153748137334209 1
gene  1 12 12 3.384110721594304 1 165.0 3.384110721594304 1
gene  1 14 12 6.255113271277381 1 167.0 6.255113271277381 1
gene  1 1 13 7.634901407075325 0 168.0 7.634901407075325 1
gene  1 3 13 1.1274504544932769 0 170.0 1.1274504544932769 1
gene  1 4 13 1.0163049827518222 0 171.0 1.0163049827518222 1
gene  1 6 13 -1.5674691908046074 0 173.0 -1.5674691908046074 1
gene  1 8 13 -1.6050289752969886 0 175.0 -1.6050289752969886 1
gene  1 9 13 0.24318315321343936 0 176.0 0.24318315321343936 1
gene  1 8 14 -2.2693231702050727 0 189.0 -2.2693231702050727 1
gene  1 11 14 -1.569200273035688 0 192.0 -1.569200273035688 1
genomeend 18
genomestart  19
trait 1 0.0 1.1952821965254303 0.0 0.0 0.0 0.0 0.16709809669901776 0.0 
node 1 1 1 1
node 2 1 1 1
node 3 1 1 1
node 4 1 1 1
node 5 1 1 1
node 6 1 1 1
node 7 1 1 3
node 8 1 0 0
node 9 1 0 0
node 10 1 0 0
node 11 1 0 0
node 12 1 0 0
node 13 1 0 2
node 14 1 0 2
gene  1 1 8 -1.341980774814615 0 98.0 -1.341980774814615 1
gene  1 3 8 1.4907240266625894 0 100.0 1.4907240266625894 1
gene  1 4 8 -2.261269294477577 0 101.0 -2.261269294477577 1
gene  1 6 8 1.179378141191405 0 103.0 1.179378141191405 1
gene  1 8 8 -1.7849911660979192 1 105.0 -1.7849911660979192 1
gene  1 10 8 4.381427859809454 1 107.0 4.381427859809454 1
gene  1 3 9 1.0825980700236892 0 114.0 1.0825980700236892 1
gene  1 6 9 -2.617048834426544 0 117.0 -2.617048834426544 1
gene  1 8 9 -1.6525202553301463 0 119.0 -1.6525202553301463 1
gene  1 10 9 3.2153590885771295 1 121.0 3.2153590885771295 1
gene  1 11 9 5.491377385450929 1 122.0 5.491377385450929 1
gene  1 13 9 2.6852275798630996 1 124.0 2.6852275798630996 1
gene  1 14 9 -1.0441198797750382 1 125.0 -1.0441198797750382 1
gene  1 1 10 4.777203664043288 0 126.0 4.777203664043288 1
gene  1 3 10 2.7103101290916394 0 128.0 2.7103101290916394 1
gene  1 4 10 -5.488190089022818 0 129.0 -5.488190089022818 1
gene  1 5 10 1.6520005648671843 0 130.0 1.6520005648671843 1
gene  1 9 10 0.5856535206778664 0 134.0 0.5856535206778664 1
gene  1 13 10 0.711792608902547 1 138.0 0.711792608902547 1
gene  1 1 11 1.3116692074361267 0 140.0 1.3116692074361267 1
gene  1 3 11 -4.996605309661796 0 142.0 -4.996605309661796 1
gene  1 5 11 1.0722942944467553 0 144.0 1.0722942944467553 1
gene  1 9 11 -3.5104714232743555 0 148.0 -3.5104714232743555 1
gene  1 10 11 -3.816163854091689 0 149.0 -3.816163854091689 1
gene  1 12 11 1.8489979555036005 1 151.0 1.8489979555036005 1
gene  1 14 11 -3.0879530236508677 1 153.0 -3.0879530236508677 1
gene  1 2 12 3.6836744243053836 0 155.0 3.6836744243053836 1
gene  1 4 12 1.473119113382846 0 157.0 1.473119113382846 1
gene  1 6 12 -1.3850810317263915 0 159.0 -1.3850810317263915 1
gene  1 7 12 -4.212764052822325 0 160.0 -4.212764052822325 1
gene  1 9 12 4.780050532510871 0 162.0 4.780050532510871 1
gene  1 10 12 -0.6855275651310782 0 163.0 -0.6855275651310782 1
gene  1 12 12 2.8598396281540435 1 165.0 2.8598396281540435 1
gene  1 14 12 5.406398737276043 1 167.0 5.406398737276043 1
gene  1 1 13 5.683703070068947 0 168.0 5.683703070068947 1
gene  1 3 13 -1.4864540498443046 0 170.0 -1.4864540498443046 1
gene  1 4 13 -0.33289088472446116 0 171.0 -0.33289088472446116 1
gene  1 6 13 1.5462972927263516 0 173.0 1.5462972927263516 1
gene  1 8 13 -2.7925848387855066 0 175.0 -2.7925848387855066 1
gene  1 9 13 -1.5694022962518688 0 176.0 -1.5694022962518688 1
gene  1 8 14 -2.6881119543503296 0 189.0 -2.6881119543503296 1
gene  1 11 14 3.24300860805446 0 192.0 3.24300860805446 1
genomeend 19
