genomestart  0
trait 1 0.0 0.29964541126798605 0.0 0.5917793035862625 0.0 0.5239379551513967 0.8464040429162474 0.9121227953336634 
node 1 1 1 1
node 2 1 1 1
node 3 1 1 1
node 4 1 1 1
node 5 1 1 1
node 6 1 1 1
node 7 1 1 3
node 13 1 0 2
node 14 1 0 2
node 19 1 0 0
node 33 1 0 0
node 41 1 0 0
node 45 1 0 0
gene  1 1 13 -0.5069363651963934 0 168.0 -0.5069363651963934 1
gene  1 3 13 -0.5214867716000864 0 170.0 -0.5214867716000864 1
gene  1 5 13 3.142454182675841 0 172.0 3.142454182675841 1
gene  1 6 13 0.46516724338318854 0 173.0 0.46516724338318854 1
gene  1 14 13 1.4409903892981233 1 181.0 1.4409903892981233 1
gene  1 1 14 8.57076139751759 0 182.0 8.57076139751759 1
gene  1 2 14 -3.181786778252328 0 183.0 -3.181786778252328 1
gene  1 4 14 -0.0031757137321214435 0 185.0 -0.0031757137321214435 1
gene  1 5 14 -1.3276615147667936 0 186.0 -1.3276615147667936 1
gene  1 6 14 -4.8150083624310795 0 187.0 -4.8150083624310795 1
gene  1 7 14 4.31744219705905 0 188.0 4.31744219705905 1
gene  1 13 14 -2.854047490040977 0 194.0 -2.854047490040977 1
gene  1 14 14 -5.175912861607777 1 195.0 -5.175912861607777 1
gene  1 5 19 -0.5475789184655246 0 213.0 -0.5475789184655246 1
gene  1 19 13 -5.064792762529471 0 214.0 -5.064792762529471 1
gene  1 2 13 4.2873950589220895 0 243.0 4.2873950589220895 1
gene  1 6 19 4.641679911742548 0 257.0 4.641679911742548 1
gene  1 19 14 0.39205696257116324 0 267.0 0.39205696257116324 1
gene  1 14 33 -2.2020931942214994 1 268.0 -2.2020931942214994 1
gene  1 33 14 -2.106119172324109 0 269.0 -2.106119172324109 1
gene  1 4 13 -3.8502989649096815 0 292.0 -3.8502989649096815 1
gene  1 14 41 0.45253548403139526 1 315.0 0.45253548403139526 1
gene  1 41 13 0.7316193852625181 0 316.0 0.7316193852625181 1
gene  1 5 45 -1.6843620837946913 0 338.0 -1.6843620837946913 1
gene  1 45 14 1.2922582363438095 0 339.0 1.2922582363438095 1
genomeend 0
genomestart  1
trait 1 0.0 0.29964541126798605 0.0 0.5917793035862625 0.0 0.5239379551513967 0.08354904834950888 0.0 
node 1 1 1 1
node 2 1 1 1
node 3 1 1 1
node 4 1 1 1
node 5 1 1 1
node 6 1 1 1
node 7 1 1 3
node 13 1 0 2
node 14 1 0 2
node 19 1 0 0
node 33 1 0 0
node 41 1 0 0
node 45 1 0 0
gene  1 1 13 0.8137944195589142 0 168.0 0.8137944195589142 1
gene  1 3 13 0.7086327189049171 0 170.0 0.7086327189049171 1
gene  1 5 13 0.5169998901707715 0 172.0 0.5169998901707715 1
gene  1 6 13 -1.1855793931753165 0 173.0 -1.1855793931753165 1
gene  1 14 13 -6.5004881679128435 1 181.0 -6.5004881679128435 1
gene  1 1 14 1.3535826199141678 0 182.0 1.3535826199141678 1
gene  1 2 14 -2.3710089450016327 0 183.0 -2.3710089450016327 1
gene  1 4 14 1.1224819254566607 0 185.0 1.1224819254566607 1
gene  1 5 14 -1.80758219705648 0 186.0 -1.80758219705648 1
gene  1 6 14 -1.954554981148109 0 187.0 -1.954554981148109 1
gene  1 7 14 5.817181964524239 0 188.0 5.817181964524239 1
gene  1 13 14 -0.41340618461575246 0 194.0 -0.41340618461575246 1
gene  1 14 14 -5.035753702644554 1 195.0 -5.035753702644554 1
gene  1 5 19 -3.5094282316569974 0 213.0 -3.5094282316569974 1
gene  1 19 13 -1.6045293213235188 0 214.0 -1.6045293213235188 1
gene  1 2 13 7.0466794532384025 0 243.0 7.0466794532384025 1
gene  1 6 19 5.642996247757891 0 257.0 5.642996247757891 1
gene  1 19 14 0.7345110402618433 0 267.0 0.7345110402618433 1
gene  1 14 33 -0.5099417975320892 1 268.0 -0.5099417975320892 1
gene  1 33 14 -1.1675836802118347 0 269.0 -1.1675836802118347 1
gene  1 4 13 -8.19885506366333 0 292.0 -8.19885506366333 1
gene  1 14 41 -1.5125042282744794 1 315.0 -1.5125042282744794 1
gene  1 41 13 0.5322780585887967 0 316.0 0.5322780585887967 1
gene  1 5 45 2.2030481479996533 0 338.0 2.2030481479996533 1
gene  1 45 14 0.09279899704005035 0 339.0 0.09279899704005035 1
genomeend 1
genomestart  2
trait 1 0.6253688324983003 1.2858127313064698 0.35392091268841774 0.0 0.0 0.0 0.0 1.4862559215822198 
node 1 1 1 1
node 2 1 1 1
node 3 1 1 1
node 4 1 1 1
node 5 1 1 1
node 6 1 1 1
node 7 1 1 3
node 13 1 0 2
node 14 1 0 2
node 24 1 0 0
node 36 1 0 0
gene  1 2 13 -2.4299312087828713 0 169.0 -2.4299312087828713 1
gene  1 3 13 -1.3240370029093984 0 170.0 -1.3240370029093984 1
gene  1 4 13 3.2633826786530733 0 171.0 3.2633826786530733 1
gene  1 6 13 -5.82682986070837 0 173.0 -5.82682986070837 1
gene  1 7 13 -0.4553618844236937 0 174.0 -0.4553618844236937 1
gene  1 13 13 -1.1256451656279811 1 180.0 -1.1256451656279811 1
gene  1 1 14 1.3292150316424571 0 182.0 1.3292150316424571 1
gene  1 2 14 -1.992575591848619 0 183.0 -1.992575591848619 1
gene  1 5 14 3.890212427815242 0 186.0 3.890212427815242 1
gene  1 6 14 3.792263351805751 0 187.0 3.792263351805751 1
gene  1 7 14 -3.457111973583873 0 188.0 -3.457111973583873 1
gene  1 13 14 -7.8052240296943065 0 194.0 -7.8052240296943065 1
gene  1 14 14 -2.26131612800502 1 195.0 -2.26131612800502 1
gene  1 2 24 -8.978189824834123 0 226.0 -8.978189824834123 1
gene  1 24 13 3.473263771262199 0 227.0 3.473263771262199 1
gene  1 7 24 6.446781795521735 0 245.0 6.446781795521735 1
gene  1 1 24 -5.525238539746466 0 249.0 -5.525238539746466 1
gene  1 4 14 -6.730243393128029 0 280.0 -6.730243393128029 1
gene  1 4 36 0.8854408413053583 0 293.0 0.8854408413053583 1
gene  1 36 14 0.3217460232655306 0 294.0 0.3217460232655306 1
gene  1 7 36 3.4640579878176667 0 301.0 3.4640579878176667 1
gene  1 3 36 -0.08219410629606583 0 313.0 -0.08219410629606583 1
gene  1 24 36 -0.2901153672830617 0 345.0 -0.2901153672830617 1
genomeend 2
genomestart  3
trait 1 0.3173450118097796 1.2858127313064698 0.35392091268841774 0.0 0.0 0.0 0.0 1.4862559215822198 
node 1 1 1 1
node 2 1 1 1
node 3 1 1 1
node 4 1 1 1
node 5 1 1 1
node 6 1 1 1
node 7 1 1 3
node 13 1 0 2
node 14 1 0 2
node 24 1 0 0
node 36 1 0 0
gene  1 2 13 -0.40121448157485207 0 169.0 -0.40121448157485207 1
gene  1 3 13 -1.9121314406405687 0 170.0 -1.9121314406405687 1
gene  1 4 13 5.483000709719753 0 171.0 5.483000709719753 1
gene  1 6 13 -5.917606534175247 0 173.0 -5.917606534175247 1
gene  1 7 13 -3.4627170673860306 0 174.0 -3.4627170673860306 1
gene  1 13 13 -1.9783591214279193 1 180.0 -1.9783591214279193 1
gene  1 1 14 -0.8837994273924432 0 182.0 -0.8837994273924432 1
gene  1 2 14 -1.489717599434384 0 183.0 -1.489717599434384 1
gene  1 5 14 6.455602083200411 0 186.0 6.455602083200411 1
gene  1 6 14 2.3508217965428058 0 187.0 2.3508217965428058 1
gene  1 7 14 -2.436467142232455 0 188.0 -2.436467142232455 1
gene  1 13 14 -3.941010839318633 0 194.0 -3.941010839318633 1
gene  1 14 14 -3.5648224848331886 1 195.0 -3.5648224848331886 1
gene  1 2 24 -8.839173427745338 0 226.0 -8.839173427745338 1
gene  1 24 13 5.226230737825899 0 227.0 5.226230737825899 1
gene  1 7 24 8.569098317717248 0 245.0 8.569098317717248 1
gene  1 1 24 -5.366427553225085 0 249.0 -5.366427553225085 1
gene  1 4 14 -7.898326543335938 0 280.0 -7.898326543335938 1
gene  1 4 36 -2.434939809145954 0 293.0 -2.434939809145954 1
gene  1 36 14 -4.249838056922595 0 294.0 -4.249838056922595 1
gene  1 7 36 1.9297150676187613 0 301.0 1.9297150676187613 1
gene  1 3 36 1.6270767178082601 0 313.0 1.6270767178082601 1
gene  1 24 36 -7.599060535247914 0 345.0 -7.599060535247914 1
genomeend 3
genomestart  4
trait 1 0.6253688324983003 1.2858127313064698 0.35392091268841774 0.0 0.0 0.0 0.0 1.4862559215822198 
node 1 1 1 1
node 2 1 1 1
node 3 1 1 1
node 4 1 1 1
node 5 1 1 1
node 6 1 1 1
node 7 1 1 3
node 13 1 0 2
node 14 1 0 2
node 24 1 0 0
node 36 1 0 0
gene  1 2 13 -1.4163216587200425 0 169.0 -1.4163216587200425 1
gene  1 3 13 0.24648652320406728 0 170.0 0.24648652320406728 1
gene  1 4 13 2.2627067303133 0 171.0 2.2627067303133 1
gene  1 6 13 -5.141139306169673 0 173.0 -5.141139306169673 1
gene  1 7 13 -1.675864963657731 0 174.0 -1.675864963657731 1
gene  1 13 13 -2.415060229606973 1 180.0 -2.415060229606973 1
gene  1 1 14 -2.1111520019643653 0 182.0 -2.1111520019643653 1
gene  1 2 14 -2.0351672141986037 0 183.0 -2.0351672141986037 1
gene  1 5 14 6.604145542317659 0 186.0 6.604145542317659 1
gene  1 6 14 0.48050628712981736 0 187.0 0.48050628712981736 1
gene  1 7 14 -3.9086651140114426 0 188.0 -3.9086651140114426 1
gene  1 13 14 -6.651747815361526 0 194.0 -6.651747815361526 1
gene  1 14 14 -3.4758712476933464 1 195.0 -3.4758712476933464 1
gene  1 2 24 -7.380122527940124 0 226.0 -7.380122527940124 1
gene  1 24 13 5.403530516265221 0 227.0 5.403530516265221 1
gene  1 7 24 8.061679658987487 0 245.0 8.061679658987487 1
gene  1 1 24 -3.0812652685632176 0 249.0 -3.0812652685632176 1
gene  1 4 14 -5.62975080667893 0 280.0 -5.62975080667893 1
gene  1 4 36 -3.866576936659872 0 293.0 -3.866576936659872 1
gene  1 36 14 -4.249838056922595 0 294.0 -4.249838056922595 1
gene  1 7 36 1.5036785768562178 0 301.0 1.5036785768562178 1
gene  1 3 36 -0.14367818921100572 0 313.0 -0.14367818921100572 1
gene  1 24 36 -1.0554551381801218 0 345.0 -1.0554551381801218 1
genomeend 4
genomestart  5
trait 1 0.5881716647646825 0.21357948226159307 1.8564835101802153 0.8861824623786819 0.0 1.3132693424315245 1.6423806715703035 0.004307252023895924 
node 1 1 1 1
node 2 1 1 1
node 3 1 1 1
node 4 1 1 1
node 5 1 1 1
node 6 1 1 1
node 7 1 1 3
node 8 1 0 0
node 9 1 0 0
node 10 1 0 0
node 11 1 0 0
node 13 1 0 2
node 14 1 0 2
gene  1 2 8 4.325238727573522 0 99.0 4.325238727573522 1
gene  1 6 8 2.8403580390463006 0 103.0 2.8403580390463006 1
gene  1 8 8 -1.2742955956165605 1 105.0 -1.2742955956165605 1
gene  1 9 8 -3.0272865775905635 1 106.0 -3.0272865775905635 1
gene  1 10 8 -14.77585184971272 1 107.0 -14.77585184971272 1
gene  1 11 8 2.038156431998889 1 108.0 2.038156431998889 1
gene  1 13 8 -1.385540792570798 1 110.0 -1.385540792570798 1
gene  1 14 8 -3.1333376021438766 1 111.0 -3.1333376021438766 1
gene  1 1 9 1.265210148899198 0 112.0 1.265210148899198 1
gene  1 2 9 -2.6741746485326754 0 113.0 -2.6741746485326754 1
gene  1 3 9 -1.9900899340240854 0 114.0 -1.9900899340240854 1
gene  1 6 9 -3.9329157272986817 0 117.0 -3.9329157272986817 1
gene  1 7 9 2.5702900963952304 0 118.0 2.5702900963952304 1
gene  1 8 9 4.360530109265211 0 119.0 4.360530109265211 1
gene  1 9 9 -1.9874089387151717 1 120.0 -1.9874089387151717 1
gene  1 11 9 -7.96983609442043 1 122.0 -7.96983609442043 1
gene  1 13 9 4.960625056984853 1 124.0 4.960625056984853 1
gene  1 14 9 1.1788229670418042 1 125.0 1.1788229670418042 1
gene  1 1 10 0.6878348399109897 0 126.0 0.6878348399109897 1
gene  1 3 10 -4.12482453863471 0 128.0 -4.12482453863471 1
gene  1 4 10 1.9641625477290992 0 129.0 1.9641625477290992 1
gene  1 5 10 0.22192407016824411 0 130.0 0.22192407016824411 1
gene  1 6 10 -4.470079860883176 0 131.0 -4.470079860883176 1
gene  1 10 10 -3.578252982953051 1 135.0 -3.578252982953051 1
gene  1 11 10 -4.34961843545395 1 136.0 -4.34961843545395 1
gene  1 14 10 -1.4115475388302547 1 139.0 -1.4115475388302547 1
gene  1 1 11 -2.851566410930401 0 140.0 -2.851566410930401 1
gene  1 3 11 3.6896079533612096 0 142.0 3.6896079533612096 1
gene  1 5 11 -6.489794682033157 0 144.0 -6.489794682033157 1
gene  1 6 11 -2.0822187962076613 0 145.0 -2.0822187962076613 1
gene  1 7 11 -6.8328707095050625 0 146.0 -6.8328707095050625 1
gene  1 8 11 1.8563119694431718 0 147.0 1.8563119694431718 1
gene  1 9 11 2.1374526998594927 0 148.0 2.1374526998594927 1
gene  1 10 11 -1.6415635679723901 0 149.0 -1.6415635679723901 1
gene  1 11 11 -9.194231532237378 1 150.0 -9.194231532237378 1
gene  1 1 13 3.2118228804681777 0 168.0 3.2118228804681777 1
gene  1 2 13 5.082453830684375 0 169.0 5.082453830684375 1
gene  1 3 13 -1.6851770115321831 0 170.0 -1.6851770115321831 1
gene  1 7 13 0.12826976474097573 0 174.0 0.12826976474097573 1
gene  1 11 13 -0.7680018857512612 0 178.0 -0.7680018857512612 1
gene  1 13 13 -4.566879575351709 1 180.0 -4.566879575351709 1
gene  1 2 14 0.16399925062223097 0 183.0 0.16399925062223097 1
gene  1 3 14 -6.798447058057903 0 184.0 -6.798447058057903 1
gene  1 4 14 0.6036381078644647 0 185.0 0.6036381078644647 1
gene  1 7 14 -2.534284275963139 0 188.0 -2.534284275963139 1
gene  1 8 14 3.3396312750433435 0 189.0 3.3396312750433435 1
gene  1 10 14 2.5012112931582733 0 191.0 2.5012112931582733 1
gene  1 13 14 1.6171179810539174 0 194.0 1.6171179810539174 1
gene  1 5 13 -1.568122411562732 0 198.0 -1.568122411562732 1
gene  1 4 9 0.045517267414938445 0 200.0 0.045517267414938445 1
gene  1 8 13 -1.0676023194457394 0 248.0 -1.0676023194457394 1
gene  1 7 10 -1.9417347222547765 0 270.0 -1.9417347222547765 1
gene  1 9 10 -2.330418769245357 0 274.0 -2.330418769245357 1
gene  1 9 13 0.2905211180062248 0 288.0 0.2905211180062248 1
gene  1 5 14 1.1859837107794289 0 328.0 1.1859837107794289 1
genomeend 5
genomestart  6
trait 1 0.5881716647646825 0.21357948226159307 1.8564835101802153 0.8861824623786819 0.0 1.3132693424315245 1.6423806715703035 0.004307252023895924 
node 1 1 1 1
node 2 1 1 1
node 3 1 1 1
node 4 1 1 1
node 5 1 1 1
node 6 1 1 1
node 7 1 1 3
node 8 1 0 0
node 9 1 0 0
node 10 1 0 0
node 11 1 0 0
node 13 1 0 2
node 14 1 0 2
gene  1 2 8 1.8624222984639283 0 99.0 1.8624222984639283 1
gene  1 6 8 2.322351054250059 0 103.0 2.322351054250059 1
gene  1 8 8 0.5676528244406917 1 105.0 0.5676528244406917 1
gene  1 9 8 -1.838233924735341 1 106.0 -1.838233924735341 1
gene  1 10 8 -13.951437682686871 1 107.0 -13.951437682686871 1
gene  1 11 8 1.6094248200287329 1 108.0 1.6094248200287329 1
gene  1 13 8 -3.0433249653332166 1 110.0 -3.0433249653332166 1
gene  1 14 8 -2.8719015465501005 1 111.0 -2.8719015465501005 1
gene  1 1 9 2.1411214843750077 0 112.0 2.1411214843750077 1
gene  1 2 9 -0.5542142262986836 0 113.0 -0.5542142262986836 1
gene  1 3 9 -0.2861471373863042 0 114.0 -0.2861471373863042 1
gene  1 6 9 -2.0004775586237225 0 117.0 -2.0004775586237225 1
gene  1 7 9 1.3332012519050362 0 118.0 1.3332012519050362 1
gene  1 8 9 5.39784582352028 0 119.0 5.39784582352028 1
gene  1 9 9 -0.039213368457953535 1 120.0 -0.039213368457953535 1
gene  1 11 9 -8.044732140540752 1 122.0 -8.044732140540752 1
gene  1 13 9 3.633845498166339 1 124.0 3.633845498166339 1
gene  1 14 9 2.080837831139452 1 125.0 2.080837831139452 1
gene  1 1 10 0.7313954956841544 0 126.0 0.7313954956841544 1
gene  1 3 10 -3.2039516392754903 0 128.0 -3.2039516392754903 1
gene  1 4 10 0.48783664085436856 0 129.0 0.48783664085436856 1
gene  1 5 10 -0.5811834216280982 0 130.0 -0.5811834216280982 1
gene  1 6 10 -3.3879032875308077 0 131.0 -3.3879032875308077 1
gene  1 10 10 -1.9050404969042982 1 135.0 -1.9050404969042982 1
gene  1 11 10 -2.0622555927040658 1 136.0 -2.0622555927040658 1
gene  1 14 10 -3.8199739124116006 1 139.0 -3.8199739124116006 1
gene  1 1 11 -3.1044422295479857 0 140.0 -3.1044422295479857 1
gene  1 3 11 2.504814877090509 0 142.0 2.504814877090509 1
gene  1 5 11 -5.048015614718606 0 144.0 -5.048015614718606 1
gene  1 6 11 -3.300405721477629 0 145.0 -3.300405721477629 1
gene  1 7 11 -6.770178004377635 0 146.0 -6.770178004377635 1
gene  1 8 11 3.6516925472480724 0 147.0 3.6516925472480724 1
gene  1 9 11 2.4241227321821786 0 148.0 2.4241227321821786 1
gene  1 10 11 0.8487863519612628 0 149.0 0.8487863519612628 1
gene  1 11 11 -8.108940074682865 1 150.0 -8.108940074682865 1
gene  1 1 13 0.772808653510145 0 168.0 0.772808653510145 1
gene  1 2 13 4.278795821873111 0 169.0 4.278795821873111 1
gene  1 3 13 -2.0667823188938224 0 170.0 -2.0667823188938224 1
gene  1 7 13 0.43595563360309053 0 174.0 0.43595563360309053 1
gene  1 11 13 1.207120908199331 0 178.0 1.207120908199331 1
gene  1 13 13 -2.17689778636903 1 180.0 -2.17689778636903 1
gene  1 2 14 -1.4824600596353052 0 183.0 -1.4824600596353052 1
gene  1 3 14 -4.991225743119265 0 184.0 -4.991225743119265 1
gene  1 4 14 -0.8583389821389548 0 185.0 -0.8583389821389548 1
gene  1 7 14 -0.39148779365198494 0 188.0 -0.39148779365198494 1
gene  1 8 14 1.1899139132717247 0 189.0 1.1899139132717247 1
gene  1 10 14 1.3853593559982296 0 191.0 1.3853593559982296 1
gene  1 13 14 1.6171179810539174 0 194.0 1.6171179810539174 1
gene  1 5 13 -0.05330855291247083 0 198.0 -0.05330855291247083 1
gene  1 4 9 -2.4203884961212956 0 200.0 -2.4203884961212956 1
gene  1 8 13 -2.7550592546627732 0 248.0 -2.7550592546627732 1
gene  1 7 10 -1.9417347222547765 0 270.0 -1.9417347222547765 1
gene  1 9 10 -2.330418769245357 0 274.0 -2.330418769245357 1
gene  1 9 13 2.3000741560245657 0 288.0 2.3000741560245657 1
gene  1 5 14 -1.0138634443582304 0 328.0 -1.0138634443582304 1
genomeend 6
genomestart  7
trait 1 0.5881716647646825 0.21357948226159307 1.8564835101802153 0.8861824623786819 0.0 1.3132693424315245 1.6423806715703035 0.004307252023895924 
node 1 1 1 1
node 2 1 1 1
node 3 1 1 1
node 4 1 1 1
node 5 1 1 1
node 6 1 1 1
node 7 1 1 3
node 8 1 0 0
node 9 1 0 0
node 10 1 0 0
node 11 1 0 0
node 13 1 0 2
node 14 1 0 2
gene  1 2 8 1.5206217043291121 0 99.0 1.5206217043291121 1
gene  1 6 8 1.6487406288854678 0 103.0 1.6487406288854678 1
gene  1 8 8 -0.17980919626827663 1 105.0 -0.17980919626827663 1
gene  1 9 8 -3.871899632913347 1 106.0 -3.871899632913347 1
gene  1 10 8 -11.691774528878955 1 107.0 -11.691774528878955 1
gene  1 11 8 3.265593653878131 1 108.0 3.265593653878131 1
gene  1 13 8 -1.9997901692093802 1 110.0 -1.9997901692093802 1
gene  1 14 8 -1.8764507400235206 1 111.0 -1.8764507400235206 1
gene  1 1 9 3.8601655006328808 0 112.0 3.8601655006328808 1
gene  1 2 9 0.09578623161419075 0 113.0 0.09578623161419075 1
gene  1 3 9 -1.524357966461783 0 114.0 -1.524357966461783 1
gene  1 6 9 -4.256762423171206 0 117.0 -4.256762423171206 1
gene  1 7 9 3.089468824433688 0 118.0 3.089468824433688 1
gene  1 8 9 3.925113270537725 0 119.0 3.925113270537725 1
gene  1 9 9 0.4354387187401914 1 120.0 0.4354387187401914 1
gene  1 11 9 -7.92328045842925 1 122.0 -7.92328045842925 1
gene  1 13 9 4.364694951663058 1 124.0 4.364694951663058 1
gene  1 14 9 0.40885366168237436 1 125.0 0.40885366168237436 1
gene  1 1 10 -1.141810762790149 0 126.0 -1.141810762790149 1
gene  1 3 10 -2.2450239755137416 0 128.0 -2.2450239755137416 1
gene  1 4 10 0.7924251996624526 0 129.0 0.7924251996624526 1
gene  1 5 10 0.32897546930867205 0 130.0 0.32897546930867205 1
gene  1 6 10 -1.6502056808749344 0 131.0 -1.6502056808749344 1
gene  1 10 10 -1.732692907921239 1 135.0 -1.732692907921239 1
gene  1 11 10 -3.983402196651613 1 136.0 -3.983402196651613 1
gene  1 14 10 -1.5588393351132321 1 139.0 -1.5588393351132321 1
gene  1 1 11 -4.207809066269492 0 140.0 -4.207809066269492 1
gene  1 3 11 2.8471641658954234 0 142.0 2.8471641658954234 1
gene  1 5 11 -3.998240576321086 0 144.0 -3.998240576321086 1
gene  1 6 11 -1.3785307969543228 0 145.0 -1.3785307969543228 1
gene  1 7 11 -8.390062070140802 0 146.0 -8.390062070140802 1
gene  1 8 11 4.320058062062142 0 147.0 4.320058062062142 1
gene  1 9 11 0.3786626792025234 0 148.0 0.3786626792025234 1
gene  1 10 11 -1.0470886881184263 0 149.0 -1.0470886881184263 1
gene  1 11 11 -6.397440012638734 1 150.0 -6.397440012638734 1
gene  1 1 13 -0.8343245410491709 0 168.0 -0.8343245410491709 1
gene  1 2 13 5.30753232754193 0 169.0 5.30753232754193 1
gene  1 3 13 -4.30194653090695 0 170.0 -4.30194653090695 1
gene  1 7 13 1.5409178622177482 0 174.0 1.5409178622177482 1
gene  1 11 13 3.6766749831176955 0 178.0 3.6766749831176955 1
gene  1 13 13 0.07614786560128817 1 180.0 0.07614786560128817 1
gene  1 2 14 -3.0471274419495056 0 183.0 -3.0471274419495056 1
gene  1 3 14 -7.187268207414936 0 184.0 -7.187268207414936 1
gene  1 4 14 -1.5961052388515191 0 185.0 -1.5961052388515191 1
gene  1 7 14 1.6577444695213404 0 188.0 1.6577444695213404 1
gene  1 8 14 0.23306104348946022 0 189.0 0.23306104348946022 1
gene  1 10 14 0.32891354869843314 0 191.0 0.32891354869843314 1
gene  1 13 14 3.9712938278046055 0 194.0 3.9712938278046055 1
gene  1 5 13 -0.05330855291247083 0 198.0 -0.05330855291247083 1
gene  1 4 9 -1.3655772347293689 0 200.0 -1.3655772347293689 1
gene  1 8 13 -2.7550592546627732 0 248.0 -2.7550592546627732 1
gene  1 7 10 -0.0626614087224302 0 270.0 -0.0626614087224302 1
gene  1 9 10 -2.330418769245357 0 274.0 -2.330418769245357 1
gene  1 9 13 -2.4207512692379933 0 288.0 -2.4207512692379933 1
gene  1 5 14 -1.1164696977899646 0 328.0 -1.1164696977899646 1
genomeend 7
genomestart  8
trait 1 0.6325451774377668 0.0 0.0 0.0 1.363566452656893 0.20991346759087715 0.04208433817433466 0.03711240661335824 
node 1 1 1 1
node 2 1 1 1
node 3 1 1 1
node 4 1 1 1
node 5 1 1 1
node 6 1 1 1
node 7 1 1 3
node 8 1 0 0
node 13 1 0 2
node 14 1 0 2
node 16 1 0 0
node 20 1 0 0
gene  1 1 8 -5.132462661254701 0 98.0 -5.132462661254701 1
gene  1 2 8 -5.317640819154975 0 99.0 -5.317640819154975 1
gene  1 3 8 5.810581078407795 0 100.0 5.810581078407795 1
gene  1 4 8 -3.1811939484312894 0 101.0 -3.1811939484312894 1
gene  1 5 8 0.23403241836825983 0 102.0 0.23403241836825983 1
gene  1 6 8 -10.787976590955253 0 103.0 -10.787976590955253 1
gene  1 8 8 -11.488238856767929 1 105.0 -11.488238856767929 1
gene  1 13 8 -6.41751713044438 1 110.0 -6.41751713044438 1
gene  1 14 8 -6.363411658839813 1 111.0 -6.363411658839813 1
gene  1 3 13 0.5020212120551004 0 170.0 0.5020212120551004 1
gene  1 5 13 -8.651795739757828 0 172.0 -8.651795739757828 1
gene  1 7 13 -5.758127410297956 0 174.0 -5.758127410297956 1
gene  1 13 13 1.3599594909174757 1 180.0 1.3599594909174757 1
gene  1 2 14 -0.2486353927295919 0 183.0 -0.2486353927295919 1
gene  1 4 14 1.7394611081454867 0 185.0 1.7394611081454867 1
gene  1 6 14 -7.372066966269018 0 187.0 -7.372066966269018 1
gene  1 8 14 -0.02839632483960175 0 189.0 -0.02839632483960175 1
gene  1 13 14 -13.71716658926571 0 194.0 -13.71716658926571 1
gene  1 13 16 4.384921276612241 0 201.0 4.384921276612241 1
gene  1 16 14 5.490237666267467 0 202.0 5.490237666267467 1
gene  1 3 20 5.961432624667904 0 215.0 5.961432624667904 1
gene  1 20 8 0.0871071624935551 0 216.0 0.0871071624935551 1
gene  1 8 13 1.8742186462058288 0 233.0 1.8742186462058288 1
gene  1 2 16 -2.327427669753695 0 324.0 -2.327427669753695 1
gene  1 2 20 -1.1721534362687656 0 333.0 -1.1721534362687656 1
gene  1 7 8 -0.17266740098877797 0 352.0 -0.17266740098877797 1
genomeend 8
genomestart  9
trait 1 0.6325451774377668 0.0 0.0 0.0 1.363566452656893 0.20991346759087715 0.04208433817433466 0.03711240661335824 
node 1 1 1 1
node 2 1 1 1
node 3 1 1 1
node 4 1 1 1
node 5 1 1 1
node 6 1 1 1
node 7 1 1 3
node 8 1 0 0
node 13 1 0 2
node 14 1 0 2
node 16 1 0 0
node 20 1 0 0
gene  1 1 8 -2.5543461950643596 0 98.0 -2.5543461950643596 1
gene  1 2 8 -4.306909375032076 0 99.0 -4.306909375032076 1
gene  1 3 8 5.323303905196098 0 100.0 5.323303905196098 1
gene  1 4 8 0.17721449625227675 0 101.0 0.17721449625227675 1
gene  1 5 8 1.526118315837422 0 102.0 1.526118315837422 1
gene  1 6 8 -8.351022756692965 0 103.0 -8.351022756692965 1
gene  1 8 8 -11.7993033848504 1 105.0 -11.7993033848504 1
gene  1 13 8 -0.04128121375723631 1 110.0 -0.04128121375723631 1
gene  1 14 8 -4.849025724433521 1 111.0 -4.849025724433521 1
gene  1 3 13 1.953177468687704 0 170.0 1.953177468687704 1
gene  1 5 13 -10.704544131862518 0 172.0 -10.704544131862518 1
gene  1 7 13 -3.2005886705028943 0 174.0 -3.2005886705028943 1
gene  1 13 13 2.032838571618988 1 180.0 2.032838571618988 1
gene  1 2 14 -1.9456783236981996 0 183.0 -1.9456783236981996 1
gene  1 4 14 5.600640602170174 0 185.0 5.600640602170174 1
gene  1 6 14 -8.641779493202156 0 187.0 -8.641779493202156 1
gene  1 8 14 1.9457662799991962 0 189.0 1.9457662799991962 1
gene  1 13 14 -13.636292810874032 0 194.0 -13.636292810874032 1
gene  1 13 16 1.5752474302995336 0 201.0 1.5752474302995336 1
gene  1 16 14 8.215777254011366 0 202.0 8.215777254011366 1
gene  1 3 20 8.025222812603548 0 215.0 8.025222812603548 1
gene  1 20 8 0.1364726997167942 0 216.0 0.1364726997167942 1
gene  1 8 13 0.34261460830026985 0 233.0 0.34261460830026985 1
gene  1 2 16 -2.922528451822105 0 324.0 -2.922528451822105 1
gene  1 2 20 -1.4318166617521577 0 333.0 -1.4318166617521577 1
gene  1 7 8 7.2780685122846585 0 352.0 7.2780685122846585 1
genomeend 9
genomestart  10
trait 1 0.0 0.6717991789792671 0.687885284225863 0.76527084396768 0.20246234890771164 0.0 0.0 0.6764016660929384 
node 1 1 1 1
node 2 1 1 1
node 3 1 1 1
node 4 1 1 1
node 5 1 1 1
node 6 1 1 1
node 7 1 1 3
node 8 1 0 0
node 9 1 0 0
node 10 1 0 0
node 13 1 0 2
node 14 1 0 2
node 21 1 0 0
node 29 1 0 0
gene  1 1 8 2.7006655275204947 0 98.0 2.7006655275204947 1
gene  1 3 8 -6.8532546380144606 0 100.0 -6.8532546380144606 1
gene  1 5 8 1.9856296211409155 0 102.0 1.9856296211409155 1
gene  1 6 8 -6.922005441840341 0 103.0 -6.922005441840341 1
gene  1 8 8 3.4706392101654546 1 105.0 3.4706392101654546 1
gene  1 1 9 -2.9978991819125573 0 112.0 -2.9978991819125573 1
gene  1 2 9 12.776787990991377 0 113.0 12.776787990991377 1
gene  1 3 9 2.2587205142224334 0 114.0 2.2587205142224334 1
gene  1 5 9 -2.12318994760041 0 116.0 -2.12318994760041 1
gene  1 7 9 0.29181223476238777 0 118.0 0.29181223476238777 1
gene  1 9 9 -3.821193749789251 1 120.0 -3.821193749789251 1
gene  1 10 9 5.1402658338093445 1 121.0 5.1402658338093445 1
gene  1 13 9 4.731696262897641 1 124.0 4.731696262897641 1
gene  1 2 10 0.9116438201168569 0 127.0 0.9116438201168569 1
gene  1 4 10 -2.6147499844450612 0 129.0 -2.6147499844450612 1
gene  1 5 10 -2.83316233126736 0 130.0 -2.83316233126736 1
gene  1 8 10 -0.6721751905707127 0 133.0 -0.6721751905707127 1
gene  1 9 10 -1.8117574927820193 0 134.0 -1.8117574927820193 1
gene  1 10 10 0.7334947612678302 1 135.0 0.7334947612678302 1
gene  1 13 10 1.8719436598659738 1 138.0 1.8719436598659738 1
gene  1 14 10 1.9386499885846837 1 139.0 1.9386499885846837 1
gene  1 2 13 0.5190798239993852 0 169.0 0.5190798239993852 1
gene  1 3 13 0.8359738232410185 0 170.0 0.8359738232410185 1
gene  1 6 13 -0.9251770025024884 0 173.0 -0.9251770025024884 1
gene  1 7 13 -0.5943603134405899 0 174.0 -0.5943603134405899 1
gene  1 9 13 -6.305718531934898 0 176.0 -6.305718531934898 1
gene  1 13 13 -4.161927674705462 1 180.0 -4.161927674705462 1
gene  1 14 13 -6.541268613104039 1 181.0 -6.541268613104039 1
gene  1 1 14 1.61789367158708 0 182.0 1.61789367158708 1
gene  1 3 14 -4.637578225724389 0 184.0 -4.637578225724389 1
gene  1 9 14 -3.417055923341925 0 190.0 -3.417055923341925 1
gene  1 10 14 -4.767906323769397 0 191.0 -4.767906323769397 1
gene  1 1 21 -1.1502712541595417 0 218.0 -1.1502712541595417 1
gene  1 21 8 -2.0529394588485292 0 219.0 -2.0529394588485292 1
gene  1 3 10 0.1220651997621176 0 223.0 0.1220651997621176 1
gene  1 6 29 1.3984830395937347 0 259.0 1.3984830395937347 1
gene  1 29 8 -0.6166485832852026 0 260.0 -0.6166485832852026 1
gene  1 29 21 2.8257778773503808 0 271.0 2.8257778773503808 1
gene  1 3 21 -2.7948100596863905 0 300.0 -2.7948100596863905 1
genomeend 10
genomestart  11
trait 1 0.0 0.0 0.687885284225863 0.0 0.0 0.0 0.0 0.0 
node 1 1 1 1
node 2 1 1 1
node 3 1 1 1
node 4 1 1 1
node 5 1 1 1
node 6 1 1 1
node 7 1 1 3
node 8 1 0 0
node 9 1 0 0
node 10 1 0 0
node 13 1 0 2
node 14 1 0 2
node 21 1 0 0
node 29 1 0 0
gene  1 1 8 0.5140868077818905 0 98.0 0.5140868077818905 1
gene  1 3 8 -9.34119954981407 0 100.0 -9.34119954981407 1
gene  1 5 8 2.10265493396687 0 102.0 2.10265493396687 1
gene  1 6 8 -6.933468887790889 0 103.0 -6.933468887790889 1
gene  1 8 8 2.4075418122709 1 105.0 2.4075418122709 1
gene  1 1 9 -1.3282616999722197 0 112.0 -1.3282616999722197 1
gene  1 2 9 2.313862701272097 0 113.0 2.313862701272097 1
gene  1 3 9 1.6161823555020713 0 114.0 1.6161823555020713 1
gene  1 5 9 -0.4649836798187821 0 116.0 -0.4649836798187821 1
gene  1 7 9 1.3263644471331806 0 118.0 1.3263644471331806 1
gene  1 9 9 -3.5090410048948093 1 120.0 -3.5090410048948093 1
gene  1 10 9 4.631158481380403 1 121.0 4.631158481380403 1
gene  1 13 9 2.401802614085055 1 124.0 2.401802614085055 1
gene  1 2 10 0.21086630277520735 0 127.0 0.21086630277520735 1
gene  1 4 10 -2.1980611056146513 0 129.0 -2.1980611056146513 1
gene  1 5 10 -0.6794374117962632 0 130.0 -0.6794374117962632 1
gene  1 8 10 -0.6721751905707127 0 133.0 -0.6721751905707127 1
gene  1 9 10 -1.6786104855279385 0 134.0 -1.6786104855279385 1
gene  1 10 10 2.4155339847852675 1 135.0 2.4155339847852675 1
gene  1 13 10 4.261250534224251 1 138.0 4.261250534224251 1
gene  1 14 10 -0.94417689745177 1 139.0 -0.94417689745177 1
gene  1 2 13 1.8626963298897414 0 169.0 1.8626963298897414 1
gene  1 3 13 -1.477673000709443 0 170.0 -1.477673000709443 1
gene  1 6 13 -1.0547267797434317 0 173.0 -1.0547267797434317 1
gene  1 7 13 -1.409122606979591 0 174.0 -1.409122606979591 1
gene  1 9 13 -8.65554839445846 0 176.0 -8.65554839445846 1
gene  1 13 13 -3.262073938340171 1 180.0 -3.262073938340171 1
gene  1 14 13 1.7285309378762406 1 181.0 1.7285309378762406 1
gene  1 1 14 4.011059000444948 0 182.0 4.011059000444948 1
gene  1 3 14 -3.4484653378961885 0 184.0 -3.4484653378961885 1
gene  1 9 14 1.3388764928649994 0 190.0 1.3388764928649994 1
gene  1 10 14 -6.26531109950225 0 191.0 -6.26531109950225 1
gene  1 1 21 -1.5543513882203928 0 218.0 -1.5543513882203928 1
gene  1 21 8 -2.0529394588485292 0 219.0 -2.0529394588485292 1
gene  1 3 10 0.02377453529730411 0 223.0 0.02377453529730411 1
gene  1 6 29 -0.6993013801723844 0 259.0 -0.6993013801723844 1
gene  1 29 8 -0.6166485832852026 0 260.0 -0.6166485832852026 1
gene  1 29 21 2.5186586604287005 0 271.0 2.5186586604287005 1
gene  1 3 21 -4.7962777565964245 0 300.0 -4.7962777565964245 1
genomeend 11
genomestart  12
trait 1 0.0 0.0 0.687885284225863 0.0 0.0 0.0 0.0 0.0 
node 1 1 1 1
node 2 1 1 1
node 3 1 1 1
node 4 1 1 1
node 5 1 1 1
node 6 1 1 1
node 7 1 1 3
node 8 1 0 0
node 9 1 0 0
node 10 1 0 0
node 13 1 0 2
node 14 1 0 2
node 21 1 0 0
node 29 1 0 0
gene  1 1 8 2.4708386501306916 0 98.0 2.4708386501306916 1
gene  1 3 8 -8.59527218539199 0 100.0 -8.59527218539199 1
gene  1 5 8 2.156531354873525 0 102.0 2.156531354873525 1
gene  1 6 8 -9.397063447391568 0 103.0 -9.397063447391568 1
gene  1 8 8 3.4320687236844885 1 105.0 3.4320687236844885 1
gene  1 1 9 -4.222362528218175 0 112.0 -4.222362528218175 1
gene  1 2 9 10.819452932997764 0 113.0 10.819452932997764 1
gene  1 3 9 2.407686372775385 0 114.0 2.407686372775385 1
gene  1 5 9 -0.13476192636375806 0 116.0 -0.13476192636375806 1
gene  1 7 9 -0.36978296569882857 0 118.0 -0.36978296569882857 1
gene  1 9 9 -3.8927085303103777 1 120.0 -3.8927085303103777 1
gene  1 10 9 3.822868567358932 1 121.0 3.822868567358932 1
gene  1 13 9 2.341412979394305 1 124.0 2.341412979394305 1
gene  1 2 10 2.8244894443240707 0 127.0 2.8244894443240707 1
gene  1 4 10 -0.3595571070599881 0 129.0 -0.3595571070599881 1
gene  1 5 10 -4.220302737127866 0 130.0 -4.220302737127866 1
gene  1 8 10 -1.0390943581312544 0 133.0 -1.0390943581312544 1
gene  1 9 10 0.014251003857882028 0 134.0 0.014251003857882028 1
gene  1 10 10 0.4891162048366384 1 135.0 0.4891162048366384 1
gene  1 13 10 3.9223000860304156 1 138.0 3.9223000860304156 1
gene  1 14 10 0.45990317781774714 1 139.0 0.45990317781774714 1
gene  1 2 13 1.2423376184999655 0 169.0 1.2423376184999655 1
gene  1 3 13 -0.68313070056613 0 170.0 -0.68313070056613 1
gene  1 6 13 1.3784432676725757 0 173.0 1.3784432676725757 1
gene  1 7 13 -0.5260142569007922 0 174.0 -0.5260142569007922 1
gene  1 9 13 -6.362990627172247 0 176.0 -6.362990627172247 1
gene  1 13 13 -2.500523997479314 1 180.0 -2.500523997479314 1
gene  1 14 13 -6.599894527649853 1 181.0 -6.599894527649853 1
gene  1 1 14 1.1154721456987433 0 182.0 1.1154721456987433 1
gene  1 3 14 -2.582504596930982 0 184.0 -2.582504596930982 1
gene  1 9 14 -3.361123249461068 0 190.0 -3.361123249461068 1
gene  1 10 14 -3.4020166202141082 0 191.0 -3.4020166202141082 1
gene  1 1 21 0.7437231899897148 0 218.0 0.7437231899897148 1
gene  1 21 8 -1.7142633371557947 0 219.0 -1.7142633371557947 1
gene  1 3 10 0.12866321170452594 0 223.0 0.12866321170452594 1
gene  1 6 29 3.53086674262317 0 259.0 3.53086674262317 1
gene  1 29 8 -2.6465200750216913 0 260.0 -2.6465200750216913 1
gene  1 29 21 2.8257778773503808 0 271.0 2.8257778773503808 1
gene  1 3 21 -1.1757707387481555 0 300.0 -1.1757707387481555 1
genomeend 12
genomestart  13
trait 1 0.7560281920012465 0.9680427805839344 1.563145969794439 0.0 0.6242516547362033 0.9629060889116104 0.2518745141043184 0.0 
node 1 1 1 1
node 2 1 1 1
node 3 1 1 1
node 4 1 1 1
node 5 1 1 1
node 6 1 1 1
node 7 1 1 3
node 13 1 0 2
node 14 1 0 2
node 42 1 0 0
gene  1 1 13 -2.285258296756119 0 168.0 -2.285258296756119 1
gene  1 2 13 -1.679788606154315 0 169.0 -1.679788606154315 1
gene  1 3 13 1.858098455413792 0 170.0 1.858098455413792 1
gene  1 4 13 -2.699893756941823 0 171.0 -2.699893756941823 1
gene  1 5 13 6.854809414039452 0 172.0 6.854809414039452 1
gene  1 6 13 1.5934569390564437 0 173.0 1.5934569390564437 1
gene  1 7 13 -2.00142357695756 0 174.0 -2.00142357695756 1
gene  1 14 13 7.801571417313717 1 181.0 7.801571417313717 1
gene  1 1 14 -2.3043855693665902 0 182.0 -2.3043855693665902 1
gene  1 2 14 6.608082112673085 0 183.0 6.608082112673085 1
gene  1 3 14 3.4811208884083467 0 184.0 3.4811208884083467 1
gene  1 13 14 0.19382838931741092 0 194.0 0.19382838931741092 1
gene  1 14 14 -7.511189017651436 1 195.0 -7.511189017651436 1
gene  1 6 14 -0.4277111484802605 0 230.0 -0.4277111484802605 1
gene  1 4 14 -1.5953067160749024 0 312.0 -1.5953067160749024 1
gene  1 2 42 -1.4155856727603 0 320.0 -1.4155856727603 1
gene  1 42 13 0.8380231975696023 0 321.0 0.8380231975696023 1
gene  1 6 42 -8.692390597478765 0 349.0 -8.692390597478765 1
gene  1 7 14 -5.745334915503655 0 353.0 -5.745334915503655 1
genomeend 13
genomestart  14
trait 1 0.7560281920012465 0.8817377395625872 1.563145969794439 0.0 0.4922792972421187 0.8971877101459694 0.2518745141043184 0.0 
node 1 1 1 1
node 2 1 1 1
node 3 1 1 1
node 4 1 1 1
node 5 1 1 1
node 6 1 1 1
node 7 1 1 3
node 13 1 0 2
node 14 1 0 2
node 42 1 0 0
gene  1 1 13 0.828799866419305 0 168.0 0.828799866419305 1
gene  1 2 13 -2.2576958996718504 0 169.0 -2.2576958996718504 1
gene  1 3 13 1.3748171485318057 0 170.0 1.3748171485318057 1
gene  1 4 13 -2.310978747303026 0 171.0 -2.310978747303026 1
gene  1 5 13 7.412094315062386 0 172.0 7.412094315062386 1
gene  1 6 13 1.542503466917489 0 173.0 1.542503466917489 1
gene  1 7 13 -3.284354116591166 0 174.0 -3.284354116591166 1
gene  1 14 13 9.156597909784551 1 181.0 9.156597909784551 1
gene  1 1 14 -1.5622898397090548 0 182.0 -1.5622898397090548 1
gene  1 2 14 6.194288703691172 0 183.0 6.194288703691172 1
gene  1 3 14 4.394577964682782 0 184.0 4.394577964682782 1
gene  1 13 14 0.3140552864377669 0 194.0 0.3140552864377669 1
gene  1 14 14 -7.146428247545544 1 195.0 -7.146428247545544 1
gene  1 6 14 2.1136115553139545 0 230.0 2.1136115553139545 1
gene  1 4 14 -5.069980914670331 0 312.0 -5.069980914670331 1
gene  1 2 42 -1.3404192970204962 0 320.0 -1.3404192970204962 1
gene  1 42 13 2.509995301439483 0 321.0 2.509995301439483 1
gene  1 6 42 -0.2323794313809771 0 349.0 -0.2323794313809771 1
gene  1 7 14 -8.166505599061452 0 353.0 -8.166505599061452 1
genomeend 14
genomestart  15
trait 1 0.7560281920012465 0.9680427805839344 1.563145969794439 0.0 0.6242516547362033 0.9629060889116104 0.2518745141043184 0.0 
node 1 1 1 1
node 2 1 1 1
node 3 1 1 1
node 4 1 1 1
node 5 1 1 1
node 6 1 1 1
node 7 1 1 3
node 13 1 0 2
node 14 1 0 2
node 42 1 0 0
gene  1 1 13 -2.9004844413393407 0 168.0 -2.9004844413393407 1
gene  1 2 13 -0.5011721202600321 0 169.0 -0.5011721202600321 1
gene  1 3 13 1.460537241798665 0 170.0 1.460537241798665 1
gene  1 4 13 -5.972767728829503 0 171.0 -5.972767728829503 1
gene  1 5 13 7.914799205132711 0 172.0 7.914799205132711 1
gene  1 6 13 -1.1721743259969535 0 173.0 -1.1721743259969535 1
gene  1 7 13 -1.081484100775317 0 174.0 -1.081484100775317 1
gene  1 14 13 7.216193831624645 1 181.0 7.216193831624645 1
gene  1 1 14 -2.3673114132442454 0 182.0 -2.3673114132442454 1
gene  1 2 14 5.70473212387696 0 183.0 5.70473212387696 1
gene  1 3 14 7.147079939957605 0 184.0 7.147079939957605 1
gene  1 13 14 -0.772850035700938 0 194.0 -0.772850035700938 1
gene  1 14 14 -4.9498733349968145 1 195.0 -4.9498733349968145 1
gene  1 6 14 2.279693047861292 0 230.0 2.279693047861292 1
gene  1 4 14 -3.955190984407274 0 312.0 -3.955190984407274 1
gene  1 2 42 -2.5352539085647314 0 320.0 -2.5352539085647314 1
gene  1 42 13 -0.7436920981796771 0 321.0 -0.7436920981796771 1
gene  1 6 42 -8.02246240546347 0 349.0 -8.02246240546347 1
gene  1 7 14 -10.207191474612697 0 353.0 -10.207191474612697 1
genomeend 15
genomestart  16
trait 1 0.7560281920012465 0.9680427805839344 1.563145969794439 0.0 0.6242516547362033 0.9629060889116104 0.2518745141043184 0.0 
node 1 1 1 1
node 2 1 1 1
node 3 1 1 1
node 4 1 1 1
node 5 1 1 1
node 6 1 1 1
node 7 1 1 3
node 13 1 0 2
node 14 1 0 2
node 42 1 0 0
gene  1 1 13 -1.876736457620368 0 168.0 -1.876736457620368 1
gene  1 2 13 -2.1485297070197653 0 169.0 -2.1485297070197653 1
gene  1 3 13 1.0966325422560441 0 170.0 1.0966325422560441 1
gene  1 4 13 -6.284582143687144 0 171.0 -6.284582143687144 1
gene  1 5 13 8.300044088913955 0 172.0 8.300044088913955 1
gene  1 6 13 -0.6902276749096357 0 173.0 -0.6902276749096357 1
gene  1 7 13 1.0303074772479301 0 174.0 1.0303074772479301 1
gene  1 14 13 4.515342712556174 1 181.0 4.515342712556174 1
gene  1 1 14 1.1203298169914757 0 182.0 1.1203298169914757 1
gene  1 2 14 6.4461681837774325 0 183.0 6.4461681837774325 1
gene  1 3 14 2.7009960158844777 0 184.0 2.7009960158844777 1
gene  1 13 14 -0.9901676706608493 0 194.0 -0.9901676706608493 1
gene  1 14 14 -8.669754247503045 1 195.0 -8.669754247503045 1
gene  1 6 14 -0.7167505898507462 0 230.0 -0.7167505898507462 1
gene  1 4 14 -1.3349503514807786 0 312.0 -1.3349503514807786 1
gene  1 2 42 -4.158477530650627 0 320.0 -4.158477530650627 1
gene  1 42 13 3.4605144744106706 0 321.0 3.4605144744106706 1
gene  1 6 42 -8.214994714203707 0 349.0 -8.214994714203707 1
gene  1 7 14 -7.041032938226886 0 353.0 -7.041032938226886 1
genomeend 16
genomestart  17
trait 1 0.7543954501876767 0.0 0.0 0.0 0.0 0.7506659743992431 0.6528869165846171 0.760618498603839 
node 1 1 1 1
node 2 1 1 1
node 3 1 1 1
node 4 1 1 1
node 5 1 1 1
node 6 1 1 1
node 7 1 1 3
node 8 1 0 0
node 13 1 0 2
node 14 1 0 2
gene  1 4 8 1.5959417801315825 0 101.0 1.5959417801315825 1
gene  1 5 8 -5.091395852989252 0 102.0 -5.091395852989252 1
gene  1 6 8 -8.82882749830362 0 103.0 -8.82882749830362 1
gene  1 14 8 2.093771891825589 1 111.0 2.093771891825589 1
gene  1 1 13 3.064751602435119 0 168.0 3.064751602435119 1
gene  1 2 13 -1.5338318051720854 0 169.0 -1.5338318051720854 1
gene  1 3 13 -0.40779716347430695 0 170.0 -0.40779716347430695 1
gene  1 5 13 0.5672349026916554 0 172.0 0.5672349026916554 1
gene  1 7 13 -2.397723760709637 0 174.0 -2.397723760709637 1
gene  1 14 13 -0.28319455266878235 1 181.0 -0.28319455266878235 1
gene  1 1 14 0.7653493007170713 0 182.0 0.7653493007170713 1
gene  1 2 14 4.356191616494325 0 183.0 4.356191616494325 1
gene  1 3 14 1.866600810693347 0 184.0 1.866600810693347 1
gene  1 4 14 1.0595044299552736 0 185.0 1.0595044299552736 1
gene  1 8 14 1.9953435573056104 0 189.0 1.9953435573056104 1
gene  1 14 14 -1.6106962856983364 1 195.0 -1.6106962856983364 1
gene  1 6 14 9.771801773665096 0 240.0 9.771801773665096 1
gene  1 8 13 -3.464955559018148 0 311.0 -3.464955559018148 1
gene  1 14 13 1.3789530239828014 0 322.0 1.3789530239828014 1
genomeend 17
genomestart  18
trait 1 0.8225567813410785 1.2140246672840036 0.7816155317589891 0.49951333318806035 0.760472394127403 0.9742749841765682 0.16709809669901776 0.20144182840303793 
node 1 1 1 1
node 2 1 1 1
node 3 1 1 1
node 4 1 1 1
node 5 1 1 1
node 6 1 1 1
node 7 1 1 3
node 8 1 0 0
node 9 1 0 0
node 10 1 0 0
node 11 1 0 0
node 12 1 0 0
node 13 1 0 2
node 14 1 0 2
node 27 1 0 0
node 34 1 0 0
node 40 1 0 0
gene  1 1 8 -2.167636481308244 0 98.0 -2.167636481308244 1
gene  1 3 8 -1.2812053938185892 0 100.0 -1.2812053938185892 1
gene  1 4 8 4.671644858150423 0 101.0 4.671644858150423 1
gene  1 6 8 -2.4969550146238717 0 103.0 -2.4969550146238717 1
gene  1 8 8 2.353414943843309 1 105.0 2.353414943843309 1
gene  1 10 8 -6.186899147237127 1 107.0 -6.186899147237127 1
gene  1 3 9 9.832459852755985 0 114.0 9.832459852755985 1
gene  1 6 9 5.513051837194523 0 117.0 5.513051837194523 1
gene  1 8 9 0.7052469726699575 0 119.0 0.7052469726699575 1
gene  1 10 9 1.2051837789677307 1 121.0 1.2051837789677307 1
gene  1 11 9 3.192380149344592 1 122.0 3.192380149344592 1
gene  1 13 9 1.3006086882172188 1 124.0 1.3006086882172188 1
gene  1 14 9 -4.0169855433881265 1 125.0 -4.0169855433881265 1
gene  1 1 10 -2.4085921247206095 0 126.0 -2.4085921247206095 1
gene  1 3 10 2.4630733837570578 0 128.0 2.4630733837570578 1
gene  1 4 10 -1.9999945195977018 0 129.0 -1.9999945195977018 1
gene  1 5 10 4.409934858040633 0 130.0 4.409934858040633 1
gene  1 9 10 5.342391972094658 0 134.0 5.342391972094658 1
gene  1 13 10 7.034944611541881 1 138.0 7.034944611541881 1
gene  1 1 11 -0.6205155975208001 0 140.0 -0.6205155975208001 1
gene  1 3 11 -3.7320057868742835 0 142.0 -3.7320057868742835 1
gene  1 5 11 4.978208250933461 0 144.0 4.978208250933461 1
gene  1 9 11 4.076418947172633 0 148.0 4.076418947172633 1
gene  1 10 11 -7.893559764550388 0 149.0 -7.893559764550388 1
gene  1 12 11 -8.73622945143626 1 151.0 -8.73622945143626 1
gene  1 14 11 -1.2416150044323135 1 153.0 -1.2416150044323135 1
gene  1 2 12 -3.438399630886761 0 155.0 -3.438399630886761 1
gene  1 4 12 -0.8024617635745974 0 157.0 -0.8024617635745974 1
gene  1 6 12 4.93124094870999 0 159.0 4.93124094870999 1
gene  1 7 12 -0.14516042786559602 0 160.0 -0.14516042786559602 1
gene  1 9 12 -4.076268590808567 0 162.0 -4.076268590808567 1
gene  1 10 12 -3.4422355344238644 0 163.0 -3.4422355344238644 1
gene  1 12 12 -3.7081123975242054 1 165.0 -3.7081123975242054 1
gene  1 14 12 -4.915017009886938 1 167.0 -4.915017009886938 1
gene  1 1 13 -5.792604615154976 0 168.0 -5.792604615154976 1
gene  1 3 13 -9.550697852218692 0 170.0 -9.550697852218692 1
gene  1 4 13 -5.852239187796325 0 171.0 -5.852239187796325 1
gene  1 6 13 10.752052467360667 0 173.0 10.752052467360667 1
gene  1 8 13 1.276545016308771 0 175.0 1.276545016308771 1
gene  1 9 13 -3.3359592447969773 0 176.0 -3.3359592447969773 1
gene  1 8 14 1.3080668697258 0 189.0 1.3080668697258 1
gene  1 11 14 2.1701606360032115 0 192.0 2.1701606360032115 1
gene  1 5 8 -0.06998871370900306 0 235.0 -0.06998871370900306 1
gene  1 1 27 -4.163715068875408 0 241.0 -4.163715068875408 1
gene  1 27 8 -1.882747368892201 0 242.0 -1.882747368892201 1
gene  1 9 34 -2.97611335699483 0 272.0 -2.97611335699483 1
gene  1 34 11 -1.5931186682502259 0 273.0 -1.5931186682502259 1
gene  1 5 13 1.5288678166774707 0 277.0 1.5288678166774707 1
gene  1 12 14 1.3860611534968377 0 296.0 1.3860611534968377 1
gene  1 8 40 -1.407366098689905 1 308.0 -1.407366098689905 1
gene  1 40 8 2.349299454091712 0 309.0 2.349299454091712 1
gene  1 10 14 -11.962521698348283 0 341.0 -11.962521698348283 1
genomeend 18
genomestart  19
trait 1 0.8225567813410785 1.2140246672840036 0.7816155317589891 0.49951333318806035 0.760472394127403 0.9742749841765682 0.16709809669901776 0.20144182840303793 
node 1 1 1 1
node 2 1 1 1
node 3 1 1 1
node 4 1 1 1
node 5 1 1 1
node 6 1 1 1
node 7 1 1 3
node 8 1 0 0
node 9 1 0 0
node 10 1 0 0
node 11 1 0 0
node 12 1 0 0
node 13 1 0 2
node 14 1 0 2
node 27 1 0 0
node 34 1 0 0
node 40 1 0 0
gene  1 1 8 -2.505156431934894 0 98.0 -2.505156431934894 1
gene  1 3 8 1.3629196199408034 0 100.0 1.3629196199408034 1
gene  1 4 8 5.468281344454383 0 101.0 5.468281344454383 1
gene  1 6 8 -4.14163746652091 0 103.0 -4.14163746652091 1
gene  1 8 8 2.7599162351195865 1 105.0 2.7599162351195865 1
gene  1 10 8 -2.582457188546072 1 107.0 -2.582457188546072 1
gene  1 3 9 6.177592036379334 0 114.0 6.177592036379334 1
gene  1 6 9 6.607967750273422 0 117.0 6.607967750273422 1
gene  1 8 9 1.6381760648028223 0 119.0 1.6381760648028223 1
gene  1 10 9 0.8201865652894327 1 121.0 0.8201865652894327 1
gene  1 11 9 -0.8028257526825986 1 122.0 -0.8028257526825986 1
gene  1 13 9 1.8243682952228706 1 124.0 1.8243682952228706 1
gene  1 14 9 -2.8361567061692243 1 125.0 -2.8361567061692243 1
gene  1 1 10 -1.8927840196774517 0 126.0 -1.8927840196774517 1
gene  1 3 10 0.9737793701066417 0 128.0 0.9737793701066417 1
gene  1 4 10 -1.4887708867587421 0 129.0 -1.4887708867587421 1
gene  1 5 10 1.380945160701054 0 130.0 1.380945160701054 1
gene  1 9 10 7.513479731220747 0 134.0 7.513479731220747 1
gene  1 13 10 8.416613516412019 1 138.0 8.416613516412019 1
gene  1 1 11 -1.3382666585542158 0 140.0 -1.3382666585542158 1
gene  1 3 11 -0.5244054112173364 0 142.0 -0.5244054112173364 1
gene  1 5 11 2.855711954316985 0 144.0 2.855711954316985 1
gene  1 9 11 5.709579972179162 0 148.0 5.709579972179162 1
gene  1 10 11 -7.0760827929291565 0 149.0 -7.0760827929291565 1
gene  1 12 11 -8.064415658759483 1 151.0 -8.064415658759483 1
gene  1 14 11 -0.8131858186044942 1 153.0 -0.8131858186044942 1
gene  1 2 12 -3.8867856507579654 0 155.0 -3.8867856507579654 1
gene  1 4 12 -1.0791688516664906 0 157.0 -1.0791688516664906 1
gene  1 6 12 4.259337762255905 0 159.0 4.259337762255905 1
gene  1 7 12 -0.8510980952495553 0 160.0 -0.8510980952495553 1
gene  1 9 12 -1.3897538974230466 0 162.0 -1.3897538974230466 1
gene  1 10 12 -6.737103884048464 0 163.0 -6.737103884048464 1
gene  1 12 12 -1.980123064277451 1 165.0 -1.980123064277451 1
gene  1 14 12 -3.0679638641330156 1 167.0 -3.0679638641330156 1
gene  1 1 13 -6.227623384874682 0 168.0 -6.227623384874682 1
gene  1 3 13 -8.172793005771313 0 170.0 -8.172793005771313 1
gene  1 4 13 -1.9229949773985164 0 171.0 -1.9229949773985164 1
gene  1 6 13 11.026521564324604 0 173.0 11.026521564324604 1
gene  1 8 13 0.7305818185964492 0 175.0 0.7305818185964492 1
gene  1 9 13 -4.02498183644791 0 176.0 -4.02498183644791 1
gene  1 8 14 3.42547857961793 0 189.0 3.42547857961793 1
gene  1 11 14 1.1702146361863348 0 192.0 1.1702146361863348 1
gene  1 5 8 -1.6893332985711607 0 235.0 -1.6893332985711607 1
gene  1 1 27 -4.976018023031047 0 241.0 -4.976018023031047 1
gene  1 27 8 -4.27825838167203 0 242.0 -4.27825838167203 1
gene  1 9 34 1.0945305986870006 0 272.0 1.0945305986870006 1
gene  1 34 11 -0.47001516556969103 0 273.0 -0.47001516556969103 1
gene  1 5 13 3.416989205199905 0 277.0 3.416989205199905 1
gene  1 12 14 -0.8028188699962571 0 296.0 -0.8028188699962571 1
gene  1 8 40 -2.369268101471748 1 308.0 -2.369268101471748 1
gene  1 40 8 2.332419992361354 0 309.0 2.332419992361354 1
gene  1 10 14 -10.073459005285876 0 341.0 -10.073459005285876 1
genomeend 19
