genomestart  0
trait 1 0.0 0.29964541126798605 0.0 0.0 0.0 0.0 0.08354904834950888 0.0 
node 1 1 1 1
node 2 1 1 1
node 3 1 1 1
node 4 1 1 1
node 5 1 1 1
node 6 1 1 1
node 7 1 1 3
node 13 1 0 2
node 14 1 0 2
node 19 1 0 0
node 33 1 0 0
node 41 1 0 0
gene  1 1 13 -1.3482420846121868 0 168.0 -1.3482420846121868 1
gene  1 3 13 -10.825113976041743 0 170.0 -10.825113976041743 1
gene  1 5 13 -9.333447290675224 0 172.0 -9.333447290675224 1
gene  1 6 13 -10.678219180795988 0 173.0 -10.678219180795988 1
gene  1 14 13 0.8193713958646605 1 181.0 0.8193713958646605 1
gene  1 1 14 3.5984515958383154 0 182.0 3.5984515958383154 1
gene  1 2 14 1.568624257686472 0 183.0 1.568624257686472 1
gene  1 4 14 -2.9998219502066528 0 185.0 -2.9998219502066528 1
gene  1 5 14 3.1945026630845863 0 186.0 3.1945026630845863 1
gene  1 6 14 0.7732881508024234 0 187.0 0.7732881508024234 1
gene  1 7 14 -2.4200598183849973 0 188.0 -2.4200598183849973 1
gene  1 13 14 2.605746951184206 0 194.0 2.605746951184206 1
gene  1 14 14 -3.249479424164084 1 195.0 -3.249479424164084 1
gene  1 5 19 -1.9454772642278109 0 213.0 -1.9454772642278109 1
gene  1 19 13 -1.4400989634423365 0 214.0 -1.4400989634423365 1
gene  1 2 13 1.7072453742065288 0 243.0 1.7072453742065288 1
gene  1 6 19 2.450444142570592 0 257.0 2.450444142570592 1
gene  1 19 14 2.006744418504929 0 267.0 2.006744418504929 1
gene  1 14 33 4.7577496383479545 1 268.0 4.7577496383479545 1
gene  1 33 14 -1.1959178280625178 0 269.0 -1.1959178280625178 1
gene  1 4 13 9.594817694409407 0 292.0 9.594817694409407 1
gene  1 14 41 1.4469066324320674 1 315.0 1.4469066324320674 1
gene  1 41 13 2.9628491029852047 0 316.0 2.9628491029852047 1
genomeend 0
genomestart  1
trait 1 0.0 0.29964541126798605 0.0 0.0 0.0 0.0 0.08354904834950888 0.0 
node 1 1 1 1
node 2 1 1 1
node 3 1 1 1
node 4 1 1 1
node 5 1 1 1
node 6 1 1 1
node 7 1 1 3
node 13 1 0 2
node 14 1 0 2
node 19 1 0 0
node 33 1 0 0
node 41 1 0 0
gene  1 1 13 -1.3482420846121868 0 168.0 -1.3482420846121868 1
gene  1 3 13 -10.825113976041743 0 170.0 -10.825113976041743 1
gene  1 5 13 -9.333447290675224 0 172.0 -9.333447290675224 1
gene  1 6 13 -10.678219180795988 0 173.0 -10.678219180795988 1
gene  1 14 13 0.8193713958646605 1 181.0 0.8193713958646605 1
gene  1 1 14 3.5984515958383154 0 182.0 3.5984515958383154 1
gene  1 2 14 1.568624257686472 0 183.0 1.568624257686472 1
gene  1 4 14 -2.9998219502066528 0 185.0 -2.9998219502066528 1
gene  1 5 14 3.1945026630845863 0 186.0 3.1945026630845863 1
gene  1 6 14 0.7732881508024234 0 187.0 0.7732881508024234 1
gene  1 7 14 -2.4200598183849973 0 188.0 -2.4200598183849973 1
gene  1 13 14 2.605746951184206 0 194.0 2.605746951184206 1
gene  1 14 14 -3.249479424164084 1 195.0 -3.249479424164084 1
gene  1 5 19 -1.9454772642278109 0 213.0 -1.9454772642278109 1
gene  1 19 13 -1.4400989634423365 0 214.0 -1.4400989634423365 1
gene  1 2 13 1.7072453742065288 0 243.0 1.7072453742065288 1
gene  1 6 19 2.450444142570592 0 257.0 2.450444142570592 1
gene  1 19 14 2.006744418504929 0 267.0 2.006744418504929 1
gene  1 14 33 4.7577496383479545 1 268.0 4.7577496383479545 1
gene  1 33 14 -1.1959178280625178 0 269.0 -1.1959178280625178 1
gene  1 4 13 9.594817694409407 0 292.0 9.594817694409407 1
gene  1 14 41 1.4469066324320674 1 315.0 1.4469066324320674 1
gene  1 41 13 2.9628491029852047 0 316.0 2.9628491029852047 1
gene  1 33 19 8.23850339088392 0 319.0 8.23850339088392 1
genomeend 1
genomestart  2
trait 1 0.38509797114028876 1.2858127313064698 0.0 0.17101181944213528 0.0 0.0 0.0 1.0208282639679993 
node 1 1 1 1
node 2 1 1 1
node 3 1 1 1
node 4 1 1 1
node 5 1 1 1
node 6 1 1 1
node 7 1 1 3
node 13 1 0 2
node 14 1 0 2
node 24 1 0 0
node 36 1 0 0
gene  1 2 13 -5.060955462764129 0 169.0 -5.060955462764129 1
gene  1 3 13 1.8425240237875773 0 170.0 1.8425240237875773 1
gene  1 4 13 -1.9535018038017098 0 171.0 -1.9535018038017098 1
gene  1 6 13 -7.314814602068429 0 173.0 -7.314814602068429 1
gene  1 7 13 3.2299513891249374 0 174.0 3.2299513891249374 1
gene  1 13 13 -0.8571264686566142 1 180.0 -0.8571264686566142 1
gene  1 1 14 -2.911682579658345 0 182.0 -2.911682579658345 1
gene  1 2 14 0.1744425905345377 0 183.0 0.1744425905345377 1
gene  1 5 14 -0.873776947893691 0 186.0 -0.873776947893691 1
gene  1 6 14 2.409688404008482 0 187.0 2.409688404008482 1
gene  1 7 14 3.1415115545083765 0 188.0 3.1415115545083765 1
gene  1 13 14 3.595410307010996 0 194.0 3.595410307010996 1
gene  1 14 14 2.1729223895728538 1 195.0 2.1729223895728538 1
gene  1 2 24 -0.7550762934672726 0 226.0 -0.7550762934672726 1
gene  1 24 13 -0.29002435681052735 0 227.0 -0.29002435681052735 1
gene  1 7 24 4.6224379187431905 0 245.0 4.6224379187431905 1
gene  1 1 24 -1.497000029486745 0 249.0 -1.497000029486745 1
gene  1 4 14 -0.628684791185006 0 280.0 -0.628684791185006 0
gene  1 4 36 7.7741925847052045 0 293.0 7.7741925847052045 1
gene  1 36 14 -2.1833458448516296 0 294.0 -2.1833458448516296 1
gene  1 7 36 2.3835960129259184 0 301.0 2.3835960129259184 1
gene  1 3 36 -9.416010851295722 0 313.0 -9.416010851295722 1
genomeend 2
genomestart  3
trait 1 0.38509797114028876 1.2858127313064698 0.0 0.17101181944213528 0.0 0.0 0.0 1.0208282639679993 
node 1 1 1 1
node 2 1 1 1
node 3 1 1 1
node 4 1 1 1
node 5 1 1 1
node 6 1 1 1
node 7 1 1 3
node 13 1 0 2
node 14 1 0 2
node 24 1 0 0
node 36 1 0 0
gene  1 2 13 -1.48485247869306 0 169.0 -1.48485247869306 1
gene  1 3 13 4.941279063655521 0 170.0 4.941279063655521 1
gene  1 4 13 -1.9544768323201172 0 171.0 -1.9544768323201172 1
gene  1 6 13 -5.431006105086262 0 173.0 -5.431006105086262 1
gene  1 7 13 4.239512069475489 0 174.0 4.239512069475489 1
gene  1 13 13 0.07471836427985079 1 180.0 0.07471836427985079 1
gene  1 1 14 -4.742483014952182 0 182.0 -4.742483014952182 1
gene  1 2 14 0.7384397903586342 0 183.0 0.7384397903586342 1
gene  1 5 14 0.6996143078966239 0 186.0 0.6996143078966239 1
gene  1 6 14 2.2984214836359986 0 187.0 2.2984214836359986 1
gene  1 7 14 1.4549738765828109 0 188.0 1.4549738765828109 1
gene  1 13 14 4.8010637625731825 0 194.0 4.8010637625731825 1
gene  1 14 14 2.6826335514169317 1 195.0 2.6826335514169317 1
gene  1 2 24 -0.8456142685562344 0 226.0 -0.8456142685562344 1
gene  1 24 13 -1.3131479737452039 0 227.0 -1.3131479737452039 1
gene  1 7 24 7.759797037374419 0 245.0 7.759797037374419 1
gene  1 1 24 -5.733637310578866 0 249.0 -5.733637310578866 1
gene  1 4 14 -2.6931042498899656 0 280.0 -2.6931042498899656 0
gene  1 4 36 10.97454235163509 0 293.0 10.97454235163509 1
gene  1 36 14 0.792438336991762 0 294.0 0.792438336991762 1
gene  1 7 36 2.1428956949636855 0 301.0 2.1428956949636855 1
gene  1 3 36 -7.935818954397048 0 313.0 -7.935818954397048 1
genomeend 3
genomestart  4
trait 1 0.38509797114028876 1.7427343302276195 0.0 0.7150749824857647 0.0 0.0 0.46451978726965626 1.8120135990098079 
node 1 1 1 1
node 2 1 1 1
node 3 1 1 1
node 4 1 1 1
node 5 1 1 1
node 6 1 1 1
node 7 1 1 3
node 13 1 0 2
node 14 1 0 2
node 24 1 0 0
node 36 1 0 0
gene  1 2 13 -5.57013942456849 0 169.0 -5.57013942456849 1
gene  1 3 13 4.968604059341766 0 170.0 4.968604059341766 1
gene  1 4 13 -3.6996545750889913 0 171.0 -3.6996545750889913 1
gene  1 6 13 -8.03777421034655 0 173.0 -8.03777421034655 1
gene  1 7 13 -0.31848350265533854 0 174.0 -0.31848350265533854 1
gene  1 13 13 2.3841878766801434 1 180.0 2.3841878766801434 1
gene  1 1 14 -0.5708777504349491 0 182.0 -0.5708777504349491 1
gene  1 2 14 -0.2353415763005422 0 183.0 -0.2353415763005422 1
gene  1 5 14 -0.19197013909746707 0 186.0 -0.19197013909746707 1
gene  1 6 14 1.8485720427980126 0 187.0 1.8485720427980126 1
gene  1 7 14 3.277678743412676 0 188.0 3.277678743412676 1
gene  1 13 14 1.8102404007361033 0 194.0 1.8102404007361033 1
gene  1 14 14 1.0730092575626973 1 195.0 1.0730092575626973 1
gene  1 2 24 0.5981149838863455 0 226.0 0.5981149838863455 1
gene  1 24 13 -0.3529886532330956 0 227.0 -0.3529886532330956 1
gene  1 7 24 7.479700876932684 0 245.0 7.479700876932684 1
gene  1 1 24 -3.530147042799067 0 249.0 -3.530147042799067 1
gene  1 4 14 -2.847054213871334 0 280.0 -2.847054213871334 0
gene  1 4 36 8.113994194645134 0 293.0 8.113994194645134 1
gene  1 36 14 0.21988939994160378 0 294.0 0.21988939994160378 1
gene  1 7 36 2.852200705090665 0 301.0 2.852200705090665 1
gene  1 3 36 -7.935818954397048 0 313.0 -7.935818954397048 1
genomeend 4
genomestart  5
trait 1 0.9658100958370718 0.21357948226159307 1.7535517816909252 0.0 0.0 2.076285480926863 0.7279373662985449 0.0 
node 1 1 1 1
node 2 1 1 1
node 3 1 1 1
node 4 1 1 1
node 5 1 1 1
node 6 1 1 1
node 7 1 1 3
node 8 1 0 0
node 9 1 0 0
node 10 1 0 0
node 11 1 0 0
node 13 1 0 2
node 14 1 0 2
gene  1 2 8 0.11976961004306119 0 99.0 0.11976961004306119 1
gene  1 6 8 0.28507524100963266 0 103.0 0.28507524100963266 1
gene  1 8 8 0.8641588084702605 1 105.0 0.8641588084702605 1
gene  1 9 8 -0.16191766761262816 1 106.0 -0.16191766761262816 1
gene  1 10 8 -6.864077088174664 1 107.0 -6.864077088174664 1
gene  1 11 8 -4.335858517693562 1 108.0 -4.335858517693562 1
gene  1 13 8 -0.25815676741203886 1 110.0 -0.25815676741203886 1
gene  1 14 8 -1.4549343979184726 1 111.0 -1.4549343979184726 1
gene  1 1 9 2.097049347221251 0 112.0 2.097049347221251 1
gene  1 2 9 -3.37715508482462 0 113.0 -3.37715508482462 1
gene  1 3 9 1.0177141772388696 0 114.0 1.0177141772388696 1
gene  1 6 9 0.05108881634819862 0 117.0 0.05108881634819862 1
gene  1 7 9 0.5808588552175857 0 118.0 0.5808588552175857 1
gene  1 8 9 1.7595587256382843 0 119.0 1.7595587256382843 1
gene  1 9 9 -1.3397778604027795 1 120.0 -1.3397778604027795 1
gene  1 11 9 -4.808968253924075 1 122.0 -4.808968253924075 1
gene  1 13 9 3.871267903628213 1 124.0 3.871267903628213 1
gene  1 14 9 1.051033917547729 1 125.0 1.051033917547729 1
gene  1 1 10 -3.0626009650845214 0 126.0 -3.0626009650845214 1
gene  1 3 10 -0.17447128511194876 0 128.0 -0.17447128511194876 1
gene  1 4 10 -1.2415709259622028 0 129.0 -1.2415709259622028 1
gene  1 5 10 -3.450937350607344 0 130.0 -3.450937350607344 1
gene  1 6 10 2.449231534999652 0 131.0 2.449231534999652 1
gene  1 10 10 -3.030430702987572 1 135.0 -3.030430702987572 1
gene  1 11 10 1.7794537735376608 1 136.0 1.7794537735376608 1
gene  1 14 10 -5.687729054642942 1 139.0 -5.687729054642942 1
gene  1 1 11 4.684406986371207 0 140.0 4.684406986371207 1
gene  1 3 11 -0.5710105584120921 0 142.0 -0.5710105584120921 1
gene  1 5 11 -0.3550446766307741 0 144.0 -0.3550446766307741 1
gene  1 6 11 -5.933097787469265 0 145.0 -5.933097787469265 1
gene  1 7 11 -1.0825505515480365 0 146.0 -1.0825505515480365 1
gene  1 8 11 -0.17334871381393313 0 147.0 -0.17334871381393313 1
gene  1 9 11 -1.2684167686616983 0 148.0 -1.2684167686616983 1
gene  1 10 11 -6.004320034874856 0 149.0 -6.004320034874856 1
gene  1 11 11 -15.530547260754428 1 150.0 -15.530547260754428 1
gene  1 1 13 4.190367195735288 0 168.0 4.190367195735288 1
gene  1 2 13 2.7191756465143553 0 169.0 2.7191756465143553 1
gene  1 3 13 1.8060144331337435 0 170.0 1.8060144331337435 1
gene  1 7 13 0.6798576407826671 0 174.0 0.6798576407826671 1
gene  1 11 13 1.3930398772703834 0 178.0 1.3930398772703834 1
gene  1 13 13 -2.6134353694174526 1 180.0 -2.6134353694174526 1
gene  1 2 14 1.9829705541201177 0 183.0 1.9829705541201177 1
gene  1 3 14 -2.0229555985473446 0 184.0 -2.0229555985473446 1
gene  1 4 14 0.4318053083908798 0 185.0 0.4318053083908798 1
gene  1 7 14 3.115936668835049 0 188.0 3.115936668835049 1
gene  1 8 14 2.0323222310561873 0 189.0 2.0323222310561873 1
gene  1 10 14 1.6809523141917782 0 191.0 1.6809523141917782 1
gene  1 13 14 -2.2080469568081615 0 194.0 -2.2080469568081615 1
gene  1 5 13 -1.844642468848484 0 198.0 -1.844642468848484 1
gene  1 4 9 1.2651299158091236 0 200.0 1.2651299158091236 1
gene  1 8 13 -1.6096987364184803 0 248.0 -1.6096987364184803 1
gene  1 7 10 2.038845561571193 0 270.0 2.038845561571193 1
gene  1 9 10 3.173628668755997 0 274.0 3.173628668755997 1
gene  1 9 13 -1.5139936246255998 0 288.0 -1.5139936246255998 1
genomeend 5
genomestart  6
trait 1 0.9658100958370718 0.21357948226159307 1.7535517816909252 0.0 0.0 2.076285480926863 0.7279373662985449 0.0 
node 1 1 1 1
node 2 1 1 1
node 3 1 1 1
node 4 1 1 1
node 5 1 1 1
node 6 1 1 1
node 7 1 1 3
node 8 1 0 0
node 9 1 0 0
node 10 1 0 0
node 11 1 0 0
node 13 1 0 2
node 14 1 0 2
gene  1 2 8 2.639905388174363 0 99.0 2.639905388174363 1
gene  1 6 8 -0.11647255095123721 0 103.0 -0.11647255095123721 1
gene  1 8 8 -1.1057894622157654 1 105.0 -1.1057894622157654 1
gene  1 9 8 -1.8330316006277987 1 106.0 -1.8330316006277987 1
gene  1 10 8 -4.64252528508018 1 107.0 -4.64252528508018 1
gene  1 11 8 -5.007108207302673 1 108.0 -5.007108207302673 1
gene  1 13 8 0.11589516031151881 1 110.0 0.11589516031151881 1
gene  1 14 8 -1.8795548344672988 1 111.0 -1.8795548344672988 1
gene  1 1 9 2.509304779915064 0 112.0 2.509304779915064 1
gene  1 2 9 -1.1109769943215952 0 113.0 -1.1109769943215952 1
gene  1 3 9 3.0602166627074743 0 114.0 3.0602166627074743 1
gene  1 6 9 0.6890451669879438 0 117.0 0.6890451669879438 1
gene  1 7 9 2.311391759654981 0 118.0 2.311391759654981 1
gene  1 8 9 2.1746024107673656 0 119.0 2.1746024107673656 1
gene  1 9 9 -0.6546917747947334 1 120.0 -0.6546917747947334 1
gene  1 11 9 -6.266127066443137 1 122.0 -6.266127066443137 1
gene  1 13 9 3.3571628316645503 1 124.0 3.3571628316645503 1
gene  1 14 9 2.26388888694859 1 125.0 2.26388888694859 1
gene  1 1 10 -4.635996963152682 0 126.0 -4.635996963152682 1
gene  1 3 10 -0.9203447847942758 0 128.0 -0.9203447847942758 1
gene  1 4 10 -1.4760149062870045 0 129.0 -1.4760149062870045 1
gene  1 5 10 -1.3910031479269678 0 130.0 -1.3910031479269678 1
gene  1 6 10 -0.24477118021172778 0 131.0 -0.24477118021172778 1
gene  1 10 10 -0.1017990770110272 1 135.0 -0.1017990770110272 1
gene  1 11 10 -1.691439036899246 1 136.0 -1.691439036899246 1
gene  1 14 10 -4.743991181592957 1 139.0 -4.743991181592957 1
gene  1 1 11 2.83922378151284 0 140.0 2.83922378151284 1
gene  1 3 11 -1.2984147694535988 0 142.0 -1.2984147694535988 1
gene  1 5 11 1.665966178404294 0 144.0 1.665966178404294 1
gene  1 6 11 -0.9599609520147425 0 145.0 -0.9599609520147425 1
gene  1 7 11 0.8959052437202629 0 146.0 0.8959052437202629 1
gene  1 8 11 -0.505866082876536 0 147.0 -0.505866082876536 1
gene  1 9 11 0.7589131148230381 0 148.0 0.7589131148230381 1
gene  1 10 11 -5.908541840195916 0 149.0 -5.908541840195916 1
gene  1 11 11 0.4045332336744792 1 150.0 0.4045332336744792 1
gene  1 1 13 0.710188921727406 0 168.0 0.710188921727406 1
gene  1 2 13 1.7138428351494381 0 169.0 1.7138428351494381 1
gene  1 3 13 -0.6042644433180338 0 170.0 -0.6042644433180338 1
gene  1 7 13 1.6398609481238178 0 174.0 1.6398609481238178 1
gene  1 11 13 -0.11137212371597621 0 178.0 -0.11137212371597621 1
gene  1 13 13 -4.087121782366509 1 180.0 -4.087121782366509 1
gene  1 2 14 2.375425030914883 0 183.0 2.375425030914883 1
gene  1 3 14 0.3767925358562718 0 184.0 0.3767925358562718 1
gene  1 4 14 2.5063298614473553 0 185.0 2.5063298614473553 1
gene  1 7 14 2.589213577007509 0 188.0 2.589213577007509 1
gene  1 8 14 -1.761700616293775 0 189.0 -1.761700616293775 1
gene  1 10 14 2.031738615195952 0 191.0 2.031738615195952 1
gene  1 13 14 1.9615440887378341 0 194.0 1.9615440887378341 1
gene  1 5 13 -1.844642468848484 0 198.0 -1.844642468848484 1
gene  1 4 9 -2.690996661759765 0 200.0 -2.690996661759765 1
gene  1 8 13 -8.458024814664082 0 248.0 -8.458024814664082 1
gene  1 7 10 0.10543543177257886 0 270.0 0.10543543177257886 1
gene  1 9 10 2.329086230361169 0 274.0 2.329086230361169 1
gene  1 9 13 0.38414656878483333 0 288.0 0.38414656878483333 1
genomeend 6
genomestart  7
trait 1 0.9094479393069818 0.0 0.18125169842722821 0.0 1.363566452656893 0.20991346759087715 0.04208433817433466 0.03711240661335824 
node 1 1 1 1
node 2 1 1 1
node 3 1 1 1
node 4 1 1 1
node 5 1 1 1
node 6 1 1 1
node 7 1 1 3
node 8 1 0 0
node 13 1 0 2
node 14 1 0 2
node 16 1 0 0
node 20 1 0 0
gene  1 1 8 1.8536974677135132 0 98.0 1.8536974677135132 1
gene  1 2 8 -0.45061655828791786 0 99.0 -0.45061655828791786 1
gene  1 3 8 1.0006734647734359 0 100.0 1.0006734647734359 1
gene  1 4 8 -2.5990836103601316 0 101.0 -2.5990836103601316 1
gene  1 5 8 2.011058297498326 0 102.0 2.011058297498326 1
gene  1 6 8 -8.375771047086676 0 103.0 -8.375771047086676 1
gene  1 8 8 -4.204460030741494 1 105.0 -4.204460030741494 1
gene  1 13 8 -8.41921550282484 1 110.0 -8.41921550282484 1
gene  1 14 8 1.8761419167746685 1 111.0 1.8761419167746685 1
gene  1 3 13 5.9567974220229285 0 170.0 5.9567974220229285 1
gene  1 5 13 -4.706397973464243 0 172.0 -4.706397973464243 1
gene  1 7 13 2.6368139547672946 0 174.0 2.6368139547672946 1
gene  1 13 13 -1.9275758025715017 1 180.0 -1.9275758025715017 1
gene  1 2 14 3.4979423115919674 0 183.0 3.4979423115919674 1
gene  1 4 14 -2.0440716922308937 0 185.0 -2.0440716922308937 1
gene  1 6 14 2.1835289482995015 0 187.0 2.1835289482995015 1
gene  1 8 14 2.985118362385266 0 189.0 2.985118362385266 1
gene  1 13 14 -4.852876151490726 0 194.0 -4.852876151490726 1
gene  1 13 16 2.398042738713378 0 201.0 2.398042738713378 1
gene  1 16 14 0.6069632910846006 0 202.0 0.6069632910846006 1
gene  1 3 20 2.318062900955752 0 215.0 2.318062900955752 1
gene  1 20 8 1.1038602593896911 0 216.0 1.1038602593896911 1
gene  1 8 13 -0.00755318360482482 0 233.0 -0.00755318360482482 1
genomeend 7
genomestart  8
trait 1 0.9094479393069818 0.0 0.18125169842722821 0.0 1.363566452656893 0.20991346759087715 0.04208433817433466 0.03711240661335824 
node 1 1 1 1
node 2 1 1 1
node 3 1 1 1
node 4 1 1 1
node 5 1 1 1
node 6 1 1 1
node 7 1 1 3
node 8 1 0 0
node 13 1 0 2
node 14 1 0 2
node 16 1 0 0
node 20 1 0 0
gene  1 1 8 4.754159438363283 0 98.0 4.754159438363283 1
gene  1 2 8 -1.5490787315473311 0 99.0 -1.5490787315473311 1
gene  1 3 8 -3.4289910719426455 0 100.0 -3.4289910719426455 1
gene  1 4 8 -4.789756581689662 0 101.0 -4.789756581689662 1
gene  1 5 8 -5.849192258188852 0 102.0 -5.849192258188852 1
gene  1 6 8 -7.160653829256486 0 103.0 -7.160653829256486 1
gene  1 8 8 -2.107923017417072 1 105.0 -2.107923017417072 1
gene  1 13 8 -8.158902941155516 1 110.0 -8.158902941155516 1
gene  1 14 8 -0.4343145035775926 1 111.0 -0.4343145035775926 1
gene  1 3 13 9.510972057377266 0 170.0 9.510972057377266 1
gene  1 5 13 -2.739302502444507 0 172.0 -2.739302502444507 1
gene  1 7 13 2.3885835527923667 0 174.0 2.3885835527923667 1
gene  1 13 13 -1.537980029084775 1 180.0 -1.537980029084775 1
gene  1 2 14 3.548391304145723 0 183.0 3.548391304145723 1
gene  1 4 14 -1.3903560346941033 0 185.0 -1.3903560346941033 1
gene  1 6 14 2.8416312120013263 0 187.0 2.8416312120013263 1
gene  1 8 14 2.636157753954955 0 189.0 2.636157753954955 1
gene  1 13 14 -8.635490306762353 0 194.0 -8.635490306762353 1
gene  1 13 16 7.046449070414705 0 201.0 7.046449070414705 1
gene  1 16 14 -1.3453206222271954 0 202.0 -1.3453206222271954 1
gene  1 3 20 6.018673976147356 0 215.0 6.018673976147356 1
gene  1 20 8 1.1038602593896911 0 216.0 1.1038602593896911 1
gene  1 8 13 0.9446284521027055 0 233.0 0.9446284521027055 1
genomeend 8
genomestart  9
trait 1 0.9094479393069818 0.0 0.18125169842722821 0.0 1.363566452656893 0.24620015913751225 0.04208433817433466 0.03711240661335824 
node 1 1 1 1
node 2 1 1 1
node 3 1 1 1
node 4 1 1 1
node 5 1 1 1
node 6 1 1 1
node 7 1 1 3
node 8 1 0 0
node 13 1 0 2
node 14 1 0 2
node 16 1 0 0
node 20 1 0 0
gene  1 1 8 4.387527328758438 0 98.0 4.387527328758438 1
gene  1 2 8 -1.7220887494293107 0 99.0 -1.7220887494293107 1
gene  1 3 8 0.4701715281990162 0 100.0 0.4701715281990162 1
gene  1 4 8 -2.7884783194307508 0 101.0 -2.7884783194307508 1
gene  1 5 8 -1.39840616594376 0 102.0 -1.39840616594376 1
gene  1 6 8 -7.755642617590892 0 103.0 -7.755642617590892 1
gene  1 8 8 -2.224319587664824 1 105.0 -2.224319587664824 1
gene  1 13 8 -9.273377666558424 1 110.0 -9.273377666558424 1
gene  1 14 8 0.14136513566918518 1 111.0 0.14136513566918518 1
gene  1 3 13 7.313545959778331 0 170.0 7.313545959778331 1
gene  1 5 13 -0.5677193778694858 0 172.0 -0.5677193778694858 1
gene  1 7 13 5.335248091662934 0 174.0 5.335248091662934 1
gene  1 13 13 -2.2918109199826064 1 180.0 -2.2918109199826064 1
gene  1 2 14 1.325661929426401 0 183.0 1.325661929426401 1
gene  1 4 14 -3.201517294486102 0 185.0 -3.201517294486102 1
gene  1 6 14 0.8360730590424548 0 187.0 0.8360730590424548 1
gene  1 8 14 -0.9982417800136458 0 189.0 -0.9982417800136458 1
gene  1 13 14 2.4260611487812516 0 194.0 2.4260611487812516 1
gene  1 13 16 4.861570370372172 0 201.0 4.861570370372172 1
gene  1 16 14 3.7700087488998966 0 202.0 3.7700087488998966 1
gene  1 3 20 3.201273925823701 0 215.0 3.201273925823701 1
gene  1 20 8 1.8488260643178702 0 216.0 1.8488260643178702 1
gene  1 8 13 -2.3257704860551764 0 233.0 -2.3257704860551764 1
genomeend 9
genomestart  10
trait 1 0.0 0.0 0.687885284225863 0.0 0.0 0.0 0.0 0.0 
node 1 1 1 1
node 2 1 1 1
node 3 1 1 1
node 4 1 1 1
node 5 1 1 1
node 6 1 1 1
node 7 1 1 3
node 8 1 0 0
node 9 1 0 0
node 10 1 0 0
node 13 1 0 2
node 14 1 0 2
node 21 1 0 0
node 29 1 0 0
gene  1 1 8 1.9163485083090663 0 98.0 1.9163485083090663 1
gene  1 3 8 2.4378811529159705 0 100.0 2.4378811529159705 1
gene  1 5 8 -3.410121483483068 0 102.0 -3.410121483483068 1
gene  1 6 8 1.07514952600319 0 103.0 1.07514952600319 1
gene  1 8 8 1.1372621442667221 1 105.0 1.1372621442667221 1
gene  1 1 9 1.4749127658713463 0 112.0 1.4749127658713463 1
gene  1 2 9 5.449878466594815 0 113.0 5.449878466594815 1
gene  1 3 9 1.8403860706427793 0 114.0 1.8403860706427793 1
gene  1 5 9 7.776610776283582 0 116.0 7.776610776283582 1
gene  1 7 9 -12.277514533056952 0 118.0 -12.277514533056952 1
gene  1 9 9 0.969420992285108 1 120.0 0.969420992285108 1
gene  1 10 9 12.776462138397411 1 121.0 12.776462138397411 1
gene  1 13 9 2.9357034453398567 1 124.0 2.9357034453398567 1
gene  1 2 10 -1.2082906179518942 0 127.0 -1.2082906179518942 1
gene  1 4 10 1.7123773166201985 0 129.0 1.7123773166201985 1
gene  1 5 10 8.664001427324756 0 130.0 8.664001427324756 1
gene  1 8 10 10.271291109090585 0 133.0 10.271291109090585 1
gene  1 9 10 -11.977938697951089 0 134.0 -11.977938697951089 1
gene  1 10 10 1.5668316940919045 1 135.0 1.5668316940919045 1
gene  1 13 10 -10.768966151217285 1 138.0 -10.768966151217285 1
gene  1 14 10 5.206508189218308 1 139.0 5.206508189218308 1
gene  1 2 13 1.7729652665022075 0 169.0 1.7729652665022075 1
gene  1 3 13 -11.280823999711181 0 170.0 -11.280823999711181 1
gene  1 6 13 -5.380857614918927 0 173.0 -5.380857614918927 1
gene  1 7 13 1.3521194060514479 0 174.0 1.3521194060514479 1
gene  1 9 13 -1.7229692396432514 0 176.0 -1.7229692396432514 1
gene  1 13 13 3.3678216397678153 1 180.0 3.3678216397678153 1
gene  1 14 13 -7.567309222066854 1 181.0 -7.567309222066854 1
gene  1 1 14 -5.667854363307467 0 182.0 -5.667854363307467 1
gene  1 3 14 0.9815324056297771 0 184.0 0.9815324056297771 1
gene  1 9 14 -4.013371190661207 0 190.0 -4.013371190661207 1
gene  1 10 14 -1.7501220405787346 0 191.0 -1.7501220405787346 1
gene  1 1 21 1.5049422699057606 0 218.0 1.5049422699057606 1
gene  1 21 8 1.9204265470063153 0 219.0 1.9204265470063153 1
gene  1 3 10 -0.6545099962786788 0 223.0 -0.6545099962786788 1
gene  1 6 29 -2.1681171160494253 0 259.0 -2.1681171160494253 1
gene  1 29 8 -2.4999139372119483 0 260.0 -2.4999139372119483 1
gene  1 29 21 1.4677234271749775 0 271.0 1.4677234271749775 1
gene  1 3 21 2.371940680448387 0 300.0 2.371940680448387 1
genomeend 10
genomestart  11
trait 1 0.0 0.0 0.687885284225863 0.0 0.0 0.0 0.0 0.0 
node 1 1 1 1
node 2 1 1 1
node 3 1 1 1
node 4 1 1 1
node 5 1 1 1
node 6 1 1 1
node 7 1 1 3
node 8 1 0 0
node 9 1 0 0
node 10 1 0 0
node 13 1 0 2
node 14 1 0 2
node 21 1 0 0
node 29 1 0 0
gene  1 1 8 0.8952817566657314 0 98.0 0.8952817566657314 1
gene  1 3 8 0.22658807173484313 0 100.0 0.22658807173484313 1
gene  1 5 8 -4.645500672518205 0 102.0 -4.645500672518205 1
gene  1 6 8 3.365227457640525 0 103.0 3.365227457640525 1
gene  1 8 8 0.5948547146984331 1 105.0 0.5948547146984331 1
gene  1 1 9 2.6506916932285978 0 112.0 2.6506916932285978 1
gene  1 2 9 5.8747293267847045 0 113.0 5.8747293267847045 1
gene  1 3 9 1.606552920964854 0 114.0 1.606552920964854 1
gene  1 5 9 7.079096411413239 0 116.0 7.079096411413239 1
gene  1 7 9 -12.348354989165024 0 118.0 -12.348354989165024 1
gene  1 9 9 0.6048118825547086 1 120.0 0.6048118825547086 1
gene  1 10 9 12.433557364497368 1 121.0 12.433557364497368 1
gene  1 13 9 2.934151921582561 1 124.0 2.934151921582561 1
gene  1 2 10 -2.272130033546776 0 127.0 -2.272130033546776 1
gene  1 4 10 4.156577119151272 0 129.0 4.156577119151272 1
gene  1 5 10 8.131116301915618 0 130.0 8.131116301915618 1
gene  1 8 10 8.397507789872035 0 133.0 8.397507789872035 1
gene  1 9 10 -9.925147136020168 0 134.0 -9.925147136020168 1
gene  1 10 10 -0.395852716591 1 135.0 -0.395852716591 1
gene  1 13 10 -9.30714689148396 1 138.0 -9.30714689148396 1
gene  1 14 10 6.751034998120531 1 139.0 6.751034998120531 1
gene  1 2 13 -0.2397904210786711 0 169.0 -0.2397904210786711 1
gene  1 3 13 -11.274609555646323 0 170.0 -11.274609555646323 1
gene  1 6 13 -5.289341024627389 0 173.0 -5.289341024627389 1
gene  1 7 13 -0.6422593587431182 0 174.0 -0.6422593587431182 1
gene  1 9 13 -1.3449853650996282 0 176.0 -1.3449853650996282 1
gene  1 13 13 5.746617039144732 1 180.0 5.746617039144732 1
gene  1 14 13 -5.293392109356109 1 181.0 -5.293392109356109 1
gene  1 1 14 -5.5425677220275515 0 182.0 -5.5425677220275515 1
gene  1 3 14 -0.5648004126903093 0 184.0 -0.5648004126903093 1
gene  1 9 14 -3.5279306355246938 0 190.0 -3.5279306355246938 1
gene  1 10 14 -3.0593514376214417 0 191.0 -3.0593514376214417 1
gene  1 1 21 1.5049422699057606 0 218.0 1.5049422699057606 1
gene  1 21 8 1.9204265470063153 0 219.0 1.9204265470063153 1
gene  1 3 10 -4.6092180403426095 0 223.0 -4.6092180403426095 1
gene  1 6 29 -3.562009090079772 0 259.0 -3.562009090079772 1
gene  1 29 8 -0.34700200823080146 0 260.0 -0.34700200823080146 1
gene  1 29 21 1.4677234271749775 0 271.0 1.4677234271749775 1
gene  1 3 21 2.4221547803863483 0 300.0 2.4221547803863483 1
genomeend 11
genomestart  12
trait 1 0.0 0.0 0.687885284225863 0.0 0.0 0.0 0.0 0.0 
node 1 1 1 1
node 2 1 1 1
node 3 1 1 1
node 4 1 1 1
node 5 1 1 1
node 6 1 1 1
node 7 1 1 3
node 8 1 0 0
node 9 1 0 0
node 10 1 0 0
node 13 1 0 2
node 14 1 0 2
node 21 1 0 0
node 29 1 0 0
gene  1 1 8 2.3116050738417755 0 98.0 2.3116050738417755 1
gene  1 3 8 -1.6068691016772016 0 100.0 -1.6068691016772016 1
gene  1 5 8 -6.9619547814732385 0 102.0 -6.9619547814732385 1
gene  1 6 8 0.07305184513712704 0 103.0 0.07305184513712704 1
gene  1 8 8 -0.30745983640410324 1 105.0 -0.30745983640410324 1
gene  1 1 9 -2.071113346975043 0 112.0 -2.071113346975043 1
gene  1 2 9 7.004753879804177 0 113.0 7.004753879804177 1
gene  1 3 9 1.851554806607017 0 114.0 1.851554806607017 1
gene  1 5 9 6.069824108181789 0 116.0 6.069824108181789 1
gene  1 7 9 -14.26860520165687 0 118.0 -14.26860520165687 1
gene  1 9 9 -0.6822457835714923 1 120.0 -0.6822457835714923 1
gene  1 10 9 13.349567243952057 1 121.0 13.349567243952057 1
gene  1 13 9 4.304574775848057 1 124.0 4.304574775848057 1
gene  1 2 10 -2.5745901665131106 0 127.0 -2.5745901665131106 1
gene  1 4 10 2.0441520391893535 0 129.0 2.0441520391893535 1
gene  1 5 10 1.1299512933725155 0 130.0 1.1299512933725155 1
gene  1 8 10 0.43325208469634835 0 133.0 0.43325208469634835 1
gene  1 9 10 -9.919515077853386 0 134.0 -9.919515077853386 1
gene  1 10 10 -2.8189586990249462 1 135.0 -2.8189586990249462 1
gene  1 13 10 -1.9863746036484207 1 138.0 -1.9863746036484207 1
gene  1 14 10 6.751034998120531 1 139.0 6.751034998120531 1
gene  1 2 13 -1.3371991617561947 0 169.0 -1.3371991617561947 1
gene  1 3 13 -9.59725334780131 0 170.0 -9.59725334780131 1
gene  1 6 13 1.2287534037177048 0 173.0 1.2287534037177048 1
gene  1 7 13 0.3263217166185761 0 174.0 0.3263217166185761 1
gene  1 9 13 -2.460609245248813 0 176.0 -2.460609245248813 1
gene  1 13 13 6.303602858515659 1 180.0 6.303602858515659 1
gene  1 14 13 -5.385966169749644 1 181.0 -5.385966169749644 1
gene  1 1 14 2.4556326836630085 0 182.0 2.4556326836630085 1
gene  1 3 14 -0.9148492038112198 0 184.0 -0.9148492038112198 1
gene  1 9 14 -5.252856898536269 0 190.0 -5.252856898536269 1
gene  1 10 14 -2.6875088265472042 0 191.0 -2.6875088265472042 1
gene  1 1 21 2.4467287978144134 0 218.0 2.4467287978144134 1
gene  1 21 8 2.2610404307357577 0 219.0 2.2610404307357577 1
gene  1 3 10 0.055803958472395165 0 223.0 0.055803958472395165 1
gene  1 6 29 -4.9560665318811505 0 259.0 -4.9560665318811505 1
gene  1 29 8 -2.8180500860719038 0 260.0 -2.8180500860719038 1
gene  1 29 21 -0.42359899945851476 0 271.0 -0.42359899945851476 1
gene  1 3 21 0.8783524056762293 0 300.0 0.8783524056762293 1
genomeend 12
genomestart  13
trait 1 1.080830066389972 0.0 1.563145969794439 0.0 0.0 0.9629060889116104 0.2518745141043184 0.0 
node 1 1 1 1
node 2 1 1 1
node 3 1 1 1
node 4 1 1 1
node 5 1 1 1
node 6 1 1 1
node 7 1 1 3
node 13 1 0 2
node 14 1 0 2
node 42 1 0 0
gene  1 1 13 -3.185367746074933 0 168.0 -3.185367746074933 1
gene  1 2 13 1.491130835499138 0 169.0 1.491130835499138 0
gene  1 3 13 -3.5072242809732783 0 170.0 -3.5072242809732783 1
gene  1 4 13 0.8598259650737143 0 171.0 0.8598259650737143 1
gene  1 5 13 2.9415812802909276 0 172.0 2.9415812802909276 1
gene  1 6 13 -3.880926409985755 0 173.0 -3.880926409985755 1
gene  1 7 13 1.9616995118835945 0 174.0 1.9616995118835945 1
gene  1 14 13 2.2986938532834866 1 181.0 2.2986938532834866 1
gene  1 1 14 -7.423793137523024 0 182.0 -7.423793137523024 1
gene  1 2 14 8.67255356430689 0 183.0 8.67255356430689 1
gene  1 3 14 -2.1484742639680743 0 184.0 -2.1484742639680743 1
gene  1 13 14 0.05257675130273132 0 194.0 0.05257675130273132 1
gene  1 14 14 -0.5377915709742345 1 195.0 -0.5377915709742345 1
gene  1 6 14 3.9417729966475936 0 230.0 3.9417729966475936 1
gene  1 4 14 -0.9132170358151175 0 312.0 -0.9132170358151175 1
gene  1 2 42 1.0 0 320.0 0.0 1
gene  1 42 13 1.491130835499138 0 321.0 0.0 1
genomeend 13
genomestart  14
trait 1 0.7543954501876767 0.0 0.0 0.0 0.0 0.7506659743992431 0.6528869165846171 0.760618498603839 
node 1 1 1 1
node 2 1 1 1
node 3 1 1 1
node 4 1 1 1
node 5 1 1 1
node 6 1 1 1
node 7 1 1 3
node 8 1 0 0
node 13 1 0 2
node 14 1 0 2
gene  1 4 8 -4.740514425711107 0 101.0 -4.740514425711107 1
gene  1 5 8 -2.8510356980717146 0 102.0 -2.8510356980717146 1
gene  1 6 8 0.17440486341762895 0 103.0 0.17440486341762895 1
gene  1 14 8 6.829896666255324 1 111.0 6.829896666255324 1
gene  1 1 13 4.187818233921435 0 168.0 4.187818233921435 1
gene  1 2 13 -1.6404986018903738 0 169.0 -1.6404986018903738 1
gene  1 3 13 2.4420644199000967 0 170.0 2.4420644199000967 1
gene  1 5 13 8.819287608128173 0 172.0 8.819287608128173 1
gene  1 7 13 0.6954131422430163 0 174.0 0.6954131422430163 1
gene  1 14 13 1.1745824067802413 1 181.0 1.1745824067802413 1
gene  1 1 14 2.2412673321511036 0 182.0 2.2412673321511036 1
gene  1 2 14 -2.2871575885887534 0 183.0 -2.2871575885887534 1
gene  1 3 14 -7.670919536530379 0 184.0 -7.670919536530379 1
gene  1 4 14 1.1799132463218163 0 185.0 1.1799132463218163 1
gene  1 8 14 -2.965613746630029 0 189.0 -2.965613746630029 1
gene  1 14 14 -2.6512478721854853 1 195.0 -2.6512478721854853 1
gene  1 6 14 -0.04039645945814829 0 240.0 -0.04039645945814829 1
gene  1 8 13 1.8971395450124087 0 311.0 1.8971395450124087 1
gene  1 14 13 7.357089778002487 0 322.0 7.357089778002487 1
genomeend 14
genomestart  15
trait 1 0.7543954501876767 0.0 0.0 0.0 0.0 0.7506659743992431 0.5961084601440818 0.760618498603839 
node 1 1 1 1
node 2 1 1 1
node 3 1 1 1
node 4 1 1 1
node 5 1 1 1
node 6 1 1 1
node 7 1 1 3
node 8 1 0 0
node 13 1 0 2
node 14 1 0 2
gene  1 4 8 -5.112732194000626 0 101.0 -5.112732194000626 1
gene  1 5 8 -1.1403512814661558 0 102.0 -1.1403512814661558 1
gene  1 6 8 1.0928367894932207 0 103.0 1.0928367894932207 1
gene  1 14 8 5.695435985720954 1 111.0 5.695435985720954 1
gene  1 1 13 5.812316187043273 0 168.0 5.812316187043273 1
gene  1 2 13 0.08988365881362359 0 169.0 0.08988365881362359 1
gene  1 3 13 2.9120596083325956 0 170.0 2.9120596083325956 1
gene  1 5 13 10.81779838310643 0 172.0 10.81779838310643 1
gene  1 7 13 0.09916366332733717 0 174.0 0.09916366332733717 1
gene  1 14 13 3.124213943423535 1 181.0 3.124213943423535 1
gene  1 1 14 0.4245441282066702 0 182.0 0.4245441282066702 1
gene  1 2 14 -2.911290079045939 0 183.0 -2.911290079045939 1
gene  1 3 14 -7.728028267787198 0 184.0 -7.728028267787198 1
gene  1 4 14 -0.9044270638296816 0 185.0 -0.9044270638296816 1
gene  1 8 14 -1.644547496936294 0 189.0 -1.644547496936294 1
gene  1 14 14 -2.6512478721854853 1 195.0 -2.6512478721854853 1
gene  1 6 14 -0.14435599668318283 0 240.0 -0.14435599668318283 1
gene  1 8 13 2.1463466635236745 0 311.0 2.1463466635236745 1
genomeend 15
genomestart  16
trait 1 0.7543954501876767 0.0 0.0 0.0 0.0 0.7506659743992431 0.6528869165846171 0.760618498603839 
node 1 1 1 1
node 2 1 1 1
node 3 1 1 1
node 4 1 1 1
node 5 1 1 1
node 6 1 1 1
node 7 1 1 3
node 8 1 0 0
node 13 1 0 2
node 14 1 0 2
gene  1 4 8 -3.9092906110633105 0 101.0 -3.9092906110633105 1
gene  1 5 8 -2.8302465043292675 0 102.0 -2.8302465043292675 1
gene  1 6 8 -1.5939589766842375 0 103.0 -1.5939589766842375 1
gene  1 14 8 5.5119133148448665 1 111.0 5.5119133148448665 1
gene  1 1 13 5.43392586347581 0 168.0 5.43392586347581 1
gene  1 2 13 -2.207548307631281 0 169.0 -2.207548307631281 1
gene  1 3 13 2.4420644199000967 0 170.0 2.4420644199000967 1
gene  1 5 13 10.495843913400662 0 172.0 10.495843913400662 1
gene  1 7 13 0.6954131422430163 0 174.0 0.6954131422430163 1
gene  1 14 13 0.9745991643429472 1 181.0 0.9745991643429472 1
gene  1 1 14 0.41019677454942993 0 182.0 0.41019677454942993 1
gene  1 2 14 -3.993225799174821 0 183.0 -3.993225799174821 1
gene  1 3 14 -7.0600074493448615 0 184.0 -7.0600074493448615 1
gene  1 4 14 1.3144376824719815 0 185.0 1.3144376824719815 1
gene  1 8 14 2.4699191254647697 0 189.0 2.4699191254647697 1
gene  1 14 14 -0.3648375346017785 1 195.0 -0.3648375346017785 1
gene  1 6 14 -0.04039645945814829 0 240.0 -0.04039645945814829 1
gene  1 8 13 -1.3708858830506991 0 311.0 -1.3708858830506991 1
genomeend 16
genomestart  17
trait 1 0.8225567813410785 1.2140246672840036 0.7816155317589891 0.49951333318806035 0.760472394127403 0.9742749841765682 0.16709809669901776 0.20144182840303793 
node 1 1 1 1
node 2 1 1 1
node 3 1 1 1
node 4 1 1 1
node 5 1 1 1
node 6 1 1 1
node 7 1 1 3
node 8 1 0 0
node 9 1 0 0
node 10 1 0 0
node 11 1 0 0
node 12 1 0 0
node 13 1 0 2
node 14 1 0 2
node 27 1 0 0
node 34 1 0 0
node 40 1 0 0
gene  1 1 8 -3.039818916869046 0 98.0 -3.039818916869046 1
gene  1 3 8 15.62765244520383 0 100.0 15.62765244520383 1
gene  1 4 8 -0.22789373528494428 0 101.0 -0.22789373528494428 1
gene  1 6 8 0.11758033292408959 0 103.0 0.11758033292408959 1
gene  1 8 8 0.3892082987881491 1 105.0 0.3892082987881491 0
gene  1 10 8 5.207509767219515 1 107.0 5.207509767219515 1
gene  1 3 9 -5.5713735785387914 0 114.0 -5.5713735785387914 1
gene  1 6 9 3.447939899065587 0 117.0 3.447939899065587 1
gene  1 8 9 -1.4213889109603324 0 119.0 -1.4213889109603324 1
gene  1 10 9 -3.761051955825973 1 121.0 -3.761051955825973 1
gene  1 11 9 4.212396716543267 1 122.0 4.212396716543267 1
gene  1 13 9 1.5166741278238005 1 124.0 1.5166741278238005 1
gene  1 14 9 2.251137458709755 1 125.0 2.251137458709755 1
gene  1 1 10 0.344635008903764 0 126.0 0.344635008903764 1
gene  1 3 10 -0.10574870935111252 0 128.0 -0.10574870935111252 1
gene  1 4 10 -5.832816352676066 0 129.0 -5.832816352676066 1
gene  1 5 10 3.6197250392912776 0 130.0 3.6197250392912776 1
gene  1 9 10 9.813204262690165 0 134.0 9.813204262690165 1
gene  1 13 10 -6.768997475861668 1 138.0 -6.768997475861668 1
gene  1 1 11 3.021781037829584 0 140.0 3.021781037829584 1
gene  1 3 11 -6.192542142032028 0 142.0 -6.192542142032028 1
gene  1 5 11 -1.3646274283528652 0 144.0 -1.3646274283528652 1
gene  1 9 11 3.395246401242046 0 148.0 3.395246401242046 1
gene  1 10 11 -8.430902426807055 0 149.0 -8.430902426807055 1
gene  1 12 11 -1.122435228327244 1 151.0 -1.122435228327244 1
gene  1 14 11 -2.329452697478886 1 153.0 -2.329452697478886 1
gene  1 2 12 3.8467817862170106 0 155.0 3.8467817862170106 1
gene  1 4 12 -3.936345198909257 0 157.0 -3.936345198909257 1
gene  1 6 12 1.4687731506862938 0 159.0 1.4687731506862938 1
gene  1 7 12 -4.11709167741919 0 160.0 -4.11709167741919 1
gene  1 9 12 -1.2243952425243585 0 162.0 -1.2243952425243585 1
gene  1 10 12 0.8171672090427076 0 163.0 0.8171672090427076 1
gene  1 12 12 2.607001433593118 1 165.0 2.607001433593118 1
gene  1 14 12 -2.2639871331367063 1 167.0 -2.2639871331367063 1
gene  1 1 13 -2.4207677391672138 0 168.0 -2.4207677391672138 1
gene  1 3 13 -0.14126998822147657 0 170.0 -0.14126998822147657 1
gene  1 4 13 -1.3610725466145266 0 171.0 -1.3610725466145266 1
gene  1 6 13 7.788712626505296 0 173.0 7.788712626505296 1
gene  1 8 13 4.3011144936081225 0 175.0 4.3011144936081225 1
gene  1 9 13 0.610654434485999 0 176.0 0.610654434485999 1
gene  1 8 14 -1.347679060592626 0 189.0 -1.347679060592626 1
gene  1 11 14 -2.320012833831141 0 192.0 -2.320012833831141 1
gene  1 5 8 -4.262369336472526 0 235.0 -4.262369336472526 1
gene  1 1 27 -0.22778555377463927 0 241.0 -0.22778555377463927 1
gene  1 27 8 0.04531655000796081 0 242.0 0.04531655000796081 1
gene  1 9 34 -3.8954569288172403 0 272.0 -3.8954569288172403 1
gene  1 34 11 -0.6258938712865965 0 273.0 -0.6258938712865965 1
gene  1 5 13 -0.09264144971635568 0 277.0 -0.09264144971635568 1
gene  1 12 14 -0.2246129771240446 0 296.0 -0.2246129771240446 1
gene  1 8 40 -0.2402734432903661 1 308.0 -0.2402734432903661 1
gene  1 40 8 -1.989560547397531 0 309.0 -1.989560547397531 1
genomeend 17
genomestart  18
trait 1 0.8225567813410785 1.2140246672840036 0.7816155317589891 0.49951333318806035 0.760472394127403 0.9742749841765682 0.16709809669901776 0.20144182840303793 
node 1 1 1 1
node 2 1 1 1
node 3 1 1 1
node 4 1 1 1
node 5 1 1 1
node 6 1 1 1
node 7 1 1 3
node 8 1 0 0
node 9 1 0 0
node 10 1 0 0
node 11 1 0 0
node 12 1 0 0
node 13 1 0 2
node 14 1 0 2
node 27 1 0 0
node 34 1 0 0
node 40 1 0 0
gene  1 1 8 -1.584458325092938 0 98.0 -1.584458325092938 1
gene  1 3 8 13.276382171245235 0 100.0 13.276382171245235 1
gene  1 4 8 -1.5696979615883957 0 101.0 -1.5696979615883957 1
gene  1 6 8 3.3815987639847123 0 103.0 3.3815987639847123 1
gene  1 8 8 1.6148498740144643 1 105.0 1.6148498740144643 0
gene  1 10 8 8.929927629358836 1 107.0 8.929927629358836 1
gene  1 3 9 -4.510124030889935 0 114.0 -4.510124030889935 1
gene  1 6 9 3.4432750888071237 0 117.0 3.4432750888071237 1
gene  1 8 9 -0.31234258595909503 0 119.0 -0.31234258595909503 1
gene  1 10 9 -3.05018908424161 1 121.0 -3.05018908424161 1
gene  1 11 9 4.004536505525432 1 122.0 4.004536505525432 1
gene  1 13 9 1.3352943443480458 1 124.0 1.3352943443480458 1
gene  1 14 9 2.551453783357508 1 125.0 2.551453783357508 1
gene  1 1 10 -0.7202958104568663 0 126.0 -0.7202958104568663 1
gene  1 3 10 4.603250512198197 0 128.0 4.603250512198197 1
gene  1 4 10 -5.5959505640904705 0 129.0 -5.5959505640904705 1
gene  1 5 10 2.6664562358367254 0 130.0 2.6664562358367254 1
gene  1 9 10 9.194009225000364 0 134.0 9.194009225000364 1
gene  1 13 10 1.6063511746291712 1 138.0 1.6063511746291712 1
gene  1 1 11 -1.1102614877221082 0 140.0 -1.1102614877221082 1
gene  1 3 11 -4.706917052861968 0 142.0 -4.706917052861968 1
gene  1 5 11 -1.9719696201112549 0 144.0 -1.9719696201112549 1
gene  1 9 11 4.853719908740653 0 148.0 4.853719908740653 1
gene  1 10 11 -4.42711606300299 0 149.0 -4.42711606300299 1
gene  1 12 11 2.44682624297893 1 151.0 2.44682624297893 1
gene  1 14 11 -3.036527538061617 1 153.0 -3.036527538061617 1
gene  1 2 12 -0.1461465462586422 0 155.0 -0.1461465462586422 1
gene  1 4 12 -2.594459750093402 0 157.0 -2.594459750093402 1
gene  1 6 12 4.122851943525258 0 159.0 4.122851943525258 1
gene  1 7 12 -0.44088158039273045 0 160.0 -0.44088158039273045 1
gene  1 9 12 1.4900460894280645 0 162.0 1.4900460894280645 1
gene  1 10 12 -0.9165234829709307 0 163.0 -0.9165234829709307 1
gene  1 12 12 -1.858990217363275 1 165.0 -1.858990217363275 1
gene  1 14 12 -2.712881118447514 1 167.0 -2.712881118447514 1
gene  1 1 13 -0.2717975769386647 0 168.0 -0.2717975769386647 1
gene  1 3 13 -6.450842385557805 0 170.0 -6.450842385557805 1
gene  1 4 13 -1.017572626362098 0 171.0 -1.017572626362098 1
gene  1 6 13 6.712883545015613 0 173.0 6.712883545015613 1
gene  1 8 13 1.9696630673889433 0 175.0 1.9696630673889433 1
gene  1 9 13 4.171616606543999 0 176.0 4.171616606543999 1
gene  1 8 14 0.31899784925011765 0 189.0 0.31899784925011765 1
gene  1 11 14 -1.9747528184388807 0 192.0 -1.9747528184388807 1
gene  1 5 8 2.266898879457112 0 235.0 2.266898879457112 1
gene  1 1 27 1.3776862623639858 0 241.0 1.3776862623639858 1
gene  1 27 8 1.724592030549878 0 242.0 1.724592030549878 1
gene  1 9 34 1.8037548748442336 0 272.0 1.8037548748442336 1
gene  1 34 11 -2.9213023654711647 0 273.0 -2.9213023654711647 1
gene  1 5 13 3.9938512187238935 0 277.0 3.9938512187238935 1
gene  1 12 14 2.3896878708529536 0 296.0 2.3896878708529536 1
gene  1 8 40 1.9376670756072663 1 308.0 1.9376670756072663 1
gene  1 40 8 -4.115875023126243 0 309.0 -4.115875023126243 1
genomeend 18
genomestart  19
trait 1 0.8225567813410785 1.2140246672840036 0.7816155317589891 0.49951333318806035 0.760472394127403 0.9742749841765682 0.16709809669901776 0.20144182840303793 
node 1 1 1 1
node 2 1 1 1
node 3 1 1 1
node 4 1 1 1
node 5 1 1 1
node 6 1 1 1
node 7 1 1 3
node 8 1 0 0
node 9 1 0 0
node 10 1 0 0
node 11 1 0 0
node 12 1 0 0
node 13 1 0 2
node 14 1 0 2
node 27 1 0 0
node 34 1 0 0
node 40 1 0 0
gene  1 1 8 -2.098583089428244 0 98.0 -2.098583089428244 1
gene  1 3 8 11.823099501512154 0 100.0 11.823099501512154 1
gene  1 4 8 0.21933583260399225 0 101.0 0.21933583260399225 1
gene  1 6 8 -0.001537844708834335 0 103.0 -0.001537844708834335 1
gene  1 8 8 -1.2862224608767485 1 105.0 -1.2862224608767485 0
gene  1 10 8 7.8475970905650385 1 107.0 7.8475970905650385 1
gene  1 3 9 -2.152201409219486 0 114.0 -2.152201409219486 1
gene  1 6 9 5.341281975000652 0 117.0 5.341281975000652 1
gene  1 8 9 -1.2183139351059533 0 119.0 -1.2183139351059533 1
gene  1 10 9 -1.0612138511827107 1 121.0 -1.0612138511827107 1
gene  1 11 9 7.187122834394534 1 122.0 7.187122834394534 1
gene  1 13 9 3.2076776270123584 1 124.0 3.2076776270123584 1
gene  1 14 9 3.2877635431533285 1 125.0 3.2877635431533285 1
gene  1 1 10 -3.336274026299626 0 126.0 -3.336274026299626 1
gene  1 3 10 2.1789947145454667 0 128.0 2.1789947145454667 1
gene  1 4 10 -5.889044767196774 0 129.0 -5.889044767196774 1
gene  1 5 10 1.4027998461770625 0 130.0 1.4027998461770625 1
gene  1 9 10 6.898652721484723 0 134.0 6.898652721484723 1
gene  1 13 10 -7.272032452815448 1 138.0 -7.272032452815448 1
gene  1 1 11 -1.240602530338652 0 140.0 -1.240602530338652 1
gene  1 3 11 -3.1682678907446795 0 142.0 -3.1682678907446795 1
gene  1 5 11 -1.6602390520855614 0 144.0 -1.6602390520855614 1
gene  1 9 11 4.984722710764089 0 148.0 4.984722710764089 1
gene  1 10 11 -4.386792132119021 0 149.0 -4.386792132119021 1
gene  1 12 11 1.5947265271772222 1 151.0 1.5947265271772222 1
gene  1 14 11 -2.07261519990094 1 153.0 -2.07261519990094 1
gene  1 2 12 2.1897263113452397 0 155.0 2.1897263113452397 1
gene  1 4 12 -2.6197031186771573 0 157.0 -2.6197031186771573 1
gene  1 6 12 2.3965940885789103 0 159.0 2.3965940885789103 1
gene  1 7 12 -1.9075990067974835 0 160.0 -1.9075990067974835 1
gene  1 9 12 2.151427500983278 0 162.0 2.151427500983278 1
gene  1 10 12 0.03896213942631649 0 163.0 0.03896213942631649 1
gene  1 12 12 -1.916165795624283 1 165.0 -1.916165795624283 1
gene  1 14 12 -0.6269504553453076 1 167.0 -0.6269504553453076 1
gene  1 1 13 0.18356533094530736 0 168.0 0.18356533094530736 1
gene  1 3 13 -3.341456561595299 0 170.0 -3.341456561595299 1
gene  1 4 13 -1.4314047274819792 0 171.0 -1.4314047274819792 1
gene  1 6 13 4.370646898470049 0 173.0 4.370646898470049 1
gene  1 8 13 3.0170940809142426 0 175.0 3.0170940809142426 1
gene  1 9 13 4.972403080054204 0 176.0 4.972403080054204 1
gene  1 8 14 2.293118698834089 0 189.0 2.293118698834089 1
gene  1 11 14 2.33377816932034 0 192.0 2.33377816932034 1
gene  1 5 8 -2.1490995674320637 0 235.0 -2.1490995674320637 1
gene  1 1 27 -1.2558469721371535 0 241.0 -1.2558469721371535 1
gene  1 27 8 1.7622118840291272 0 242.0 1.7622118840291272 1
gene  1 9 34 -0.9099200147552899 0 272.0 -0.9099200147552899 1
gene  1 34 11 -0.7134272828928856 0 273.0 -0.7134272828928856 1
gene  1 5 13 1.9474527515864462 0 277.0 1.9474527515864462 1
gene  1 12 14 1.1096054173095014 0 296.0 1.1096054173095014 1
gene  1 8 40 0.7052162232414474 1 308.0 0.7052162232414474 1
gene  1 40 8 -2.2934686327223606 0 309.0 -2.2934686327223606 1
genomeend 19
